~o
<STREAMINFO> 1 39
<VECSIZE> 39<NULLD><MFCC_D_A_0><DIAGC>
~s "silst2"
<NUMMIXES> 2
<MIXTURE> 1 1.309906e-01
<MEAN> 39
 -8.057746e+00 4.248729e+00 9.625124e-01 1.678907e+00 -1.721577e+00 -4.961817e+00 -2.746922e+00 -9.245856e-01 -9.993005e-01 -6.350127e-01 -5.290331e-01 1.037342e+00 5.325610e+01 1.613113e-02 -6.224113e-02 -2.271352e-01 7.404760e-02 1.095108e-01 1.885232e-01 7.146575e-02 -4.090019e-03 4.023056e-03 -1.401547e-01 3.186788e-02 9.480956e-02 -2.716585e-01 3.044255e-03 -4.628215e-02 6.001911e-02 4.324218e-02 2.565636e-02 5.577553e-02 7.715955e-02 -2.931029e-02 -3.462781e-02 -4.216727e-02 -7.621403e-02 -7.435827e-02 -4.620543e-02
<VARIANCE> 39
 1.626507e+01 2.288278e+01 2.312466e+01 2.883159e+01 2.790423e+01 3.522368e+01 3.911088e+01 4.039434e+01 3.679559e+01 3.647865e+01 2.969247e+01 2.279480e+01 1.530806e+01 1.361573e+00 1.706210e+00 1.953894e+00 2.498393e+00 2.662541e+00 3.155849e+00 3.620387e+00 3.589649e+00 3.212931e+00 3.384464e+00 2.755219e+00 2.406355e+00 1.129598e+00 2.927320e-01 3.304370e-01 3.624254e-01 4.825485e-01 4.716817e-01 6.018600e-01 6.634753e-01 7.109346e-01 6.231790e-01 6.229416e-01 5.317599e-01 4.239975e-01 4.569328e-01
<GCONST> 1.170148e+02
<MIXTURE> 2 8.690114e-01
<MEAN> 39
 -1.955904e+01 -4.413211e-02 -1.493251e+00 2.122878e+00 4.491197e-01 1.420816e+00 -5.263366e-03 4.775704e-01 -3.533008e-01 7.829352e-02 -3.211645e-01 1.313031e-01 1.478014e+01 -1.897408e-03 -1.096984e-03 4.513580e-03 8.826862e-03 -4.165098e-03 -4.506453e-04 1.223478e-02 -1.020181e-02 -1.322043e-02 4.672647e-03 -3.898063e-04 -1.599602e-03 -6.980445e-04 1.354592e-03 1.978463e-03 -3.077349e-03 -2.534299e-03 -1.976273e-03 3.351845e-03 2.009400e-03 3.813612e-04 1.617156e-03 -1.677548e-03 -1.279172e-03 2.399951e-03 4.049165e-04
<VARIANCE> 39
 7.511302e-01 2.337256e+00 5.012761e+00 7.433739e+00 9.351345e+00 1.147119e+01 1.347199e+01 1.484287e+01 1.513773e+01 1.499751e+01 1.458987e+01 1.275592e+01 1.870390e+00 7.077651e-02 2.469867e-01 5.317049e-01 8.013762e-01 1.012289e+00 1.204190e+00 1.442648e+00 1.624765e+00 1.615244e+00 1.604191e+00 1.560215e+00 1.337685e+00 4.343553e-02 1.438311e-02 4.978184e-02 1.055929e-01 1.618646e-01 2.034317e-01 2.382718e-01 2.916879e-01 3.266924e-01 3.264783e-01 3.171403e-01 3.123682e-01 2.645994e-01 8.883170e-03
<GCONST> 6.563752e+01
~s "silst3"
<MEAN> 39
 -1.314495e+01 1.463014e+00 -1.165406e+00 1.310206e+00 -1.074797e+00 -1.436383e+00 -1.021409e+00 -7.898414e-01 -5.609621e-01 -7.360531e-01 -5.778372e-01 4.814761e-01 3.471836e+01 1.164172e-02 -7.540631e-02 -7.201239e-02 5.254379e-02 -3.243615e-02 -8.912081e-02 -7.753181e-02 1.246423e-01 -2.702085e-02 -1.539342e-01 1.162717e-03 -5.203104e-02 -2.889565e-02 3.742525e-02 7.751341e-02 7.123063e-02 6.155599e-02 3.682023e-02 -4.099985e-02 -4.986782e-04 -1.091376e-02 4.098472e-02 7.118386e-03 -1.553414e-02 -1.666865e-05 2.574426e-02
<VARIANCE> 39
 3.938262e+01 1.165368e+01 1.265753e+01 1.505631e+01 1.642943e+01 2.935733e+01 2.315439e+01 2.580017e+01 2.087904e+01 2.212617e+01 1.877321e+01 1.474861e+01 3.463524e+02 5.726963e+00 1.408904e+00 1.559102e+00 1.659498e+00 1.892104e+00 3.679054e+00 2.483433e+00 2.774683e+00 2.229414e+00 2.382699e+00 1.875610e+00 1.599444e+00 4.651030e+01 7.901756e-01 1.955287e-01 2.793474e-01 3.170538e-01 3.598903e-01 6.258566e-01 4.781646e-01 5.167891e-01 4.187129e-01 4.774671e-01 3.845571e-01 3.218924e-01 6.302330e+00
<GCONST> 1.177132e+02
~s "silst4"
<NUMMIXES> 2
<MIXTURE> 1 8.402340e-01
<MEAN> 39
 -7.009271e+00 4.389763e+00 2.156894e-01 1.581243e+00 -2.137839e+00 -4.731457e+00 -1.977590e+00 -2.201408e+00 -1.314662e-01 -5.895406e-01 -5.830805e-01 1.209865e+00 5.106859e+01 -4.623155e-03 6.252230e-03 -8.430677e-03 1.248124e-02 -3.427086e-03 2.362550e-02 2.282926e-02 -2.085987e-02 1.383425e-02 7.954956e-03 -1.185798e-02 -1.841088e-03 -2.018005e-02 -8.533083e-03 1.249284e-02 4.367429e-02 6.100998e-02 8.454692e-02 8.302066e-02 5.128964e-02 6.935632e-03 -5.220429e-02 -7.576824e-02 -7.634352e-02 -4.846863e-02 1.505892e-02
<VARIANCE> 39
 3.261089e+00 1.005530e+01 1.147127e+01 1.546419e+01 1.810437e+01 2.384851e+01 2.503384e+01 2.690809e+01 2.792516e+01 2.604272e+01 2.344876e+01 2.185032e+01 2.501448e+00 2.919143e-01 6.169775e-01 1.039837e+00 1.473437e+00 1.925841e+00 2.306154e+00 2.377609e+00 2.479630e+00 2.540289e+00 2.600573e+00 2.460172e+00 2.140423e+00 9.078468e-02 5.765297e-02 1.218662e-01 2.065506e-01 2.752777e-01 3.537742e-01 4.228957e-01 4.601334e-01 4.930317e-01 4.961270e-01 4.842414e-01 4.600770e-01 4.196027e-01 1.769390e-02
<GCONST> 9.148510e+01
<MIXTURE> 2 1.597318e-01
<MEAN> 39
 -8.043262e+00 3.600744e+00 1.356559e+00 4.664754e+00 2.094265e+00 -8.015604e-01 6.531730e-01 -1.195795e+00 -2.851314e+00 -4.797122e+00 -4.070198e+00 -7.310116e-01 4.989283e+01 -1.652904e-02 -7.624295e-04 -2.269838e-02 -2.649005e-02 -6.406908e-02 3.386524e-02 -2.027166e-02 -8.404742e-02 3.852298e-02 3.577457e-03 3.568881e-02 -1.600378e-02 -4.489780e-02 2.476584e-02 -5.014244e-02 -1.519582e-01 -3.315850e-01 -4.742413e-01 -4.538588e-01 -2.847106e-01 -1.471359e-02 2.815395e-01 4.479881e-01 4.167911e-01 2.444105e-01 6.095553e-02
<VARIANCE> 39
 1.478076e+01 1.788890e+01 1.544337e+01 1.786474e+01 1.923005e+01 2.661535e+01 2.870083e+01 3.251995e+01 3.098445e+01 3.037922e+01 2.615389e+01 2.187088e+01 8.002193e+01 3.865852e-01 7.007856e-01 1.003996e+00 1.457723e+00 1.790616e+00 2.263859e+00 2.535799e+00 2.478749e+00 2.668591e+00 2.732453e+00 2.483504e+00 2.117436e+00 1.681310e-01 1.070891e-01 1.582322e-01 2.058483e-01 2.846020e-01 3.321852e-01 4.215024e-01 5.112160e-01 5.350416e-01 5.098407e-01 5.334073e-01 4.717022e-01 4.134616e-01 9.500111e-02
<GCONST> 1.022386e+02
~h "b"
<BEGINHMM>
<NUMSTATES> 5
<STATE> 2
<NUMMIXES> 2
<MIXTURE> 1 3.415465e-01
<MEAN> 39
 4.382907e+00 3.722866e+00 1.184847e-01 5.815882e+00 -2.093899e+00 -5.570008e+00 -5.497027e+00 -1.228195e-01 6.390238e-01 1.251134e+00 3.150845e+00 -2.834265e+00 6.309804e+01 -1.002986e-01 1.583786e+00 4.215976e-01 2.120028e-01 2.101144e+00 1.097245e+00 8.001689e-01 -1.007286e+00 -5.857993e-01 9.017690e-01 7.243925e-02 -2.878748e-01 -2.150729e+00 -3.244733e-01 2.783851e-01 4.970901e-01 1.424975e-01 -7.274130e-02 2.332443e-01 4.957905e-01 -1.076486e-01 -1.963707e-01 -2.171227e-01 -4.173574e-01 2.412002e-03 -1.101747e-01
<VARIANCE> 39
 7.151020e+00 1.783021e+01 2.642854e+01 2.942489e+01 4.026253e+01 4.023345e+01 3.489035e+01 3.986410e+01 3.676558e+01 3.390039e+01 2.868767e+01 2.903893e+01 1.768137e+01 7.476746e-01 8.729699e-01 2.404965e+00 1.810348e+00 3.137494e+00 2.864609e+00 3.475983e+00 3.353229e+00 2.912540e+00 2.010973e+00 3.630882e+00 2.115022e+00 5.709915e-01 4.822871e-02 1.306428e-01 1.605431e-01 3.577285e-01 4.486050e-01 3.971375e-01 4.352515e-01 4.986564e-01 3.979575e-01 3.892535e-01 4.808478e-01 2.816194e-01 1.459394e-01
<GCONST> 1.065110e+02
<MIXTURE> 2 6.584541e-01
<MEAN> 39
 -8.801194e-01 9.575459e+00 5.819118e+00 8.752535e+00 2.676113e+00 -1.966532e+00 -5.799810e-02 -3.120452e+00 -1.793883e+00 3.027700e-01 -2.043622e+00 -1.977766e+00 5.507250e+01 9.524360e-03 9.313290e-01 1.075383e+00 7.329022e-01 5.614921e-01 3.494818e-01 2.515000e-01 -3.359171e-01 -3.651011e-01 -5.548181e-02 -6.617078e-01 -3.291013e-01 -4.295210e-01 2.563131e-02 -2.556249e-01 -2.114232e-01 -1.269701e-01 -3.122407e-01 -2.136795e-01 -1.705722e-01 8.607274e-02 1.132580e-01 -8.537060e-03 1.169378e-01 4.473167e-03 2.486838e-01
<VARIANCE> 39
 1.849130e+01 1.669207e+01 2.354225e+01 2.774804e+01 2.420659e+01 2.141351e+01 2.770618e+01 2.939177e+01 4.339883e+01 3.202562e+01 3.688749e+01 2.751083e+01 8.278997e+00 1.073151e+00 2.257519e+00 1.849695e+00 2.405738e+00 2.161544e+00 2.519406e+00 2.764921e+00 2.605735e+00 2.753883e+00 3.048934e+00 3.506542e+00 1.978054e+00 1.082458e+00 1.056778e-01 4.286160e-01 3.261809e-01 4.297397e-01 4.439534e-01 4.812211e-01 5.010711e-01 6.755517e-01 4.801853e-01 5.212480e-01 7.234752e-01 4.475527e-01 1.270645e-01
<GCONST> 1.110467e+02
<STATE> 3
<MEAN> 39
 3.825481e-01 1.175100e+01 7.481359e+00 8.661557e+00 2.465346e+00 -1.455704e+00 5.264776e-01 -2.756386e+00 -1.670097e+00 -2.277744e-01 -1.974043e+00 -1.882837e+00 5.447094e+01 -2.318567e-01 3.955401e-04 1.378055e-02 -1.035172e-01 8.459390e-02 1.273836e-01 1.182600e-01 2.275791e-01 1.710996e-01 -1.148781e-01 -7.604713e-02 1.316302e-01 -2.411836e-01 -3.831695e-02 -9.747077e-02 -7.229854e-02 -5.443347e-02 -3.257208e-02 -2.289907e-02 -2.073753e-02 6.957752e-03 2.733458e-02 3.378477e-02 4.913359e-02 1.171014e-02 4.884234e-02
<VARIANCE> 39
 5.472759e+00 6.346373e+00 1.118934e+01 1.871342e+01 1.788836e+01 2.475894e+01 2.562568e+01 2.776375e+01 3.260765e+01 2.829606e+01 2.069246e+01 2.135446e+01 4.226573e+00 1.958010e-01 4.129926e-01 6.970382e-01 1.223820e+00 1.456686e+00 1.524498e+00 1.796965e+00 1.800152e+00 1.965843e+00 1.882643e+00 1.851604e+00 1.819543e+00 9.386127e-02 3.711297e-02 8.345637e-02 1.574849e-01 2.505648e-01 2.793989e-01 3.070990e-01 3.623835e-01 3.182487e-01 3.636175e-01 3.785427e-01 3.633644e-01 3.533829e-01 3.059551e-02
<GCONST> 8.589672e+01
<STATE> 4
<NUMMIXES> 2
<MIXTURE> 1 4.396317e-01
<MEAN> 39
 -5.810340e+00 5.029104e+00 4.020695e+00 3.846744e+00 1.049424e+00 -1.364001e+00 -6.811571e-01 -1.497948e+00 -1.536163e-02 8.575949e-01 -1.413325e+00 -1.435274e+00 5.765132e+01 -4.532223e-01 -1.666056e+00 -9.883831e-01 -8.969455e-01 -1.097720e+00 -3.468127e-01 -9.066344e-01 5.094883e-01 2.554323e-01 3.002206e-01 4.315769e-01 -1.533005e-01 2.656677e+00 5.405018e-01 3.384072e-01 -1.198139e-01 1.520264e-01 -2.114551e-01 -1.501224e-01 -1.567349e-01 4.441250e-02 2.925381e-02 -2.779286e-02 1.881992e-01 -3.195490e-02 5.883284e-02
<VARIANCE> 39
 2.360227e+01 3.750256e+01 2.703181e+01 2.882692e+01 2.783673e+01 2.442038e+01 3.067258e+01 2.755492e+01 3.261022e+01 3.278708e+01 2.173159e+01 1.791767e+01 4.314536e+01 2.754179e+00 2.470326e+00 3.184113e+00 2.710197e+00 3.300391e+00 3.808236e+00 4.237792e+00 3.762044e+00 3.775403e+00 3.726977e+00 3.091598e+00 2.519870e+00 1.953638e+00 4.134197e-01 8.473360e-01 5.207440e-01 5.041612e-01 8.083795e-01 6.113412e-01 6.766843e-01 6.674694e-01 7.885908e-01 6.226611e-01 5.693004e-01 4.495021e-01 8.757867e-01
<GCONST> 1.237332e+02
<MIXTURE> 2 5.603695e-01
<MEAN> 39
 -4.641495e+00 7.613408e+00 4.131379e+00 4.081463e+00 1.693551e+00 -2.345365e+00 -2.076682e-01 -8.694864e-01 8.568797e-01 8.857330e-01 -2.758038e-01 -4.595075e-01 5.217664e+01 -3.434835e-01 -2.651716e-01 -2.389961e-01 -2.928222e-01 -6.658290e-03 -1.132106e-01 -1.177244e-01 -7.433184e-02 2.482128e-02 2.425296e-02 8.826411e-02 1.256356e-01 -8.234017e-02 -6.703077e-02 -1.748033e-01 -1.590059e-02 -5.434636e-02 -1.154482e-01 -9.403870e-03 -2.758007e-02 1.884940e-03 -3.761994e-02 -1.995484e-02 -3.363539e-02 -1.944258e-02 3.262462e-01
<VARIANCE> 39
 7.427477e+00 1.075479e+01 1.387546e+01 2.015317e+01 2.674544e+01 2.748073e+01 2.827534e+01 3.087234e+01 2.696057e+01 2.195826e+01 2.578542e+01 2.257936e+01 2.671567e+00 4.373170e-01 8.985163e-01 1.143918e+00 1.721139e+00 2.300198e+00 2.040078e+00 2.405417e+00 2.294709e+00 2.282475e+00 1.739636e+00 2.001288e+00 2.003405e+00 1.586323e-01 1.009528e-01 2.718405e-01 2.547703e-01 3.525571e-01 4.970690e-01 4.516057e-01 5.139161e-01 4.950522e-01 4.964142e-01 3.760766e-01 4.313672e-01 4.372009e-01 2.128102e-01
<GCONST> 9.895786e+01
<TRANSP> 5
 0.000000e+00 1.000000e+00 0.000000e+00 0.000000e+00 0.000000e+00
 0.000000e+00 7.621646e-01 2.378354e-01 0.000000e+00 0.000000e+00
 0.000000e+00 0.000000e+00 8.905140e-01 1.094860e-01 0.000000e+00
 0.000000e+00 0.000000e+00 0.000000e+00 8.756108e-01 1.243892e-01
 0.000000e+00 0.000000e+00 0.000000e+00 0.000000e+00 0.000000e+00
<ENDHMM>
~h "d"
<BEGINHMM>
<NUMSTATES> 5
<STATE> 2
<NUMMIXES> 2
<MIXTURE> 1 3.304619e-01
<MEAN> 39
 -1.252936e+00 7.049619e+00 9.149472e+00 6.643628e+00 -5.440348e+00 -6.406116e+00 -2.497237e+00 8.660151e-01 -1.757484e+00 -1.954576e+00 8.546150e-01 8.786708e-01 6.055912e+01 -1.680608e-02 1.175498e+00 -7.914800e-02 3.756123e-01 1.620388e+00 6.452035e-01 4.126272e-01 -4.064176e-01 1.106189e-01 1.724096e-01 -6.293704e-01 -2.076924e-01 -1.738343e+00 7.605384e-02 5.481739e-02 -2.566306e-01 4.013927e-02 7.578360e-02 7.646510e-02 3.818682e-02 -2.017849e-01 4.513256e-02 7.194323e-02 -7.176755e-03 -9.097815e-02 -2.937805e-03
<VARIANCE> 39
 1.641655e+01 2.503081e+01 3.326608e+01 3.434883e+01 5.451636e+01 4.209444e+01 4.722129e+01 4.094979e+01 4.969172e+01 3.659730e+01 3.602983e+01 2.849341e+01 3.086831e+01 1.005174e+00 1.980302e+00 2.349714e+00 2.408205e+00 3.913724e+00 3.989714e+00 4.123409e+00 4.793373e+00 3.833739e+00 3.263633e+00 3.221369e+00 2.556705e+00 1.765570e+00 1.794650e-01 4.789171e-01 3.635715e-01 4.987110e-01 8.534352e-01 7.548474e-01 7.822453e-01 7.256112e-01 6.327606e-01 5.900502e-01 5.335181e-01 4.523056e-01 3.507791e-01
<GCONST> 1.226472e+02
<MIXTURE> 2 6.695390e-01
<MEAN> 39
 -1.256603e+00 1.133170e+01 7.175595e+00 7.383329e+00 5.241904e-01 -3.067549e+00 -6.596854e-01 -2.011566e+00 -8.390217e-01 -5.084233e-01 -1.931811e+00 -6.153818e-01 5.417144e+01 -3.506369e-01 -1.783662e-01 -2.840875e-01 -2.840952e-01 1.727667e-01 1.567748e-01 -3.442341e-02 4.259817e-03 8.021659e-02 -1.480775e-01 -8.981604e-02 1.180528e-01 -3.317509e-01 -1.406694e-01 -3.004180e-01 -3.461387e-03 -1.695728e-01 -1.763542e-01 -2.773075e-02 -3.897170e-02 5.639230e-02 -5.683178e-02 -2.377993e-02 9.935039e-02 3.021456e-02 2.758807e-01
<VARIANCE> 39
 8.552427e+00 9.099064e+00 1.257726e+01 1.927812e+01 2.188982e+01 2.583043e+01 2.896232e+01 2.972756e+01 3.133144e+01 3.187555e+01 2.250485e+01 2.260024e+01 5.024094e+00 4.511563e-01 6.750796e-01 9.487141e-01 1.411696e+00 1.779630e+00 2.007572e+00 2.181523e+00 2.618144e+00 2.434573e+00 2.586309e+00 2.185322e+00 1.846161e+00 2.306437e-01 1.051005e-01 2.074616e-01 2.149953e-01 3.259803e-01 3.743462e-01 4.611920e-01 4.657972e-01 5.435327e-01 4.849436e-01 4.844818e-01 4.521809e-01 3.557036e-01 1.459511e-01
<GCONST> 9.844348e+01
<STATE> 3
<MEAN> 39
 -3.780512e+00 8.337039e+00 4.961895e+00 5.595245e+00 6.978123e-01 -2.969600e+00 -1.371325e+00 -2.767766e+00 -1.563742e+00 -9.306841e-01 -1.313557e+00 -1.922730e-01 5.399482e+01 -1.454858e+00 -2.240613e+00 -2.908130e-01 -1.733880e+00 -2.663151e-01 3.586741e-01 -4.074665e-02 5.999771e-01 -1.104306e-01 7.804256e-02 3.846286e-01 2.343072e-01 2.189603e+00 -3.068033e-01 -2.223181e-01 1.985412e-01 -2.404221e-01 -3.921504e-01 -2.300258e-01 -1.324333e-02 1.019693e-01 -8.896513e-02 1.515136e-01 6.896605e-02 -7.501299e-03 8.074281e-01
<VARIANCE> 39
 1.398742e+01 2.061884e+01 2.484818e+01 2.703571e+01 2.413039e+01 3.010462e+01 3.077299e+01 3.388924e+01 2.839566e+01 2.932251e+01 2.562243e+01 2.535111e+01 1.016147e+01 2.043611e+00 3.980257e+00 3.034765e+00 4.521488e+00 3.478377e+00 3.569800e+00 3.450062e+00 4.058414e+00 3.028604e+00 3.604786e+00 2.495929e+00 2.393471e+00 4.665090e+00 2.948407e-01 5.753648e-01 4.261101e-01 5.858301e-01 6.451678e-01 5.712764e-01 6.588311e-01 7.951024e-01 6.442850e-01 5.791662e-01 5.353840e-01 4.122749e-01 4.512582e-01
<GCONST> 1.204012e+02
<STATE> 4
<NUMMIXES> 2
<MIXTURE> 1 3.919678e-01
<MEAN> 39
 -1.197581e+01 -3.015222e+00 5.011507e+00 -4.039488e+00 -1.475752e+00 -1.522095e+00 -1.946760e+00 2.355103e-01 -2.145907e+00 8.553277e-02 2.137532e-01 6.894428e-01 6.867396e+01 -1.694606e+00 -4.530201e-01 1.011745e+00 -8.044537e-01 -1.476452e+00 -1.150925e+00 5.077126e-02 6.958034e-01 -4.680149e-01 2.260033e-01 3.469005e-01 5.690037e-02 2.616274e+00 9.918835e-01 1.452252e+00 3.119233e-01 1.398593e+00 -2.025969e-01 -3.972274e-01 -2.796062e-02 -2.627644e-01 4.594870e-02 -2.076023e-01 -9.177342e-02 -1.002223e-01 -1.419290e+00
<VARIANCE> 39
 2.561854e+01 4.175212e+01 4.384221e+01 5.748205e+01 4.253986e+01 4.099617e+01 4.866266e+01 3.407309e+01 3.503055e+01 2.683506e+01 2.352798e+01 1.695926e+01 2.240213e+01 2.762855e+00 3.973776e+00 3.085964e+00 4.352573e+00 4.728797e+00 3.849559e+00 4.727488e+00 5.407955e+00 4.126435e+00 3.650214e+00 3.566895e+00 2.664309e+00 3.884558e+00 5.937569e-01 4.663070e-01 7.677634e-01 1.018529e+00 1.105363e+00 9.314211e-01 8.495371e-01 8.142995e-01 6.117883e-01 6.230199e-01 5.118387e-01 4.475263e-01 4.378268e-01
<GCONST> 1.296294e+02
<MIXTURE> 2 6.080330e-01
<MEAN> 39
 -8.761146e+00 4.282126e+00 7.404734e+00 3.181122e+00 -4.674794e+00 -7.110810e+00 -2.767756e+00 -1.242014e-01 -1.779807e+00 -3.542589e-01 -3.691460e-01 6.746655e-02 6.136105e+01 1.036483e+00 1.184196e+00 2.204310e-01 1.237801e+00 -4.006471e-01 -2.847348e-01 -2.121631e-01 -2.698341e-01 1.661744e-01 -1.938308e-01 1.055112e-01 -4.651336e-02 -1.174626e+00 4.350373e-01 5.609083e-02 -2.611963e-01 1.101235e-01 1.252789e-01 3.187104e-01 -5.020915e-02 -1.817830e-01 6.752879e-02 -6.399754e-02 1.230095e-02 -8.030606e-03 -2.456813e-01
<VARIANCE> 39
 4.599084e+01 3.245008e+01 3.387191e+01 3.579596e+01 5.843032e+01 5.479625e+01 5.834287e+01 5.187632e+01 4.883408e+01 4.532774e+01 4.141352e+01 3.408766e+01 3.085966e+01 3.196963e+00 3.079340e+00 3.529113e+00 5.453236e+00 6.470651e+00 6.336445e+00 3.750318e+00 3.970417e+00 3.476324e+00 3.397979e+00 3.199039e+00 2.685210e+00 2.505987e+00 8.019976e-01 5.216731e-01 5.458542e-01 8.291962e-01 1.056167e+00 1.140705e+00 8.755505e-01 7.703859e-01 7.535029e-01 6.925238e-01 6.844001e-01 5.849872e-01 6.234776e-01
<GCONST> 1.338439e+02
<TRANSP> 5
 0.000000e+00 1.000000e+00 0.000000e+00 0.000000e+00 0.000000e+00
 0.000000e+00 8.596020e-01 1.403979e-01 0.000000e+00 0.000000e+00
 0.000000e+00 0.000000e+00 5.805413e-01 4.194588e-01 0.000000e+00
 0.000000e+00 0.000000e+00 0.000000e+00 7.378853e-01 2.621147e-01
 0.000000e+00 0.000000e+00 0.000000e+00 0.000000e+00 0.000000e+00
<ENDHMM>
~h "f"
<BEGINHMM>
<NUMSTATES> 5
<STATE> 2
<NUMMIXES> 2
<MIXTURE> 1 2.779134e-01
<MEAN> 39
 2.423104e+00 7.506021e+00 5.130332e-01 3.394003e+00 -1.107663e+00 -1.805988e+00 -2.197144e+00 -1.418706e+00 -1.513631e+00 2.905886e+00 3.618309e+00 8.166673e-01 6.141719e+01 -1.657455e+00 -1.970160e-01 1.216906e+00 4.301696e-01 1.570619e+00 6.854000e-01 5.092401e-01 4.083268e-01 6.063182e-01 -3.474816e-01 -8.531459e-01 -1.156940e-01 -7.015657e-01 -4.721416e-01 -2.356679e-01 3.378521e-02 4.521298e-02 -8.068796e-02 7.359842e-02 -2.600900e-02 -6.246825e-02 -5.881933e-02 -3.011469e-01 -3.103479e-01 -9.133919e-02 1.257460e-01
<VARIANCE> 39
 9.578570e+00 1.374972e+01 2.728722e+01 2.982263e+01 3.672477e+01 5.945097e+01 4.587473e+01 3.431801e+01 4.517650e+01 3.936806e+01 2.754195e+01 2.544531e+01 5.490889e+00 8.071887e-01 1.353191e+00 1.612267e+00 1.728026e+00 2.315377e+00 3.564023e+00 3.221735e+00 3.133522e+00 3.380028e+00 2.725019e+00 3.286398e+00 2.599597e+00 5.066347e-01 8.233334e-02 1.034600e-01 2.989967e-01 3.033796e-01 4.284225e-01 5.951217e-01 5.584882e-01 4.949385e-01 6.181880e-01 5.031270e-01 5.531199e-01 4.344184e-01 3.747489e-02
<GCONST> 1.075735e+02
<MIXTURE> 2 7.220864e-01
<MEAN> 39
 -8.690088e+00 4.796780e+00 3.932127e+00 4.618921e+00 9.481716e-01 -1.770016e+00 -1.377736e+00 -1.519808e+00 -1.076756e+00 -1.264297e+00 -1.703127e+00 -3.663180e-01 5.891249e+01 -1.498497e+00 -6.669506e-01 -5.237640e-01 -2.457371e-01 -4.097779e-01 -1.483278e-01 -4.445466e-01 -5.836592e-01 -2.699548e-02 -1.412565e-01 -2.346336e-01 3.745936e-02 1.388647e-01 9.263849e-02 -7.858996e-02 -2.118639e-01 -6.309311e-02 -2.103154e-01 -1.070378e-01 -6.654961e-02 1.297933e-02 -2.248068e-02 9.512499e-02 1.943239e-01 1.340691e-02 1.823845e-01
<VARIANCE> 39
 1.571799e+01 1.491909e+01 1.602368e+01 2.535295e+01 3.284621e+01 3.856223e+01 3.793225e+01 3.655045e+01 4.273575e+01 3.501847e+01 2.461363e+01 2.267068e+01 1.023705e+01 1.370874e+00 1.269714e+00 1.601049e+00 2.370318e+00 3.436226e+00 3.592816e+00 2.727118e+00 2.724634e+00 2.837806e+00 2.849447e+00 2.674796e+00 1.904387e+00 6.239467e-01 1.455375e-01 2.023894e-01 3.303788e-01 5.089838e-01 7.547936e-01 7.444498e-01 5.212586e-01 5.828413e-01 5.460497e-01 5.710081e-01 5.056883e-01 3.864844e-01 7.221396e-02
<GCONST> 1.106333e+02
<STATE> 3
<MEAN> 39
 -1.523576e+01 -4.742172e-01 4.073763e-01 3.272694e+00 -8.781363e-01 -1.613204e+00 -2.484227e+00 -1.668703e+00 -5.195692e-01 -9.589294e-01 -1.552088e+00 -6.244994e-02 6.173606e+01 -2.809627e-01 -3.764516e-01 -2.122157e-01 -1.100292e-01 4.255502e-02 1.152353e-01 8.469739e-02 1.092661e-01 1.419306e-01 1.427550e-02 1.065787e-02 -3.870194e-02 2.626491e-01 1.068382e-01 -4.644085e-03 2.120771e-03 -5.967076e-02 2.089044e-02 -6.676793e-03 3.370336e-02 3.986238e-02 3.911459e-02 3.253009e-02 1.006662e-02 7.714279e-03 -1.690377e-02
<VARIANCE> 39
 7.603437e+00 1.620015e+01 1.905199e+01 1.850694e+01 2.555898e+01 2.981633e+01 3.483989e+01 2.868341e+01 3.472596e+01 3.417622e+01 2.712800e+01 2.424017e+01 8.443871e+00 4.155206e-01 9.286602e-01 1.289883e+00 1.674617e+00 1.852501e+00 2.469499e+00 2.663261e+00 2.644666e+00 2.544402e+00 2.729186e+00 2.454037e+00 2.377742e+00 2.276084e-01 7.262290e-02 1.759369e-01 2.522817e-01 3.309436e-01 3.771524e-01 4.995787e-01 5.285504e-01 5.212434e-01 4.939333e-01 5.400098e-01 5.248908e-01 4.842634e-01 3.357951e-02
<GCONST> 1.012261e+02
<STATE> 4
<NUMMIXES> 2
<MIXTURE> 1 3.243184e-01
<MEAN> 39
 -7.238825e+00 -2.050823e+00 -3.587807e+00 2.819662e-01 -1.691357e+00 -1.181911e+00 -1.185410e+00 3.590573e-01 7.186577e-01 1.985895e+00 -4.452317e-01 4.388785e-02 5.802361e+01 2.248495e+00 2.379316e+00 1.089970e+00 2.004560e+00 4.548520e-01 1.001154e+00 3.758227e-01 2.664354e-01 -7.398176e-01 -4.952293e-01 -1.416874e-01 -4.549442e-01 -6.046544e-01 4.209214e-01 5.518638e-01 2.469607e-01 1.171606e-01 -1.396938e-01 2.266899e-02 -8.303937e-02 2.702706e-02 -2.309074e-01 -2.978682e-01 7.913500e-02 -1.780976e-01 7.074723e-01
<VARIANCE> 39
 1.040296e+01 1.278979e+01 3.451302e+01 3.144724e+01 3.142925e+01 4.164122e+01 4.246935e+01 3.894529e+01 3.517418e+01 4.256580e+01 2.869867e+01 2.268925e+01 7.768394e+00 1.100109e+00 2.013280e+00 2.263658e+00 2.360607e+00 2.288520e+00 2.485602e+00 3.048387e+00 2.756763e+00 2.352931e+00 3.183246e+00 2.615058e+00 1.980069e+00 7.855508e-01 1.376290e-01 2.836055e-01 3.641713e-01 6.880672e-01 5.888737e-01 5.868619e-01 6.661033e-01 6.342368e-01 4.966024e-01 5.105237e-01 5.114950e-01 3.512927e-01 1.472644e-01
<GCONST> 1.121844e+02
<MIXTURE> 2 6.756821e-01
<MEAN> 39
 -1.350611e+01 -4.802872e+00 -3.596180e+00 -1.428926e+00 -7.712027e-01 -1.215470e+00 -1.397377e+00 3.434022e-02 1.230679e+00 8.531862e-01 -9.684526e-01 -3.083178e-01 6.330297e+01 1.143187e+00 -3.802895e-02 -2.896933e-01 -6.171439e-01 -4.991250e-01 -2.783200e-01 2.408153e-02 2.128147e-01 8.195294e-02 3.656395e-01 1.930127e-01 1.647188e-01 -6.377907e-01 2.724483e-01 3.633022e-01 1.876718e-01 3.169834e-01 -1.947699e-02 8.580749e-02 -5.499373e-03 -4.975677e-02 -1.429798e-01 -5.597918e-02 2.699229e-02 2.294146e-03 -2.311425e-01
<VARIANCE> 39
 1.458465e+01 1.414474e+01 2.654292e+01 2.890245e+01 2.841538e+01 3.391500e+01 3.862531e+01 2.889749e+01 3.252560e+01 3.387248e+01 2.652365e+01 2.480996e+01 8.348646e+00 6.102344e-01 1.086219e+00 1.590425e+00 2.285843e+00 2.464650e+00 2.558201e+00 2.876763e+00 2.418626e+00 2.699837e+00 2.615839e+00 2.506450e+00 2.160598e+00 5.666825e-01 1.260921e-01 2.265586e-01 2.894939e-01 5.239149e-01 5.129300e-01 5.520680e-01 5.897443e-01 4.410503e-01 4.686571e-01 5.428191e-01 4.674556e-01 4.117509e-01 7.752291e-02
<GCONST> 1.072668e+02
<TRANSP> 5
 0.000000e+00 1.000000e+00 0.000000e+00 0.000000e+00 0.000000e+00
 0.000000e+00 8.185821e-01 1.814180e-01 0.000000e+00 0.000000e+00
 0.000000e+00 0.000000e+00 9.185057e-01 8.149425e-02 0.000000e+00
 0.000000e+00 0.000000e+00 0.000000e+00 8.631648e-01 1.368351e-01
 0.000000e+00 0.000000e+00 0.000000e+00 0.000000e+00 0.000000e+00
<ENDHMM>
~h "g"
<BEGINHMM>
<NUMSTATES> 5
<STATE> 2
<NUMMIXES> 2
<MIXTURE> 1 2.338294e-01
<MEAN> 39
 -1.185213e+00 8.346516e+00 1.266174e+01 7.797642e+00 -8.117232e+00 -6.215413e+00 1.039622e+00 1.257274e+00 -1.012463e+01 1.284172e+00 8.239464e+00 -4.299032e+00 6.083738e+01 1.593166e-01 1.119275e+00 -2.961911e-01 1.314058e-01 2.496936e+00 1.502059e-01 3.071407e-01 -4.439244e-01 8.738555e-01 5.286757e-01 -1.281542e+00 1.601022e-01 -2.144411e+00 3.837552e-02 -8.439277e-02 -3.473133e-01 3.907210e-02 -2.187364e-01 7.236753e-02 -1.686453e-01 -1.965986e-01 7.208441e-01 -3.678831e-01 -3.174696e-01 2.815492e-01 1.227994e-01
<VARIANCE> 39
 9.042601e+00 1.409004e+01 3.125655e+01 1.991235e+01 4.064052e+01 6.115937e+01 6.645663e+01 5.251525e+01 5.282323e+01 4.549042e+01 4.357303e+01 3.182406e+01 1.740326e+01 4.973744e-01 8.461356e-01 1.532406e+00 1.604647e+00 1.608082e+00 4.695826e+00 2.931336e+00 3.175547e+00 4.902595e+00 2.804640e+00 3.517190e+00 2.553978e+00 4.055295e-01 9.356195e-02 1.571350e-01 1.716644e-01 3.412227e-01 4.738699e-01 4.951857e-01 3.967712e-01 6.018156e-01 5.540331e-01 5.185822e-01 5.406916e-01 3.615560e-01 1.708217e-01
<GCONST> 1.104249e+02
<MIXTURE> 2 7.661699e-01
<MEAN> 39
 -1.690166e+00 9.954895e+00 6.308695e+00 6.796903e+00 -4.253272e-01 -4.406296e+00 -5.494854e-01 -1.793359e+00 -2.263315e+00 7.221156e-02 -1.956796e-01 -4.006608e-01 5.409670e+01 -3.433214e-01 -1.925521e-01 -2.017885e-01 -1.391393e-01 1.596929e-01 -1.077405e-01 -3.693942e-01 -9.156877e-02 3.048444e-01 -1.602387e-01 -5.448901e-01 2.243492e-01 -3.531397e-01 -1.025388e-01 -1.937865e-01 -2.407816e-03 -9.250346e-02 -6.085404e-02 2.461061e-02 -1.013704e-01 8.018237e-02 -2.127668e-01 4.284278e-02 9.079398e-02 -3.903300e-02 2.271971e-01
<VARIANCE> 39
 9.163093e+00 8.838556e+00 2.414286e+01 1.569430e+01 2.295194e+01 4.168461e+01 3.558665e+01 2.953074e+01 3.196113e+01 2.796321e+01 2.482285e+01 2.007325e+01 8.045299e+00 3.673488e-01 5.392419e-01 1.499497e+00 1.798300e+00 2.035742e+00 2.501591e+00 2.066383e+00 2.849812e+00 3.129558e+00 2.683411e+00 2.217128e+00 2.302451e+00 3.224927e-01 7.473198e-02 1.615267e-01 2.432480e-01 3.472662e-01 4.946933e-01 4.962866e-01 4.810079e-01 5.946843e-01 6.353939e-01 5.173119e-01 3.728535e-01 4.307023e-01 7.677350e-02
<GCONST> 1.012690e+02
<STATE> 3
<MEAN> 39
 -7.528648e+00 3.187852e+00 3.957407e+00 2.830556e+00 8.894149e-01 -3.242435e+00 -3.968297e+00 2.331145e-01 -4.413752e+00 1.007354e+00 -1.778016e+00 -9.199466e-01 5.635697e+01 -1.126342e+00 -1.367497e+00 -3.742489e-01 -9.227077e-01 1.275207e-01 2.635259e-01 -4.932298e-01 5.673468e-01 -3.215251e-01 4.491869e-01 -1.573083e-01 1.808207e-01 1.260284e+00 -6.217517e-02 1.643809e-01 1.841703e-02 -7.292391e-02 -2.009779e-01 -9.618973e-02 1.485711e-01 -1.005916e-01 -2.419070e-02 3.985136e-02 1.875110e-01 1.064994e-01 1.407973e-01
<VARIANCE> 39
 1.791431e+01 4.704909e+01 2.974687e+01 3.719317e+01 5.210378e+01 3.737155e+01 4.674611e+01 4.481012e+01 5.014447e+01 4.005390e+01 2.984824e+01 2.469419e+01 2.376305e+01 1.983664e+00 4.169354e+00 2.190044e+00 3.117110e+00 4.541224e+00 3.663640e+00 4.001428e+00 3.926890e+00 4.493572e+00 4.183536e+00 2.839431e+00 2.892281e+00 3.528110e+00 2.842602e-01 9.566012e-01 3.219484e-01 5.873767e-01 7.410871e-01 5.661314e-01 6.064804e-01 7.145783e-01 9.531625e-01 7.498963e-01 5.529831e-01 6.659169e-01 5.850149e-01
<GCONST> 1.273767e+02
<STATE> 4
<NUMMIXES> 2
<MIXTURE> 1 6.874111e-01
<MEAN> 39
 -1.300604e+01 2.817522e+00 5.151090e+00 -2.388701e+00 -2.142191e+00 -1.186549e+00 -3.390993e+00 -4.217357e-01 -3.632948e+00 3.848022e+00 -2.099103e+00 2.723816e+00 6.227562e+01 7.197247e-01 1.887006e+00 9.681354e-01 1.044768e+00 -3.803836e-01 -2.827693e-01 4.751600e-01 -1.321703e-01 -1.144192e-01 -6.171142e-01 8.147447e-01 -9.073434e-03 8.298676e-02 8.856894e-01 3.873700e-01 1.454509e-01 7.315452e-01 -3.110729e-01 -1.440087e-01 5.345107e-02 -1.175442e-02 1.182367e-02 -3.437392e-01 4.205183e-01 -3.756324e-01 -1.597895e-01
<VARIANCE> 39
 3.042961e+01 4.472816e+01 6.169714e+01 4.121745e+01 4.829974e+01 7.296106e+01 4.861827e+01 4.945723e+01 4.135992e+01 4.881798e+01 4.892109e+01 1.592854e+01 2.616924e+01 4.652934e+00 3.157751e+00 2.811676e+00 5.520308e+00 4.849208e+00 3.719495e+00 3.033856e+00 2.048258e+00 2.843540e+00 3.444220e+00 3.128109e+00 2.475601e+00 2.296198e+00 3.568417e-01 1.251443e+00 7.103171e-01 6.865988e-01 1.483104e+00 9.339392e-01 5.683217e-01 5.864702e-01 7.252991e-01 7.169068e-01 7.603785e-01 3.090696e-01 9.779859e-01
<GCONST> 1.311073e+02
<MIXTURE> 2 3.125893e-01
<MEAN> 39
 -1.963147e+00 9.688125e+00 8.411944e+00 6.994094e+00 -7.966034e+00 -3.742821e+00 -5.731149e+00 1.332986e-01 -4.953227e+00 5.555792e-01 4.162484e+00 -1.950242e+00 6.486861e+01 2.328892e+00 -8.493170e-02 -9.760209e-01 9.766528e-01 -3.859004e+00 -1.616891e+00 -5.986256e-01 -8.180909e-02 -3.440512e-01 -6.512527e-01 3.342213e+00 -8.295210e-01 1.943061e+00 -5.249726e-01 -8.550007e-01 -6.838505e-01 -7.093769e-01 4.143379e-02 9.745689e-02 -7.253918e-02 -1.355813e-02 8.066202e-02 1.693011e-01 -1.133713e-01 2.665730e-01 1.094249e-01
<VARIANCE> 39
 1.621005e+01 2.284884e+01 7.366207e+01 1.176690e+01 1.063590e+02 4.605812e+01 7.880967e+01 4.452222e+01 1.888964e+01 3.210235e+01 6.817775e+01 2.188604e+01 2.248399e+01 1.113426e+00 2.211278e+00 1.697749e+00 2.262458e+00 3.573760e+00 3.885207e+00 1.290669e+00 2.716416e+00 2.538561e+00 2.686971e+00 2.728858e+00 1.551047e+00 4.655206e-01 2.351852e-01 4.814550e-01 3.844401e-01 3.665789e-01 1.373484e+00 7.847842e-01 4.111277e-01 4.019395e-01 4.253614e-01 3.535751e-01 7.613236e-01 2.043085e-01 2.585779e-01
<GCONST> 1.156038e+02
<TRANSP> 5
 0.000000e+00 1.000000e+00 0.000000e+00 0.000000e+00 0.000000e+00
 0.000000e+00 8.902659e-01 1.097342e-01 0.000000e+00 0.000000e+00
 0.000000e+00 0.000000e+00 8.046221e-01 1.953779e-01 0.000000e+00
 0.000000e+00 0.000000e+00 0.000000e+00 7.692552e-01 2.307448e-01
 0.000000e+00 0.000000e+00 0.000000e+00 0.000000e+00 0.000000e+00
<ENDHMM>
~h "k"
<BEGINHMM>
<NUMSTATES> 5
<STATE> 2
<NUMMIXES> 2
<MIXTURE> 1 3.025289e-01
<MEAN> 39
 -3.626611e+00 8.921097e+00 9.718604e+00 5.753986e+00 -4.555406e+00 -4.661221e+00 9.170780e-01 1.948190e-01 -6.127563e+00 2.139281e+00 2.429441e+00 -1.322544e+00 5.801397e+01 -5.070008e-01 1.037254e-01 -8.120688e-01 -6.341085e-01 1.522117e+00 2.437964e-01 -1.507794e-01 -3.861192e-01 1.019494e+00 -2.603370e-02 -1.334011e+00 -2.445728e-02 -1.697343e+00 1.452102e-01 -2.494128e-01 -4.505459e-01 -9.872817e-03 -3.474760e-01 -5.685170e-02 -2.239969e-01 -1.783919e-01 2.054677e-01 -3.372227e-01 -4.527790e-02 1.202281e-01 1.125076e-01
<VARIANCE> 39
 1.978587e+01 1.635305e+01 3.325983e+01 2.925112e+01 4.668392e+01 5.030753e+01 6.266458e+01 5.351018e+01 5.058757e+01 4.145353e+01 5.175845e+01 3.505218e+01 1.365070e+01 1.599446e+00 1.537318e+00 3.546331e+00 2.563757e+00 5.155177e+00 4.244281e+00 3.511853e+00 4.607598e+00 4.465368e+00 3.852529e+00 3.612144e+00 3.115305e+00 9.138457e-01 2.392624e-01 2.236456e-01 4.367892e-01 4.868342e-01 8.320221e-01 6.352256e-01 5.682337e-01 6.173791e-01 8.140344e-01 5.625014e-01 7.793038e-01 5.831293e-01 1.584651e-01
<GCONST> 1.225605e+02
<MIXTURE> 2 6.974711e-01
<MEAN> 39
 -4.252674e+00 7.934847e+00 3.426897e+00 3.530464e+00 -1.636250e+00 -4.380176e+00 -1.712822e+00 -2.101270e+00 -8.232961e-01 -3.415752e-01 -8.666186e-01 2.488376e-01 5.235324e+01 -1.776303e-01 -1.337423e-01 -2.733016e-01 -1.712724e-01 1.904834e-02 6.416207e-02 -7.967204e-02 -1.692802e-01 1.106723e-01 -1.521285e-01 -5.775378e-02 1.387416e-01 -2.473872e-01 -3.178302e-02 -6.083879e-02 1.318847e-01 4.532899e-02 -3.947044e-04 4.131501e-02 1.921072e-02 7.867516e-02 -1.357639e-01 8.932501e-02 7.479568e-02 -2.236824e-02 1.716088e-01
<VARIANCE> 39
 6.265397e+00 7.942919e+00 1.290900e+01 1.818904e+01 2.504238e+01 3.982084e+01 4.114714e+01 3.493572e+01 3.640216e+01 3.103855e+01 2.700952e+01 2.272620e+01 2.394970e+00 3.445772e-01 6.457288e-01 1.083975e+00 1.474001e+00 2.085376e+00 2.656915e+00 2.539378e+00 2.686119e+00 2.548061e+00 2.469212e+00 2.261040e+00 2.042457e+00 1.576378e-01 8.625140e-02 1.815502e-01 2.604763e-01 2.980556e-01 4.398788e-01 5.346941e-01 5.302359e-01 5.767156e-01 5.468265e-01 4.719059e-01 4.552445e-01 3.941120e-01 5.414975e-02
<GCONST> 9.832829e+01
<STATE> 3
<MEAN> 39
 -6.062118e+00 6.174426e+00 2.895097e+00 3.399364e+00 -1.425042e+00 -3.771909e+00 -1.724193e+00 -2.147900e+00 -1.779554e+00 1.168937e-01 -7.587521e-01 6.922118e-01 5.221657e+01 -1.198789e+00 -2.000186e+00 2.141573e-01 -4.236892e-01 4.590512e-02 4.563952e-01 -3.039017e-01 5.676610e-01 -5.045014e-01 5.207679e-01 -3.060443e-01 1.062928e-01 1.568777e+00 -4.261718e-01 -4.971992e-01 1.236894e-01 -2.740063e-01 -8.485440e-02 6.456265e-03 -4.042633e-02 2.566380e-01 -1.100491e-01 2.593113e-01 -1.125275e-01 -2.583417e-02 7.355675e-01
<VARIANCE> 39
 8.297073e+00 1.412729e+01 2.059667e+01 2.507714e+01 2.296379e+01 3.783469e+01 3.834686e+01 3.469608e+01 3.651346e+01 3.289006e+01 2.644574e+01 2.034371e+01 6.595155e+00 1.777487e+00 3.526003e+00 3.547214e+00 3.365343e+00 3.119216e+00 3.540076e+00 3.095739e+00 4.456770e+00 3.399363e+00 3.334338e+00 2.743530e+00 2.225887e+00 2.661264e+00 2.323166e-01 4.958230e-01 4.954776e-01 4.907221e-01 6.141164e-01 6.933246e-01 6.016874e-01 7.862778e-01 5.708938e-01 6.309215e-01 5.024628e-01 4.824826e-01 2.397905e-01
<GCONST> 1.174273e+02
<STATE> 4
<NUMMIXES> 2
<MIXTURE> 1 5.962278e-01
<MEAN> 39
 -1.473594e+01 3.568343e+00 5.993349e+00 -4.015243e+00 -3.595108e+00 -2.504519e+00 -2.668727e+00 -1.043088e+00 -1.967618e+00 3.943465e+00 -2.164838e+00 2.297979e+00 6.110431e+01 9.564510e-01 1.199394e+00 4.558531e-01 9.220030e-01 1.313009e-01 -7.950956e-02 1.374573e-01 -1.744913e-01 4.982813e-02 -5.967184e-01 3.184164e-01 -1.315916e-01 -5.754001e-01 5.945414e-01 -1.015384e-01 -9.971980e-03 5.464389e-01 -6.856684e-02 -3.390354e-02 1.319647e-01 2.653201e-02 -9.945443e-02 -2.493040e-01 1.389599e-01 -1.904175e-01 4.930295e-02
<VARIANCE> 39
 3.128065e+01 2.281474e+01 3.996972e+01 5.009048e+01 5.623230e+01 6.712657e+01 4.900237e+01 5.351867e+01 5.113747e+01 4.063634e+01 3.779361e+01 3.096165e+01 1.585478e+01 3.150607e+00 3.523556e+00 2.976434e+00 4.590209e+00 4.007439e+00 4.282277e+00 3.047725e+00 3.369184e+00 3.679220e+00 3.571069e+00 3.276399e+00 2.616593e+00 1.434267e+00 4.584783e-01 5.101188e-01 5.640919e-01 8.208256e-01 9.167037e-01 9.136258e-01 5.890667e-01 6.740631e-01 7.597185e-01 7.467268e-01 6.768407e-01 5.821491e-01 4.477018e-01
<GCONST> 1.290776e+02
<MIXTURE> 2 4.037726e-01
<MEAN> 39
 -1.278904e+01 -5.473099e+00 4.268675e+00 -6.298319e-02 -1.946537e+00 -2.864355e+00 -3.515595e+00 2.552544e+00 -4.626688e+00 3.973294e+00 -2.854015e+00 7.369903e-01 6.345266e+01 -1.437491e+00 -6.497259e-01 8.373629e-02 -1.547859e+00 -7.031356e-01 -1.478140e-01 -2.524369e-01 5.535530e-01 -1.395519e-03 1.010047e+00 -2.834252e-01 2.205880e-01 1.951113e+00 4.089832e-01 1.390435e+00 -3.478036e-02 1.322341e-01 -1.030687e-02 -1.599805e-01 7.563248e-02 -4.191934e-01 3.507831e-01 -2.613201e-01 2.096020e-01 4.834460e-02 -8.760852e-01
<VARIANCE> 39
 2.032180e+01 2.940730e+01 5.940636e+01 5.042164e+01 4.830676e+01 5.490105e+01 4.567572e+01 5.543158e+01 3.765932e+01 4.043116e+01 2.604965e+01 2.293196e+01 2.160883e+01 2.197862e+00 6.462152e+00 3.274318e+00 3.577498e+00 3.952350e+00 5.172830e+00 3.877151e+00 4.952176e+00 3.908206e+00 3.517618e+00 2.752593e+00 3.095667e+00 3.620924e+00 3.801204e-01 5.983061e-01 7.622724e-01 8.655045e-01 7.629437e-01 8.664058e-01 6.746183e-01 8.237757e-01 6.201714e-01 7.048655e-01 5.104483e-01 4.765122e-01 4.992028e-01
<GCONST> 1.298914e+02
<TRANSP> 5
 0.000000e+00 1.000000e+00 0.000000e+00 0.000000e+00 0.000000e+00
 0.000000e+00 9.059158e-01 9.408419e-02 0.000000e+00 0.000000e+00
 0.000000e+00 0.000000e+00 6.808473e-01 3.191527e-01 0.000000e+00
 0.000000e+00 0.000000e+00 0.000000e+00 8.461145e-01 1.538855e-01
 0.000000e+00 0.000000e+00 0.000000e+00 0.000000e+00 0.000000e+00
<ENDHMM>
~h "l"
<BEGINHMM>
<NUMSTATES> 5
<STATE> 2
<NUMMIXES> 2
<MIXTURE> 1 6.217375e-01
<MEAN> 39
 2.028121e+00 7.900312e+00 -4.989015e+00 1.812078e+00 -1.525126e+00 -5.493230e+00 -4.165733e+00 -7.030815e+00 8.135276e+00 5.896712e+00 -3.401434e+00 -3.144804e+00 6.726820e+01 5.139220e-02 4.190028e-01 -1.919333e-01 -5.643155e-01 7.634689e-01 3.421131e-01 1.317276e-01 -1.065395e+00 7.375397e-02 6.400099e-01 7.401961e-02 8.340256e-02 -2.265157e-01 1.426766e-02 2.975540e-02 1.485865e-01 -2.224489e-02 3.711054e-02 -2.001373e-02 -2.039703e-02 8.606312e-02 -1.782686e-01 -1.181208e-01 1.505620e-01 1.037554e-01 -7.853010e-02
<VARIANCE> 39
 4.299468e+00 1.677017e+01 2.694140e+01 2.688892e+01 2.782783e+01 4.863492e+01 4.743825e+01 7.160749e+01 6.532664e+01 6.157407e+01 3.326838e+01 3.214699e+01 9.714847e+00 1.905102e-01 3.086765e-01 9.789579e-01 8.821532e-01 1.003096e+00 1.428997e+00 1.565599e+00 1.894315e+00 1.938120e+00 2.268870e+00 1.747823e+00 1.508029e+00 2.438592e-01 3.003634e-02 4.978840e-02 9.787066e-02 1.197504e-01 1.733394e-01 1.876698e-01 2.335585e-01 2.968925e-01 2.693041e-01 3.020479e-01 2.426548e-01 2.018374e-01 2.352984e-02
<GCONST> 8.861490e+01
<MIXTURE> 2 3.782639e-01
<MEAN> 39
 -1.256188e+00 9.790232e+00 2.311672e+00 9.503147e-01 -1.864991e-01 -2.021048e+00 -3.785972e+00 -2.898695e+00 1.246915e+00 -8.279280e-02 -1.217436e+00 3.681876e-01 6.227017e+01 1.170912e+00 4.282232e-01 -7.778368e-01 -2.434606e-01 1.849436e-01 -2.321686e-01 -3.427607e-01 -7.983431e-01 -1.699446e-02 5.193118e-01 2.228990e-01 -1.151557e-01 4.822825e-01 -1.980817e-01 -2.444350e-01 -2.663225e-01 -1.259826e-01 -7.630385e-02 -9.353921e-02 1.022501e-01 2.984783e-02 1.103132e-02 2.904057e-02 4.491897e-02 2.063239e-02 1.143792e-02
<VARIANCE> 39
 2.496854e+01 2.756968e+01 6.395515e+01 5.403921e+01 5.914332e+01 5.609102e+01 6.721510e+01 6.337880e+01 4.005410e+01 5.038930e+01 4.041938e+01 4.393245e+01 2.700520e+01 2.686390e+00 2.175940e+00 3.270298e+00 3.905098e+00 3.737546e+00 3.916266e+00 4.265399e+00 4.292809e+00 3.800023e+00 3.682763e+00 3.913916e+00 3.633178e+00 1.612002e+00 4.423084e-01 3.832975e-01 6.338034e-01 8.555689e-01 7.186428e-01 7.174504e-01 7.029898e-01 7.900074e-01 6.118984e-01 6.371081e-01 7.208804e-01 5.932788e-01 2.516563e-01
<GCONST> 1.300777e+02
<STATE> 3
<MEAN> 39
 3.241964e+00 7.140971e+00 -2.924980e+00 -3.392395e+00 1.848202e+00 2.500212e+00 -8.206854e+00 -3.314223e+00 6.010776e-01 3.789147e+00 4.888778e-01 -5.056738e+00 6.635143e+01 2.692766e-04 1.877865e-01 1.349687e-01 -3.475985e-04 7.077672e-02 -6.761869e-02 1.191644e-02 -1.176326e-01 -5.058410e-02 -7.138035e-02 1.012416e-01 2.577821e-01 -1.643085e-01 -3.425580e-02 -7.801688e-03 5.195629e-02 7.713897e-02 -6.884895e-02 -3.414923e-02 4.648973e-02 6.657758e-02 1.148359e-02 -5.432697e-02 -5.124025e-02 4.022384e-02 -1.248429e-02
<VARIANCE> 39
 5.301136e+00 1.716957e+01 2.296237e+01 4.083040e+01 2.386431e+01 4.210852e+01 4.284582e+01 6.523339e+01 5.418939e+01 5.664293e+01 3.061533e+01 3.764708e+01 1.358114e+01 1.475129e-01 3.781649e-01 7.154946e-01 9.417187e-01 8.767744e-01 1.122658e+00 1.281740e+00 1.480723e+00 1.361142e+00 1.829140e+00 1.299762e+00 1.148535e+00 2.365156e-01 2.422884e-02 4.016308e-02 1.029835e-01 1.164532e-01 1.476766e-01 1.416693e-01 1.787319e-01 2.238057e-01 1.962707e-01 2.108294e-01 1.966014e-01 1.682938e-01 2.073709e-02
<GCONST> 8.386868e+01
<STATE> 4
<NUMMIXES> 2
<MIXTURE> 1 5.805563e-01
<MEAN> 39
 3.774925e+00 1.363466e+01 -5.206900e+00 -6.168212e+00 1.915494e+00 -1.720946e+00 1.844681e+00 -1.326048e+01 -5.896400e-01 3.685308e+00 1.789438e+00 4.699957e+00 6.332399e+01 7.433677e-04 7.975384e-02 1.576401e-01 7.981383e-02 3.516901e-02 -1.015895e-01 -1.464537e-02 -3.012075e-02 -1.432816e-01 -8.443434e-02 2.772672e-02 1.207759e-01 -1.617023e-01 -3.235073e-02 -6.356922e-02 4.420839e-02 5.268221e-02 -7.175716e-03 -1.827510e-02 -7.790680e-02 1.028652e-01 4.597491e-02 5.540896e-02 -3.803270e-02 -1.063293e-01 1.807479e-02
<VARIANCE> 39
 2.529284e+00 8.908646e+00 2.378589e+01 3.279529e+01 2.822483e+01 4.734702e+01 5.285659e+01 4.527766e+01 4.727513e+01 6.878441e+01 3.593318e+01 3.286593e+01 9.206905e+00 1.299517e-01 3.360878e-01 5.314751e-01 9.602683e-01 9.142234e-01 1.064757e+00 1.384779e+00 1.412216e+00 1.518206e+00 1.651983e+00 1.529082e+00 1.400450e+00 1.509142e-01 2.049370e-02 5.066593e-02 8.230289e-02 1.263638e-01 1.461339e-01 1.914635e-01 1.997768e-01 2.210822e-01 2.462690e-01 2.289058e-01 2.325877e-01 1.913472e-01 1.630397e-02
<GCONST> 8.220430e+01
<MIXTURE> 2 4.194432e-01
<MEAN> 39
 1.650221e+00 1.087246e+01 -1.041903e+00 -4.201865e-01 2.258907e+00 -4.523536e+00 -3.825439e+00 -7.833379e+00 2.456082e+00 4.912190e+00 -2.700743e-01 -2.775234e-01 6.275181e+01 -4.461820e-01 -4.249303e-01 4.369034e-01 5.921468e-01 -5.296101e-01 -2.901667e-01 -7.160345e-03 1.067305e+00 3.169197e-01 -5.019274e-01 -1.924818e-01 -2.805696e-01 2.067954e-02 -6.707203e-02 -6.516502e-02 1.175158e-02 1.584679e-02 -1.971646e-01 8.816422e-02 1.581616e-01 7.748023e-02 -6.510223e-02 -1.862167e-01 5.170324e-02 8.048209e-02 2.291593e-02
<VARIANCE> 39
 8.051913e+00 1.761582e+01 3.782596e+01 4.221379e+01 3.369954e+01 5.705573e+01 7.137022e+01 6.758752e+01 6.119212e+01 5.676823e+01 3.697588e+01 3.844937e+01 2.068389e+01 5.011595e-01 7.250413e-01 1.696038e+00 1.905810e+00 2.291673e+00 2.628018e+00 2.725187e+00 3.604866e+00 3.184671e+00 3.583237e+00 2.381735e+00 2.697946e+00 8.547468e-01 9.752732e-02 8.283570e-02 2.532788e-01 2.912870e-01 3.258291e-01 4.079149e-01 4.507580e-01 5.899489e-01 5.475737e-01 4.855941e-01 4.386277e-01 4.796003e-01 7.816679e-02
<GCONST> 1.106713e+02
<TRANSP> 5
 0.000000e+00 1.000000e+00 0.000000e+00 0.000000e+00 0.000000e+00
 0.000000e+00 7.936547e-01 2.063453e-01 0.000000e+00 0.000000e+00
 0.000000e+00 0.000000e+00 8.309481e-01 1.690520e-01 0.000000e+00
 0.000000e+00 0.000000e+00 0.000000e+00 8.957440e-01 1.042560e-01
 0.000000e+00 0.000000e+00 0.000000e+00 0.000000e+00 0.000000e+00
<ENDHMM>
~h "m"
<BEGINHMM>
<NUMSTATES> 5
<STATE> 2
<NUMMIXES> 2
<MIXTURE> 1 5.014549e-01
<MEAN> 39
 4.419894e+00 3.780153e+00 1.013465e+00 1.050769e+01 4.810852e-01 -4.217866e+00 -2.535678e+00 2.550470e-01 -1.445315e+00 -6.219277e-01 -1.391346e+00 -4.531587e+00 6.330295e+01 -2.332553e-01 6.963977e-01 1.168299e+00 1.895585e+00 1.253860e+00 -7.074722e-01 2.128140e-01 -1.991438e+00 -9.412437e-01 1.667959e+00 -1.957778e-01 -7.737522e-01 -1.104961e+00 -1.698872e-01 1.378476e-02 3.136801e-01 4.244805e-02 -2.526633e-01 -7.850974e-02 3.304387e-02 -1.209224e-01 -7.825463e-02 1.385661e-01 6.079593e-02 -2.969453e-02 1.321584e-01
<VARIANCE> 39
 3.539700e+00 9.417747e+00 1.850060e+01 2.487614e+01 2.036005e+01 3.204716e+01 3.718758e+01 4.265212e+01 4.181733e+01 4.379533e+01 3.088387e+01 2.425159e+01 7.698397e+00 4.010265e-01 5.878559e-01 1.831494e+00 1.192143e+00 2.209839e+00 2.092752e+00 2.069862e+00 2.828191e+00 2.084156e+00 3.029772e+00 2.032306e+00 2.451951e+00 4.185015e-01 5.482509e-02 9.666675e-02 2.621720e-01 2.783383e-01 3.053831e-01 3.418657e-01 4.318075e-01 6.422489e-01 3.762796e-01 5.175915e-01 2.735337e-01 3.041070e-01 6.364996e-02
<GCONST> 9.827329e+01
<MIXTURE> 2 4.985442e-01
<MEAN> 39
 -2.812767e-01 8.471902e+00 7.683869e+00 1.173333e+01 3.463842e+00 -2.450392e+00 -2.030863e+00 -3.741324e+00 -3.845620e+00 2.929140e+00 -2.070974e+00 -5.732698e+00 5.822224e+01 6.986650e-01 1.316794e-01 7.451711e-01 1.134965e+00 1.473317e-01 -4.868916e-01 -1.418722e-01 -6.161579e-01 -3.971143e-01 3.682448e-01 -1.827759e-01 -6.649314e-01 5.349714e-01 -7.549305e-02 -3.208646e-01 -2.969168e-01 -3.609749e-01 -2.562595e-01 -1.339802e-01 -8.874587e-02 1.661097e-01 8.422986e-02 -4.683722e-02 2.221108e-02 1.531297e-01 1.581993e-01
<VARIANCE> 39
 1.023784e+01 1.520752e+01 1.543246e+01 2.682392e+01 3.380340e+01 4.287670e+01 3.699617e+01 3.557090e+01 4.338215e+01 4.254352e+01 3.302539e+01 3.016586e+01 2.222621e+01 1.524706e+00 1.624919e+00 1.854990e+00 2.432129e+00 2.638760e+00 2.857732e+00 2.753841e+00 3.209631e+00 2.359644e+00 3.034465e+00 2.177172e+00 2.397748e+00 1.116115e+00 2.006478e-01 2.360850e-01 2.540892e-01 3.973333e-01 4.807860e-01 5.128040e-01 5.252926e-01 6.275244e-01 4.260137e-01 6.290184e-01 4.325618e-01 4.188319e-01 1.847148e-01
<GCONST> 1.125154e+02
<STATE> 3
<MEAN> 39
 2.531011e+00 6.254226e+00 7.021869e+00 1.489854e+01 1.489458e+00 -5.536093e+00 -1.886005e+00 -6.533709e+00 -3.213742e+00 5.203985e+00 -3.018673e+00 -6.505303e+00 6.072811e+01 -4.008314e-03 2.766339e-02 6.830563e-02 -1.318911e-02 4.678627e-02 8.237056e-02 -3.749251e-02 -9.313984e-02 -1.534665e-03 -1.747112e-02 -8.112256e-03 3.172839e-02 -1.726598e-02 -7.674150e-04 1.582528e-02 -7.546819e-02 -1.287128e-01 -7.837518e-03 8.964679e-02 1.071486e-02 9.919751e-02 3.434903e-02 -1.103525e-01 1.736953e-02 5.622463e-02 1.242723e-02
<VARIANCE> 39
 2.732640e+00 1.062959e+01 9.465968e+00 1.701912e+01 2.337413e+01 4.227077e+01 3.340021e+01 3.161999e+01 3.533236e+01 3.817810e+01 2.749475e+01 3.479778e+01 7.634274e+00 1.310594e-01 3.289334e-01 4.499370e-01 7.204529e-01 7.803848e-01 1.199051e+00 1.080006e+00 1.265355e+00 1.259387e+00 1.547537e+00 1.311683e+00 1.367808e+00 1.469794e-01 2.442649e-02 4.609276e-02 9.749898e-02 1.477096e-01 1.511300e-01 2.209785e-01 2.062963e-01 2.461576e-01 2.286916e-01 2.788104e-01 2.200756e-01 2.331805e-01 2.027929e-02
<GCONST> 7.836956e+01
<STATE> 4
<NUMMIXES> 2
<MIXTURE> 1 4.128338e-01
<MEAN> 39
 2.251998e+00 4.969722e+00 7.359502e+00 1.514862e+01 3.944168e+00 -6.003075e+00 -3.291105e+00 -5.379930e+00 -5.798230e+00 4.077031e+00 -1.763027e+00 -6.818537e+00 6.164600e+01 6.322434e-02 -2.339221e-01 -9.695039e-01 -1.504176e+00 -7.097411e-01 5.273440e-01 -1.006646e-01 1.361043e+00 6.477598e-01 -1.027137e+00 2.139674e-01 6.588284e-01 7.790303e-01 9.212015e-02 -1.162782e-01 -4.185249e-01 -6.752989e-01 -6.430689e-01 3.699090e-01 -2.322720e-02 6.904352e-01 3.393580e-01 -6.224722e-01 5.082568e-02 3.711346e-01 3.218582e-01
<VARIANCE> 39
 2.301724e+00 1.112018e+01 1.208248e+01 2.025084e+01 2.006673e+01 4.112441e+01 3.600241e+01 2.300998e+01 3.094471e+01 3.483366e+01 2.389807e+01 4.166888e+01 7.569610e+00 2.879972e-01 4.997688e-01 1.312138e+00 1.905521e+00 1.694737e+00 1.814019e+00 1.753148e+00 2.351171e+00 2.058248e+00 2.644708e+00 1.356363e+00 2.439006e+00 4.389946e-01 4.893724e-02 7.743309e-02 2.833001e-01 1.766414e-01 2.653602e-01 3.490922e-01 3.286855e-01 2.427543e-01 3.112398e-01 3.472014e-01 3.038929e-01 3.884135e-01 4.194221e-02
<GCONST> 9.233900e+01
<MIXTURE> 2 5.871666e-01
<MEAN> 39
 1.588452e+00 7.981620e+00 5.471662e+00 1.036879e+01 2.306786e+00 -2.890307e+00 -2.517943e+00 -3.386942e+00 -9.212677e-01 7.546112e-01 -1.923196e+00 -3.940983e+00 5.999305e+01 -3.514471e-01 -1.043317e-01 -4.886790e-01 -1.641799e+00 -8.643406e-01 7.958841e-01 -7.151788e-03 1.486477e+00 4.703637e-01 -1.051010e+00 5.603499e-02 6.887614e-01 2.908731e-01 -1.057047e-01 -4.362497e-02 -3.075972e-02 -4.836994e-02 -1.849848e-01 2.437825e-02 1.792424e-01 1.944690e-02 -1.352670e-01 2.044808e-02 -9.478246e-02 -6.078062e-02 -4.110761e-02
<VARIANCE> 39
 8.789797e+00 1.968889e+01 1.709682e+01 2.552101e+01 2.734406e+01 3.604760e+01 2.499552e+01 3.439276e+01 2.945712e+01 2.841238e+01 2.634665e+01 2.193431e+01 2.422667e+01 9.945807e-01 1.552541e+00 3.022479e+00 2.813405e+00 3.932635e+00 3.475534e+00 2.997251e+00 3.460762e+00 2.944093e+00 4.353664e+00 2.697824e+00 3.086135e+00 1.311301e+00 1.209203e-01 2.306869e-01 3.214431e-01 3.741011e-01 4.857224e-01 5.777437e-01 5.438952e-01 6.643021e-01 4.533540e-01 4.321958e-01 4.270128e-01 4.423961e-01 9.815533e-02
<GCONST> 1.117022e+02
<TRANSP> 5
 0.000000e+00 1.000000e+00 0.000000e+00 0.000000e+00 0.000000e+00
 0.000000e+00 7.731218e-01 2.268782e-01 0.000000e+00 0.000000e+00
 0.000000e+00 0.000000e+00 9.053615e-01 9.463851e-02 0.000000e+00
 0.000000e+00 0.000000e+00 0.000000e+00 7.238634e-01 2.761367e-01
 0.000000e+00 0.000000e+00 0.000000e+00 0.000000e+00 0.000000e+00
<ENDHMM>
~h "n"
<BEGINHMM>
<NUMSTATES> 5
<STATE> 2
<NUMMIXES> 2
<MIXTURE> 1 4.946423e-01
<MEAN> 39
 1.933363e+00 6.725973e+00 8.013862e+00 1.404867e+01 -1.246014e+00 -3.629788e+00 -3.567198e-01 -5.781551e+00 -1.650509e+00 4.854438e+00 -6.895417e+00 -6.459074e+00 6.102734e+01 3.114565e-01 2.701584e-01 6.388728e-01 1.425516e+00 -2.656690e-01 -2.450140e-01 5.160858e-01 -2.015947e+00 -3.338207e-03 2.035546e+00 -1.189851e+00 -3.084095e-01 -7.202575e-01 -1.017477e-01 -1.009571e-01 -1.781668e-01 -5.479130e-01 -2.878459e-01 7.946082e-02 -7.410280e-02 4.675316e-01 4.544281e-02 -5.078521e-01 3.329399e-01 1.930166e-01 3.239980e-01
<VARIANCE> 39
 3.688387e+00 1.209259e+01 1.107289e+01 1.660357e+01 1.906212e+01 2.162907e+01 2.777874e+01 2.856549e+01 3.793666e+01 3.684644e+01 1.920609e+01 2.091304e+01 7.013385e+00 5.658730e-01 9.260837e-01 1.565979e+00 2.019420e+00 1.868269e+00 2.112440e+00 1.950392e+00 3.410683e+00 2.368269e+00 2.718643e+00 2.177723e+00 2.151861e+00 4.262714e-01 7.557615e-02 1.188391e-01 2.007945e-01 2.504828e-01 3.194045e-01 3.453050e-01 3.157271e-01 4.955652e-01 3.268220e-01 4.462034e-01 3.126981e-01 3.057083e-01 5.252355e-02
<GCONST> 9.591914e+01
<MIXTURE> 2 5.053566e-01
<MEAN> 39
 3.444223e-01 5.173161e+00 5.435941e+00 6.379508e+00 -2.600694e+00 -2.433105e+00 -3.054105e+00 3.120467e+00 -1.652233e+00 -3.586540e+00 -1.459060e+00 -4.856644e+00 6.549981e+01 3.627896e-01 5.046777e-01 6.228952e-01 1.549598e+00 1.328177e+00 -5.887558e-01 -5.994816e-02 -1.291685e+00 -1.297389e-01 1.568456e+00 -8.862855e-01 -6.072193e-01 -1.380400e+00 8.571789e-02 4.331456e-02 1.189552e-01 4.599596e-01 -2.690977e-01 7.254672e-02 3.360409e-01 -7.156370e-01 1.058066e-02 6.029995e-01 -3.965667e-01 -3.482873e-02 -1.581700e-01
<VARIANCE> 39
 8.307924e+00 2.110634e+01 2.709354e+01 2.175279e+01 3.515578e+01 4.091542e+01 3.763249e+01 4.485892e+01 5.483060e+01 3.892133e+01 2.986460e+01 2.950296e+01 1.295956e+01 5.516701e-01 8.308314e-01 1.663437e+00 2.266682e+00 2.742894e+00 2.897066e+00 2.489198e+00 4.472995e+00 2.187644e+00 3.299324e+00 2.582453e+00 2.060875e+00 5.819351e-01 1.089764e-01 1.749355e-01 2.595027e-01 3.711517e-01 4.583989e-01 4.793190e-01 3.829681e-01 4.858477e-01 4.192179e-01 3.862757e-01 3.731545e-01 3.237339e-01 1.058054e-01
<GCONST> 1.073938e+02
<STATE> 3
<MEAN> 39
 2.327577e+00 7.313148e+00 8.765454e+00 1.395309e+01 -2.435586e+00 -4.373698e+00 -9.980495e-02 -7.526969e+00 -1.110463e+00 6.897836e+00 -7.686078e+00 -6.110840e+00 6.045424e+01 1.765333e-02 2.479140e-01 -4.028227e-02 -1.077846e-01 4.918113e-02 3.709901e-02 -6.060440e-02 -1.656622e-01 -5.884023e-02 2.820512e-02 1.682448e-01 2.288826e-02 -1.885788e-01 -4.625029e-02 2.895396e-02 -3.430841e-02 -1.274570e-01 8.161349e-02 4.826670e-02 -5.416324e-02 1.602352e-01 -2.742720e-02 -1.908266e-01 1.354511e-01 3.242069e-02 2.211756e-02
<VARIANCE> 39
 3.095560e+00 1.115596e+01 9.657808e+00 1.739547e+01 1.739192e+01 2.174692e+01 2.541454e+01 2.814104e+01 3.394987e+01 3.315834e+01 1.952714e+01 2.255477e+01 6.709282e+00 1.393159e-01 3.139473e-01 4.571345e-01 6.641309e-01 7.476541e-01 9.626953e-01 1.031768e+00 1.283558e+00 1.271675e+00 1.307946e+00 1.059194e+00 1.164917e+00 1.219791e-01 2.928530e-02 5.654578e-02 1.001380e-01 1.642033e-01 1.503484e-01 1.853517e-01 2.137396e-01 2.824735e-01 2.318175e-01 2.866789e-01 2.224883e-01 2.189042e-01 2.008367e-02
<GCONST> 7.557436e+01
<STATE> 4
<NUMMIXES> 2
<MIXTURE> 1 5.459069e-01
<MEAN> 39
 1.370087e+00 1.168702e+01 8.209517e+00 1.113901e+01 6.991720e-01 -1.910082e+00 -8.543503e-01 -7.038718e+00 -1.989240e+00 2.943576e+00 -4.110507e+00 -4.697215e+00 5.671781e+01 -3.542543e-01 2.536272e-01 1.946363e-01 -3.886278e-01 5.612907e-01 2.132539e-01 9.579148e-02 5.664304e-01 -2.259693e-01 -6.973303e-01 2.166706e-01 3.214647e-01 -4.113889e-01 -1.747394e-01 -1.322077e-01 -1.172892e-02 -9.782393e-02 3.977766e-02 -3.280294e-02 3.658710e-02 1.914265e-01 -4.111113e-04 -8.327725e-02 -8.178827e-02 5.952021e-02 3.841688e-02
<VARIANCE> 39
 4.178349e+00 6.811708e+00 7.800033e+00 1.542209e+01 1.893338e+01 2.071161e+01 2.628172e+01 2.910610e+01 3.410923e+01 3.934935e+01 2.057604e+01 2.108507e+01 7.240679e+00 4.077148e-01 6.149312e-01 7.192776e-01 1.164213e+00 1.441053e+00 1.825458e+00 2.045544e+00 2.268113e+00 1.890931e+00 2.158590e+00 1.876331e+00 1.569477e+00 2.075805e-01 6.935693e-02 1.143157e-01 1.577450e-01 2.048295e-01 2.749402e-01 3.314322e-01 3.348565e-01 3.998392e-01 3.448803e-01 4.274040e-01 3.120775e-01 3.047999e-01 4.106744e-02
<GCONST> 8.940121e+01
<MIXTURE> 2 4.540946e-01
<MEAN> 39
 -1.532526e+00 9.196874e+00 8.473350e+00 9.334492e+00 1.219558e+00 -2.430835e+00 -4.073452e-01 -3.273056e+00 -2.006531e+00 1.547817e+00 -5.140014e+00 -4.369555e+00 5.781032e+01 -7.590970e-01 -3.264216e-01 -2.754331e-01 -1.238129e+00 2.128207e-02 1.599173e-01 -3.505684e-01 9.549754e-01 -8.118562e-02 -7.071852e-01 5.947127e-01 3.851799e-01 1.197694e-01 7.227459e-03 -8.709154e-02 -1.594810e-01 -8.690217e-02 -2.649996e-01 -4.630302e-02 -4.469840e-02 -2.166984e-02 1.195200e-01 2.652337e-03 8.643671e-02 9.439947e-02 7.191506e-02
<VARIANCE> 39
 1.371624e+01 2.003516e+01 1.992635e+01 3.497760e+01 3.550129e+01 3.768618e+01 3.633756e+01 4.074777e+01 3.702532e+01 5.355821e+01 2.872929e+01 2.977274e+01 1.839072e+01 1.434186e+00 1.709419e+00 2.128606e+00 3.131165e+00 2.974787e+00 3.665735e+00 2.958994e+00 4.090158e+00 3.061969e+00 3.823280e+00 2.802179e+00 2.764484e+00 1.332386e+00 2.503694e-01 2.799979e-01 3.618807e-01 5.915157e-01 5.648078e-01 6.376455e-01 6.388635e-01 7.834545e-01 5.670513e-01 6.672521e-01 5.387670e-01 4.835399e-01 1.885886e-01
<GCONST> 1.181677e+02
<TRANSP> 5
 0.000000e+00 1.000000e+00 0.000000e+00 0.000000e+00 0.000000e+00
 0.000000e+00 7.985297e-01 2.014703e-01 0.000000e+00 0.000000e+00
 0.000000e+00 0.000000e+00 8.712907e-01 1.287092e-01 0.000000e+00
 0.000000e+00 0.000000e+00 0.000000e+00 8.558485e-01 1.441515e-01
 0.000000e+00 0.000000e+00 0.000000e+00 0.000000e+00 0.000000e+00
<ENDHMM>
~h "p"
<BEGINHMM>
<NUMSTATES> 5
<STATE> 2
<NUMMIXES> 2
<MIXTURE> 1 2.684877e-01
<MEAN> 39
 1.726511e+00 5.185264e+00 1.121587e+00 4.088374e+00 4.010905e-01 -3.653306e+00 -5.301419e+00 -1.203296e+00 -7.847705e-01 3.383989e+00 2.350697e+00 -2.714994e+00 6.044388e+01 -9.964158e-01 1.528723e+00 5.531880e-01 1.400350e-01 1.221327e+00 7.153248e-01 9.383742e-01 -5.934715e-01 6.617952e-01 2.155535e-01 -6.573299e-01 2.559281e-01 -2.174805e+00 -2.792873e-01 8.484612e-02 2.065833e-01 -4.613819e-02 -2.797772e-01 2.590864e-02 1.726143e-01 2.094934e-01 -1.378029e-01 -5.498596e-01 -4.117868e-01 2.293964e-01 -4.376889e-02
<VARIANCE> 39
 1.953908e+01 1.557067e+01 3.386998e+01 3.672174e+01 3.412413e+01 7.037508e+01 4.130619e+01 6.582409e+01 3.776039e+01 3.374501e+01 1.914152e+01 1.514704e+01 1.346754e+01 7.030572e-01 1.478866e+00 3.156345e+00 2.433553e+00 2.065967e+00 3.233753e+00 2.728151e+00 5.905202e+00 2.018065e+00 4.375024e+00 2.810532e+00 3.052591e+00 1.137028e+00 1.309407e-01 3.198691e-01 3.221875e-01 3.307720e-01 5.099940e-01 4.673296e-01 5.122177e-01 9.674138e-01 5.952373e-01 5.749652e-01 3.116028e-01 3.044505e-01 1.821493e-01
<GCONST> 1.141666e+02
<MIXTURE> 2 7.315125e-01
<MEAN> 39
 -1.949299e+00 1.053525e+01 6.024539e+00 5.004843e+00 2.174664e+00 -2.355506e+00 4.984287e-01 -8.900818e-01 -1.178203e+00 1.170046e+00 -2.747392e+00 -2.071687e+00 5.421644e+01 -8.205259e-01 -4.408711e-02 -2.659785e-01 -5.757157e-01 -3.786876e-01 -1.161182e-01 3.946687e-01 2.345724e-01 -4.599748e-02 -7.645022e-01 -3.416280e-01 5.127619e-01 -8.375783e-01 1.408011e-01 -3.449657e-01 -2.610026e-01 6.399749e-02 -9.707297e-02 -8.620479e-02 -2.524705e-01 -1.517525e-01 1.915849e-02 1.455048e-02 2.119545e-01 -4.114683e-02 2.238424e-01
<VARIANCE> 39
 1.219061e+01 6.798572e+00 1.587226e+01 2.137742e+01 3.139764e+01 3.045506e+01 3.474112e+01 3.304613e+01 3.069687e+01 2.750782e+01 2.332309e+01 2.343190e+01 4.163696e+00 7.477555e-01 1.373562e+00 1.700160e+00 1.725129e+00 2.379623e+00 2.312065e+00 2.602818e+00 3.448440e+00 2.876417e+00 2.420615e+00 2.676011e+00 2.080235e+00 3.085154e-01 1.129420e-01 2.021818e-01 3.160422e-01 3.432649e-01 4.442334e-01 4.184584e-01 5.025523e-01 5.799827e-01 5.784060e-01 5.638725e-01 5.077393e-01 4.281269e-01 8.502064e-02
<GCONST> 1.037552e+02
<STATE> 3
<MEAN> 39
 -5.384140e+00 7.245260e+00 2.339883e+00 3.202235e+00 -8.329763e-02 -3.747552e+00 -1.991848e+00 -2.650105e+00 -1.273461e+00 -9.401608e-01 -1.404165e+00 3.119843e-02 5.190886e+01 -1.020398e-01 -1.869126e-01 -1.022165e-01 -2.843767e-02 2.434911e-02 1.248082e-01 -1.671993e-03 -2.021741e-01 1.226640e-02 -1.179982e-02 6.235084e-02 2.022354e-02 -1.359498e-01 1.630006e-02 2.247658e-02 7.105786e-02 2.708457e-02 3.026664e-02 1.396459e-02 9.914287e-03 1.512997e-02 9.245777e-04 7.114173e-02 4.360722e-03 -1.896014e-02 5.734712e-02
<VARIANCE> 39
 7.964738e+00 8.855646e+00 1.257855e+01 1.857369e+01 2.642930e+01 3.533131e+01 3.683616e+01 3.454680e+01 3.363670e+01 3.276284e+01 2.697694e+01 2.183553e+01 3.283708e+00 2.515934e-01 5.597459e-01 1.003980e+00 1.475572e+00 1.634419e+00 2.098124e+00 2.406312e+00 2.655929e+00 2.458179e+00 2.244108e+00 2.390021e+00 1.957011e+00 7.591301e-02 5.133851e-02 1.289705e-01 2.092425e-01 2.958461e-01 3.271540e-01 4.197756e-01 4.770915e-01 5.644336e-01 4.852350e-01 4.371245e-01 5.081992e-01 4.191098e-01 2.168285e-02
<GCONST> 9.411440e+01
<STATE> 4
<NUMMIXES> 2
<MIXTURE> 1 5.201531e-01
<MEAN> 39
 -1.037546e+01 -1.108282e+00 1.341700e+00 1.720288e+00 -7.930973e-01 -4.372169e+00 -3.265280e+00 7.100360e-01 1.744209e+00 1.305700e+00 -3.825807e-01 3.648573e-01 6.294699e+01 1.362003e-01 -6.775987e-01 4.650206e-01 4.080885e-01 -1.491491e-01 -7.269685e-01 -5.105811e-01 8.169301e-01 -5.971023e-03 -1.559923e-01 1.602102e-01 -2.388937e-01 1.032243e+00 5.838339e-01 7.428324e-01 1.938724e-01 1.682174e-01 -4.469520e-03 1.221384e-01 1.918231e-01 -2.192416e-01 -2.986069e-01 -2.105848e-01 2.283500e-02 -1.237062e-01 -6.718124e-01
<VARIANCE> 39
 1.940100e+01 2.419931e+01 2.514375e+01 3.687271e+01 3.284517e+01 4.526336e+01 3.823431e+01 4.312397e+01 3.814320e+01 4.322939e+01 2.712116e+01 2.714073e+01 2.520820e+01 3.698052e+00 3.523345e+00 2.744074e+00 4.294045e+00 3.599582e+00 4.366560e+00 3.963075e+00 4.342040e+00 3.610634e+00 3.726929e+00 2.847739e+00 2.803900e+00 4.985564e+00 2.552198e-01 4.435856e-01 3.737112e-01 7.094400e-01 6.874321e-01 8.278017e-01 8.138270e-01 7.410164e-01 6.215388e-01 6.870292e-01 5.986913e-01 6.010658e-01 5.807452e-01
<GCONST> 1.265351e+02
<MIXTURE> 2 4.798466e-01
<MEAN> 39
 -5.838722e+00 6.956416e+00 2.402575e+00 2.918515e+00 7.184992e-01 -1.635439e+00 1.611234e-01 -2.203354e+00 -6.154942e-01 -6.190895e-01 -1.112539e+00 3.171401e-02 5.143075e+01 -6.499586e-01 -9.761893e-01 -8.161770e-02 -2.114619e-01 -4.125579e-02 -4.809613e-02 -3.153011e-01 4.026774e-01 5.271425e-01 5.089664e-01 2.339935e-01 2.144203e-01 1.673495e+00 -1.595925e-01 -4.612134e-01 6.418973e-03 -5.714347e-02 -1.616575e-01 -3.014452e-01 -2.518095e-01 3.566469e-01 8.437191e-02 3.169942e-02 2.507667e-02 3.897304e-02 8.444855e-01
<VARIANCE> 39
 6.479038e+00 1.084575e+01 1.161739e+01 1.675762e+01 1.941663e+01 2.902694e+01 3.938430e+01 3.141565e+01 3.152641e+01 2.579845e+01 1.851717e+01 2.063250e+01 3.467367e+00 9.660822e-01 1.819705e+00 1.324109e+00 1.971649e+00 2.621787e+00 3.862586e+00 4.201370e+00 3.774829e+00 2.777679e+00 3.331853e+00 2.211829e+00 2.216434e+00 3.782993e+00 2.447511e-01 2.000774e-01 2.967554e-01 4.385130e-01 3.447084e-01 6.936034e-01 7.760450e-01 6.989204e-01 5.363260e-01 5.369166e-01 3.980169e-01 4.260554e-01 2.223914e-01
<GCONST> 1.086730e+02
<TRANSP> 5
 0.000000e+00 1.000000e+00 0.000000e+00 0.000000e+00 0.000000e+00
 0.000000e+00 8.249350e-01 1.750650e-01 0.000000e+00 0.000000e+00
 0.000000e+00 0.000000e+00 9.044970e-01 9.550308e-02 0.000000e+00
 0.000000e+00 0.000000e+00 0.000000e+00 8.570302e-01 1.429697e-01
 0.000000e+00 0.000000e+00 0.000000e+00 0.000000e+00 0.000000e+00
<ENDHMM>
~h "r"
<BEGINHMM>
<NUMSTATES> 5
<STATE> 2
<NUMMIXES> 2
<MIXTURE> 1 5.831982e-01
<MEAN> 39
 -4.615209e+00 -9.260862e-01 9.416316e-01 6.451476e+00 1.866714e+00 -1.366369e+00 -4.729388e+00 -1.318592e+00 2.981303e+00 1.422975e+00 -1.120348e+00 -1.525492e+00 5.878745e+01 1.604093e+00 9.747875e-01 9.920982e-02 4.576171e-01 1.671063e-01 2.259320e-02 -2.014057e-02 -1.001524e-01 -3.377699e-01 -1.037767e-01 2.411981e-01 2.407884e-02 2.973320e-02 1.228826e-01 -4.992958e-03 -1.320858e-01 -1.507666e-01 -3.286414e-01 -2.231399e-01 -4.401968e-02 1.040904e-02 -2.062800e-01 -5.595046e-02 1.761578e-01 1.941502e-01 2.029341e-01
<VARIANCE> 39
 2.658859e+01 4.387345e+01 2.894863e+01 3.276283e+01 3.133619e+01 4.836390e+01 3.879484e+01 4.807776e+01 4.543773e+01 3.534464e+01 3.354871e+01 3.124147e+01 2.039578e+01 3.380598e+00 2.502960e+00 2.010722e+00 2.767378e+00 2.829312e+00 3.588845e+00 3.143922e+00 2.625243e+00 3.542970e+00 3.165421e+00 2.814434e+00 2.648188e+00 1.181538e+00 2.659169e-01 5.401046e-01 4.372151e-01 5.820826e-01 6.051326e-01 6.114302e-01 5.872903e-01 4.867930e-01 6.487639e-01 5.154383e-01 5.706844e-01 5.322320e-01 1.763661e-01
<GCONST> 1.210955e+02
<MIXTURE> 2 4.168023e-01
<MEAN> 39
 6.277199e+00 2.062610e+00 -1.313435e+00 7.021405e+00 -3.935508e+00 -4.448304e+00 -6.567587e+00 -1.152447e+00 -2.435744e+00 5.879912e-01 3.375673e+00 7.261361e-01 6.511082e+01 8.239573e-01 -4.362653e-01 -6.103216e-01 -9.265059e-02 -1.065963e+00 -7.991629e-01 -6.079756e-01 9.745587e-02 -2.660047e-01 1.072929e-01 9.362744e-01 4.516434e-01 5.357405e-01 -5.883967e-01 -1.791355e-01 1.949979e-01 -3.725134e-02 2.166093e-01 1.945296e-01 1.534929e-01 1.374787e-01 2.771432e-01 -3.226596e-02 -2.308752e-01 -2.408843e-01 -1.824650e-01
<VARIANCE> 39
 8.010135e+00 1.938699e+01 5.295502e+01 2.449032e+01 3.199370e+01 8.902339e+01 4.491077e+01 4.789223e+01 4.355444e+01 3.603727e+01 4.046997e+01 2.712314e+01 1.120696e+01 1.448875e+00 1.205647e+00 2.116972e+00 1.739513e+00 2.690934e+00 2.785339e+00 2.508782e+00 2.721197e+00 3.237995e+00 2.457991e+00 2.558062e+00 2.299901e+00 7.884264e-01 2.570952e-01 3.247261e-01 2.170481e-01 2.692140e-01 2.930221e-01 4.209459e-01 3.720850e-01 3.810660e-01 3.712019e-01 3.764229e-01 4.050872e-01 3.103548e-01 6.450917e-02
<GCONST> 1.095477e+02
<STATE> 3
<MEAN> 39
 7.076518e+00 2.273484e+00 -4.750184e+00 6.177299e+00 -2.546193e+00 -1.477574e+00 -7.441204e+00 -2.478225e+00 -3.084234e+00 2.134363e+00 4.384832e+00 6.043447e-01 6.492493e+01 -1.988089e-02 -2.167108e-01 2.291459e-01 2.012726e-01 -1.016072e-01 -3.905398e-01 -2.136792e-01 3.055173e-01 3.737920e-01 -7.404766e-02 -2.828257e-01 -1.729655e-01 4.303011e-02 -6.933661e-02 2.633313e-02 1.137748e-01 -2.613270e-02 -1.078472e-02 -2.536460e-02 7.895861e-02 7.917276e-02 8.454947e-03 -1.165075e-01 -7.848424e-02 8.273049e-03 -1.528339e-02
<VARIANCE> 39
 5.742475e+00 1.710233e+01 3.052628e+01 1.549699e+01 2.869332e+01 5.946727e+01 4.317577e+01 5.112753e+01 5.700906e+01 4.039763e+01 6.146297e+01 3.579398e+01 9.756173e+00 1.980971e-01 5.131654e-01 7.762920e-01 9.394987e-01 9.661444e-01 1.798627e+00 1.682292e+00 1.675594e+00 1.829242e+00 1.993475e+00 2.083905e+00 1.471660e+00 2.084513e-01 3.007706e-02 5.510110e-02 8.934601e-02 1.084487e-01 1.464675e-01 1.998566e-01 2.131286e-01 2.767362e-01 2.541528e-01 2.835215e-01 2.830658e-01 2.336576e-01 1.659954e-02
<GCONST> 8.826924e+01
<STATE> 4
<NUMMIXES> 2
<MIXTURE> 1 6.207241e-01
<MEAN> 39
 4.510535e+00 -1.302778e+00 7.732486e+00 8.270774e+00 -1.287300e+01 -1.393564e+01 -3.548427e+00 4.577212e+00 -9.417557e-01 -4.666507e+00 6.005855e+00 3.165531e+00 6.691166e+01 -6.663157e-02 1.037687e-01 1.446106e-01 -5.775649e-02 -2.130987e-01 9.691530e-02 2.380351e-01 -8.042306e-02 -1.199123e-01 1.064035e-01 3.340776e-02 1.743847e-02 -5.940406e-02 -9.786856e-03 5.596714e-02 -3.258108e-02 -1.350168e-02 6.781780e-02 4.969589e-02 -4.811870e-02 -5.400576e-02 1.752008e-02 7.969728e-02 -4.189085e-02 -2.458913e-02 -2.363972e-02
<VARIANCE> 39
 6.238245e+00 1.632511e+01 3.608440e+01 1.782681e+01 3.103065e+01 3.716327e+01 4.295917e+01 3.941478e+01 5.673264e+01 2.298096e+01 4.009596e+01 2.850814e+01 7.972876e+00 1.626770e-01 3.461405e-01 5.489467e-01 4.822235e-01 8.474298e-01 9.014815e-01 1.012255e+00 1.081523e+00 1.170373e+00 1.021483e+00 1.260826e+00 9.320889e-01 1.336571e-01 1.508391e-02 3.642261e-02 5.350583e-02 6.717539e-02 9.630586e-02 1.228762e-01 1.332080e-01 1.355723e-01 1.426472e-01 1.438839e-01 1.590760e-01 1.346188e-01 1.070171e-02
<GCONST> 7.363203e+01
<MIXTURE> 2 3.792768e-01
<MEAN> 39
 5.375849e+00 1.123284e-01 7.983251e-01 9.119865e+00 -5.687239e+00 -7.047883e+00 -8.284361e+00 4.268078e+00 8.696432e-01 -1.576751e+00 6.375006e-01 -7.702750e-02 6.544279e+01 -6.242830e-01 2.585306e-01 1.102561e+00 4.214073e-02 -1.717273e-01 -6.611944e-01 7.077408e-01 5.573050e-01 -1.089826e-01 -7.905725e-01 6.159011e-03 4.403248e-01 -2.023661e-01 -1.629481e-01 2.517599e-01 1.655380e-02 -1.431016e-01 1.531551e-01 2.499323e-01 2.378931e-01 -3.175870e-01 -2.222280e-01 1.390821e-01 1.330041e-01 1.362370e-02 -1.225076e-01
<VARIANCE> 39
 7.223884e+00 1.705351e+01 3.356849e+01 2.587467e+01 3.105917e+01 6.541368e+01 5.458963e+01 4.914902e+01 4.870629e+01 4.298098e+01 3.601917e+01 3.035952e+01 1.306018e+01 4.127317e-01 8.516924e-01 1.186834e+00 1.091128e+00 2.008879e+00 2.467475e+00 2.267909e+00 2.956960e+00 2.186247e+00 2.312165e+00 2.185767e+00 1.888516e+00 5.664773e-01 6.256100e-02 1.061773e-01 1.250750e-01 1.991730e-01 2.329646e-01 3.558678e-01 3.583825e-01 4.404996e-01 3.412172e-01 3.291538e-01 2.927026e-01 2.795124e-01 5.904172e-02
<GCONST> 1.006070e+02
<TRANSP> 5
 0.000000e+00 1.000000e+00 0.000000e+00 0.000000e+00 0.000000e+00
 0.000000e+00 7.925226e-01 2.074773e-01 0.000000e+00 0.000000e+00
 0.000000e+00 0.000000e+00 8.119763e-01 1.880237e-01 0.000000e+00
 0.000000e+00 0.000000e+00 0.000000e+00 8.427474e-01 1.572526e-01
 0.000000e+00 0.000000e+00 0.000000e+00 0.000000e+00 0.000000e+00
<ENDHMM>
~h "s"
<BEGINHMM>
<NUMSTATES> 5
<STATE> 2
<NUMMIXES> 2
<MIXTURE> 1 4.024040e-01
<MEAN> 39
 -4.561783e+00 1.042852e+01 7.666509e+00 4.208770e+00 1.439593e+00 -6.479794e+00 -5.336416e-01 1.433065e+00 -1.989463e+00 2.508537e+00 -9.217605e-01 5.780051e-01 6.348100e+01 -2.593820e+00 4.712733e-01 2.558203e-01 -6.675261e-01 1.817573e+00 3.155065e-01 1.116703e+00 2.130054e-01 -5.190955e-02 -5.217899e-01 -5.835905e-01 8.869382e-02 6.436513e-02 -5.560464e-01 -2.443330e-01 -3.292985e-01 -2.439838e-01 -2.305449e-01 -1.994632e-02 -7.912330e-02 -1.524106e-01 -2.344461e-01 -2.089466e-01 7.885842e-02 -7.573863e-02 2.413241e-01
<VARIANCE> 39
 2.087622e+01 1.856702e+01 2.711869e+01 2.975152e+01 6.448727e+01 6.041019e+01 4.372355e+01 4.073849e+01 4.069524e+01 3.034637e+01 3.728709e+01 3.446194e+01 1.330986e+01 1.579234e+00 1.306821e+00 2.248560e+00 2.203358e+00 3.532024e+00 3.840463e+00 2.412741e+00 3.468310e+00 3.173012e+00 3.439426e+00 3.397717e+00 2.774944e+00 5.486763e-01 1.859067e-01 1.802934e-01 2.907364e-01 3.937927e-01 5.843905e-01 5.868133e-01 4.979256e-01 4.962262e-01 4.814987e-01 5.467446e-01 5.955978e-01 4.489610e-01 6.924084e-02
<GCONST> 1.146840e+02
<MIXTURE> 2 5.975960e-01
<MEAN> 39
 -1.812330e+01 9.978190e+00 4.237701e+00 -6.071451e-01 4.343696e+00 -5.569156e+00 6.128573e-01 5.428960e-01 -3.738336e+00 -4.709142e-01 -1.783985e+00 3.358082e-01 6.481757e+01 -2.483516e+00 1.354289e-01 -9.239536e-01 -1.058025e+00 1.840435e-01 -1.958200e-01 -2.074073e-01 -2.301538e-01 -5.197256e-01 -1.180912e-01 -9.227106e-02 2.146498e-02 6.043038e-01 5.334294e-01 -3.322335e-02 3.719290e-02 1.387659e-01 -1.303825e-01 7.375250e-02 -1.136792e-01 -1.346408e-02 7.041615e-02 1.784325e-01 1.100949e-02 -3.377229e-02 -1.060119e-01
<VARIANCE> 39
 2.622061e+01 3.744156e+01 3.565001e+01 4.834174e+01 4.273258e+01 5.065102e+01 6.039953e+01 4.454827e+01 4.075515e+01 3.762377e+01 3.175516e+01 3.223488e+01 1.262156e+01 1.845322e+00 2.850755e+00 1.947569e+00 2.418327e+00 2.804994e+00 3.124621e+00 3.024115e+00 3.004978e+00 2.843122e+00 2.968524e+00 2.738712e+00 2.285374e+00 5.878201e-01 2.412970e-01 5.691154e-01 3.649186e-01 4.466476e-01 6.107762e-01 6.458989e-01 6.346235e-01 5.533850e-01 5.413519e-01 5.473832e-01 5.439421e-01 4.541348e-01 1.089634e-01
<GCONST> 1.188136e+02
<STATE> 3
<MEAN> 39
 -2.421763e+01 9.438236e+00 1.172759e+00 -3.510491e+00 5.208201e+00 -5.876617e+00 7.608353e-01 6.413175e-01 -4.416790e+00 6.506661e-01 -2.303127e+00 3.700797e-01 6.625468e+01 -1.592243e-01 -2.587763e-01 -4.023416e-02 -1.674337e-01 -8.544751e-02 1.091703e-01 -6.000333e-02 1.207322e-01 9.619090e-02 3.113436e-02 3.045131e-02 -1.900404e-02 1.661832e-02 1.380180e-01 -5.267520e-02 7.224619e-02 4.792554e-02 -8.551676e-02 -3.475609e-02 -1.589122e-02 3.651665e-02 4.105939e-02 -2.376659e-02 3.695491e-02 1.561590e-02 -6.002042e-02
<VARIANCE> 39
 6.482616e+00 1.862773e+01 3.158556e+01 4.027625e+01 3.306776e+01 4.401712e+01 5.547983e+01 4.585966e+01 4.337960e+01 3.855707e+01 2.947616e+01 2.904471e+01 6.985116e+00 3.594823e-01 1.115664e+00 1.112270e+00 1.531923e+00 2.008233e+00 2.415088e+00 2.456958e+00 2.858747e+00 2.505085e+00 2.772003e+00 2.385480e+00 1.964300e+00 1.765783e-01 7.872875e-02 1.490184e-01 2.114407e-01 3.042764e-01 3.612762e-01 4.756091e-01 4.634891e-01 5.707711e-01 4.961535e-01 5.636582e-01 4.711226e-01 3.875955e-01 2.730270e-02
<GCONST> 1.029031e+02
<STATE> 4
<NUMMIXES> 2
<MIXTURE> 1 4.202579e-01
<MEAN> 39
 -1.337091e+01 6.376617e+00 1.504764e+00 -1.089248e+00 1.912440e+00 -6.616751e+00 -1.971570e+00 1.044708e+00 -2.468678e+00 1.417655e+00 -2.146502e+00 -1.725455e-01 5.794759e+01 2.047761e+00 4.428381e-01 1.566596e-01 1.098441e+00 -6.388784e-02 4.676138e-01 7.052802e-02 -1.867884e-02 1.889326e-01 -2.409962e-02 -2.885620e-01 -3.307589e-01 -9.881103e-01 -1.590564e-01 9.519228e-02 6.438561e-02 9.330519e-03 -4.679139e-02 1.595558e-02 5.195009e-02 3.022954e-02 1.968160e-02 1.789865e-02 9.493510e-02 -6.640650e-03 4.542136e-01
<VARIANCE> 39
 1.014486e+01 3.862218e+01 2.616355e+01 3.464854e+01 3.913910e+01 3.347421e+01 4.701267e+01 4.474966e+01 4.061554e+01 3.420087e+01 3.158189e+01 2.827528e+01 1.474867e+01 2.482087e+00 2.754439e+00 2.806456e+00 3.422350e+00 3.268234e+00 3.030329e+00 2.896755e+00 3.347556e+00 2.682267e+00 3.106678e+00 2.704917e+00 2.395414e+00 1.288768e+00 3.464369e-01 3.870561e-01 4.015040e-01 5.805399e-01 6.565216e-01 5.292503e-01 5.558778e-01 5.973490e-01 5.144513e-01 6.129861e-01 4.917795e-01 5.178975e-01 1.816288e-01
<GCONST> 1.191483e+02
<MIXTURE> 2 5.797418e-01
<MEAN> 39
 -2.256416e+01 5.327544e+00 2.682166e+00 -3.975339e+00 1.714453e+00 -5.581846e+00 -1.583499e+00 2.261058e+00 -2.248605e+00 1.578181e-01 -1.078952e+00 8.466934e-01 6.516800e+01 1.537915e+00 -4.812612e-01 1.664561e-01 3.770632e-01 -5.795924e-01 -3.042651e-01 -3.989019e-01 1.262372e-01 3.426272e-01 4.687585e-02 -1.650542e-03 -8.890153e-03 -9.212712e-01 5.206578e-01 1.974018e-01 -4.159219e-02 2.460041e-01 1.147952e-01 1.162098e-01 -2.542426e-02 -9.924844e-02 -3.243614e-02 3.914291e-02 -1.464588e-01 -1.344689e-01 -2.487939e-01
<VARIANCE> 39
 1.287166e+01 4.942427e+01 3.903084e+01 3.564226e+01 4.060942e+01 5.846788e+01 5.412222e+01 5.377115e+01 5.165655e+01 4.210648e+01 3.331981e+01 3.074850e+01 8.305264e+00 1.613816e+00 2.300379e+00 2.031237e+00 2.427161e+00 2.799989e+00 3.791748e+00 2.992057e+00 3.227949e+00 2.938757e+00 3.360057e+00 2.576239e+00 2.687216e+00 7.308381e-01 2.134202e-01 5.258433e-01 4.446859e-01 4.944575e-01 5.786420e-01 7.786851e-01 6.031303e-01 6.656579e-01 5.440825e-01 7.003871e-01 5.138916e-01 4.940588e-01 8.836997e-02
<GCONST> 1.191276e+02
<TRANSP> 5
 0.000000e+00 1.000000e+00 0.000000e+00 0.000000e+00 0.000000e+00
 0.000000e+00 8.578634e-01 1.421367e-01 0.000000e+00 0.000000e+00
 0.000000e+00 0.000000e+00 9.139016e-01 8.609846e-02 0.000000e+00
 0.000000e+00 0.000000e+00 0.000000e+00 8.588837e-01 1.411163e-01
 0.000000e+00 0.000000e+00 0.000000e+00 0.000000e+00 0.000000e+00
<ENDHMM>
~h "t"
<BEGINHMM>
<NUMSTATES> 5
<STATE> 2
<NUMMIXES> 2
<MIXTURE> 1 3.574802e-01
<MEAN> 39
 -3.453035e+00 7.781076e+00 6.064166e+00 3.992660e+00 -2.625015e+00 -3.538685e+00 -2.090354e+00 3.512570e-02 -4.733160e-01 -8.681583e-01 -1.097098e+00 -1.363823e-01 5.907909e+01 -2.756468e-01 5.115655e-01 -3.809607e-01 -7.604486e-02 8.255696e-01 2.054354e-01 1.479501e-02 -4.295798e-01 -6.035991e-02 8.613768e-02 -2.948059e-01 4.474301e-02 -1.519980e+00 3.947977e-02 -2.164734e-01 -2.551727e-01 -2.978744e-02 -1.937466e-01 -6.430857e-02 4.279974e-02 -3.637497e-02 -2.324848e-02 -3.636555e-02 6.690144e-02 -1.588903e-02 9.147421e-02
<VARIANCE> 39
 2.988164e+01 2.489982e+01 3.725256e+01 3.719405e+01 4.941077e+01 5.009670e+01 4.849312e+01 4.676839e+01 4.633461e+01 3.367735e+01 4.193367e+01 3.012960e+01 2.732493e+01 2.032133e+00 2.291198e+00 3.098405e+00 3.015862e+00 4.643639e+00 4.292077e+00 4.134251e+00 4.094139e+00 3.562828e+00 2.903473e+00 3.464713e+00 2.897130e+00 1.711753e+00 3.730541e-01 4.644647e-01 4.838918e-01 5.718620e-01 8.786671e-01 8.543698e-01 7.382568e-01 7.894340e-01 6.958222e-01 5.789426e-01 6.605422e-01 5.291830e-01 3.514059e-01
<GCONST> 1.267700e+02
<MIXTURE> 2 6.425169e-01
<MEAN> 39
 -5.660100e+00 7.413512e+00 2.478580e+00 2.767304e+00 -1.111595e+00 -4.553106e+00 -1.916858e+00 -2.129336e+00 -1.189252e+00 -9.381700e-01 -1.118702e+00 1.218611e-01 5.260406e+01 -1.565623e-01 -2.559645e-01 -2.230853e-01 -9.701623e-02 -8.737624e-02 1.260692e-02 6.157822e-03 -9.867242e-02 8.753463e-02 1.813008e-02 9.917863e-02 7.124107e-02 -2.310786e-01 -3.362771e-02 -5.606579e-02 1.225038e-01 -2.326905e-02 3.501930e-02 1.075896e-01 -7.916654e-03 3.309411e-02 1.170052e-02 2.366129e-02 2.178912e-02 -2.247749e-02 1.941452e-01
<VARIANCE> 39
 1.102464e+01 1.137063e+01 1.571878e+01 2.037678e+01 2.482465e+01 3.071947e+01 3.751565e+01 3.858751e+01 3.619075e+01 3.221199e+01 2.828425e+01 2.159406e+01 3.358573e+00 3.860478e-01 6.598969e-01 1.127223e+00 1.638338e+00 1.998095e+00 2.233130e+00 2.345594e+00 2.602657e+00 2.384655e+00 2.641726e+00 2.419276e+00 1.898147e+00 1.416056e-01 7.828081e-02 1.859035e-01 2.458666e-01 3.325496e-01 3.908623e-01 4.945123e-01 5.057654e-01 5.531959e-01 4.912666e-01 5.759653e-01 4.918407e-01 3.807832e-01 8.432335e-02
<GCONST> 9.977829e+01
<STATE> 3
<MEAN> 39
 -6.068212e+00 7.115800e+00 2.710965e+00 2.966807e+00 -1.034295e-01 -3.337371e+00 -1.383478e+00 -2.272377e+00 -9.362401e-01 -1.291883e-01 -8.547528e-01 4.894568e-02 5.229849e+01 -1.140276e+00 -2.229362e+00 6.617987e-02 -1.390726e+00 -2.253283e-01 7.065301e-01 3.246630e-02 3.127053e-01 -1.834260e-02 2.564852e-01 3.640288e-01 4.161784e-01 2.410006e+00 -6.848981e-01 -5.007340e-01 1.724358e-01 -5.276228e-01 -3.344857e-01 -1.156739e-01 1.904682e-02 2.452778e-01 -7.751221e-02 6.453915e-02 2.995883e-02 1.519064e-01 1.177122e+00
<VARIANCE> 39
 1.049602e+01 1.302746e+01 1.600550e+01 2.042458e+01 2.281870e+01 2.977166e+01 3.132961e+01 3.311803e+01 3.502656e+01 3.396863e+01 2.523023e+01 2.404003e+01 4.580853e+00 1.997740e+00 4.466005e+00 2.559967e+00 4.210008e+00 3.407190e+00 4.003258e+00 3.115398e+00 3.790444e+00 3.446048e+00 3.281068e+00 2.445279e+00 2.315884e+00 5.453627e+00 2.059471e-01 5.199932e-01 3.358762e-01 5.419223e-01 6.090845e-01 6.857859e-01 5.700538e-01 6.943284e-01 5.989382e-01 6.473278e-01 4.840962e-01 4.819779e-01 2.862085e-01
<GCONST> 1.169739e+02
<STATE> 4
<NUMMIXES> 2
<MIXTURE> 1 6.243383e-01
<MEAN> 39
 -1.638873e+01 -2.459266e-01 6.791871e+00 -3.678487e-01 -4.814382e+00 -5.731778e+00 -7.057735e-01 2.437067e+00 -1.671207e+00 -1.327644e-01 -6.368660e-01 1.204975e+00 6.453207e+01 1.223477e+00 7.960495e-01 7.716637e-01 1.787014e+00 2.787773e-01 -2.150443e-01 6.129075e-02 2.229165e-01 -2.994116e-02 -3.816161e-01 -3.816793e-01 -5.551203e-01 -1.365497e+00 9.365087e-01 2.511770e-01 -1.767273e-01 3.448848e-01 1.769892e-01 2.299014e-01 -1.885439e-01 -2.544240e-01 4.949823e-03 -3.846747e-02 1.147344e-02 -1.381861e-01 -3.786655e-01
<VARIANCE> 39
 3.729970e+01 3.507465e+01 3.128687e+01 4.505566e+01 3.577891e+01 3.835070e+01 4.079823e+01 4.417183e+01 4.689706e+01 4.510736e+01 3.315468e+01 3.073440e+01 2.230600e+01 4.325257e+00 3.084893e+00 3.466571e+00 4.334805e+00 3.620019e+00 4.309844e+00 3.146861e+00 3.061558e+00 3.067694e+00 2.898863e+00 2.454017e+00 2.696397e+00 1.625067e+00 8.079975e-01 5.331939e-01 5.624322e-01 8.627331e-01 7.323411e-01 7.526356e-01 6.416464e-01 6.568620e-01 6.230471e-01 6.951585e-01 5.417560e-01 5.926708e-01 7.943697e-01
<GCONST> 1.281601e+02
<MIXTURE> 2 3.756595e-01
<MEAN> 39
 -1.369177e+01 -4.782091e+00 3.020645e+00 -5.201629e+00 -2.647384e+00 -6.165516e-01 -1.828879e+00 -2.956424e-01 -1.436972e+00 8.228703e-01 1.363681e-01 1.791759e+00 6.804731e+01 -2.658070e+00 -1.033198e+00 6.922652e-01 -1.392923e+00 -1.353556e+00 -8.498626e-01 1.573029e-01 1.056583e+00 -1.794471e-01 9.176321e-02 2.602307e-01 5.186594e-01 3.400935e+00 5.176207e-01 1.265024e+00 3.616344e-01 1.109719e+00 9.376659e-02 -4.916546e-01 7.629268e-02 -7.747274e-03 -2.161355e-02 -2.009938e-01 -1.930355e-01 -2.675826e-01 -1.422225e+00
<VARIANCE> 39
 2.711756e+01 4.520722e+01 4.007800e+01 5.171943e+01 4.725888e+01 4.171097e+01 3.653927e+01 3.063825e+01 3.116701e+01 3.034817e+01 2.189689e+01 1.877668e+01 3.158691e+01 2.476176e+00 4.732113e+00 3.114366e+00 4.036574e+00 3.939067e+00 3.719042e+00 3.694972e+00 4.013104e+00 4.059582e+00 4.069029e+00 2.968839e+00 2.875143e+00 3.481385e+00 8.584662e-01 6.618266e-01 6.796052e-01 1.093203e+00 9.659243e-01 8.856384e-01 6.873024e-01 6.719125e-01 6.950612e-01 6.087396e-01 4.608569e-01 4.932562e-01 7.297593e-01
<GCONST> 1.294780e+02
<TRANSP> 5
 0.000000e+00 1.000000e+00 0.000000e+00 0.000000e+00 0.000000e+00
 0.000000e+00 8.814713e-01 1.185288e-01 0.000000e+00 0.000000e+00
 0.000000e+00 0.000000e+00 6.304967e-01 3.695033e-01 0.000000e+00
 0.000000e+00 0.000000e+00 0.000000e+00 8.177428e-01 1.822571e-01
 0.000000e+00 0.000000e+00 0.000000e+00 0.000000e+00 0.000000e+00
<ENDHMM>
~h "v"
<BEGINHMM>
<NUMSTATES> 5
<STATE> 2
<NUMMIXES> 2
<MIXTURE> 1 6.352360e-01
<MEAN> 39
 4.503299e+00 6.333531e+00 -5.416149e-01 6.313581e+00 -5.974184e-01 -5.402100e+00 -7.757408e+00 -2.599894e+00 -6.947374e-01 4.326172e+00 4.403540e+00 -3.034549e+00 6.186880e+01 -2.645869e-01 6.709803e-01 2.016912e-01 -1.478644e-01 8.552434e-01 6.054922e-01 3.785747e-01 -8.244501e-01 -7.407764e-02 3.442695e-01 1.993101e-01 3.690711e-01 -8.031269e-01 -1.909993e-01 -1.135582e-01 2.389145e-01 4.067937e-02 -1.494384e-01 1.024451e-01 2.512356e-01 1.568604e-01 -4.167642e-02 -2.863898e-01 -1.387146e-01 1.196931e-01 1.013535e-01
<VARIANCE> 39
 8.563924e+00 1.344728e+01 2.506504e+01 1.254457e+01 1.855026e+01 4.444237e+01 3.325907e+01 3.328220e+01 3.526175e+01 2.759070e+01 2.721617e+01 2.606077e+01 1.164129e+01 4.065826e-01 5.374248e-01 8.218674e-01 9.407625e-01 1.333180e+00 1.937880e+00 1.779915e+00 2.514980e+00 2.352257e+00 2.586135e+00 1.638243e+00 1.937878e+00 2.758355e-01 3.065410e-02 7.878742e-02 1.059170e-01 1.321349e-01 1.814906e-01 2.801612e-01 2.717276e-01 3.549804e-01 4.055875e-01 3.225687e-01 2.807415e-01 2.982842e-01 2.365248e-02
<GCONST> 9.026926e+01
<MIXTURE> 2 3.647645e-01
<MEAN> 39
 3.744945e+00 1.173723e+00 4.323006e+00 8.768290e+00 -9.149574e+00 -1.157811e+01 -7.913651e+00 5.565271e+00 -2.331290e+00 -3.315817e+00 4.970633e+00 -2.168051e-01 6.706821e+01 4.708732e-01 5.476345e-01 -8.656518e-01 1.376023e-02 1.541664e+00 4.023392e-01 -9.786193e-01 -4.890548e-01 7.516228e-01 7.096388e-01 -1.583023e-01 -4.955103e-01 -9.079202e-01 -6.638779e-02 1.897418e-01 4.806696e-02 -2.216721e-01 1.802003e-01 2.130715e-01 2.376784e-01 -4.587341e-01 1.561650e-02 3.971644e-01 2.057852e-02 -9.859868e-02 -1.603918e-01
<VARIANCE> 39
 6.190421e+00 2.094429e+01 3.783853e+01 1.156118e+01 2.178061e+01 8.342329e+01 5.741660e+01 6.730807e+01 4.772260e+01 2.822467e+01 5.061163e+01 2.761597e+01 1.582942e+01 1.812594e-01 4.339397e-01 6.040775e-01 9.265243e-01 7.544488e-01 1.629110e+00 1.289869e+00 3.042929e+00 1.947231e+00 1.852463e+00 2.227891e+00 1.142597e+00 3.878279e-01 2.933079e-02 3.798859e-02 9.491301e-02 1.293996e-01 1.407576e-01 2.714961e-01 2.337601e-01 2.738299e-01 2.899788e-01 2.042667e-01 3.140337e-01 1.821975e-01 2.749001e-02
<GCONST> 8.882474e+01
<STATE> 3
<MEAN> 39
 -2.444068e+00 8.013018e+00 5.127298e+00 6.154337e+00 1.722730e+00 -2.398909e+00 -3.362517e+00 -3.011077e+00 4.240704e-02 1.984289e+00 1.317602e+00 1.657532e-01 5.888958e+01 -8.147318e-01 -2.917337e-01 3.222590e-01 -2.117952e-02 1.640812e-01 3.000807e-01 3.348715e-01 8.900647e-02 -2.523613e-02 -4.058613e-01 -2.947579e-01 6.043638e-02 7.644518e-02 7.207915e-02 -1.087630e-01 -1.324576e-01 -2.714514e-02 -1.192160e-01 -1.088333e-01 -9.334502e-02 5.997899e-02 -1.323183e-02 5.976837e-02 1.097452e-02 -1.332426e-01 1.342223e-01
<VARIANCE> 39
 2.265259e+01 9.446114e+00 1.537096e+01 1.422825e+01 2.185725e+01 2.618556e+01 2.749723e+01 2.452082e+01 3.032704e+01 3.124115e+01 2.774062e+01 2.248871e+01 1.161318e+01 5.796871e-01 5.871435e-01 1.085919e+00 1.171279e+00 1.479781e+00 2.385163e+00 2.173960e+00 2.268598e+00 2.980631e+00 2.770029e+00 2.411178e+00 1.895515e+00 3.463603e-01 6.739338e-02 9.542308e-02 1.775411e-01 2.287721e-01 2.803023e-01 4.211688e-01 3.571844e-01 3.822690e-01 5.586329e-01 5.750570e-01 4.357387e-01 3.758247e-01 3.423636e-02
<GCONST> 9.692863e+01
<STATE> 4
<NUMMIXES> 2
<MIXTURE> 1 6.384418e-01
<MEAN> 39
 6.134262e+00 8.282004e+00 -3.061146e+00 3.225020e+00 -2.183996e+00 -2.696153e+00 -3.721692e+00 -5.465816e+00 -5.093876e+00 4.875371e+00 7.456485e+00 -7.963304e-02 6.167516e+01 1.087602e-01 -2.170013e-01 -2.599818e-01 -8.402482e-02 -2.137570e-01 -2.010820e-01 -3.652659e-01 2.677594e-01 2.424507e-01 9.166784e-02 -1.884731e-02 -2.185891e-01 3.313038e-01 -4.824002e-02 -7.313855e-02 7.751939e-02 5.824003e-02 -7.013978e-03 -4.756141e-02 -6.129638e-02 1.265559e-01 1.183897e-01 -5.079351e-02 -1.158693e-01 -4.158543e-02 5.314523e-02
<VARIANCE> 39
 5.036509e+00 1.367889e+01 2.059585e+01 3.800581e+01 2.538227e+01 4.031882e+01 6.395080e+01 3.523444e+01 3.399878e+01 3.034667e+01 3.695979e+01 3.473818e+01 8.596135e+00 3.179765e-01 4.704003e-01 8.000512e-01 1.078568e+00 1.087563e+00 1.540237e+00 1.808154e+00 1.426028e+00 1.824644e+00 1.885104e+00 1.985845e+00 1.453679e+00 2.421649e-01 3.967730e-02 6.177175e-02 9.078580e-02 1.775930e-01 1.862308e-01 2.392219e-01 1.964338e-01 1.885913e-01 2.696486e-01 2.531924e-01 2.855436e-01 2.123952e-01 1.686249e-02
<GCONST> 8.764956e+01
<MIXTURE> 2 3.615589e-01
<MEAN> 39
 -7.628691e+00 3.358646e+00 3.889365e+00 4.829636e+00 1.755059e-01 -2.697746e+00 -1.599289e+00 -2.875539e-02 -5.363203e-01 7.690442e-01 -9.745756e-01 -1.425621e+00 6.093348e+01 3.767088e-01 -1.420727e-01 -3.069048e-01 -3.418888e-01 -4.796705e-01 -1.188379e-01 -5.703802e-02 -6.719045e-02 -1.767242e-03 -1.225552e-01 1.794785e-01 -4.183115e-02 1.401614e-01 3.490520e-01 1.846327e-01 -1.098068e-01 -1.773334e-02 -1.153358e-01 -1.129175e-01 -1.006482e-01 -1.025183e-01 -1.284771e-01 4.605522e-02 2.142100e-01 1.180200e-01 -1.546206e-01
<VARIANCE> 39
 4.441734e+01 1.690690e+01 1.878366e+01 2.427819e+01 3.334243e+01 2.674440e+01 2.813710e+01 3.518970e+01 3.046967e+01 3.847978e+01 3.381854e+01 2.914507e+01 1.542179e+01 1.626342e+00 1.310655e+00 1.397488e+00 1.958692e+00 1.909951e+00 2.248058e+00 2.502666e+00 3.605703e+00 3.012302e+00 3.027870e+00 3.232157e+00 2.385352e+00 7.857164e-01 2.111754e-01 1.461221e-01 2.272196e-01 3.442385e-01 3.174022e-01 3.480908e-01 5.119925e-01 6.354564e-01 4.527574e-01 5.805941e-01 5.249923e-01 4.418785e-01 1.241965e-01
<GCONST> 1.100053e+02
<TRANSP> 5
 0.000000e+00 1.000000e+00 0.000000e+00 0.000000e+00 0.000000e+00
 0.000000e+00 8.300312e-01 1.699689e-01 0.000000e+00 0.000000e+00
 0.000000e+00 0.000000e+00 7.955258e-01 2.044741e-01 0.000000e+00
 0.000000e+00 0.000000e+00 0.000000e+00 8.647062e-01 1.352937e-01
 0.000000e+00 0.000000e+00 0.000000e+00 0.000000e+00 0.000000e+00
<ENDHMM>
~h "w"
<BEGINHMM>
<NUMSTATES> 5
<STATE> 2
<NUMMIXES> 2
<MIXTURE> 1 2.754111e-01
<MEAN> 39
 3.053971e+00 5.561471e+00 4.432013e+00 1.043227e+01 -6.733724e+00 -1.116440e+01 -6.118046e+00 -2.513384e+00 -4.093921e+00 1.103529e+00 2.990739e+00 1.093051e+00 6.547175e+01 5.644280e-01 3.892438e-01 -1.405646e+00 -5.338163e-01 1.681511e+00 8.135068e-01 -9.359156e-01 -8.615834e-01 2.634667e-01 8.113701e-01 7.103068e-02 -4.212394e-01 -6.493552e-01 -1.189952e-01 1.744427e-01 1.516406e-01 -2.852025e-01 -1.081192e-01 4.474683e-01 3.195324e-01 -2.961047e-01 -1.885118e-01 1.659397e-01 1.310408e-01 4.924216e-03 -8.694012e-02
<VARIANCE> 39
 7.843605e+00 6.017107e+00 3.001881e+01 1.609590e+01 5.018533e+01 6.601238e+01 5.045312e+01 3.267364e+01 3.151294e+01 5.087508e+01 2.756772e+01 2.697996e+01 1.115760e+01 3.499657e-01 5.706535e-01 1.326921e+00 1.376126e+00 2.661653e+00 2.859979e+00 3.209296e+00 2.737403e+00 3.213224e+00 3.048575e+00 3.358458e+00 1.967524e+00 2.737241e-01 4.652493e-02 1.021235e-01 1.219248e-01 1.759707e-01 3.480501e-01 3.875790e-01 4.220678e-01 5.328537e-01 5.138816e-01 7.226997e-01 4.283508e-01 4.821945e-01 2.759071e-02
<GCONST> 1.008529e+02
<MIXTURE> 2 7.245890e-01
<MEAN> 39
 -8.890569e+00 1.291568e+00 -2.396248e-02 1.935503e+00 -7.121744e-01 -2.269603e+00 -3.349611e+00 3.920182e-01 -7.829368e-01 8.106406e-01 -4.549271e-01 -3.462220e-01 5.888545e+01 3.859426e-01 5.471914e-01 1.087227e-01 2.591944e-01 3.865685e-01 3.028975e-01 1.976055e-01 -2.604604e-01 -1.280737e-01 1.398357e-01 -6.149321e-03 -2.388800e-01 -3.847921e-01 1.065630e-01 1.626392e-01 1.463737e-01 6.190028e-02 3.517139e-03 3.880149e-02 4.624415e-02 4.097921e-03 -8.923004e-02 -6.746452e-02 -1.605821e-03 1.557966e-02 7.051309e-02
<VARIANCE> 39
 4.186999e+01 3.274249e+01 3.351397e+01 4.249545e+01 3.340263e+01 4.077044e+01 5.073249e+01 4.446132e+01 3.516567e+01 3.903086e+01 3.373725e+01 2.856946e+01 2.525771e+01 1.715308e+00 2.408234e+00 2.497325e+00 2.928722e+00 2.855625e+00 2.585152e+00 4.123200e+00 3.537971e+00 3.164422e+00 4.117169e+00 2.785426e+00 2.761328e+00 7.621714e-01 2.306670e-01 3.584210e-01 3.492609e-01 4.900435e-01 5.976358e-01 4.783309e-01 8.043821e-01 6.705689e-01 6.652676e-01 8.001669e-01 5.877514e-01 5.388910e-01 1.133152e-01
<GCONST> 1.207619e+02
<STATE> 3
<MEAN> 39
 2.386246e-01 9.903092e+00 4.402674e+00 6.808279e+00 1.670489e+00 -4.445395e-01 -1.057282e+00 -2.731726e+00 -2.171140e+00 2.284385e-01 -1.584251e+00 -2.005443e+00 5.697550e+01 8.955292e-01 4.532676e-01 -3.857668e-01 -3.086944e-01 -3.479350e-01 8.842617e-02 2.660105e-02 -2.773347e-01 -2.737924e-01 6.010410e-02 2.994954e-01 6.943359e-02 3.479474e-01 -8.116218e-02 -2.403549e-01 -1.969441e-01 -1.503570e-01 -2.495352e-01 -1.039679e-01 -1.084376e-01 4.638975e-02 9.056435e-03 9.230843e-03 1.496949e-01 7.821526e-02 1.003653e-01
<VARIANCE> 39
 1.481626e+01 1.143467e+01 2.337440e+01 2.725430e+01 2.910198e+01 3.396938e+01 3.313540e+01 3.159753e+01 3.177877e+01 4.027935e+01 2.912493e+01 2.283761e+01 1.380190e+01 1.649323e+00 1.393753e+00 2.205989e+00 2.278404e+00 3.154289e+00 2.949082e+00 2.979496e+00 2.492183e+00 3.104792e+00 2.783677e+00 2.973206e+00 1.925376e+00 1.013283e+00 2.057180e-01 2.245727e-01 3.236474e-01 3.845211e-01 4.699547e-01 4.508025e-01 5.370983e-01 5.104212e-01 5.100620e-01 4.994895e-01 4.327024e-01 3.728708e-01 1.019213e-01
<GCONST> 1.105130e+02
<STATE> 4
<NUMMIXES> 2
<MIXTURE> 1 3.356879e-01
<MEAN> 39
 6.484503e+00 8.324664e+00 -7.694258e+00 1.808087e+00 -4.643879e+00 3.078891e+00 -6.296071e+00 -7.744753e+00 -8.487645e+00 4.852055e+00 9.761530e+00 -1.443739e-01 6.446827e+01 -1.000990e-01 -6.934618e-01 -5.786807e-02 5.102049e-01 2.024366e-01 -2.022329e-01 -1.238223e+00 2.076231e-02 4.886013e-01 8.307829e-01 2.920688e-01 -5.197242e-01 4.328176e-01 -1.372740e-01 -3.040983e-02 3.379197e-01 1.150494e-01 4.253446e-03 -3.251404e-01 5.501985e-02 3.084029e-01 3.185790e-01 -1.411040e-01 -4.743019e-01 -8.233473e-02 -4.386952e-02
<VARIANCE> 39
 3.176009e+00 1.192670e+01 1.700161e+01 2.518016e+01 3.570021e+01 4.201481e+01 5.605699e+01 3.686090e+01 3.409570e+01 4.702129e+01 4.170155e+01 3.519430e+01 8.863728e+00 2.891624e-01 8.112023e-01 1.098063e+00 1.432344e+00 1.633047e+00 2.537443e+00 2.919389e+00 2.319277e+00 2.633867e+00 3.263858e+00 3.985117e+00 2.435585e+00 4.890431e-01 5.060048e-02 9.305967e-02 1.317216e-01 1.782337e-01 2.565740e-01 2.834459e-01 4.381331e-01 3.065140e-01 3.269770e-01 6.069963e-01 4.329100e-01 3.962139e-01 2.713817e-02
<GCONST> 9.849099e+01
<MIXTURE> 2 6.643106e-01
<MEAN> 39
 5.380488e+00 1.140357e+01 -7.630421e-01 1.706555e+00 -5.009634e+00 -1.999292e+00 -6.481624e-01 -3.903364e+00 -4.129217e+00 1.728068e+00 1.682623e+00 -1.254003e-01 5.990527e+01 1.032014e-01 4.805227e-02 -2.754916e-01 -2.676655e-01 -3.080637e-01 1.461026e-02 1.315624e-01 5.640253e-02 -3.034817e-02 -1.855494e-01 1.200881e-01 1.937130e-02 1.671654e-01 -1.816578e-02 -6.754645e-02 -3.179996e-02 4.733844e-02 3.236104e-02 2.514087e-02 -7.981431e-02 -5.329965e-02 1.002388e-03 3.961410e-02 6.108955e-02 -2.090493e-02 5.458698e-02
<VARIANCE> 39
 5.341381e+00 1.407836e+01 2.280179e+01 3.050775e+01 3.536810e+01 3.126732e+01 3.853582e+01 2.776552e+01 3.688860e+01 4.021181e+01 3.033984e+01 2.806669e+01 7.776192e+00 2.152763e-01 3.870187e-01 8.821337e-01 9.353469e-01 1.295003e+00 1.371412e+00 1.556489e+00 1.491213e+00 1.808077e+00 1.952703e+00 1.855332e+00 1.570953e+00 2.545421e-01 2.576539e-02 6.060388e-02 9.436641e-02 1.374976e-01 1.902504e-01 2.034987e-01 2.894565e-01 2.592765e-01 2.835904e-01 3.113554e-01 2.901904e-01 2.390268e-01 1.510842e-02
<GCONST> 8.639213e+01
<TRANSP> 5
 0.000000e+00 1.000000e+00 0.000000e+00 0.000000e+00 0.000000e+00
 0.000000e+00 8.448718e-01 1.551282e-01 0.000000e+00 0.000000e+00
 0.000000e+00 0.000000e+00 7.913860e-01 2.086140e-01 0.000000e+00
 0.000000e+00 0.000000e+00 0.000000e+00 9.279886e-01 7.201136e-02
 0.000000e+00 0.000000e+00 0.000000e+00 0.000000e+00 0.000000e+00
<ENDHMM>
~h "y"
<BEGINHMM>
<NUMSTATES> 5
<STATE> 2
<NUMMIXES> 2
<MIXTURE> 1 3.254747e-01
<MEAN> 39
 -9.407634e+00 4.620069e+00 1.201871e+01 6.492805e+00 -1.663060e+00 3.443262e+00 4.842100e-01 5.796101e-01 -3.141635e+00 -1.070435e+00 -2.798642e+00 -2.005818e+00 5.780425e+01 2.127252e+00 2.198082e+00 1.615885e+00 1.869463e+00 9.743055e-01 2.575075e-01 2.894041e-01 5.648240e-01 -8.740523e-01 -5.988767e-01 -2.202529e-01 -9.222613e-01 6.332566e-01 2.074672e-01 5.612476e-02 6.357518e-06 -4.633602e-01 -6.697845e-01 -5.809488e-01 -6.574461e-01 -3.122292e-01 -3.158417e-01 2.914971e-02 4.702214e-01 3.242479e-01 2.732711e-01
<VARIANCE> 39
 2.712675e+01 2.475482e+01 2.666108e+01 4.953455e+01 3.334296e+01 5.727293e+01 6.030534e+01 3.151907e+01 2.419253e+01 4.772408e+01 4.233515e+01 2.508843e+01 1.821611e+01 1.539729e+00 7.079319e-01 1.700815e+00 1.385080e+00 2.866111e+00 4.631417e+00 4.342165e+00 2.674968e+00 1.389246e+00 2.782208e+00 2.274608e+00 2.154700e+00 3.015653e-01 1.987777e-01 2.603576e-01 2.409706e-01 5.207082e-01 5.468263e-01 5.597327e-01 4.567267e-01 4.435292e-01 3.420444e-01 5.776274e-01 6.319631e-01 4.970196e-01 5.218766e-02
<GCONST> 1.115729e+02
<MIXTURE> 2 6.745250e-01
<MEAN> 39
 -7.853027e+00 7.542068e+00 1.742539e+01 6.988061e+00 -7.969052e+00 -2.209245e+00 -3.706579e+00 -1.943609e+00 -2.949534e+00 3.913534e-01 -3.748815e-01 -1.951802e+00 6.344934e+01 6.043234e-01 2.856481e-01 2.756028e-01 -2.435091e-01 -1.151661e+00 -5.152488e-01 -3.867148e-01 -2.464838e-01 -5.766097e-01 -7.621948e-02 1.202205e+00 3.475028e-01 2.726191e-01 -1.322206e-01 -2.488606e-01 -2.043938e-01 -1.143165e-01 -7.667276e-02 1.507927e-01 2.817699e-01 -1.358484e-01 -1.005520e-01 2.735401e-02 1.110439e-01 6.842882e-02 -3.007921e-02
<VARIANCE> 39
 5.311890e+01 2.568542e+01 4.761823e+01 4.163010e+01 3.254714e+01 6.125685e+01 4.674941e+01 4.979132e+01 3.947650e+01 2.978245e+01 3.657601e+01 2.474644e+01 2.412346e+01 2.390173e+00 9.259507e-01 8.862769e-01 1.442223e+00 2.668974e+00 6.488764e+00 4.817315e+00 3.748001e+00 2.780034e+00 2.962577e+00 3.964033e+00 2.289964e+00 5.932361e-01 1.715158e-01 2.858152e-01 1.722217e-01 3.687980e-01 3.885382e-01 6.695276e-01 6.593587e-01 9.191197e-01 5.052006e-01 4.497947e-01 3.605109e-01 3.453682e-01 3.469149e-02
<GCONST> 1.149305e+02
<STATE> 3
<MEAN> 39
 -1.407832e+00 7.685517e+00 1.408979e+01 8.321698e+00 -1.379884e+01 -5.734701e+00 -1.887542e+00 4.916207e-01 -7.705095e+00 -1.362163e+00 7.985344e+00 -1.344182e+00 6.539707e+01 -3.693916e-02 5.339477e-02 2.978058e-01 -9.317421e-02 -1.000203e+00 3.814484e-01 2.828954e-01 -4.090289e-01 -9.197946e-01 1.549106e-01 7.049395e-01 -1.941272e-01 1.475394e-01 -1.035130e-01 -6.421486e-02 -1.193775e-01 -1.832746e-02 3.925540e-01 1.938997e-01 -8.036251e-02 -3.693929e-02 2.395615e-01 2.359572e-01 -4.749980e-01 -1.606442e-01 -5.407539e-02
<VARIANCE> 39
 7.750397e+00 1.874630e+01 3.774041e+01 3.174938e+01 2.004636e+01 5.631243e+01 4.646671e+01 2.395349e+01 4.369939e+01 3.437678e+01 3.213150e+01 2.237829e+01 1.321094e+01 4.264832e-01 6.270832e-01 1.359121e+00 1.591972e+00 2.163708e+00 2.116668e+00 2.147776e+00 2.437397e+00 2.185081e+00 1.984708e+00 2.651648e+00 1.752585e+00 4.095908e-01 1.121671e-01 8.710088e-02 1.373579e-01 2.914573e-01 1.345775e-01 3.059001e-01 4.578043e-01 3.138163e-01 2.733831e-01 4.316494e-01 2.280872e-01 3.026726e-01 2.226698e-02
<GCONST> 9.741118e+01
<STATE> 4
<NUMMIXES> 2
<MIXTURE> 1 4.878732e-01
<MEAN> 39
 4.596176e-01 4.527582e+00 1.077624e+01 1.268423e+01 -1.290547e+01 -9.283408e+00 -6.400830e+00 4.111346e+00 -8.708403e+00 -4.070994e+00 8.845791e+00 -2.165248e+00 6.736597e+01 8.564672e-02 -3.587569e-02 -3.739839e-01 -2.144148e-02 2.526436e-01 -1.725922e-01 -2.889439e-01 2.128522e-01 4.479757e-01 -2.094442e-01 -2.553963e-01 2.726595e-01 8.714689e-02 -1.015803e-02 3.127614e-02 6.617807e-02 -7.092582e-02 8.694775e-02 1.058028e-01 -2.470114e-02 -8.363272e-02 7.504284e-02 6.111946e-02 -9.501026e-02 -2.304313e-02 -5.449818e-02
<VARIANCE> 39
 3.010598e+00 7.883853e+00 1.862209e+01 9.948163e+00 1.919557e+01 7.392931e+01 4.820539e+01 2.903726e+01 4.062790e+01 1.710110e+01 2.277262e+01 3.007689e+01 8.885135e+00 1.615083e-01 2.807972e-01 7.484966e-01 5.158864e-01 9.105140e-01 1.253850e+00 1.020419e+00 8.774714e-01 1.339148e+00 1.037921e+00 1.274259e+00 8.547636e-01 1.338823e-01 1.572519e-02 3.692688e-02 5.160891e-02 7.264619e-02 1.151286e-01 1.545119e-01 1.294007e-01 1.156015e-01 1.662972e-01 1.384386e-01 1.977196e-01 1.343907e-01 1.136778e-02
<GCONST> 7.106068e+01
<MIXTURE> 2 5.121271e-01
<MEAN> 39
 -3.590201e+00 9.020401e+00 2.009510e+01 4.836510e+00 -1.092361e+01 1.705113e+00 -5.890804e+00 -3.237185e+00 -1.078300e+01 2.764477e+00 3.228515e+00 -4.455275e+00 6.311103e+01 1.289519e-01 -1.923870e-01 -1.596659e-01 3.358504e-01 -1.760612e-01 -3.511508e-01 1.156424e-01 1.686807e-01 -2.649871e-01 -2.514448e-02 2.738651e-01 -2.102597e-01 8.746743e-02 1.647636e-02 -2.610025e-02 -5.812335e-02 5.851600e-02 1.850301e-02 -1.401248e-01 1.000727e-02 1.091077e-01 1.043029e-02 -1.138527e-01 6.543536e-02 4.808324e-02 1.433864e-02
<VARIANCE> 39
 2.955721e+00 9.575276e+00 1.670059e+01 1.403355e+01 2.548317e+01 6.863924e+01 6.848260e+01 2.027909e+01 4.706709e+01 4.619656e+01 5.267616e+01 4.028466e+01 9.098181e+00 1.556722e-01 3.354967e-01 5.622049e-01 7.575387e-01 1.254545e+00 2.007020e+00 1.346532e+00 1.447131e+00 1.783847e+00 1.568159e+00 1.963582e+00 1.219304e+00 2.340108e-01 2.701614e-02 5.131715e-02 8.712819e-02 1.126352e-01 1.988513e-01 2.350238e-01 2.224665e-01 2.573780e-01 2.801388e-01 2.705805e-01 2.948578e-01 2.273027e-01 1.514249e-02
<GCONST> 8.436583e+01
<TRANSP> 5
 0.000000e+00 1.000000e+00 0.000000e+00 0.000000e+00 0.000000e+00
 0.000000e+00 7.633979e-01 2.366021e-01 0.000000e+00 0.000000e+00
 0.000000e+00 0.000000e+00 6.776149e-01 3.223851e-01 0.000000e+00
 0.000000e+00 0.000000e+00 0.000000e+00 9.355245e-01 6.447552e-02
 0.000000e+00 0.000000e+00 0.000000e+00 0.000000e+00 0.000000e+00
<ENDHMM>
~h "z"
<BEGINHMM>
<NUMSTATES> 5
<STATE> 2
<NUMMIXES> 2
<MIXTURE> 1 4.396497e-01
<MEAN> 39
 -2.400004e+00 9.493418e+00 7.300686e+00 5.507305e+00 -2.445051e+00 -1.175747e+01 -4.043073e+00 3.974608e-01 -2.878218e+00 1.912226e+00 7.393055e-02 1.918476e+00 6.493233e+01 -1.415506e+00 1.161428e+00 -4.819457e-02 -8.716275e-01 1.612971e+00 -4.132963e-01 7.628485e-01 7.779095e-02 6.959439e-02 4.361406e-01 -5.579488e-01 7.833914e-01 -1.923478e-01 -3.754860e-01 1.276123e-01 -6.565814e-02 -1.753193e-01 1.194990e-01 2.536794e-01 5.182900e-02 1.712560e-01 8.052815e-02 -8.669207e-02 1.045741e-02 -8.223945e-02 1.037803e-01
<VARIANCE> 39
 1.072296e+01 1.532707e+01 2.483924e+01 1.780181e+01 3.574004e+01 3.492599e+01 5.701720e+01 3.772101e+01 5.835335e+01 3.023651e+01 3.391299e+01 2.939903e+01 1.411372e+01 8.613786e-01 8.959644e-01 1.207242e+00 1.621446e+00 2.629446e+00 2.220281e+00 2.542233e+00 3.029629e+00 2.553597e+00 2.330255e+00 2.243260e+00 1.957998e+00 2.395502e-01 8.703246e-02 1.188625e-01 1.567744e-01 2.067145e-01 3.390287e-01 3.337551e-01 4.201516e-01 4.525022e-01 3.589404e-01 4.101574e-01 3.308875e-01 3.133080e-01 3.068016e-02
<GCONST> 1.012480e+02
<MIXTURE> 2 5.603496e-01
<MEAN> 39
 -1.257638e+01 1.486419e+01 7.557142e+00 9.783712e-01 4.643827e+00 -9.361160e+00 -1.269321e+00 2.463396e+00 -2.156215e+00 1.452803e+00 -1.401676e+00 2.929710e+00 6.476257e+01 -2.093647e+00 7.259676e-01 -1.320940e-01 -5.351658e-01 1.235135e+00 7.157133e-01 3.288632e-01 2.249974e-01 -1.374090e-01 -2.032298e-01 -3.102610e-01 -1.269523e-01 1.288291e-01 2.137278e-01 -2.869005e-01 -8.600263e-02 2.234544e-01 -2.441519e-01 1.153027e-01 -3.786546e-02 -1.601009e-01 -1.012349e-01 -5.388773e-02 6.391732e-02 -1.591135e-01 -1.761099e-02
<VARIANCE> 39
 2.184084e+01 2.133978e+01 2.531906e+01 3.695348e+01 3.805550e+01 4.586377e+01 5.717038e+01 3.832938e+01 4.673573e+01 3.421711e+01 2.797184e+01 2.891258e+01 1.302611e+01 1.230122e+00 1.137553e+00 1.330456e+00 2.057177e+00 2.336901e+00 2.936012e+00 2.480005e+00 2.789992e+00 2.828352e+00 2.619236e+00 2.041213e+00 2.235111e+00 4.205138e-01 1.275770e-01 1.928007e-01 2.452954e-01 3.834815e-01 4.383427e-01 5.215121e-01 4.882649e-01 5.405413e-01 5.373802e-01 5.038600e-01 4.198354e-01 4.393741e-01 5.034719e-02
<GCONST> 1.094542e+02
<STATE> 3
<MEAN> 39
 -2.090240e+01 1.280010e+01 4.097178e+00 -1.198585e+00 6.737176e+00 -6.778155e+00 6.249007e-01 1.522999e+00 -3.937883e+00 5.686125e-01 -2.288318e+00 1.167199e+00 6.484531e+01 -3.619797e-01 -4.397826e-01 -1.645703e-01 -2.428721e-01 -9.820017e-02 2.859760e-02 2.952930e-02 3.704457e-02 -1.430392e-01 1.241543e-02 -2.859804e-02 -1.586478e-01 4.140051e-02 2.288840e-01 -9.399337e-02 9.669167e-02 4.403740e-02 -1.190127e-01 -8.014380e-02 -4.191950e-02 5.684732e-02 2.369718e-02 -1.252877e-03 2.731889e-02 1.179305e-02 -2.437438e-02
<VARIANCE> 39
 1.550173e+01 2.754416e+01 3.334747e+01 4.151791e+01 4.066241e+01 4.052040e+01 6.240562e+01 5.129673e+01 4.316589e+01 4.174478e+01 3.324614e+01 2.735073e+01 7.844820e+00 6.638496e-01 8.765043e-01 1.297751e+00 1.626869e+00 2.143686e+00 2.526502e+00 2.512537e+00 2.733806e+00 2.233486e+00 2.542865e+00 2.403466e+00 2.103588e+00 1.535796e-01 8.203413e-02 1.458196e-01 2.074771e-01 3.165362e-01 4.410079e-01 5.177636e-01 4.732385e-01 5.263817e-01 4.561467e-01 4.914289e-01 4.652438e-01 4.275543e-01 2.657310e-02
<GCONST> 1.053667e+02
<STATE> 4
<NUMMIXES> 2
<MIXTURE> 1 5.640085e-01
<MEAN> 39
 -1.943208e+01 7.583904e+00 6.207072e+00 -2.140168e+00 5.654971e+00 -6.112427e+00 -1.083010e+00 3.949283e+00 -5.011125e+00 -3.628857e-01 -1.859450e+00 -4.125613e-03 6.434593e+01 1.690812e+00 -8.240419e-01 2.489912e-01 4.961843e-01 -8.049667e-01 -1.810253e-01 -3.550695e-01 -1.578763e-01 2.649610e-01 -9.529658e-02 -1.313231e-02 8.398471e-03 -5.703558e-01 5.272796e-01 1.041207e-01 -2.025169e-01 1.099929e-01 -2.807736e-01 -1.605500e-01 -1.740235e-01 -2.386798e-01 1.668569e-01 1.117859e-01 -3.542611e-02 1.116901e-01 -2.151943e-01
<VARIANCE> 39
 2.319459e+01 3.910834e+01 3.696216e+01 3.941396e+01 3.400342e+01 5.481868e+01 6.449393e+01 4.835955e+01 4.240134e+01 4.651078e+01 3.711462e+01 2.899319e+01 1.513249e+01 2.124109e+00 1.637901e+00 1.924130e+00 2.277505e+00 3.202546e+00 4.412137e+00 3.669523e+00 4.385051e+00 3.241601e+00 3.464560e+00 2.768951e+00 2.516781e+00 8.347417e-01 2.557839e-01 3.336312e-01 3.918357e-01 4.587924e-01 5.327334e-01 7.993482e-01 7.742936e-01 8.109609e-01 6.335112e-01 7.141106e-01 5.362790e-01 5.170816e-01 8.631054e-02
<GCONST> 1.209404e+02
<MIXTURE> 2 4.359930e-01
<MEAN> 39
 -9.687096e+00 6.854138e+00 4.219648e+00 1.211995e+00 4.378380e-01 -9.268537e+00 -3.503949e+00 9.785136e-01 -1.868045e+00 1.898869e+00 -2.275765e+00 6.405485e-01 5.926929e+01 1.448604e+00 -1.629494e-01 -5.000033e-01 4.075789e-01 -7.174504e-01 -2.165600e-01 -4.353513e-01 -3.868930e-01 4.693615e-01 3.767418e-01 1.274366e-01 -1.254682e-01 -8.589260e-01 -4.299816e-01 7.265015e-02 5.612179e-02 -4.603271e-02 2.759914e-01 3.208281e-01 1.458488e-01 6.108342e-02 -1.364347e-01 -7.373169e-02 6.823165e-02 -1.597178e-01 1.570647e-01
<VARIANCE> 39
