\data\
ngram 1=45
ngram 2=822

\1-grams:
-99.999	!ENTER	-2.2365
-1.6886	aa	-0.5265
-1.4378	ae	-0.9735
-2.0260	ah	-0.4833
-1.7768	ao	-0.8483
-2.3271	aw	-0.3989
-1.2048	ax	-0.5229
-1.8357	ay	-0.0942
-1.8287	b	-0.4600
-2.2479	ch	-0.2935
-1.3425	d	+0.1723
-1.6281	dh	-1.0309
-3.6281	dx
-1.5141	eh	-0.6585
-1.5674	er	+0.0163
-1.6504	ey	-0.3847
-1.6550	f	-0.5957
-2.1367	g	-0.2864
-1.8572	hh	-0.9591
-1.2065	ih	-1.0417
-3.6281	ix
-1.4637	iy	-0.2023
-2.1657	jh	-0.2823
-1.4159	k	-0.5072
-1.4406	l	+0.0947
-1.5453	m	-0.3926
-1.1568	n	-0.0999
-2.1096	ng	-0.2237
-2.0483	ow	-0.1755
-2.7830	oy	-0.2833
-2.0153	p	-0.2125
-1.3403	r	+0.1634
-1.4267	s	-0.2729
-2.0718	sh	-0.6203
-1.3728	sil	-0.6978
-1.2250	t	-0.4840
-2.2664	th	-0.4195
-2.4820	uh	-0.4467
-1.7090	uw	-0.2880
-1.8957	v	-0.4409
-1.7143	w	-0.8551
-2.2301	y	-1.1700
-1.4608	z	-0.1220
-2.6738	zh	-0.2736
-1.6738	!EXIT

\2-grams:
-0.0024	!ENTER sil
-2.2405	aa aa
-2.2405	aa ae
-2.2405	aa b
-1.5416	aa d
-1.7634	aa dh
-2.2405	aa eh
-2.2405	aa f
-1.7634	aa hh
-2.2405	aa ih
-1.7634	aa jh
-1.7634	aa k
-1.5416	aa l
-1.5416	aa m
-1.0101	aa n
-2.2405	aa p
-0.5002	aa r
-2.2405	aa t
-2.2405	aa v
-0.6495	aa z
-1.3955	aa zh
-1.6463	ae b
-2.4914	ae ch
-1.4500	ae d
-1.5371	ae f
-2.4914	ae g
-1.2609	ae k
-1.3774	ae l
-1.3153	ae m
-0.3546	ae n
-2.0142	ae ng
-2.4914	ae p
-2.4914	ae r
-1.3153	ae s
-2.0142	ae sh
-0.9473	ae t
-2.0142	ae v
-1.1691	ae z
-1.9031	ah b
-1.4260	ah ch
-1.9031	ah d
-1.4260	ah dh
-1.9031	ah g
-1.4260	ah k
-1.2041	ah l
-0.7270	ah m
-0.7270	ah n
-0.9488	ah p
-1.9031	ah s
-1.4260	ah t
-1.4260	ah v
-1.9031	ah y
-1.9031	ah z
-2.1523	ao d
-2.1523	ao eh
-2.1523	ao ey
-1.4533	ao g
-0.5612	ao l
-2.1523	ao n
-2.1523	ao p
-0.2890	ao r
-2.1523	ao s
-1.4533	ao t
-2.1523	ao th
-2.1523	ao z
-1.6021	aw ao
-1.6021	aw ax
-1.6021	aw d
-1.1249	aw eh
-0.6478	aw er
-1.6021	aw f
-1.1249	aw n
-0.9031	aw t
-1.6021	aw th
-0.9031	aw z
-2.7243	ax aa
-2.0253	ax ae
-2.7243	ax ah
-2.7243	ax ax
-2.7243	ax ay
-1.4938	ax b
-1.5482	ax d
-2.2472	ax dh
-2.0253	ax eh
-2.7243	ax ey
-1.4938	ax f
-1.7700	ax g
-2.2472	ax hh
-1.8792	ax ih
-2.7243	ax iy
-2.0253	ax jh
-1.1115	ax k
-0.8052	ax l
-1.1561	ax m
-0.5396	ax n
-1.5482	ax p
-1.3625	ax s
-2.7243	ax sh
-1.6103	ax sil
-1.4455	ax t
-2.7243	ax v
-1.6103	ax w
-1.6829	ax z
-1.6163	ay ae
-2.0934	ay aw
-2.0934	ay ax
-2.0934	ay ay
-1.6163	ay b
-0.8630	ay d
-2.0934	ay dh
-1.6163	ay eh
-1.6163	ay ey
-1.3945	ay f
-2.0934	ay hh
-2.0934	ay ih
-0.9795	ay k
-1.6163	ay m
-1.1392	ay n
-2.0934	ay p
-1.6163	ay r
-1.6163	ay s
-2.0934	ay sh
-2.0934	ay sil
-0.9173	ay t
-1.6163	ay v
-1.3945	ay w
-1.6163	ay z
-1.6232	b aa
-1.4014	b ae
-2.1004	b ah
-1.4014	b ao
-1.2553	b ax
-0.8699	b ay
-1.6232	b eh
-1.6232	b er
-1.6232	b ey
-2.1004	b hh
-0.6690	b ih
-1.4014	b iy
-1.6232	b l
-2.1004	b ow
-0.9243	b r
-1.6232	b s
-2.1004	b uh
-2.1004	b uw
-2.1004	b y
-2.1004	b z
-1.6812	ch aa
-0.9823	ch ae
-1.6812	ch aw
-0.7270	ch ax
-1.6812	ch b
-1.2041	ch eh
-0.9823	ch er
-1.6812	ch ey
-1.6812	ch iy
-1.6812	ch m
-1.6812	ch n
-1.6812	ch p
-1.2041	ch t
-1.6812	ch y
-1.8876	d aa
-1.4726	d ae
-2.1095	d ah
-2.1095	d ao
-2.1095	d aw
-1.8876	d ax
-1.8876	d ay
-1.3078	d b
-2.5866	d ch
-1.8876	d d
-1.7415	d dh
-1.5452	d eh
-1.5452	d er
-1.7415	d ey
-1.6323	d f
-2.5866	d g
-1.5452	d hh
-0.7001	d ih
-1.0425	d iy
-2.5866	d jh
-1.3561	d k
-1.7415	d l
-1.7415	d m
-1.7415	d n
-2.5866	d ow
-2.5866	d oy
-1.4105	d r
-2.1095	d s
-1.5452	d sil
-1.2249	d t
-2.5866	d uh
-2.5866	d uw
-1.7415	d v
-1.5452	d w
-1.7415	d z
-0.9788	dh ae
-2.3010	dh ao
-0.2480	dh ax
-0.9788	dh eh
-1.4559	dh er
-1.4559	dh ey
-2.3010	dh f
-2.3010	dh g
-2.3010	dh hh
-1.1871	dh ih
-2.3010	dh ow
-2.3010	dh r
-2.4150	eh ax
-2.4150	eh b
-1.5699	eh d
-2.4150	eh dh
-2.4150	eh er
-1.9379	eh g
-2.4150	eh ih
-1.7160	eh iy
-2.4150	eh jh
-1.5699	eh k
-1.0170	eh l
-1.1845	eh m
-0.6296	eh n
-2.4150	eh p
-0.7429	eh r
-0.9836	eh s
-2.4150	eh sh
-1.1362	eh t
-1.3010	eh v
-2.4150	eh w
-1.4075	er aa
-1.4075	er ae
-2.3617	er ao
-1.3203	er ax
-2.3617	er ay
-1.8846	er b
-2.3617	er ch
-1.1856	er d
-1.4075	er dh
-2.3617	er eh
-2.3617	er er
-1.8846	er ey
-1.5166	er f
-2.3617	er hh
-1.0830	er ih
-1.4075	er iy
-0.9638	er k
-1.3203	er l
-1.2478	er m
-1.6628	er n
-2.3617	er r
-2.3617	er s
-1.5166	er sil
-1.6628	er t
-2.3617	er th
-1.5166	er v
-1.4075	er w
-1.1313	er z
-2.2788	ey aa
-2.2788	ey ay
-1.4337	ey b
-2.2788	ey ch
-1.1027	ey d
-2.2788	ey dh
-2.2788	ey er
-1.5798	ey f
-1.5798	ey g
-1.8016	ey hh
-2.2788	ey ih
-1.5798	ey jh
-1.1027	ey k
-1.4337	ey l
-0.9565	ey m
-1.1648	ey n
-2.2788	ey ow
-1.5798	ey p
-2.2788	ey r
-1.4337	ey s
-1.0483	ey sh
-2.2788	ey sil
-0.9565	ey t
-1.4337	ey v
-1.8016	ey w
-1.2328	f aa
-1.5752	f ae
-0.5666	f ao
-1.0981	f ax
-1.3199	f ay
-1.5752	f eh
-1.3199	f er
-1.5752	f ey
-1.1602	f ih
-1.3199	f iy
-2.2742	f k
-1.7970	f l
-2.2742	f oy
-0.9954	f r
-2.2742	f sh
-1.5752	f t
-2.2742	f uh
-1.7970	f uw
-2.2742	f y
-2.2742	f z
-1.3153	g aa
-1.7924	g ae
-1.3153	g ah
-1.3153	g ax
-1.7924	g d
-0.9473	g eh
-1.0934	g er
-1.7924	g ey
-1.3153	g ih
-1.7924	g k
-1.7924	g m
-1.3153	g ow
-0.9473	g r
-1.7924	g t
-0.9473	g z
-2.0719	hh aa
-0.8958	hh ae
-0.9579	hh aw
-2.0719	hh ay
-0.8958	hh er
-0.8414	hh ih
-0.4808	hh iy
-1.5948	hh uh
-1.5948	hh uw
-2.0719	hh y
-2.7226	ih b
-2.2455	ih ch
-1.6812	ih d
-1.7684	ih dh
-1.7684	ih f
-1.7684	ih g
-2.0237	ih jh
-0.9518	ih k
-1.4439	ih l
-2.2455	ih m
-0.7359	ih n
-0.9518	ih ng
-2.0237	ih p
-1.5465	ih r
-0.9668	ih s
-1.4922	ih sh
-1.3247	ih t
-2.2455	ih th
-1.6087	ih v
-2.2455	ih w
-0.8036	ih z
-2.7226	ih zh
-2.4654	iy aa
-1.2893	iy ae
-1.9883	iy ao
-2.4654	iy aw
-0.8526	iy ax
-1.6203	iy b
-1.9883	iy ch
-1.2349	iy d
-2.4654	iy dh
-2.4654	iy er
-1.9883	iy ey
-1.9883	iy f
-1.7664	iy hh
-1.2893	iy ih
-1.3514	iy k
-1.5111	iy l
-1.6203	iy m
-1.6203	iy n
-2.4654	iy r
-1.2349	iy s
-2.4654	iy sh
-1.1432	iy sil
-1.4240	iy t
-1.6203	iy th
-2.4654	iy uw
-1.4240	iy v
-1.0030	iy w
-1.9883	iy y
-1.5111	iy z
-1.7634	jh aa
-1.7634	jh ae
-0.9183	jh ax
-0.9183	jh eh
-1.0645	jh er
-1.0645	jh ih
-1.7634	jh iy
-1.7634	jh l
-1.0645	jh m
-1.7634	jh n
-1.7634	jh oy
-1.7634	jh s
-1.7634	jh uh
-1.0645	jh uw
-1.7634	jh z
-1.6681	k aa
-1.1153	k ae
-1.3993	k ah
-1.6681	k ao
-0.8411	k ax
-1.8142	k ay
-2.5132	k ch
-2.5132	k dh
-2.0361	k eh
-1.4718	k er
-1.2345	k ey
-2.5132	k f
-2.5132	k hh
-1.0508	k ih
-1.1515	k l
-2.5132	k m
-2.5132	k n
-1.1153	k r
-1.1910	k s
-1.6681	k sh
-1.4718	k sil
-1.1153	k t
-2.0361	k uh
-2.5132	k uw
-1.5590	k w
-2.0361	k y
-1.4472	l aa
-1.1663	l ae
-1.5343	l ao
-2.4886	l aw
-1.4472	l ax
-1.6435	l ay
-2.0114	l b
-1.4472	l d
-2.4886	l dh
-1.3125	l eh
-2.0114	l er
-1.7896	l ey
-1.7896	l f
-2.0114	l g
-2.0114	l hh
-1.1268	l ih
-0.8975	l iy
-2.0114	l k
-2.4886	l l
-1.5343	l m
-2.0114	l n
-1.3746	l ow
-2.0114	l oy
-1.6435	l r
-1.0906	l s
-2.4886	l sil
-1.6435	l t
-2.4886	l th
-2.0114	l uh
-1.7896	l uw
-1.7896	l v
-1.6435	l y
-1.5343	l z
-2.4886	l zh
-1.3424	m aa
-1.1534	m ae
-1.5387	m ah
-1.6848	m ao
-0.7117	m ax
-1.4296	m ay
-1.9067	m b
-1.5387	m d
-1.6848	m dh
-1.6848	m eh
-2.3838	m er
-1.0616	m ey
-1.3424	m f
-2.3838	m hh
-1.5387	m ih
-1.3424	m iy
-2.3838	m m
-1.9067	m ow
-1.0616	m p
-2.3838	m s
-1.9067	m sil
-2.3838	m t
-1.6848	m uw
-2.3838	m w
-1.6848	m y
-1.6848	m z
-2.3838	m zh
-1.9272	n aa
-1.4501	n ae
-2.7723	n aw
-1.4106	n ax
-2.2952	n ay
-2.0734	n b
-2.2952	n ch
-0.6824	n d
-1.5962	n dh
-1.5419	n eh
-1.6584	n er
-1.6584	n ey
-1.9272	n f
-2.0734	n g
-2.0734	n hh
-1.3744	n ih
-1.3410	n iy
-1.7309	n jh
-1.8181	n k
-2.7723	n l
-2.0734	n m
-2.7723	n n
-2.7723	n ow
-2.0734	n r
-1.2283	n s
-2.2952	n sh
-1.4936	n sil
-0.7429	n t
-2.0734	n th
-1.9272	n uw
-1.9272	n v
-1.8181	n w
-2.7723	n y
-1.4936	n z
-1.1206	ng ae
-1.8195	ng ay
-1.1206	ng d
-1.3424	ng dh
-1.1206	ng f
-1.8195	ng hh
-1.3424	ng ih
-1.8195	ng iy
-0.6435	ng k
-1.8195	ng l
-1.8195	ng m
-1.8195	ng n
-1.8195	ng p
-1.8195	ng s
-1.8195	ng sil
-1.8195	ng w
-1.3424	ng z
-1.8808	ow aa
-1.1818	ow ae
-1.8808	ow ao
-1.8808	ow aw
-1.8808	ow ax
-1.8808	ow ch
-1.8808	ow d
-1.8808	ow eh
-1.8808	ow er
-1.8808	ow ey
-1.0357	ow f
-1.8808	ow hh
-1.0357	ow ih
-1.4037	ow k
-0.7669	ow n
-1.4037	ow s
-1.4037	ow t
-1.8808	ow th
-1.8808	ow w
-1.4037	ow y
-1.1461	oy aa
-1.1461	oy ah
-0.6690	oy d
-1.1461	oy n
-1.1461	oy v
-1.1461	oy w
-1.9138	p aa
-1.2148	p ae
-1.0687	p ax
-1.9138	p ay
-1.2148	p eh
-1.2148	p er
-1.9138	p ey
-1.0687	p ih
-1.4367	p iy
-1.4367	p l
-1.4367	p m
-1.0687	p r
-1.4367	p s
-1.9138	p sh
-1.4367	p sil
-1.2148	p t
-1.9138	p v
-1.9138	p y
-1.9138	p z
-1.5474	r aa
-1.3584	r ae
-1.2666	r ah
-1.6346	r ao
-1.1909	r ax
-1.4749	r ay
-1.8899	r b
-2.1117	r ch
-1.2666	r d
-1.6346	r dh
-1.0975	r eh
-2.5888	r er
-1.3584	r ey
-2.5888	r f
-2.5888	r g
-2.1117	r hh
-1.1909	r ih
-0.9554	r iy
-1.7437	r jh
-1.3584	r k
-1.8899	r l
-1.4127	r m
-2.5888	r n
-1.4749	r ow
-2.1117	r oy
-2.5888	r r
-2.1117	r s
-2.5888	r sh
-2.5888	r sil
-1.2666	r t
-2.5888	r th
-1.8899	r uw
-2.5888	r w
-2.5888	r y
-2.5888	r z
-2.5024	s aa
-2.5024	s ae
-1.5482	s ah
-1.8035	s ao
-2.5024	s aw
-1.3263	s ax
-1.4610	s ay
-2.5024	s b
-2.0253	s ch
-1.8035	s d
-2.5024	s dh
-1.0711	s eh
-1.5482	s er
-1.3263	s f
-2.0253	s hh
-1.1407	s ih
-2.0253	s iy
-2.5024	s jh
-1.4610	s k
-1.8035	s l
-2.0253	s m
-2.5024	s n
-1.1045	s ow
-1.8035	s p
-2.0253	s s
-1.3885	s sil
-0.5939	s t
-2.0253	s uw
-2.0253	s w
-2.5024	s zh
-0.1852	sh ax
-1.8573	sh ay
-1.8573	sh ey
-1.3802	sh ih
-1.8573	sh iy
-1.8573	sh jh
-1.8573	sh ow
-1.8573	sh r
-1.8573	sh sil
-1.3802	sh t
-1.8573	sh uh
-2.0792	sil ae
-2.0792	sil ao
-2.5563	sil ax
-1.8573	sil b
-2.5563	sil ch
-2.5563	sil d
-0.8004	sil dh
-2.0792	sil eh
-2.5563	sil er
-2.0792	sil ey
-1.7112	sil f
-1.0122	sil hh
-1.3802	sil ih
-2.5563	sil jh
-2.0792	sil k
-2.5563	sil l
-1.7112	sil m
-2.5563	sil n
-2.5563	sil s
-2.5563	sil sh
-2.0792	sil th
-2.5563	sil v
-2.0792	sil w
-0.3034	sil !EXIT
-1.8591	t aa
-1.2728	t ae
-2.7042	t ah
-2.7042	t ao
-1.1856	t ax
-1.7499	t ay
-1.8591	t b
-2.2270	t ch
-2.2270	t d
-1.5902	t dh
-1.5281	t eh
-1.1359	t er
-1.5281	t ey
-1.4737	t f
-2.7042	t g
-1.8591	t hh
-0.9638	t ih
-1.5281	t iy
-2.0052	t k
-2.2270	t l
-1.8591	t m
-1.0140	t r
-1.3062	t s
-1.3819	t sil
-1.7499	t t
-2.7042	t th
-2.7042	t uh
-0.8781	t uw
-1.4254	t w
-2.7042	t y
-2.7042	t zh
-0.9638	th aw
-1.6628	th eh
-1.6628	th er
-1.6628	th g
-0.7085	th ih
-1.1856	th iy
-1.6628	th k
-0.7085	th r
-1.6628	th sil
-1.1856	th t
-1.6628	th uw
-1.4472	uh ch
-0.7482	uh d
-0.6021	uh k
-1.4472	uh l
-1.4472	uh n
-0.7482	uh r
-1.4472	uh t
-2.2201	uw ae
-2.2201	uw ah
-2.2201	uw ch
-1.1062	uw d
-0.9897	uw dh
-2.2201	uw ey
-1.2659	uw f
-2.2201	uw g
-1.7430	uw hh
-1.3750	uw ih
-1.7430	uw iy
-1.7430	uw jh
-1.3750	uw k
-1.7430	uw l
-1.3750	uw m
-1.1787	uw n
-2.2201	uw ng
-1.3750	uw s
-2.2201	uw sh
-2.2201	uw sil
-2.2201	uw t
-1.3750	uw th
-1.3750	uw v
-1.7430	uw w
-2.2201	uw y
-0.8584	uw z
-1.3345	v ae
-2.0334	v ah
-2.0334	v ao
-1.0792	v ax
-1.5563	v ay
-0.8573	v d
-0.9920	v eh
-0.7112	v er
-1.5563	v ey
-0.9920	v ih
-2.0334	v iy
-1.5563	v l
-2.0334	v r
-2.0334	v sh
-1.5563	v t
-2.0334	v w
-2.0334	v z
-0.5616	w aa
-1.7377	w ah
-1.7377	w ao
-1.7377	w ax
-1.7377	w ay
-0.8926	w eh
-0.8926	w er
-1.3697	w ey
-0.7524	w ih
-1.2606	w iy
-2.2148	w t
-1.7377	w uh
-2.2148	w uw
-2.2148	w y
-1.0000	y ax
-1.6990	y eh
-0.0862	y uw
-1.9912	z aa
-1.0059	z ae
-1.2923	z ao
-2.4683	z aw
-1.4270	z ax
-2.4683	z ay
-1.5141	z b
-2.4683	z ch
-1.1066	z d
-1.1896	z dh
-1.7694	z eh
-1.7694	z er
-1.1066	z ey
-1.3544	z f
-1.7694	z hh
-1.2379	z ih
-1.7694	z iy
-2.4683	z jh
-1.7694	z k
-2.4683	z l
-1.6232	z m
-1.9912	z n
-2.4683	z ow
-2.4683	z p
-1.7694	z s
-0.9770	z sil
-1.7694	z t
-2.4683	z th
-1.2923	z w
-2.4683	z y
-2.4683	z z
-0.5563	zh aa
-1.2553	zh ae
-1.2553	zh ah
-1.2553	zh ax
-1.2553	zh ih
-1.2553	zh t
-1.2553	zh w

\end\
