~o
<STREAMINFO> 1 39
<VECSIZE> 39<NULLD><MFCC_D_A_0><DIAGC>
~s "silst2"
<NUMMIXES> 2
<MIXTURE> 1 1.307404e-01
<MEAN> 39
 -8.055659e+00 4.244225e+00 9.812095e-01 1.684858e+00 -1.713906e+00 -4.950110e+00 -2.748678e+00 -9.098904e-01 -9.831530e-01 -6.230347e-01 -5.439336e-01 1.026088e+00 5.326114e+01 1.644295e-02 -6.099965e-02 -2.283411e-01 7.559383e-02 1.132132e-01 1.874323e-01 7.590153e-02 -3.104422e-03 -5.361385e-04 -1.455973e-01 2.752119e-02 9.669897e-02 -2.721098e-01 3.408199e-03 -4.553150e-02 5.792004e-02 4.211245e-02 2.599280e-02 5.603682e-02 7.949907e-02 -3.001346e-02 -3.641308e-02 -4.499976e-02 -7.577365e-02 -7.474591e-02 -4.668114e-02
<VARIANCE> 39
 1.631898e+01 2.283614e+01 2.322089e+01 2.904944e+01 2.793989e+01 3.526918e+01 3.906839e+01 4.048483e+01 3.663633e+01 3.655066e+01 2.982496e+01 2.270698e+01 1.535123e+01 1.362267e+00 1.712425e+00 1.961827e+00 2.496900e+00 2.656790e+00 3.155395e+00 3.611908e+00 3.582376e+00 3.202300e+00 3.396962e+00 2.766894e+00 2.400592e+00 1.133886e+00 2.926476e-01 3.302174e-01 3.623862e-01 4.833519e-01 4.716967e-01 6.026095e-01 6.634513e-01 7.116907e-01 6.218200e-01 6.217369e-01 5.334045e-01 4.254985e-01 4.559689e-01
<GCONST> 1.170427e+02
<MIXTURE> 2 8.692653e-01
<MEAN> 39
 -1.955903e+01 -4.413183e-02 -1.493227e+00 2.122887e+00 4.490910e-01 1.420808e+00 -5.252698e-03 4.775685e-01 -3.533389e-01 7.828376e-02 -3.211550e-01 1.313151e-01 1.478013e+01 -1.898833e-03 -1.097128e-03 4.514025e-03 8.827769e-03 -4.171524e-03 -4.510542e-04 1.223735e-02 -1.019520e-02 -1.321368e-02 4.660655e-03 -3.916689e-04 -1.595415e-03 -6.967421e-04 1.353738e-03 1.979482e-03 -3.079513e-03 -2.534133e-03 -1.973993e-03 3.352338e-03 2.009149e-03 3.811108e-04 1.620135e-03 -1.677042e-03 -1.280274e-03 2.398924e-03 4.055135e-04
<VARIANCE> 39
 7.511302e-01 2.337286e+00 5.012887e+00 7.433828e+00 9.351555e+00 1.147148e+01 1.347223e+01 1.484307e+01 1.513848e+01 1.499763e+01 1.459006e+01 1.275603e+01 1.870390e+00 7.077818e-02 2.469888e-01 5.317211e-01 8.013849e-01 1.012303e+00 1.204208e+00 1.442661e+00 1.624785e+00 1.615280e+00 1.604225e+00 1.560233e+00 1.337694e+00 4.343635e-02 1.438345e-02 4.978266e-02 1.055948e-01 1.618669e-01 2.034349e-01 2.382766e-01 2.916931e-01 3.266990e-01 3.264939e-01 3.171465e-01 3.123723e-01 2.646014e-01 8.883309e-03
<GCONST> 6.563819e+01
~s "silst3"
<MEAN> 39
 -1.314856e+01 1.463201e+00 -1.165279e+00 1.308594e+00 -1.073930e+00 -1.432942e+00 -1.021783e+00 -7.922783e-01 -5.640305e-01 -7.315711e-01 -5.755647e-01 4.838724e-01 3.471739e+01 1.120235e-02 -7.611913e-02 -7.198818e-02 5.261804e-02 -3.280531e-02 -8.914515e-02 -7.742549e-02 1.250111e-01 -2.677337e-02 -1.537611e-01 1.276032e-03 -5.195849e-02 -2.852013e-02 3.737346e-02 7.757502e-02 7.152774e-02 6.173254e-02 3.685859e-02 -4.077131e-02 -4.818618e-04 -1.073020e-02 4.105441e-02 6.812827e-03 -1.575009e-02 -3.117994e-04 2.555105e-02
<VARIANCE> 39
 3.932372e+01 1.165306e+01 1.265106e+01 1.504976e+01 1.642090e+01 2.930213e+01 2.315636e+01 2.579024e+01 2.085761e+01 2.213196e+01 1.875238e+01 1.473584e+01 3.462998e+02 5.725916e+00 1.408110e+00 1.559158e+00 1.658428e+00 1.891014e+00 3.678085e+00 2.484321e+00 2.771342e+00 2.228431e+00 2.382131e+00 1.873179e+00 1.599074e+00 4.651294e+01 7.899135e-01 1.954503e-01 2.794868e-01 3.168580e-01 3.599056e-01 6.257253e-01 4.783484e-01 5.160008e-01 4.186059e-01 4.776090e-01 3.840701e-01 3.216612e-01 6.303487e+00
<GCONST> 1.176960e+02
~s "silst4"
<NUMMIXES> 2
<MIXTURE> 1 8.422014e-01
<MEAN> 39
 -7.007099e+00 4.393865e+00 2.215232e-01 1.589787e+00 -2.124377e+00 -4.721067e+00 -1.969974e+00 -2.202625e+00 -1.336781e-01 -5.989034e-01 -5.926884e-01 1.200859e+00 5.106671e+01 -4.269486e-03 6.562412e-03 -8.427246e-03 1.221824e-02 -3.606019e-03 2.292439e-02 2.297364e-02 -2.074788e-02 1.368879e-02 7.343462e-03 -1.167181e-02 -1.660457e-03 -2.025091e-02 -8.802585e-03 1.189145e-02 4.275788e-02 5.968446e-02 8.260766e-02 8.161385e-02 5.086648e-02 7.032442e-03 -5.125115e-02 -7.449260e-02 -7.504068e-02 -4.728205e-02 1.496493e-02
<VARIANCE> 39
 3.256663e+00 1.004902e+01 1.147190e+01 1.548380e+01 1.812692e+01 2.386481e+01 2.499552e+01 2.689727e+01 2.791166e+01 2.602787e+01 2.346359e+01 2.184899e+01 2.496719e+00 2.915551e-01 6.163824e-01 1.039732e+00 1.473702e+00 1.923640e+00 2.306299e+00 2.376725e+00 2.479650e+00 2.540285e+00 2.599222e+00 2.460049e+00 2.141455e+00 9.068202e-02 5.759229e-02 1.217669e-01 2.067022e-01 2.757101e-01 3.541919e-01 4.235556e-01 4.599685e-01 4.928073e-01 4.960562e-01 4.843400e-01 4.604362e-01 4.199569e-01 1.767690e-02
<GCONST> 9.148035e+01
<MIXTURE> 2 1.577666e-01
<MEAN> 39
 -8.063805e+00 3.568026e+00 1.339770e+00 4.669305e+00 2.092526e+00 -7.974414e-01 6.723759e-01 -1.174700e+00 -2.869636e+00 -4.826237e+00 -4.078719e+00 -7.183716e-01 4.988612e+01 -1.727350e-02 -1.212631e-03 -2.428995e-02 -2.835151e-02 -6.535844e-02 3.497601e-02 -2.004674e-02 -8.442497e-02 4.022891e-02 1.773428e-03 3.560607e-02 -1.766161e-02 -4.542756e-02 2.657018e-02 -4.838626e-02 -1.496050e-01 -3.299003e-01 -4.718833e-01 -4.533992e-01 -2.863702e-01 -1.554805e-02 2.822191e-01 4.497769e-01 4.169861e-01 2.423376e-01 6.161242e-02
<VARIANCE> 39
 1.494300e+01 1.801795e+01 1.555261e+01 1.801588e+01 1.940234e+01 2.677256e+01 2.883245e+01 3.268222e+01 3.108510e+01 3.048986e+01 2.625347e+01 2.194908e+01 8.108523e+01 3.873460e-01 7.024642e-01 1.004782e+00 1.457468e+00 1.790785e+00 2.265304e+00 2.541791e+00 2.480478e+00 2.674916e+00 2.736014e+00 2.485188e+00 2.112977e+00 1.693514e-01 1.076747e-01 1.593226e-01 2.063889e-01 2.859587e-01 3.340338e-01 4.228783e-01 5.122982e-01 5.370328e-01 5.117995e-01 5.357613e-01 4.725679e-01 4.140474e-01 9.600566e-02
<GCONST> 1.023985e+02
~h "b"
<BEGINHMM>
<NUMSTATES> 5
<STATE> 2
<NUMMIXES> 2
<MIXTURE> 1 3.418913e-01
<MEAN> 39
 4.381864e+00 3.713140e+00 1.590914e-01 5.844918e+00 -2.097836e+00 -5.585562e+00 -5.522294e+00 -1.240141e-01 5.920123e-01 1.242088e+00 3.201074e+00 -2.829763e+00 6.310179e+01 -1.015840e-01 1.587881e+00 4.128923e-01 2.183985e-01 2.121670e+00 1.097967e+00 7.987074e-01 -1.003682e+00 -5.834773e-01 9.052231e-01 6.437743e-02 -2.944653e-01 -2.154991e+00 -3.249222e-01 2.789842e-01 4.963194e-01 1.400956e-01 -7.354461e-02 2.376123e-01 4.975379e-01 -1.107448e-01 -1.965509e-01 -2.148088e-01 -4.218409e-01 5.858146e-04 -1.085069e-01
<VARIANCE> 39
 7.111254e+00 1.769055e+01 2.657703e+01 2.939096e+01 4.050530e+01 4.033628e+01 3.478377e+01 3.981895e+01 3.611421e+01 3.398478e+01 2.843569e+01 2.907405e+01 1.771716e+01 7.490581e-01 8.678499e-01 2.412740e+00 1.810003e+00 3.139253e+00 2.867585e+00 3.506540e+00 3.383843e+00 2.928231e+00 2.012069e+00 3.653710e+00 2.113188e+00 5.710647e-01 4.827381e-02 1.308204e-01 1.609411e-01 3.601661e-01 4.515593e-01 3.999943e-01 4.351168e-01 4.991322e-01 3.948803e-01 3.930039e-01 4.805849e-01 2.816960e-01 1.457994e-01
<GCONST> 1.065418e+02
<MIXTURE> 2 6.581086e-01
<MEAN> 39
 -8.838801e-01 9.592602e+00 5.778295e+00 8.696815e+00 2.660957e+00 -2.017507e+00 -1.638203e-02 -3.076305e+00 -1.794212e+00 1.910961e-01 -2.084315e+00 -1.885569e+00 5.507034e+01 6.516583e-04 9.245862e-01 1.088088e+00 7.376611e-01 5.561085e-01 3.546155e-01 2.682807e-01 -3.380076e-01 -3.645539e-01 -4.484219e-02 -6.552662e-01 -3.324514e-01 -4.368151e-01 2.705102e-02 -2.585545e-01 -2.078293e-01 -1.175231e-01 -3.120119e-01 -2.107678e-01 -1.780547e-01 7.535657e-02 1.144543e-01 4.593727e-03 1.229333e-01 -7.486325e-03 2.522801e-01
<VARIANCE> 39
 1.856371e+01 1.675273e+01 2.362435e+01 2.801176e+01 2.423213e+01 2.177350e+01 2.707870e+01 2.893410e+01 4.391466e+01 3.172645e+01 3.662138e+01 2.856455e+01 8.276810e+00 1.082416e+00 2.295338e+00 1.842474e+00 2.391648e+00 2.198000e+00 2.535388e+00 2.726092e+00 2.616009e+00 2.765554e+00 3.080034e+00 3.500113e+00 1.985595e+00 1.087443e+00 1.056401e-01 4.313800e-01 3.307024e-01 4.297837e-01 4.434045e-01 4.822748e-01 4.901301e-01 6.569586e-01 4.855077e-01 5.256223e-01 7.228464e-01 4.470308e-01 1.266743e-01
<GCONST> 1.111132e+02
<STATE> 3
<MEAN> 39
 3.477431e-01 1.175070e+01 7.497376e+00 8.669450e+00 2.472478e+00 -1.437471e+00 5.434411e-01 -2.740508e+00 -1.629666e+00 -2.124396e-01 -1.978281e+00 -1.898891e+00 5.444868e+01 -2.342061e-01 -6.149564e-03 6.826743e-03 -1.030656e-01 8.244966e-02 1.226539e-01 1.207015e-01 2.226869e-01 1.755448e-01 -1.029750e-01 -6.729756e-02 1.308587e-01 -2.402539e-01 -3.812471e-02 -1.010454e-01 -7.656715e-02 -5.751132e-02 -3.165784e-02 -2.504443e-02 -2.616417e-02 4.646769e-03 2.620897e-02 3.224815e-02 4.948250e-02 1.424056e-02 5.368809e-02
<VARIANCE> 39
 5.584018e+00 6.338067e+00 1.108822e+01 1.869997e+01 1.813284e+01 2.475706e+01 2.501145e+01 2.760532e+01 3.235201e+01 2.846308e+01 2.081487e+01 2.136202e+01 4.248685e+00 1.999998e-01 4.191862e-01 6.994550e-01 1.232781e+00 1.465938e+00 1.525608e+00 1.816216e+00 1.784498e+00 1.980317e+00 1.899707e+00 1.853494e+00 1.813784e+00 9.460162e-02 3.736984e-02 8.510029e-02 1.578170e-01 2.542405e-01 2.805388e-01 3.076815e-01 3.579642e-01 3.158558e-01 3.631376e-01 3.804781e-01 3.649357e-01 3.543792e-01 3.293237e-02
<GCONST> 8.609040e+01
<STATE> 4
<NUMMIXES> 2
<MIXTURE> 1 4.408183e-01
<MEAN> 39
 -5.737253e+00 5.114539e+00 4.077217e+00 3.942808e+00 1.128351e+00 -1.322130e+00 -6.122108e-01 -1.529763e+00 -3.003518e-02 8.375307e-01 -1.472956e+00 -1.490804e+00 5.757781e+01 -4.672709e-01 -1.687723e+00 -9.969800e-01 -9.037995e-01 -1.089152e+00 -3.466772e-01 -9.156869e-01 5.130033e-01 2.545643e-01 3.099389e-01 4.333155e-01 -1.484081e-01 2.660092e+00 5.295965e-01 3.278680e-01 -1.251673e-01 1.389301e-01 -2.201653e-01 -1.543819e-01 -1.600224e-01 5.438270e-02 3.377822e-02 -2.585056e-02 1.941127e-01 -2.792030e-02 6.821588e-02
<VARIANCE> 39
 2.340784e+01 3.760181e+01 2.696477e+01 2.863659e+01 2.750883e+01 2.418106e+01 3.021736e+01 2.747190e+01 3.200061e+01 3.175572e+01 2.166730e+01 1.755146e+01 4.289837e+01 2.743726e+00 2.425880e+00 3.175652e+00 2.682055e+00 3.301959e+00 3.785754e+00 4.238512e+00 3.736278e+00 3.753884e+00 3.733148e+00 3.087448e+00 2.527379e+00 1.945880e+00 4.126363e-01 8.554077e-01 5.179322e-01 5.028366e-01 8.044855e-01 6.126195e-01 6.752663e-01 6.493046e-01 7.923456e-01 6.175995e-01 5.667797e-01 4.434580e-01 8.739510e-01
<GCONST> 1.234886e+02
<MIXTURE> 2 5.591822e-01
<MEAN> 39
 -4.802069e+00 7.431253e+00 3.987341e+00 3.901615e+00 1.600661e+00 -2.436218e+00 -4.783359e-01 -9.592089e-01 6.764677e-01 9.738620e-01 -1.320018e-01 -2.706941e-01 5.219788e+01 -3.316981e-01 -2.568411e-01 -2.305810e-01 -2.807941e-01 -1.768952e-03 -9.834759e-02 -1.342916e-01 -8.287488e-02 7.510643e-03 1.779979e-02 6.689733e-02 1.056150e-01 -7.934280e-02 -6.318537e-02 -1.589341e-01 -5.177335e-03 -4.868884e-02 -1.113632e-01 -6.531302e-03 -2.357934e-02 8.981013e-03 -3.795872e-02 -2.972014e-02 -4.314318e-02 -2.549889e-02 3.187509e-01
<VARIANCE> 39
 7.461170e+00 1.046918e+01 1.346735e+01 1.946007e+01 2.630515e+01 2.741673e+01 3.223762e+01 3.187965e+01 2.891845e+01 2.214684e+01 2.561688e+01 2.292499e+01 2.752503e+00 4.304542e-01 9.020859e-01 1.134047e+00 1.729252e+00 2.286699e+00 2.043634e+00 2.442609e+00 2.353360e+00 2.263929e+00 1.730372e+00 2.006166e+00 2.010452e+00 1.550638e-01 1.036677e-01 2.752379e-01 2.525342e-01 3.482990e-01 4.983514e-01 4.491341e-01 5.409138e-01 5.265180e-01 4.969404e-01 3.736638e-01 4.256844e-01 4.350279e-01 2.144441e-01
<GCONST> 9.923432e+01
<TRANSP> 5
 0.000000e+00 1.000000e+00 0.000000e+00 0.000000e+00 0.000000e+00
 0.000000e+00 7.605460e-01 2.394539e-01 0.000000e+00 0.000000e+00
 0.000000e+00 0.000000e+00 8.920135e-01 1.079865e-01 0.000000e+00
 0.000000e+00 0.000000e+00 0.000000e+00 8.744521e-01 1.255479e-01
 0.000000e+00 0.000000e+00 0.000000e+00 0.000000e+00 0.000000e+00
<ENDHMM>
~h "d"
<BEGINHMM>
<NUMSTATES> 5
<STATE> 2
<NUMMIXES> 2
<MIXTURE> 1 3.241295e-01
<MEAN> 39
 -1.263756e+00 6.929822e+00 9.201130e+00 6.580667e+00 -5.625089e+00 -6.510488e+00 -2.521564e+00 8.883050e-01 -1.755744e+00 -1.985668e+00 9.437640e-01 9.238794e-01 6.074321e+01 -2.198048e-02 1.178363e+00 -6.694454e-02 3.835541e-01 1.632077e+00 6.544548e-01 4.167113e-01 -3.853885e-01 1.062986e-01 1.679018e-01 -6.395884e-01 -2.082889e-01 -1.760846e+00 8.031963e-02 7.537632e-02 -2.632798e-01 4.927361e-02 9.413822e-02 8.998308e-02 4.374293e-02 -2.017970e-01 4.746286e-02 7.303864e-02 -1.698504e-02 -9.805559e-02 -2.209651e-02
<VARIANCE> 39
 1.662832e+01 2.496860e+01 3.371100e+01 3.434297e+01 5.456501e+01 4.224811e+01 4.770776e+01 4.086082e+01 5.026192e+01 3.684887e+01 3.647723e+01 2.850535e+01 3.099958e+01 1.007356e+00 1.979868e+00 2.368221e+00 2.386817e+00 3.983644e+00 4.043198e+00 4.153503e+00 4.812726e+00 3.832042e+00 3.259153e+00 3.221601e+00 2.563833e+00 1.745571e+00 1.791609e-01 4.640653e-01 3.604293e-01 4.978957e-01 8.509964e-01 7.555784e-01 7.829558e-01 7.247892e-01 6.361992e-01 5.899205e-01 5.394783e-01 4.489928e-01 3.493660e-01
<GCONST> 1.227107e+02
<MIXTURE> 2 6.758705e-01
<MEAN> 39
 -1.252880e+00 1.132859e+01 7.184520e+00 7.398498e+00 5.148188e-01 -3.068558e+00 -6.642670e-01 -2.005957e+00 -8.416152e-01 -5.158535e-01 -1.920903e+00 -6.200688e-01 5.418392e+01 -3.453928e-01 -1.668078e-01 -2.862323e-01 -2.796586e-01 1.831312e-01 1.610603e-01 -3.161425e-02 -8.975790e-03 8.037046e-02 -1.418033e-01 -9.115005e-02 1.144612e-01 -3.375728e-01 -1.405258e-01 -3.046442e-01 -3.671486e-03 -1.721437e-01 -1.796508e-01 -3.073047e-02 -4.045274e-02 5.559973e-02 -5.812267e-02 -2.387203e-02 1.010636e-01 3.230671e-02 2.807227e-01
<VARIANCE> 39
 8.556014e+00 9.139758e+00 1.259719e+01 1.931951e+01 2.192575e+01 2.585858e+01 2.898178e+01 2.980517e+01 3.135118e+01 3.185321e+01 2.247036e+01 2.265715e+01 5.054055e+00 4.627459e-01 7.005920e-01 9.604872e-01 1.427609e+00 1.800267e+00 2.013109e+00 2.194375e+00 2.642844e+00 2.446644e+00 2.602328e+00 2.197354e+00 1.853473e+00 2.501040e-01 1.061438e-01 2.099646e-01 2.163306e-01 3.267514e-01 3.770537e-01 4.629189e-01 4.680646e-01 5.447498e-01 4.850270e-01 4.854944e-01 4.506324e-01 3.573478e-01 1.490481e-01
<GCONST> 9.875499e+01
<STATE> 3
<MEAN> 39
 -3.799190e+00 8.298888e+00 4.951863e+00 5.568789e+00 7.026886e-01 -2.963947e+00 -1.374080e+00 -2.747606e+00 -1.562519e+00 -9.261578e-01 -1.311468e+00 -1.926966e-01 5.401490e+01 -1.458276e+00 -2.246781e+00 -2.946816e-01 -1.738181e+00 -2.647394e-01 3.557003e-01 -4.469889e-02 6.056821e-01 -1.124220e-01 8.514581e-02 3.887024e-01 2.375146e-01 2.201694e+00 -3.056367e-01 -2.192093e-01 1.999828e-01 -2.339998e-01 -3.939529e-01 -2.310726e-01 -1.368306e-02 9.970175e-02 -8.703858e-02 1.504901e-01 6.621955e-02 -7.797832e-03 8.027303e-01
<VARIANCE> 39
 1.413263e+01 2.101069e+01 2.498486e+01 2.735970e+01 2.417665e+01 3.013853e+01 3.069207e+01 3.397773e+01 2.841035e+01 2.931476e+01 2.566173e+01 2.527259e+01 1.026401e+01 2.055998e+00 3.998578e+00 3.048631e+00 4.531958e+00 3.497182e+00 3.576273e+00 3.461963e+00 4.079057e+00 3.023004e+00 3.592985e+00 2.505596e+00 2.384964e+00 4.682341e+00 2.955200e-01 5.871451e-01 4.297678e-01 5.923062e-01 6.460319e-01 5.731961e-01 6.587262e-01 7.965662e-01 6.435636e-01 5.788404e-01 5.357137e-01 4.108497e-01 4.536174e-01
<GCONST> 1.205407e+02
<STATE> 4
<NUMMIXES> 2
<MIXTURE> 1 3.966536e-01
<MEAN> 39
 -1.204983e+01 -2.980076e+00 5.025194e+00 -4.018616e+00 -1.510468e+00 -1.600298e+00 -1.914194e+00 2.326196e-01 -2.181817e+00 6.464352e-02 2.039011e-01 6.973535e-01 6.870058e+01 -1.662532e+00 -4.094513e-01 1.029437e+00 -7.623519e-01 -1.474514e+00 -1.151144e+00 6.059749e-02 6.907322e-01 -4.695022e-01 2.136233e-01 3.342505e-01 5.049345e-02 2.565732e+00 1.004745e+00 1.446997e+00 3.089793e-01 1.397817e+00 -2.005403e-01 -3.885424e-01 -3.492863e-02 -2.642888e-01 4.914344e-02 -2.075583e-01 -8.690964e-02 -9.859154e-02 -1.422987e+00
<VARIANCE> 39
 2.557928e+01 4.164039e+01 4.365053e+01 5.738281e+01 4.263060e+01 4.119458e+01 4.896352e+01 3.457609e+01 3.516899e+01 2.705359e+01 2.345448e+01 1.720778e+01 2.190136e+01 2.823944e+00 4.009271e+00 3.053655e+00 4.438987e+00 4.726568e+00 3.842657e+00 4.720695e+00 5.403788e+00 4.120384e+00 3.645218e+00 3.553152e+00 2.658522e+00 3.984794e+00 5.906036e-01 4.691693e-01 7.654271e-01 1.015812e+00 1.107428e+00 9.305342e-01 8.492841e-01 8.162805e-01 6.166002e-01 6.271255e-01 5.141549e-01 4.501033e-01 4.299464e-01
<GCONST> 1.297043e+02
<MIXTURE> 2 6.033460e-01
<MEAN> 39
 -8.668182e+00 4.324773e+00 7.403861e+00 3.202914e+00 -4.714663e+00 -7.133670e+00 -2.825010e+00 -1.193914e-01 -1.747375e+00 -3.227245e-01 -3.518467e-01 6.334890e-02 6.128589e+01 1.042957e+00 1.176136e+00 2.041949e-01 1.226041e+00 -3.947700e-01 -2.804107e-01 -2.188041e-01 -2.743614e-01 1.771145e-01 -1.920181e-01 1.022305e-01 -4.685520e-02 -1.183055e+00 4.215018e-01 4.660130e-02 -2.629094e-01 1.026209e-01 1.278714e-01 3.221503e-01 -4.516338e-02 -1.819792e-01 6.462131e-02 -6.600895e-02 9.803417e-03 -9.350472e-03 -2.346767e-01
<VARIANCE> 39
 4.572229e+01 3.203977e+01 3.374945e+01 3.565601e+01 5.833200e+01 5.508638e+01 5.829677e+01 5.175831e+01 4.883760e+01 4.535757e+01 4.162001e+01 3.408737e+01 3.076096e+01 3.196062e+00 3.072240e+00 3.526904e+00 5.490039e+00 6.487654e+00 6.354958e+00 3.750002e+00 3.975942e+00 3.461437e+00 3.407671e+00 3.201776e+00 2.688231e+00 2.517674e+00 7.930757e-01 5.173628e-01 5.471826e-01 8.229551e-01 1.055124e+00 1.146802e+00 8.770473e-01 7.712774e-01 7.506719e-01 6.895184e-01 6.861861e-01 5.866916e-01 6.200000e-01
<GCONST> 1.338108e+02
<TRANSP> 5
 0.000000e+00 1.000000e+00 0.000000e+00 0.000000e+00 0.000000e+00
 0.000000e+00 8.601769e-01 1.398231e-01 0.000000e+00 0.000000e+00
 0.000000e+00 0.000000e+00 5.801499e-01 4.198501e-01 0.000000e+00
 0.000000e+00 0.000000e+00 0.000000e+00 7.370301e-01 2.629699e-01
 0.000000e+00 0.000000e+00 0.000000e+00 0.000000e+00 0.000000e+00
<ENDHMM>
~h "f"
<BEGINHMM>
<NUMSTATES> 5
<STATE> 2
<NUMMIXES> 2
<MIXTURE> 1 2.825602e-01
<MEAN> 39
 2.409843e+00 7.499405e+00 5.364091e-01 3.416244e+00 -1.113557e+00 -1.839714e+00 -2.244893e+00 -1.415059e+00 -1.497999e+00 2.910746e+00 3.621693e+00 8.179644e-01 6.141872e+01 -1.655042e+00 -1.975448e-01 1.211529e+00 4.234495e-01 1.565004e+00 6.893662e-01 5.147025e-01 4.117916e-01 6.079400e-01 -3.482274e-01 -8.545969e-01 -1.174957e-01 -6.996893e-01 -4.703747e-01 -2.357522e-01 3.357890e-02 4.434735e-02 -7.919916e-02 7.440291e-02 -2.311197e-02 -6.481950e-02 -6.063865e-02 -2.995552e-01 -3.100379e-01 -8.981320e-02 1.257356e-01
<VARIANCE> 39
 9.753010e+00 1.369311e+01 2.733455e+01 2.989158e+01 3.673294e+01 5.935072e+01 4.623881e+01 3.433326e+01 4.504537e+01 3.909354e+01 2.745990e+01 2.549579e+01 5.454824e+00 8.103673e-01 1.351057e+00 1.620399e+00 1.733943e+00 2.320780e+00 3.570071e+00 3.228854e+00 3.124926e+00 3.366236e+00 2.733955e+00 3.289123e+00 2.594596e+00 5.067197e-01 8.272210e-02 1.032239e-01 2.988124e-01 3.036355e-01 4.289749e-01 5.935650e-01 5.583249e-01 4.934344e-01 6.164651e-01 5.029042e-01 5.498023e-01 4.337697e-01 3.725635e-02
<GCONST> 1.075747e+02
<MIXTURE> 2 7.174404e-01
<MEAN> 39
 -8.620061e+00 4.801310e+00 3.925654e+00 4.614905e+00 1.035758e+00 -1.722530e+00 -1.359647e+00 -1.435856e+00 -1.137607e+00 -1.371049e+00 -1.790767e+00 -3.462574e-01 5.893029e+01 -1.519038e+00 -6.719542e-01 -5.304778e-01 -2.444175e-01 -4.118842e-01 -1.580034e-01 -4.575076e-01 -5.975184e-01 -2.919235e-02 -1.418617e-01 -2.362313e-01 4.405355e-02 1.371896e-01 9.290309e-02 -7.743266e-02 -2.146456e-01 -6.214366e-02 -2.176484e-01 -1.122346e-01 -7.383555e-02 5.504749e-03 -1.934275e-02 1.079371e-01 2.049587e-01 1.026748e-02 1.853162e-01
<VARIANCE> 39
 1.576553e+01 1.510611e+01 1.602890e+01 2.554175e+01 3.283712e+01 3.853953e+01 3.832199e+01 3.673042e+01 4.274797e+01 3.437830e+01 2.419549e+01 2.275938e+01 1.040792e+01 1.369443e+00 1.279207e+00 1.605329e+00 2.385523e+00 3.471660e+00 3.529038e+00 2.725170e+00 2.735373e+00 2.851617e+00 2.782866e+00 2.662896e+00 1.910653e+00 6.341045e-01 1.472459e-01 2.049884e-01 3.339694e-01 5.143591e-01 7.609367e-01 7.266608e-01 5.219122e-01 5.860507e-01 5.464055e-01 5.565207e-01 5.010349e-01 3.891946e-01 7.322279e-02
<GCONST> 1.106862e+02
<STATE> 3
<MEAN> 39
 -1.521009e+01 -4.285299e-01 4.428508e-01 3.292916e+00 -8.965986e-01 -1.629914e+00 -2.478894e+00 -1.697271e+00 -5.047716e-01 -9.328174e-01 -1.529671e+00 -6.503857e-02 6.169896e+01 -2.840619e-01 -3.764805e-01 -2.122036e-01 -1.098066e-01 4.141469e-02 1.166839e-01 8.468641e-02 1.087442e-01 1.393582e-01 1.225859e-02 8.833729e-03 -3.927105e-02 2.628172e-01 1.058577e-01 -6.052548e-03 1.385204e-03 -6.018083e-02 2.245808e-02 -5.764319e-03 3.471441e-02 4.228966e-02 3.794285e-02 2.933443e-02 8.402158e-03 8.649760e-03 -1.590059e-02
<VARIANCE> 39
 7.624387e+00 1.627174e+01 1.908286e+01 1.844775e+01 2.549155e+01 2.988521e+01 3.476191e+01 2.867045e+01 3.472558e+01 3.437143e+01 2.723686e+01 2.417119e+01 8.508315e+00 4.151118e-01 9.269290e-01 1.289577e+00 1.673910e+00 1.850918e+00 2.494225e+00 2.660819e+00 2.637906e+00 2.539634e+00 2.750956e+00 2.458405e+00 2.372934e+00 2.275319e-01 7.257845e-02 1.755817e-01 2.519878e-01 3.301677e-01 3.763852e-01 5.065875e-01 5.280650e-01 5.208933e-01 4.937919e-01 5.441699e-01 5.259073e-01 4.836059e-01 3.354311e-02
<GCONST> 1.012617e+02
<STATE> 4
<NUMMIXES> 2
<MIXTURE> 1 3.240946e-01
<MEAN> 39
 -7.286292e+00 -2.092335e+00 -3.626384e+00 2.004252e-01 -1.706251e+00 -1.190517e+00 -1.178144e+00 3.015407e-01 7.255756e-01 2.011379e+00 -4.110475e-01 4.600342e-02 5.804287e+01 2.230850e+00 2.356238e+00 1.072690e+00 1.994204e+00 4.573153e-01 9.987804e-01 3.775803e-01 2.710284e-01 -7.257393e-01 -4.815343e-01 -1.485385e-01 -4.452823e-01 -6.236998e-01 4.205835e-01 5.577149e-01 2.546701e-01 1.331159e-01 -1.276627e-01 3.278685e-02 -7.953040e-02 3.063963e-02 -2.317373e-01 -3.002837e-01 7.020380e-02 -1.787739e-01 6.992562e-01
<VARIANCE> 39
 1.040921e+01 1.269207e+01 3.448811e+01 3.147885e+01 3.157922e+01 4.144795e+01 4.252827e+01 3.840601e+01 3.516001e+01 4.261020e+01 2.861741e+01 2.278226e+01 7.788356e+00 1.089814e+00 2.019406e+00 2.267879e+00 2.374836e+00 2.282247e+00 2.502768e+00 3.041435e+00 2.756055e+00 2.372464e+00 3.187742e+00 2.611855e+00 1.975916e+00 7.673923e-01 1.379481e-01 2.800343e-01 3.613942e-01 6.879748e-01 5.869316e-01 5.791672e-01 6.633406e-01 6.297778e-01 4.943585e-01 5.071944e-01 5.110956e-01 3.511442e-01 1.487973e-01
<GCONST> 1.121080e+02
<MIXTURE> 2 6.759052e-01
<MEAN> 39
 -1.356129e+01 -4.805142e+00 -3.587545e+00 -1.403302e+00 -7.476987e-01 -1.208061e+00 -1.421226e+00 3.253604e-02 1.216257e+00 8.390555e-01 -9.871708e-01 -3.308194e-01 6.333926e+01 1.132924e+00 -4.775082e-02 -2.916776e-01 -6.262314e-01 -4.996264e-01 -2.803521e-01 2.319853e-02 2.121849e-01 8.590373e-02 3.642116e-01 1.956313e-01 1.628229e-01 -6.273117e-01 2.727995e-01 3.602843e-01 1.852974e-01 3.107609e-01 -2.380801e-02 8.355157e-02 -3.647077e-03 -5.089400e-02 -1.416849e-01 -5.342205e-02 2.925211e-02 4.238992e-03 -2.327465e-01
<VARIANCE> 39
 1.456720e+01 1.416542e+01 2.644485e+01 2.894931e+01 2.838015e+01 3.388214e+01 3.864682e+01 2.887251e+01 3.259068e+01 3.380492e+01 2.648668e+01 2.486543e+01 8.229110e+00 6.153997e-01 1.085894e+00 1.591054e+00 2.271566e+00 2.457296e+00 2.555812e+00 2.871849e+00 2.419276e+00 2.703659e+00 2.615112e+00 2.503440e+00 2.165112e+00 5.686441e-01 1.255273e-01 2.263203e-01 2.881919e-01 5.219852e-01 5.116623e-01 5.519942e-01 5.910749e-01 4.408199e-01 4.704517e-01 5.431885e-01 4.655817e-01 4.110357e-01 7.649189e-02
<GCONST> 1.072220e+02
<TRANSP> 5
 0.000000e+00 1.000000e+00 0.000000e+00 0.000000e+00 0.000000e+00
 0.000000e+00 8.163966e-01 1.836034e-01 0.000000e+00 0.000000e+00
 0.000000e+00 0.000000e+00 9.187306e-01 8.126939e-02 0.000000e+00
 0.000000e+00 0.000000e+00 0.000000e+00 8.635882e-01 1.364118e-01
 0.000000e+00 0.000000e+00 0.000000e+00 0.000000e+00 0.000000e+00
<ENDHMM>
~h "g"
<BEGINHMM>
<NUMSTATES> 5
<STATE> 2
<NUMMIXES> 2
<MIXTURE> 1 2.349354e-01
<MEAN> 39
 -1.178320e+00 8.360021e+00 1.263890e+01 7.780487e+00 -8.075233e+00 -6.210549e+00 1.022764e+00 1.270301e+00 -1.006585e+01 1.264563e+00 8.176336e+00 -4.308163e+00 6.081839e+01 1.551922e-01 1.118202e+00 -2.944899e-01 1.273597e-01 2.487047e+00 1.456991e-01 3.089579e-01 -4.508500e-01 8.843540e-01 5.255172e-01 -1.279250e+00 1.680083e-01 -2.137470e+00 3.854169e-02 -8.686369e-02 -3.467537e-01 4.207686e-02 -2.214724e-01 7.271025e-02 -1.684881e-01 -1.945196e-01 7.107800e-01 -3.662703e-01 -3.139791e-01 2.818741e-01 1.243684e-01
<VARIANCE> 39
 9.026612e+00 1.406023e+01 3.154050e+01 1.992408e+01 4.092757e+01 6.092876e+01 6.683833e+01 5.226955e+01 5.281959e+01 4.528376e+01 4.387851e+01 3.143951e+01 1.737040e+01 4.993428e-01 8.434551e-01 1.542794e+00 1.609613e+00 1.622972e+00 4.681081e+00 2.939552e+00 3.178459e+00 4.945739e+00 2.814589e+00 3.546141e+00 2.577134e+00 4.063937e-01 9.206216e-02 1.569455e-01 1.711595e-01 3.377150e-01 4.737524e-01 4.856320e-01 3.939981e-01 5.986338e-01 5.598747e-01 5.179206e-01 5.387952e-01 3.602196e-01 1.704045e-01
<GCONST> 1.104122e+02
<MIXTURE> 2 7.650648e-01
<MEAN> 39
 -1.744886e+00 9.899755e+00 6.370748e+00 6.844906e+00 -5.209845e-01 -4.518445e+00 -6.112152e-01 -1.811888e+00 -2.274615e+00 5.505681e-04 -1.720330e-01 -3.689418e-01 5.405167e+01 -3.503476e-01 -1.992001e-01 -2.219960e-01 -1.368981e-01 1.868691e-01 -9.373606e-02 -3.645751e-01 -8.154767e-02 3.118294e-01 -1.328150e-01 -5.390378e-01 2.416426e-01 -3.315380e-01 -1.030215e-01 -1.898719e-01 1.701615e-03 -9.894378e-02 -4.984053e-02 3.190430e-02 -9.715220e-02 8.068682e-02 -2.166131e-01 5.110000e-02 8.324236e-02 -4.312294e-02 2.300158e-01
<VARIANCE> 39
 9.163223e+00 8.895593e+00 2.328785e+01 1.548245e+01 2.223707e+01 4.022285e+01 3.546864e+01 3.000030e+01 3.197396e+01 2.790512e+01 2.437547e+01 2.015622e+01 7.959094e+00 3.816161e-01 5.372506e-01 1.449557e+00 1.772893e+00 2.125491e+00 2.485805e+00 2.097201e+00 2.885626e+00 3.078753e+00 2.701939e+00 2.206967e+00 2.226583e+00 3.208205e-01 7.576611e-02 1.614265e-01 2.456015e-01 3.529838e-01 4.949093e-01 5.021869e-01 4.862126e-01 5.986228e-01 6.402189e-01 5.158979e-01 3.705197e-01 4.325737e-01 8.064663e-02
<GCONST> 1.012628e+02
<STATE> 3
<MEAN> 39
 -8.179086e+00 2.696678e+00 4.005534e+00 2.357560e+00 4.685322e-01 -3.038327e+00 -3.853638e+00 -1.358922e-01 -4.505670e+00 1.698010e+00 -1.715150e+00 -6.253658e-01 5.701722e+01 -1.137487e+00 -1.244850e+00 -3.699645e-01 -1.003249e+00 8.988430e-02 2.911221e-01 -4.901750e-01 4.345551e-01 -3.155753e-01 4.536560e-01 -1.671520e-01 2.536736e-01 1.292223e+00 2.549324e-02 2.604645e-01 3.148580e-02 4.948295e-03 -1.737669e-01 -1.377287e-01 1.056967e-01 -7.001330e-02 4.286328e-03 -6.776139e-02 1.716689e-01 5.326111e-02 4.729456e-02
<VARIANCE> 39
 2.131600e+01 5.015319e+01 3.185325e+01 3.869067e+01 5.279429e+01 4.339025e+01 4.831493e+01 4.540181e+01 5.306396e+01 4.262700e+01 3.216257e+01 2.419544e+01 2.989184e+01 2.077367e+00 4.232100e+00 2.232015e+00 3.245518e+00 4.430679e+00 3.506974e+00 3.979359e+00 3.963661e+00 4.446609e+00 4.106508e+00 2.920321e+00 2.963872e+00 3.614961e+00 3.733065e-01 1.095535e+00 3.303975e-01 6.385722e-01 7.448906e-01 5.738141e-01 6.357456e-01 7.487965e-01 9.718175e-01 8.006393e-01 5.814589e-01 6.287568e-01 7.206531e-01
<GCONST> 1.293535e+02
<STATE> 4
<NUMMIXES> 2
<MIXTURE> 1 6.582203e-01
<MEAN> 39
 -1.244278e+01 3.846646e+00 5.246696e+00 -1.997227e+00 -1.656250e+00 -1.012623e+00 -3.589221e+00 -1.497145e-01 -3.626470e+00 3.238097e+00 -2.035768e+00 2.835032e+00 6.175928e+01 1.166653e+00 2.154602e+00 1.162087e+00 1.536333e+00 -3.523576e-01 -3.466009e-01 5.535534e-01 -1.858453e-02 -9.099371e-02 -8.490508e-01 8.488837e-01 -3.575415e-01 -1.317469e-01 8.355586e-01 1.764050e-01 1.140982e-01 6.688430e-01 -4.611085e-01 -1.680761e-01 6.538840e-02 -4.304376e-02 -6.040284e-02 -2.251034e-01 4.944187e-01 -4.043581e-01 1.312662e-02
<VARIANCE> 39
 3.302072e+01 3.944322e+01 6.426159e+01 4.391006e+01 4.956470e+01 6.716600e+01 5.054157e+01 4.657805e+01 3.564685e+01 4.740788e+01 4.812231e+01 1.794961e+01 2.331561e+01 3.955383e+00 2.843882e+00 2.747652e+00 4.506851e+00 5.077459e+00 3.907923e+00 2.790554e+00 1.973591e+00 3.006883e+00 3.090548e+00 3.206911e+00 2.115809e+00 1.790121e+00 3.950301e-01 1.076144e+00 7.703931e-01 7.766526e-01 1.544493e+00 8.425817e-01 5.038277e-01 5.114474e-01 6.180462e-01 6.706876e-01 7.298601e-01 3.415793e-01 8.359088e-01
<GCONST> 1.294578e+02
<MIXTURE> 2 3.417800e-01
<MEAN> 39
 -1.953319e+00 9.744482e+00 8.603037e+00 6.937150e+00 -8.260382e+00 -3.832551e+00 -5.666147e+00 3.946252e-02 -5.029570e+00 6.194205e-01 4.306476e+00 -1.919898e+00 6.497137e+01 2.312290e+00 -1.337840e-01 -9.560983e-01 9.364648e-01 -3.896455e+00 -1.631140e+00 -6.208398e-01 -8.439454e-02 -3.631338e-01 -6.747012e-01 3.359285e+00 -8.531765e-01 1.942377e+00 -5.447100e-01 -8.466156e-01 -6.822757e-01 -7.195717e-01 6.009502e-02 1.248556e-01 -6.466954e-02 -9.908266e-03 8.908407e-02 1.654802e-01 -1.289189e-01 2.729728e-01 9.672158e-02
<VARIANCE> 39
 1.614229e+01 2.243632e+01 7.398508e+01 1.134809e+01 1.046973e+02 4.595493e+01 7.775338e+01 4.378605e+01 1.908567e+01 3.202437e+01 6.666197e+01 2.153205e+01 2.172162e+01 1.108869e+00 2.203066e+00 1.720217e+00 2.203038e+00 3.667305e+00 3.747037e+00 1.178551e+00 2.678443e+00 2.467295e+00 2.648780e+00 2.706570e+00 1.599378e+00 4.652675e-01 2.174344e-01 4.752311e-01 3.768358e-01 3.615362e-01 1.364671e+00 7.846694e-01 3.967559e-01 3.935863e-01 4.153922e-01 3.527874e-01 7.576562e-01 1.992394e-01 2.432989e-01
<GCONST> 1.149732e+02
<TRANSP> 5
 0.000000e+00 1.000000e+00 0.000000e+00 0.000000e+00 0.000000e+00
 0.000000e+00 8.904296e-01 1.095704e-01 0.000000e+00 0.000000e+00
 0.000000e+00 0.000000e+00 8.136914e-01 1.863085e-01 0.000000e+00
 0.000000e+00 0.000000e+00 0.000000e+00 7.514809e-01 2.485191e-01
 0.000000e+00 0.000000e+00 0.000000e+00 0.000000e+00 0.000000e+00
<ENDHMM>
~h "k"
<BEGINHMM>
<NUMSTATES> 5
<STATE> 2
<NUMMIXES> 2
<MIXTURE> 1 3.048668e-01
<MEAN> 39
 -3.603402e+00 8.910172e+00 9.675655e+00 5.769030e+00 -4.539563e+00 -4.623266e+00 8.959806e-01 1.497600e-01 -6.121156e+00 2.129587e+00 2.407324e+00 -1.349611e+00 5.801284e+01 -5.136372e-01 9.962913e-02 -7.968608e-01 -6.366829e-01 1.503506e+00 2.337213e-01 -1.490689e-01 -3.795941e-01 1.010059e+00 -2.332076e-02 -1.326913e+00 -2.545590e-02 -1.689586e+00 1.419823e-01 -2.472254e-01 -4.490764e-01 -1.377968e-02 -3.425799e-01 -5.219339e-02 -2.215312e-01 -1.755701e-01 2.054242e-01 -3.333099e-01 -4.528304e-02 1.231212e-01 1.122156e-01
<VARIANCE> 39
 1.990673e+01 1.642200e+01 3.365014e+01 2.933229e+01 4.673089e+01 5.060028e+01 6.268871e+01 5.391810e+01 5.071288e+01 4.140170e+01 5.170718e+01 3.519311e+01 1.358448e+01 1.591974e+00 1.541595e+00 3.550065e+00 2.558430e+00 5.197412e+00 4.246557e+00 3.500751e+00 4.587584e+00 4.464096e+00 3.854054e+00 3.598875e+00 3.112027e+00 9.138569e-01 2.385332e-01 2.242763e-01 4.354457e-01 4.873669e-01 8.334222e-01 6.366327e-01 5.699468e-01 6.171356e-01 8.082663e-01 5.622239e-01 7.750404e-01 5.853701e-01 1.574034e-01
<GCONST> 1.225813e+02
<MIXTURE> 2 6.951333e-01
<MEAN> 39
 -4.255539e+00 7.930212e+00 3.420426e+00 3.528490e+00 -1.640117e+00 -4.387094e+00 -1.720568e+00 -2.098852e+00 -8.228070e-01 -3.433802e-01 -8.637877e-01 2.560188e-01 5.235242e+01 -1.779167e-01 -1.344761e-01 -2.731185e-01 -1.712063e-01 1.872208e-02 6.493783e-02 -7.892881e-02 -1.695127e-01 1.105874e-01 -1.513925e-01 -5.745942e-02 1.392889e-01 -2.469573e-01 -3.169576e-02 -6.064792e-02 1.320749e-01 4.558541e-02 4.679679e-05 4.164052e-02 1.973865e-02 7.846896e-02 -1.358703e-01 8.940812e-02 7.484931e-02 -2.252088e-02 1.716751e-01
<VARIANCE> 39
 6.255635e+00 7.949442e+00 1.295547e+01 1.818885e+01 2.504151e+01 3.982440e+01 4.111269e+01 3.491518e+01 3.637514e+01 3.101064e+01 2.700955e+01 2.270190e+01 2.390308e+00 3.444068e-01 6.457646e-01 1.083977e+00 1.473470e+00 2.084787e+00 2.656420e+00 2.539573e+00 2.685203e+00 2.547070e+00 2.467611e+00 2.259901e+00 2.044364e+00 1.574109e-01 8.628389e-02 1.817930e-01 2.606089e-01 2.979325e-01 4.402543e-01 5.346157e-01 5.310506e-01 5.765622e-01 5.467129e-01 4.717467e-01 4.551416e-01 3.938704e-01 5.416815e-02
<GCONST> 9.832429e+01
<STATE> 3
<MEAN> 39
 -6.069317e+00 6.157743e+00 2.900941e+00 3.401999e+00 -1.425257e+00 -3.775250e+00 -1.731289e+00 -2.140010e+00 -1.794184e+00 1.135116e-01 -7.628083e-01 6.884598e-01 5.222719e+01 -1.198395e+00 -1.999423e+00 2.138423e-01 -4.247230e-01 4.690227e-02 4.545567e-01 -3.029279e-01 5.687219e-01 -5.067366e-01 5.180570e-01 -3.042594e-01 1.076585e-01 1.569206e+00 -4.258942e-01 -4.948984e-01 1.230528e-01 -2.744718e-01 -8.470311e-02 6.737746e-03 -4.011809e-02 2.554517e-01 -1.089915e-01 2.598655e-01 -1.122600e-01 -2.555289e-02 7.345235e-01
<VARIANCE> 39
 8.334901e+00 1.425951e+01 2.063441e+01 2.505135e+01 2.297787e+01 3.775213e+01 3.829989e+01 3.487577e+01 3.662158e+01 3.285841e+01 2.642315e+01 2.032454e+01 6.637274e+00 1.779564e+00 3.522394e+00 3.545994e+00 3.364451e+00 3.116441e+00 3.544708e+00 3.097597e+00 4.452456e+00 3.407954e+00 3.336914e+00 2.745714e+00 2.224637e+00 2.661714e+00 2.324571e-01 4.971493e-01 4.955000e-01 4.901300e-01 6.142076e-01 6.926457e-01 6.016597e-01 7.863098e-01 5.724502e-01 6.318128e-01 5.019099e-01 4.816495e-01 2.402775e-01
<GCONST> 1.174588e+02
<STATE> 4
<NUMMIXES> 2
<MIXTURE> 1 5.979018e-01
<MEAN> 39
 -1.471333e+01 3.573624e+00 5.978408e+00 -4.009275e+00 -3.592741e+00 -2.479760e+00 -2.652936e+00 -1.040170e+00 -1.983990e+00 3.930239e+00 -2.144621e+00 2.289344e+00 6.107384e+01 9.530864e-01 1.191745e+00 4.496630e-01 9.194493e-01 1.285017e-01 -8.022567e-02 1.373843e-01 -1.735170e-01 4.862530e-02 -5.997299e-01 3.158432e-01 -1.295233e-01 -5.721122e-01 5.917971e-01 -1.022666e-01 -9.044286e-03 5.439550e-01 -7.008840e-02 -3.576756e-02 1.313901e-01 2.515758e-02 -9.783107e-02 -2.478269e-01 1.381093e-01 -1.889622e-01 5.008604e-02
<VARIANCE> 39
 3.134051e+01 2.274122e+01 3.998898e+01 4.989843e+01 5.602936e+01 6.701357e+01 4.887979e+01 5.334756e+01 5.107647e+01 4.057832e+01 3.777932e+01 3.099915e+01 1.598338e+01 3.151209e+00 3.522566e+00 2.981252e+00 4.585065e+00 4.007739e+00 4.288800e+00 3.040897e+00 3.365366e+00 3.667864e+00 3.564064e+00 3.274558e+00 2.634550e+00 1.436816e+00 4.587806e-01 5.084280e-01 5.630475e-01 8.196803e-01 9.143112e-01 9.133375e-01 5.863845e-01 6.723564e-01 7.578070e-01 7.467678e-01 6.753832e-01 5.858398e-01 4.445477e-01
<GCONST> 1.290485e+02
<MIXTURE> 2 4.020987e-01
<MEAN> 39
 -1.280709e+01 -5.489094e+00 4.274664e+00 -9.118624e-02 -1.954697e+00 -2.866933e+00 -3.525563e+00 2.551265e+00 -4.620707e+00 4.002409e+00 -2.861997e+00 7.402877e-01 6.348295e+01 -1.439481e+00 -6.430474e-01 8.507070e-02 -1.549370e+00 -7.056968e-01 -1.479684e-01 -2.533193e-01 5.527645e-01 3.108984e-03 1.015406e+00 -2.867820e-01 2.193665e-01 1.950692e+00 4.121963e-01 1.395263e+00 -3.493552e-02 1.355671e-01 -8.850316e-03 -1.599431e-01 7.644626e-02 -4.207171e-01 3.504542e-01 -2.650638e-01 2.104598e-01 4.820708e-02 -8.816419e-01
<VARIANCE> 39
 2.030045e+01 2.932818e+01 5.949966e+01 5.041089e+01 4.846910e+01 5.490689e+01 4.569644e+01 5.537786e+01 3.761208e+01 4.040028e+01 2.605297e+01 2.295996e+01 2.149407e+01 2.194908e+00 6.495047e+00 3.272758e+00 3.581315e+00 3.953197e+00 5.169550e+00 3.882409e+00 4.957479e+00 3.901345e+00 3.509266e+00 2.749577e+00 3.096039e+00 3.630597e+00 3.797345e-01 5.945584e-01 7.640645e-01 8.679147e-01 7.652001e-01 8.686284e-01 6.752591e-01 8.239161e-01 6.212419e-01 7.032240e-01 5.111351e-01 4.773336e-01 4.956346e-01
<GCONST> 1.298896e+02
<TRANSP> 5
 0.000000e+00 1.000000e+00 0.000000e+00 0.000000e+00 0.000000e+00
 0.000000e+00 9.062504e-01 9.374959e-02 0.000000e+00 0.000000e+00
 0.000000e+00 0.000000e+00 6.814536e-01 3.185464e-01 0.000000e+00
 0.000000e+00 0.000000e+00 0.000000e+00 8.461409e-01 1.538592e-01
 0.000000e+00 0.000000e+00 0.000000e+00 0.000000e+00 0.000000e+00
<ENDHMM>
~h "l"
<BEGINHMM>
<NUMSTATES> 5
<STATE> 2
<NUMMIXES> 2
<MIXTURE> 1 6.178161e-01
<MEAN> 39
 2.016197e+00 7.910586e+00 -5.007504e+00 1.820692e+00 -1.515531e+00 -5.511177e+00 -4.205797e+00 -7.070362e+00 8.142757e+00 5.919477e+00 -3.361081e+00 -3.133742e+00 6.727888e+01 5.209136e-02 4.194141e-01 -1.919236e-01 -5.664080e-01 7.672492e-01 3.428467e-01 1.307610e-01 -1.070641e+00 7.670865e-02 6.447160e-01 7.155165e-02 8.576184e-02 -2.281412e-01 1.434210e-02 3.041727e-02 1.496084e-01 -2.177617e-02 3.748590e-02 -2.063548e-02 -2.103522e-02 8.715335e-02 -1.792047e-01 -1.195670e-01 1.510440e-01 1.041140e-01 -7.909448e-02
<VARIANCE> 39
 4.268293e+00 1.680621e+01 2.704988e+01 2.698098e+01 2.796477e+01 4.878951e+01 4.702492e+01 7.197399e+01 6.564825e+01 6.179649e+01 3.296125e+01 3.221805e+01 9.737962e+00 1.914645e-01 3.093980e-01 9.837632e-01 8.822952e-01 1.000848e+00 1.431829e+00 1.570982e+00 1.897738e+00 1.943897e+00 2.275201e+00 1.750731e+00 1.507326e+00 2.434310e-01 3.019978e-02 4.997691e-02 9.808807e-02 1.202494e-01 1.738490e-01 1.878187e-01 2.350808e-01 2.983728e-01 2.696325e-01 3.032388e-01 2.429527e-01 2.013823e-01 2.367712e-02
<GCONST> 8.868920e+01
<MIXTURE> 2 3.821835e-01
<MEAN> 39
 -1.269230e+00 9.777670e+00 2.340683e+00 9.804746e-01 -1.793362e-01 -2.066929e+00 -3.797477e+00 -2.866377e+00 1.225258e+00 -1.113233e-01 -1.189088e+00 3.777288e-01 6.228367e+01 1.162071e+00 4.293069e-01 -7.659565e-01 -2.481049e-01 1.910422e-01 -2.222460e-01 -3.424731e-01 -8.022621e-01 -1.805583e-02 5.281649e-01 2.047463e-01 -1.175291e-01 4.778160e-01 -1.933649e-01 -2.401864e-01 -2.649108e-01 -1.260433e-01 -7.832183e-02 -8.796667e-02 1.026143e-01 2.242581e-02 1.689406e-02 3.158409e-02 4.086939e-02 1.860232e-02 1.139302e-02
<VARIANCE> 39
 2.513542e+01 2.764810e+01 6.371991e+01 5.421996e+01 5.896370e+01 5.646589e+01 6.726957e+01 6.326530e+01 4.033381e+01 5.043546e+01 4.052781e+01 4.386055e+01 2.683995e+01 2.683308e+00 2.173503e+00 3.273319e+00 3.890508e+00 3.724514e+00 3.900578e+00 4.257626e+00 4.306561e+00 3.804461e+00 3.690928e+00 3.960992e+00 3.607928e+00 1.607541e+00 4.460065e-01 3.852257e-01 6.312470e-01 8.516418e-01 7.210162e-01 7.205680e-01 7.020804e-01 7.968911e-01 6.271843e-01 6.360227e-01 7.268520e-01 5.936642e-01 2.512821e-01
<GCONST> 1.301368e+02
<STATE> 3
<MEAN> 39
 3.235725e+00 7.121684e+00 -2.918880e+00 -3.371521e+00 1.843918e+00 2.481998e+00 -8.228850e+00 -3.285505e+00 6.062614e-01 3.805495e+00 4.760664e-01 -5.070035e+00 6.636837e+01 5.079624e-04 1.876278e-01 1.352353e-01 -1.327089e-03 7.073106e-02 -6.779886e-02 1.343599e-02 -1.179697e-01 -5.168737e-02 -7.327651e-02 1.030741e-01 2.580790e-01 -1.639097e-01 -3.417650e-02 -7.637123e-03 5.192255e-02 7.699933e-02 -6.906669e-02 -3.426590e-02 4.701670e-02 6.663262e-02 1.125481e-02 -5.503272e-02 -5.056511e-02 4.016294e-02 -1.244455e-02
<VARIANCE> 39
 5.305033e+00 1.714839e+01 2.302636e+01 4.090296e+01 2.392038e+01 4.223154e+01 4.284308e+01 6.533433e+01 5.421523e+01 5.654453e+01 3.057319e+01 3.763870e+01 1.352463e+01 1.474473e-01 3.783809e-01 7.158434e-01 9.413739e-01 8.797238e-01 1.124482e+00 1.282299e+00 1.480036e+00 1.359106e+00 1.831745e+00 1.300328e+00 1.146668e+00 2.369272e-01 2.407461e-02 4.009300e-02 1.030788e-01 1.164086e-01 1.478774e-01 1.416421e-01 1.783199e-01 2.229874e-01 1.962653e-01 2.104297e-01 1.967341e-01 1.683358e-01 2.071520e-02
<GCONST> 8.386368e+01
<STATE> 4
<NUMMIXES> 2
<MIXTURE> 1 5.804279e-01
<MEAN> 39
 3.777341e+00 1.361946e+01 -5.194640e+00 -6.168818e+00 1.895054e+00 -1.703502e+00 1.846568e+00 -1.322791e+01 -5.768015e-01 3.670012e+00 1.768388e+00 4.676744e+00 6.332686e+01 5.885516e-04 8.074101e-02 1.566726e-01 7.892940e-02 3.562931e-02 -1.013019e-01 -1.525892e-02 -3.131422e-02 -1.433558e-01 -8.354944e-02 2.875990e-02 1.209381e-01 -1.612778e-01 -3.213840e-02 -6.344696e-02 4.381842e-02 5.256982e-02 -6.728008e-03 -1.830699e-02 -7.772952e-02 1.022892e-01 4.580977e-02 5.582092e-02 -3.776405e-02 -1.059517e-01 1.790510e-02
<VARIANCE> 39
 2.523856e+00 8.951617e+00 2.372652e+01 3.275776e+01 2.828354e+01 4.728925e+01 5.295911e+01 4.547945e+01 4.728404e+01 6.869743e+01 3.635763e+01 3.288831e+01 9.186376e+00 1.297626e-01 3.345720e-01 5.300263e-01 9.584167e-01 9.124098e-01 1.063617e+00 1.381846e+00 1.410709e+00 1.516161e+00 1.649962e+00 1.528313e+00 1.400263e+00 1.507283e-01 2.045384e-02 5.059259e-02 8.214226e-02 1.260880e-01 1.458693e-01 1.913497e-01 1.994844e-01 2.208865e-01 2.458911e-01 2.285386e-01 2.323384e-01 1.916611e-01 1.629598e-02
<GCONST> 8.218302e+01
<MIXTURE> 2 4.195704e-01
<MEAN> 39
 1.651038e+00 1.086512e+01 -1.032243e+00 -3.993260e-01 2.226403e+00 -4.560110e+00 -3.828547e+00 -7.833736e+00 2.469441e+00 4.908051e+00 -2.741577e-01 -2.680469e-01 6.276918e+01 -4.456515e-01 -4.232150e-01 4.402962e-01 5.916794e-01 -5.349082e-01 -2.910403e-01 1.304932e-03 1.066525e+00 3.094755e-01 -5.039951e-01 -1.884850e-01 -2.765651e-01 2.095162e-02 -6.673892e-02 -6.438465e-02 1.169235e-02 1.521925e-02 -1.959755e-01 9.030971e-02 1.577863e-01 7.528397e-02 -6.615525e-02 -1.841380e-01 5.291249e-02 7.844911e-02 2.212772e-02
<VARIANCE> 39
 8.032161e+00 1.764438e+01 3.777485e+01 4.222223e+01 3.396478e+01 5.734753e+01 7.117873e+01 6.746693e+01 6.109385e+01 5.679985e+01 3.697437e+01 3.844527e+01 2.072503e+01 4.991747e-01 7.238262e-01 1.701280e+00 1.902786e+00 2.301341e+00 2.622235e+00 2.744389e+00 3.597727e+00 3.195066e+00 3.576668e+00 2.384067e+00 2.695413e+00 8.529871e-01 9.715919e-02 8.270249e-02 2.525902e-01 2.905394e-01 3.251499e-01 4.077518e-01 4.498030e-01 5.911130e-01 5.466845e-01 4.861877e-01 4.394857e-01 4.798585e-01 7.785662e-02
<GCONST> 1.106657e+02
<TRANSP> 5
 0.000000e+00 1.000000e+00 0.000000e+00 0.000000e+00 0.000000e+00
 0.000000e+00 7.933012e-01 2.066989e-01 0.000000e+00 0.000000e+00
 0.000000e+00 0.000000e+00 8.308211e-01 1.691789e-01 0.000000e+00
 0.000000e+00 0.000000e+00 0.000000e+00 8.961271e-01 1.038729e-01
 0.000000e+00 0.000000e+00 0.000000e+00 0.000000e+00 0.000000e+00
<ENDHMM>
~h "m"
<BEGINHMM>
<NUMSTATES> 5
<STATE> 2
<NUMMIXES> 2
<MIXTURE> 1 5.152974e-01
<MEAN> 39
 4.362788e+00 3.884878e+00 1.208539e+00 1.074351e+01 6.078861e-01 -4.308994e+00 -2.494706e+00 -8.384987e-03 -1.586689e+00 -3.201738e-01 -1.406655e+00 -4.662793e+00 6.321289e+01 -2.511926e-01 6.801563e-01 1.203284e+00 1.899513e+00 1.213520e+00 -7.304295e-01 2.046770e-01 -1.989673e+00 -9.420595e-01 1.657842e+00 -1.964137e-01 -7.485523e-01 -1.073405e+00 -1.589662e-01 8.545280e-04 2.844592e-01 1.270027e-02 -2.568755e-01 -6.700820e-02 2.035084e-02 -8.494315e-02 -5.259483e-02 1.070608e-01 6.146134e-02 -1.345925e-02 1.434757e-01
<VARIANCE> 39
 3.504114e+00 9.417216e+00 1.851863e+01 2.553340e+01 2.004622e+01 3.231701e+01 3.798212e+01 4.230050e+01 4.215429e+01 4.460994e+01 3.099491e+01 2.517751e+01 7.491765e+00 3.831862e-01 5.881821e-01 1.779514e+00 1.155411e+00 2.202567e+00 2.070495e+00 2.066273e+00 2.812006e+00 2.068133e+00 3.008710e+00 2.024673e+00 2.465866e+00 4.294720e-01 5.566403e-02 9.567019e-02 2.762831e-01 2.869886e-01 3.032096e-01 3.452795e-01 4.294363e-01 6.375913e-01 3.829224e-01 5.244948e-01 2.774781e-01 3.092961e-01 6.112981e-02
<GCONST> 9.832223e+01
<MIXTURE> 2 4.847028e-01
<MEAN> 39
 -4.261519e-01 8.529287e+00 7.733078e+00 1.154798e+01 3.453321e+00 -2.331415e+00 -1.979085e+00 -3.685952e+00 -3.856974e+00 2.797657e+00 -2.070146e+00 -5.619373e+00 5.808137e+01 7.415505e-01 1.387304e-01 7.259170e-01 1.137758e+00 1.549637e-01 -4.617243e-01 -1.354451e-01 -5.772302e-01 -3.952733e-01 3.307532e-01 -1.923395e-01 -6.944292e-01 5.613649e-01 -7.752780e-02 -3.203825e-01 -2.925978e-01 -3.492889e-01 -2.535155e-01 -1.475372e-01 -8.780058e-02 1.469283e-01 7.005354e-02 -2.473380e-02 1.840788e-02 1.440567e-01 1.556100e-01
<VARIANCE> 39
 1.044023e+01 1.530010e+01 1.556043e+01 2.688606e+01 3.475444e+01 4.288952e+01 3.601142e+01 3.603595e+01 4.292981e+01 4.182394e+01 3.305735e+01 2.994851e+01 2.242024e+01 1.536350e+00 1.673899e+00 1.866541e+00 2.498597e+00 2.731529e+00 2.882606e+00 2.777794e+00 3.201253e+00 2.376734e+00 3.059952e+00 2.204283e+00 2.385604e+00 1.123498e+00 2.073051e-01 2.436297e-01 2.588263e-01 4.082438e-01 4.931031e-01 5.174168e-01 5.245442e-01 6.387497e-01 4.270863e-01 6.274881e-01 4.321602e-01 4.164148e-01 1.896636e-01
<GCONST> 1.128697e+02
<STATE> 3
<MEAN> 39
 2.527218e+00 6.257630e+00 7.029559e+00 1.489689e+01 1.491258e+00 -5.527745e+00 -1.894652e+00 -6.537991e+00 -3.216233e+00 5.213560e+00 -3.019655e+00 -6.508192e+00 6.072694e+01 -2.911050e-03 2.702454e-02 6.625193e-02 -1.567912e-02 4.569556e-02 8.384957e-02 -3.733326e-02 -9.247857e-02 -1.609961e-04 -1.853907e-02 -8.994305e-03 3.209137e-02 -1.645325e-02 -7.529021e-04 1.566709e-02 -7.546409e-02 -1.279448e-01 -7.605697e-03 8.926405e-02 1.111664e-02 9.931426e-02 3.390317e-02 -1.102535e-01 1.762798e-02 5.592186e-02 1.213867e-02
<VARIANCE> 39
 2.728486e+00 1.063822e+01 9.440200e+00 1.702971e+01 2.340722e+01 4.224801e+01 3.336425e+01 3.163071e+01 3.532291e+01 3.821531e+01 2.748965e+01 3.479957e+01 7.647024e+00 1.308329e-01 3.285311e-01 4.473762e-01 7.152919e-01 7.785851e-01 1.194101e+00 1.077683e+00 1.264489e+00 1.258295e+00 1.544501e+00 1.312513e+00 1.366408e+00 1.468419e-01 2.447880e-02 4.625002e-02 9.743930e-02 1.473536e-01 1.512600e-01 2.206826e-01 2.065965e-01 2.458355e-01 2.284248e-01 2.789981e-01 2.204168e-01 2.333369e-01 2.041556e-02
<GCONST> 7.835048e+01
<STATE> 4
<NUMMIXES> 2
<MIXTURE> 1 4.109444e-01
<MEAN> 39
 2.251340e+00 4.963353e+00 7.361909e+00 1.515074e+01 3.948106e+00 -6.005436e+00 -3.302146e+00 -5.379688e+00 -5.801882e+00 4.084329e+00 -1.759386e+00 -6.820535e+00 6.164955e+01 6.350762e-02 -2.342436e-01 -9.709233e-01 -1.504926e+00 -7.095653e-01 5.269318e-01 -9.793567e-02 1.360705e+00 6.465953e-01 -1.026740e+00 2.160657e-01 6.587603e-01 7.800255e-01 9.218596e-02 -1.168593e-01 -4.196443e-01 -6.758608e-01 -6.436558e-01 3.708038e-01 -2.291829e-02 6.916361e-01 3.389675e-01 -6.239213e-01 5.090646e-02 3.719442e-01 3.225765e-01
<VARIANCE> 39
 2.296670e+00 1.109068e+01 1.207278e+01 2.029624e+01 2.007332e+01 4.115535e+01 3.599146e+01 2.305575e+01 3.089905e+01 3.484052e+01 2.385450e+01 4.174223e+01 7.569448e+00 2.881516e-01 4.998560e-01 1.313843e+00 1.907817e+00 1.692141e+00 1.813238e+00 1.752703e+00 2.353613e+00 2.058982e+00 2.645700e+00 1.354136e+00 2.439392e+00 4.380890e-01 4.890547e-02 7.727876e-02 2.835277e-01 1.764728e-01 2.649309e-01 3.487589e-01 3.288429e-01 2.423311e-01 3.101319e-01 3.468487e-01 3.034158e-01 3.884390e-01 4.173942e-02
<GCONST> 9.231864e+01
<MIXTURE> 2 5.890559e-01
<MEAN> 39
 1.619448e+00 7.986572e+00 5.468573e+00 1.043398e+01 2.329155e+00 -2.941642e+00 -2.493468e+00 -3.405729e+00 -9.758848e-01 7.239048e-01 -1.909191e+00 -3.974215e+00 6.000476e+01 -3.402880e-01 -9.575275e-02 -4.843512e-01 -1.624704e+00 -8.672150e-01 7.980574e-01 -1.427163e-04 1.476218e+00 4.679762e-01 -1.046292e+00 6.115824e-02 6.951184e-01 2.865052e-01 -1.042376e-01 -4.491754e-02 -2.638540e-02 -5.087072e-02 -1.891004e-01 2.863980e-02 1.746957e-01 1.789965e-02 -1.301922e-01 2.317534e-02 -9.538650e-02 -5.813535e-02 -4.195829e-02
<VARIANCE> 39
 8.518046e+00 1.973277e+01 1.703858e+01 2.513502e+01 2.715064e+01 3.539106e+01 2.522632e+01 3.432240e+01 2.948207e+01 2.851940e+01 2.649707e+01 2.181192e+01 2.418246e+01 9.702678e-01 1.541618e+00 3.013051e+00 2.785539e+00 3.933926e+00 3.492153e+00 2.994403e+00 3.439156e+00 2.935900e+00 4.355148e+00 2.692395e+00 3.081474e+00 1.309214e+00 1.196592e-01 2.268699e-01 3.205141e-01 3.722605e-01 4.745511e-01 5.699139e-01 5.493357e-01 6.631692e-01 4.558218e-01 4.307515e-01 4.249712e-01 4.418061e-01 9.683608e-02
<GCONST> 1.115031e+02
<TRANSP> 5
 0.000000e+00 1.000000e+00 0.000000e+00 0.000000e+00 0.000000e+00
 0.000000e+00 7.725546e-01 2.274454e-01 0.000000e+00 0.000000e+00
 0.000000e+00 0.000000e+00 9.052858e-01 9.471424e-02 0.000000e+00
 0.000000e+00 0.000000e+00 0.000000e+00 7.243421e-01 2.756579e-01
 0.000000e+00 0.000000e+00 0.000000e+00 0.000000e+00 0.000000e+00
<ENDHMM>
~h "n"
<BEGINHMM>
<NUMSTATES> 5
<STATE> 2
<NUMMIXES> 2
<MIXTURE> 1 4.943023e-01
<MEAN> 39
 1.935579e+00 6.704248e+00 8.028896e+00 1.406131e+01 -1.257417e+00 -3.619863e+00 -3.753112e-01 -5.790078e+00 -1.651141e+00 4.870110e+00 -6.902719e+00 -6.455078e+00 6.104015e+01 3.114271e-01 2.682625e-01 6.389512e-01 1.417616e+00 -2.676304e-01 -2.423726e-01 5.145939e-01 -2.009148e+00 -2.533881e-03 2.028460e+00 -1.185491e+00 -3.072595e-01 -7.187029e-01 -1.015879e-01 -9.949224e-02 -1.789814e-01 -5.477390e-01 -2.851293e-01 7.934763e-02 -7.499622e-02 4.683927e-01 4.490257e-02 -5.082819e-01 3.335047e-01 1.919214e-01 3.228693e-01
<VARIANCE> 39
 3.688658e+00 1.213679e+01 1.109491e+01 1.654687e+01 1.906256e+01 2.160972e+01 2.790460e+01 2.853942e+01 3.788717e+01 3.671355e+01 1.914253e+01 2.093139e+01 7.053762e+00 5.733434e-01 9.354452e-01 1.565761e+00 2.030273e+00 1.862521e+00 2.113276e+00 1.952119e+00 3.424823e+00 2.361044e+00 2.723692e+00 2.176286e+00 2.145583e+00 4.273436e-01 7.615840e-02 1.195396e-01 2.005999e-01 2.501635e-01 3.197626e-01 3.445174e-01 3.144925e-01 4.943247e-01 3.261342e-01 4.455071e-01 3.119001e-01 3.056025e-01 5.275263e-02
<GCONST> 9.595251e+01
<MIXTURE> 2 5.056971e-01
<MEAN> 39
 3.377384e-01 5.190449e+00 5.426888e+00 6.390494e+00 -2.586025e+00 -2.434271e+00 -3.042428e+00 3.089853e+00 -1.641531e+00 -3.561097e+00 -1.465492e+00 -4.855878e+00 6.549377e+01 3.611789e-01 5.030928e-01 6.248119e-01 1.550086e+00 1.323476e+00 -5.874773e-01 -6.115817e-02 -1.289346e+00 -1.287217e-01 1.565254e+00 -8.845441e-01 -6.057028e-01 -1.377497e+00 8.636598e-02 4.195597e-02 1.192886e-01 4.582989e-01 -2.701018e-01 7.292418e-02 3.345526e-01 -7.129045e-01 1.000449e-02 6.009996e-01 -3.959433e-01 -3.447613e-02 -1.574951e-01
<VARIANCE> 39
 8.435534e+00 2.125484e+01 2.711956e+01 2.178697e+01 3.508781e+01 4.093108e+01 3.774788e+01 4.515654e+01 5.472181e+01 3.904125e+01 2.982061e+01 2.946907e+01 1.300794e+01 5.521868e-01 8.302563e-01 1.664505e+00 2.261487e+00 2.746877e+00 2.896895e+00 2.490811e+00 4.474807e+00 2.185909e+00 3.300307e+00 2.582327e+00 2.062297e+00 5.830220e-01 1.105126e-01 1.763040e-01 2.597460e-01 3.720635e-01 4.587761e-01 4.797724e-01 3.848078e-01 4.889974e-01 4.192380e-01 3.868865e-01 3.725393e-01 3.232290e-01 1.061507e-01
<GCONST> 1.074719e+02
<STATE> 3
<MEAN> 39
 2.326687e+00 7.324334e+00 8.762696e+00 1.394594e+01 -2.433533e+00 -4.371479e+00 -9.990606e-02 -7.526268e+00 -1.110309e+00 6.891706e+00 -7.677775e+00 -6.111056e+00 6.044539e+01 1.739198e-02 2.485589e-01 -3.974109e-02 -1.076900e-01 5.032679e-02 3.777815e-02 -6.092717e-02 -1.651148e-01 -5.892395e-02 2.674169e-02 1.690131e-01 2.354183e-02 -1.889428e-01 -4.620127e-02 2.868509e-02 -3.382057e-02 -1.267390e-01 8.150520e-02 4.811832e-02 -5.394173e-02 1.597079e-01 -2.729651e-02 -1.902307e-01 1.347625e-01 3.259958e-02 2.193241e-02
<VARIANCE> 39
 3.095501e+00 1.117366e+01 9.649853e+00 1.739397e+01 1.740096e+01 2.173194e+01 2.539619e+01 2.812496e+01 3.394516e+01 3.314785e+01 1.956434e+01 2.255058e+01 6.733143e+00 1.389739e-01 3.143387e-01 4.565626e-01 6.638191e-01 7.478860e-01 9.631843e-01 1.031892e+00 1.283815e+00 1.274374e+00 1.309923e+00 1.060901e+00 1.164477e+00 1.219501e-01 2.922092e-02 5.654086e-02 9.996690e-02 1.637415e-01 1.503429e-01 1.851791e-01 2.134880e-01 2.819647e-01 2.320833e-01 2.864372e-01 2.224501e-01 2.189842e-01 2.005243e-02
<GCONST> 7.556938e+01
<STATE> 4
<NUMMIXES> 2
<MIXTURE> 1 5.497395e-01
<MEAN> 39
 1.361854e+00 1.168054e+01 8.214319e+00 1.113811e+01 7.108667e-01 -1.907725e+00 -8.522006e-01 -7.019926e+00 -1.993203e+00 2.936044e+00 -4.118175e+00 -4.689468e+00 5.672258e+01 -3.569384e-01 2.510468e-01 1.936837e-01 -3.903671e-01 5.630996e-01 2.103385e-01 9.514743e-02 5.696335e-01 -2.261600e-01 -6.987707e-01 2.155374e-01 3.231650e-01 -4.098009e-01 -1.757243e-01 -1.330304e-01 -1.252733e-02 -9.966557e-02 3.889148e-02 -3.323614e-02 3.578061e-02 1.915691e-01 -3.661393e-04 -8.264518e-02 -7.948425e-02 6.013984e-02 3.973528e-02
<VARIANCE> 39
 4.195447e+00 6.861864e+00 7.814287e+00 1.549378e+01 1.892004e+01 2.081739e+01 2.631599e+01 2.925673e+01 3.414263e+01 3.945382e+01 2.062645e+01 2.108305e+01 7.283469e+00 4.150832e-01 6.203052e-01 7.235517e-01 1.168791e+00 1.443434e+00 1.834236e+00 2.051802e+00 2.273852e+00 1.893841e+00 2.161531e+00 1.881842e+00 1.575855e+00 2.102537e-01 7.030798e-02 1.149994e-01 1.585749e-01 2.071855e-01 2.756415e-01 3.331082e-01 3.368711e-01 4.028741e-01 3.455642e-01 4.292270e-01 3.136532e-01 3.057441e-01 4.184998e-02
<GCONST> 8.960367e+01
<MIXTURE> 2 4.502587e-01
<MEAN> 39
 -1.528494e+00 9.178322e+00 8.486300e+00 9.344158e+00 1.215579e+00 -2.438665e+00 -4.232152e-01 -3.256884e+00 -2.012481e+00 1.542304e+00 -5.135005e+00 -4.367390e+00 5.781192e+01 -7.528057e-01 -3.353606e-01 -2.736636e-01 -1.246422e+00 9.811466e-03 1.675425e-01 -3.518265e-01 9.552224e-01 -7.769682e-02 -7.070204e-01 5.983884e-01 3.832445e-01 1.202790e-01 9.809581e-03 -8.804800e-02 -1.609658e-01 -8.813141e-02 -2.688127e-01 -4.697544e-02 -4.336392e-02 -2.326468e-02 1.216980e-01 1.869063e-03 8.551397e-02 9.342112e-02 7.175586e-02
<VARIANCE> 39
 1.357324e+01 2.007097e+01 1.999630e+01 3.476102e+01 3.570390e+01 3.783956e+01 3.646436e+01 4.074350e+01 3.713500e+01 5.354667e+01 2.879185e+01 2.987416e+01 1.842633e+01 1.411849e+00 1.706855e+00 2.135823e+00 3.135647e+00 2.989428e+00 3.676611e+00 2.970197e+00 4.107235e+00 3.072515e+00 3.837745e+00 2.807857e+00 2.773379e+00 1.335536e+00 2.508750e-01 2.798715e-01 3.634360e-01 5.909467e-01 5.678877e-01 6.402528e-01 6.410807e-01 7.849100e-01 5.683724e-01 6.678073e-01 5.407183e-01 4.854807e-01 1.886122e-01
<GCONST> 1.182286e+02
<TRANSP> 5
 0.000000e+00 1.000000e+00 0.000000e+00 0.000000e+00 0.000000e+00
 0.000000e+00 7.992407e-01 2.007593e-01 0.000000e+00 0.000000e+00
 0.000000e+00 0.000000e+00 8.715165e-01 1.284835e-01 0.000000e+00
 0.000000e+00 0.000000e+00 0.000000e+00 8.553735e-01 1.446265e-01
 0.000000e+00 0.000000e+00 0.000000e+00 0.000000e+00 0.000000e+00
<ENDHMM>
~h "p"
<BEGINHMM>
<NUMSTATES> 5
<STATE> 2
<NUMMIXES> 2
<MIXTURE> 1 2.642080e-01
<MEAN> 39
 1.364289e+00 5.158591e+00 1.628357e+00 4.284767e+00 1.444607e-01 -3.942927e+00 -5.312191e+00 -5.029461e-01 -8.001364e-01 3.191462e+00 2.181634e+00 -2.659395e+00 6.020248e+01 -1.071004e+00 1.556797e+00 5.165755e-01 1.569621e-01 1.324447e+00 8.333367e-01 9.565307e-01 -5.745802e-01 6.181012e-01 2.761683e-01 -6.932122e-01 1.466936e-01 -2.205275e+00 -2.633674e-01 6.991573e-02 1.824947e-01 -6.711399e-02 -2.896694e-01 1.608293e-02 1.908873e-01 1.389304e-01 -1.665767e-01 -5.682232e-01 -3.921992e-01 2.407006e-01 -2.050699e-02
<VARIANCE> 39
 2.106152e+01 1.603206e+01 3.161270e+01 3.453842e+01 3.534518e+01 7.087971e+01 4.096615e+01 5.795961e+01 3.708125e+01 3.370378e+01 1.922929e+01 1.532320e+01 1.405614e+01 6.226089e-01 1.502063e+00 3.224677e+00 2.448293e+00 1.942306e+00 3.369980e+00 2.866109e+00 6.022628e+00 2.095742e+00 4.394137e+00 2.851029e+00 3.041448e+00 1.153285e+00 1.450022e-01 3.333693e-01 3.248880e-01 3.198328e-01 5.123065e-01 4.847744e-01 5.305457e-01 9.412362e-01 6.106912e-01 5.735551e-01 3.199786e-01 3.173087e-01 1.956389e-01
<GCONST> 1.144534e+02
<MIXTURE> 2 7.357924e-01
<MEAN> 39
 -1.934080e+00 1.055997e+01 6.032822e+00 4.987662e+00 2.246409e+00 -2.312670e+00 5.292123e-01 -8.841398e-01 -1.181062e+00 1.181874e+00 -2.812257e+00 -2.092005e+00 5.421775e+01 -8.195961e-01 -5.340271e-02 -2.694737e-01 -5.762588e-01 -3.969994e-01 -1.423059e-01 3.814155e-01 2.446961e-01 -3.071364e-02 -7.762172e-01 -3.430291e-01 5.191417e-01 -8.349527e-01 1.387746e-01 -3.450714e-01 -2.666960e-01 6.433672e-02 -9.536681e-02 -8.081116e-02 -2.501230e-01 -1.510348e-01 2.252193e-02 1.443984e-02 2.163001e-01 -4.282194e-02 2.209525e-01
<VARIANCE> 39
 1.218493e+01 6.737200e+00 1.587990e+01 2.144286e+01 3.107431e+01 3.042912e+01 3.476323e+01 3.312894e+01 3.086192e+01 2.764520e+01 2.286470e+01 2.336299e+01 4.169591e+00 7.506300e-01 1.368628e+00 1.716620e+00 1.734200e+00 2.347116e+00 2.241429e+00 2.572843e+00 3.451077e+00 2.865551e+00 2.412341e+00 2.686777e+00 2.078161e+00 3.048666e-01 1.124249e-01 2.030131e-01 3.136921e-01 3.455213e-01 4.448914e-01 4.165611e-01 5.008544e-01 5.797790e-01 5.749050e-01 5.664961e-01 5.074211e-01 4.260350e-01 8.475427e-02
<GCONST> 1.036553e+02
<STATE> 3
<MEAN> 39
 -5.374325e+00 7.257148e+00 2.347653e+00 3.207787e+00 -7.889713e-02 -3.746627e+00 -1.986270e+00 -2.648215e+00 -1.279932e+00 -9.549772e-01 -1.408684e+00 2.213351e-02 5.190518e+01 -1.025455e-01 -1.896620e-01 -1.076013e-01 -2.848455e-02 2.573797e-02 1.222889e-01 -3.406360e-03 -2.021538e-01 1.692810e-02 -9.537405e-03 6.321692e-02 2.241777e-02 -1.372765e-01 1.563809e-02 2.046310e-02 7.091284e-02 2.732725e-02 2.940597e-02 1.424723e-02 9.378920e-03 1.519130e-02 4.263821e-03 7.192685e-02 5.604340e-03 -1.767110e-02 5.791482e-02
<VARIANCE> 39
 7.962558e+00 8.835423e+00 1.257091e+01 1.858719e+01 2.646295e+01 3.532064e+01 3.686846e+01 3.458740e+01 3.353862e+01 3.267159e+01 2.702765e+01 2.184019e+01 3.281299e+00 2.516278e-01 5.567808e-01 9.902065e-01 1.477662e+00 1.635379e+00 2.095294e+00 2.409735e+00 2.658664e+00 2.439778e+00 2.243842e+00 2.389361e+00 1.957628e+00 7.557035e-02 5.119790e-02 1.283010e-01 2.088288e-01 2.960370e-01 3.260233e-01 4.191569e-01 4.785471e-01 5.654350e-01 4.813600e-01 4.371377e-01 5.081582e-01 4.188871e-01 2.188994e-02
<GCONST> 9.407411e+01
<STATE> 4
<NUMMIXES> 2
<MIXTURE> 1 5.214199e-01
<MEAN> 39
 -1.037719e+01 -1.095795e+00 1.316942e+00 1.711634e+00 -8.139926e-01 -4.375444e+00 -3.268637e+00 6.888987e-01 1.768337e+00 1.333195e+00 -3.631338e-01 4.153558e-01 6.289687e+01 1.272266e-01 -6.728188e-01 4.724333e-01 4.026447e-01 -1.449277e-01 -7.087725e-01 -5.070976e-01 8.085492e-01 -1.182124e-02 -1.627617e-01 1.556057e-01 -2.361768e-01 1.025644e+00 5.821783e-01 7.443570e-01 1.974016e-01 1.681418e-01 3.281513e-05 1.223636e-01 1.917754e-01 -2.185550e-01 -3.045118e-01 -2.110288e-01 1.763229e-02 -1.301172e-01 -6.689687e-01
<VARIANCE> 39
 1.933479e+01 2.419038e+01 2.511939e+01 3.671752e+01 3.267907e+01 4.507772e+01 3.811699e+01 4.268428e+01 3.804975e+01 4.334631e+01 2.706666e+01 2.715846e+01 2.556040e+01 3.673494e+00 3.522517e+00 2.752337e+00 4.276120e+00 3.562588e+00 4.374883e+00 3.950653e+00 4.335948e+00 3.636163e+00 3.720025e+00 2.832497e+00 2.795244e+00 4.965974e+00 2.544477e-01 4.414704e-01 3.729743e-01 7.080355e-01 6.842068e-01 8.261772e-01 8.088591e-01 7.338899e-01 6.293678e-01 6.858259e-01 5.993859e-01 6.005815e-01 5.814481e-01
<GCONST> 1.264661e+02
<MIXTURE> 2 4.785802e-01
<MEAN> 39
 -5.832890e+00 6.957821e+00 2.401736e+00 2.912299e+00 7.301925e-01 -1.621325e+00 1.665135e-01 -2.203486e+00 -5.977158e-01 -6.264059e-01 -1.129179e+00 2.021872e-02 5.142835e+01 -6.531443e-01 -9.830263e-01 -8.520874e-02 -2.143478e-01 -4.910322e-02 -4.742888e-02 -3.171868e-01 4.024668e-01 5.332990e-01 5.078750e-01 2.382951e-01 2.199398e-01 1.679924e+00 -1.614878e-01 -4.623515e-01 7.815197e-03 -5.916839e-02 -1.636689e-01 -3.012984e-01 -2.514704e-01 3.569787e-01 8.224178e-02 3.067677e-02 2.561944e-02 4.073647e-02 8.456836e-01
<VARIANCE> 39
 6.478889e+00 1.085765e+01 1.160784e+01 1.671120e+01 1.943276e+01 2.904380e+01 3.947842e+01 3.149276e+01 3.141054e+01 2.581944e+01 1.846917e+01 2.061248e+01 3.467949e+00 9.654202e-01 1.807284e+00 1.323922e+00 1.972901e+00 2.604820e+00 3.869962e+00 4.212767e+00 3.785337e+00 2.771845e+00 3.340672e+00 2.210318e+00 2.206582e+00 3.786298e+00 2.441211e-01 1.999223e-01 2.958105e-01 4.382413e-01 3.439796e-01 6.953915e-01 7.776694e-01 7.006240e-01 5.351513e-01 5.373957e-01 3.990052e-01 4.255229e-01 2.227253e-01
<GCONST> 1.086599e+02
<TRANSP> 5
 0.000000e+00 1.000000e+00 0.000000e+00 0.000000e+00 0.000000e+00
 0.000000e+00 8.219840e-01 1.780160e-01 0.000000e+00 0.000000e+00
 0.000000e+00 0.000000e+00 9.044479e-01 9.555208e-02 0.000000e+00
 0.000000e+00 0.000000e+00 0.000000e+00 8.569070e-01 1.430930e-01
 0.000000e+00 0.000000e+00 0.000000e+00 0.000000e+00 0.000000e+00
<ENDHMM>
~h "r"
<BEGINHMM>
<NUMSTATES> 5
<STATE> 2
<NUMMIXES> 2
<MIXTURE> 1 5.824681e-01
<MEAN> 39
 -4.620952e+00 -9.645928e-01 9.233931e-01 6.491848e+00 1.890709e+00 -1.371112e+00 -4.749534e+00 -1.335938e+00 3.034942e+00 1.424963e+00 -1.141056e+00 -1.557251e+00 5.882873e+01 1.607560e+00 9.805849e-01 1.050776e-01 4.620377e-01 1.767789e-01 3.163331e-02 -2.224823e-02 -1.024399e-01 -3.372670e-01 -1.001057e-01 2.410024e-01 2.232265e-02 2.686746e-02 1.255312e-01 -1.594939e-03 -1.311829e-01 -1.529741e-01 -3.289773e-01 -2.228950e-01 -4.157639e-02 1.370878e-02 -2.087653e-01 -5.548927e-02 1.771114e-01 1.966051e-01 2.016896e-01
<VARIANCE> 39
 2.671382e+01 4.401490e+01 2.903606e+01 3.252650e+01 3.121038e+01 4.894990e+01 3.880292e+01 4.852932e+01 4.516054e+01 3.532388e+01 3.357118e+01 3.135719e+01 2.045963e+01 3.385155e+00 2.502951e+00 2.007498e+00 2.771270e+00 2.820076e+00 3.566154e+00 3.141052e+00 2.612539e+00 3.550091e+00 3.166077e+00 2.818785e+00 2.635988e+00 1.187057e+00 2.675394e-01 5.426767e-01 4.381020e-01 5.845727e-01 6.071720e-01 6.136465e-01 5.892110e-01 4.892487e-01 6.491533e-01 5.143482e-01 5.719420e-01 5.283852e-01 1.788271e-01
<GCONST> 1.211468e+02
<MIXTURE> 2 4.175324e-01
<MEAN> 39
 6.271459e+00 2.063249e+00 -1.313037e+00 7.014230e+00 -3.931076e+00 -4.434189e+00 -6.554407e+00 -1.149436e+00 -2.439850e+00 5.909050e-01 3.373680e+00 7.179295e-01 6.510371e+01 8.240380e-01 -4.340578e-01 -6.089389e-01 -9.308141e-02 -1.066851e+00 -7.994096e-01 -6.062104e-01 9.693023e-02 -2.708439e-01 1.050902e-01 9.421884e-01 4.557555e-01 5.351934e-01 -5.886009e-01 -1.788107e-01 1.947967e-01 -3.731683e-02 2.165074e-01 1.930255e-01 1.536796e-01 1.365620e-01 2.782385e-01 -3.292555e-02 -2.302878e-01 -2.398467e-01 -1.823494e-01
<VARIANCE> 39
 8.014295e+00 1.943289e+01 5.294547e+01 2.453138e+01 3.201299e+01 8.879810e+01 4.499454e+01 4.791256e+01 4.351637e+01 3.604190e+01 4.057231e+01 2.719688e+01 1.124489e+01 1.452163e+00 1.209762e+00 2.121912e+00 1.740596e+00 2.692995e+00 2.785702e+00 2.505223e+00 2.723002e+00 3.238152e+00 2.450668e+00 2.552349e+00 2.298386e+00 7.902708e-01 2.568213e-01 3.255650e-01 2.170752e-01 2.693618e-01 2.936608e-01 4.217912e-01 3.731679e-01 3.810516e-01 3.697013e-01 3.771054e-01 4.060510e-01 3.110624e-01 6.467097e-02
<GCONST> 1.095798e+02
<STATE> 3
<MEAN> 39
 7.079938e+00 2.286891e+00 -4.746962e+00 6.178850e+00 -2.551338e+00 -1.490174e+00 -7.435963e+00 -2.498742e+00 -3.098930e+00 2.123498e+00 4.402032e+00 6.305021e-01 6.492262e+01 -1.950417e-02 -2.158229e-01 2.259032e-01 1.991297e-01 -9.979042e-02 -3.871380e-01 -2.150896e-01 3.031549e-01 3.743285e-01 -7.214972e-02 -2.800453e-01 -1.734525e-01 4.353703e-02 -6.938662e-02 2.585823e-02 1.140369e-01 -2.585346e-02 -1.090205e-02 -2.583996e-02 7.823396e-02 7.958317e-02 9.426843e-03 -1.149667e-01 -8.006362e-02 6.441610e-03 -1.525767e-02
<VARIANCE> 39
 5.743725e+00 1.707379e+01 3.052654e+01 1.549142e+01 2.879219e+01 5.930270e+01 4.325782e+01 5.103051e+01 5.704824e+01 4.054100e+01 6.140450e+01 3.563182e+01 9.749790e+00 1.975026e-01 5.134637e-01 7.724743e-01 9.389223e-01 9.642334e-01 1.789344e+00 1.686599e+00 1.676993e+00 1.828476e+00 1.989924e+00 2.082367e+00 1.473165e+00 2.079658e-01 3.014079e-02 5.505101e-02 8.932576e-02 1.086041e-01 1.469655e-01 2.005238e-01 2.132029e-01 2.771569e-01 2.543166e-01 2.839399e-01 2.828225e-01 2.332434e-01 1.663203e-02
<GCONST> 8.826266e+01
<STATE> 4
<NUMMIXES> 2
<MIXTURE> 1 6.214086e-01
<MEAN> 39
 4.486197e+00 -1.284313e+00 7.792695e+00 8.250892e+00 -1.290072e+01 -1.394775e+01 -3.555387e+00 4.574839e+00 -1.006456e+00 -4.658323e+00 6.024761e+00 3.172235e+00 6.692437e+01 -6.680129e-02 1.056704e-01 1.458592e-01 -5.863174e-02 -2.131368e-01 9.709758e-02 2.403278e-01 -8.311123e-02 -1.166700e-01 1.073706e-01 3.327360e-02 1.652556e-02 -5.989778e-02 -9.244529e-03 5.535645e-02 -3.288704e-02 -1.320311e-02 6.787693e-02 5.013683e-02 -4.858607e-02 -5.400673e-02 1.856603e-02 7.925026e-02 -4.245707e-02 -2.512955e-02 -2.380095e-02
<VARIANCE> 39
 6.276814e+00 1.635763e+01 3.621563e+01 1.791376e+01 3.091243e+01 3.697006e+01 4.289042e+01 3.936196e+01 5.719836e+01 2.300171e+01 3.980039e+01 2.838363e+01 8.052522e+00 1.630378e-01 3.458475e-01 5.473784e-01 4.813370e-01 8.466527e-01 9.028126e-01 1.013296e+00 1.083675e+00 1.170683e+00 1.018097e+00 1.256664e+00 9.320691e-01 1.332363e-01 1.506608e-02 3.651666e-02 5.335766e-02 6.713643e-02 9.592110e-02 1.227945e-01 1.329690e-01 1.358023e-01 1.425850e-01 1.434233e-01 1.586000e-01 1.342430e-01 1.069750e-02
<GCONST> 7.361810e+01
<MIXTURE> 2 3.785906e-01
<MEAN> 39
 5.395160e+00 1.070074e-01 8.022089e-01 9.105357e+00 -5.693020e+00 -7.114407e+00 -8.345333e+00 4.259470e+00 8.886936e-01 -1.557233e+00 6.529004e-01 -7.976983e-02 6.544519e+01 -6.183332e-01 2.527058e-01 1.098899e+00 4.025745e-02 -1.788253e-01 -6.601109e-01 7.073846e-01 5.599152e-01 -1.007986e-01 -7.916903e-01 -3.077989e-03 4.373144e-01 -1.993884e-01 -1.616398e-01 2.502852e-01 1.812948e-02 -1.438453e-01 1.488489e-01 2.491432e-01 2.385451e-01 -3.167065e-01 -2.240796e-01 1.394115e-01 1.331612e-01 1.562558e-02 -1.221077e-01
<VARIANCE> 39
 7.213627e+00 1.709840e+01 3.360722e+01 2.571997e+01 3.097766e+01 6.541797e+01 5.405114e+01 4.937872e+01 4.887422e+01 4.281854e+01 3.594666e+01 3.055454e+01 1.306908e+01 4.119713e-01 8.511703e-01 1.190136e+00 1.090644e+00 2.016552e+00 2.487733e+00 2.277366e+00 2.963271e+00 2.167746e+00 2.313362e+00 2.170785e+00 1.893437e+00 5.646818e-01 6.207037e-02 1.057951e-01 1.238360e-01 1.986661e-01 2.307403e-01 3.539491e-01 3.574411e-01 4.400731e-01 3.412015e-01 3.300526e-01 2.902359e-01 2.808042e-01 5.855493e-02
<GCONST> 1.005510e+02
<TRANSP> 5
 0.000000e+00 1.000000e+00 0.000000e+00 0.000000e+00 0.000000e+00
 0.000000e+00 7.922578e-01 2.077422e-01 0.000000e+00 0.000000e+00
 0.000000e+00 0.000000e+00 8.115710e-01 1.884289e-01 0.000000e+00
 0.000000e+00 0.000000e+00 0.000000e+00 8.431048e-01 1.568951e-01
 0.000000e+00 0.000000e+00 0.000000e+00 0.000000e+00 0.000000e+00
<ENDHMM>
~h "s"
<BEGINHMM>
<NUMSTATES> 5
<STATE> 2
<NUMMIXES> 2
<MIXTURE> 1 3.992948e-01
<MEAN> 39
 -4.480420e+00 1.042746e+01 7.677585e+00 4.245214e+00 1.359033e+00 -6.531067e+00 -5.796170e-01 1.413407e+00 -2.002515e+00 2.553428e+00 -8.780793e-01 5.907362e-01 6.348148e+01 -2.577803e+00 4.837557e-01 2.665692e-01 -6.616135e-01 1.832791e+00 3.220831e-01 1.122949e+00 2.200249e-01 -3.858780e-02 -5.136719e-01 -5.956432e-01 8.953433e-02 5.672370e-02 -5.618506e-01 -2.436817e-01 -3.269212e-01 -2.432220e-01 -2.238164e-01 -1.469036e-02 -7.133335e-02 -1.499938e-01 -2.332064e-01 -2.153901e-01 7.460769e-02 -7.583365e-02 2.419627e-01
<VARIANCE> 39
 2.058011e+01 1.852105e+01 2.719184e+01 2.973662e+01 6.470154e+01 6.033840e+01 4.363779e+01 4.088430e+01 4.084573e+01 3.012724e+01 3.739029e+01 3.440160e+01 1.329109e+01 1.572886e+00 1.289415e+00 2.235918e+00 2.188745e+00 3.514807e+00 3.841446e+00 2.412194e+00 3.457316e+00 3.164367e+00 3.438992e+00 3.380893e+00 2.781421e+00 5.461293e-01 1.840477e-01 1.785646e-01 2.886158e-01 3.932056e-01 5.800223e-01 5.851004e-01 4.927301e-01 4.964504e-01 4.786485e-01 5.418337e-01 5.937716e-01 4.465747e-01 6.850950e-02
<GCONST> 1.145383e+02
<MIXTURE> 2 6.007063e-01
<MEAN> 39
 -1.804645e+01 9.980504e+00 4.269840e+00 -5.768579e-01 4.354736e+00 -5.550760e+00 6.308637e-01 5.594861e-01 -3.715912e+00 -4.724933e-01 -1.794580e+00 3.263561e-01 6.480080e+01 -2.494417e+00 1.320893e-01 -9.233299e-01 -1.059904e+00 1.875772e-01 -1.954834e-01 -2.023749e-01 -2.297041e-01 -5.226988e-01 -1.243750e-01 -8.914144e-02 2.402548e-02 6.051990e-01 5.277708e-01 -3.439667e-02 3.289809e-02 1.347787e-01 -1.335908e-01 7.023576e-02 -1.186010e-01 -1.625537e-02 6.695762e-02 1.798283e-01 1.343653e-02 -3.364273e-02 -1.036552e-01
<VARIANCE> 39
 2.661817e+01 3.733825e+01 3.563860e+01 4.827507e+01 4.274273e+01 5.078220e+01 6.025174e+01 4.450327e+01 4.070689e+01 3.765164e+01 3.176487e+01 3.226065e+01 1.269225e+01 1.850705e+00 2.847789e+00 1.949147e+00 2.423789e+00 2.804098e+00 3.127777e+00 3.021520e+00 3.010508e+00 2.844648e+00 2.975775e+00 2.747372e+00 2.287064e+00 5.901627e-01 2.442466e-01 5.679746e-01 3.673093e-01 4.482850e-01 6.150239e-01 6.472604e-01 6.357968e-01 5.531486e-01 5.427989e-01 5.480137e-01 5.458206e-01 4.555254e-01 1.098887e-01
<GCONST> 1.188968e+02
<STATE> 3
<MEAN> 39
 -2.421649e+01 9.439136e+00 1.173338e+00 -3.509851e+00 5.206536e+00 -5.878292e+00 7.601466e-01 6.393318e-01 -4.417949e+00 6.510142e-01 -2.302096e+00 3.702342e-01 6.625472e+01 -1.599564e-01 -2.584395e-01 -4.065795e-02 -1.677137e-01 -8.522679e-02 1.091364e-01 -6.031493e-02 1.201361e-01 9.583801e-02 3.127378e-02 3.018848e-02 -1.906461e-02 1.689533e-02 1.384087e-01 -5.262636e-02 7.244167e-02 4.818271e-02 -8.535616e-02 -3.449230e-02 -1.561086e-02 3.680148e-02 4.127659e-02 -2.380093e-02 3.687277e-02 1.558030e-02 -6.006822e-02
<VARIANCE> 39
 6.484787e+00 1.863224e+01 3.158226e+01 4.027787e+01 3.307122e+01 4.399733e+01 5.548787e+01 4.585733e+01 4.338008e+01 3.855098e+01 2.947157e+01 2.904339e+01 6.986528e+00 3.600196e-01 1.115664e+00 1.112918e+00 1.532074e+00 2.008473e+00 2.415742e+00 2.456946e+00 2.858887e+00 2.505740e+00 2.771566e+00 2.386323e+00 1.964468e+00 1.766641e-01 7.893258e-02 1.491882e-01 2.115482e-01 3.043499e-01 3.613140e-01 4.754928e-01 4.635778e-01 5.708734e-01 4.962792e-01 5.635376e-01 4.709708e-01 3.875863e-01 2.731897e-02
<GCONST> 1.029118e+02
<STATE> 4
<NUMMIXES> 2
<MIXTURE> 1 4.190649e-01
<MEAN> 39
 -1.338351e+01 6.390728e+00 1.484228e+00 -1.139354e+00 1.886308e+00 -6.633913e+00 -1.985030e+00 1.046623e+00 -2.484732e+00 1.419838e+00 -2.129466e+00 -1.777893e-01 5.795130e+01 2.049314e+00 4.479430e-01 1.579895e-01 1.097428e+00 -6.909414e-02 4.741917e-01 7.853263e-02 -2.804564e-02 1.880728e-01 -1.958920e-02 -2.900146e-01 -3.309214e-01 -9.987517e-01 -1.637974e-01 9.537767e-02 6.732068e-02 1.326132e-02 -3.996950e-02 1.850942e-02 5.226623e-02 3.202546e-02 1.937925e-02 1.854678e-02 9.473671e-02 -8.538739e-03 4.527719e-01
<VARIANCE> 39
 1.016433e+01 3.861954e+01 2.615491e+01 3.439313e+01 3.882405e+01 3.335026e+01 4.683663e+01 4.481043e+01 4.060576e+01 3.433651e+01 3.166274e+01 2.826726e+01 1.478240e+01 2.471293e+00 2.727850e+00 2.806009e+00 3.426525e+00 3.235269e+00 3.020026e+00 2.885323e+00 3.329961e+00 2.687466e+00 3.108455e+00 2.713716e+00 2.382172e+00 1.276386e+00 3.422087e-01 3.854692e-01 4.015630e-01 5.775224e-01 6.442609e-01 5.260949e-01 5.514315e-01 5.973558e-01 5.157620e-01 6.150337e-01 4.932226e-01 5.168250e-01 1.820769e-01
<GCONST> 1.190462e+02
<MIXTURE> 2 5.809360e-01
<MEAN> 39
 -2.256766e+01 5.328722e+00 2.684332e+00 -3.971413e+00 1.715484e+00 -5.578861e+00 -1.583978e+00 2.262027e+00 -2.248979e+00 1.557640e-01 -1.079527e+00 8.477626e-01 6.516995e+01 1.537410e+00 -4.822711e-01 1.661759e-01 3.764226e-01 -5.801142e-01 -3.049822e-01 -3.991893e-01 1.273902e-01 3.432503e-01 4.749987e-02 -7.898725e-04 -8.680053e-03 -9.207399e-01 5.210493e-01 1.973671e-01 -4.199088e-02 2.456536e-01 1.145639e-01 1.157711e-01 -2.561201e-02 -9.928173e-02 -3.228841e-02 3.941018e-02 -1.463700e-01 -1.345969e-01 -2.488411e-01
<VARIANCE> 39
 1.285063e+01 4.941307e+01 3.903762e+01 3.565187e+01 4.063706e+01 5.850427e+01 5.412881e+01 5.379405e+01 5.164746e+01 4.209349e+01 3.331572e+01 3.073843e+01 8.305085e+00 1.615423e+00 2.301980e+00 2.032197e+00 2.428263e+00 2.799847e+00 3.792307e+00 2.994291e+00 3.228047e+00 2.941412e+00 3.361586e+00 2.575682e+00 2.689145e+00 7.313242e-01 2.132673e-01 5.260223e-01 4.447892e-01 4.944849e-01 5.790839e-01 7.796196e-01 6.034738e-01 6.656098e-01 5.442269e-01 7.004982e-01 5.139853e-01 4.941661e-01 8.844154e-02
<GCONST> 1.191371e+02
<TRANSP> 5
 0.000000e+00 1.000000e+00 0.000000e+00 0.000000e+00 0.000000e+00
 0.000000e+00 8.579986e-01 1.420014e-01 0.000000e+00 0.000000e+00
 0.000000e+00 0.000000e+00 9.139709e-01 8.602901e-02 0.000000e+00
 0.000000e+00 0.000000e+00 0.000000e+00 8.585145e-01 1.414854e-01
 0.000000e+00 0.000000e+00 0.000000e+00 0.000000e+00 0.000000e+00
<ENDHMM>
~h "t"
<BEGINHMM>
<NUMSTATES> 5
<STATE> 2
<NUMMIXES> 2
<MIXTURE> 1 3.567541e-01
<MEAN> 39
 -3.446266e+00 7.764007e+00 6.059706e+00 3.999315e+00 -2.625139e+00 -3.535594e+00 -2.086533e+00 5.331897e-02 -4.730819e-01 -8.772219e-01 -1.097264e+00 -1.464052e-01 5.909347e+01 -2.764342e-01 5.111318e-01 -3.757001e-01 -7.411385e-02 8.262443e-01 2.003858e-01 1.785240e-02 -4.280077e-01 -5.855275e-02 8.847355e-02 -2.942517e-01 4.574537e-02 -1.522483e+00 3.955538e-02 -2.132616e-01 -2.555591e-01 -3.101172e-02 -1.921940e-01 -6.282058e-02 4.240178e-02 -3.799077e-02 -2.197859e-02 -3.353139e-02 6.653636e-02 -1.519829e-02 9.003982e-02
<VARIANCE> 39
 2.990627e+01 2.493131e+01 3.743034e+01 3.710666e+01 4.955622e+01 5.016047e+01 4.848816e+01 4.699173e+01 4.625624e+01 3.360324e+01 4.188419e+01 3.019909e+01 2.731003e+01 2.028676e+00 2.299437e+00 3.103745e+00 3.012766e+00 4.648648e+00 4.306208e+00 4.136518e+00 4.094625e+00 3.550350e+00 2.897625e+00 3.470484e+00 2.900887e+00 1.711129e+00 3.731964e-01 4.657967e-01 4.846992e-01 5.718877e-01 8.770492e-01 8.544355e-01 7.386162e-01 7.937070e-01 6.954278e-01 5.799237e-01 6.586890e-01 5.301855e-01 3.513462e-01
<GCONST> 1.267938e+02
<MIXTURE> 2 6.432425e-01
<MEAN> 39
 -5.661204e+00 7.397622e+00 2.469053e+00 2.764046e+00 -1.096808e+00 -4.545754e+00 -1.921311e+00 -2.130057e+00 -1.202312e+00 -9.332992e-01 -1.123308e+00 1.169420e-01 5.261486e+01 -1.579451e-01 -2.564994e-01 -2.214485e-01 -9.756245e-02 -8.917650e-02 1.135419e-02 7.634989e-03 -9.536360e-02 8.981627e-02 2.201429e-02 1.022350e-01 7.275819e-02 -2.316135e-01 -3.318194e-02 -5.450548e-02 1.219738e-01 -2.348527e-02 3.374365e-02 1.090023e-01 -6.408104e-03 3.221557e-02 1.292257e-02 2.340044e-02 2.133481e-02 -2.115901e-02 1.934866e-01
<VARIANCE> 39
 1.102909e+01 1.143124e+01 1.572983e+01 2.037089e+01 2.492407e+01 3.066525e+01 3.738352e+01 3.856418e+01 3.620541e+01 3.219328e+01 2.825389e+01 2.158571e+01 3.377587e+00 3.863319e-01 6.629199e-01 1.128818e+00 1.635450e+00 1.997432e+00 2.233608e+00 2.341381e+00 2.600827e+00 2.385441e+00 2.644348e+00 2.417013e+00 1.898900e+00 1.415737e-01 7.827432e-02 1.875304e-01 2.458335e-01 3.321203e-01 3.907803e-01 4.956553e-01 5.049117e-01 5.526651e-01 4.917523e-01 5.767798e-01 4.907593e-01 3.809226e-01 8.438421e-02
<GCONST> 9.979736e+01
<STATE> 3
<MEAN> 39
 -6.068470e+00 7.114780e+00 2.710057e+00 2.962008e+00 -1.070798e-01 -3.335970e+00 -1.381001e+00 -2.267234e+00 -9.311928e-01 -1.233949e-01 -8.517199e-01 5.050973e-02 5.229850e+01 -1.140752e+00 -2.229665e+00 6.674980e-02 -1.392079e+00 -2.257087e-01 7.060949e-01 3.238818e-02 3.111401e-01 -1.809511e-02 2.577013e-01 3.623649e-01 4.162903e-01 2.410339e+00 -6.850533e-01 -5.004173e-01 1.726798e-01 -5.272551e-01 -3.344829e-01 -1.157678e-01 1.913070e-02 2.446385e-01 -7.819030e-02 6.379619e-02 2.966945e-02 1.516006e-01 1.177384e+00
<VARIANCE> 39
 1.049853e+01 1.303501e+01 1.601319e+01 2.039403e+01 2.282123e+01 2.977162e+01 3.132166e+01 3.312008e+01 3.502506e+01 3.398265e+01 2.522433e+01 2.405152e+01 4.587682e+00 1.997025e+00 4.465611e+00 2.560831e+00 4.207122e+00 3.408061e+00 4.003153e+00 3.115403e+00 3.792762e+00 3.448114e+00 3.286170e+00 2.441617e+00 2.316279e+00 5.454957e+00 2.058319e-01 5.203562e-01 3.358916e-01 5.422881e-01 6.092152e-01 6.857615e-01 5.700952e-01 6.948785e-01 6.000302e-01 6.481677e-01 4.843751e-01 4.823864e-01 2.859167e-01
<GCONST> 1.169823e+02
<STATE> 4
<NUMMIXES> 2
<MIXTURE> 1 6.239183e-01
<MEAN> 39
 -1.640175e+01 -2.483053e-01 6.795761e+00 -3.735906e-01 -4.818498e+00 -5.735222e+00 -7.042679e-01 2.440076e+00 -1.671432e+00 -1.297203e-01 -6.309937e-01 1.214182e+00 6.453965e+01 1.221109e+00 7.954640e-01 7.728542e-01 1.787090e+00 2.784926e-01 -2.169624e-01 6.184769e-02 2.234423e-01 -2.917289e-02 -3.815996e-01 -3.826239e-01 -5.550371e-01 -1.365844e+00 9.376984e-01 2.514237e-01 -1.769402e-01 3.463047e-01 1.776460e-01 2.308215e-01 -1.885079e-01 -2.543240e-01 4.921712e-03 -3.979861e-02 1.041629e-02 -1.394215e-01 -3.798375e-01
<VARIANCE> 39
 3.723591e+01 3.506229e+01 3.128304e+01 4.507990e+01 3.577301e+01 3.834361e+01 4.076427e+01 4.416473e+01 4.691789e+01 4.516278e+01 3.311821e+01 3.075234e+01 2.227608e+01 4.322714e+00 3.082643e+00 3.465714e+00 4.332325e+00 3.616521e+00 4.303110e+00 3.144801e+00 3.062796e+00 3.066617e+00 2.899201e+00 2.455566e+00 2.696984e+00 1.625512e+00 8.083766e-01 5.331404e-01 5.624376e-01 8.627393e-01 7.316921e-01 7.518852e-01 6.414211e-01 6.566603e-01 6.233580e-01 6.962076e-01 5.396281e-01 5.930321e-01 7.945086e-01
<GCONST> 1.281496e+02
<MIXTURE> 2 3.760796e-01
<MEAN> 39
 -1.369079e+01 -4.782150e+00 3.019923e+00 -5.199340e+00 -2.645721e+00 -6.148965e-01 -1.829189e+00 -2.970131e-01 -1.436863e+00 8.224511e-01 1.360406e-01 1.790449e+00 6.804499e+01 -2.657943e+00 -1.033407e+00 6.921047e-01 -1.393187e+00 -1.353563e+00 -8.497417e-01 1.570855e-01 1.056531e+00 -1.789927e-01 9.175210e-02 2.604131e-01 5.185882e-01 3.400930e+00 5.172965e-01 1.264948e+00 3.616087e-01 1.109302e+00 9.357745e-02 -4.917724e-01 7.623270e-02 -7.595220e-03 -2.154325e-02 -2.008674e-01 -1.929232e-01 -2.673552e-01 -1.421761e+00
<VARIANCE> 39
 2.712989e+01 4.521105e+01 4.008469e+01 5.173774e+01 4.726453e+01 4.169501e+01 3.654209e+01 3.063519e+01 3.117152e+01 3.033628e+01 2.190169e+01 1.877335e+01 3.160756e+01 2.476322e+00 4.732779e+00 3.114591e+00 4.035847e+00 3.940414e+00 3.719197e+00 3.694933e+00 4.013339e+00 4.059867e+00 4.069289e+00 2.968350e+00 2.875309e+00 3.481116e+00 8.583494e-01 6.619700e-01 6.796833e-01 1.093324e+00 9.659742e-01 8.854215e-01 6.872951e-01 6.718175e-01 6.950639e-01 6.085280e-01 4.609286e-01 4.931479e-01 7.301860e-01
<GCONST> 1.294799e+02
<TRANSP> 5
 0.000000e+00 1.000000e+00 0.000000e+00 0.000000e+00 0.000000e+00
 0.000000e+00 8.819723e-01 1.180278e-01 0.000000e+00 0.000000e+00
 0.000000e+00 0.000000e+00 6.304023e-01 3.695977e-01 0.000000e+00
 0.000000e+00 0.000000e+00 0.000000e+00 8.175471e-01 1.824529e-01
 0.000000e+00 0.000000e+00 0.000000e+00 0.000000e+00 0.000000e+00
<ENDHMM>
~h "v"
<BEGINHMM>
<NUMSTATES> 5
<STATE> 2
<NUMMIXES> 2
<MIXTURE> 1 6.376429e-01
<MEAN> 39
 4.484452e+00 6.324866e+00 -4.889733e-01 6.329779e+00 -6.028407e-01 -5.440048e+00 -7.772919e+00 -2.525635e+00 -6.550167e-01 4.311316e+00 4.351080e+00 -3.026286e+00 6.186213e+01 -2.657370e-01 6.702796e-01 2.005767e-01 -1.474298e-01 8.629627e-01 6.161264e-01 3.723632e-01 -8.324099e-01 -6.822924e-02 3.484395e-01 1.981899e-01 3.611200e-01 -8.030820e-01 -1.921301e-01 -1.131445e-01 2.393649e-01 4.233130e-02 -1.490109e-01 1.019196e-01 2.558453e-01 1.541220e-01 -4.772821e-02 -2.874384e-01 -1.373154e-01 1.203414e-01 1.015023e-01
<VARIANCE> 39
 8.574086e+00 1.350064e+01 2.508788e+01 1.252973e+01 1.845219e+01 4.491919e+01 3.335331e+01 3.268908e+01 3.508768e+01 2.762705e+01 2.709077e+01 2.610704e+01 1.173629e+01 4.095208e-01 5.389178e-01 8.261006e-01 9.434441e-01 1.333507e+00 1.954563e+00 1.781289e+00 2.513159e+00 2.349298e+00 2.595173e+00 1.629678e+00 1.947034e+00 2.764428e-01 3.052893e-02 7.877087e-02 1.061928e-01 1.321616e-01 1.810295e-01 2.812241e-01 2.687198e-01 3.563098e-01 4.047273e-01 3.238617e-01 2.828349e-01 2.986899e-01 2.387219e-02
<GCONST> 9.030896e+01
<MIXTURE> 2 3.623571e-01
<MEAN> 39
 3.758134e+00 1.128772e+00 4.316253e+00 8.777894e+00 -9.149344e+00 -1.160877e+01 -7.990710e+00 5.637924e+00 -2.326384e+00 -3.345342e+00 4.997799e+00 -2.100541e-01 6.710970e+01 4.719118e-01 5.505792e-01 -8.706504e-01 7.471493e-03 1.545348e+00 4.005248e-01 -9.887196e-01 -5.025694e-01 7.668333e-01 7.118691e-01 -1.586341e-01 -4.927949e-01 -9.052289e-01 -6.630633e-02 1.895848e-01 4.990463e-02 -2.225974e-01 1.799542e-01 2.168255e-01 2.379138e-01 -4.612727e-01 1.466867e-02 3.985139e-01 2.201372e-02 -1.008273e-01 -1.614088e-01
<VARIANCE> 39
 6.186444e+00 2.101324e+01 3.776547e+01 1.161183e+01 2.169083e+01 8.346386e+01 5.702392e+01 6.760757e+01 4.785447e+01 2.837031e+01 5.086839e+01 2.773902e+01 1.584319e+01 1.815253e-01 4.320767e-01 6.014207e-01 9.196906e-01 7.509197e-01 1.599342e+00 1.273478e+00 3.035229e+00 1.926484e+00 1.849356e+00 2.245611e+00 1.139082e+00 3.895610e-01 2.951807e-02 3.825483e-02 9.476297e-02 1.296139e-01 1.401540e-01 2.681658e-01 2.334737e-01 2.729532e-01 2.882433e-01 2.057111e-01 3.132196e-01 1.825051e-01 2.721817e-02
<GCONST> 8.876840e+01
<STATE> 3
<MEAN> 39
 -2.454449e+00 8.005718e+00 5.126344e+00 6.155678e+00 1.733781e+00 -2.382064e+00 -3.382406e+00 -3.023166e+00 4.154434e-02 1.977132e+00 1.324049e+00 1.612274e-01 5.890032e+01 -8.159212e-01 -2.912919e-01 3.217560e-01 -1.980245e-02 1.659161e-01 2.933099e-01 3.396408e-01 9.076050e-02 -2.861632e-02 -4.044717e-01 -2.925804e-01 6.204749e-02 7.689112e-02 7.270881e-02 -1.082639e-01 -1.325317e-01 -2.749702e-02 -1.200043e-01 -1.104589e-01 -9.196041e-02 6.243717e-02 -1.134945e-02 6.026298e-02 9.962926e-03 -1.332066e-01 1.337449e-01
<VARIANCE> 39
 2.266808e+01 9.443256e+00 1.544914e+01 1.426171e+01 2.187318e+01 2.609340e+01 2.747382e+01 2.461132e+01 3.035037e+01 3.128021e+01 2.788294e+01 2.250948e+01 1.163510e+01 5.785670e-01 5.896726e-01 1.085574e+00 1.172123e+00 1.481399e+00 2.376777e+00 2.176948e+00 2.266193e+00 2.992271e+00 2.770729e+00 2.416281e+00 1.899941e+00 3.474271e-01 6.748044e-02 9.551806e-02 1.778694e-01 2.292173e-01 2.810891e-01 4.212013e-01 3.567559e-01 3.816265e-01 5.585548e-01 5.752789e-01 4.351474e-01 3.763508e-01 3.419901e-02
<GCONST> 9.696399e+01
<STATE> 4
<NUMMIXES> 2
<MIXTURE> 1 6.387243e-01
<MEAN> 39
 6.159309e+00 8.277325e+00 -3.071292e+00 3.249943e+00 -2.180473e+00 -2.686329e+00 -3.699397e+00 -5.537461e+00 -5.124782e+00 4.872623e+00 7.494989e+00 -4.511003e-02 6.165662e+01 1.087387e-01 -2.123931e-01 -2.580244e-01 -8.644685e-02 -2.150493e-01 -1.992838e-01 -3.644447e-01 2.647187e-01 2.428030e-01 9.982804e-02 -1.950413e-02 -2.102901e-01 3.269569e-01 -4.931942e-02 -7.428394e-02 7.747010e-02 5.724100e-02 -8.555692e-03 -4.436770e-02 -6.461783e-02 1.278034e-01 1.225354e-01 -4.873355e-02 -1.168007e-01 -4.369036e-02 5.423090e-02
<VARIANCE> 39
 4.957963e+00 1.357638e+01 2.061702e+01 3.772796e+01 2.536469e+01 4.022752e+01 6.395721e+01 3.511653e+01 3.380470e+01 3.028874e+01 3.672936e+01 3.416595e+01 8.577256e+00 3.173238e-01 4.713669e-01 7.991660e-01 1.073406e+00 1.084936e+00 1.535620e+00 1.811184e+00 1.427582e+00 1.817721e+00 1.866999e+00 1.989819e+00 1.448932e+00 2.462143e-01 3.924954e-02 6.191428e-02 9.073086e-02 1.771917e-01 1.859867e-01 2.402854e-01 1.983570e-01 1.890409e-01 2.687089e-01 2.526211e-01 2.868283e-01 2.091791e-01 1.661937e-02
<GCONST> 8.754717e+01
<MIXTURE> 2 3.612753e-01
<MEAN> 39
 -7.578824e+00 3.363157e+00 3.859590e+00 4.848830e+00 1.674549e-01 -2.716753e+00 -1.578347e+00 -1.376270e-02 -5.623655e-01 8.165293e-01 -9.574573e-01 -1.403916e+00 6.095462e+01 3.754258e-01 -1.508586e-01 -3.039629e-01 -3.379883e-01 -4.833208e-01 -1.247144e-01 -5.604507e-02 -5.709325e-02 7.031305e-03 -1.300176e-01 1.776585e-01 -4.290887e-02 1.482628e-01 3.496208e-01 1.825178e-01 -1.083762e-01 -1.749246e-02 -1.193757e-01 -1.106683e-01 -1.014768e-01 -1.064526e-01 -1.272573e-01 4.266329e-02 2.134105e-01 1.156011e-01 -1.542538e-01
<VARIANCE> 39
 4.477859e+01 1.695199e+01 1.870475e+01 2.390437e+01 3.300304e+01 2.656056e+01 2.805707e+01 3.514445e+01 3.088895e+01 3.868015e+01 3.394538e+01 2.932295e+01 1.539585e+01 1.609145e+00 1.306207e+00 1.396848e+00 1.956493e+00 1.901009e+00 2.260211e+00 2.488909e+00 3.587972e+00 3.004563e+00 3.025465e+00 3.235800e+00 2.395416e+00 7.677810e-01 2.096019e-01 1.461377e-01 2.261393e-01 3.442497e-01 3.145986e-01 3.464747e-01 5.108773e-01 6.338493e-01 4.548523e-01 5.790115e-01 5.220388e-01 4.452343e-01 1.239477e-01
<GCONST> 1.099271e+02
<TRANSP> 5
 0.000000e+00 1.000000e+00 0.000000e+00 0.000000e+00 0.000000e+00
 0.000000e+00 8.289204e-01 1.710797e-01 0.000000e+00 0.000000e+00
 0.000000e+00 0.000000e+00 7.953433e-01 2.046567e-01 0.000000e+00
 0.000000e+00 0.000000e+00 0.000000e+00 8.643848e-01 1.356151e-01
 0.000000e+00 0.000000e+00 0.000000e+00 0.000000e+00 0.000000e+00
<ENDHMM>
~h "w"
<BEGINHMM>
<NUMSTATES> 5
<STATE> 2
<NUMMIXES> 2
<MIXTURE> 1 2.761609e-01
<MEAN> 39
 3.046220e+00 5.559618e+00 4.450253e+00 1.044369e+01 -6.745805e+00 -1.115594e+01 -6.111718e+00 -2.470937e+00 -4.102129e+00 1.085198e+00 3.012747e+00 1.088548e+00 6.547998e+01 5.646555e-01 3.915175e-01 -1.406739e+00 -5.328910e-01 1.689788e+00 8.066091e-01 -9.408683e-01 -8.528459e-01 2.663421e-01 8.114454e-01 6.234175e-02 -4.168053e-01 -6.526257e-01 -1.209126e-01 1.763664e-01 1.526252e-01 -2.863163e-01 -1.085034e-01 4.520020e-01 3.197751e-01 -3.002771e-01 -1.873470e-01 1.699076e-01 1.290490e-01 2.472597e-03 -8.770872e-02
<VARIANCE> 39
 7.801029e+00 6.002684e+00 2.984509e+01 1.598991e+01 5.018312e+01 6.581429e+01 5.027965e+01 3.279113e+01 3.147876e+01 5.077273e+01 2.767086e+01 2.693028e+01 1.113390e+01 3.510922e-01 5.702201e-01 1.324506e+00 1.375650e+00 2.663600e+00 2.881887e+00 3.197304e+00 2.773744e+00 3.209687e+00 3.050741e+00 3.372916e+00 1.987157e+00 2.754985e-01 4.722334e-02 1.025515e-01 1.214899e-01 1.746184e-01 3.458120e-01 3.898882e-01 4.203916e-01 5.338302e-01 5.142689e-01 7.233142e-01 4.321475e-01 4.831651e-01 2.761229e-02
<GCONST> 1.008831e+02
<MIXTURE> 2 7.238390e-01
<MEAN> 39
 -8.909289e+00 1.260227e+00 -5.096046e-02 1.894641e+00 -7.523667e-01 -2.289200e+00 -3.358842e+00 3.865264e-01 -8.124579e-01 8.174654e-01 -4.412488e-01 -3.422609e-01 5.891183e+01 3.779010e-01 5.422820e-01 1.060676e-01 2.516539e-01 3.836989e-01 3.039804e-01 1.981892e-01 -2.652250e-01 -1.250622e-01 1.400369e-01 -5.473888e-03 -2.387341e-01 -3.896769e-01 1.058913e-01 1.634752e-01 1.503278e-01 6.543451e-02 7.080948e-03 3.866908e-02 4.715177e-02 5.936531e-03 -8.636059e-02 -6.926807e-02 -3.068832e-03 1.510162e-02 6.860291e-02
<VARIANCE> 39
 4.218192e+01 3.285247e+01 3.347978e+01 4.244702e+01 3.340797e+01 4.077388e+01 5.084188e+01 4.465561e+01 3.526402e+01 3.920750e+01 3.390152e+01 2.864030e+01 2.520967e+01 1.707131e+00 2.403227e+00 2.498588e+00 2.928675e+00 2.855559e+00 2.582349e+00 4.127884e+00 3.541696e+00 3.171938e+00 4.127441e+00 2.792619e+00 2.768282e+00 7.625285e-01 2.302414e-01 3.589090e-01 3.484729e-01 4.866142e-01 5.968986e-01 4.774743e-01 8.047276e-01 6.744314e-01 6.651879e-01 8.029894e-01 5.875481e-01 5.392345e-01 1.133420e-01
<GCONST> 1.207925e+02
<STATE> 3
<MEAN> 39
 1.984091e-01 9.872657e+00 4.401737e+00 6.808867e+00 1.691438e+00 -4.394695e-01 -1.066705e+00 -2.722111e+00 -2.144616e+00 2.326327e-01 -1.585824e+00 -2.003016e+00 5.696415e+01 8.999780e-01 4.595782e-01 -3.798333e-01 -2.996913e-01 -3.392721e-01 9.066446e-02 3.002013e-02 -2.739112e-01 -2.728901e-01 6.215607e-02 2.967587e-01 6.675582e-02 3.464172e-01 -7.896000e-02 -2.384106e-01 -1.983219e-01 -1.524580e-01 -2.516793e-01 -1.033021e-01 -1.078879e-01 4.524469e-02 6.650443e-03 9.846371e-03 1.495170e-01 7.825667e-02 1.012703e-01
<VARIANCE> 39
 1.497269e+01 1.153236e+01 2.333199e+01 2.716397e+01 2.901550e+01 3.403922e+01 3.317623e+01 3.152822e+01 3.180018e+01 4.012820e+01 2.906804e+01 2.276175e+01 1.382738e+01 1.652764e+00 1.403493e+00 2.213323e+00 2.287328e+00 3.162419e+00 2.947187e+00 2.977524e+00 2.499504e+00 3.090560e+00 2.784098e+00 2.971947e+00 1.918664e+00 1.009833e+00 2.066175e-01 2.252609e-01 3.232839e-01 3.864627e-01 4.705662e-01 4.509342e-01 5.372596e-01 5.092063e-01 5.112010e-01 4.985828e-01 4.335461e-01 3.730165e-01 1.020974e-01
<GCONST> 1.105424e+02
<STATE> 4
<NUMMIXES> 2
<MIXTURE> 1 3.378429e-01
<MEAN> 39
 6.502036e+00 8.411925e+00 -7.686065e+00 1.754831e+00 -4.657434e+00 3.104775e+00 -6.174886e+00 -7.760661e+00 -8.538787e+00 4.768394e+00 9.724312e+00 -5.967514e-02 6.442433e+01 -9.286700e-02 -6.883962e-01 -6.991288e-02 5.005590e-01 1.989663e-01 -1.788188e-01 -1.227277e+00 1.258997e-02 4.620534e-01 8.163238e-01 3.063430e-01 -5.054363e-01 4.362912e-01 -1.378435e-01 -3.540044e-02 3.372697e-01 1.184483e-01 7.297776e-03 -3.217352e-01 4.127107e-02 3.011925e-01 3.191753e-01 -1.306058e-01 -4.665304e-01 -8.896957e-02 -4.097914e-02
<VARIANCE> 39
 3.127581e+00 1.160558e+01 1.698748e+01 2.523398e+01 3.576622e+01 4.156537e+01 5.590247e+01 3.669455e+01 3.374474e+01 4.655256e+01 4.156664e+01 3.459851e+01 8.770004e+00 2.824484e-01 8.119326e-01 1.098784e+00 1.429994e+00 1.636024e+00 2.539895e+00 2.911391e+00 2.314664e+00 2.610179e+00 3.248200e+00 3.975889e+00 2.415093e+00 4.816770e-01 4.957873e-02 9.099851e-02 1.309141e-01 1.786312e-01 2.568150e-01 2.836792e-01 4.286205e-01 3.079634e-01 3.266639e-01 6.011131e-01 4.337398e-01 3.881988e-01 2.616925e-02
<GCONST> 9.818904e+01
<MIXTURE> 2 6.621550e-01
<MEAN> 39
 5.358573e+00 1.138801e+01 -6.856147e-01 1.764722e+00 -4.997931e+00 -2.062344e+00 -6.494148e-01 -3.869837e+00 -4.081912e+00 1.710364e+00 1.631329e+00 -1.199443e-01 5.988660e+01 1.022154e-01 4.809786e-02 -2.698275e-01 -2.694933e-01 -3.118011e-01 9.687476e-03 1.391985e-01 5.525149e-02 -3.432557e-02 -1.863327e-01 1.192782e-01 1.900023e-02 1.666930e-01 -1.770427e-02 -6.670585e-02 -3.299231e-02 4.529914e-02 3.029377e-02 2.515892e-02 -7.603332e-02 -5.132840e-02 -8.806510e-04 3.815203e-02 6.280170e-02 -2.178913e-02 5.480287e-02
<VARIANCE> 39
 5.368284e+00 1.419571e+01 2.309154e+01 3.104998e+01 3.531347e+01 3.164922e+01 3.840585e+01 2.775244e+01 3.677429e+01 4.025533e+01 3.014450e+01 2.818460e+01 7.750040e+00 2.165737e-01 3.877490e-01 8.847360e-01 9.331908e-01 1.294748e+00 1.366066e+00 1.563965e+00 1.486695e+00 1.810530e+00 1.949792e+00 1.832061e+00 1.570837e+00 2.540470e-01 2.576568e-02 6.064569e-02 9.430011e-02 1.372495e-01 1.905677e-01 2.036139e-01 2.899828e-01 2.597623e-01 2.828937e-01 3.112383e-01 2.900988e-01 2.400667e-01 1.513635e-02
<GCONST> 8.643334e+01
<TRANSP> 5
 0.000000e+00 1.000000e+00 0.000000e+00 0.000000e+00 0.000000e+00
 0.000000e+00 8.441438e-01 1.558562e-01 0.000000e+00 0.000000e+00
 0.000000e+00 0.000000e+00 7.921093e-01 2.078907e-01 0.000000e+00
 0.000000e+00 0.000000e+00 0.000000e+00 9.280001e-01 7.199993e-02
 0.000000e+00 0.000000e+00 0.000000e+00 0.000000e+00 0.000000e+00
<ENDHMM>
~h "y"
<BEGINHMM>
<NUMSTATES> 5
<STATE> 2
<NUMMIXES> 2
<MIXTURE> 1 3.252365e-01
<MEAN> 39
 -9.404968e+00 4.619899e+00 1.201735e+01 6.493823e+00 -1.662330e+00 3.443829e+00 4.809138e-01 5.828980e-01 -3.142159e+00 -1.071712e+00 -2.799509e+00 -2.003874e+00 5.780321e+01 2.127342e+00 2.198112e+00 1.616281e+00 1.869233e+00 9.746348e-01 2.575690e-01 2.887516e-01 5.646946e-01 -8.744246e-01 -5.987603e-01 -2.202767e-01 -9.218885e-01 6.333331e-01 2.073173e-01 5.599713e-02 3.190857e-04 -4.634803e-01 -6.699004e-01 -5.810079e-01 -6.573297e-01 -3.124330e-01 -3.159150e-01 2.910045e-02 4.702513e-01 3.239508e-01 2.732660e-01
<VARIANCE> 39
 2.711201e+01 2.475915e+01 2.667249e+01 4.954483e+01 3.335162e+01 5.727734e+01 6.031507e+01 3.150265e+01 2.420115e+01 4.770439e+01 4.234133e+01 2.508663e+01 1.821281e+01 1.539440e+00 7.078107e-01 1.700774e+00 1.385255e+00 2.866823e+00 4.632226e+00 4.340898e+00 2.675519e+00 1.389249e+00 2.781907e+00 2.275524e+00 2.155386e+00 3.016324e-01 1.987802e-01 2.603639e-01 2.408872e-01 5.205001e-01 5.468269e-01 5.597865e-01 4.570287e-01 4.434352e-01 3.421162e-01 5.776889e-01 6.320566e-01 4.969962e-01 5.220011e-02
<GCONST> 1.115744e+02
<MIXTURE> 2 6.747630e-01
<MEAN> 39
 -7.860734e+00 7.539114e+00 1.743423e+01 6.985898e+00 -7.994814e+00 -2.210772e+00 -3.714170e+00 -1.934629e+00 -2.946150e+00 3.735526e-01 -3.664950e-01 -1.948545e+00 6.346759e+01 6.048912e-01 2.883966e-01 2.738720e-01 -2.410474e-01 -1.155544e+00 -5.183041e-01 -3.844730e-01 -2.516831e-01 -5.801710e-01 -7.206899e-02 1.204687e+00 3.467400e-01 2.723061e-01 -1.326713e-01 -2.496112e-01 -2.054827e-01 -1.125519e-01 -7.248359e-02 1.521657e-01 2.825904e-01 -1.360164e-01 -1.017135e-01 2.798115e-02 1.105818e-01 6.708249e-02 -3.028222e-02
<VARIANCE> 39
 5.303060e+01 2.564795e+01 4.768746e+01 4.176818e+01 3.278205e+01 6.122005e+01 4.720301e+01 4.976627e+01 3.927563e+01 2.984013e+01 3.667345e+01 2.472602e+01 2.419975e+01 2.391921e+00 9.282550e-01 8.873504e-01 1.441947e+00 2.661839e+00 6.473862e+00 4.800572e+00 3.736831e+00 2.782880e+00 2.954489e+00 3.963765e+00 2.301802e+00 5.915054e-01 1.714572e-01 2.848302e-01 1.727333e-01 3.697873e-01 3.897309e-01 6.690483e-01 6.598921e-01 9.182805e-01 5.038298e-01 4.511029e-01 3.605932e-01 3.458454e-01 3.477031e-02
<GCONST> 1.149511e+02
<STATE> 3
<MEAN> 39
 -1.401684e+00 7.685399e+00 1.410583e+01 8.303674e+00 -1.381148e+01 -5.754642e+00 -1.885442e+00 5.145992e-01 -7.718554e+00 -1.350977e+00 7.972768e+00 -1.346684e+00 6.540085e+01 -3.739212e-02 5.438764e-02 2.915530e-01 -8.884712e-02 -9.916109e-01 3.816752e-01 2.857537e-01 -4.073923e-01 -9.173008e-01 1.531968e-01 7.006466e-01 -1.972401e-01 1.495888e-01 -1.041486e-01 -6.487990e-02 -1.192954e-01 -1.784507e-02 3.939919e-01 1.952564e-01 -8.120259e-02 -3.736801e-02 2.398160e-01 2.351000e-01 -4.718157e-01 -1.599465e-01 -5.328186e-02
<VARIANCE> 39
 7.703296e+00 1.877975e+01 3.744933e+01 3.143851e+01 2.000828e+01 5.616971e+01 4.644768e+01 2.392363e+01 4.359660e+01 3.426904e+01 3.215847e+01 2.228535e+01 1.320033e+01 4.255549e-01 6.237883e-01 1.369113e+00 1.591792e+00 2.168612e+00 2.120559e+00 2.144929e+00 2.439018e+00 2.184549e+00 1.983286e+00 2.649863e+00 1.757810e+00 4.095948e-01 1.121937e-01 8.764024e-02 1.363006e-01 2.907372e-01 1.332107e-01 3.058022e-01 4.561808e-01 3.124796e-01 2.731742e-01 4.289763e-01 2.303489e-01 2.988537e-01 2.217014e-02
<GCONST> 9.734180e+01
<STATE> 4
<NUMMIXES> 2
<MIXTURE> 1 4.856410e-01
<MEAN> 39
 4.598267e-01 4.532552e+00 1.076533e+01 1.268786e+01 -1.290262e+01 -9.285498e+00 -6.405318e+00 4.109123e+00 -8.697928e+00 -4.071222e+00 8.849335e+00 -2.156770e+00 6.736239e+01 8.520313e-02 -3.560909e-02 -3.740418e-01 -2.181594e-02 2.546680e-01 -1.725231e-01 -2.881246e-01 2.119583e-01 4.484136e-01 -2.103787e-01 -2.564058e-01 2.729554e-01 8.698445e-02 -9.869756e-03 3.114613e-02 6.654002e-02 -7.120824e-02 8.676013e-02 1.057818e-01 -2.511819e-02 -8.379187e-02 7.513592e-02 6.117728e-02 -9.543435e-02 -2.381506e-02 -5.456709e-02
<VARIANCE> 39
 3.006726e+00 7.869467e+00 1.862328e+01 9.927148e+00 1.919381e+01 7.392339e+01 4.819624e+01 2.900336e+01 4.059217e+01 1.710632e+01 2.271906e+01 3.006627e+01 8.882887e+00 1.614283e-01 2.810994e-01 7.497447e-01 5.158780e-01 9.121019e-01 1.253354e+00 1.023821e+00 8.781475e-01 1.340018e+00 1.040349e+00 1.274691e+00 8.583030e-01 1.333677e-01 1.561724e-02 3.693142e-02 5.167529e-02 7.260773e-02 1.152818e-01 1.548837e-01 1.293099e-01 1.155659e-01 1.663298e-01 1.383695e-01 1.976878e-01 1.352878e-01 1.136759e-02
<GCONST> 7.106462e+01
<MIXTURE> 2 5.143579e-01
<MEAN> 39
 -3.603854e+00 9.020669e+00 2.011049e+01 4.824198e+00 -1.094922e+01 1.720646e+00 -5.965683e+00 -3.240511e+00 -1.083954e+01 2.691347e+00 3.306348e+00 -4.464735e+00 6.313612e+01 1.274820e-01 -1.912320e-01 -1.567996e-01 3.326222e-01 -1.717488e-01 -3.477171e-01 1.183216e-01 1.624402e-01 -2.634564e-01 -2.272938e-02 2.722531e-01 -2.082474e-01 8.450839e-02 1.638084e-02 -2.632068e-02 -5.696584e-02 5.739157e-02 1.748451e-02 -1.391289e-01 9.955762e-03 1.090017e-01 1.086043e-02 -1.130412e-01 6.396912e-02 4.821888e-02 1.409740e-02
<VARIANCE> 39
 2.958233e+00 9.526829e+00 1.658944e+01 1.395473e+01 2.540199e+01 6.814470e+01 6.856071e+01 2.014628e+01 4.723964e+01 4.652313e+01 5.297964e+01 3.997462e+01 9.124144e+00 1.549397e-01 3.347292e-01 5.609365e-01 7.543143e-01 1.248628e+00 1.994991e+00 1.340484e+00 1.439640e+00 1.773509e+00 1.562177e+00 1.951390e+00 1.208294e+00 2.340081e-01 2.683948e-02 5.136137e-02 8.702289e-02 1.120023e-01 1.980136e-01 2.335580e-01 2.208228e-01 2.555858e-01 2.783127e-01 2.693914e-01 2.932979e-01 2.255094e-01 1.506244e-02
<GCONST> 8.421920e+01
<TRANSP> 5
 0.000000e+00 1.000000e+00 0.000000e+00 0.000000e+00 0.000000e+00
 0.000000e+00 7.635041e-01 2.364958e-01 0.000000e+00 0.000000e+00
 0.000000e+00 0.000000e+00 6.779031e-01 3.220969e-01 0.000000e+00
 0.000000e+00 0.000000e+00 0.000000e+00 9.357838e-01 6.421620e-02
 0.000000e+00 0.000000e+00 0.000000e+00 0.000000e+00 0.000000e+00
<ENDHMM>
~h "z"
<BEGINHMM>
<NUMSTATES> 5
<STATE> 2
<NUMMIXES> 2
<MIXTURE> 1 4.810319e-01
<MEAN> 39
 -2.825120e+00 9.872363e+00 7.161201e+00 5.379136e+00 -2.250561e+00 -1.210426e+01 -3.816317e+00 3.414849e-01 -2.726293e+00 2.027367e+00 -5.220915e-02 2.219088e+00 6.507481e+01 -1.435688e+00 1.166576e+00 -5.506807e-02 -8.463920e-01 1.584895e+00 -3.408848e-01 7.435865e-01 8.725210e-02 1.297727e-01 4.363499e-01 -5.440444e-01 7.185174e-01 -1.891482e-01 -3.488979e-01 1.024226e-01 -4.881033e-02 -1.558975e-01 1.013307e-01 2.783207e-01 4.683495e-02 1.676020e-01 5.785041e-02 -9.580156e-02 2.411091e-02 -1.031342e-01 9.648796e-02
<VARIANCE> 39
 1.264344e+01 1.645386e+01 2.436848e+01 1.821234e+01 3.544981e+01 3.334824e+01 5.644519e+01 3.669884e+01 5.853093e+01 2.978978e+01 3.365422e+01 2.953542e+01 1.316859e+01 8.387387e-01 8.599719e-01 1.192231e+00 1.552429e+00 2.626830e+00 2.263463e+00 2.496051e+00 2.980303e+00 2.533678e+00 2.304456e+00 2.256489e+00 2.023977e+00 2.214082e-01 8.924202e-02 1.226685e-01 1.585974e-01 2.109550e-01 3.383692e-01 3.344786e-01 4.117173e-01 4.542793e-01 3.738677e-01 4.118274e-01 3.347479e-01 3.136337e-01 3.026614e-02
<GCONST> 1.012286e+02
<MIXTURE> 2 5.189688e-01
<MEAN> 39
 -1.276081e+01 1.449316e+01 7.748577e+00 6.338066e-01 4.793266e+00 -8.498397e+00 -1.608078e+00 2.695612e+00 -2.348247e+00 1.143954e+00 -1.260019e+00 2.557839e+00 6.442604e+01 -2.221436e+00 7.311053e-01 -1.284361e-01 -6.114178e-01 1.241266e+00 6.846932e-01 3.130317e-01 2.401484e-01 -2.087696e-01 -2.547622e-01 -3.192515e-01 -9.112483e-02 1.845661e-01 2.373748e-01 -2.921641e-01 -1.004583e-01 2.493191e-01 -2.578707e-01 9.219574e-02 -3.171847e-02 -1.786858e-01 -7.808559e-02 -4.358054e-02 6.294075e-02 -1.638617e-01 -1.934368e-02
<VARIANCE> 39
 2.469579e+01 2.371775e+01 2.649178e+01 4.050935e+01 3.911884e+01 4.670793e+01 6.161418e+01 3.947875e+01 4.586918e+01 3.566903e+01 2.842733e+01 2.920864e+01 1.440488e+01 1.207424e+00 1.226320e+00 1.440775e+00 2.212283e+00 2.430887e+00 3.128202e+00 2.596375e+00 2.859252e+00 2.857688e+00 2.691660e+00 2.031491e+00 2.298060e+00 4.679082e-01 1.510097e-01 2.145496e-01 2.562167e-01 4.086204e-01 4.589396e-01 5.495977e-01 5.080410e-01 5.438893e-01 5.475680e-01 5.165466e-01 4.358939e-01 4.503117e-01 5.828374e-02
<GCONST> 1.114483e+02
<STATE> 3
<MEAN> 39
 -2.061301e+01 1.298896e+01 4.179380e+00 -1.040097e+00 6.699608e+00 -7.047724e+00 6.905472e-01 1.513117e+00 -3.825712e+00 6.688960e-01 -2.316324e+00 1.295567e+00 6.490472e+01 -3.805885e-01 -4.140413e-01 -1.674327e-01 -2.300137e-01 -6.229406e-02 5.642669e-02 3.995246e-02 4.280269e-02 -1.407046e-01 1.106431e-02 -2.976961e-02 -1.674996e-01 3.299571e-02 2.202210e-01 -9.788219e-02 8.998736e-02 4.169152e-02 -1.181847e-01 -7.297654e-02 -4.388953e-02 5.241878e-02 1.487332e-02 -4.052653e-04 2.596965e-02 1.394055e-02 -2.355113e-02
<VARIANCE> 39
 1.705355e+01 2.756492e+01 3.278710e+01 4.046772e+01 4.008271e+01 4.144290e+01 6.031618e+01 5.044339e+01 4.370425e+01 4.101781e+01 3.274728e+01 2.763174e+01 7.801874e+00 6.692284e-01 8.758378e-01 1.268594e+00 1.613534e+00 2.171211e+00 2.524481e+00 2.492071e+00 2.706951e+00 2.240454e+00 2.523045e+00 2.392957e+00 2.098029e+00 1.511500e-01 7.753655e-02 1.425925e-01 2.059079e-01 3.100790e-01 4.394130e-01 5.103799e-01 4.703462e-01 5.246309e-01 4.584937e-01 4.885630e-01 4.584160e-01 4.250547e-01 2.575897e-02
<GCONST> 1.051177e+02
<STATE> 4
<NUMMIXES> 2
<MIXTURE> 1 5.740446e-01
<MEAN> 39
 -1.949187e+01 7.527306e+00 6.089426e+00 -2.070774e+00 5.586458e+00 -6.119918e+00 -1.064039e+00 3.874145e+00 -4.923008e+00 -3.179440e-01 -1.840324e+00 4.500316e-02 6.430442e+01 1.673043e+00 -8.160403e-01 2.491557e-01 4.982329e-01 -7.778272e-01 -1.652187e-01 -3.416046e-01 -1.666845e-01 2.475666e-01 -9.318181e-02 -7.509810e-03 3.207796e-03 -5.787889e-01 5.303344e-01 1.128220e-01 -1.934239e-01 1.048636e-01 -2.727218e-01 -1.552789e-01 -1.752676e-01 -2.312994e-01 1.603392e-01 1.039223e-01 -3.788450e-02 1.038348e-01 -2.148166e-01
<VARIANCE> 39
 2.265912e+01 4.037273e+01 3.753674e+01 4.008456e+01 3.468554e+01 5.557686e+01 6.460451e+01 4.946685e+01 4.289855e+01 4.693920e+01 3.729000e+01 2.929028e+01 1.515104e+01 2.143259e+00 1.673849e+00 1.930810e+00 2.268740e+00 3.204093e+00 4.428380e+00 3.690799e+00 4.404728e+00 3.251069e+00 3.438612e+00 2.748531e+00 2.521677e+00 8.554764e-01 2.521085e-01 3.531092e-01 3.995858e-01 4.625793e-01 5.432420e-01 8.198206e-01 7.735869e-01 8.205416e-01 6.448724e-01 7.173182e-01 5.341198e-01 5.194489e-01 8.918428e-02
<GCONST> 1.213166e+02
<MIXTURE> 2 4.259538e-01
<MEAN> 39
 -9.431211e+00 6.983607e+00 4.311698e+00 1.203337e+00 4.394144e-01 -9.321072e+00 -3.581353e+00 1.032775e+00 -1.924802e+00 1.883844e+00 -2.340560e+00 6.282642e-01 5.927964e+01 1.460989e+00 -1.762485e-01 -5.095553e-01 4.041746e-01 -7.553885e-01 -2.451074e-01 -4.619827e-01 -3.790009e-01 4.946325e-01 3.941779e-01 1.225194e-01 -1.165727e-01 -8.517489e-01 -4.617012e-01 5.707620e-02 5.334598e-02 -4.258690e-02 2.811018e-01 3.241991e-01 1.608714e-01 5.832285e-02 -1.373178e-01 -6.896036e-02 7.521460e-02 -1.541448e-01 1.625459e-01
<VARIANCE> 39
