~o
<STREAMINFO> 1 39
<VECSIZE> 39<NULLD><MFCC_D_A_0><DIAGC>
~s "ssilst2"
<MEAN> 39
 -1.932808e+01 2.435101e-02 -1.452914e+00 2.126352e+00 4.503188e-01 1.310252e+00 -3.354781e-02 4.598996e-01 -3.413979e-01 6.797619e-02 -3.330137e-01 1.502583e-01 1.555479e+01 2.933325e-04 -1.847171e-03 -5.643219e-04 1.080299e-02 -2.692295e-03 8.233494e-04 1.621682e-02 -9.232348e-03 -1.358999e-02 4.317339e-04 -2.487704e-03 1.392557e-03 -1.539266e-03 3.867978e-03 3.302595e-03 -6.918811e-04 -2.969855e-03 -5.296386e-03 1.929663e-03 1.158794e-03 -1.686334e-03 1.488767e-04 -8.257876e-04 -1.895699e-03 1.471913e-03 4.422902e-03
<VARIANCE> 39
 3.322304e+00 2.782147e+00 5.314742e+00 7.671653e+00 9.651980e+00 1.230877e+01 1.370887e+01 1.513589e+01 1.547032e+01 1.539068e+01 1.470542e+01 1.296727e+01 2.841355e+01 7.930613e-02 2.558927e-01 5.440234e-01 8.169832e-01 1.026718e+00 1.222950e+00 1.458639e+00 1.652916e+00 1.634832e+00 1.628008e+00 1.582342e+00 1.358574e+00 6.416104e-02 1.556178e-02 5.200200e-02 1.076655e-01 1.643116e-01 2.063107e-01 2.417300e-01 2.930284e-01 3.289775e-01 3.285819e-01 3.195058e-01 3.150033e-01 2.678044e-01 1.220849e-02
<GCONST> 7.156519e+01
~s "ssilst3"
<MEAN> 39
 -1.280986e+01 1.761006e+00 -1.191081e+00 1.494841e+00 -9.031649e-01 -1.690583e+00 -1.078217e+00 -8.135036e-01 -6.920582e-01 -9.353157e-01 -5.194743e-01 6.604111e-01 3.468903e+01 3.535535e-01 1.475315e-02 2.656267e-02 1.759339e-02 -9.429905e-02 -2.616392e-01 -1.476939e-01 2.213652e-02 -2.455703e-02 -1.330541e-01 -4.755191e-02 -1.260783e-03 1.091539e+00 -7.701456e-03 2.542992e-02 4.193563e-02 3.132845e-02 -1.748427e-03 -3.905759e-02 -1.627721e-02 4.037555e-04 3.533799e-02 1.634427e-02 -1.904626e-02 -2.201465e-02 -2.759258e-02
<VARIANCE> 39
 3.963921e+01 1.272229e+01 1.084669e+01 1.445760e+01 1.683022e+01 2.887616e+01 2.368711e+01 2.580060e+01 2.071862e+01 2.106511e+01 1.884873e+01 1.517039e+01 3.430056e+02 5.163671e+00 1.384654e+00 1.257729e+00 1.710969e+00 1.877672e+00 3.515512e+00 2.531229e+00 2.912278e+00 2.212302e+00 2.311660e+00 1.845767e+00 1.639194e+00 4.279271e+01 7.505234e-01 2.123405e-01 2.244899e-01 3.348848e-01 3.631507e-01 6.151409e-01 4.806497e-01 5.546159e-01 4.227203e-01 4.561786e-01 3.695196e-01 3.335033e-01 6.165538e+00
<GCONST> 1.170770e+02
~s "ssilst4"
<MEAN> 39
 -7.390105e+00 3.964503e+00 1.166657e-01 2.002169e+00 -1.556589e+00 -4.179058e+00 -1.621963e+00 -1.967759e+00 -6.836118e-01 -1.352954e+00 -9.937041e-01 9.262038e-01 5.061332e+01 6.633663e-04 1.330275e-02 -1.000830e-03 1.415235e-02 -1.723454e-02 1.267917e-02 3.718368e-03 -2.243922e-02 5.643155e-03 2.273620e-03 -1.236814e-03 -6.890839e-03 -9.001903e-04 -4.476353e-04 1.355373e-03 7.136527e-03 2.193773e-03 4.998242e-03 5.909524e-03 2.177038e-03 7.378694e-04 9.602661e-05 -8.064094e-05 -1.306441e-03 -2.073586e-03 7.950691e-03
<VARIANCE> 39
 5.913501e+00 1.141204e+01 1.175417e+01 1.702432e+01 2.019832e+01 2.619604e+01 2.750186e+01 2.790884e+01 2.942499e+01 2.815756e+01 2.539896e+01 2.232467e+01 2.175627e+01 3.401456e-01 6.646084e-01 1.035523e+00 1.518579e+00 1.914577e+00 2.329213e+00 2.473560e+00 2.536671e+00 2.607685e+00 2.618529e+00 2.411728e+00 2.159550e+00 1.224270e-01 7.160698e-02 1.347632e-01 2.119986e-01 3.048486e-01 3.910958e-01 4.676355e-01 4.996014e-01 5.158307e-01 5.253870e-01 5.269771e-01 4.813713e-01 4.340038e-01 3.637968e-02
<GCONST> 9.741219e+01
~s "silst2"
<MEAN> 39
 -1.915265e+01 7.601821e-02 -1.404015e+00 2.116857e+00 4.251565e-01 1.254331e+00 -2.049158e-02 4.404357e-01 -3.432980e-01 6.820317e-02 -3.381029e-01 1.545227e-01 1.604638e+01 1.105998e-03 -3.110066e-03 -2.687427e-03 1.058879e-02 -1.770785e-03 1.723224e-03 1.370789e-02 -1.042595e-02 -1.659540e-02 1.315414e-03 3.480094e-03 3.112288e-03 -4.539444e-03 2.642912e-03 3.194530e-03 -6.590654e-04 -4.647113e-03 -5.014188e-03 1.001794e-03 -1.403220e-03 -2.042348e-03 -1.149149e-06 -5.239913e-04 -6.260833e-04 2.012371e-03 4.772714e-03
<VARIANCE> 39
 5.655040e+00 3.094967e+00 5.578067e+00 7.808475e+00 9.922851e+00 1.267572e+01 1.381359e+01 1.533892e+01 1.554554e+01 1.571125e+01 1.491712e+01 1.306604e+01 4.651411e+01 8.313515e-02 2.603727e-01 5.510476e-01 8.335111e-01 1.044490e+00 1.243626e+00 1.467235e+00 1.673522e+00 1.652184e+00 1.644363e+00 1.597923e+00 1.366406e+00 6.601219e-02 1.581815e-02 5.344074e-02 1.099402e-01 1.679843e-01 2.067335e-01 2.409715e-01 2.956857e-01 3.307579e-01 3.291363e-01 3.245982e-01 3.177535e-01 2.677503e-01 1.163970e-02
<GCONST> 7.318023e+01
~s "silst3"
<MEAN> 39
 -1.226149e+01 1.926803e+00 -1.060404e+00 1.554523e+00 -9.123315e-01 -1.673273e+00 -1.164791e+00 -9.518161e-01 -7.374555e-01 -8.341745e-01 -6.262732e-01 6.111794e-01 3.666425e+01 2.914638e-02 -7.242572e-02 -3.611645e-02 1.108336e-02 -2.688771e-02 -1.239242e-01 -9.207410e-02 1.162792e-01 -1.768135e-02 -9.862990e-02 -1.064254e-02 -2.839979e-02 1.252495e-01 -8.186117e-03 2.105323e-02 3.353795e-02 2.174521e-02 -3.860305e-03 -4.247546e-02 -3.512893e-03 -2.417011e-03 3.591821e-02 1.730908e-02 -1.149768e-02 -1.984277e-02 -4.212286e-02
<VARIANCE> 39
 4.092980e+01 1.399149e+01 1.234780e+01 1.667655e+01 1.779650e+01 2.928318e+01 2.406318e+01 2.805421e+01 2.206267e+01 2.356537e+01 2.012476e+01 1.679032e+01 3.363077e+02 4.626406e+00 1.455674e+00 1.338209e+00 1.794318e+00 1.817086e+00 3.375720e+00 2.475731e+00 2.798935e+00 2.288889e+00 2.468590e+00 1.883318e+00 1.660395e+00 3.732673e+01 6.781682e-01 2.352973e-01 2.404588e-01 3.534601e-01 3.536561e-01 6.130135e-01 4.828067e-01 5.577100e-01 4.479394e-01 4.786500e-01 3.827415e-01 3.311610e-01 5.314040e+00
<GCONST> 1.179682e+02
~s "silst4"
<MEAN> 39
 -7.327689e+00 4.036274e+00 2.199491e-01 1.928871e+00 -1.583933e+00 -4.090359e+00 -1.625518e+00 -2.014102e+00 -6.467852e-01 -1.207867e+00 -9.647103e-01 9.017187e-01 5.074898e+01 -3.435949e-03 1.286087e-02 -9.502397e-03 9.614474e-03 -1.646372e-02 1.781812e-02 9.569432e-03 -3.079916e-02 1.200481e-02 3.589871e-03 -1.565029e-03 -2.962455e-03 -1.225843e-02 -4.668753e-04 3.510199e-03 8.879672e-03 2.207030e-03 6.000535e-03 8.660449e-03 2.637385e-03 6.816212e-04 -6.071336e-04 -3.010553e-04 -2.498748e-03 -4.361846e-03 1.138584e-02
<VARIANCE> 39
 5.756812e+00 1.143102e+01 1.220533e+01 1.736658e+01 2.035377e+01 2.598556e+01 2.746424e+01 2.803795e+01 2.966930e+01 2.900660e+01 2.540268e+01 2.224245e+01 1.926303e+01 3.241540e-01 6.421484e-01 1.036898e+00 1.489458e+00 1.919641e+00 2.298890e+00 2.492502e+00 2.496057e+00 2.564219e+00 2.619936e+00 2.415590e+00 2.140943e+00 1.077341e-01 6.710124e-02 1.300296e-01 2.110781e-01 2.989125e-01 3.915565e-01 4.589708e-01 5.036291e-01 5.049063e-01 5.212018e-01 5.268021e-01 4.806448e-01 4.304179e-01 2.310628e-02
<GCONST> 9.646172e+01
~h "b"
<BEGINHMM>
<NUMSTATES> 5
<STATE> 2
<MEAN> 39
 1.282302e+00 7.161191e+00 3.552409e+00 7.132228e+00 -7.297509e-01 -4.504151e+00 -2.012033e+00 -2.105188e+00 -9.763252e-01 4.587083e-01 8.283648e-01 -1.623095e+00 5.926130e+01 1.734962e-02 1.162840e+00 5.919868e-01 5.082328e-01 1.331719e+00 4.217547e-01 3.873471e-01 -2.130837e-01 -5.804054e-01 2.337127e-01 -2.802912e-01 -2.526854e-01 -1.300175e+00 -1.554344e-01 -2.750216e-02 7.977257e-02 -3.735144e-03 -1.264762e-01 9.781902e-02 1.010813e-01 -3.606682e-02 4.526647e-02 -4.264654e-02 -1.620395e-01 -5.730112e-02 6.730437e-02
<VARIANCE> 39
 2.374135e+01 2.683772e+01 3.695684e+01 3.505496e+01 5.200297e+01 3.901971e+01 4.139788e+01 3.893319e+01 4.677607e+01 3.813955e+01 4.430899e+01 3.093486e+01 2.750410e+01 1.024959e+00 2.086715e+00 2.751846e+00 2.416509e+00 3.409960e+00 3.579654e+00 3.445071e+00 4.286665e+00 2.985218e+00 3.010052e+00 3.792804e+00 2.324540e+00 1.509626e+00 1.049498e-01 4.376219e-01 3.945301e-01 4.267753e-01 6.164984e-01 5.803661e-01 6.268609e-01 6.834116e-01 4.928996e-01 5.234281e-01 6.892204e-01 3.836791e-01 2.215077e-01
<GCONST> 1.200288e+02
<STATE> 3
<MEAN> 39
 3.980146e-01 1.176729e+01 7.495444e+00 8.631601e+00 2.474713e+00 -1.424706e+00 5.688654e-01 -2.769490e+00 -1.647696e+00 -1.883598e-01 -2.032102e+00 -1.961872e+00 5.453623e+01 -2.462541e-01 1.398255e-02 3.947357e-02 -9.546085e-02 1.012443e-01 1.520993e-01 1.236849e-01 2.051688e-01 1.747782e-01 -1.246915e-01 -1.135306e-01 1.049375e-01 -2.672140e-01 -3.085948e-02 -1.185537e-01 -8.222548e-02 -7.186693e-02 -5.395322e-02 -4.108609e-02 -3.842020e-02 1.073339e-02 3.300034e-02 3.076027e-02 6.899189e-02 2.124333e-02 7.247141e-02
<VARIANCE> 39
 6.041712e+00 6.090522e+00 1.143875e+01 1.954580e+01 1.826366e+01 2.405549e+01 2.494504e+01 2.840093e+01 3.335078e+01 2.854392e+01 2.126660e+01 2.268524e+01 4.012890e+00 2.178611e-01 4.465907e-01 7.635515e-01 1.211225e+00 1.520801e+00 1.560714e+00 1.783031e+00 1.756751e+00 1.976619e+00 1.950433e+00 1.944850e+00 1.827175e+00 1.051188e-01 3.994929e-02 9.003402e-02 1.749472e-01 2.523665e-01 2.867576e-01 3.195108e-01 3.598617e-01 3.297659e-01 3.847310e-01 3.968436e-01 3.830288e-01 3.838147e-01 3.747454e-02
<GCONST> 8.738030e+01
<STATE> 4
<MEAN> 39
 -5.263124e+00 7.434454e+00 3.325697e+00 3.571010e+00 1.430145e+00 -2.883538e+00 -6.544451e-01 -1.216041e+00 4.044555e-01 1.007609e+00 -6.996379e-01 -5.037237e-01 5.206268e+01 -2.085055e-01 -2.808027e-01 -1.738494e-01 -1.896230e-01 -4.978094e-02 -3.796718e-02 -1.083773e-01 -9.582749e-02 3.694770e-02 6.539600e-02 1.351993e-01 8.169863e-02 -4.226574e-02 -4.662692e-02 -9.705830e-02 9.861158e-03 -3.804485e-02 -8.125870e-02 1.328264e-03 -2.473995e-02 3.269953e-02 -1.102999e-02 -1.411551e-02 6.570339e-04 -3.079892e-03 2.290959e-01
<VARIANCE> 39
 8.669989e+00 1.135733e+01 1.513841e+01 2.177759e+01 2.494334e+01 2.855547e+01 3.038992e+01 2.885278e+01 2.824332e+01 2.163318e+01 2.515415e+01 2.309358e+01 3.121262e+00 4.200272e-01 8.257462e-01 1.115718e+00 1.607210e+00 2.064981e+00 2.120926e+00 2.423217e+00 2.378720e+00 2.168773e+00 1.684260e+00 1.963285e+00 1.934436e+00 1.699473e-01 9.190834e-02 2.440641e-01 2.371727e-01 3.317880e-01 4.601599e-01 4.527223e-01 5.021579e-01 5.042795e-01 4.446874e-01 3.398123e-01 4.029863e-01 4.031570e-01 1.827121e-01
<GCONST> 9.825058e+01
<TRANSP> 5
 0.000000e+00 1.000000e+00 0.000000e+00 0.000000e+00 0.000000e+00
 0.000000e+00 7.511328e-01 2.488671e-01 0.000000e+00 0.000000e+00
 0.000000e+00 0.000000e+00 8.946090e-01 1.053910e-01 0.000000e+00
 0.000000e+00 0.000000e+00 0.000000e+00 8.451378e-01 1.548622e-01
 0.000000e+00 0.000000e+00 0.000000e+00 0.000000e+00 0.000000e+00
<ENDHMM>
~h "d"
<BEGINHMM>
<NUMSTATES> 5
<STATE> 2
<MEAN> 39
 -1.784428e+00 9.655759e+00 7.247626e+00 6.692306e+00 -1.423275e+00 -4.325293e+00 -1.278662e+00 -1.695339e+00 -1.223615e+00 -1.018486e+00 -8.317354e-01 1.151548e-01 5.584721e+01 -4.975868e-01 -2.688968e-01 -1.876896e-01 -4.341384e-01 4.953381e-01 3.280300e-01 3.303768e-02 9.326837e-03 3.317520e-02 -3.278935e-03 -1.341174e-01 1.356631e-02 -2.093646e-01 -1.304793e-01 -2.179885e-01 -4.859326e-02 -1.560118e-01 -1.188892e-01 -9.925446e-03 -1.737946e-02 3.457863e-02 -3.601335e-02 4.254095e-02 5.969030e-02 -1.173597e-02 3.250321e-01
<VARIANCE> 39
 1.263725e+01 1.728507e+01 2.169681e+01 2.451919e+01 3.956491e+01 3.402147e+01 3.553011e+01 3.549929e+01 3.620120e+01 3.391473e+01 2.956593e+01 2.529351e+01 2.205213e+01 1.118004e+00 2.990138e+00 1.823467e+00 2.674543e+00 3.182528e+00 2.950499e+00 2.882222e+00 3.529097e+00 2.795820e+00 3.035717e+00 2.593630e+00 2.147508e+00 2.970719e+00 1.859278e-01 3.651280e-01 3.021513e-01 4.315066e-01 5.887308e-01 5.823632e-01 5.563114e-01 6.156844e-01 5.652208e-01 5.478608e-01 4.987609e-01 3.995764e-01 3.901384e-01
<GCONST> 1.162084e+02
<STATE> 3
<MEAN> 39
 -1.007564e+01 1.028178e+00 6.077133e+00 -4.578723e-01 -1.861837e+00 -3.571368e+00 -2.105548e+00 -1.151247e-01 -2.438632e+00 -2.424461e-01 -6.798652e-02 2.986431e-01 6.455848e+01 -8.385389e-01 -1.527803e-01 6.086576e-01 -2.725570e-01 -1.035432e+00 -8.510877e-01 -1.195970e-01 4.686749e-01 -2.026736e-01 3.092957e-02 3.639576e-01 1.409815e-01 1.360970e+00 7.400236e-01 8.924952e-01 1.352661e-01 8.391796e-01 -1.390667e-01 -1.436104e-01 -1.657964e-02 -2.549060e-01 7.963397e-02 -1.011313e-01 -6.640704e-02 -5.498725e-02 -8.631079e-01
<VARIANCE> 39
 4.012029e+01 5.343447e+01 4.812878e+01 6.252372e+01 5.654961e+01 5.952608e+01 5.412070e+01 4.216728e+01 3.999593e+01 3.572748e+01 3.159589e+01 2.303130e+01 4.153891e+01 4.633898e+00 6.167241e+00 3.760573e+00 7.288213e+00 5.530608e+00 5.078722e+00 4.347206e+00 5.215396e+00 3.917804e+00 3.507602e+00 3.392857e+00 2.614614e+00 7.690573e+00 8.299247e-01 8.408321e-01 7.934365e-01 1.233510e+00 1.191543e+00 1.204265e+00 9.272444e-01 8.568597e-01 7.027797e-01 7.080025e-01 6.327236e-01 4.593707e-01 8.291494e-01
<GCONST> 1.383846e+02
<STATE> 4
<MEAN> 39
 -6.517159e+00 6.419026e+00 5.918697e+00 3.320498e+00 -2.715868e+00 -4.814118e+00 -1.873684e+00 -1.892106e+00 -1.587047e+00 -1.065466e+00 -3.310910e-01 1.521960e-01 5.691272e+01 7.393082e-01 6.298357e-01 -2.812513e-02 7.161818e-01 -1.283270e-01 1.290356e-01 4.632602e-02 -2.713751e-01 6.936313e-02 -2.180246e-01 5.394713e-02 -1.244022e-01 -5.510978e-01 1.403302e-01 -1.276280e-01 -1.356362e-01 -5.123324e-02 -1.006138e-01 5.321628e-03 -7.420925e-02 -9.518562e-02 1.881394e-03 7.710953e-02 5.400126e-02 -6.891392e-03 1.464394e-01
<VARIANCE> 39
 2.036407e+01 1.938929e+01 3.044458e+01 2.492630e+01 4.234371e+01 3.763790e+01 4.129441e+01 3.770478e+01 3.839988e+01 3.538789e+01 2.792718e+01 2.695562e+01 3.217319e+01 2.752007e+00 2.175699e+00 2.357922e+00 3.868190e+00 5.779047e+00 4.783556e+00 3.823196e+00 3.113677e+00 3.176778e+00 3.362350e+00 2.954588e+00 2.523734e+00 2.060747e+00 3.325501e-01 3.234417e-01 4.206063e-01 5.865013e-01 7.763372e-01 7.994151e-01 6.901579e-01 5.903072e-01 5.850044e-01 6.302925e-01 5.154481e-01 5.057814e-01 3.815948e-01
<GCONST> 1.229087e+02
<TRANSP> 5
 0.000000e+00 1.000000e+00 0.000000e+00 0.000000e+00 0.000000e+00
 0.000000e+00 8.774227e-01 1.225772e-01 0.000000e+00 0.000000e+00
 0.000000e+00 0.000000e+00 6.688243e-01 3.311758e-01 0.000000e+00
 0.000000e+00 0.000000e+00 0.000000e+00 6.319845e-01 3.680156e-01
 0.000000e+00 0.000000e+00 0.000000e+00 0.000000e+00 0.000000e+00
<ENDHMM>
~h "f"
<BEGINHMM>
<NUMSTATES> 5
<STATE> 2
<MEAN> 39
 -6.215146e+00 5.591981e+00 3.427193e+00 4.623216e+00 3.232042e-01 -2.043835e+00 -1.510547e+00 -1.586843e+00 -1.106679e+00 -8.035459e-02 1.240704e-02 -6.266467e-02 5.950204e+01 -1.410585e+00 -4.914916e-01 -5.752265e-02 -5.098819e-02 1.754231e-01 7.117242e-02 -1.513523e-01 -2.000217e-01 1.628398e-01 -1.445464e-01 -4.034341e-01 -4.950732e-02 -7.479209e-02 -7.510008e-02 -1.429961e-01 -1.458478e-01 -4.485741e-02 -1.592667e-01 -4.381953e-02 -5.329687e-02 -3.114201e-02 -2.044855e-02 -1.337831e-02 1.023187e-02 -1.934334e-02 1.522532e-01
<VARIANCE> 39
 4.190289e+01 1.423334e+01 2.202550e+01 2.503786e+01 3.424910e+01 4.258032e+01 4.119263e+01 3.380444e+01 4.296204e+01 3.648627e+01 2.926097e+01 2.309651e+01 1.119207e+01 1.282081e+00 1.342831e+00 2.132735e+00 2.240994e+00 3.763841e+00 3.544413e+00 2.915194e+00 2.853845e+00 3.021922e+00 2.858420e+00 2.879382e+00 2.219425e+00 6.843536e-01 1.817289e-01 1.679423e-01 3.335670e-01 4.223376e-01 6.370354e-01 6.561332e-01 5.225194e-01 5.395492e-01 5.489787e-01 5.568299e-01 5.452812e-01 4.164355e-01 5.933549e-02
<GCONST> 1.125619e+02
<STATE> 3
<MEAN> 39
 -1.518157e+01 -1.378557e+00 -4.293114e-01 2.486714e+00 -6.668900e-01 -1.427766e+00 -2.370615e+00 -1.383682e+00 -3.326138e-01 -7.397169e-01 -1.651522e+00 -1.200571e-01 6.224088e+01 -1.018918e-01 -3.807044e-01 -2.787827e-01 -2.340324e-01 -4.283725e-02 3.388812e-02 6.795865e-02 1.168057e-01 1.572246e-01 7.923076e-02 1.518642e-02 -1.356605e-02 1.798307e-01 1.339987e-01 3.367588e-02 2.665164e-02 -3.495185e-02 -2.885981e-03 -1.568037e-03 1.607073e-02 2.741662e-02 1.194775e-02 3.721721e-02 3.317229e-02 2.130198e-02 -5.781477e-02
<VARIANCE> 39
 8.204739e+00 1.723164e+01 2.033617e+01 2.163682e+01 2.597984e+01 3.034262e+01 3.482093e+01 2.965412e+01 3.441046e+01 3.472227e+01 2.699804e+01 2.441891e+01 9.262143e+00 5.745370e-01 9.360642e-01 1.309605e+00 1.828331e+00 1.980709e+00 2.549043e+00 2.775914e+00 2.700382e+00 2.575344e+00 2.728567e+00 2.508258e+00 2.367451e+00 2.861106e-01 7.681099e-02 1.797598e-01 2.487678e-01 3.397047e-01 4.068128e-01 5.258256e-01 5.611523e-01 5.190244e-01 4.985819e-01 5.280552e-01 5.258015e-01 4.701234e-01 4.556043e-02
<GCONST> 1.031441e+02
<STATE> 4
<MEAN> 39
 -9.870300e+00 -3.370555e+00 -3.521585e+00 -8.404932e-01 -1.648293e+00 -1.538663e+00 -1.325850e+00 6.114338e-01 1.049823e+00 1.381939e+00 -5.368953e-01 -5.904720e-02 6.031529e+01 1.881847e+00 1.307839e+00 4.860809e-01 7.491465e-01 -1.576928e-01 3.201729e-01 1.113828e-01 1.774519e-01 -3.925205e-01 -2.167569e-02 9.978472e-02 -7.723498e-02 -8.288174e-01 3.638501e-01 5.466771e-01 2.330624e-01 3.162486e-01 -3.389765e-02 1.146575e-01 -5.034976e-03 -2.557668e-02 -2.155752e-01 -2.065195e-01 2.644027e-02 -1.149451e-01 2.184199e-01
<VARIANCE> 39
 1.999619e+01 1.690072e+01 3.392460e+01 3.374627e+01 2.951885e+01 3.944238e+01 4.267320e+01 3.329450e+01 3.422983e+01 3.741645e+01 2.873118e+01 2.403212e+01 1.402605e+01 1.167119e+00 2.813363e+00 2.413893e+00 3.647078e+00 2.611634e+00 2.866078e+00 3.096396e+00 2.704436e+00 2.736188e+00 3.006852e+00 2.552450e+00 2.138316e+00 7.376468e-01 1.703760e-01 2.516185e-01 3.786492e-01 6.974344e-01 5.852835e-01 5.713105e-01 6.520934e-01 5.614222e-01 4.912251e-01 5.511363e-01 4.867244e-01 4.065543e-01 3.614996e-01
<GCONST> 1.156722e+02
<TRANSP> 5
 0.000000e+00 1.000000e+00 0.000000e+00 0.000000e+00 0.000000e+00
 0.000000e+00 8.352996e-01 1.647005e-01 0.000000e+00 0.000000e+00
 0.000000e+00 0.000000e+00 9.305452e-01 6.945483e-02 0.000000e+00
 0.000000e+00 0.000000e+00 0.000000e+00 7.980084e-01 2.019916e-01
 0.000000e+00 0.000000e+00 0.000000e+00 0.000000e+00 0.000000e+00
<ENDHMM>
~h "g"
<BEGINHMM>
<NUMSTATES> 5
<STATE> 2
<MEAN> 39
 -1.570873e+00 9.532658e+00 8.043439e+00 7.304367e+00 -3.113425e+00 -5.860507e+00 -2.101616e-01 -1.199433e+00 -4.221178e+00 5.205797e-01 2.376018e+00 -1.410072e+00 5.645687e+01 -2.954974e-01 9.304791e-02 -1.802595e-01 -4.072700e-02 8.538563e-01 -4.080572e-02 -2.138790e-01 1.165935e-01 4.323624e-01 -6.827856e-04 -7.151374e-01 1.757660e-01 -7.660180e-01 -6.609617e-02 -1.642122e-01 -8.795754e-02 -9.027749e-02 -2.379362e-02 6.338704e-02 -1.195912e-01 1.989976e-02 4.461554e-02 -3.532007e-02 -4.029782e-02 4.199493e-02 1.895580e-01
<VARIANCE> 39
 8.115580e+00 9.579133e+00 2.992580e+01 1.859910e+01 4.265007e+01 4.849395e+01 4.412843e+01 3.989999e+01 4.447695e+01 3.400681e+01 4.218789e+01 2.691330e+01 1.868718e+01 5.086382e-01 1.034482e+00 1.551376e+00 1.703975e+00 3.143675e+00 2.997661e+00 2.610028e+00 3.910954e+00 3.393079e+00 3.042921e+00 2.677023e+00 2.329952e+00 1.031405e+00 7.509621e-02 1.479478e-01 2.372442e-01 3.229832e-01 4.969321e-01 4.888775e-01 4.524781e-01 6.663839e-01 7.007201e-01 5.315710e-01 4.482943e-01 4.195978e-01 1.098606e-01
<GCONST> 1.092874e+02
<STATE> 3
<MEAN> 39
 -9.166120e+00 3.137891e+00 4.324944e+00 1.441889e+00 -8.768635e-02 -3.673502e+00 -3.881554e+00 -4.900648e-01 -4.922744e+00 2.294927e+00 -2.307772e+00 2.497841e-01 5.763886e+01 -9.662730e-01 -7.888867e-01 -2.054673e-01 -8.412136e-01 6.596371e-02 3.482628e-01 -4.754328e-01 3.032614e-01 -1.926721e-01 3.746869e-01 -1.696646e-01 3.092526e-01 1.106812e+00 1.634914e-01 2.826913e-01 8.214571e-02 1.575657e-01 -1.374507e-01 -3.339301e-02 1.492535e-01 -2.068716e-02 5.518452e-02 -1.314973e-01 1.655591e-01 -9.576669e-02 -3.342046e-02
<VARIANCE> 39
 2.822670e+01 4.025922e+01 2.770196e+01 4.192124e+01 4.348370e+01 4.947017e+01 4.817428e+01 4.487020e+01 5.498445e+01 4.774645e+01 3.592222e+01 2.533383e+01 3.843309e+01 2.068900e+00 5.874137e+00 2.103316e+00 3.576201e+00 3.744120e+00 3.362035e+00 3.555557e+00 3.602131e+00 4.267533e+00 4.479384e+00 2.911028e+00 2.768277e+00 3.883790e+00 5.315344e-01 1.169759e+00 3.523398e-01 7.763323e-01 6.873910e-01 6.776770e-01 6.139562e-01 7.476934e-01 8.585646e-01 9.493973e-01 6.516589e-01 6.419793e-01 8.934708e-01
<GCONST> 1.309475e+02
<STATE> 4
<MEAN> 39
 -9.194715e+00 5.231176e+00 7.255836e+00 1.465702e+00 -2.332191e+00 -1.004029e+00 -3.912777e+00 9.858554e-01 -3.678864e+00 3.428821e-01 -1.132122e+00 6.933090e-01 6.143307e+01 1.720264e+00 1.463210e+00 7.811653e-01 1.664320e+00 -1.461850e+00 -6.697353e-01 2.361181e-01 6.909634e-02 -2.189694e-01 -6.872582e-01 1.445820e+00 -7.172425e-01 5.952531e-01 3.517051e-01 -2.540231e-01 -2.427836e-01 1.351572e-01 -6.986936e-01 -3.590231e-01 6.283964e-03 -1.095655e-01 -1.134809e-01 9.899125e-02 5.799338e-01 -4.845647e-02 2.898611e-01
<VARIANCE> 39
 3.121402e+01 6.391553e+01 6.755460e+01 5.459520e+01 7.956138e+01 4.645530e+01 5.166413e+01 4.252486e+01 2.775138e+01 4.235691e+01 4.406010e+01 2.209231e+01 2.060654e+01 3.845079e+00 3.254103e+00 3.135802e+00 3.892544e+00 7.243806e+00 4.700798e+00 2.444507e+00 2.555117e+00 3.549615e+00 3.099606e+00 4.462780e+00 2.223396e+00 2.192542e+00 5.431706e-01 1.127723e+00 8.332623e-01 9.262598e-01 1.404221e+00 6.757972e-01 4.256794e-01 4.114127e-01 6.906056e-01 4.409840e-01 5.616282e-01 4.810267e-01 4.257564e-01
<GCONST> 1.303454e+02
<TRANSP> 5
 0.000000e+00 1.000000e+00 0.000000e+00 0.000000e+00 0.000000e+00
 0.000000e+00 8.790010e-01 1.209990e-01 0.000000e+00 0.000000e+00
 0.000000e+00 0.000000e+00 8.196052e-01 1.803948e-01 0.000000e+00
 0.000000e+00 0.000000e+00 0.000000e+00 6.452649e-01 3.547351e-01
 0.000000e+00 0.000000e+00 0.000000e+00 0.000000e+00 0.000000e+00
<ENDHMM>
~h "k"
<BEGINHMM>
<NUMSTATES> 5
<STATE> 2
<MEAN> 39
 -4.244007e+00 7.858558e+00 4.830744e+00 4.295945e+00 -2.636975e+00 -4.686860e+00 -1.477480e+00 -1.687789e+00 -2.319853e+00 1.605435e-01 9.541179e-02 6.275228e-02 5.408813e+01 -3.129008e-01 -1.390443e-01 -2.909413e-01 -2.552156e-01 4.239594e-01 1.348369e-01 -7.872728e-02 -1.139554e-01 2.369275e-01 -3.521643e-02 -3.732634e-01 4.981876e-02 -5.553564e-01 -5.907556e-02 -1.856878e-01 -1.296058e-02 -6.618414e-03 -6.132767e-02 4.073094e-02 -4.533645e-02 3.168496e-02 -2.869855e-02 3.711620e-03 -1.048728e-02 1.180458e-03 2.006707e-01
<VARIANCE> 39
 1.194601e+01 1.142731e+01 2.635845e+01 2.316373e+01 3.400866e+01 4.694295e+01 5.102843e+01 4.209339e+01 4.530437e+01 3.813313e+01 3.803821e+01 2.662868e+01 1.500698e+01 7.170481e-01 1.075871e+00 1.968670e+00 1.913877e+00 3.331706e+00 3.085805e+00 2.853391e+00 3.189724e+00 3.307831e+00 3.004565e+00 2.949001e+00 2.293180e+00 9.375632e-01 1.579703e-01 2.497806e-01 3.828919e-01 3.675719e-01 5.890530e-01 5.922173e-01 5.484210e-01 6.058502e-01 6.360213e-01 5.720341e-01 5.612255e-01 4.470029e-01 1.377959e-01
<GCONST> 1.131643e+02
<STATE> 3
<MEAN> 39
 -1.006717e+01 -5.999934e-01 3.740402e+00 1.697952e+00 -1.586186e+00 -3.036036e+00 -2.585980e+00 8.178346e-01 -3.193197e+00 2.356300e+00 -1.907798e+00 7.243871e-01 5.847709e+01 -1.562983e+00 -1.553095e+00 2.377137e-01 -1.201534e+00 -4.165630e-01 1.016583e-01 -1.851624e-01 6.927717e-01 -3.383553e-01 8.267450e-01 -4.091100e-01 1.689228e-01 2.029089e+00 6.816184e-02 6.061650e-01 1.764747e-02 -1.127921e-01 -1.004678e-01 -1.044730e-01 2.503435e-02 -1.346362e-01 1.547680e-01 -4.369212e-02 6.508572e-02 3.902466e-02 -1.778403e-01
<VARIANCE> 39
 2.562060e+01 5.482668e+01 4.729703e+01 4.356107e+01 3.534384e+01 4.524205e+01 4.550092e+01 5.217932e+01 4.063228e+01 3.837847e+01 2.591611e+01 2.323733e+01 5.149499e+01 2.155125e+00 6.149158e+00 3.872515e+00 3.768854e+00 3.923337e+00 4.850842e+00 3.633120e+00 5.363065e+00 4.042950e+00 3.570373e+00 2.638261e+00 2.745093e+00 4.325708e+00 4.755743e-01 1.392501e+00 6.939263e-01 7.388110e-01 6.761682e-01 7.842960e-01 6.623028e-01 9.763809e-01 7.182614e-01 7.195946e-01 4.863809e-01 5.072783e-01 1.105599e+00
<GCONST> 1.325843e+02
<STATE> 4
<MEAN> 39
 -1.368412e+01 3.920629e+00 6.214284e+00 -2.748691e+00 -3.335313e+00 -2.903508e+00 -2.069789e+00 -6.189977e-01 -2.020581e+00 3.461138e+00 -2.342707e+00 2.085053e+00 6.124955e+01 1.112173e+00 1.282508e+00 4.085476e-01 9.485440e-01 -4.098465e-02 -1.693054e-01 1.128739e-01 -2.705255e-01 1.110146e-01 -5.701126e-01 4.646165e-01 -2.052517e-01 -3.761140e-01 5.148149e-01 -9.398847e-02 -9.437740e-02 3.894239e-01 -1.182907e-01 -5.468364e-02 7.277537e-02 -4.927156e-02 -5.614028e-02 -2.040121e-01 1.993221e-01 -1.506618e-01 5.375051e-02
<VARIANCE> 39
 3.715880e+01 2.785453e+01 4.256302e+01 6.050477e+01 5.769621e+01 6.422807e+01 4.972635e+01 5.584374e+01 4.997271e+01 4.284184e+01 3.721848e+01 2.924185e+01 2.142766e+01 4.006310e+00 3.378568e+00 2.961460e+00 5.121116e+00 4.741372e+00 4.216764e+00 3.362429e+00 3.502011e+00 3.898210e+00 3.801476e+00 3.547095e+00 2.785239e+00 1.782854e+00 5.261810e-01 5.655176e-01 6.057454e-01 1.000529e+00 1.025672e+00 8.534179e-01 6.435963e-01 6.948258e-01 7.267321e-01 7.600177e-01 6.816191e-01 5.564224e-01 5.356598e-01
<GCONST> 1.318581e+02
<TRANSP> 5
 0.000000e+00 1.000000e+00 0.000000e+00 0.000000e+00 0.000000e+00
 0.000000e+00 9.138850e-01 8.611500e-02 0.000000e+00 0.000000e+00
 0.000000e+00 0.000000e+00 7.691541e-01 2.308459e-01 0.000000e+00
 0.000000e+00 0.000000e+00 0.000000e+00 7.884280e-01 2.115720e-01
 0.000000e+00 0.000000e+00 0.000000e+00 0.000000e+00 0.000000e+00
<ENDHMM>
~h "l"
<BEGINHMM>
<NUMSTATES> 5
<STATE> 2
<MEAN> 39
 8.088982e-01 8.386954e+00 -2.603214e-01 6.880866e-01 -1.098284e+00 -3.058289e+00 -4.054686e+00 -3.232161e+00 1.337578e+00 1.650560e+00 -8.493128e-01 -5.793231e-01 6.367080e+01 4.513434e-01 1.585720e-01 -6.332151e-01 -2.890735e-01 2.775480e-01 -5.248491e-02 -1.095254e-01 -5.296109e-01 3.328103e-01 4.190687e-01 -1.268650e-01 -9.612154e-02 2.169440e-01 -1.139647e-01 -7.277445e-02 -1.082128e-02 1.869130e-02 -1.756570e-02 2.912832e-02 7.489761e-02 -2.048939e-03 -2.194009e-02 -3.034404e-02 3.458920e-02 1.635738e-02 -5.448026e-02
<VARIANCE> 39
 1.963552e+01 2.901505e+01 5.664392e+01 5.636372e+01 4.552771e+01 6.176868e+01 6.688814e+01 6.782182e+01 5.568979e+01 5.238019e+01 3.837257e+01 4.435578e+01 2.779714e+01 1.737854e+00 1.392474e+00 2.318439e+00 3.026713e+00 2.776085e+00 3.147658e+00 3.059832e+00 3.992813e+00 3.565437e+00 2.986482e+00 2.975834e+00 3.276813e+00 1.177948e+00 3.020619e-01 2.627075e-01 3.882845e-01 5.312916e-01 4.678860e-01 5.108132e-01 5.320793e-01 7.113779e-01 5.848573e-01 5.050907e-01 5.114952e-01 5.569060e-01 1.423704e-01
<GCONST> 1.225651e+02
<STATE> 3
<MEAN> 39
 2.603367e+00 7.516121e+00 -3.242079e+00 4.032462e-01 6.587334e-01 -2.134126e+00 -6.932268e+00 -6.010547e+00 4.633399e+00 5.177870e+00 -1.910387e+00 -4.413548e+00 6.622884e+01 2.285948e-03 2.210802e-01 6.476155e-02 -1.555314e-01 1.855029e-01 5.490074e-02 8.471520e-02 -3.867027e-01 -6.857896e-02 8.204381e-02 1.683841e-01 2.220931e-01 -1.610006e-01 -1.683248e-02 -3.507158e-03 8.799551e-02 2.841047e-02 -4.513149e-02 -3.817981e-02 3.146015e-02 8.215167e-02 -6.000641e-02 -1.022586e-01 3.762748e-02 6.892800e-02 -2.046130e-02
<VARIANCE> 39
 5.146806e+00 1.932259e+01 2.659681e+01 2.434449e+01 2.257338e+01 5.044279e+01 4.946589e+01 7.914108e+01 6.372296e+01 6.316100e+01 3.175282e+01 3.933260e+01 1.524659e+01 1.646419e-01 3.781422e-01 7.431365e-01 9.379138e-01 1.047916e+00 1.252788e+00 1.331692e+00 2.029893e+00 1.651771e+00 2.120253e+00 1.359836e+00 1.291839e+00 2.438965e-01 2.408639e-02 4.309923e-02 9.109966e-02 1.067408e-01 1.401952e-01 1.540593e-01 1.941306e-01 2.341223e-01 2.465738e-01 2.528326e-01 1.988245e-01 1.979866e-01 2.278581e-02
<GCONST> 8.652827e+01
<STATE> 4
<MEAN> 39
 3.810337e+00 1.201111e+01 -5.258893e+00 -6.510166e+00 2.246353e+00 1.543968e-01 1.425560e+00 -9.496451e+00 -1.031627e+00 2.026866e+00 1.674876e+00 3.168875e+00 6.384240e+01 -6.898615e-02 1.384060e-02 1.798993e-01 1.721331e-01 3.709338e-02 -1.066380e-01 -5.702368e-02 1.472209e-01 -2.926249e-02 -8.736029e-02 1.185529e-02 9.762076e-03 -1.160320e-01 -3.727775e-02 -4.984146e-02 3.025289e-02 7.299083e-02 -3.626205e-02 -3.579762e-03 -3.925215e-02 7.157861e-02 4.970894e-02 3.102620e-02 -4.461200e-02 -7.753732e-02 1.003799e-02
<VARIANCE> 39
 4.043028e+00 1.529524e+01 3.062341e+01 3.911093e+01 2.931980e+01 5.687296e+01 7.948839e+01 6.817401e+01 4.710201e+01 6.654776e+01 3.303467e+01 3.708138e+01 1.105600e+01 1.879212e-01 4.309127e-01 7.476534e-01 1.201875e+00 1.129161e+00 1.246314e+00 1.672812e+00 1.800642e+00 1.632966e+00 1.936808e+00 1.581503e+00 1.483617e+00 2.590479e-01 3.242039e-02 5.985945e-02 1.134280e-01 1.492179e-01 1.828040e-01 2.131023e-01 2.544739e-01 2.960189e-01 2.551305e-01 2.464081e-01 2.567617e-01 2.139360e-01 2.522339e-02
<GCONST> 9.044463e+01
<TRANSP> 5
 0.000000e+00 1.000000e+00 0.000000e+00 0.000000e+00 0.000000e+00
 0.000000e+00 6.765420e-01 3.234580e-01 0.000000e+00 0.000000e+00
 0.000000e+00 0.000000e+00 8.753963e-01 1.246037e-01 0.000000e+00
 0.000000e+00 0.000000e+00 0.000000e+00 8.921676e-01 1.078324e-01
 0.000000e+00 0.000000e+00 0.000000e+00 0.000000e+00 0.000000e+00
<ENDHMM>
~h "m"
<BEGINHMM>
<NUMSTATES> 5
<STATE> 2
<MEAN> 39
 2.157665e+00 5.733269e+00 3.298581e+00 9.727383e+00 1.358348e-01 -3.317717e+00 -2.293848e+00 -1.223706e+00 -1.709162e+00 6.086074e-01 -1.336084e+00 -4.528802e+00 6.131504e+01 1.743159e-01 3.213215e-01 7.399399e-01 1.385518e+00 9.305935e-01 -5.414006e-01 -2.349054e-02 -1.080184e+00 -6.498457e-01 9.437624e-01 -1.864444e-01 -6.034934e-01 -4.685053e-01 -1.308088e-01 -6.858278e-02 1.122143e-01 -4.988619e-02 -1.584098e-01 -7.779212e-02 -8.038258e-03 -7.408696e-02 -1.041937e-02 1.340789e-01 7.164770e-03 1.230933e-02 6.351715e-02
<VARIANCE> 39
 1.158247e+01 1.851246e+01 3.162901e+01 3.259893e+01 4.162491e+01 4.291822e+01 3.848513e+01 4.712122e+01 5.256332e+01 4.700229e+01 3.482407e+01 2.962859e+01 2.782690e+01 9.659591e-01 1.112510e+00 2.201033e+00 2.018429e+00 2.738915e+00 2.743490e+00 2.746295e+00 4.225372e+00 2.429475e+00 3.599386e+00 2.015431e+00 2.478279e+00 1.416974e+00 1.266405e-01 2.009431e-01 3.457693e-01 3.882053e-01 4.565903e-01 4.049352e-01 4.661184e-01 7.284442e-01 4.142222e-01 5.912175e-01 3.418231e-01 4.161571e-01 1.602546e-01
<GCONST> 1.135729e+02
<STATE> 3
<MEAN> 39
 2.577724e+00 6.159297e+00 7.056272e+00 1.521158e+01 1.394460e+00 -5.925226e+00 -1.842049e+00 -6.484406e+00 -3.177113e+00 5.567298e+00 -2.891491e+00 -6.798354e+00 6.078258e+01 -6.571744e-03 1.974579e-02 7.486123e-02 1.153220e-02 2.514058e-02 6.279770e-02 -3.315356e-02 -1.035685e-01 -1.211001e-02 1.740794e-02 3.186785e-03 6.616052e-03 -7.109421e-03 3.860330e-03 1.043347e-02 -9.413897e-02 -1.626091e-01 -3.318409e-02 1.072742e-01 9.987533e-03 1.267574e-01 5.024567e-02 -1.392752e-01 1.706684e-02 7.701264e-02 2.718210e-02
<VARIANCE> 39
 2.628300e+00 1.004682e+01 9.205498e+00 1.599170e+01 2.307110e+01 4.032236e+01 3.421725e+01 3.061302e+01 3.364280e+01 3.790800e+01 2.759182e+01 3.440388e+01 7.310009e+00 1.283406e-01 3.014398e-01 4.655254e-01 7.387604e-01 8.048937e-01 1.205545e+00 1.044807e+00 1.238547e+00 1.260438e+00 1.547726e+00 1.270665e+00 1.348393e+00 1.390542e-01 2.370982e-02 4.606631e-02 1.008582e-01 1.560808e-01 1.605456e-01 2.159877e-01 2.037234e-01 2.523455e-01 2.363957e-01 2.884646e-01 2.208146e-01 2.370195e-01 2.393826e-02
<GCONST> 7.820170e+01
<STATE> 4
<MEAN> 39
 1.330217e+00 7.742403e+00 6.367182e+00 1.192070e+01 3.276999e+00 -3.067146e+00 -1.781113e+00 -5.129574e+00 -2.663386e+00 1.890025e+00 -2.734104e+00 -4.826700e+00 5.876264e+01 -2.018334e-01 -6.037454e-02 -4.760709e-01 -1.187135e+00 -3.809948e-01 4.456989e-01 -1.344334e-01 1.000105e+00 4.707719e-01 -7.692928e-01 1.419833e-01 5.759645e-01 2.534711e-01 -1.598509e-02 -7.957119e-02 -1.541945e-01 -2.527036e-01 -2.947851e-01 4.156902e-02 1.372534e-02 2.534971e-01 9.477579e-02 -2.023957e-01 -8.919084e-03 1.134683e-01 9.667803e-02
<VARIANCE> 39
 8.879174e+00 1.871390e+01 1.536323e+01 2.336381e+01 2.184028e+01 3.763317e+01 3.111684e+01 2.823528e+01 3.391795e+01 3.141412e+01 2.744037e+01 3.185679e+01 2.064600e+01 5.775965e-01 1.109771e+00 1.779137e+00 2.158439e+00 2.323656e+00 2.437320e+00 2.396553e+00 2.918484e+00 2.585245e+00 3.310421e+00 2.047029e+00 2.436050e+00 9.104465e-01 9.849631e-02 1.738562e-01 3.060143e-01 3.364349e-01 4.381182e-01 5.003719e-01 4.570890e-01 5.316924e-01 4.172930e-01 4.775228e-01 3.703372e-01 3.985105e-01 8.654148e-02
<GCONST> 1.059285e+02
<TRANSP> 5
 0.000000e+00 1.000000e+00 0.000000e+00 0.000000e+00 0.000000e+00
 0.000000e+00 7.859405e-01 2.140595e-01 0.000000e+00 0.000000e+00
 0.000000e+00 0.000000e+00 9.058127e-01 9.418727e-02 0.000000e+00
 0.000000e+00 0.000000e+00 0.000000e+00 7.312205e-01 2.687794e-01
 0.000000e+00 0.000000e+00 0.000000e+00 0.000000e+00 0.000000e+00
<ENDHMM>
~h "n"
<BEGINHMM>
<NUMSTATES> 5
<STATE> 2
<MEAN> 39
 8.807096e-01 6.006911e+00 6.029559e+00 9.320556e+00 -2.184201e+00 -2.728177e+00 -1.651941e+00 -7.776506e-01 -1.270833e+00 -4.379270e-01 -3.675432e+00 -5.098548e+00 6.382812e+01 3.077475e-01 4.166874e-01 6.934814e-01 1.509997e+00 7.189844e-01 -4.490183e-01 1.440368e-01 -1.526848e+00 -7.864859e-02 1.753526e+00 -1.043019e+00 -5.014644e-01 -1.097121e+00 1.507515e-02 -2.555979e-02 1.560688e-02 5.482511e-02 -2.692511e-01 7.435927e-02 1.410040e-01 -2.190973e-01 2.292613e-02 1.558328e-01 -1.004575e-01 4.542612e-02 3.143879e-02
<VARIANCE> 39
 7.942715e+00 1.979391e+01 2.734945e+01 3.311487e+01 3.180637e+01 3.361168e+01 4.163629e+01 5.320083e+01 4.895278e+01 5.097145e+01 3.183370e+01 2.776939e+01 1.548391e+01 6.572801e-01 9.850795e-01 1.770139e+00 2.375220e+00 2.999235e+00 2.757484e+00 2.501832e+00 4.698157e+00 2.316886e+00 3.338372e+00 2.480688e+00 2.171978e+00 6.476502e-01 1.145860e-01 1.655088e-01 2.648340e-01 5.548853e-01 4.305392e-01 4.373427e-01 4.182251e-01 7.641575e-01 3.929537e-01 6.435449e-01 4.558581e-01 3.298633e-01 1.486162e-01
<GCONST> 1.105722e+02
<STATE> 3
<MEAN> 39
 2.175558e+00 7.967130e+00 8.635443e+00 1.346396e+01 -2.159554e+00 -3.930019e+00 -2.566747e-01 -7.570352e+00 -1.287564e+00 6.239122e+00 -6.889876e+00 -6.041512e+00 5.990604e+01 1.033873e-03 2.496861e-01 3.070402e-02 -9.787653e-02 7.762560e-02 6.547282e-02 -2.613288e-02 -1.478693e-01 -7.185885e-02 -1.356631e-02 1.513748e-01 7.685877e-02 -2.275554e-01 -6.279425e-02 2.642888e-03 -3.196900e-02 -1.481831e-01 7.296041e-02 4.595870e-02 -4.703015e-02 2.017586e-01 -1.791078e-02 -2.088523e-01 1.138879e-01 4.811209e-02 3.658370e-02
<VARIANCE> 39
 3.329949e+00 1.295038e+01 9.431123e+00 1.790048e+01 1.977239e+01 2.331804e+01 2.508931e+01 2.776533e+01 3.400851e+01 3.576084e+01 2.263392e+01 2.236871e+01 8.378902e+00 1.590704e-01 3.580771e-01 5.257248e-01 7.932305e-01 9.447262e-01 1.086881e+00 1.205382e+00 1.528023e+00 1.411156e+00 1.650467e+00 1.246566e+00 1.245897e+00 1.363477e-01 3.550470e-02 6.781685e-02 1.151773e-01 1.848702e-01 1.795795e-01 2.148569e-01 2.349933e-01 3.152440e-01 2.550732e-01 3.292550e-01 2.506747e-01 2.361085e-01 2.599236e-02
<GCONST> 8.020643e+01
<STATE> 4
<MEAN> 39
 -9.563823e-01 1.024461e+01 7.921229e+00 9.630698e+00 1.442525e+00 -1.990724e+00 -4.231509e-01 -4.272651e+00 -1.871142e+00 1.390464e+00 -4.587277e+00 -3.854136e+00 5.648121e+01 -6.316159e-01 -1.581725e-01 -1.363375e-01 -8.048779e-01 3.053465e-01 1.203547e-01 -6.741183e-02 7.979419e-01 -1.224271e-01 -7.007209e-01 3.049186e-01 3.967611e-01 -1.587173e-01 -7.710421e-02 -1.318666e-01 -9.920092e-02 -1.221522e-01 -1.487688e-01 -4.832396e-02 -3.126555e-02 6.116385e-02 6.167490e-02 -2.593114e-02 4.828728e-02 6.978832e-02 9.750866e-02
<VARIANCE> 39
 1.299596e+01 1.714489e+01 1.530611e+01 2.684107e+01 2.945996e+01 3.012802e+01 3.093694e+01 3.665755e+01 3.446364e+01 4.640437e+01 2.569939e+01 2.705787e+01 1.486497e+01 9.930090e-01 1.317615e+00 1.586170e+00 2.480677e+00 2.330759e+00 2.853962e+00 2.717050e+00 3.357485e+00 2.657465e+00 3.242256e+00 2.574174e+00 2.287572e+00 8.313674e-01 1.912601e-01 2.200172e-01 2.801503e-01 4.235081e-01 4.581501e-01 5.036879e-01 5.126395e-01 6.504427e-01 4.949991e-01 6.115423e-01 4.806922e-01 4.324925e-01 1.365919e-01
<GCONST> 1.104099e+02
<TRANSP> 5
 0.000000e+00 1.000000e+00 0.000000e+00 0.000000e+00 0.000000e+00
 0.000000e+00 7.865824e-01 2.134176e-01 0.000000e+00 0.000000e+00
 0.000000e+00 0.000000e+00 9.047545e-01 9.524550e-02 0.000000e+00
 0.000000e+00 0.000000e+00 0.000000e+00 8.220778e-01 1.779222e-01
 0.000000e+00 0.000000e+00 0.000000e+00 0.000000e+00 0.000000e+00
<ENDHMM>
~h "p"
<BEGINHMM>
<NUMSTATES> 5
<STATE> 2
<MEAN> 39
 -1.732493e+00 8.328321e+00 4.451852e+00 4.778457e+00 2.246670e+00 -2.573658e+00 -1.078353e+00 2.720689e-01 -7.611757e-01 8.371737e-01 -2.392058e+00 -1.576202e+00 5.621544e+01 -7.999555e-01 2.883848e-01 -1.105350e-01 -3.849549e-01 5.426946e-02 1.174607e-01 4.949101e-01 -5.439506e-02 1.660061e-01 -2.848183e-01 -3.739193e-01 2.422334e-01 -1.106389e+00 1.396931e-04 -1.770509e-01 -1.066636e-01 -3.395771e-02 -1.820397e-01 -1.297924e-02 -2.122420e-02 -3.625064e-02 -6.599766e-02 -1.126700e-01 9.159439e-02 -1.732756e-03 1.135576e-01
<VARIANCE> 39
 1.858891e+01 1.961308e+01 2.269794e+01 2.649439e+01 4.008674e+01 4.285183e+01 4.121667e+01 3.705444e+01 3.718722e+01 3.492068e+01 3.365161e+01 2.088167e+01 1.817502e+01 9.578125e-01 2.069994e+00 2.331662e+00 2.608324e+00 3.000244e+00 2.819911e+00 2.651456e+00 4.457070e+00 3.193960e+00 3.273538e+00 2.749587e+00 2.545131e+00 1.310799e+00 1.727979e-01 3.280849e-01 4.130826e-01 3.992830e-01 4.664753e-01 4.544113e-01 4.901398e-01 7.325746e-01 6.332934e-01 5.878130e-01 5.026208e-01 4.534359e-01 1.972128e-01
<GCONST> 1.156990e+02
<STATE> 3
<MEAN> 39
 -5.500740e+00 6.992797e+00 1.894091e+00 2.844004e+00 -3.856904e-01 -3.459171e+00 -1.618887e+00 -2.736685e+00 -9.660529e-01 -6.761099e-01 -1.289573e+00 -8.031875e-02 5.156644e+01 -1.054888e-01 -1.650602e-01 -9.953325e-02 -6.307770e-02 -6.528013e-03 8.554833e-02 -3.723552e-03 -1.431950e-01 8.122667e-03 -2.450132e-02 7.571537e-02 4.185174e-02 -1.263723e-01 8.171742e-03 -5.360129e-03 4.459044e-02 2.329565e-02 2.195560e-02 2.774243e-03 -7.178813e-03 2.545555e-02 1.728985e-02 6.157679e-02 -6.405530e-03 -9.964219e-03 7.280628e-02
<VARIANCE> 39
 6.264618e+00 8.309109e+00 1.233228e+01 1.702865e+01 2.495984e+01 3.269231e+01 3.499882e+01 3.319417e+01 3.313248e+01 3.050846e+01 2.254967e+01 2.194728e+01 3.952423e+00 2.606375e-01 6.141592e-01 9.821766e-01 1.434880e+00 1.638650e+00 2.127785e+00 2.204392e+00 2.532968e+00 2.493632e+00 2.424889e+00 2.251631e+00 1.976349e+00 8.595757e-02 5.737597e-02 1.449828e-01 1.966126e-01 2.919273e-01 3.248488e-01 4.398573e-01 4.570528e-01 5.314929e-01 4.944531e-01 4.735952e-01 4.568275e-01 4.167108e-01 3.626470e-02
<GCONST> 9.411902e+01
<STATE> 4
<MEAN> 39
 -8.865999e+00 3.087752e+00 1.320473e+00 1.462187e+00 -8.002387e-01 -2.638118e+00 -1.805335e+00 -1.209308e+00 2.155998e-01 1.635466e-01 -6.402206e-01 2.075201e-01 5.534492e+01 -3.493071e-01 -7.470880e-01 1.598383e-01 1.446198e-01 -5.853304e-02 -3.187056e-01 -3.222028e-01 5.704623e-01 2.319095e-01 9.903299e-02 9.743357e-02 -3.383631e-02 9.874904e-01 1.772072e-01 9.440126e-02 8.906099e-02 8.225819e-02 -3.808375e-02 -1.146458e-01 -2.945868e-02 8.868019e-02 -3.662270e-02 -6.748591e-02 2.902002e-02 -4.824692e-02 9.964330e-02
<VARIANCE> 39
 1.718614e+01 2.824507e+01 1.822334e+01 2.401793e+01 2.561576e+01 3.794531e+01 4.322312e+01 3.100167e+01 3.462069e+01 3.436230e+01 2.149939e+01 2.340171e+01 9.095724e+01 2.359010e+00 2.713193e+00 1.969683e+00 3.247924e+00 2.937491e+00 4.061374e+00 4.470259e+00 3.729167e+00 3.063818e+00 3.990569e+00 2.525603e+00 2.578648e+00 7.369245e+00 3.882967e-01 5.609404e-01 3.312320e-01 6.061175e-01 4.687341e-01 7.874377e-01 8.780696e-01 6.729466e-01 5.927044e-01 6.806740e-01 5.014462e-01 5.270321e-01 1.195939e+00
<GCONST> 1.245036e+02
<TRANSP> 5
 0.000000e+00 1.000000e+00 0.000000e+00 0.000000e+00 0.000000e+00
 0.000000e+00 8.219036e-01 1.780965e-01 0.000000e+00 0.000000e+00
 0.000000e+00 0.000000e+00 9.235288e-01 7.647119e-02 0.000000e+00
 0.000000e+00 0.000000e+00 0.000000e+00 8.506864e-01 1.493136e-01
 0.000000e+00 0.000000e+00 0.000000e+00 0.000000e+00 0.000000e+00
<ENDHMM>
~h "r"
<BEGINHMM>
<NUMSTATES> 5
<STATE> 2
<MEAN> 39
 -3.890521e+00 -5.734751e-01 3.551798e-01 5.881831e+00 2.483865e-02 -1.968542e+00 -4.546184e+00 -7.720440e-01 1.809407e+00 1.195843e+00 -6.069483e-01 -1.251968e+00 6.087677e+01 1.261758e+00 4.626799e-01 -5.031417e-02 3.842702e-01 -8.190010e-02 -2.492693e-01 -2.324050e-01 -7.452288e-02 -1.920142e-01 -3.000405e-02 2.492507e-01 3.103555e-02 1.565303e-01 7.491241e-02 3.237990e-03 -4.681427e-02 -8.701945e-02 -1.919804e-01 -1.479787e-01 -1.858947e-02 1.705425e-02 -1.241847e-01 -5.247274e-02 1.299084e-01 1.291113e-01 8.465166e-02
<VARIANCE> 39
 5.618221e+01 4.374185e+01 3.698256e+01 3.206810e+01 3.694100e+01 5.593810e+01 4.095303e+01 4.797718e+01 4.654970e+01 3.799212e+01 3.848567e+01 3.127097e+01 2.997499e+01 3.411160e+00 2.994031e+00 2.597182e+00 2.855890e+00 3.242899e+00 3.589869e+00 3.186513e+00 2.804678e+00 3.490034e+00 2.892589e+00 3.138940e+00 2.885300e+00 1.825125e+00 3.737733e-01 5.579925e-01 4.470897e-01 5.470831e-01 5.687538e-01 5.747024e-01 5.113231e-01 4.861909e-01 5.725622e-01 5.011498e-01 5.445036e-01 5.078002e-01 2.795104e-01
<GCONST> 1.245454e+02
<STATE> 3
<MEAN> 39
 5.995646e+00 2.242358e+00 -8.169580e-01 7.781120e+00 -3.517612e+00 -5.237549e+00 -8.452543e+00 -1.393022e+00 -1.489246e+00 1.155019e+00 3.617559e+00 7.567472e-01 6.462128e+01 1.500649e-01 -4.177952e-01 1.897097e-01 1.407059e-01 -5.548691e-01 -8.035501e-01 -1.473314e-01 6.426761e-01 2.298919e-01 -4.200678e-01 4.162642e-02 2.187991e-01 2.353482e-01 -3.096266e-01 1.783158e-04 1.606190e-01 -6.392676e-02 1.180874e-01 1.839364e-01 2.355480e-01 1.034323e-01 -7.238124e-03 -1.235621e-01 -8.074747e-02 -7.094553e-02 -9.916591e-02
<VARIANCE> 39
 1.000810e+01 1.669304e+01 4.030043e+01 1.951779e+01 3.008908e+01 6.129725e+01 4.949027e+01 5.183674e+01 4.486642e+01 3.937124e+01 4.809831e+01 3.127217e+01 1.186300e+01 8.075109e-01 8.251633e-01 1.920416e+00 1.204458e+00 1.857377e+00 2.556318e+00 2.454619e+00 2.569735e+00 2.579247e+00 2.376667e+00 2.843964e+00 1.887764e+00 5.663707e-01 2.007425e-01 1.589683e-01 1.665447e-01 1.790153e-01 2.531354e-01 3.394208e-01 3.516571e-01 4.030585e-01 4.095065e-01 3.434864e-01 4.060446e-01 3.666931e-01 5.858549e-02
<GCONST> 1.047877e+02
<STATE> 4
<MEAN> 39
 5.038983e+00 -7.286251e-01 3.588316e+00 7.867812e+00 -8.385417e+00 -9.886161e+00 -6.089932e+00 4.483071e+00 8.022844e-02 -2.757768e+00 3.257589e+00 7.914341e-01 6.629077e+01 -1.322152e-01 9.197155e-02 2.210063e-01 -4.200236e-02 -1.607086e-01 4.755235e-04 2.318531e-01 1.169811e-01 -9.855457e-02 -1.114660e-01 3.322688e-02 2.186532e-02 -6.311394e-02 -4.312520e-02 7.751587e-02 9.333168e-03 -3.018935e-02 6.346504e-02 6.602627e-02 2.674851e-02 -9.359266e-02 -4.319021e-02 7.364352e-02 -2.766091e-03 -2.240080e-02 -3.920339e-02
<VARIANCE> 39
 8.699720e+00 1.816848e+01 5.348944e+01 1.780719e+01 4.890155e+01 5.687492e+01 4.746731e+01 3.968841e+01 5.815396e+01 3.606274e+01 4.608471e+01 3.246405e+01 1.137165e+01 2.413873e-01 4.378347e-01 8.105653e-01 5.920373e-01 1.085899e+00 1.261400e+00 1.290047e+00 1.420951e+00 1.501243e+00 1.554195e+00 1.501459e+00 1.150043e+00 2.145219e-01 2.402082e-02 5.608485e-02 6.896276e-02 8.807511e-02 1.291922e-01 1.655899e-01 1.801721e-01 2.078334e-01 2.125793e-01 2.087127e-01 2.008747e-01 1.514875e-01 1.912299e-02
<GCONST> 8.484697e+01
<TRANSP> 5
 0.000000e+00 1.000000e+00 0.000000e+00 0.000000e+00 0.000000e+00
 0.000000e+00 7.813249e-01 2.186751e-01 0.000000e+00 0.000000e+00
 0.000000e+00 0.000000e+00 7.225199e-01 2.774800e-01 0.000000e+00
 0.000000e+00 0.000000e+00 0.000000e+00 8.676925e-01 1.323075e-01
 0.000000e+00 0.000000e+00 0.000000e+00 0.000000e+00 0.000000e+00
<ENDHMM>
~h "s"
<BEGINHMM>
<NUMSTATES> 5
<STATE> 2
<MEAN> 39
 -1.083939e+01 1.008812e+01 6.150805e+00 1.778349e+00 2.705645e+00 -5.776907e+00 -1.509606e-02 9.661916e-01 -2.721322e+00 9.678140e-01 -1.059004e+00 3.717413e-01 6.387293e+01 -2.597955e+00 2.931296e-01 -3.584524e-01 -8.976408e-01 9.455327e-01 5.963740e-02 3.590397e-01 4.593863e-02 -2.822402e-01 -2.934572e-01 -3.034266e-01 7.728832e-02 3.580142e-01 -2.082277e-02 -1.185969e-01 -1.613265e-01 -7.196235e-02 -1.583549e-01 3.974667e-02 -9.749348e-02 -7.343025e-02 -8.546175e-02 3.265398e-03 1.458935e-02 -4.845959e-02 6.725492e-02
<VARIANCE> 39
 6.500363e+01 2.944403e+01 3.464222e+01 4.632706e+01 5.964658e+01 5.817568e+01 5.375180e+01 4.404628e+01 4.352185e+01 3.714941e+01 3.640722e+01 3.365711e+01 1.523949e+01 1.742295e+00 2.224577e+00 2.568803e+00 2.431986e+00 3.824700e+00 3.521371e+00 3.137847e+00 3.218932e+00 3.004500e+00 3.255388e+00 3.065949e+00 2.537667e+00 8.427094e-01 5.084341e-01 4.170835e-01 3.537526e-01 4.547509e-01 6.348515e-01 6.335391e-01 5.714832e-01 5.208809e-01 5.462880e-01 5.862660e-01 6.041360e-01 4.646072e-01 1.268776e-01
<GCONST> 1.220461e+02
<STATE> 3
<MEAN> 39
 -2.410679e+01 9.223047e+00 1.325819e+00 -3.553081e+00 4.914523e+00 -5.811687e+00 5.903263e-01 7.242345e-01 -4.388842e+00 5.302480e-01 -2.145323e+00 3.413218e-01 6.621721e+01 -1.548835e-01 -2.720497e-01 -6.212747e-02 -1.791638e-01 -1.379243e-01 3.077577e-02 -9.045286e-02 1.075694e-01 9.241397e-02 4.008813e-02 5.731200e-02 1.020920e-02 1.848446e-03 1.966647e-01 -4.323895e-02 7.846783e-02 7.569240e-02 -6.165413e-02 -2.616328e-02 -1.520931e-02 2.871167e-02 5.320911e-02 -1.054531e-02 1.556115e-02 9.419666e-03 -7.997105e-02
<VARIANCE> 39
 6.871933e+00 2.119885e+01 3.184468e+01 3.959470e+01 3.419958e+01 4.580041e+01 5.669257e+01 4.636734e+01 4.458653e+01 3.950631e+01 2.994261e+01 2.957713e+01 7.022541e+00 5.217999e-01 1.230064e+00 1.213673e+00 1.616023e+00 2.105161e+00 2.599138e+00 2.501994e+00 2.928084e+00 2.652480e+00 2.812176e+00 2.467594e+00 2.016256e+00 2.189427e-01 1.058495e-01 1.778795e-01 2.270162e-01 3.173994e-01 3.789608e-01 5.081313e-01 4.776905e-01 5.775418e-01 5.055498e-01 5.746347e-01 4.687710e-01 3.908265e-01 3.283390e-02
<GCONST> 1.053671e+02
<STATE> 4
<MEAN> 39
 -1.731923e+01 5.433858e+00 2.523386e+00 -2.502427e+00 1.543447e+00 -6.208522e+00 -1.715590e+00 1.664043e+00 -2.459915e+00 7.788042e-01 -1.684352e+00 2.939011e-01 6.137227e+01 1.955749e+00 2.557753e-02 1.698168e-01 7.925073e-01 -3.148682e-01 9.796958e-02 -2.300283e-01 -3.535952e-02 2.505005e-01 3.925192e-02 -1.863426e-01 -2.139611e-01 -9.785740e-01 1.803655e-01 1.666037e-01 -1.465187e-02 1.486957e-01 3.777121e-02 5.632158e-02 -2.468330e-03 -3.765411e-02 -1.927291e-02 4.189333e-02 -1.563827e-02 -8.120891e-02 9.605023e-02
<VARIANCE> 39
 3.334449e+01 4.630935e+01 3.562160e+01 3.702665e+01 4.010964e+01 4.585996e+01 4.774300e+01 5.074158e+01 4.631804e+01 3.894194e+01 3.194698e+01 2.932137e+01 2.371885e+01 2.223580e+00 2.834409e+00 2.432845e+00 3.108714e+00 3.127156e+00 3.633235e+00 3.026258e+00 3.271167e+00 2.875646e+00 3.300277e+00 2.545053e+00 2.607006e+00 1.241615e+00 4.242589e-01 5.106765e-01 4.536532e-01 5.619182e-01 6.386976e-01 7.084128e-01 5.935756e-01 6.553183e-01 5.542679e-01 6.775711e-01 5.307361e-01 5.141919e-01 2.763084e-01
<GCONST> 1.237683e+02
<TRANSP> 5
 0.000000e+00 1.000000e+00 0.000000e+00 0.000000e+00 0.000000e+00
 0.000000e+00 8.502302e-01 1.497698e-01 0.000000e+00 0.000000e+00
 0.000000e+00 0.000000e+00 9.262965e-01 7.370347e-02 0.000000e+00
 0.000000e+00 0.000000e+00 0.000000e+00 8.370065e-01 1.629935e-01
 0.000000e+00 0.000000e+00 0.000000e+00 0.000000e+00 0.000000e+00
<ENDHMM>
~h "t"
<BEGINHMM>
<NUMSTATES> 5
<STATE> 2
<MEAN> 39
 -4.731162e+00 7.267220e+00 3.640880e+00 3.191795e+00 -2.085469e+00 -4.464864e+00 -1.996053e+00 -1.275148e+00 -1.070743e+00 -8.072151e-01 -9.387790e-01 7.912710e-02 5.528676e+01 -1.982715e-01 1.940427e-02 -2.119116e-01 -9.887934e-02 2.596234e-01 5.360916e-02 3.392945e-02 -1.779484e-01 7.006013e-02 4.790080e-02 -6.144304e-02 4.883508e-02 -6.700117e-01 -3.522161e-02 -8.652282e-02 4.295041e-03 -3.842860e-02 -1.974097e-03 7.504850e-02 -7.343036e-04 5.799631e-03 1.389586e-03 4.360497e-03 1.894459e-02 -2.400938e-02 1.480820e-01
<VARIANCE> 39
 1.925743e+01 1.652339e+01 2.851173e+01 2.565133e+01 3.709086e+01 3.671813e+01 4.163544e+01 4.389153e+01 4.142879e+01 3.327772e+01 3.389910e+01 2.537729e+01 2.456559e+01 8.810723e-01 1.253349e+00 1.837720e+00 2.084359e+00 3.047256e+00 2.897763e+00 2.980433e+00 3.177847e+00 2.844340e+00 2.782754e+00 2.809501e+00 2.259686e+00 1.041697e+00 1.796663e-01 2.860516e-01 3.450193e-01 4.164170e-01 5.734458e-01 5.992770e-01 5.823624e-01 6.374258e-01 5.655860e-01 5.691103e-01 5.489918e-01 4.411426e-01 1.992086e-01
<GCONST> 1.146435e+02
<STATE> 3
<MEAN> 39
 -5.960992e+00 7.023764e+00 2.816349e+00 3.054832e+00 -8.527653e-02 -3.358763e+00 -1.440538e+00 -2.457366e+00 -9.081782e-01 -1.382160e-01 -8.477170e-01 1.674856e-02 5.249069e+01 -1.231574e+00 -2.297976e+00 8.385975e-02 -1.440978e+00 -1.994755e-01 7.833548e-01 -9.872927e-03 3.334953e-01 -1.220770e-02 2.559432e-01 3.646148e-01 4.178003e-01 2.497270e+00 -6.741313e-01 -4.895470e-01 1.630004e-01 -5.129617e-01 -3.564636e-01 -1.124227e-01 1.238334e-02 2.599024e-01 -8.248118e-02 6.002448e-02 2.817761e-02 1.524125e-01 1.159021e+00
<VARIANCE> 39
 1.037639e+01 1.385704e+01 1.753066e+01 2.016257e+01 2.385119e+01 3.033893e+01 3.240769e+01 3.260667e+01 3.625328e+01 3.425728e+01 2.637376e+01 2.430247e+01 6.447521e+00 2.021071e+00 4.457304e+00 2.627143e+00 4.255126e+00 3.737592e+00 4.027395e+00 3.124772e+00 3.880271e+00 3.571054e+00 3.325448e+00 2.492871e+00 2.337551e+00 5.429657e+00 2.110487e-01 5.548791e-01 3.483444e-01 5.495493e-01 5.983842e-01 6.780769e-01 5.997859e-01 7.015009e-01 6.036459e-01 6.598585e-01 5.048369e-01 4.877003e-01 3.111483e-01
<GCONST> 1.182043e+02
<STATE> 4
<MEAN> 39
 -1.509129e+01 -1.575656e+00 5.430085e+00 -2.583758e+00 -3.613419e+00 -3.444783e+00 -9.308296e-01 1.148891e+00 -1.495185e+00 1.580324e-01 -2.946147e-01 1.381180e+00 6.563039e+01 -2.486137e-01 1.653559e-01 7.983657e-01 6.649990e-01 -3.851768e-01 -5.013311e-01 8.650055e-02 5.201204e-01 -1.335551e-01 -2.275016e-01 -1.178366e-01 -1.247535e-01 4.964184e-01 7.951429e-01 6.354190e-01 1.743581e-02 6.343477e-01 1.010884e-01 -1.053915e-01 -9.807251e-02 -1.473430e-01 5.911447e-04 -8.824625e-02 -5.006364e-02 -1.823102e-01 -7.698345e-01
<VARIANCE> 39
 3.544708e+01 4.464238e+01 3.872977e+01 5.077325e+01 4.232868e+01 4.518353e+01 3.792286e+01 3.979204e+01 3.821549e+01 4.053654e+01 2.886880e+01 2.518383e+01 3.266187e+01 7.633880e+00 4.674084e+00 3.419573e+00 6.797659e+00 4.462625e+00 4.055961e+00 3.367292e+00 3.713207e+00 3.465212e+00 3.369933e+00 2.799713e+00 3.000874e+00 7.770812e+00 9.042751e-01 8.544065e-01 7.070601e-01 1.151830e+00 8.933696e-01 9.323802e-01 6.833763e-01 6.941316e-01 6.538302e-01 6.749749e-01 5.521629e-01 5.517155e-01 1.113555e+00
<GCONST> 1.344121e+02
<TRANSP> 5
 0.000000e+00 1.000000e+00 0.000000e+00 0.000000e+00 0.000000e+00
 0.000000e+00 8.863937e-01 1.136063e-01 0.000000e+00 0.000000e+00
 0.000000e+00 0.000000e+00 6.192365e-01 3.807636e-01 0.000000e+00
 0.000000e+00 0.000000e+00 0.000000e+00 8.114335e-01 1.885666e-01
 0.000000e+00 0.000000e+00 0.000000e+00 0.000000e+00 0.000000e+00
<ENDHMM>
~h "v"
<BEGINHMM>
<NUMSTATES> 5
<STATE> 2
<MEAN> 39
 4.010638e+00 5.594242e+00 3.009624e-01 6.948915e+00 -2.669356e+00 -6.346792e+00 -7.829728e+00 -1.387573e+00 -4.560122e-01 2.810673e+00 4.006761e+00 -3.722924e+00 6.316327e+01 -8.406907e-02 5.686197e-01 -7.712138e-02 -1.219146e-01 1.027725e+00 5.462102e-01 1.176381e-01 -7.326103e-01 1.801922e-01 4.021234e-01 6.606940e-02 1.158696e-01 -7.677038e-01 -1.365059e-01 -2.444278e-02 1.555559e-01 -1.196465e-02 -5.207136e-02 9.121719e-02 2.149674e-01 -1.063476e-02 -5.923302e-02 -7.474303e-02 -4.913387e-02 9.321547e-02 2.643627e-02
<VARIANCE> 39
 7.351006e+00 1.635204e+01 3.029126e+01 1.401695e+01 3.080877e+01 5.183584e+01 4.321833e+01 4.403157e+01 3.623421e+01 3.292276e+01 2.872007e+01 3.366413e+01 1.916898e+01 4.361485e-01 5.162058e-01 9.773948e-01 9.613340e-01 1.314444e+00 1.869698e+00 1.868728e+00 2.871131e+00 2.265977e+00 2.511491e+00 1.779861e+00 1.881510e+00 3.345990e-01 3.514896e-02 7.742346e-02 1.019526e-01 1.445232e-01 1.865914e-01 2.728382e-01 2.554190e-01 4.070952e-01 3.303978e-01 4.282798e-01 2.530226e-01 2.835246e-01 3.876007e-02
<GCONST> 9.402857e+01
<STATE> 3
<MEAN> 39
 -3.908243e+00 7.101954e+00 4.977898e+00 6.243262e+00 2.172185e+00 -1.990833e+00 -3.110600e+00 -2.296981e+00 -2.504416e-01 1.508432e+00 3.260950e-01 2.627243e-02 5.861731e+01 -5.704837e-01 -2.677835e-01 2.494828e-02 -1.214227e-01 1.523595e-02 1.772968e-01 1.585610e-01 3.142147e-02 -6.056037e-02 -1.209393e-01 -1.096172e-01 9.705096e-02 1.353811e-01 1.138971e-01 -4.081313e-02 -1.064165e-01 -3.494487e-02 -1.400129e-01 -1.074362e-01 -1.093097e-01 1.003944e-02 -8.144185e-04 3.891199e-02 8.572385e-02 -7.564154e-02 8.617479e-02
<VARIANCE> 39
 2.759824e+01 1.438709e+01 1.771347e+01 1.618951e+01 2.600408e+01 2.568377e+01 2.808817e+01 2.994982e+01 3.042222e+01 2.873984e+01 2.794954e+01 2.174973e+01 1.468636e+01 9.356129e-01 7.829323e-01 1.303032e+00 1.278099e+00 1.804737e+00 2.158948e+00 2.475147e+00 2.889085e+00 3.155445e+00 2.696771e+00 2.858837e+00 1.969985e+00 4.772177e-01 9.198280e-02 1.379448e-01 2.038973e-01 2.384021e-01 3.071538e-01 3.777599e-01 4.504422e-01 5.567889e-01 5.701279e-01 5.154116e-01 4.983362e-01 3.810385e-01 6.309865e-02
<GCONST> 1.025082e+02
<STATE> 4
<MEAN> 39
 4.609566e+00 8.524690e+00 -3.059008e+00 2.176213e+00 -1.932391e+00 -1.763603e+00 -2.726591e+00 -4.588259e+00 -4.342491e+00 3.511695e+00 6.817960e+00 -3.377332e-01 6.155611e+01 8.837806e-02 -2.396810e-01 -2.395130e-01 -1.090610e-01 -1.326119e-01 -6.712317e-02 -3.039908e-01 1.815580e-01 2.370884e-01 -4.469061e-02 6.995634e-02 -2.184473e-01 3.065997e-01 -2.046069e-02 -6.610246e-02 6.627364e-02 7.482067e-02 -2.267329e-02 -7.919969e-02 -8.296327e-02 1.055047e-01 8.491836e-02 -3.057065e-02 -1.060889e-01 -7.123501e-02 3.651344e-02
<VARIANCE> 39
 2.135203e+01 1.376848e+01 3.220062e+01 4.120810e+01 2.941182e+01 3.861721e+01 6.821646e+01 4.062466e+01 3.305075e+01 3.942733e+01 4.330512e+01 3.411322e+01 1.036082e+01 4.096715e-01 6.060430e-01 9.523951e-01 1.230971e+00 1.233199e+00 2.012320e+00 2.044693e+00 1.762360e+00 2.075128e+00 2.236203e+00 2.302731e+00 1.677461e+00 3.241738e-01 6.742857e-02 6.550203e-02 1.091641e-01 1.842890e-01 1.974767e-01 2.966697e-01 2.300323e-01 2.187169e-01 3.011944e-01 3.178342e-01 3.576712e-01 2.364624e-01 2.294957e-02
<GCONST> 9.529227e+01
<TRANSP> 5
 0.000000e+00 1.000000e+00 0.000000e+00 0.000000e+00 0.000000e+00
 0.000000e+00 8.454692e-01 1.545307e-01 0.000000e+00 0.000000e+00
 0.000000e+00 0.000000e+00 8.356997e-01 1.643003e-01 0.000000e+00
 0.000000e+00 0.000000e+00 0.000000e+00 8.124571e-01 1.875430e-01
 0.000000e+00 0.000000e+00 0.000000e+00 0.000000e+00 0.000000e+00
<ENDHMM>
~h "w"
<BEGINHMM>
<NUMSTATES> 5
<STATE> 2
<MEAN> 39
 -5.700252e+00 2.238478e+00 3.052757e+00 4.721531e+00 -4.130239e+00 -5.564538e+00 -3.759335e+00 7.228749e-01 -2.326281e+00 8.634821e-01 9.539766e-01 1.344167e-01 6.237450e+01 5.808010e-01 3.773368e-01 -5.996145e-01 9.410051e-02 7.623121e-01 2.102892e-01 -3.641201e-01 -2.801830e-01 1.186191e-01 2.146950e-01 -8.503804e-02 -2.415138e-01 -5.342627e-01 -1.279495e-02 1.612548e-01 7.645760e-02 -9.557319e-02 6.519894e-02 2.320299e-01 1.015274e-01 -1.297399e-01 -9.735979e-02 -1.573667e-02 -8.351090e-03 -1.068149e-02 -2.504411e-02
<VARIANCE> 39
 7.244319e+01 3.474170e+01 4.705251e+01 4.695032e+01 5.582192e+01 6.861450e+01 5.089959e+01 5.361975e+01 5.174676e+01 4.465216e+01 4.066952e+01 3.580343e+01 2.407653e+01 1.680509e+00 2.111865e+00 2.919816e+00 2.569994e+00 3.482937e+00 3.408927e+00 4.091555e+00 3.762317e+00 3.514110e+00 4.177144e+00 3.071421e+00 2.895492e+00 8.141057e-01 2.214287e-01 3.300022e-01 3.688918e-01 4.285894e-01 5.528767e-01 5.386695e-01 7.332079e-01 7.119084e-01 6.841643e-01 8.223434e-01 5.861713e-01 5.251700e-01 1.105481e-01
<GCONST> 1.244593e+02
<STATE> 3
<MEAN> 39
 -2.175238e+00 7.542608e+00 3.151986e+00 5.400731e+00 9.462654e-01 -8.651850e-01 -1.349379e+00 -2.361720e+00 -1.533179e+00 7.036642e-02 -1.464023e+00 -1.462252e+00 5.623618e+01 4.885846e-01 4.002066e-01 -1.091675e-01 -1.050152e-01 -1.066008e-01 1.164248e-01 1.984291e-01 -1.802152e-01 -2.067414e-01 -5.014739e-02 1.121306e-01 8.748621e-02 1.134137e-01 -1.368924e-02 -1.039491e-01 -8.467554e-02 -6.828762e-02 -1.462260e-01 -6.714878e-02 -5.350428e-02 2.073392e-02 -2.148738e-02 2.467865e-02 8.138452e-02 6.848326e-02 8.663569e-02
<VARIANCE> 39
 2.608693e+01 2.326283e+01 2.397879e+01 2.735299e+01 2.900457e+01 3.234659e+01 3.282657e+01 3.001924e+01 3.161324e+01 3.871045e+01 2.941513e+01 2.175891e+01 1.616275e+01 1.339072e+00 1.259133e+00 1.930105e+00 2.062785e+00 2.849092e+00 2.510553e+00 2.637370e+00 2.469144e+00 2.738399e+00 2.921709e+00 2.847096e+00 1.887874e+00 6.683167e-01 1.748356e-01 2.299089e-01 3.067234e-01 3.746399e-01 4.926032e-01 4.427608e-01 5.366257e-01 4.609474e-01 4.974925e-01 5.447932e-01 4.775086e-01 3.698790e-01 8.171914e-02
<GCONST> 1.099249e+02
<STATE> 4
<MEAN> 39
 5.526680e+00 1.059332e+01 -2.318909e+00 1.760657e+00 -4.801509e+00 -6.424550e-01 -2.004960e+00 -4.954433e+00 -5.045020e+00 2.144308e+00 3.157053e+00 1.274201e-02 6.106659e+01 6.445788e-02 -8.087818e-02 -2.623643e-01 -1.129346e-01 -1.694834e-01 5.139001e-02 -1.239667e-01 2.805355e-03 -2.254808e-02 4.410292e-02 2.164634e-01 -3.417285e-02 1.867870e-01 -3.867198e-02 -6.020338e-02 4.129645e-02 6.863867e-02 3.165145e-02 -4.410070e-02 -6.038014e-02 2.842256e-02 7.403422e-02 1.173602e-02 -3.609912e-02 -5.547456e-02 3.108491e-02
<VARIANCE> 39
 6.064131e+00 1.429574e+01 3.011890e+01 3.037644e+01 3.618457e+01 3.754264e+01 4.825853e+01 3.441137e+01 4.164028e+01 4.579711e+01 4.691786e+01 2.992813e+01 1.082852e+01 2.196630e-01 5.134902e-01 8.891822e-01 1.080837e+00 1.422769e+00 1.560054e+00 1.930184e+00 1.623924e+00 1.941440e+00 2.385814e+00 2.289258e+00 1.696029e+00 2.887869e-01 3.071819e-02 5.966790e-02 1.104974e-01 1.413569e-01 1.995434e-01 2.243034e-01 2.949999e-01 2.561076e-01 2.968140e-01 3.504860e-01 3.263948e-01 2.725457e-01 1.715830e-02
<GCONST> 9.123692e+01
<TRANSP> 5
 0.000000e+00 1.000000e+00 0.000000e+00 0.000000e+00 0.000000e+00
 0.000000e+00 8.163515e-01 1.836485e-01 0.000000e+00 0.000000e+00
 0.000000e+00 0.000000e+00 8.595336e-01 1.404663e-01 0.000000e+00
 0.000000e+00 0.000000e+00 0.000000e+00 9.246756e-01 7.532439e-02
 0.000000e+00 0.000000e+00 0.000000e+00 0.000000e+00 0.000000e+00
<ENDHMM>
~h "y"
<BEGINHMM>
<NUMSTATES> 5
<STATE> 2
<MEAN> 39
 -1.002120e+01 5.427099e+00 1.448468e+01 4.530955e+00 -5.708231e+00 8.968108e-01 -2.779634e+00 -8.416595e-01 -3.283606e+00 -1.405779e-01 -1.959319e+00 -1.666955e+00 6.116460e+01 8.411653e-01 6.285698e-01 6.104402e-01 5.911138e-01 -2.401735e-01 -2.315355e-01 -8.561823e-02 1.034390e-01 -4.121624e-01 -1.404758e-01 3.894608e-01 -1.225195e-01 3.231707e-01 8.386466e-02 -7.514969e-02 -8.246373e-02 -4.501886e-02 -2.539997e-01 -1.960840e-01 -1.473394e-01 -1.235591e-01 -1.444908e-01 -7.035572e-03 2.753560e-01 1.165292e-01 6.768826e-02
<VARIANCE> 39
 5.020399e+01 2.962358e+01 4.142745e+01 5.840092e+01 4.556319e+01 5.801583e+01 5.809285e+01 4.508762e+01 3.711092e+01 3.956754e+01 3.929185e+01 2.695926e+01 3.145207e+01 2.541620e+00 2.024349e+00 1.566376e+00 2.426835e+00 3.101741e+00 5.566197e+00 4.290473e+00 3.636555e+00 2.479918e+00 3.240034e+00 3.678725e+00 2.201404e+00 7.840471e-01 2.380818e-01 3.311420e-01 1.655676e-01 3.947119e-01 5.222577e-01 7.569960e-01 7.189333e-01 7.408074e-01 4.804383e-01 5.151544e-01 5.455411e-01 4.359648e-01 9.485329e-02
<GCONST> 1.207168e+02
<STATE> 3
<MEAN> 39
 -1.743076e+00 8.036300e+00 1.555882e+01 8.603080e+00 -1.207250e+01 -4.663137e+00 -3.730452e+00 -3.729395e-01 -8.306279e+00 -1.958223e+00 6.675972e+00 -1.596230e+00 6.438325e+01 2.013922e-01 -2.598531e-01 4.808107e-02 1.398902e-01 -1.288249e+00 -4.966865e-01 2.572305e-01 1.109561e-02 -9.333925e-01 -1.126911e-01 1.168734e+00 -2.019151e-01 4.268310e-01 -1.481452e-01 -4.579382e-02 -1.645470e-01 -2.445327e-02 3.469183e-01 1.471992e-01 1.580281e-02 -2.713526e-02 2.468305e-01 1.555757e-01 -3.487766e-01 -9.123003e-02 -5.833858e-02
<VARIANCE> 39
 8.977454e+00 1.542029e+01 3.624615e+01 2.803814e+01 3.002964e+01 7.683595e+01 5.361512e+01 2.178111e+01 5.665693e+01 2.297239e+01 3.586569e+01 2.119082e+01 1.294299e+01 5.710639e-01 4.508929e-01 1.436830e+00 1.511867e+00 2.033527e+00 3.197444e+00 2.697100e+00 2.541473e+00 1.828130e+00 2.134851e+00 3.026480e+00 2.189260e+00 3.986267e-01 1.233948e-01 1.192081e-01 1.342805e-01 2.609636e-01 2.075753e-01 4.059056e-01 5.341596e-01 3.245070e-01 2.737247e-01 3.775288e-01 3.623653e-01 3.930949e-01 3.349379e-02
<GCONST> 1.008406e+02
<STATE> 4
<MEAN> 39
 -1.191477e+00 5.982592e+00 1.398367e+01 8.443204e+00 -1.195394e+01 -3.960464e+00 -6.776510e+00 1.651578e+00 -8.932881e+00 -3.654111e-01 5.674162e+00 -3.299206e+00 6.617336e+01 5.460619e-02 -2.020297e-02 -2.088941e-01 7.511704e-02 1.393664e-01 -1.250670e-01 -1.133118e-01 9.157246e-02 1.681566e-01 -7.336377e-02 -5.719395e-02 4.493416e-02 1.899143e-02 -9.045399e-04 1.428466e-02 9.074898e-03 -1.909217e-02 6.372388e-02 -1.493881e-02 2.379204e-03 3.680415e-03 3.096947e-02 -6.661864e-03 -3.022419e-02 1.613440e-02 -2.298431e-02
<VARIANCE> 39
 7.720782e+00 1.420250e+01 4.619626e+01 3.118207e+01 2.613754e+01 9.822945e+01 6.182289e+01 5.386605e+01 4.819647e+01 4.237025e+01 4.603452e+01 3.663424e+01 1.385871e+01 1.709561e-01 3.626058e-01 6.575996e-01 6.200374e-01 1.092714e+00 1.521384e+00 1.218727e+00 1.218858e+00 1.615820e+00 1.227602e+00 1.460071e+00 9.915568e-01 1.650515e-01 1.997403e-02 4.566696e-02 7.613500e-02 9.409167e-02 1.525302e-01 1.884482e-01 1.610907e-01 1.863643e-01 2.087494e-01 2.141387e-01 2.252260e-01 1.703062e-01 1.338345e-02
<GCONST> 8.409335e+01
<TRANSP> 5
 0.000000e+00 1.000000e+00 0.000000e+00 0.000000e+00 0.000000e+00
 0.000000e+00 7.863315e-01 2.136685e-01 0.000000e+00 0.000000e+00
 0.000000e+00 0.000000e+00 7.734199e-01 2.265801e-01 0.000000e+00
 0.000000e+00 0.000000e+00 0.000000e+00 9.385682e-01 6.143182e-02
 0.000000e+00 0.000000e+00 0.000000e+00 0.000000e+00 0.000000e+00
<ENDHMM>
~h "z"
<BEGINHMM>
<NUMSTATES> 5
<STATE> 2
<MEAN> 39
 -4.916086e+00 1.092057e+01 6.903474e+00 4.257277e+00 -6.080335e-01 -1.033783e+01 -3.372494e+00 1.026853e+00 -1.955822e+00 1.588293e+00 2.479902e-02 1.888099e+00 6.470901e+01 -1.638963e+00 9.805525e-01 6.796575e-02 -7.478476e-01 1.373204e+00 -6.854624e-02 5.161247e-01 2.421405e-01 1.376233e-02 1.947487e-01 -4.601834e-01 4.700261e-01 -5.729418e-02 -1.867983e-01 -8.491105e-03 -5.492916e-02 -2.041404e-02 3.630496e-02 2.072186e-01 3.134792e-02 2.718037e-02 9.586214e-04 -4.128140e-02 9.495070e-03 -1.153106e-01 4.284235e-02
<VARIANCE> 39
 2.805120e+01 2.544109e+01 2.764341e+01 3.019102e+01 4.569094e+01 4.460826e+01 6.035540e+01 3.898201e+01 5.159324e+01 3.189994e+01 3.208540e+01 3.195601e+01 1.836147e+01 1.449704e+00 1.104639e+00 1.495164e+00 1.929717e+00 2.676059e+00 2.823612e+00 2.575694e+00 2.980886e+00 2.539297e+00 2.708079e+00 2.208769e+00 2.191998e+00 4.372309e-01 1.478131e-01 1.843764e-01 2.056620e-01 3.387581e-01 4.485937e-01 4.259029e-01 4.471321e-01 5.153821e-01 4.564248e-01 4.495801e-01 3.775011e-01 3.647023e-01 5.805117e-02
<GCONST> 1.100734e+02
<STATE> 3
<MEAN> 39
 -2.016889e+01 1.270818e+01 5.082350e+00 -1.266409e+00 6.819962e+00 -7.029998e+00 1.397561e-01 2.343067e+00 -4.048883e+00 5.164185e-01 -2.285685e+00 1.319415e+00 6.490737e+01 -4.247660e-01 -3.804898e-01 -9.958183e-02 -1.806405e-01 1.233536e-02 1.477737e-01 5.799020e-02 4.040015e-02 -1.292875e-01 -6.839755e-02 -2.316536e-02 -1.932094e-01 2.479007e-02 2.945146e-01 -1.217668e-01 3.361569e-02 7.351811e-02 -1.737331e-01 -7.079942e-02 -6.537399e-02 -3.355760e-02 2.939964e-02 6.894010e-03 3.615418e-02 6.983284e-03 -4.723377e-02
<VARIANCE> 39
 1.832523e+01 3.032119e+01 3.371165e+01 3.987109e+01 3.764296e+01 4.416503e+01 6.424872e+01 4.961919e+01 4.330408e+01 4.223894e+01 3.265537e+01 2.817461e+01 8.359900e+00 1.450418e+00 1.133293e+00 1.346122e+00 1.830160e+00 2.520282e+00 2.926724e+00 2.635348e+00 2.939933e+00 2.499393e+00 2.674139e+00 2.382708e+00 2.220595e+00 2.375167e-01 1.095658e-01 1.716088e-01 2.276294e-01 3.432512e-01 4.525818e-01 5.587834e-01 4.983945e-01 5.701877e-01 4.887141e-01 5.208359e-01 4.601372e-01 4.441868e-01 3.525001e-02
<GCONST> 1.092586e+02
<STATE> 4
<MEAN> 39
 -1.324516e+01 6.732755e+00 4.432362e+00 3.081308e-02 3.020165e+00 -6.641685e+00 -2.034441e+00 1.335726e+00 -3.657386e+00 3.951336e-01 -1.963443e+00 1.664182e-01 5.891977e+01 1.531534e+00 -3.211883e-01 -1.287110e-01 5.285472e-01 -7.494622e-01 4.118775e-03 -2.857246e-01 -3.630173e-01 2.969551e-01 1.013898e-02 -2.000099e-02 -1.310073e-02 -8.130579e-01 3.484349e-02 8.318514e-02 -7.898411e-02 1.522127e-02 -6.270791e-02 -6.318393e-02 -2.485893e-02 -1.470932e-02 3.440625e-02 3.371926e-02 -1.225618e-03 1.254693e-03 4.330049e-02
<VARIANCE> 39
 3.712513e+01 3.286583e+01 3.549487e+01 3.570971e+01 3.613785e+01 5.504905e+01 4.866386e+01 4.920597e+01 4.225528e+01 3.981347e+01 3.109212e+01 2.925292e+01 5.114394e+01 2.843189e+00 2.479329e+00 2.458365e+00 2.439351e+00 3.704595e+00 4.912745e+00 3.804401e+00 3.961946e+00 3.476105e+00 3.367284e+00 2.773419e+00 2.336028e+00 2.316026e+00 4.621422e-01 4.756250e-01 4.612831e-01 4.630985e-01 7.061333e-01 9.558234e-01 7.560915e-01 8.475270e-01 7.227508e-01 6.970374e-01 5.555429e-01 4.767657e-01 3.831054e-01
<GCONST> 1.271373e+02
<TRANSP> 5
 0.000000e+00 1.000000e+00 0.000000e+00 0.000000e+00 0.000000e+00
 0.000000e+00 8.561023e-01 1.438977e-01 0.000000e+00 0.000000e+00
 0.000000e+00 0.000000e+00 9.217492e-01 7.825074e-02 0.000000e+00
 0.000000e+00 0.000000e+00 0.000000e+00 8.339159e-01 1.660840e-01
 0.000000e+00 0.000000e+00 0.000000e+00 0.000000e+00 0.000000e+00
<ENDHMM>
~h "aa"
<BEGINHMM>
<NUMSTATES> 5
<STATE> 2
<MEAN> 39
 -5.239404e-01 5.417012e+00 -2.904890e+00 9.919195e-01 -1.114141e+00 -6.428633e-01 -3.278225e+00 -1.462721e-02 8.082342e-01 9.411970e-01 -1.954131e-01 -4.134083e+00 6.166406e+01 8.601291e-01 4.404864e-02 -1.013864e+00 -5.404959e-01 7.339730e-02 8.176069e-01 1.361724e-01 1.339176e-01 -1.167848e-01 -4.246657e-02 3.056738e-01 -4.521378e-01 5.213063e-01 -5.342728e-02 -1.030954e-01 -6.094341e-02 -1.560557e-01 1.245537e-02 1.165335e-01 7.661717e-02 -3.293529e-03 -1.218558e-01 -5.850990e-02 4.283306e-02 7.827749e-02 5.422167e-02
<VARIANCE> 39
 3.871547e+01 3.529153e+01 4.913479e+01 5.106587e+01 4.210321e+01 6.421143e+01 6.937439e+01 5.341451e+01 6.231996e+01 5.449104e+01 3.781084e+01 3.592866e+01 3.475040e+01 3.744783e+00 3.820558e+00 4.142930e+00 4.034788e+00 3.571446e+00 4.030200e+00 4.445994e+00 4.357061e+00 3.649167e+00 4.893976e+00 3.059351e+00 3.779432e+00 2.947731e+00 5.485291e-01 7.837831e-01 7.382011e-01 6.809632e-01 5.775246e-01 6.983626e-01 6.972759e-01 7.093104e-01 5.500765e-01 8.583550e-01 5.526034e-01 6.704996e-01 4.934039e-01
<GCONST> 1.336626e+02
<STATE> 3
<MEAN> 39
 4.985091e+00 4.496618e+00 -7.769278e+00 -2.189133e+00 -6.583298e-01 5.770435e+00 -2.370609e+00 8.782675e-01 -2.825735e+00 -3.696420e-01 1.706418e+00 -4.822425e+00 6.640373e+01 5.434081e-02 -2.776445e-01 -1.789066e-01 -2.741415e-01 2.514759e-01 4.253111e-01 1.268267e-01 2.411145e-01 -1.646023e-01 -4.280149e-01 -2.145660e-01 1.763909e-02 2.774347e-01 -1.429721e-01 9.305549e-02 2.669838e-01 1.645588e-01 3.160908e-02 -1.433004e-01 2.318286e-02 -1.269299e-02 -4.687316e-03 -1.176816e-01 -9.952164e-02 1.294839e-01 -1.289870e-01
<VARIANCE> 39
 6.348361e+00 2.190628e+01 2.564912e+01 4.748108e+01 3.194479e+01 5.873579e+01 8.271004e+01 5.052407e+01 5.605216e+01 7.428044e+01 5.595322e+01 3.213895e+01 1.349616e+01 4.704414e-01 8.443114e-01 1.917135e+00 1.702409e+00 1.334392e+00 3.238767e+00 2.537980e+00 1.992988e+00 2.718287e+00 2.904279e+00 2.389263e+00 2.000162e+00 4.719667e-01 9.649738e-02 1.413946e-01 2.082994e-01 2.729670e-01 2.591187e-01 3.708414e-01 3.479396e-01 3.300983e-01 4.396884e-01 4.641028e-01 4.093026e-01 3.214581e-01 7.234462e-02
<GCONST> 1.063348e+02
<STATE> 4
<MEAN> 39
 5.812871e+00 4.053483e+00 -8.278948e+00 -3.166828e+00 1.595856e+00 8.277936e+00 3.314368e-01 5.703734e-01 -4.191479e+00 -3.563589e+00 8.363186e-01 -2.725204e+00 6.637210e+01 -4.375059e-02 -8.639705e-02 1.408629e-01 2.745516e-01 6.586029e-02 -1.540799e-01 -2.048432e-01 -3.794033e-03 1.132892e-01 1.473789e-02 -1.055826e-01 -4.797979e-03 -4.231162e-04 -1.332559e-02 8.665976e-03 4.567422e-02 5.006780e-02 -2.273518e-02 -6.858029e-02 -2.110632e-02 1.177029e-02 2.065248e-02 3.252625e-02 -1.302308e-02 3.520138e-03 -1.846141e-02
<VARIANCE> 39
 4.759798e+00 1.733386e+01 2.411571e+01 5.256244e+01 2.889049e+01 4.700222e+01 7.496130e+01 6.183579e+01 5.235458e+01 5.084193e+01 3.785719e+01 3.755982e+01 8.190637e+00 1.413679e-01 3.628621e-01 6.142443e-01 1.029149e+00 8.647399e-01 1.422644e+00 1.362618e+00 1.501775e+00 1.457110e+00 1.709730e+00 1.370086e+00 1.174124e+00 1.733103e-01 1.788902e-02 4.641554e-02 8.105370e-02 1.174020e-01 1.266515e-01 1.618142e-01 1.831871e-01 2.097181e-01 2.162840e-01 2.551651e-01 2.005416e-01 1.757902e-01 1.690070e-02
<GCONST> 8.405167e+01
<TRANSP> 5
 0.000000e+00 1.000000e+00 0.000000e+00 0.000000e+00 0.000000e+00
 0.000000e+00 7.835703e-01 2.164297e-01 0.000000e+00 0.000000e+00
 0.000000e+00 0.000000e+00 7.795636e-01 2.204363e-01 0.000000e+00
 0.000000e+00 0.000000e+00 0.000000e+00 9.440278e-01 5.597217e-02
 0.000000e+00 0.000000e+00 0.000000e+00 0.000000e+00 0.000000e+00
<ENDHMM>
~h "ae"
<BEGINHMM>
<NUMSTATES> 5
<STATE> 2
<MEAN> 39
 -4.662094e+00 5.318757e+00 2.024370e+00 3.060514e+00 -5.441184e+00 -4.947735e+00 -6.000886e-01 6.991003e-01 8.161020e-01 -1.145984e+00 -1.679613e+00 -6.344250e-01 5.844452e+01 3.246226e-01 -5.157265e-02 -1.451820e-01 7.156496e-02 -2.858566e-01 2.752736e-01 3.283508e-01 4.269974e-01 1.741411e-01 -5.108786e-01 -3.400061e-02 -1.254130e-01 4.257515e-01 3.120136e-02 -8.937439e-02 -4.930632e-02 -6.432499e-02 6.517521e-03 3.873035e-02 4.265561e-02 3.535270e-02 -1.209257e-02 -4.438686e-02 -1.318928e-02 6.185892e-03 1.234890e-01
<VARIANCE> 39
 2.575212e+01 2.830812e+01 3.922324e+01 3.292840e+01 5.955756e+01 6.768876e+01 5.108897e+01 6.058259e+01 5.076438e+01 5.829284e+01 3.955602e+01 3.229912e+01 3.583763e+01 2.629885e+00 2.533918e+00 2.427309e+00 2.981462e+00 4.643623e+00 4.934875e+00 3.498769e+00 4.359296e+00 3.567763e+00 3.692934e+00 3.156338e+00 3.020833e+00 3.574412e+00 4.321569e-01 5.097744e-01 4.633265e-01 6.183698e-01 8.530558e-01 9.517857e-01 6.958255e-01 8.108475e-01 6.420583e-01 6.764413e-01 5.835979e-01 5.754905e-01 5.509427e-01
<GCONST> 1.302713e+02
<STATE> 3
<MEAN> 39
 -1.352273e-01 2.359985e+00 2.148226e+00 3.028842e+00 -9.543865e+00 -2.883511e+00 3.405264e+00 4.894911e+00 1.317767e+00 -5.566818e+00 -1.084294e+00 -1.603449e+00 6.784698e+01 3.197513e-01 -5.667168e-01 -3.317249e-01 -1.118688e-01 -9.271118e-02 1.768617e-01 1.180235e-01 3.370810e-01 4.858211e-02 -4.661028e-01 -1.235017e-01 -1.074103e-01 6.101082e-01 -2.186138e-01 1.593847e-01 6.935355e-02 1.275485e-01 2.720737e-01 5.032633e-02 -8.186361e-02 -1.820167e-01 -7.236793e-02 1.139702e-01 -4.134161e-02 1.595876e-04 -3.002260e-01
<VARIANCE> 39
 7.937193e+00 1.980482e+01 2.832070e+01 2.355066e+01 3.844758e+01 5.181917e+01 5.314059e+01 5.610753e+01 5.669000e+01 4.456274e+01 4.040222e+01 3.215827e+01 1.610340e+01 7.648104e-01 1.269604e+00 1.219753e+00 1.719123e+00 1.911991e+00 1.924933e+00 2.071958e+00 2.779324e+00 2.164699e+00 2.243363e+00 1.982047e+00 1.676657e+00 1.127353e+00 1.930731e-01 1.975313e-01 1.993724e-01 3.168820e-01 3.612912e-01 3.483430e-01 4.005548e-01 4.519535e-01 4.144629e-01 3.582479e-01 3.461187e-01 3.061465e-01 1.611825e-01
<GCONST> 1.074964e+02
<STATE> 4
<MEAN> 39
 1.825791e+00 7.414624e-01 -2.846951e+00 3.982326e+00 -4.382376e+00 2.350401e+00 1.178969e+00 5.327824e+00 -8.483906e-01 -8.659594e+00 -4.717436e+00 -3.030860e+00 6.903574e+01 -2.291922e-03 1.447622e-01 4.372155e-02 9.927420e-02 1.851679e-01 -5.854880e-02 -1.113493e-01 -1.398416e-01 5.558676e-02 6.451016e-02 4.992422e-03 -5.155971e-02 -9.190090e-02 -1.797989e-02 6.311708e-02 8.237968e-02 1.366274e-02 6.578527e-02 -6.061116e-02 -2.869168e-02 -4.184087e-02 -3.495867e-03 1.151237e-01 1.120724e-02 -8.723024e-03 -8.330686e-02
<VARIANCE> 39
 7.876705e+00 2.111469e+01 3.344285e+01 3.015081e+01 4.498636e+01 4.814968e+01 4.429148e+01 4.483183e+01 6.253792e+01 4.409107e+01 4.378188e+01 2.939599e+01 1.252451e+01 2.193931e-01 4.551639e-01 7.547165e-01 8.399829e-01 1.058138e+00 1.240303e+00 1.395674e+00 1.746947e+00 1.441916e+00 1.526684e+00 1.481299e+00 1.077855e+00 2.661761e-01 3.883637e-02 6.387184e-02 1.044938e-01 1.376746e-01 1.756581e-01 1.919559e-01 2.217966e-01 2.770354e-01 2.473928e-01 2.499951e-01 2.277240e-01 1.897047e-01 3.692821e-02
<GCONST> 8.928416e+01
<TRANSP> 5
 0.000000e+00 1.000000e+00 0.000000e+00 0.000000e+00 0.000000e+00
 0.000000e+00 8.855765e-01 1.144234e-01 0.000000e+00 0.000000e+00
 0.000000e+00 0.000000e+00 7.745786e-01 2.254213e-01 0.000000e+00
 0.000000e+00 0.000000e+00 0.000000e+00 9.100770e-01 8.992294e-02
 0.000000e+00 0.000000e+00 0.000000e+00 0.000000e+00 0.000000e+00
<ENDHMM>
~h "ah"
<BEGINHMM>
<NUMSTATES> 5
<STATE> 2
<MEAN> 39
 2.067642e+00 3.044636e+00 -1.329162e+00 4.506224e+00 -5.346304e+00 -4.368569e+00 -3.890656e+00 3.143335e+00 2.586182e+00 -2.516239e+00 3.922098e-01 -3.286269e+00 6.813823e+01 1.040431e-01 2.547025e-02 -1.245391e-02 -4.735815e-02 -4.633411e-02 -7.239993e-02 -4.320560e-02 -4.881548e-02 2.293420e-01 -1.162194e-01 -3.921175e-02 2.745386e-02 4.867533e-02 -1.103314e-01 6.658188e-02 1.145661e-01 -3.236452e-02 8.518141e-02 5.189260e-02 3.559286e-02 -2.918608e-02 -1.127222e-01 7.494421e-02 -4.675994e-02 2.060942e-02 -1.408250e-01
<VARIANCE> 39
 1.285578e+01 1.100504e+01 2.387995e+01 2.586020e+01 5.595811e+01 5.092055e+01 4.783681e+01 6.383936e+01 5.811622e+01 5.162584e+01 4.109372e+01 1.891547e+01 2.072129e+01 6.015955e-01 5.982670e-01 9.147071e-01 1.057258e+00 1.448110e+00 1.441158e+00 9.329236e-01 1.516183e+00 1.830500e+00 1.751082e+00 1.765154e+00 9.494069e-01 7.856503e-01 1.263895e-01 8.199900e-02 1.578176e-01 1.891774e-01 2.481731e-01 2.479135e-01 1.815414e-01 2.428522e-01 2.554993e-01 2.856826e-01 3.110358e-01 1.463495e-01 1.197467e-01
<GCONST> 9.637455e+01
<STATE> 3
<MEAN> 39
 -4.742453e-01 5.506641e+00 1.274014e-01 3.647826e+00 -2.857173e+00 -1.442893e+00 -3.410242e+00 -5.418150e-01 -1.387314e+00 4.845749e-01 -1.399672e-01 -1.490837e+00 6.166546e+01 2.642093e-01 2.824626e-01 -4.812633e-02 -2.516492e-01 1.074894e-01 5.305617e-02 1.079762e-01 1.115774e-02 -1.023905e-01 5.542516e-02 -5.718187e-02 -3.356780e-01 -1.621221e-01 -3.196887e-02 -9.153289e-02 -3.856388e-02 6.273322e-02 1.532699e-01 -2.940592e-02 4.981855e-02 -6.362250e-02 1.129574e-02 1.156677e-01 -7.402844e-02 -1.400445e-02 -9.102517e-02
<VARIANCE> 39
 2.687268e+01 2.811895e+01 4.110600e+01 2.867207e+01 3.195774e+01 4.913963e+01 3.838861e+01 5.140624e+01 4.123156e+01 4.665805e+01 2.947088e+01 2.167783e+01 4.399294e+01 2.509006e+00 1.954108e+00 4.215922e+00 3.109457e+00 2.833916e+00 3.424705e+00 2.810537e+00 2.569485e+00 3.683022e+00 3.483321e+00 2.868198e+00 2.384319e+00 2.768305e+00 4.143478e-01 3.216709e-01 5.372505e-01 6.996863e-01 4.456004e-01 6.387188e-01 4.061836e-01 3.614210e-01 5.415704e-01 6.445469e-01 4.889759e-01 3.290358e-01 3.607304e-01
<GCONST> 1.219665e+02
<STATE> 4
<MEAN> 39
 1.833488e+00 2.830607e+00 -3.486615e-01 3.420264e+00 -3.738305e+00 -4.448061e+00 -2.119002e+00 2.219119e+00 1.793663e+00 -1.774474e+00 -2.992568e-01 -4.432802e+00 6.483807e+01 -5.177401e-02 4.066545e-01 4.652007e-01 2.348723e-01 5.608176e-01 -2.106999e-02 1.584709e-01 3.547880e-02 -2.473158e-01 2.177794e-01 -1.143023e-01 4.366418e-02 -5.879897e-01 -1.034098e-01 1.354153e-01 1.828047e-01 2.139055e-01 2.474799e-01 6.981073e-02 4.286394e-03 -1.209200e-01 -8.709676e-02 1.751069e-02 -1.150908e-01 6.584420e-02 -2.007415e-01
<VARIANCE> 39
 9.860845e+00 3.074064e+01 3.186593e+01 3.753748e+01 4.135511e+01 4.935320e+01 5.591043e+01 7.214086e+01 5.649546e+01 6.025670e+01 6.131698e+01 3.259668e+01 2.003931e+01 9.914966e-01 2.324553e+00 2.861965e+00 3.417101e+00 3.828891e+00 3.463181e+00 2.425417e+00 5.193089e+00 3.407243e+00 2.767813e+00 3.757602e+00 1.712369e+00 2.331728e+00 1.429066e-01 3.932730e-01 3.968363e-01 6.764147e-01 5.970505e-01 6.561464e-01 3.628891e-01 9.946281e-01 5.894979e-01 5.860525e-01 5.930372e-01 3.065227e-01 2.763346e-01
<GCONST> 1.221141e+02
<TRANSP> 5
 0.000000e+00 1.000000e+00 0.000000e+00 0.000000e+00 0.000000e+00
 0.000000e+00 8.693413e-01 1.306587e-01 0.000000e+00 0.000000e+00
 0.000000e+00 0.000000e+00 4.757178e-01 5.242823e-01 0.000000e+00
 0.000000e+00 0.000000e+00 0.000000e+00 5.744067e-01 4.255934e-01
 0.000000e+00 0.000000e+00 0.000000e+00 0.000000e+00 0.000000e+00
<ENDHMM>
~h "ao"
<BEGINHMM>
<NUMSTATES> 5
<STATE> 2
<MEAN> 39
 -5.002390e-01 6.450062e+00 -2.692565e+00 -1.580130e+00 -2.513202e+00 -3.075797e-01 -3.347614e+00 1.025373e+00 -2.699663e+00 1.209213e+00 2.024882e-01 -2.610258e+00 6.110732e+01 1.016023e+00 4.637825e-01 -6.780772e-01 -5.744283e-01 -4.931242e-01 3.214178e-01 2.395825e-01 1.202502e-01 -2.644704e-01 -6.731275e-02 2.970530e-01 -1.987230e-01 4.432182e-01 -1.503694e-01 -1.446988e-01 -8.530663e-02 -9.294461e-02 -4.103714e-03 1.210892e-02 9.838901e-02 -4.319296e-03 -2.425110e-02 -7.432912e-02 4.163486e-02 7.028560e-02 2.999082e-02
<VARIANCE> 39
 3.802693e+01 3.702369e+01 4.664923e+01 4.695255e+01 6.670770e+01 6.504757e+01 7.033802e+01 3.953945e+01 5.807854e+01 4.319423e+01 4.027174e+01 3.707460e+01 2.794728e+01 2.903890e+00 3.598752e+00 2.918863e+00 3.914108e+00 4.346469e+00 4.398225e+00 4.023168e+00 3.197212e+00 4.094099e+00 3.771230e+00 3.350747e+00 2.791836e+00 2.277425e+00 5.139355e-01 6.591390e-01 5.488765e-01 8.563011e-01 7.404981e-01 6.865599e-01 6.823421e-01 5.045573e-01 6.620722e-01 6.296238e-01 6.244730e-01 5.023351e-01 3.565439e-01
<GCONST> 1.308286e+02
<STATE> 3
<MEAN> 39
 4.414031e+00 8.195624e+00 -5.082494e+00 -1.131076e+00 -4.710961e+00 1.509577e+00 3.783214e-01 2.659157e-01 -2.450180e+00 -1.480794e+00 1.312242e+00 -2.276478e+00 6.258191e+01 8.650705e-02 -5.764345e-02 -2.195525e-01 -9.703805e-02 -2.612669e-02 5.351752e-02 1.468514e-01 -1.258558e-02 -1.573804e-01 -2.868709e-01 -9.212107e-02 -1.012249e-01 1.180920e-01 -2.371855e-01 -6.144227e-02 2.300304e-01 2.536990e-01 2.488962e-01 5.269125e-02 -1.061848e-01 7.191236e-03 3.670614e-02 3.028611e-02 -1.284446e-01 5.227807e-02 -1.315213e-01
<VARIANCE> 39
 1.533788e+01 2.972972e+01 2.598620e+01 4.433809e+01 5.444710e+01 4.844847e+01 5.544313e+01 5.278226e+01 4.355930e+01 5.060455e+01 3.577401e+01 3.831128e+01 2.980528e+01 3.365698e-01 7.775380e-01 1.129261e+00 1.365182e+00 1.648361e+00 1.711341e+00 2.264807e+00 2.726071e+00 2.163030e+00 2.940315e+00 1.920186e+00 1.867137e+00 4.338377e-01 1.024187e-01 2.033739e-01 1.882683e-01 3.445585e-01 3.158042e-01 3.648596e-01 3.270679e-01 4.656518e-01 3.395215e-01 4.792401e-01 3.748064e-01 3.564965e-01 7.838002e-02
<GCONST> 1.062413e+02
<STATE> 4
<MEAN> 39
 6.017172e+00 7.276871e+00 -6.822665e+00 -3.992304e+00 -5.075148e+00 6.002050e+00 -1.365314e+00 2.682528e+00 -6.714582e+00 -2.041770e+00 1.206542e+00 -2.127009e+00 6.608360e+01 -1.650518e-02 -2.142287e-01 4.352185e-02 2.448535e-01 2.680283e-01 9.072047e-02 -3.028699e-01 -1.523177e-01 -6.557132e-02 1.638544e-01 7.724160e-02 -2.664219e-03 4.739856e-02 -2.481236e-02 -5.437215e-03 6.125111e-02 7.194585e-02 3.905018e-02 -7.036716e-02 -4.492325e-02 -2.019027e-02 7.344324e-02 4.443544e-02 -4.257588e-02 -8.476039e-03 -2.612252e-02
<VARIANCE> 39
 4.723822e+00 2.606290e+01 1.537956e+01 4.036556e+01 6.394664e+01 4.603238e+01 5.557234e+01 6.401762e+01 5.111235e+01 4.956380e+01 5.571141e+01 4.243523e+01 9.321627e+00 1.274247e-01 3.861402e-01 5.275430e-01 1.085024e+00 8.774735e-01 1.314698e+00 1.441532e+00 1.601199e+00 1.568877e+00 1.631889e+00 1.778417e+00 1.263972e+00 1.476770e-01 2.205770e-02 4.927801e-02 7.934686e-02 1.184037e-01 1.275419e-01 1.731571e-01 1.899630e-01 2.089402e-01 2.174271e-01 1.998381e-01 2.404782e-01 1.758462e-01 1.568118e-02
<GCONST> 8.518425e+01
<TRANSP> 5
 0.000000e+00 1.000000e+00 0.000000e+00 0.000000e+00 0.000000e+00
 0.000000e+00 8.686778e-01 1.313221e-01 0.000000e+00 0.000000e+00
 0.000000e+00 0.000000e+00 4.125472e-01 5.874528e-01 0.000000e+00
 0.000000e+00 0.000000e+00 0.000000e+00 9.395407e-01 6.045928e-02
 0.000000e+00 0.000000e+00 0.000000e+00 0.000000e+00 0.000000e+00
<ENDHMM>
~h "aw"
<BEGINHMM>
<NUMSTATES> 5
<STATE> 2
<MEAN> 39
 -3.644823e+00 5.842908e+00 -9.497845e-01 1.194013e+00 -2.097193e+00 -1.611890e+00 -1.461636e-02 2.136664e+00 2.635476e+00 3.778237e-01 -3.646994e+00 -2.898199e+00 6.107539e+01 1.105248e+00 -1.585794e-02 -1.408206e+00 -2.850260e-01 8.531065e-01 1.043515e+00 2.258615e-01 -1.584391e-01 -5.562225e-02 -2.341713e-01 -3.508464e-01 -7.623097e-01 4.473231e-01 -5.895142e-02 -1.260573e-01 -9.692847e-02 -1.431728e-01 -7.242621e-02 2.328879e-01 1.402267e-01 -8.228614e-02 -2.057022e-01 -1.696983e-01 1.605829e-01 6.501667e-02 4.781352e-02
<VARIANCE> 39
 3.458992e+01 3.183671e+01 5.074100e+01 3.613595e+01 4.955807e+01 4.921022e+01 5.310955e+01 4.372601e+01 4.301884e+01 3.556152e+01 3.572527e+01 3.070991e+01 4.663503e+01 2.273851e+00 1.923203e+00 3.345487e+00 5.398218e+00 2.454712e+00 3.600704e+00 3.133329e+00 3.559233e+00 3.423685e+00 3.389613e+00 3.593725e+00 3.539697e+00 2.739569e+00 3.490909e-01 3.303091e-01 6.987561e-01 1.086414e+00 4.015670e-01 7.781952e-01 4.796539e-01 6.617893e-01 6.121809e-01 5.063462e-01 6.399982e-01 7.330526e-01 4.229100e-01
<GCONST> 1.273480e+02
<STATE> 3
<MEAN> 39
 -2.726528e+00 4.775778e-01 -8.208811e+00 -4.638872e+00 7.220249e+00 1.025510e+01 -3.066875e+00 -8.522019e-01 -1.614605e+00 -2.902339e+00 -1.262664e-01 -5.657702e+00 6.598781e+01 4.437146e-01 2.686905e-01 -3.799622e-01 -3.653060e-01 -1.751547e-02 7.470368e-01 3.614966e-01 -4.105813e-01 -2.474919e-01 -3.885736e-02 4.660437e-01 7.095805e-03 4.095363e-01 -3.510560e-02 1.643127e-02 8.388238e-02 -1.390545e-02 -1.192455e-01 -1.633415e-01 5.604897e-03 5.207850e-02 3.465527e-02 -9.397656e-03 -2.070165e-02 1.442505e-01 -3.731561e-02
<VARIANCE> 39
 3.685905e+01 4.648218e+01 1.689427e+01 6.622394e+01 4.873629e+01 5.393433e+01 6.661443e+01 5.314423e+01 4.547079e+01 3.149157e+01 3.067229e+01 3.228334e+01 2.255394e+01 8.503717e-01 1.492523e+00 1.834818e+00 2.207861e+00 2.678017e+00 2.457194e+00 2.828768e+00 2.838359e+00 3.587446e+00 2.319159e+00 2.276109e+00 3.283656e+00 5.554999e-01 1.251344e-01 2.251225e-01 3.939778e-01 3.854426e-01 4.297723e-01 3.785516e-01 5.400948e-01 4.290240e-01 7.017313e-01 4.714694e-01 3.599665e-01 4.738933e-01 5.652354e-02
<GCONST> 1.141367e+02
<STATE> 4
<MEAN> 39
 5.492789e+00 6.446798e+00 -9.972251e+00 -3.365696e+00 -1.326453e+00 8.114178e+00 9.700595e-01 8.914152e-02 -2.383851e+00 -2.142848e+00 2.334562e+00 -3.197876e+00 6.686046e+01 6.832255e-02 1.276108e-03 1.741709e-01 2.153685e-01 -1.875872e-01 -3.526210e-01 -2.424460e-01 5.410681e-02 1.486175e-02 1.704572e-01 1.162014e-01 6.043373e-02 -6.987610e-02 -2.729826e-02 3.440244e-03 5.802295e-02 4.096980e-02 7.586725e-03 -3.766990e-02 -2.612203e-02 1.195805e-02 1.888865e-02 2.457961e-02 -1.872013e-02 -1.129447e-02 -1.934510e-02
<VARIANCE> 39
 4.867394e+00 1.605781e+01 1.500281e+01 3.219873e+01 3.858784e+01 5.762206e+01 5.361551e+01 3.788459e+01 3.024006e+01 4.384334e+01 3.800880e+01 2.788754e+01 1.744940e+01 1.267570e-01 3.043694e-01 5.776078e-01 1.004235e+00 9.063683e-01 1.106252e+00 1.188771e+00 1.059500e+00 1.340964e+00 1.718615e+00 1.465618e+00 9.756704e-01 1.471032e-01 1.836848e-02 3.806866e-02 6.389122e-02 1.117219e-01 1.415356e-01 1.548771e-01 1.718246e-01 1.938396e-01 1.967295e-01 2.268054e-01 2.268014e-01 1.689344e-01 1.224634e-02
<GCONST> 8.005996e+01
<TRANSP> 5
 0.000000e+00 1.000000e+00 0.000000e+00 0.000000e+00 0.000000e+00
 0.000000e+00 7.842782e-01 2.157218e-01 0.000000e+00 0.000000e+00
 0.000000e+00 0.000000e+00 8.713754e-01 1.286246e-01 0.000000e+00
 0.000000e+00 0.000000e+00 0.000000e+00 9.609832e-01 3.901681e-02
 0.000000e+00 0.000000e+00 0.000000e+00 0.000000e+00 0.000000e+00
<ENDHMM>
~h "ax"
<BEGINHMM>
<NUMSTATES> 5
<STATE> 2
<MEAN> 39
 -3.470988e+00 7.517251e+00 5.950570e+00 5.348846e+00 -4.048102e+00 -5.140198e+00 -1.371834e+00 -2.715639e-01 -1.442198e+00 1.166845e-01 -9.574785e-01 -8.618115e-01 6.188412e+01 8.201957e-01 -9.282349e-02 -4.063736e-01 -5.778141e-03 -6.749386e-01 -3.198210e-01 -3.576009e-01 2.302692e-01 3.360779e-01 -1.540148e-01 2.275342e-01 -5.464443e-02 8.418916e-01 -1.142879e-01 -1.692308e-01 -1.226274e-01 -1.119670e-01 -2.539412e-02 1.335309e-02 -6.047880e-02 -2.385604e-02 4.716252e-02 5.531703e-02 2.767662e-02 1.032494e-02 8.649797e-03
<VARIANCE> 39
 3.324436e+01 2.736427e+01 3.851217e+01 3.504141e+01 6.445975e+01 5.526550e+01 4.740999e+01 5.443320e+01 4.678703e+01 3.700719e+01 3.671025e+01 2.858678e+01 4.101174e+01 3.893185e+00 2.400656e+00 2.803093e+00 3.791570e+00 4.920206e+00 4.218169e+00 3.354662e+00 3.858530e+00 3.331122e+00 3.402751e+00 3.197354e+00 2.569966e+00 2.917665e+00 5.855669e-01 4.331411e-01 4.738648e-01 7.452571e-01 8.152153e-01 7.676703e-01 5.829303e-01 6.073415e-01 5.818337e-01 5.686556e-01 5.490662e-01 4.500823e-01 5.138583e-01
<GCONST> 1.285657e+02
<STATE> 3
<MEAN> 39
 1.409217e+00 4.603287e+00 2.255177e+00 4.698072e+00 -6.956988e+00 -4.171325e+00 -2.998112e+00 2.523502e+00 5.631158e-01 -2.664181e+00 2.042799e-01 -2.463335e+00 6.660925e+01 3.412684e-02 4.179335e-02 -1.485529e-01 3.403280e-02 2.539899e-01 1.156971e-01 -2.852681e-03 -2.593355e-03 -4.170662e-02 2.357572e-02 -3.735058e-02 -8.922625e-02 -1.656653e-01 -1.026916e-01 1.087863e-01 1.003060e-01 3.082664e-02 2.096369e-01 1.024680e-04 7.293539e-02 -7.932638e-02 -6.755626e-02 9.763010e-02 -5.095883e-02 -8.067040e-03 -1.528947e-01
<VARIANCE> 39
 7.268985e+00 2.010391e+01 5.277474e+01 2.638134e+01 6.736858e+01 6.824299e+01 5.972484e+01 6.279205e+01 5.921259e+01 4.995506e+01 4.572901e+01 3.290693e+01 1.664252e+01 3.132451e-01 6.785825e-01 9.030498e-01 8.750888e-01 1.712004e+00 1.660431e+00 1.525188e+00 1.907762e+00 1.684033e+00 1.903018e+00 1.659775e+00 1.382690e+00 4.623611e-01 7.485415e-02 1.030439e-01 1.259285e-01 1.549000e-01 2.954986e-01 2.843131e-01 2.863384e-01 3.152998e-01 2.931125e-01 3.237256e-01 2.883238e-01 2.304565e-01 6.592181e-02
<GCONST> 9.876759e+01
<STATE> 4
<MEAN> 39
 -2.834121e+00 6.670312e+00 2.138371e+00 4.192266e+00 -7.416795e-01 -2.676888e+00 -8.274720e-01 -9.814253e-01 5.191725e-01 -3.877617e-01 -8.907207e-01 -8.997588e-01 5.573031e+01 -1.511672e-01 3.307001e-02 3.504308e-02 -9.929119e-02 2.082358e-01 -8.430228e-02 -2.435629e-02 -1.541885e-01 -1.547325e-01 1.073267e-01 1.982455e-02 -1.166455e-02 -3.073713e-01 -1.961036e-02 2.346726e-02 4.041883e-02 1.323517e-02 3.909753e-02 2.062291e-02 8.684494e-03 -5.151366e-02 -1.173305e-02 5.017912e-02 -4.923737e-02 -2.814189e-02 -3.737690e-02
<VARIANCE> 39
 1.446915e+01 1.554485e+01 2.159266e+01 2.378122e+01 3.826584e+01 3.982621e+01 3.607101e+01 3.481423e+01 3.351137e+01 3.316017e+01 2.849856e+01 2.408677e+01 4.532905e+01 3.349565e-01 7.685792e-01 1.037329e+00 1.531002e+00 2.166619e+00 2.070161e+00 2.287671e+00 2.476323e+00 2.187762e+00 2.372231e+00 2.232950e+00 2.044606e+00 2.855752e-01 8.241126e-02 1.364539e-01 2.071622e-01 3.056346e-01 3.452364e-01 3.812173e-01 4.592637e-01 5.037937e-01 4.050659e-01 4.775319e-01 4.397815e-01 3.890853e-01 6.560753e-02
<GCONST> 1.025388e+02
<TRANSP> 5
 0.000000e+00 1.000000e+00 0.000000e+00 0.000000e+00 0.000000e+00
 0.000000e+00 8.051174e-01 1.948827e-01 0.000000e+00 0.000000e+00
 0.000000e+00 0.000000e+00 8.433660e-01 1.566340e-01 0.000000e+00
 0.000000e+00 0.000000e+00 0.000000e+00 6.767382e-01 3.232618e-01
 0.000000e+00 0.000000e+00 0.000000e+00 0.000000e+00 0.000000e+00
<ENDHMM>
~h "ay"
<BEGINHMM>
<NUMSTATES> 5
<STATE> 2
<MEAN> 39
 1.858881e-01 3.881620e+00 -3.625126e+00 3.837585e-01 -3.966044e-01 9.196550e-01 -1.343223e+00 2.052310e+00 9.395161e-01 -2.069592e+00 -3.744600e+00 -4.283865e+00 6.396027e+01 7.218060e-01 -2.924561e-01 -6.383615e-01 -3.436764e-01 5.705514e-02 4.948428e-01 -1.560955e-01 2.550271e-01 2.565348e-01 -3.175821e-01 -1.085004e-01 -2.371672e-01 6.637303e-01 -1.083253e-01 -9.619552e-02 8.056774e-02 1.909951e-02 5.545225e-02 -9.781860e-03 -6.225759e-02 -4.914404e-02 -2.547179e-02 -7.930250e-03 1.723304e-02 6.843180e-02 -5.598084e-02
<VARIANCE> 39
 2.727654e+01 2.798615e+01 4.519643e+01 4.054474e+01 4.928633e+01 5.440334e+01 5.052732e+01 5.730866e+01 7.008498e+01 4.905833e+01 5.841476e+01 4.287461e+01 3.624775e+01 2.472616e+00 2.637150e+00 2.918278e+00 3.539693e+00 3.157283e+00 3.438260e+00 2.842540e+00 3.729444e+00 3.686758e+00 2.949877e+00 3.383087e+00 2.877720e+00 2.590339e+00 4.303541e-01 5.467688e-01 4.439767e-01 6.957490e-01 5.822529e-01 5.526752e-01 5.038035e-01 7.101848e-01 6.017859e-01 5.229418e-01 5.918899e-01 5.155149e-01 4.119151e-01
<GCONST> 1.278087e+02
<STATE> 3
<MEAN> 39
 3.635115e+00 3.055675e-01 -7.120889e+00 -4.384232e-02 2.722522e+00 6.150197e+00 -5.851939e+00 2.776563e+00 1.181427e+00 -5.058293e+00 -5.063282e+00 -4.592375e+00 6.856909e+01 -9.749907e-02 -2.674066e-01 3.222613e-01 4.098606e-01 -3.613636e-01 -3.958639e-01 2.038969e-02 3.335932e-01 2.892608e-01 -4.324139e-01 -3.294463e-01 9.129006e-02 1.032689e-01 -2.718946e-02 5.474830e-02 7.287052e-02 2.332081e-02 -7.438664e-02 -1.134211e-01 1.080044e-01 2.793615e-02 -2.958204e-02 4.811283e-03 5.321864e-02 3.965769e-02 -3.645212e-02
<VARIANCE> 39
 5.563688e+00 1.775185e+01 1.968658e+01 3.116252e+01 3.353810e+01 3.825497e+01 3.198790e+01 4.937569e+01 7.081364e+01 5.011881e+01 4.679855e+01 3.376587e+01 1.092642e+01 1.994389e-01 3.532675e-01 6.267670e-01 8.626304e-01 1.126596e+00 1.340145e+00 1.353129e+00 1.485666e+00 1.655767e+00 1.558557e+00 1.728741e+00 1.217055e+00 2.280237e-01 3.302891e-02 5.107198e-02 7.761148e-02 1.074057e-01 1.228644e-01 1.526435e-01 1.904874e-01 1.987957e-01 2.230560e-01 2.119828e-01 2.417808e-01 1.814833e-01 2.427137e-02
<GCONST> 8.487952e+01
<STATE> 4
<MEAN> 39
 7.764315e-01 2.422440e+00 3.305763e+00 4.835766e+00 -9.251596e+00 -4.684323e+00 3.678881e+00 3.098003e+00 1.920238e+00 -7.378272e+00 -7.103779e-01 -9.648017e-01 6.755220e+01 -1.297327e-01 3.878224e-01 6.950073e-01 1.197389e-01 -4.199436e-01 -2.500478e-01 3.393521e-01 -2.498813e-01 -4.584416e-01 3.877596e-01 6.456900e-01 6.018687e-02 -3.176130e-01 -5.084998e-03 6.260601e-02 -2.634675e-02 -2.253981e-02 1.501171e-01 7.635395e-02 -1.077681e-01 -6.744540e-02 -7.105120e-03 7.738987e-02 -1.596725e-02 -4.748419e-02 -6.942563e-02
<VARIANCE> 39
 8.188715e+00 2.328537e+01 4.276572e+01 1.615022e+01 3.179063e+01 5.115504e+01 6.213284e+01 6.977122e+01 6.324024e+01 3.898765e+01 5.376640e+01 3.036077e+01 1.250091e+01 2.373849e-01 3.969788e-01 7.603508e-01 7.439417e-01 1.275780e+00 1.481472e+00 1.725255e+00 1.847609e+00 1.635394e+00 1.471176e+00 1.790175e+00 1.455214e+00 2.685228e-01 4.141487e-02 6.452654e-02 8.407584e-02 1.162664e-01 1.992377e-01 2.531507e-01 2.362155e-01 2.924441e-01 2.523091e-01 2.314585e-01 2.818357e-01 2.284694e-01 3.744374e-02
<GCONST> 9.127216e+01
<TRANSP> 5
 0.000000e+00 1.000000e+00 0.000000e+00 0.000000e+00 0.000000e+00
 0.000000e+00 8.636301e-01 1.363699e-01 0.000000e+00 0.000000e+00
 0.000000e+00 0.000000e+00 9.166489e-01 8.335114e-02 0.000000e+00
 0.000000e+00 0.000000e+00 0.000000e+00 9.037836e-01 9.621637e-02
 0.000000e+00 0.000000e+00 0.000000e+00 0.000000e+00 0.000000e+00
<ENDHMM>
~h "ch"
<BEGINHMM>
<NUMSTATES> 5
<STATE> 2
<MEAN> 39
 -5.684313e+00 8.369084e+00 7.458115e+00 1.779076e+00 -4.484747e+00 -4.458379e+00 -3.904523e+00 -3.585337e-01 -4.584951e-01 -2.162642e+00 7.200441e-01 9.573182e-01 5.706662e+01 -6.102046e-01 3.579133e-02 -2.550767e-01 -6.029105e-01 6.332960e-01 4.322830e-01 -1.491603e-01 -1.038141e-01 7.452291e-02 -6.839249e-02 -1.328491e-01 -7.481791e-02 -6.267300e-01 -1.579999e-01 -1.683262e-01 3.680896e-02 -9.170949e-02 -2.185658e-02 1.362467e-01 -1.193377e-01 -5.639523e-02 5.466767e-02 -2.293224e-02 1.138613e-02 -5.988231e-02 2.420195e-01
<VARIANCE> 39
 3.097868e+01 2.038499e+01 3.987434e+01 3.262403e+01 3.431049e+01 3.678235e+01 6.593488e+01 4.180132e+01 3.673679e+01 3.587691e+01 2.859433e+01 2.337570e+01 3.014533e+01 2.655617e+00 1.840725e+00 3.163966e+00 3.636611e+00 3.804449e+00 3.354914e+00 3.798611e+00 3.507096e+00 2.605429e+00 2.553800e+00 2.289942e+00 2.023627e+00 1.704634e+00 5.604608e-01 3.298068e-01 6.521550e-01 7.572723e-01 7.301769e-01 6.857702e-01 7.190605e-01 6.833168e-01 5.355926e-01 4.741020e-01 4.369114e-01 3.502955e-01 3.111484e-01
<GCONST> 1.223694e+02
<STATE> 3
<MEAN> 39
 -1.707947e+01 3.629106e+00 7.266903e+00 -5.568871e+00 -1.724923e+00 2.667856e+00 -6.570848e+00 -1.328877e+00 3.119632e-01 -2.435251e+00 7.117220e-01 -4.377337e-01 6.116891e+01 -2.673326e+00 -2.295202e-01 6.069258e-01 -1.240257e+00 -5.521314e-01 1.161039e+00 -1.154794e-01 -1.273640e-01 1.490133e-01 -7.492275e-03 2.526605e-01 -1.809018e-01 1.880732e+00 7.184498e-02 2.697975e-01 -9.407648e-02 2.942801e-01 -2.615917e-01 -2.822613e-01 4.024329e-01 -1.192457e-02 -1.229784e-01 6.751488e-02 -7.228715e-02 3.030426e-02 -9.088318e-02
<VARIANCE> 39
 4.341389e+01 3.084617e+01 3.175023e+01 2.892837e+01 3.222800e+01 3.209044e+01 4.550336e+01 3.363237e+01 3.827819e+01 2.991372e+01 2.180879e+01 1.945497e+01 3.261049e+01 2.201063e+00 4.507687e+00 2.665770e+00 2.599375e+00 3.342864e+00 2.870998e+00 4.460863e+00 2.640606e+00 2.650141e+00 1.709779e+00 1.731160e+00 1.603644e+00 1.997618e+00 5.777462e-01 7.998760e-01 4.872296e-01 6.199172e-01 6.627682e-01 6.030208e-01 6.312514e-01 4.458957e-01 4.146879e-01 3.430657e-01 3.326961e-01 3.432406e-01 4.196494e-01
<GCONST> 1.195928e+02
<STATE> 4
<MEAN> 39
 -2.354124e+01 3.549487e+00 9.488772e+00 -3.546044e+00 -6.789818e+00 2.102554e+00 -1.410850e+00 -1.351666e+00 -1.751061e+00 -1.598385e+00 1.331035e+00 -8.335715e-01 6.588299e+01 8.372903e-01 -5.653782e-02 1.567680e-01 8.357959e-01 -1.369565e-01 -5.354815e-01 2.448387e-01 1.042712e-01 -2.128921e-01 1.930985e-02 -7.354588e-02 -1.207544e-01 -2.694592e-01 4.007392e-01 1.024430e-01 -2.563102e-02 1.301910e-01 1.014790e-01 -6.771898e-02 -1.412886e-01 2.881008e-02 4.537845e-02 6.821448e-03 1.736883e-02 -1.337595e-02 -1.311922e-01
<VARIANCE> 39
 2.243673e+01 1.853353e+01 2.699559e+01 3.087767e+01 4.397277e+01 3.726891e+01 5.085593e+01 3.809348e+01 4.014492e+01 3.354369e+01 2.811179e+01 2.169982e+01 1.215513e+01 2.740967e+00 1.751897e+00 1.775903e+00 2.152632e+00 2.581176e+00 2.491519e+00 3.169214e+00 3.406808e+00 2.542220e+00 3.119486e+00 2.567515e+00 2.281021e+00 1.060058e+00 2.765981e-01 3.133541e-01 3.219422e-01 3.954484e-01 4.663267e-01 4.869880e-01 5.487173e-01 6.570829e-01 4.891200e-01 6.189827e-01 5.524588e-01 5.001684e-01 1.538055e-01
<GCONST> 1.152052e+02
<TRANSP> 5
 0.000000e+00 1.000000e+00 0.000000e+00 0.000000e+00 0.000000e+00
 0.000000e+00 8.830035e-01 1.169966e-01 0.000000e+00 0.000000e+00
 0.000000e+00 0.000000e+00 8.187380e-01 1.812619e-01 0.000000e+00
 0.000000e+00 0.000000e+00 0.000000e+00 9.206333e-01 7.936669e-02
 0.000000e+00 0.000000e+00 0.000000e+00 0.000000e+00 0.000000e+00
<ENDHMM>
~h "dh"
<BEGINHMM>
<NUMSTATES> 5
<STATE> 2
<MEAN> 39
 -1.002854e+00 1.105335e+01 6.117668e+00 8.154987e+00 -1.905902e-01 -4.603867e+00 -1.353908e+00 -3.719458e+00 -2.439586e-01 4.043407e-01 -1.691246e+00 -1.970153e+00 5.669694e+01 -1.063637e-01 3.147957e-01 1.934020e-01 -6.131827e-02 5.802194e-01 4.041630e-01 2.139843e-01 5.382831e-02 -1.282785e-01 2.637385e-02 -1.687461e-01 1.034075e-01 -5.817519e-01 -7.258940e-02 -1.389958e-01 -9.577890e-02 -1.193557e-01 -1.008342e-01 -3.627949e-02 -7.324513e-03 5.911564e-02 5.939283e-04 -2.523770e-03 2.967811e-02 6.965807e-02 9.724502e-02
<VARIANCE> 39
 1.238787e+01 1.655202e+01 1.852254e+01 2.317614e+01 3.130709e+01 4.670347e+01 3.819383e+01 4.281318e+01 3.908069e+01 3.302715e+01 2.820753e+01 2.842997e+01 2.250323e+01 9.913507e-01 1.119752e+00 1.442138e+00 1.809946e+00 2.742181e+00 2.802639e+00 2.732611e+00 3.409706e+00 2.665911e+00 2.972763e+00 2.545761e+00 2.219608e+00 1.344322e+00 1.390439e-01 1.482316e-01 2.218318e-01 2.791686e-01 4.224680e-01 5.139699e-01 5.349319e-01 6.217124e-01 5.018801e-01 5.330981e-01 4.834056e-01 4.524012e-01 1.751412e-01
<GCONST> 1.102736e+02
<STATE> 3
<MEAN> 39
 -5.852038e+00 7.535717e+00 3.987529e+00 4.657682e+00 -6.825515e-01 -5.720175e+00 -1.294599e+00 -3.382868e-01 4.271186e-01 -8.241230e-01 -1.449503e+00 -8.808921e-02 5.779210e+01 -1.340553e-01 -4.190600e-01 -2.349412e-01 -1.272184e-01 -1.824217e-01 -2.214472e-01 5.247762e-02 1.993729e-01 1.118551e-01 -3.955880e-02 9.869057e-02 2.201430e-01 8.820046e-02 9.651850e-02 -4.346343e-03 -7.136869e-03 7.974724e-02 -9.158806e-02 6.170811e-03 -6.555403e-02 -2.357044e-02 -4.525289e-03 1.180887e-02 -2.891475e-03 -3.545541e-02 -4.546564e-02
<VARIANCE> 39
 3.367426e+01 3.567456e+01 2.339483e+01 2.929606e+01 3.693608e+01 4.734501e+01 5.065391e+01 4.111901e+01 4.069718e+01 3.280851e+01 2.653233e+01 2.137846e+01 2.920089e+01 2.987140e+00 1.399851e+00 1.803658e+00 2.015835e+00 3.133018e+00 3.860117e+00 3.334528e+00 3.719580e+00 3.786949e+00 2.766892e+00 2.231565e+00 2.118853e+00 2.094097e+00 5.699536e-01 2.588146e-01 3.599236e-01 3.704171e-01 5.593117e-01 5.508536e-01 5.914556e-01 6.966357e-01 6.478912e-01 4.920453e-01 4.672626e-01 3.321189e-01 3.250202e-01
<GCONST> 1.195694e+02
<STATE> 4
<MEAN> 39
 -6.945667e+00 4.629041e+00 4.949323e-01 2.352085e+00 -1.849019e+00 -4.514608e+00 -1.429882e+00 -2.384115e+00 -3.423504e-01 -1.443723e+00 -1.428203e+00 1.455478e+00 5.113192e+01 2.930458e-04 1.383476e-02 1.963980e-02 1.975739e-02 7.168981e-03 4.259023e-02 2.183517e-02 -2.862134e-02 8.168568e-03 2.760646e-02 -3.639458e-02 -1.004954e-02 -4.607440e-03 1.647002e-03 1.327676e-02 1.577201e-02 9.684087e-03 1.009756e-02 9.878891e-03 2.597661e-03 -8.414797e-03 -1.080903e-02 -1.369674e-03 -8.503927e-03 -1.699806e-02 1.419235e-02
<VARIANCE> 39
 3.797955e+00 1.172190e+01 1.326391e+01 1.739196e+01 2.010024e+01 2.602095e+01 2.323864e+01 2.676340e+01 2.689481e+01 2.815158e+01 2.639114e+01 2.178975e+01 3.518216e+00 3.365131e-01 6.224118e-01 1.104817e+00 1.384713e+00 1.827898e+00 2.369169e+00 2.181195e+00 2.400165e+00 2.592859e+00 2.529579e+00 2.658014e+00 2.082280e+00 9.461249e-02 6.955437e-02 1.240220e-01 2.272868e-01 2.772358e-01 3.728853e-01 4.700625e-01 4.271337e-01 4.778624e-01 5.239527e-01 5.057185e-01 5.382158e-01 4.139425e-01 2.190874e-02
<GCONST> 9.356715e+01
<TRANSP> 5
 0.000000e+00 1.000000e+00 0.000000e+00 0.000000e+00 0.000000e+00
 0.000000e+00 8.176906e-01 1.823095e-01 0.000000e+00 0.000000e+00
 0.000000e+00 0.000000e+00 6.698009e-01 3.301991e-01 0.000000e+00
 0.000000e+00 0.000000e+00 0.000000e+00 9.598535e-01 4.014644e-02
 0.000000e+00 0.000000e+00 0.000000e+00 0.000000e+00 0.000000e+00
<ENDHMM>
~h "dx"
<BEGINHMM>
<NUMSTATES> 5
<STATE> 2
<MEAN> 39
 -5.039791e+00 5.182231e+00 2.728743e+00 3.460041e+00 -2.763413e+00 -3.102599e+00 -1.621448e+00 -1.001449e+00 -1.465009e+00 -1.718117e-01 -4.143542e-01 -7.838874e-01 5.728345e+01 -3.069172e-04 -1.229584e-04 1.676911e-04 4.427330e-04 -7.723484e-05 -1.254952e-04 1.384274e-03 -5.965931e-04 -8.064950e-04 1.302634e-04 2.016021e-05 -6.641102e-04 -4.424106e-04 -3.279690e-05 1.287882e-04 -4.372475e-05 -2.521869e-04 -1.324795e-04 9.984825e-06 -6.734209e-05 3.129643e-05 5.655891e-04 1.135570e-04 -1.524381e-04 6.970180e-05 -2.208786e-04
<VARIANCE> 39
 7.511302e+01 3.176980e+01 4.933099e+01 4.342792e+01 5.612370e+01 5.721409e+01 4.854732e+01 5.180255e+01 4.520740e+01 4.441997e+01 3.916885e+01 3.258707e+01 1.870390e+02 1.427630e+00 1.314636e+00 1.443937e+00 1.965726e+00 2.426751e+00 2.540307e+00 2.353026e+00 2.664735e+00 2.397733e+00 2.564335e+00 2.306235e+00 1.956253e+00 1.593098e+00 1.919458e-01 2.298697e-01 2.440808e-01 3.528875e-01 4.183310e-01 4.509604e-01 4.301300e-01 4.753851e-01 4.365360e-01 4.593079e-01 4.178236e-01 3.601703e-01 2.372379e-01
<GCONST> 1.183655e+02
<STATE> 3
<MEAN> 39
 -5.039791e+00 5.182231e+00 2.728743e+00 3.460041e+00 -2.763413e+00 -3.102599e+00 -1.621448e+00 -1.001449e+00 -1.465009e+00 -1.718117e-01 -4.143542e-01 -7.838874e-01 5.728345e+01 -3.069172e-04 -1.229584e-04 1.676911e-04 4.427330e-04 -7.723484e-05 -1.254952e-04 1.384274e-03 -5.965931e-04 -8.064950e-04 1.302634e-04 2.016021e-05 -6.641102e-04 -4.424106e-04 -3.279690e-05 1.287882e-04 -4.372475e-05 -2.521869e-04 -1.324795e-04 9.984825e-06 -6.734209e-05 3.129643e-05 5.655891e-04 1.135570e-04 -1.524381e-04 6.970180e-05 -2.208786e-04
<VARIANCE> 39
