~o
<STREAMINFO> 1 39
<VECSIZE> 39<NULLD><MFCC_D_A_0><DIAGC>
~s "silst2"
<NUMMIXES> 2
<MIXTURE> 1 1.243011e-01
<MEAN> 39
 -7.772116e+00 4.338916e+00 1.259955e+00 1.791265e+00 -1.670854e+00 -4.876146e+00 -2.771721e+00 -9.319917e-01 -8.584372e-01 -3.613631e-01 -5.236789e-01 9.023591e-01 5.335244e+01 1.259254e-02 -6.526211e-02 -2.518773e-01 7.469000e-02 1.280738e-01 1.744682e-01 1.028682e-01 -1.619659e-02 2.359408e-03 -1.418658e-01 3.983229e-02 1.027543e-01 -2.994682e-01 -1.412087e-02 -4.589714e-02 4.410501e-02 3.762310e-02 1.767360e-02 4.371131e-02 9.432252e-02 -2.489611e-02 -4.996383e-02 -6.374911e-02 -1.000471e-01 -6.342881e-02 -6.421262e-02
<VARIANCE> 39
 1.749043e+01 2.369549e+01 2.418104e+01 3.056715e+01 2.783965e+01 3.563602e+01 3.875283e+01 4.186277e+01 3.576456e+01 3.575432e+01 3.005004e+01 2.272273e+01 1.683008e+01 1.349468e+00 1.754545e+00 1.992579e+00 2.543384e+00 2.667766e+00 3.117279e+00 3.541403e+00 3.431492e+00 3.168952e+00 3.456409e+00 2.757070e+00 2.343580e+00 1.159754e+00 2.964292e-01 3.346052e-01 3.567643e-01 4.954014e-01 4.499459e-01 6.006315e-01 6.529455e-01 6.925657e-01 6.123745e-01 6.066164e-01 5.247984e-01 4.320328e-01 4.713460e-01
<GCONST> 1.172401e+02
<MIXTURE> 2 8.757033e-01
<MEAN> 39
 -1.955903e+01 -4.413499e-02 -1.493094e+00 2.122938e+00 4.489792e-01 1.420799e+00 -5.261957e-03 4.775084e-01 -3.535150e-01 7.826334e-02 -3.210474e-01 1.313827e-01 1.478011e+01 -1.907337e-03 -1.095224e-03 4.527145e-03 8.827051e-03 -4.211566e-03 -4.463612e-04 1.226849e-02 -1.015723e-02 -1.320912e-02 4.600805e-03 -4.050167e-04 -1.565160e-03 -6.928366e-04 1.351651e-03 1.987867e-03 -3.094029e-03 -2.538832e-03 -1.970176e-03 3.349246e-03 2.019798e-03 3.832288e-04 1.631742e-03 -1.671295e-03 -1.293370e-03 2.396586e-03 4.105760e-04
<VARIANCE> 39
 7.511302e-01 2.337174e+00 5.012942e+00 7.433555e+00 9.351418e+00 1.147219e+01 1.347218e+01 1.484270e+01 1.514078e+01 1.499665e+01 1.458974e+01 1.275526e+01 1.870390e+00 7.078086e-02 2.469705e-01 5.317499e-01 8.013304e-01 1.012261e+00 1.204156e+00 1.442599e+00 1.624707e+00 1.615323e+00 1.604237e+00 1.560136e+00 1.337617e+00 4.343580e-02 1.438370e-02 4.978074e-02 1.055926e-01 1.618590e-01 2.034323e-01 2.382817e-01 2.916943e-01 3.266984e-01 3.265352e-01 3.171486e-01 3.123574e-01 2.645867e-01 8.883477e-03
<GCONST> 6.563776e+01
~s "silst3"
<MEAN> 39
 -1.306716e+01 1.509984e+00 -1.090116e+00 1.307266e+00 -1.064800e+00 -1.455103e+00 -1.018389e+00 -8.125030e-01 -5.401296e-01 -6.446987e-01 -5.772863e-01 4.538140e-01 3.503587e+01 1.238678e-02 -7.689370e-02 -6.551273e-02 3.562931e-02 -3.409748e-02 -1.027062e-01 -8.566408e-02 1.156394e-01 -3.237514e-02 -1.370662e-01 -7.618715e-03 -4.901721e-02 -4.351521e-02 3.796789e-02 7.895660e-02 7.140119e-02 6.180792e-02 3.452192e-02 -3.732346e-02 -3.139898e-03 -5.482856e-03 4.196128e-02 -5.814926e-04 -1.657244e-02 -2.433914e-03 2.703570e-02
<VARIANCE> 39
 3.985843e+01 1.185202e+01 1.374033e+01 1.568471e+01 1.690338e+01 2.953663e+01 2.324682e+01 2.595604e+01 2.117302e+01 2.290781e+01 1.875111e+01 1.479116e+01 3.489989e+02 5.717896e+00 1.420725e+00 1.611193e+00 1.699335e+00 1.883165e+00 3.684948e+00 2.497870e+00 2.782756e+00 2.239299e+00 2.426094e+00 1.868303e+00 1.599707e+00 4.594902e+01 7.873435e-01 2.005160e-01 2.910745e-01 3.205935e-01 3.605436e-01 6.254489e-01 4.849259e-01 5.182747e-01 4.237931e-01 4.857386e-01 3.815971e-01 3.208442e-01 6.218626e+00
<GCONST> 1.181399e+02
~s "silst4"
<NUMMIXES> 2
<MIXTURE> 1 8.488259e-01
<MEAN> 39
 -6.983583e+00 4.420775e+00 2.633495e-01 1.640529e+00 -2.057957e+00 -4.657382e+00 -1.941264e+00 -2.231772e+00 -1.490527e-01 -6.411302e-01 -6.502872e-01 1.172167e+00 5.104993e+01 -3.959044e-03 7.474732e-03 -6.497637e-03 1.214474e-02 -4.549494e-03 2.339613e-02 2.555056e-02 -1.909934e-02 1.504928e-02 5.355899e-03 -1.140254e-02 -1.209634e-03 -2.031215e-02 -1.030080e-02 8.537409e-03 3.715591e-02 5.238495e-02 7.274452e-02 7.392631e-02 4.792474e-02 8.054820e-03 -4.711426e-02 -6.721612e-02 -6.674257e-02 -4.182845e-02 1.410214e-02
<VARIANCE> 39
 3.210933e+00 9.820488e+00 1.138036e+01 1.545376e+01 1.829964e+01 2.387456e+01 2.485451e+01 2.679997e+01 2.778792e+01 2.600619e+01 2.355453e+01 2.188161e+01 2.440580e+00 2.897906e-01 6.134128e-01 1.035416e+00 1.469616e+00 1.918841e+00 2.307705e+00 2.374993e+00 2.480832e+00 2.538847e+00 2.595298e+00 2.454748e+00 2.140846e+00 8.954924e-02 5.690568e-02 1.206907e-01 2.068576e-01 2.771397e-01 3.592657e-01 4.280006e-01 4.603632e-01 4.931847e-01 4.960896e-01 4.865646e-01 4.628659e-01 4.218827e-01 1.744840e-02
<GCONST> 9.138696e+01
<MIXTURE> 2 1.511416e-01
<MEAN> 39
 -8.226191e+00 3.203506e+00 1.176454e+00 4.631878e+00 1.925927e+00 -9.965411e-01 7.311332e-01 -9.062935e-01 -2.935723e+00 -4.917253e+00 -3.998968e+00 -5.497910e-01 4.993829e+01 -2.384224e-02 -4.122705e-03 -3.652636e-02 -2.131202e-02 -6.934327e-02 3.483035e-02 -3.007605e-02 -8.444791e-02 4.683769e-02 -9.439243e-03 1.997896e-02 -1.895935e-02 -4.394652e-02 4.312640e-02 -2.789448e-02 -1.230048e-01 -3.083056e-01 -4.401897e-01 -4.290529e-01 -2.863506e-01 -2.994333e-02 2.783920e-01 4.443153e-01 3.985758e-01 2.214507e-01 6.693634e-02
<VARIANCE> 39
 1.586808e+01 1.895284e+01 1.653742e+01 1.991724e+01 2.068905e+01 2.820218e+01 2.974101e+01 3.368999e+01 3.184716e+01 3.156466e+01 2.721668e+01 2.279799e+01 8.621875e+01 4.148143e-01 7.308495e-01 1.032243e+00 1.481042e+00 1.837112e+00 2.302519e+00 2.579582e+00 2.531231e+00 2.730415e+00 2.782988e+00 2.489337e+00 2.150941e+00 1.839589e-01 1.150514e-01 1.719048e-01 2.158117e-01 3.011498e-01 3.536846e-01 4.436868e-01 5.257030e-01 5.466315e-01 5.275651e-01 5.580733e-01 4.829122e-01 4.210032e-01 1.028321e-01
<GCONST> 1.039761e+02
~h "b"
<BEGINHMM>
<NUMSTATES> 5
<STATE> 2
<NUMMIXES> 2
<MIXTURE> 1 3.448569e-01
<MEAN> 39
 4.293880e+00 4.035116e+00 9.511982e-01 6.338077e+00 -2.888138e+00 -6.376258e+00 -4.697414e+00 -6.723302e-01 4.063289e-02 5.394001e-01 3.870338e+00 -2.167497e+00 6.318939e+01 -2.712321e-02 1.474754e+00 2.741267e-01 2.029442e-01 2.386983e+00 9.878903e-01 5.999278e-01 -7.288993e-01 -5.149075e-01 8.657832e-01 -4.087494e-02 -2.829789e-01 -2.164440e+00 -3.287564e-01 2.895682e-01 4.722006e-01 9.630930e-02 -1.153183e-02 3.559671e-01 4.443566e-01 -1.214337e-01 -1.840211e-01 -1.044412e-01 -4.718628e-01 -7.123272e-02 -1.226725e-01
<VARIANCE> 39
 6.763712e+00 1.768006e+01 3.290331e+01 2.999866e+01 4.788440e+01 4.608286e+01 4.039575e+01 3.850098e+01 3.459417e+01 3.911338e+01 3.008138e+01 3.167209e+01 1.651762e+01 7.993248e-01 1.126887e+00 2.688619e+00 1.853825e+00 3.550268e+00 3.227988e+00 3.967050e+00 4.299039e+00 3.140712e+00 2.101190e+00 3.810744e+00 1.967326e+00 5.527744e-01 4.525165e-02 1.262174e-01 1.861649e-01 4.041775e-01 5.318418e-01 5.211023e-01 4.680408e-01 4.963884e-01 3.641321e-01 5.425245e-01 5.126854e-01 3.260371e-01 1.451171e-01
<GCONST> 1.095283e+02
<MIXTURE> 2 6.551432e-01
<MEAN> 39
 -1.052148e+00 9.679479e+00 5.652597e+00 8.465860e+00 2.536862e+00 -2.230120e+00 1.665137e-01 -2.957519e+00 -1.863333e+00 2.752238e-01 -2.137635e+00 -1.876311e+00 5.509090e+01 -4.658819e-03 8.810357e-01 1.047936e+00 7.286286e-01 5.615994e-01 2.936915e-01 2.687597e-01 -3.154941e-01 -3.917665e-01 -4.476202e-02 -7.005606e-01 -3.544279e-01 -4.445769e-01 2.594833e-02 -2.681962e-01 -1.864931e-01 -1.191395e-01 -3.136961e-01 -1.794131e-01 -1.941663e-01 7.699752e-02 1.131387e-01 -9.580850e-03 1.384710e-01 -1.273148e-02 2.680830e-01
<VARIANCE> 39
 2.119806e+01 1.684431e+01 2.390330e+01 3.089352e+01 2.424822e+01 2.266467e+01 2.720011e+01 2.938531e+01 4.451620e+01 3.226664e+01 3.664896e+01 2.878286e+01 7.999106e+00 1.097680e+00 2.219017e+00 1.953745e+00 2.311384e+00 2.232688e+00 2.819702e+00 2.710274e+00 2.635336e+00 2.677015e+00 3.091623e+00 3.449387e+00 2.006844e+00 1.071174e+00 1.064520e-01 4.292657e-01 3.539911e-01 4.241352e-01 4.423292e-01 5.154067e-01 4.742802e-01 6.460284e-01 4.910187e-01 5.399723e-01 7.418725e-01 4.415382e-01 1.302467e-01
<GCONST> 1.116584e+02
<STATE> 3
<MEAN> 39
 3.227387e-01 1.179864e+01 7.546736e+00 8.619228e+00 2.433177e+00 -1.434628e+00 5.497317e-01 -2.747277e+00 -1.609572e+00 -2.505455e-01 -2.076637e+00 -1.928217e+00 5.441842e+01 -2.351231e-01 -1.220536e-02 7.078947e-03 -1.015479e-01 8.671649e-02 1.225269e-01 1.178258e-01 2.050576e-01 1.539697e-01 -1.079282e-01 -5.652347e-02 1.340122e-01 -2.373241e-01 -3.985700e-02 -1.056153e-01 -7.667614e-02 -6.137021e-02 -3.509470e-02 -2.407103e-02 -3.380451e-02 3.841358e-04 2.389347e-02 2.615499e-02 5.215685e-02 1.916349e-02 6.006123e-02
<VARIANCE> 39
 5.726788e+00 6.322618e+00 1.124334e+01 1.884264e+01 1.819815e+01 2.450497e+01 2.446715e+01 2.737733e+01 3.295883e+01 2.879549e+01 2.143808e+01 2.106915e+01 4.177803e+00 2.079374e-01 4.226190e-01 6.974823e-01 1.216222e+00 1.463538e+00 1.523759e+00 1.822406e+00 1.769400e+00 2.022008e+00 1.938549e+00 1.946884e+00 1.789780e+00 9.490792e-02 3.855691e-02 8.603642e-02 1.568994e-01 2.561813e-01 2.749228e-01 3.120708e-01 3.531760e-01 3.135518e-01 3.806987e-01 3.872959e-01 3.869171e-01 3.536632e-01 3.552745e-02
<GCONST> 8.644419e+01
<STATE> 4
<NUMMIXES> 2
<MIXTURE> 1 4.827924e-01
<MEAN> 39
 -4.381729e+00 7.489714e+00 5.552474e+00 5.816197e+00 2.734216e+00 -6.402634e-01 4.849337e-01 -1.905686e+00 -4.076898e-01 3.021002e-01 -1.982997e+00 -1.528755e+00 5.465670e+01 -7.195849e-01 -1.567206e+00 -7.177906e-01 -8.554072e-01 -8.568780e-01 -3.202534e-01 -6.520287e-01 3.423518e-01 1.807194e-01 2.305713e-01 4.183930e-01 -7.901175e-02 2.064551e+00 2.583998e-01 -6.433951e-02 -2.224453e-01 -1.252888e-01 -4.217021e-01 -2.306597e-01 -2.947682e-01 1.210827e-01 8.844629e-02 3.864923e-02 2.410102e-01 -6.322090e-03 4.611070e-01
<VARIANCE> 39
 1.702301e+01 2.712793e+01 2.054981e+01 2.031267e+01 2.309428e+01 2.019764e+01 2.458541e+01 2.905919e+01 2.928732e+01 3.335265e+01 2.129089e+01 1.558086e+01 1.870267e+01 1.751787e+00 2.787667e+00 2.743067e+00 2.350099e+00 2.854536e+00 3.130726e+00 3.842295e+00 3.386856e+00 3.678804e+00 3.468089e+00 2.643326e+00 2.301023e+00 3.101357e+00 3.728011e-01 6.756727e-01 4.161239e-01 4.063742e-01 6.641871e-01 5.329812e-01 5.666134e-01 5.678014e-01 7.293997e-01 6.216626e-01 4.895644e-01 3.949523e-01 5.218114e-01
<GCONST> 1.174562e+02
<MIXTURE> 2 5.172073e-01
<MEAN> 39
 -5.666696e+00 6.906509e+00 3.172014e+00 2.407835e+00 7.392535e-01 -3.408355e+00 -1.196296e+00 -8.946041e-01 3.439016e-01 1.127497e+00 5.006295e-01 2.130934e-02 5.206823e+01 -1.969440e-01 -2.359330e-01 -2.124978e-01 -2.103753e-01 9.012651e-03 -4.341708e-02 -1.960116e-01 -8.167191e-02 4.091157e-02 -3.614101e-02 1.024297e-02 7.490721e-02 -9.910396e-02 -1.385901e-02 -4.366694e-02 5.256524e-02 5.643704e-02 2.098115e-02 7.270119e-02 5.987663e-02 -2.134201e-02 -2.451468e-02 -4.780118e-02 -1.238186e-01 -6.744082e-02 1.861299e-01
<VARIANCE> 39
 6.638731e+00 8.665353e+00 1.117344e+01 1.824150e+01 2.645596e+01 2.968349e+01 3.477160e+01 3.145152e+01 3.119726e+01 1.992023e+01 2.515475e+01 2.465959e+01 2.723747e+00 3.981000e-01 8.017966e-01 1.100429e+00 1.691538e+00 2.225091e+00 2.062268e+00 2.374884e+00 2.234221e+00 2.044493e+00 1.619156e+00 2.263272e+00 2.003891e+00 1.257427e-01 9.109094e-02 2.087097e-01 2.154489e-01 3.165222e-01 4.337679e-01 4.334480e-01 5.367306e-01 5.137885e-01 4.213397e-01 3.076066e-01 4.139454e-01 4.277041e-01 1.270474e-01
<GCONST> 9.643626e+01
<TRANSP> 5
 0.000000e+00 1.000000e+00 0.000000e+00 0.000000e+00 0.000000e+00
 0.000000e+00 7.631506e-01 2.368495e-01 0.000000e+00 0.000000e+00
 0.000000e+00 0.000000e+00 8.952780e-01 1.047220e-01 0.000000e+00
 0.000000e+00 0.000000e+00 0.000000e+00 8.673863e-01 1.326137e-01
 0.000000e+00 0.000000e+00 0.000000e+00 0.000000e+00 0.000000e+00
<ENDHMM>
~h "d"
<BEGINHMM>
<NUMSTATES> 5
<STATE> 2
<NUMMIXES> 2
<MIXTURE> 1 3.195124e-01
<MEAN> 39
 -1.387329e+00 6.647928e+00 9.361185e+00 6.322897e+00 -6.337689e+00 -6.859042e+00 -2.311925e+00 7.554397e-01 -1.639305e+00 -2.102670e+00 1.421309e+00 9.720279e-01 6.155112e+01 -6.084894e-02 1.119282e+00 -2.165914e-02 3.140603e-01 1.635683e+00 6.301302e-01 3.715662e-01 -2.283732e-01 4.718426e-02 1.520792e-01 -6.424060e-01 -1.761228e-01 -1.794903e+00 1.049795e-01 1.508611e-01 -2.861675e-01 7.733714e-02 1.729169e-01 1.454803e-01 4.740052e-02 -2.127463e-01 4.803480e-02 8.731779e-02 -6.466982e-02 -1.151220e-01 -1.232194e-01
<VARIANCE> 39
 1.846346e+01 2.510714e+01 3.559339e+01 3.360616e+01 5.590131e+01 4.337241e+01 5.011311e+01 4.425735e+01 5.260736e+01 3.858259e+01 4.024331e+01 2.888221e+01 3.092330e+01 1.036778e+00 2.019807e+00 2.399095e+00 2.414473e+00 4.360486e+00 4.259171e+00 4.215298e+00 4.952818e+00 3.841136e+00 3.343040e+00 3.335232e+00 2.633063e+00 1.669265e+00 1.826656e-01 4.015186e-01 3.398201e-01 4.793409e-01 8.282837e-01 7.678905e-01 7.700845e-01 7.246321e-01 6.468447e-01 6.201448e-01 5.910684e-01 4.355707e-01 3.381119e-01
<GCONST> 1.233819e+02
<MIXTURE> 2 6.804872e-01
<MEAN> 39
 -1.319366e+00 1.126993e+01 7.156482e+00 7.443452e+00 5.305831e-01 -3.147591e+00 -6.716569e-01 -1.920046e+00 -8.349367e-01 -4.582096e-01 -1.827988e+00 -6.081101e-01 5.419978e+01 -3.295617e-01 -1.314360e-01 -2.993651e-01 -2.591775e-01 2.123926e-01 1.874544e-01 -2.736172e-02 -5.945639e-02 8.408692e-02 -1.132639e-01 -8.918318e-02 9.982282e-02 -3.632526e-01 -1.452828e-01 -3.233775e-01 -4.798577e-03 -1.894813e-01 -1.946398e-01 -3.609799e-02 -4.813382e-02 5.304752e-02 -6.024999e-02 -2.435922e-02 1.114722e-01 3.957227e-02 3.098335e-01
<VARIANCE> 39
 8.710250e+00 9.429715e+00 1.265453e+01 1.974321e+01 2.220205e+01 2.576036e+01 2.916686e+01 2.985781e+01 3.136838e+01 3.144864e+01 2.210873e+01 2.288815e+01 5.190700e+00 5.011982e-01 7.760783e-01 9.930689e-01 1.468447e+00 1.858695e+00 1.995672e+00 2.240910e+00 2.716473e+00 2.434457e+00 2.636364e+00 2.164735e+00 1.879546e+00 3.184270e-01 1.109768e-01 2.204980e-01 2.224521e-01 3.358155e-01 3.923441e-01 4.621562e-01 4.821786e-01 5.544734e-01 4.790429e-01 4.815365e-01 4.355318e-01 3.634452e-01 1.683717e-01
<GCONST> 9.973788e+01
<STATE> 3
<MEAN> 39
 -3.883671e+00 8.188893e+00 4.908805e+00 5.481174e+00 7.413133e-01 -2.857759e+00 -1.391747e+00 -2.711725e+00 -1.502223e+00 -8.980701e-01 -1.293634e+00 -1.416131e-01 5.406410e+01 -1.497774e+00 -2.272516e+00 -3.300017e-01 -1.799367e+00 -2.631440e-01 3.520196e-01 -5.674496e-02 6.245955e-01 -1.164979e-01 9.707224e-02 4.237768e-01 2.617325e-01 2.284003e+00 -3.034321e-01 -2.064859e-01 2.047012e-01 -2.096825e-01 -4.053597e-01 -2.520030e-01 -9.806397e-03 1.012110e-01 -8.750948e-02 1.415052e-01 6.025208e-02 -5.454232e-03 7.937934e-01
<VARIANCE> 39
 1.455591e+01 2.212020e+01 2.513134e+01 2.823279e+01 2.448293e+01 3.124282e+01 3.123034e+01 3.388865e+01 2.809132e+01 2.911395e+01 2.597382e+01 2.483584e+01 1.041321e+01 2.119286e+00 3.953886e+00 3.138266e+00 4.452609e+00 3.448334e+00 3.642797e+00 3.445131e+00 4.160289e+00 3.022164e+00 3.545153e+00 2.565877e+00 2.366750e+00 4.770247e+00 2.969485e-01 6.144873e-01 4.433507e-01 5.999035e-01 6.485491e-01 5.839362e-01 6.672428e-01 7.989825e-01 6.348295e-01 5.861278e-01 5.396728e-01 4.107727e-01 4.547980e-01
<GCONST> 1.209250e+02
<STATE> 4
<NUMMIXES> 2
<MIXTURE> 1 4.883511e-01
<MEAN> 39
 -1.260204e+01 -2.069804e+00 5.370488e+00 -3.493571e+00 -1.914998e+00 -2.642031e+00 -1.701228e+00 3.980700e-01 -2.217887e+00 1.621360e-01 1.122984e-01 6.157733e-01 6.835988e+01 -1.214720e+00 5.248954e-02 1.172141e+00 -1.224389e-01 -1.316104e+00 -1.103856e+00 1.127881e-01 5.907255e-01 -4.105526e-01 1.324699e-01 2.357508e-01 -5.384519e-02 1.875092e+00 1.091248e+00 1.303444e+00 2.433671e-01 1.327439e+00 -1.549776e-01 -2.607076e-01 -9.743193e-02 -2.943532e-01 5.777941e-02 -2.204003e-01 -8.301648e-02 -7.848763e-02 -1.391163e+00
<VARIANCE> 39
 2.568930e+01 4.462845e+01 4.541351e+01 5.494226e+01 4.303837e+01 4.537815e+01 5.265113e+01 3.716857e+01 3.670207e+01 2.931463e+01 2.544705e+01 1.891966e+01 2.057266e+01 3.639510e+00 4.880092e+00 3.104475e+00 6.138602e+00 5.051551e+00 4.231928e+00 4.596094e+00 5.144680e+00 3.992878e+00 3.600989e+00 3.398691e+00 2.592672e+00 5.784685e+00 5.867993e-01 5.542099e-01 7.860154e-01 9.890428e-01 1.135500e+00 1.008766e+00 8.618538e-01 8.096709e-01 6.446586e-01 6.322912e-01 5.409611e-01 4.713009e-01 4.096016e-01
<GCONST> 1.317730e+02
<MIXTURE> 2 5.116491e-01
<MEAN> 39
 -7.360895e+00 5.048803e+00 7.234125e+00 3.748839e+00 -5.425835e+00 -7.202386e+00 -3.502839e+00 -5.449456e-01 -2.141319e+00 -5.484280e-01 1.628599e-01 2.756840e-01 5.992496e+01 9.740966e-01 9.286016e-01 -1.815144e-01 8.104628e-01 -3.039315e-01 -2.391148e-01 -2.433873e-01 -3.605613e-01 2.679005e-01 -1.892863e-01 9.966191e-02 5.499653e-02 -1.157689e+00 1.945043e-01 -9.724625e-02 -2.516656e-01 -5.015352e-02 1.733524e-01 3.258384e-01 6.233027e-02 -1.207237e-01 9.700070e-02 -2.555795e-02 -2.413926e-02 -4.677035e-02 -2.761934e-02
<VARIANCE> 39
 4.090686e+01 2.612085e+01 2.643836e+01 3.311026e+01 6.624081e+01 6.150055e+01 5.554092e+01 5.065347e+01 4.796218e+01 4.490780e+01 4.480452e+01 3.632770e+01 2.879114e+01 3.021812e+00 2.835248e+00 2.970502e+00 5.189003e+00 6.389394e+00 6.718067e+00 3.519025e+00 3.663118e+00 3.186216e+00 3.519654e+00 3.260494e+00 2.836925e+00 2.699329e+00 6.014249e-01 4.295201e-01 5.026891e-01 7.143788e-01 1.066264e+00 1.243633e+00 7.997039e-01 7.369584e-01 6.766946e-01 6.790470e-01 6.886974e-01 5.975125e-01 5.255153e-01
<GCONST> 1.320112e+02
<TRANSP> 5
 0.000000e+00 1.000000e+00 0.000000e+00 0.000000e+00 0.000000e+00
 0.000000e+00 8.634433e-01 1.365566e-01 0.000000e+00 0.000000e+00
 0.000000e+00 0.000000e+00 5.705531e-01 4.294468e-01 0.000000e+00
 0.000000e+00 0.000000e+00 0.000000e+00 7.310624e-01 2.689376e-01
 0.000000e+00 0.000000e+00 0.000000e+00 0.000000e+00 0.000000e+00
<ENDHMM>
~h "f"
<BEGINHMM>
<NUMSTATES> 5
<STATE> 2
<NUMMIXES> 2
<MIXTURE> 1 3.061259e-01
<MEAN> 39
 2.159978e+00 7.394380e+00 8.324253e-01 3.551590e+00 -1.544695e+00 -2.278353e+00 -2.389767e+00 -1.524906e+00 -1.490068e+00 3.128304e+00 3.798241e+00 6.251293e-01 6.159186e+01 -1.554475e+00 -2.015250e-01 1.110829e+00 4.316651e-01 1.628682e+00 7.741330e-01 5.050403e-01 4.450306e-01 5.521954e-01 -3.572226e-01 -8.979834e-01 -9.305031e-02 -7.093352e-01 -4.605221e-01 -2.157128e-01 3.317378e-02 4.953112e-02 -3.657664e-02 9.467112e-02 -1.652264e-02 -8.293479e-02 -3.660202e-02 -3.078310e-01 -3.214504e-01 -7.327899e-02 1.093143e-01
<VARIANCE> 39
 1.413981e+01 1.311561e+01 3.229158e+01 3.034231e+01 3.842872e+01 5.771548e+01 5.065315e+01 3.622671e+01 4.502050e+01 3.814689e+01 2.657985e+01 2.617257e+01 5.717854e+00 9.174725e-01 1.374170e+00 1.808701e+00 1.811302e+00 2.517509e+00 3.565931e+00 3.294623e+00 3.037366e+00 3.795060e+00 2.711084e+00 3.299537e+00 2.666717e+00 5.019678e-01 8.549349e-02 1.041871e-01 3.025059e-01 2.952336e-01 4.214073e-01 5.699065e-01 5.400916e-01 5.247285e-01 6.136954e-01 5.199279e-01 5.107735e-01 4.170564e-01 3.752909e-02
<GCONST> 1.086811e+02
<MIXTURE> 2 6.938743e-01
<MEAN> 39
 -8.455621e+00 4.856454e+00 3.962785e+00 4.721286e+00 1.170633e+00 -1.661304e+00 -1.387165e+00 -1.457283e+00 -1.299688e+00 -1.534232e+00 -1.863070e+00 -3.378667e-01 5.887909e+01 -1.544709e+00 -6.682169e-01 -5.506849e-01 -2.672232e-01 -4.347288e-01 -1.891530e-01 -4.719999e-01 -6.121382e-01 -5.230741e-03 -1.077661e-01 -2.145676e-01 7.782447e-02 1.382621e-01 8.833317e-02 -7.969816e-02 -2.241954e-01 -7.003212e-02 -2.375216e-01 -1.296121e-01 -8.349600e-02 3.226194e-04 -1.448354e-02 1.288796e-01 2.187303e-01 8.447548e-03 1.925170e-01
<VARIANCE> 39
 1.570211e+01 1.542810e+01 1.599445e+01 2.540445e+01 3.281984e+01 3.912948e+01 3.898982e+01 3.740811e+01 4.280667e+01 3.363581e+01 2.384298e+01 2.266297e+01 1.055058e+01 1.366843e+00 1.283438e+00 1.578271e+00 2.342885e+00 3.393764e+00 3.425131e+00 2.689164e+00 2.744894e+00 2.818295e+00 2.682241e+00 2.636317e+00 1.897193e+00 6.371730e-01 1.501159e-01 2.075000e-01 3.374456e-01 5.180969e-01 7.666331e-01 7.200736e-01 5.266454e-01 5.883334e-01 5.460685e-01 5.385872e-01 4.909985e-01 3.960001e-01 7.353788e-02
<GCONST> 1.105916e+02
<STATE> 3
<MEAN> 39
 -1.517700e+01 -3.680061e-01 4.843250e-01 3.315908e+00 -9.169489e-01 -1.648476e+00 -2.463701e+00 -1.717710e+00 -4.861467e-01 -9.053231e-01 -1.518126e+00 -5.552052e-02 6.164913e+01 -2.902882e-01 -3.758515e-01 -2.113729e-01 -1.051110e-01 4.046055e-02 1.145214e-01 8.154696e-02 1.045225e-01 1.335223e-01 9.720902e-03 5.765181e-03 -3.810937e-02 2.630731e-01 1.056667e-01 -8.064853e-03 9.281641e-04 -6.039708e-02 2.434837e-02 -4.375209e-03 3.595484e-02 4.549065e-02 3.602877e-02 2.559000e-02 7.007724e-03 8.702487e-03 -1.445993e-02
<VARIANCE> 39
 7.688869e+00 1.629814e+01 1.902574e+01 1.836105e+01 2.538260e+01 2.995613e+01 3.461530e+01 2.870014e+01 3.474094e+01 3.458198e+01 2.735971e+01 2.409565e+01 8.561542e+00 4.183934e-01 9.280867e-01 1.291552e+00 1.673478e+00 1.850387e+00 2.515648e+00 2.663990e+00 2.633513e+00 2.535219e+00 2.770220e+00 2.463184e+00 2.379704e+00 2.291055e-01 7.254457e-02 1.748666e-01 2.514528e-01 3.293496e-01 3.756255e-01 5.112181e-01 5.287076e-01 5.209950e-01 4.934583e-01 5.471211e-01 5.272337e-01 4.822378e-01 3.336306e-02
<GCONST> 1.013066e+02
<STATE> 4
<NUMMIXES> 2
<MIXTURE> 1 3.213961e-01
<MEAN> 39
 -7.442958e+00 -2.250133e+00 -3.725174e+00 -5.387421e-02 -1.764693e+00 -1.257628e+00 -1.233841e+00 1.312340e-01 7.555518e-01 2.117612e+00 -3.257916e-01 5.260744e-02 5.811347e+01 2.170582e+00 2.271896e+00 1.018082e+00 1.962034e+00 4.790929e-01 1.007154e+00 3.919046e-01 2.990948e-01 -6.924717e-01 -4.525545e-01 -1.735779e-01 -4.186773e-01 -6.848043e-01 4.222308e-01 5.791603e-01 2.837736e-01 1.943381e-01 -8.543381e-02 7.072388e-02 -5.435904e-02 4.037176e-02 -2.433749e-01 -3.179093e-01 4.328598e-02 -1.827296e-01 6.730028e-01
<VARIANCE> 39
 1.031938e+01 1.245627e+01 3.485102e+01 3.180394e+01 3.192073e+01 4.051733e+01 4.267898e+01 3.734150e+01 3.500196e+01 4.238112e+01 2.859765e+01 2.286801e+01 7.871908e+00 1.022026e+00 1.986815e+00 2.251086e+00 2.423800e+00 2.262102e+00 2.532570e+00 3.007983e+00 2.729066e+00 2.400840e+00 3.232682e+00 2.579605e+00 1.957020e+00 7.140065e-01 1.380395e-01 2.682134e-01 3.496649e-01 6.568951e-01 5.690662e-01 5.544567e-01 6.374655e-01 6.248199e-01 4.849623e-01 4.946175e-01 5.078936e-01 3.441627e-01 1.494367e-01
<GCONST> 1.116046e+02
<MIXTURE> 2 6.786037e-01
<MEAN> 39
 -1.365316e+01 -4.829185e+00 -3.595480e+00 -1.352339e+00 -6.881776e-01 -1.191960e+00 -1.474817e+00 3.335402e-02 1.207231e+00 8.046290e-01 -1.024473e+00 -3.738832e-01 6.341624e+01 1.116394e+00 -6.639419e-02 -3.000858e-01 -6.470757e-01 -5.027505e-01 -2.844616e-01 1.941961e-02 2.109641e-01 9.394795e-02 3.620504e-01 1.975268e-01 1.570340e-01 -6.091756e-01 2.727680e-01 3.551204e-01 1.813858e-01 2.991190e-01 -3.179310e-02 7.824931e-02 -9.058219e-04 -5.393744e-02 -1.410416e-01 -4.848228e-02 3.431129e-02 8.492147e-03 -2.371640e-01
<VARIANCE> 39
 1.443958e+01 1.413324e+01 2.617842e+01 2.886494e+01 2.822728e+01 3.385564e+01 3.869216e+01 2.883880e+01 3.263391e+01 3.366273e+01 2.640893e+01 2.489810e+01 8.053740e+00 6.233575e-01 1.082971e+00 1.584919e+00 2.246855e+00 2.446255e+00 2.549334e+00 2.869451e+00 2.422112e+00 2.705342e+00 2.611587e+00 2.499129e+00 2.167799e+00 5.720004e-01 1.247878e-01 2.264130e-01 2.870818e-01 5.171695e-01 5.095314e-01 5.518757e-01 5.942404e-01 4.400426e-01 4.739330e-01 5.435011e-01 4.609000e-01 4.084222e-01 7.483653e-02
<GCONST> 1.071091e+02
<TRANSP> 5
 0.000000e+00 1.000000e+00 0.000000e+00 0.000000e+00 0.000000e+00
 0.000000e+00 8.180258e-01 1.819742e-01 0.000000e+00 0.000000e+00
 0.000000e+00 0.000000e+00 9.191011e-01 8.089893e-02 0.000000e+00
 0.000000e+00 0.000000e+00 0.000000e+00 8.627887e-01 1.372113e-01
 0.000000e+00 0.000000e+00 0.000000e+00 0.000000e+00 0.000000e+00
<ENDHMM>
~h "g"
<BEGINHMM>
<NUMSTATES> 5
<STATE> 2
<NUMMIXES> 2
<MIXTURE> 1 2.426057e-01
<MEAN> 39
 -1.041882e+00 8.425002e+00 1.232220e+01 7.513225e+00 -7.751318e+00 -5.611144e+00 1.112393e+00 1.088651e+00 -9.491437e+00 1.347935e+00 7.954051e+00 -4.413517e+00 6.059338e+01 1.280449e-01 1.108615e+00 -2.964524e-01 1.602269e-01 2.416953e+00 1.256465e-01 3.505629e-01 -4.672638e-01 8.912492e-01 5.529641e-01 -1.319039e+00 1.129304e-01 -2.063942e+00 2.405060e-02 -9.683462e-02 -3.490535e-01 5.500798e-02 -2.194443e-01 2.735444e-02 -1.621352e-01 -1.545817e-01 6.463589e-01 -3.696537e-01 -3.204653e-01 2.775067e-01 1.396189e-01
<VARIANCE> 39
 8.809660e+00 1.417212e+01 3.973903e+01 1.976878e+01 4.376741e+01 5.740417e+01 6.829140e+01 5.271690e+01 5.429315e+01 4.488065e+01 4.432840e+01 2.929808e+01 1.620131e+01 5.011995e-01 8.526609e-01 1.593668e+00 1.675455e+00 1.697409e+00 4.504814e+00 2.994140e+00 3.170092e+00 5.100846e+00 2.818129e+00 3.378850e+00 2.646532e+00 4.067594e-01 8.297695e-02 1.478672e-01 1.685639e-01 3.225712e-01 4.883683e-01 3.922636e-01 3.879910e-01 5.777044e-01 5.879820e-01 5.299513e-01 5.188766e-01 3.635019e-01 1.577952e-01
<GCONST> 1.101735e+02
<MIXTURE> 2 7.573946e-01
<MEAN> 39
 -1.856857e+00 9.814011e+00 6.645141e+00 6.908877e+00 -6.665205e-01 -4.713484e+00 -7.552512e-01 -1.851390e+00 -2.339071e+00 -1.039358e-01 -1.702044e-01 -3.542143e-01 5.390589e+01 -3.578162e-01 -2.137652e-01 -2.676847e-01 -1.510741e-01 2.158300e-01 -8.902518e-02 -3.550938e-01 -8.305883e-02 2.835409e-01 -1.243454e-01 -5.098650e-01 2.779638e-01 -2.939354e-01 -1.053024e-01 -1.817306e-01 3.269486e-03 -8.726961e-02 -3.505932e-02 2.986256e-02 -9.305728e-02 8.530059e-02 -2.136783e-01 7.117438e-02 7.886608e-02 -5.155549e-02 2.361692e-01
<VARIANCE> 39
 9.062830e+00 8.913634e+00 1.868798e+01 1.551188e+01 2.107202e+01 3.758981e+01 3.487997e+01 3.053841e+01 3.223643e+01 2.780640e+01 2.426378e+01 2.021933e+01 7.237221e+00 3.983274e-01 5.227140e-01 1.378212e+00 1.743438e+00 2.191785e+00 2.491741e+00 2.133501e+00 2.917287e+00 3.037417e+00 2.746579e+00 2.163221e+00 2.137298e+00 3.045351e-01 7.801523e-02 1.612108e-01 2.477439e-01 3.461242e-01 4.985106e-01 5.167950e-01 4.927474e-01 6.107584e-01 6.455986e-01 5.059842e-01 3.724668e-01 4.268473e-01 8.357141e-02
<GCONST> 1.008253e+02
<STATE> 3
<MEAN> 39
 -8.803132e+00 2.393906e+00 3.664456e+00 1.533944e+00 4.267214e-02 -2.909929e+00 -3.995454e+00 -3.093833e-01 -4.676527e+00 2.353137e+00 -1.515643e+00 -5.438410e-02 5.789106e+01 -9.958248e-01 -8.582623e-01 -3.450668e-01 -8.663253e-01 5.427932e-02 2.253370e-01 -4.675924e-01 4.258178e-01 -2.083252e-01 3.341334e-01 -8.747841e-02 2.594501e-01 1.084675e+00 1.332345e-01 3.536817e-01 9.558696e-02 1.418463e-01 -1.134725e-01 -1.153488e-01 1.254765e-01 -6.212595e-02 4.133451e-02 -1.594126e-01 1.447486e-01 -3.725747e-02 -7.089332e-02
<VARIANCE> 39
 2.545832e+01 4.978790e+01 3.757229e+01 4.271754e+01 5.311144e+01 5.138092e+01 5.382185e+01 4.487416e+01 5.332886e+01 4.397720e+01 3.652811e+01 2.495407e+01 3.525480e+01 2.146493e+00 5.142337e+00 2.182121e+00 3.426464e+00 4.130635e+00 3.337523e+00 3.828291e+00 3.749913e+00 4.360685e+00 3.900389e+00 2.998187e+00 2.875451e+00 3.783214e+00 4.623311e-01 1.160945e+00 3.699211e-01 7.714865e-01 7.703553e-01 6.448453e-01 6.662100e-01 7.753491e-01 9.291544e-01 8.446044e-01 6.290276e-01 6.247972e-01 8.230435e-01
<GCONST> 1.314540e+02
<STATE> 4
<NUMMIXES> 2
<MIXTURE> 1 5.745499e-01
<MEAN> 39
 -1.214673e+01 5.302495e+00 6.728004e+00 -8.576145e-01 -1.059083e+00 -1.017885e+00 -2.924121e+00 2.233200e-02 -3.173592e+00 2.151078e+00 -2.367935e+00 2.632045e+00 6.085344e+01 1.697417e+00 2.361256e+00 1.676394e+00 2.152454e+00 -3.892970e-01 -2.502924e-01 8.771867e-01 -1.598045e-01 -7.353883e-02 -9.656203e-01 7.475461e-01 -7.524759e-01 -8.072712e-02 8.006872e-01 -1.730040e-01 -5.065198e-02 4.456602e-01 -8.187029e-01 -2.534229e-01 -6.786121e-02 -5.455456e-02 -2.171699e-01 -7.825872e-02 6.709243e-01 -3.323981e-01 3.622405e-01
<VARIANCE> 39
 3.131005e+01 3.385894e+01 5.596522e+01 4.441690e+01 4.771159e+01 5.390935e+01 3.776850e+01 4.602523e+01 3.233393e+01 4.491449e+01 4.084244e+01 1.936934e+01 1.766612e+01 3.835051e+00 2.288626e+00 2.116143e+00 3.641279e+00 5.929893e+00 4.585382e+00 2.006313e+00 1.866928e+00 3.015012e+00 3.613848e+00 4.023528e+00 1.631118e+00 1.763623e+00 3.846129e-01 6.838291e-01 8.027707e-01 8.343548e-01 1.360600e+00 6.249762e-01 3.359632e-01 3.580142e-01 5.842171e-01 5.300905e-01 5.697107e-01 3.741019e-01 4.278416e-01
<GCONST> 1.246921e+02
<MIXTURE> 2 4.254501e-01
<MEAN> 39
 -1.939583e+00 9.660534e+00 8.047664e+00 6.857171e+00 -7.994446e+00 -3.809042e+00 -5.647401e+00 2.232172e-01 -4.966697e+00 5.614953e-01 4.324050e+00 -1.852361e+00 6.461262e+01 2.239889e+00 -1.913081e-01 -1.014577e+00 8.913892e-01 -3.633314e+00 -1.599351e+00 -8.087213e-01 1.058056e-01 -3.763340e-01 -6.739498e-01 3.222099e+00 -8.548428e-01 1.792143e+00 -5.324126e-01 -7.845001e-01 -6.324084e-01 -6.991804e-01 6.491150e-02 1.041030e-01 -2.006325e-02 -4.752612e-02 1.032132e-01 1.823637e-01 -1.417410e-01 2.928795e-01 8.581232e-02
<VARIANCE> 39
 1.609421e+01 2.289259e+01 7.369591e+01 1.108475e+01 1.108657e+02 4.772728e+01 7.673580e+01 4.352898e+01 1.886727e+01 3.047802e+01 6.484285e+01 2.267987e+01 2.319111e+01 1.265130e+00 2.189016e+00 1.755617e+00 2.253348e+00 4.286995e+00 3.631637e+00 1.661494e+00 3.253442e+00 2.402059e+00 2.612560e+00 2.962039e+00 1.634353e+00 9.374549e-01 2.272210e-01 5.227976e-01 4.090094e-01 3.556553e-01 1.427535e+00 7.618069e-01 4.061366e-01 4.012868e-01 4.204980e-01 3.422769e-01 7.979752e-01 2.167783e-01 2.360552e-01
<GCONST> 1.170219e+02
<TRANSP> 5
 0.000000e+00 1.000000e+00 0.000000e+00 0.000000e+00 0.000000e+00
 0.000000e+00 8.895701e-01 1.104299e-01 0.000000e+00 0.000000e+00
 0.000000e+00 0.000000e+00 8.335674e-01 1.664326e-01 0.000000e+00
 0.000000e+00 0.000000e+00 0.000000e+00 7.065436e-01 2.934564e-01
 0.000000e+00 0.000000e+00 0.000000e+00 0.000000e+00 0.000000e+00
<ENDHMM>
~h "k"
<BEGINHMM>
<NUMSTATES> 5
<STATE> 2
<NUMMIXES> 2
<MIXTURE> 1 3.138406e-01
<MEAN> 39
 -3.401496e+00 8.931421e+00 9.650330e+00 5.894889e+00 -4.810602e+00 -4.663582e+00 7.872129e-01 -2.920775e-02 -6.145008e+00 2.248074e+00 2.635661e+00 -1.226335e+00 5.821718e+01 -5.530897e-01 1.259714e-01 -6.946449e-01 -6.305235e-01 1.530076e+00 2.282425e-01 -1.173748e-01 -3.256553e-01 9.496455e-01 -9.562165e-03 -1.309285e+00 -3.963993e-02 -1.695152e+00 1.248174e-01 -2.430664e-01 -4.519732e-01 -3.369590e-02 -2.973693e-01 -3.108333e-02 -2.124970e-01 -1.624417e-01 2.150867e-01 -3.314855e-01 -7.754812e-02 1.143672e-01 9.508164e-02
<VARIANCE> 39
 2.020498e+01 1.642012e+01 3.518196e+01 2.938473e+01 4.914010e+01 5.400891e+01 6.472376e+01 5.533622e+01 5.075112e+01 4.200433e+01 5.196514e+01 3.511645e+01 1.373012e+01 1.563630e+00 1.510721e+00 3.624183e+00 2.543751e+00 5.070850e+00 4.266847e+00 3.451247e+00 4.632758e+00 4.565069e+00 3.845932e+00 3.545201e+00 3.089799e+00 8.877453e-01 2.357207e-01 2.152465e-01 4.219610e-01 4.845553e-01 8.616214e-01 6.352375e-01 5.648710e-01 6.123014e-01 7.867933e-01 5.639077e-01 7.627536e-01 5.771133e-01 1.550285e-01
<GCONST> 1.226206e+02
<MIXTURE> 2 6.861581e-01
<MEAN> 39
 -4.256362e+00 7.920507e+00 3.395269e+00 3.512136e+00 -1.645010e+00 -4.392393e+00 -1.708066e+00 -2.062531e+00 -8.093727e-01 -3.533925e-01 -8.548301e-01 2.620872e-01 5.235265e+01 -1.783897e-01 -1.376105e-01 -2.760654e-01 -1.690742e-01 2.024525e-02 6.280555e-02 -7.478470e-02 -1.663102e-01 1.143017e-01 -1.493640e-01 -6.208969e-02 1.396273e-01 -2.490790e-01 -3.028759e-02 -6.054273e-02 1.325320e-01 4.632369e-02 -2.162121e-03 4.038709e-02 1.944024e-02 7.760666e-02 -1.374187e-01 9.040223e-02 7.698087e-02 -2.320202e-02 1.728172e-01
<VARIANCE> 39
 6.283743e+00 7.958811e+00 1.300138e+01 1.818810e+01 2.502917e+01 3.976095e+01 4.106681e+01 3.494402e+01 3.636663e+01 3.096718e+01 2.701941e+01 2.254914e+01 2.390643e+00 3.475201e-01 6.463329e-01 1.092832e+00 1.470402e+00 2.088163e+00 2.655343e+00 2.565479e+00 2.689130e+00 2.551052e+00 2.464955e+00 2.265862e+00 2.044967e+00 1.604373e-01 8.654438e-02 1.826106e-01 2.614719e-01 2.973601e-01 4.432086e-01 5.355368e-01 5.332617e-01 5.751414e-01 5.485769e-01 4.717383e-01 4.573522e-01 3.925938e-01 5.464629e-02
<GCONST> 9.840714e+01
<STATE> 3
<MEAN> 39
 -6.079779e+00 6.062949e+00 2.888968e+00 3.435891e+00 -1.409433e+00 -3.770228e+00 -1.747724e+00 -2.165074e+00 -1.860677e+00 9.475803e-02 -8.017023e-01 6.605148e-01 5.228568e+01 -1.193880e+00 -2.004218e+00 2.154784e-01 -4.237282e-01 3.941553e-02 4.536815e-01 -2.967408e-01 5.652787e-01 -4.969919e-01 5.069007e-01 -3.035836e-01 1.017363e-01 1.570217e+00 -4.248100e-01 -4.864669e-01 1.238720e-01 -2.785853e-01 -9.012420e-02 3.840200e-03 -3.937392e-02 2.540419e-01 -1.029285e-01 2.627923e-01 -1.105089e-01 -2.443416e-02 7.288432e-01
<VARIANCE> 39
 8.422729e+00 1.569742e+01 2.110383e+01 2.515317e+01 2.303351e+01 3.778280e+01 3.813581e+01 3.559061e+01 3.696338e+01 3.302648e+01 2.625981e+01 2.036464e+01 6.889775e+00 1.787200e+00 3.493441e+00 3.556894e+00 3.338169e+00 3.128507e+00 3.549715e+00 3.098181e+00 4.432738e+00 3.479007e+00 3.373265e+00 2.743465e+00 2.243550e+00 2.665367e+00 2.326358e-01 5.009762e-01 4.962490e-01 4.871998e-01 6.204047e-01 6.890963e-01 5.991882e-01 7.886726e-01 5.761326e-01 6.338428e-01 4.999877e-01 4.797187e-01 2.429176e-01
<GCONST> 1.177119e+02
<STATE> 4
<NUMMIXES> 2
<MIXTURE> 1 6.008971e-01
<MEAN> 39
 -1.448513e+01 3.791353e+00 6.038692e+00 -3.726209e+00 -3.547081e+00 -2.504670e+00 -2.605852e+00 -1.042405e+00 -1.964508e+00 3.724779e+00 -2.025659e+00 2.181129e+00 6.101080e+01 9.818600e-01 1.162538e+00 4.254417e-01 9.344965e-01 1.236342e-01 -1.032010e-01 1.469126e-01 -1.640967e-01 2.872903e-02 -6.210019e-01 3.220129e-01 -1.310527e-01 -5.444825e-01 5.648658e-01 -1.243611e-01 -2.054207e-02 5.054026e-01 -8.354032e-02 -3.859320e-02 1.340189e-01 2.431855e-02 -1.009021e-01 -2.217456e-01 1.293184e-01 -1.794520e-01 6.791376e-02
<VARIANCE> 39
 3.304134e+01 2.261223e+01 3.934917e+01 5.267111e+01 5.658288e+01 6.668881e+01 4.817950e+01 5.218343e+01 5.040068e+01 4.161554e+01 3.845684e+01 3.138908e+01 1.634416e+01 3.209487e+00 3.518498e+00 2.992255e+00 4.631660e+00 4.282178e+00 4.309164e+00 3.061526e+00 3.354920e+00 3.706534e+00 3.708429e+00 3.404351e+00 2.662415e+00 1.493170e+00 4.718683e-01 5.022222e-01 5.644609e-01 8.474371e-01 9.403627e-01 9.046520e-01 5.828629e-01 6.619766e-01 7.513728e-01 7.662197e-01 6.946176e-01 5.890377e-01 4.346206e-01
<GCONST> 1.294870e+02
<MIXTURE> 2 3.991024e-01
<MEAN> 39
 -1.291920e+01 -5.384088e+00 4.388646e+00 -2.443519e-01 -2.017134e+00 -2.844007e+00 -3.450068e+00 2.550655e+00 -4.582731e+00 4.162522e+00 -2.895743e+00 7.741084e-01 6.360818e+01 -1.429014e+00 -5.681812e-01 9.008700e-02 -1.545466e+00 -7.033130e-01 -1.588055e-01 -2.478626e-01 5.239710e-01 1.218309e-02 1.040815e+00 -2.858234e-01 2.240544e-01 1.899980e+00 4.324255e-01 1.403345e+00 -4.089629e-02 1.587578e-01 6.734607e-03 -1.634753e-01 6.862089e-02 -4.255258e-01 3.507779e-01 -2.886446e-01 2.145193e-01 4.364412e-02 -9.009668e-01
<VARIANCE> 39
 1.993206e+01 2.930113e+01 5.921089e+01 5.048607e+01 4.941093e+01 5.511681e+01 4.675016e+01 5.476903e+01 3.742508e+01 4.030141e+01 2.615717e+01 2.298168e+01 2.097541e+01 2.176244e+00 6.668321e+00 3.230123e+00 3.599059e+00 3.922613e+00 5.140848e+00 3.933751e+00 4.979090e+00 3.843328e+00 3.459354e+00 2.748375e+00 3.040879e+00 3.743416e+00 3.769685e-01 5.829573e-01 7.614662e-01 8.847953e-01 7.655047e-01 8.749264e-01 6.901344e-01 8.195045e-01 6.341656e-01 6.956413e-01 5.127942e-01 4.781343e-01 4.785230e-01
<GCONST> 1.298639e+02
<TRANSP> 5
 0.000000e+00 1.000000e+00 0.000000e+00 0.000000e+00 0.000000e+00
 0.000000e+00 9.077794e-01 9.222062e-02 0.000000e+00 0.000000e+00
 0.000000e+00 0.000000e+00 6.844827e-01 3.155173e-01 0.000000e+00
 0.000000e+00 0.000000e+00 0.000000e+00 8.477064e-01 1.522936e-01
 0.000000e+00 0.000000e+00 0.000000e+00 0.000000e+00 0.000000e+00
<ENDHMM>
~h "l"
<BEGINHMM>
<NUMSTATES> 5
<STATE> 2
<NUMMIXES> 2
<MIXTURE> 1 6.109884e-01
<MEAN> 39
 1.939930e+00 7.978527e+00 -5.040453e+00 2.034374e+00 -1.857000e+00 -5.734917e+00 -4.252742e+00 -7.053957e+00 8.083236e+00 5.785618e+00 -3.183384e+00 -3.003964e+00 6.731986e+01 4.870376e-02 4.342290e-01 -2.389323e-01 -5.822652e-01 8.211350e-01 3.544138e-01 1.537555e-01 -1.110187e+00 1.301586e-01 6.946953e-01 -2.053900e-02 8.641201e-02 -2.288150e-01 1.394225e-02 3.272005e-02 1.683192e-01 -3.683338e-02 5.046796e-02 -2.276728e-02 -1.428484e-02 8.019148e-02 -1.942504e-01 -1.134255e-01 1.581139e-01 1.056627e-01 -8.151358e-02
<VARIANCE> 39
 4.369077e+00 1.713608e+01 2.902267e+01 2.843172e+01 2.898985e+01 5.160911e+01 4.939866e+01 7.265203e+01 6.683361e+01 6.297554e+01 3.318709e+01 3.192170e+01 1.017690e+01 2.003405e-01 3.193067e-01 1.026889e+00 8.935083e-01 1.030550e+00 1.485105e+00 1.639259e+00 1.909786e+00 2.039922e+00 2.365588e+00 1.801024e+00 1.621535e+00 2.453248e-01 3.265376e-02 5.372906e-02 9.647007e-02 1.233335e-01 1.755258e-01 2.068476e-01 2.476450e-01 3.169462e-01 2.775163e-01 3.172716e-01 2.542959e-01 2.119725e-01 2.466459e-02
<GCONST> 9.011688e+01
<MIXTURE> 2 3.890102e-01
<MEAN> 39
 -1.103373e+00 1.029786e+01 2.391344e+00 2.625647e-01 7.122692e-02 -1.829698e+00 -3.742639e+00 -3.558134e+00 7.633750e-01 2.565095e-01 -7.526407e-01 8.036903e-01 6.251527e+01 1.233366e+00 4.170849e-01 -7.368785e-01 -2.295732e-01 1.360224e-01 -2.306527e-01 -3.903887e-01 -7.298955e-01 -6.465921e-02 5.210473e-01 1.478349e-01 -1.190012e-01 5.201634e-01 -1.769598e-01 -2.589275e-01 -2.891291e-01 -8.986253e-02 -1.106754e-01 -7.219201e-02 1.184528e-01 1.335807e-02 5.935551e-02 1.533932e-02 2.156752e-02 2.346638e-02 7.808051e-03
<VARIANCE> 39
 2.564108e+01 2.466979e+01 6.669617e+01 5.194432e+01 5.673962e+01 5.607865e+01 6.923429e+01 6.144445e+01 4.050135e+01 4.924366e+01 4.013691e+01 4.399004e+01 2.469862e+01 2.535046e+00 2.029996e+00 3.413981e+00 3.996805e+00 3.181146e+00 3.521299e+00 4.040474e+00 4.440534e+00 3.955536e+00 3.482757e+00 3.596054e+00 3.609765e+00 1.497526e+00 4.570217e-01 3.490113e-01 6.255987e-01 8.702537e-01 6.223897e-01 6.346043e-01 6.648257e-01 7.910625e-01 6.617548e-01 6.095259e-01 6.594151e-01 5.769209e-01 2.278480e-01
<GCONST> 1.287556e+02
<STATE> 3
<MEAN> 39
 3.207098e+00 7.077136e+00 -2.900237e+00 -3.069252e+00 1.785121e+00 1.984241e+00 -8.101806e+00 -3.655904e+00 1.020971e+00 4.256771e+00 1.061738e-01 -4.993439e+00 6.640955e+01 7.962076e-03 1.823616e-01 1.277867e-01 -2.248124e-02 8.431959e-02 -5.243624e-02 1.296857e-02 -1.369196e-01 -6.726829e-02 -5.763752e-02 1.231668e-01 2.227890e-01 -1.611402e-01 -3.016225e-02 -6.916395e-03 4.654602e-02 7.331619e-02 -6.677621e-02 -2.888289e-02 3.996516e-02 6.769182e-02 9.199956e-03 -6.778046e-02 -3.415329e-02 3.750823e-02 -1.267907e-02
<VARIANCE> 39
 5.155733e+00 1.669760e+01 2.250162e+01 3.880944e+01 2.322724e+01 4.292310e+01 4.353740e+01 6.827560e+01 5.534123e+01 5.668245e+01 3.154570e+01 3.799689e+01 1.320515e+01 1.424323e-01 3.648594e-01 6.905196e-01 9.054282e-01 8.736123e-01 1.121488e+00 1.299025e+00 1.491143e+00 1.358143e+00 1.835269e+00 1.266067e+00 1.143915e+00 2.308984e-01 2.240169e-02 3.872105e-02 1.007674e-01 1.121185e-01 1.473894e-01 1.399910e-01 1.788017e-01 2.157983e-01 1.940869e-01 2.081966e-01 1.919022e-01 1.697400e-01 2.007992e-02
<GCONST> 8.334918e+01
<STATE> 4
<NUMMIXES> 2
<MIXTURE> 1 5.783898e-01
<MEAN> 39
 3.787488e+00 1.369011e+01 -5.318215e+00 -6.232761e+00 1.915313e+00 -1.424741e+00 1.815613e+00 -1.301829e+01 -7.887909e-01 3.261703e+00 1.953962e+00 4.640409e+00 6.332170e+01 1.531379e-03 7.739887e-02 1.616903e-01 7.773689e-02 3.609972e-02 -9.385239e-02 -2.436625e-02 -3.410406e-02 -1.415252e-01 -8.449090e-02 4.451298e-02 1.329037e-01 -1.652729e-01 -3.344855e-02 -5.979266e-02 4.212795e-02 5.467618e-02 -6.047429e-03 -2.155538e-02 -7.548974e-02 1.017455e-01 4.385965e-02 6.693212e-02 -4.481252e-02 -9.896012e-02 1.742225e-02
<VARIANCE> 39
 2.511697e+00 8.613630e+00 2.419813e+01 3.332601e+01 2.876906e+01 5.153131e+01 5.244271e+01 4.707536e+01 4.729879e+01 6.898536e+01 3.570978e+01 3.285711e+01 9.197746e+00 1.322238e-01 3.411985e-01 5.377529e-01 9.621724e-01 9.132185e-01 1.076002e+00 1.347422e+00 1.399166e+00 1.516930e+00 1.661302e+00 1.539510e+00 1.374782e+00 1.521257e-01 2.050378e-02 5.159683e-02 8.242255e-02 1.270727e-01 1.466803e-01 1.950257e-01 1.959564e-01 2.214224e-01 2.462102e-01 2.307416e-01 2.339565e-01 1.906447e-01 1.671652e-02
<GCONST> 8.241275e+01
<MIXTURE> 2 4.216083e-01
<MEAN> 39
 1.746710e+00 1.087003e+01 -1.324664e+00 -4.069875e-01 2.212143e+00 -4.453289e+00 -3.704391e+00 -7.888963e+00 2.544434e+00 4.821794e+00 -3.003913e-01 -2.819540e-01 6.287511e+01 -4.347838e-01 -4.046183e-01 4.301893e-01 5.996268e-01 -5.303662e-01 -3.056783e-01 1.071674e-02 1.046479e+00 3.050668e-01 -5.015745e-01 -1.901270e-01 -2.697442e-01 1.752953e-02 -6.562640e-02 -6.512631e-02 2.460954e-02 1.961249e-02 -2.000093e-01 9.202745e-02 1.564079e-01 8.126490e-02 -6.565440e-02 -1.924358e-01 5.978724e-02 7.280514e-02 1.398665e-02
<VARIANCE> 39
 7.814940e+00 1.754936e+01 3.744518e+01 4.225668e+01 3.391048e+01 5.905135e+01 7.221526e+01 6.721504e+01 6.072633e+01 5.716737e+01 3.703670e+01 3.844604e+01 1.981951e+01 4.874644e-01 7.199470e-01 1.693840e+00 1.907435e+00 2.333879e+00 2.619771e+00 2.767332e+00 3.585385e+00 3.174292e+00 3.486558e+00 2.399840e+00 2.695381e+00 8.448084e-01 9.413944e-02 8.198456e-02 2.445447e-01 2.824071e-01 3.193383e-01 4.048229e-01 4.534099e-01 5.927308e-01 5.421105e-01 4.787432e-01 4.411588e-01 4.783081e-01 7.341085e-02
<GCONST> 1.103749e+02
<TRANSP> 5
 0.000000e+00 1.000000e+00 0.000000e+00 0.000000e+00 0.000000e+00
 0.000000e+00 7.785574e-01 2.214426e-01 0.000000e+00 0.000000e+00
 0.000000e+00 0.000000e+00 8.389838e-01 1.610162e-01 0.000000e+00
 0.000000e+00 0.000000e+00 0.000000e+00 8.957649e-01 1.042351e-01
 0.000000e+00 0.000000e+00 0.000000e+00 0.000000e+00 0.000000e+00
<ENDHMM>
~h "m"
<BEGINHMM>
<NUMSTATES> 5
<STATE> 2
<NUMMIXES> 2
<MIXTURE> 1 5.315151e-01
<MEAN> 39
 4.258699e+00 4.091787e+00 1.550147e+00 1.104490e+01 8.386207e-01 -4.433375e+00 -2.439191e+00 -5.288101e-01 -1.804894e+00 9.068195e-02 -1.461287e+00 -4.851890e+00 6.304623e+01 -2.841708e-01 6.567395e-01 1.263982e+00 1.898986e+00 1.139902e+00 -7.655102e-01 2.065287e-01 -1.990195e+00 -9.235289e-01 1.654255e+00 -2.104198e-01 -7.138963e-01 -1.025813e+00 -1.408206e-01 -2.160483e-02 2.353008e-01 -2.863535e-02 -2.660755e-01 -4.536185e-02 5.046460e-04 -1.954348e-02 -2.041136e-02 6.006749e-02 6.404059e-02 8.571204e-03 1.615813e-01
<VARIANCE> 39
 3.365448e+00 9.400826e+00 1.889725e+01 2.704012e+01 1.960040e+01 3.292289e+01 4.088417e+01 4.161776e+01 4.321500e+01 4.656744e+01 3.169752e+01 2.700471e+01 7.328942e+00 3.511528e-01 5.943823e-01 1.699090e+00 1.139491e+00 2.186316e+00 2.001000e+00 2.074002e+00 2.770999e+00 2.115555e+00 2.953846e+00 2.006022e+00 2.482107e+00 4.502090e-01 5.624430e-02 9.491386e-02 2.962790e-01 3.013431e-01 3.033946e-01 3.508261e-01 4.281982e-01 6.186631e-01 3.940094e-01 5.371054e-01 2.851087e-01 3.175267e-01 5.779289e-02
<GCONST> 9.856293e+01
<MIXTURE> 2 4.684846e-01
<MEAN> 39
 -7.181858e-01 8.540025e+00 7.719874e+00 1.110987e+01 3.168820e+00 -2.158910e+00 -1.787628e+00 -3.454203e+00 -3.813807e+00 2.536870e+00 -1.996705e+00 -5.352326e+00 5.792526e+01 8.305243e-01 1.629645e-01 6.479092e-01 1.187701e+00 2.625667e-01 -4.208049e-01 -1.769484e-01 -4.911101e-01 -3.825359e-01 2.266977e-01 -2.262839e-01 -7.189253e-01 5.516294e-01 -8.095910e-02 -2.976529e-01 -2.654925e-01 -3.150301e-01 -2.307958e-01 -1.662165e-01 -8.859122e-02 8.141665e-02 4.091690e-02 2.253777e-02 7.972507e-03 1.294578e-01 1.500617e-01
<VARIANCE> 39
 1.078198e+01 1.557992e+01 1.650067e+01 2.746455e+01 3.885241e+01 4.224312e+01 3.381136e+01 3.637912e+01 4.178577e+01 4.089470e+01 3.421192e+01 2.932342e+01 2.396030e+01 1.527690e+00 1.753544e+00 2.074982e+00 2.627911e+00 3.366244e+00 3.187833e+00 2.834971e+00 3.284772e+00 2.407974e+00 3.089412e+00 2.280478e+00 2.401315e+00 1.236997e+00 2.149943e-01 2.673483e-01 2.836395e-01 4.245867e-01 5.194076e-01 5.272079e-01 5.198470e-01 6.860877e-01 4.306678e-01 6.425910e-01 4.343273e-01 4.223923e-01 2.018467e-01
<GCONST> 1.142922e+02
<STATE> 3
<MEAN> 39
 2.514032e+00 6.287374e+00 7.046362e+00 1.488263e+01 1.478336e+00 -5.505240e+00 -1.875513e+00 -6.533268e+00 -3.214736e+00 5.210123e+00 -3.009632e+00 -6.518949e+00 6.068756e+01 -4.139510e-04 2.722880e-02 6.389959e-02 -2.251569e-02 4.390233e-02 8.942462e-02 -3.870158e-02 -8.944437e-02 -2.176687e-03 -2.211930e-02 -5.440305e-03 3.729734e-02 -1.604130e-02 -1.045386e-03 1.502523e-02 -7.460935e-02 -1.255087e-01 -6.997466e-03 8.770826e-02 1.091757e-02 9.737424e-02 3.319157e-02 -1.064619e-01 1.615397e-02 5.499025e-02 1.165889e-02
<VARIANCE> 39
 2.723296e+00 1.075341e+01 9.374644e+00 1.704815e+01 2.354974e+01 4.202607e+01 3.351627e+01 3.167482e+01 3.533135e+01 3.837975e+01 2.757627e+01 3.467720e+01 7.949302e+00 1.305370e-01 3.284726e-01 4.411114e-01 7.098670e-01 7.760947e-01 1.189322e+00 1.071160e+00 1.267115e+00 1.266366e+00 1.555676e+00 1.318612e+00 1.366725e+00 1.470074e-01 2.466681e-02 4.652986e-02 9.666117e-02 1.473779e-01 1.515723e-01 2.202010e-01 2.063868e-01 2.471502e-01 2.300921e-01 2.825913e-01 2.239401e-01 2.332023e-01 2.056069e-02
<GCONST> 7.843979e+01
<STATE> 4
<NUMMIXES> 2
<MIXTURE> 1 4.086337e-01
<MEAN> 39
 2.250105e+00 4.970727e+00 7.376678e+00 1.516718e+01 3.959788e+00 -6.016733e+00 -3.300683e+00 -5.380506e+00 -5.820518e+00 4.095091e+00 -1.758830e+00 -6.821558e+00 6.163366e+01 6.104314e-02 -2.330336e-01 -9.629825e-01 -1.493008e+00 -7.016773e-01 5.221574e-01 -9.588054e-02 1.349674e+00 6.400867e-01 -1.023977e+00 2.168201e-01 6.563852e-01 7.754587e-01 9.201794e-02 -1.167781e-01 -4.203481e-01 -6.784611e-01 -6.434014e-01 3.714997e-01 -2.298030e-02 6.935917e-01 3.414279e-01 -6.251876e-01 5.107411e-02 3.722991e-01 3.235705e-01
<VARIANCE> 39
 2.299175e+00 1.115713e+01 1.206930e+01 2.026340e+01 2.004033e+01 4.106309e+01 3.598182e+01 2.306817e+01 3.094370e+01 3.477890e+01 2.379061e+01 4.179991e+01 7.578276e+00 2.873829e-01 4.988899e-01 1.303151e+00 1.904162e+00 1.685389e+00 1.809911e+00 1.742618e+00 2.337218e+00 2.048781e+00 2.633517e+00 1.354524e+00 2.438931e+00 4.412311e-01 4.901225e-02 7.738391e-02 2.833624e-01 1.755624e-01 2.646404e-01 3.488618e-01 3.294434e-01 2.408737e-01 3.123088e-01 3.471524e-01 3.034714e-01 3.891799e-01 4.150918e-02
<GCONST> 9.228131e+01
<MIXTURE> 2 5.913656e-01
<MEAN> 39
 1.729500e+00 7.901736e+00 5.417610e+00 1.051316e+01 2.274571e+00 -3.003041e+00 -2.483536e+00 -3.394805e+00 -1.025160e+00 6.268770e-01 -1.929130e+00 -3.939743e+00 6.012022e+01 -2.981322e-01 -9.800342e-02 -4.972626e-01 -1.583939e+00 -9.062092e-01 8.047527e-01 -2.702842e-03 1.478427e+00 5.053276e-01 -1.055642e+00 4.661455e-02 7.183201e-01 3.101477e-01 -9.998240e-02 -4.599693e-02 -2.326597e-02 -4.701747e-02 -1.788671e-01 3.450147e-02 1.636386e-01 2.394760e-02 -1.222330e-01 2.800575e-02 -9.059654e-02 -6.648801e-02 -4.717258e-02
<VARIANCE> 39
 7.913424e+00 2.022703e+01 1.696787e+01 2.472145e+01 2.617319e+01 3.484398e+01 2.462337e+01 3.483281e+01 2.943162e+01 2.953536e+01 2.681903e+01 2.180170e+01 2.434129e+01 9.131382e-01 1.527857e+00 3.061080e+00 2.666519e+00 3.956892e+00 3.497027e+00 3.004046e+00 3.392837e+00 2.871536e+00 4.397352e+00 2.708658e+00 3.095088e+00 1.327272e+00 1.150752e-01 2.245487e-01 3.206327e-01 3.724300e-01 4.734389e-01 5.504255e-01 5.534447e-01 6.507968e-01 4.467824e-01 4.413855e-01 4.155324e-01 4.416723e-01 9.199728e-02
<GCONST> 1.111675e+02
<TRANSP> 5
 0.000000e+00 1.000000e+00 0.000000e+00 0.000000e+00 0.000000e+00
 0.000000e+00 7.745944e-01 2.254055e-01 0.000000e+00 0.000000e+00
 0.000000e+00 0.000000e+00 9.055698e-01 9.443015e-02 0.000000e+00
 0.000000e+00 0.000000e+00 0.000000e+00 7.253752e-01 2.746247e-01
 0.000000e+00 0.000000e+00 0.000000e+00 0.000000e+00 0.000000e+00
<ENDHMM>
~h "n"
<BEGINHMM>
<NUMSTATES> 5
<STATE> 2
<NUMMIXES> 2
<MIXTURE> 1 4.893560e-01
<MEAN> 39
 1.933632e+00 6.648611e+00 8.079567e+00 1.405938e+01 -1.262903e+00 -3.605458e+00 -4.911372e-01 -5.815200e+00 -1.583510e+00 4.912833e+00 -6.943605e+00 -6.437230e+00 6.108533e+01 3.024926e-01 2.716657e-01 6.335972e-01 1.405162e+00 -2.499378e-01 -2.514820e-01 5.162688e-01 -1.995552e+00 6.847501e-03 2.008324e+00 -1.183502e+00 -2.946331e-01 -7.187063e-01 -9.984048e-02 -9.673790e-02 -1.795028e-01 -5.424092e-01 -2.824269e-01 7.916410e-02 -7.337870e-02 4.689689e-01 3.834533e-02 -5.049649e-01 3.355100e-01 1.873497e-01 3.209574e-01
<VARIANCE> 39
 3.679290e+00 1.220809e+01 1.119919e+01 1.657076e+01 1.895173e+01 2.161726e+01 2.843141e+01 2.832815e+01 3.810643e+01 3.661034e+01 1.917058e+01 2.113897e+01 7.140602e+00 6.006764e-01 9.654592e-01 1.572340e+00 2.048066e+00 1.884382e+00 2.111072e+00 1.944376e+00 3.467847e+00 2.336650e+00 2.765023e+00 2.179188e+00 2.127353e+00 4.310739e-01 7.765944e-02 1.218058e-01 1.991341e-01 2.532117e-01 3.222594e-01 3.424982e-01 3.132515e-01 4.968473e-01 3.300775e-01 4.510829e-01 3.135445e-01 3.054881e-01 5.193609e-02
<GCONST> 9.617517e+01
<MIXTURE> 2 5.106425e-01
<MEAN> 39
 3.646456e-01 5.199949e+00 5.154984e+00 6.407766e+00 -2.465486e+00 -2.353942e+00 -2.963646e+00 2.830416e+00 -1.511286e+00 -3.479616e+00 -1.515615e+00 -4.795145e+00 6.558254e+01 3.321724e-01 4.891072e-01 6.503506e-01 1.508855e+00 1.300583e+00 -6.054962e-01 -8.854152e-02 -1.231649e+00 -1.061231e-01 1.516021e+00 -8.565311e-01 -5.949684e-01 -1.337014e+00 8.824392e-02 3.799822e-02 1.287530e-01 4.468414e-01 -2.671028e-01 7.863019e-02 3.138766e-01 -6.833600e-01 1.244452e-02 5.784929e-01 -3.882745e-01 -2.942479e-02 -1.606717e-01
<VARIANCE> 39
 8.827914e+00 2.148813e+01 3.125350e+01 2.219746e+01 3.525399e+01 4.079833e+01 3.994434e+01 4.730135e+01 5.437379e+01 3.945443e+01 2.994347e+01 2.917065e+01 1.316000e+01 5.629030e-01 8.580952e-01 1.738302e+00 2.290958e+00 2.761619e+00 2.927294e+00 2.583563e+00 4.568150e+00 2.203673e+00 3.281298e+00 2.569838e+00 2.027090e+00 6.070505e-01 1.185652e-01 1.869922e-01 2.685803e-01 3.843355e-01 4.585779e-01 4.862320e-01 4.006199e-01 5.208182e-01 4.197747e-01 3.983211e-01 3.723353e-01 3.173848e-01 1.057146e-01
<GCONST> 1.083239e+02
<STATE> 3
<MEAN> 39
 2.335343e+00 7.391538e+00 8.720446e+00 1.391337e+01 -2.399451e+00 -4.342297e+00 -1.012403e-01 -7.552389e+00 -1.119418e+00 6.836790e+00 -7.625774e+00 -6.109519e+00 6.037262e+01 1.716150e-02 2.511196e-01 -3.753778e-02 -1.073749e-01 4.698939e-02 4.408207e-02 -6.673858e-02 -1.544823e-01 -6.260925e-02 1.590185e-02 1.879095e-01 2.509699e-02 -1.901386e-01 -4.663924e-02 2.777587e-02 -3.142753e-02 -1.253727e-01 8.064035e-02 4.843689e-02 -5.249169e-02 1.574676e-01 -2.607680e-02 -1.850988e-01 1.306308e-01 3.196950e-02 2.162824e-02
<VARIANCE> 39
 3.103294e+00 1.132135e+01 9.699925e+00 1.732736e+01 1.739917e+01 2.163169e+01 2.544211e+01 2.778079e+01 3.391972e+01 3.335870e+01 1.960206e+01 2.252055e+01 6.797322e+00 1.390082e-01 3.173778e-01 4.591679e-01 6.633356e-01 7.472584e-01 9.693725e-01 1.046080e+00 1.284620e+00 1.282790e+00 1.331769e+00 1.061386e+00 1.164222e+00 1.220384e-01 2.910261e-02 5.650986e-02 1.002808e-01 1.611721e-01 1.510279e-01 1.850234e-01 2.136521e-01 2.794921e-01 2.315072e-01 2.865128e-01 2.216849e-01 2.194766e-01 1.998693e-02
<GCONST> 7.561726e+01
<STATE> 4
<NUMMIXES> 2
<MIXTURE> 1 5.759601e-01
<MEAN> 39
 1.304083e+00 1.158878e+01 8.255152e+00 1.119988e+01 7.353412e-01 -1.961187e+00 -7.916908e-01 -6.926103e+00 -1.999429e+00 3.018086e+00 -4.252776e+00 -4.688017e+00 5.680313e+01 -3.837382e-01 2.321569e-01 1.843618e-01 -4.229209e-01 5.832507e-01 2.120700e-01 8.085754e-02 5.989527e-01 -2.377559e-01 -7.046811e-01 2.047385e-01 3.202750e-01 -3.869270e-01 -1.821050e-01 -1.392044e-01 -1.753714e-02 -1.162538e-01 3.527811e-02 -2.954640e-02 2.034957e-02 1.989283e-01 -4.488979e-03 -9.377859e-02 -5.807945e-02 6.883804e-02 4.965400e-02
<VARIANCE> 39
 4.276545e+00 7.431390e+00 7.889304e+00 1.610271e+01 1.903336e+01 2.193224e+01 2.641468e+01 3.014425e+01 3.398968e+01 4.040926e+01 2.145640e+01 2.111150e+01 7.646257e+00 4.878578e-01 6.864219e-01 7.656269e-01 1.239821e+00 1.509694e+00 1.917208e+00 2.119806e+00 2.325059e+00 1.936735e+00 2.213608e+00 1.936532e+00 1.626497e+00 2.525181e-01 7.730027e-02 1.220538e-01 1.647603e-01 2.271376e-01 2.834263e-01 3.460885e-01 3.524309e-01 4.269336e-01 3.519575e-01 4.382907e-01 3.302521e-01 3.118284e-01 4.868265e-02
<GCONST> 9.147878e+01
<MIXTURE> 2 4.240392e-01
<MEAN> 39
 -1.799217e+00 8.948140e+00 8.397550e+00 8.925621e+00 1.264786e+00 -2.370128e+00 -6.783127e-01 -2.644994e+00 -1.869491e+00 1.056777e+00 -4.955814e+00 -4.258852e+00 5.783030e+01 -7.445973e-01 -3.739833e-01 -3.090366e-01 -1.294354e+00 -6.810771e-02 1.749921e-01 -3.702365e-01 9.480880e-01 -5.195812e-02 -6.863436e-01 6.008822e-01 3.758964e-01 1.421857e-01 3.316884e-02 -7.787037e-02 -1.774359e-01 -5.921584e-02 -2.889104e-01 -6.077697e-02 -2.012416e-02 -6.714199e-02 1.318198e-01 2.601470e-02 6.465043e-02 8.305981e-02 6.156198e-02
<VARIANCE> 39
 1.379600e+01 2.140114e+01 2.153996e+01 3.501425e+01 3.687585e+01 3.889425e+01 3.796750e+01 4.200663e+01 3.876376e+01 5.281856e+01 2.950813e+01 3.043631e+01 2.010788e+01 1.415983e+00 1.731048e+00 2.235651e+00 3.190693e+00 3.086957e+00 3.932144e+00 3.074800e+00 4.370479e+00 3.160094e+00 3.976182e+00 2.875402e+00 2.828647e+00 1.432843e+00 2.603265e-01 2.920855e-01 3.823299e-01 6.084304e-01 5.985526e-01 6.939368e-01 6.624093e-01 8.072833e-01 5.852051e-01 6.817991e-01 5.680908e-01 5.044681e-01 2.033393e-01
<GCONST> 1.197010e+02
<TRANSP> 5
 0.000000e+00 1.000000e+00 0.000000e+00 0.000000e+00 0.000000e+00
 0.000000e+00 8.038834e-01 1.961165e-01 0.000000e+00 0.000000e+00
 0.000000e+00 0.000000e+00 8.732880e-01 1.267120e-01 0.000000e+00
 0.000000e+00 0.000000e+00 0.000000e+00 8.555464e-01 1.444535e-01
 0.000000e+00 0.000000e+00 0.000000e+00 0.000000e+00 0.000000e+00
<ENDHMM>
~h "p"
<BEGINHMM>
<NUMSTATES> 5
<STATE> 2
<NUMMIXES> 2
<MIXTURE> 1 3.082655e-01
<MEAN> 39
 5.592692e-02 5.094589e+00 2.249531e+00 4.825130e+00 3.135433e-01 -4.460146e+00 -5.157989e+00 1.011364e+00 -8.418073e-01 2.658179e+00 1.620337e+00 -2.892556e+00 5.929884e+01 -1.067303e+00 1.382229e+00 3.055280e-01 1.037525e-01 1.436110e+00 9.592734e-01 1.170968e+00 -7.051661e-01 3.519734e-01 3.364742e-01 -4.628881e-01 -8.026332e-02 -2.087308e+00 -2.141111e-01 8.618069e-02 2.082092e-01 -1.486312e-01 -3.119017e-01 3.285762e-02 1.677681e-01 -4.302657e-02 -1.484242e-01 -4.647350e-01 -3.340717e-01 3.107875e-01 5.522228e-02
<VARIANCE> 39
 2.566398e+01 1.644316e+01 2.711405e+01 2.507108e+01 3.694328e+01 6.662418e+01 4.135169e+01 4.167175e+01 4.289146e+01 3.743298e+01 1.883653e+01 1.653161e+01 2.064829e+01 5.977411e-01 1.967565e+00 2.715689e+00 2.542723e+00 1.694709e+00 3.264707e+00 2.579170e+00 5.364685e+00 2.964770e+00 4.431747e+00 3.322195e+00 2.948373e+00 1.351909e+00 1.565009e-01 3.309105e-01 3.233731e-01 2.631381e-01 4.812308e-01 5.116711e-01 5.503279e-01 8.755420e-01 6.982754e-01 6.685809e-01 3.180014e-01 3.405012e-01 2.310520e-01
<GCONST> 1.152396e+02
<MIXTURE> 2 6.917346e-01
<MEAN> 39
 -1.411704e+00 1.071304e+01 6.080635e+00 5.233548e+00 2.467029e+00 -2.281412e+00 -5.419093e-02 -1.376026e+00 -1.015642e+00 1.239019e+00 -3.234761e+00 -1.921423e+00 5.460008e+01 -9.522744e-01 -6.531811e-02 -2.507763e-01 -6.152879e-01 -4.760265e-01 -3.005071e-01 3.729249e-01 3.425456e-01 3.864412e-02 -8.395171e-01 -5.394052e-01 5.706354e-01 -9.210002e-01 1.276875e-01 -4.004663e-01 -3.450017e-01 3.202681e-02 -1.366851e-01 -9.907363e-02 -2.346011e-01 -8.849612e-02 -3.066110e-02 -3.086510e-02 3.153901e-01 -6.875835e-02 2.149644e-01
<VARIANCE> 39
 1.012174e+01 5.942236e+00 1.607750e+01 1.884188e+01 2.965210e+01 3.162535e+01 3.274908e+01 3.283996e+01 2.862887e+01 2.744268e+01 2.047712e+01 2.179412e+01 3.532904e+00 6.454946e-01 1.410724e+00 2.034082e+00 1.848214e+00 2.466868e+00 2.300375e+00 2.657634e+00 3.675336e+00 2.725952e+00 2.394970e+00 2.431860e+00 2.083047e+00 3.245008e-01 1.066635e-01 1.910349e-01 2.955164e-01 3.383692e-01 4.400389e-01 4.128388e-01 5.154306e-01 5.979978e-01 5.172062e-01 5.346942e-01 4.403108e-01 4.273852e-01 8.151349e-02
<GCONST> 1.024188e+02
<STATE> 3
<MEAN> 39
 -5.376926e+00 7.341794e+00 2.456341e+00 3.128633e+00 -1.237260e-02 -3.630425e+00 -1.758021e+00 -2.475199e+00 -1.320765e+00 -8.904962e-01 -1.429153e+00 -3.475946e-02 5.191322e+01 -9.939656e-02 -1.858754e-01 -1.153425e-01 -4.020759e-02 2.080071e-02 1.308658e-01 6.011955e-03 -1.963538e-01 1.126432e-02 -4.329690e-02 8.389231e-02 3.311088e-02 -1.476379e-01 2.597393e-02 1.860760e-02 7.062705e-02 4.250896e-02 3.141985e-02 1.155345e-02 -5.640659e-03 5.761502e-03 2.232592e-02 7.698688e-02 9.508357e-04 -1.901745e-02 6.416680e-02
<VARIANCE> 39
 7.958894e+00 8.953341e+00 1.299938e+01 1.901332e+01 2.712519e+01 3.516530e+01 3.836104e+01 3.535619e+01 3.346840e+01 3.234913e+01 2.738283e+01 2.227162e+01 3.268838e+00 2.761019e-01 5.686661e-01 9.944084e-01 1.476638e+00 1.643583e+00 2.048830e+00 2.393208e+00 2.643299e+00 2.476867e+00 2.255431e+00 2.400439e+00 1.953275e+00 7.959975e-02 5.690849e-02 1.309258e-01 2.084244e-01 3.037668e-01 3.291035e-01 4.181678e-01 4.873742e-01 5.673725e-01 4.921890e-01 4.342415e-01 5.104913e-01 4.187801e-01 2.509317e-02
<GCONST> 9.473891e+01
<STATE> 4
<NUMMIXES> 2
<MIXTURE> 1 5.140206e-01
<MEAN> 39
 -1.035569e+01 -1.144798e+00 1.166730e+00 1.818847e+00 -8.401337e-01 -4.414155e+00 -3.328234e+00 5.133594e-01 1.906337e+00 1.399397e+00 -3.621537e-01 5.163733e-01 6.288216e+01 9.299843e-02 -7.209187e-01 4.694935e-01 4.024848e-01 -1.255127e-01 -6.903411e-01 -5.017711e-01 7.983180e-01 2.818048e-02 -1.959700e-01 1.115620e-01 -2.133424e-01 1.024266e+00 5.753104e-01 7.588028e-01 2.286088e-01 1.593604e-01 1.233175e-02 1.405611e-01 2.055101e-01 -2.036010e-01 -3.084747e-01 -2.196501e-01 1.778259e-02 -1.462306e-01 -6.761788e-01
<VARIANCE> 39
 1.886318e+01 2.442027e+01 2.459405e+01 3.609336e+01 3.208297e+01 4.557831e+01 3.703119e+01 3.895131e+01 3.776043e+01 4.391571e+01 2.750804e+01 2.700700e+01 2.563782e+01 3.579966e+00 3.442862e+00 2.726240e+00 4.227686e+00 3.253700e+00 4.401871e+00 3.880747e+00 4.358559e+00 3.633562e+00 3.682538e+00 2.670564e+00 2.815615e+00 4.950777e+00 2.573299e-01 4.379049e-01 3.485481e-01 7.230989e-01 6.837374e-01 8.325613e-01 7.940314e-01 6.980982e-01 6.469811e-01 6.900078e-01 6.027504e-01 5.995723e-01 5.851251e-01
<GCONST> 1.260105e+02
<MIXTURE> 2 4.859788e-01
<MEAN> 39
 -5.825191e+00 6.962844e+00 2.417720e+00 2.909343e+00 7.841759e-01 -1.584693e+00 1.968819e-01 -2.198475e+00 -5.756277e-01 -6.148183e-01 -1.185506e+00 -9.796936e-04 5.144931e+01 -6.540245e-01 -9.920004e-01 -9.173282e-02 -2.061363e-01 -5.997231e-02 -5.518615e-02 -3.380465e-01 4.083403e-01 5.452285e-01 5.136248e-01 2.501512e-01 2.242304e-01 1.695666e+00 -1.622893e-01 -4.634148e-01 7.588687e-03 -6.179199e-02 -1.649967e-01 -3.046759e-01 -2.551388e-01 3.543471e-01 7.833727e-02 2.994767e-02 2.832551e-02 4.050081e-02 8.440447e-01
<VARIANCE> 39
 6.525351e+00 1.090439e+01 1.155452e+01 1.665118e+01 1.964604e+01 2.904719e+01 3.929675e+01 3.136369e+01 3.143318e+01 2.554756e+01 1.819011e+01 2.054750e+01 3.520151e+00 9.764895e-01 1.822570e+00 1.326982e+00 2.011985e+00 2.588335e+00 3.885372e+00 4.253678e+00 3.789254e+00 2.794647e+00 3.385383e+00 2.210343e+00 2.194863e+00 3.816413e+00 2.452627e-01 1.988496e-01 2.941549e-01 4.370125e-01 3.443881e-01 6.976417e-01 7.728904e-01 6.999090e-01 5.345292e-01 5.375031e-01 3.995495e-01 4.256697e-01 2.273361e-01
<GCONST> 1.087356e+02
<TRANSP> 5
 0.000000e+00 1.000000e+00 0.000000e+00 0.000000e+00 0.000000e+00
 0.000000e+00 8.030682e-01 1.969318e-01 0.000000e+00 0.000000e+00
 0.000000e+00 0.000000e+00 9.078873e-01 9.211266e-02 0.000000e+00
 0.000000e+00 0.000000e+00 0.000000e+00 8.538200e-01 1.461800e-01
 0.000000e+00 0.000000e+00 0.000000e+00 0.000000e+00 0.000000e+00
<ENDHMM>
~h "r"
<BEGINHMM>
<NUMSTATES> 5
<STATE> 2
<NUMMIXES> 2
<MIXTURE> 1 5.785385e-01
<MEAN> 39
 -4.981021e+00 -1.529457e+00 6.275555e-01 6.437097e+00 1.815520e+00 -1.400165e+00 -4.872684e+00 -1.318616e+00 3.184027e+00 1.408501e+00 -1.324229e+00 -1.732757e+00 5.918423e+01 1.659697e+00 9.990832e-01 1.082694e-01 4.922587e-01 2.065267e-01 4.230715e-02 -8.667895e-02 -1.245569e-01 -3.198172e-01 -7.290532e-02 2.691393e-01 2.538410e-03 3.520311e-02 1.657581e-01 3.366096e-02 -1.228271e-01 -1.355104e-01 -3.212601e-01 -2.047269e-01 -2.301525e-02 8.722733e-03 -2.176617e-01 -5.939465e-02 1.889943e-01 2.213210e-01 1.748088e-01
<VARIANCE> 39
 2.795946e+01 4.332410e+01 2.940943e+01 3.278392e+01 3.140698e+01 4.915374e+01 3.904596e+01 4.971362e+01 4.545589e+01 3.627017e+01 3.326672e+01 3.289541e+01 2.323453e+01 3.464487e+00 2.595635e+00 2.078717e+00 2.810590e+00 2.819836e+00 3.583796e+00 3.183957e+00 2.727945e+00 3.596345e+00 3.191140e+00 2.925350e+00 2.629663e+00 1.274258e+00 3.052740e-01 5.942482e-01 4.694050e-01 6.086918e-01 6.248139e-01 6.319014e-01 5.889500e-01 4.991427e-01 6.797612e-01 5.145758e-01 5.704282e-01 5.337912e-01 2.334693e-01
<GCONST> 1.224639e+02
<MIXTURE> 2 4.214593e-01
<MEAN> 39
 6.197489e+00 2.169291e+00 -1.389048e+00 6.930417e+00 -3.813903e+00 -4.258605e+00 -6.504301e+00 -1.204806e+00 -2.340395e+00 5.889943e-01 3.435623e+00 7.902423e-01 6.503649e+01 8.260725e-01 -4.232953e-01 -6.087053e-01 -8.347843e-02 -1.062771e+00 -7.979848e-01 -6.101481e-01 7.220008e-02 -2.652071e-01 1.297744e-01 9.260706e-01 4.441891e-01 5.335889e-01 -5.800731e-01 -1.892305e-01 1.962015e-01 -3.212533e-02 2.096613e-01 1.757076e-01 1.603562e-01 1.324994e-01 2.754641e-01 -3.129046e-02 -2.296308e-01 -2.450071e-01 -1.777618e-01
<VARIANCE> 39
 8.173065e+00 1.995780e+01 5.357132e+01 2.458819e+01 3.213381e+01 9.081908e+01 4.527081e+01 4.811459e+01 4.257506e+01 3.620634e+01 4.039506e+01 2.671527e+01 1.161972e+01 1.465327e+00 1.217468e+00 2.143612e+00 1.788183e+00 2.713631e+00 2.812223e+00 2.506810e+00 2.714189e+00 3.277382e+00 2.417932e+00 2.562119e+00 2.313798e+00 7.916293e-01 2.653032e-01 3.277109e-01 2.258849e-01 2.692873e-01 2.962044e-01 4.288510e-01 3.737845e-01 3.765329e-01 3.633092e-01 3.741967e-01 4.034712e-01 3.111274e-01 6.638989e-02
<GCONST> 1.098362e+02
<STATE> 3
<MEAN> 39
 7.079397e+00 2.297669e+00 -4.820692e+00 6.161234e+00 -2.445004e+00 -1.412140e+00 -7.316686e+00 -2.622317e+00 -3.147264e+00 2.043417e+00 4.272249e+00 6.623174e-01 6.490689e+01 -1.173145e-02 -2.154436e-01 2.002139e-01 2.024911e-01 -9.933499e-02 -3.811151e-01 -2.126844e-01 2.919174e-01 3.654627e-01 -5.676361e-02 -2.620700e-01 -1.750629e-01 4.454856e-02 -6.911860e-02 2.307333e-02 1.128470e-01 -2.368811e-02 -1.138499e-02 -2.704800e-02 7.402960e-02 9.078591e-02 1.167864e-02 -1.143202e-01 -7.608666e-02 2.379263e-03 -1.483983e-02
<VARIANCE> 39
 5.715127e+00 1.677526e+01 3.054109e+01 1.544592e+01 2.927729e+01 5.877856e+01 4.331094e+01 5.027143e+01 5.643864e+01 4.065844e+01 6.340746e+01 3.530263e+01 9.654870e+00 2.019721e-01 5.142822e-01 7.601967e-01 9.480560e-01 9.625895e-01 1.740978e+00 1.679891e+00 1.653710e+00 1.816060e+00 1.958411e+00 2.087764e+00 1.462541e+00 2.073347e-01 3.112213e-02 5.514348e-02 9.162574e-02 1.101302e-01 1.490352e-01 2.027328e-01 2.120720e-01 2.813884e-01 2.548695e-01 2.896038e-01 2.877409e-01 2.270944e-01 1.692746e-02
<GCONST> 8.831481e+01
<STATE> 4
<NUMMIXES> 2
<MIXTURE> 1 6.205316e-01
<MEAN> 39
 4.387604e+00 -1.192734e+00 7.968428e+00 8.271193e+00 -1.297808e+01 -1.395088e+01 -3.551434e+00 4.523031e+00 -1.192743e+00 -4.688627e+00 6.107452e+00 3.132822e+00 6.690781e+01 -7.037998e-02 1.132306e-01 1.518446e-01 -6.782793e-02 -2.124732e-01 1.095915e-01 2.471389e-01 -1.034336e-01 -1.078763e-01 1.152389e-01 2.616515e-02 8.947020e-03 -6.085023e-02 -8.434944e-03 5.483285e-02 -3.415458e-02 -1.436917e-02 6.698882e-02 5.309866e-02 -5.330761e-02 -5.337932e-02 2.511435e-02 7.715714e-02 -4.613450e-02 -2.462519e-02 -2.285908e-02
<VARIANCE> 39
 6.742682e+00 1.691617e+01 3.708534e+01 1.802874e+01 3.088696e+01 3.608280e+01 4.259630e+01 3.907949e+01 5.946504e+01 2.286244e+01 3.935749e+01 2.838080e+01 8.069713e+00 1.622032e-01 3.454298e-01 5.491320e-01 4.862287e-01 8.546058e-01 9.223795e-01 1.017108e+00 1.076183e+00 1.183104e+00 1.023998e+00 1.272732e+00 9.274484e-01 1.338463e-01 1.488008e-02 3.583335e-02 5.435343e-02 6.596447e-02 9.561814e-02 1.243093e-01 1.323038e-01 1.372183e-01 1.491814e-01 1.449645e-01 1.610551e-01 1.327791e-01 1.061422e-02
<GCONST> 7.383758e+01
<MIXTURE> 2 3.794681e-01
<MEAN> 39
 5.532460e+00 2.525196e-02 6.583221e-01 9.148821e+00 -5.677365e+00 -7.166704e+00 -8.484616e+00 4.196085e+00 9.673705e-01 -1.427646e+00 6.120141e-01 -1.208831e-01 6.546079e+01 -5.914426e-01 1.987470e-01 1.081519e+00 4.412813e-02 -2.102200e-01 -6.787348e-01 6.755210e-01 6.288555e-01 -8.381773e-02 -8.332580e-01 6.391237e-03 4.020159e-01 -1.568561e-01 -1.607614e-01 2.435952e-01 3.351113e-02 -1.518950e-01 1.350677e-01 2.364230e-01 2.411885e-01 -3.030922e-01 -2.261224e-01 1.218901e-01 1.452234e-01 2.379838e-02 -1.149343e-01
<VARIANCE> 39
 7.048119e+00 1.717010e+01 3.351110e+01 2.472114e+01 3.010675e+01 6.408858e+01 5.408094e+01 4.769983e+01 4.818218e+01 4.264740e+01 3.459760e+01 3.029551e+01 1.289022e+01 4.101506e-01 8.255827e-01 1.179010e+00 1.086430e+00 2.008703e+00 2.454192e+00 2.291251e+00 2.896380e+00 2.177771e+00 2.281336e+00 2.086005e+00 1.881269e+00 5.208006e-01 5.772206e-02 9.988099e-02 1.183217e-01 1.852192e-01 2.279442e-01 3.430753e-01 3.534687e-01 4.160926e-01 3.343876e-01 3.258806e-01 2.779024e-01 2.802776e-01 5.247473e-02
<GCONST> 9.956441e+01
<TRANSP> 5
 0.000000e+00 1.000000e+00 0.000000e+00 0.000000e+00 0.000000e+00
 0.000000e+00 7.920786e-01 2.079214e-01 0.000000e+00 0.000000e+00
 0.000000e+00 0.000000e+00 8.122953e-01 1.877048e-01 0.000000e+00
 0.000000e+00 0.000000e+00 0.000000e+00 8.448927e-01 1.551073e-01
 0.000000e+00 0.000000e+00 0.000000e+00 0.000000e+00 0.000000e+00
<ENDHMM>
~h "s"
<BEGINHMM>
<NUMSTATES> 5
<STATE> 2
<NUMMIXES> 2
<MIXTURE> 1 3.813137e-01
<MEAN> 39
 -4.046532e+00 1.045549e+01 7.862757e+00 4.579061e+00 5.716869e-01 -7.081722e+00 -7.917126e-01 1.056471e+00 -2.290670e+00 2.857134e+00 -4.220606e-01 8.608978e-01 6.364966e+01 -2.476941e+00 5.518926e-01 3.048494e-01 -6.604588e-01 1.984255e+00 3.875658e-01 1.145173e+00 2.708515e-01 3.023450e-02 -4.389499e-01 -6.377711e-01 7.393698e-02 1.328896e-02 -5.928541e-01 -2.378288e-01 -3.040613e-01 -2.375209e-01 -1.681758e-01 2.814659e-02 -1.569069e-02 -1.133077e-01 -2.138062e-01 -2.524094e-01 3.329677e-02 -9.127373e-02 2.410071e-01
<VARIANCE> 39
 1.898355e+01 1.821143e+01 2.824519e+01 2.851707e+01 6.694578e+01 6.059463e+01 4.388387e+01 4.234488e+01 4.374448e+01 2.923843e+01 3.870150e+01 3.410685e+01 1.230726e+01 1.495209e+00 1.149484e+00 2.113199e+00 2.134231e+00 3.267189e+00 3.677233e+00 2.405777e+00 3.414886e+00 3.139279e+00 3.388569e+00 3.250371e+00 2.799366e+00 4.774304e-01 1.715927e-01 1.649519e-01 2.779263e-01 3.861374e-01 5.640931e-01 5.816136e-01 4.625437e-01 4.899832e-01 4.636828e-01 5.118730e-01 5.893567e-01 4.314359e-01 6.299265e-02
<GCONST> 1.134045e+02
<MIXTURE> 2 6.186875e-01
<MEAN> 39
 -1.755944e+01 9.976618e+00 4.456419e+00 -4.657794e-01 4.429149e+00 -5.385841e+00 7.181222e-01 6.536041e-01 -3.557266e+00 -4.787568e-01 -1.857738e+00 2.223366e-01 6.467815e+01 -2.563083e+00 1.197775e-01 -9.088569e-01 -1.067191e+00 2.012750e-01 -2.076787e-01 -1.602171e-01 -2.182939e-01 -5.259133e-01 -1.778596e-01 -8.252712e-02 4.174302e-02 6.106971e-01 4.931727e-01 -4.357484e-02 6.610210e-05 1.128359e-01 -1.539589e-01 4.742379e-02 -1.424608e-01 -3.337560e-02 4.247507e-02 1.869573e-01 2.562382e-02 -3.052022e-02 -9.006592e-02
<VARIANCE> 39
 2.942218e+01 3.695237e+01 3.548001e+01 4.849977e+01 4.331461e+01 5.182185e+01 5.938477e+01 4.464429e+01 4.049832e+01 3.748662e+01 3.190926e+01 3.226439e+01 1.309235e+01 1.873272e+00 2.845368e+00 2.006340e+00 2.446601e+00 2.856715e+00 3.163957e+00 3.039976e+00 3.052848e+00 2.841091e+00 3.025754e+00 2.789128e+00 2.297566e+00 6.450750e-01 2.631255e-01 5.675195e-01 3.866467e-01 4.592590e-01 6.401405e-01 6.550882e-01 6.454356e-01 5.610675e-01 5.593390e-01 5.520290e-01 5.607623e-01 4.611987e-01 1.209661e-01
<GCONST> 1.196621e+02
<STATE> 3
<MEAN> 39
 -2.420729e+01 9.444078e+00 1.178432e+00 -3.502911e+00 5.195296e+00 -5.886083e+00 7.561811e-01 6.276354e-01 -4.423772e+00 6.492938e-01 -2.295079e+00 3.708503e-01 6.625441e+01 -1.648851e-01 -2.564689e-01 -4.383895e-02 -1.699179e-01 -8.370541e-02 1.084226e-01 -6.312052e-02 1.163745e-01 9.304935e-02 3.247891e-02 2.912665e-02 -1.961355e-02 1.892772e-02 1.411446e-01 -5.234066e-02 7.360961e-02 4.972051e-02 -8.447093e-02 -3.316265e-02 -1.403179e-02 3.830421e-02 4.270589e-02 -2.360692e-02 3.632427e-02 1.536616e-02 -6.043435e-02
<VARIANCE> 39
 6.505013e+00 1.867416e+01 3.157863e+01 4.028334e+01 3.310789e+01 4.391177e+01 5.552433e+01 4.585374e+01 4.339042e+01 3.851907e+01 2.944689e+01 2.904657e+01 6.998182e+00 3.638574e-01 1.116562e+00 1.117447e+00 1.533935e+00 2.009869e+00 2.420254e+00 2.457104e+00 2.860432e+00 2.512212e+00 2.769148e+00 2.393111e+00 1.965735e+00 1.774181e-01 8.031197e-02 1.503977e-01 2.123088e-01 3.048277e-01 3.618391e-01 4.755434e-01 4.641176e-01 5.713432e-01 4.971788e-01 5.631313e-01 4.701755e-01 3.874753e-01 2.743204e-02
<GCONST> 1.029839e+02
<STATE> 4
<NUMMIXES> 2
<MIXTURE> 1 4.160834e-01
<MEAN> 39
 -1.341249e+01 6.395495e+00 1.505327e+00 -1.215291e+00 1.885511e+00 -6.714217e+00 -1.984920e+00 1.034947e+00 -2.537176e+00 1.440923e+00 -2.085371e+00 -1.403673e-01 5.796880e+01 2.049689e+00 4.431606e-01 1.483318e-01 1.089310e+00 -9.038953e-02 4.711230e-01 8.158351e-02 -3.882745e-02 1.899413e-01 -1.821602e-02 -2.848899e-01 -3.225838e-01 -1.015329e+00 -1.680847e-01 9.722623e-02 6.718808e-02 1.730646e-02 -3.122413e-02 2.335566e-02 5.447552e-02 3.652013e-02 2.314295e-02 1.797478e-02 9.066922e-02 -1.426969e-02 4.485108e-01
<VARIANCE> 39
 1.025232e+01 3.874450e+01 2.562034e+01 3.422850e+01 3.824979e+01 3.301579e+01 4.672335e+01 4.508979e+01 4.038636e+01 3.419336e+01 3.160750e+01 2.828635e+01 1.464807e+01 2.445119e+00 2.703099e+00 2.803699e+00 3.427889e+00 3.175251e+00 3.000709e+00 2.868434e+00 3.301997e+00 2.709605e+00 3.136686e+00 2.732166e+00 2.362352e+00 1.275239e+00 3.385909e-01 3.856088e-01 3.977470e-01 5.704485e-01 6.341419e-01 5.229184e-01 5.483336e-01 5.993352e-01 5.129422e-01 6.088339e-01 4.911645e-01 5.152857e-01 1.812352e-01
<GCONST> 1.188630e+02
<MIXTURE> 2 5.839169e-01
<MEAN> 39
 -2.257549e+01 5.321379e+00 2.683734e+00 -3.964488e+00 1.719125e+00 -5.571249e+00 -1.598951e+00 2.278974e+00 -2.256178e+00 1.484717e-01 -1.078786e+00 8.391951e-01 6.517649e+01 1.537909e+00 -4.866642e-01 1.638460e-01 3.756130e-01 -5.805292e-01 -3.064972e-01 -3.975938e-01 1.313558e-01 3.456181e-01 5.067339e-02 1.752057e-03 -8.391949e-03 -9.207904e-01 5.221049e-01 1.981070e-01 -4.244363e-02 2.455497e-01 1.148545e-01 1.155558e-01 -2.528283e-02 -9.954315e-02 -3.161155e-02 4.003098e-02 -1.468174e-01 -1.346602e-01 -2.493046e-01
<VARIANCE> 39
 1.278413e+01 4.940891e+01 3.903271e+01 3.566318e+01 4.063099e+01 5.858599e+01 5.414828e+01 5.375290e+01 5.159396e+01 4.206083e+01 3.330106e+01 3.065388e+01 8.304228e+00 1.610959e+00 2.304149e+00 2.030570e+00 2.426124e+00 2.801913e+00 3.791858e+00 2.998954e+00 3.228193e+00 2.940839e+00 3.362413e+00 2.567584e+00 2.691727e+00 7.316923e-01 2.128699e-01 5.265839e-01 4.455574e-01 4.945973e-01 5.794582e-01 7.812209e-01 6.042899e-01 6.647009e-01 5.447922e-01 7.007604e-01 5.143001e-01 4.944773e-01 8.849471e-02
<GCONST> 1.191320e+02
<TRANSP> 5
 0.000000e+00 1.000000e+00 0.000000e+00 0.000000e+00 0.000000e+00
 0.000000e+00 8.587983e-01 1.412017e-01 0.000000e+00 0.000000e+00
 0.000000e+00 0.000000e+00 9.144900e-01 8.550999e-02 0.000000e+00
 0.000000e+00 0.000000e+00 0.000000e+00 8.572994e-01 1.427006e-01
 0.000000e+00 0.000000e+00 0.000000e+00 0.000000e+00 0.000000e+00
<ENDHMM>
~h "t"
<BEGINHMM>
<NUMSTATES> 5
<STATE> 2
<NUMMIXES> 2
<MIXTURE> 1 3.601119e-01
<MEAN> 39
 -3.377304e+00 7.660291e+00 6.325693e+00 3.964820e+00 -3.072234e+00 -3.648546e+00 -2.056840e+00 4.889997e-02 -6.289260e-01 -8.230368e-01 -8.688071e-01 -1.485608e-01 5.947578e+01 -2.920986e-01 5.152961e-01 -3.333490e-01 -6.920181e-02 9.270332e-01 1.645041e-01 3.428375e-02 -3.632908e-01 -4.849845e-02 9.186383e-02 -3.290212e-01 4.392551e-02 -1.543582e+00 4.139290e-02 -1.853429e-01 -2.702117e-01 -2.099198e-02 -1.588079e-01 -4.643098e-02 3.605759e-02 -5.173684e-02 -1.539856e-02 -2.869608e-02 5.453076e-02 -1.715421e-02 5.386840e-02
<VARIANCE> 39
 3.023138e+01 2.535667e+01 4.062317e+01 3.637003e+01 5.285711e+01 5.069901e+01 4.856778e+01 4.671140e+01 4.728905e+01 3.496337e+01 4.419320e+01 3.044364e+01 2.751171e+01 1.993417e+00 2.305241e+00 3.162966e+00 2.987854e+00 4.714736e+00 4.304363e+00 4.111716e+00 4.129607e+00 3.513304e+00 2.875637e+00 3.545688e+00 2.864542e+00 1.705455e+00 3.700053e-01 4.626219e-01 4.794362e-01 5.638544e-01 8.888242e-01 8.460320e-01 7.264467e-01 7.968457e-01 6.845068e-01 5.802013e-01 6.811902e-01 5.328971e-01 3.516256e-01
<GCONST> 1.270587e+02
<MIXTURE> 2 6.398861e-01
<MEAN> 39
 -5.709114e+00 7.393124e+00 2.472579e+00 2.750798e+00 -1.060507e+00 -4.683781e+00 -1.916914e+00 -2.109631e+00 -1.203580e+00 -8.895498e-01 -1.081851e+00 1.397187e-01 5.264193e+01 -1.562374e-01 -2.665910e-01 -2.324397e-01 -1.044946e-01 -1.026569e-01 4.540502e-03 5.428140e-03 -1.059067e-01 8.698792e-02 3.493342e-02 1.052139e-01 6.650653e-02 -2.340984e-01 -3.508947e-02 -5.844775e-02 1.241456e-01 -2.484606e-02 3.098051e-02 1.123780e-01 -9.303265e-03 3.175941e-02 1.060081e-02 2.166694e-02 2.288512e-02 -1.912010e-02 2.024911e-01
<VARIANCE> 39
 1.116738e+01 1.159653e+01 1.582861e+01 2.037640e+01 2.480425e+01 3.050848e+01 3.747816e+01 3.898580e+01 3.627176e+01 3.247817e+01 2.853140e+01 2.150950e+01 3.346795e+00 4.015658e-01 6.881065e-01 1.147467e+00 1.638115e+00 1.985944e+00 2.247597e+00 2.370648e+00 2.617305e+00 2.414026e+00 2.650121e+00 2.419931e+00 1.917879e+00 1.458490e-01 8.158126e-02 2.012921e-01 2.482944e-01 3.326905e-01 3.924092e-01 4.964027e-01 5.088172e-01 5.545811e-01 5.007470e-01 5.780138e-01 4.931398e-01 3.850299e-01 8.850680e-02
<GCONST> 1.002343e+02
<STATE> 3
<MEAN> 39
 -6.059458e+00 7.078094e+00 2.709818e+00 2.970365e+00 -8.689720e-02 -3.369748e+00 -1.377667e+00 -2.256266e+00 -9.635014e-01 -1.137036e-01 -8.897269e-01 2.046715e-02 5.232434e+01 -1.148631e+00 -2.218906e+00 6.520244e-02 -1.393626e+00 -2.343823e-01 7.251416e-01 3.955648e-02 2.993488e-01 -2.075482e-02 2.407065e-01 3.718858e-01 4.231851e-01 2.434067e+00 -6.878034e-01 -4.977258e-01 1.680471e-01 -5.338562e-01 -3.408449e-01 -1.118085e-01 2.171418e-02 2.401774e-01 -7.596652e-02 6.336968e-02 3.184298e-02 1.533511e-01 1.179070e+00
<VARIANCE> 39
 1.075503e+01 1.314160e+01 1.605788e+01 2.069103e+01 2.287932e+01 3.002835e+01 3.156235e+01 3.295844e+01 3.476948e+01 3.365762e+01 2.559724e+01 2.416628e+01 4.757583e+00 2.009125e+00 4.500289e+00 2.583308e+00 4.247149e+00 3.417227e+00 3.963391e+00 3.133102e+00 3.808823e+00 3.444000e+00 3.305571e+00 2.453750e+00 2.330767e+00 5.441546e+00 2.049662e-01 5.219578e-01 3.389315e-01 5.428684e-01 6.075262e-01 6.887001e-01 5.717730e-01 6.982521e-01 5.949843e-01 6.478080e-01 4.853441e-01 4.800707e-01 2.883635e-01
<GCONST> 1.171475e+02
<STATE> 4
<NUMMIXES> 2
<MIXTURE> 1 6.196203e-01
<MEAN> 39
 -1.653251e+01 -2.592038e-01 6.865331e+00 -4.728104e-01 -4.914546e+00 -5.735887e+00 -6.386258e-01 2.506270e+00 -1.723393e+00 -1.404850e-01 -5.715006e-01 1.262813e+00 6.468763e+01 1.225533e+00 8.026047e-01 7.994392e-01 1.813526e+00 2.807610e-01 -2.278587e-01 6.834478e-02 2.279834e-01 -2.922113e-02 -3.887584e-01 -3.833742e-01 -5.519451e-01 -1.369768e+00 9.538128e-01 2.503905e-01 -1.844653e-01 3.555169e-01 1.806488e-01 2.314778e-01 -1.962404e-01 -2.551247e-01 1.488004e-02 -4.669520e-02 5.714797e-03 -1.497275e-01 -3.953363e-01
<VARIANCE> 39
 3.687524e+01 3.492590e+01 3.106272e+01 4.535958e+01 3.541019e+01 3.843610e+01 4.064198e+01 4.391056e+01 4.646198e+01 4.557941e+01 3.286166e+01 3.075751e+01 2.109101e+01 4.376622e+00 3.092475e+00 3.468421e+00 4.315679e+00 3.593695e+00 4.225653e+00 3.127178e+00 3.044811e+00 3.087966e+00 2.927637e+00 2.467066e+00 2.705154e+00 1.630108e+00 8.069017e-01 5.351989e-01 5.613355e-01 8.717552e-01 7.295671e-01 7.593876e-01 6.370549e-01 6.562911e-01 6.125088e-01 6.973594e-01 5.311073e-01 5.975860e-01 7.894108e-01
<GCONST> 1.280389e+02
<MIXTURE> 2 3.803793e-01
<MEAN> 39
 -1.369211e+01 -4.766190e+00 2.967289e+00 -5.209807e+00 -2.649163e+00 -6.334277e-01 -1.791799e+00 -3.322653e-01 -1.413131e+00 7.917892e-01 1.544084e-01 1.751169e+00 6.804781e+01 -2.656336e+00 -1.026925e+00 6.865731e-01 -1.400476e+00 -1.361670e+00 -8.473933e-01 1.641328e-01 1.045930e+00 -1.753335e-01 9.470225e-02 2.597019e-01 5.154236e-01 3.403935e+00 5.183792e-01 1.264327e+00 3.674147e-01 1.112533e+00 9.611885e-02 -4.898711e-01 7.330358e-02 -3.815838e-03 -2.338147e-02 -1.963505e-01 -1.970674e-01 -2.656563e-01 -1.421520e+00
<VARIANCE> 39
 2.705663e+01 4.531515e+01 4.044110e+01 5.169414e+01 4.721522e+01 4.169772e+01 3.685407e+01 3.071613e+01 3.131745e+01 3.046071e+01 2.197959e+01 1.899964e+01 3.152417e+01 2.471472e+00 4.737114e+00 3.108818e+00 4.026478e+00 3.925561e+00 3.709185e+00 3.701832e+00 4.023898e+00 4.044495e+00 4.058805e+00 2.966199e+00 2.874887e+00 3.462363e+00 8.583503e-01 6.607892e-01 6.821421e-01 1.095521e+00 9.648324e-01 8.822615e-01 6.876668e-01 6.720321e-01 6.951066e-01 6.092558e-01 4.662102e-01 4.910417e-01 7.282917e-01
<GCONST> 1.295052e+02
<TRANSP> 5
 0.000000e+00 1.000000e+00 0.000000e+00 0.000000e+00 0.000000e+00
 0.000000e+00 8.826588e-01 1.173412e-01 0.000000e+00 0.000000e+00
 0.000000e+00 0.000000e+00 6.289272e-01 3.710727e-01 0.000000e+00
 0.000000e+00 0.000000e+00 0.000000e+00 8.157392e-01 1.842608e-01
 0.000000e+00 0.000000e+00 0.000000e+00 0.000000e+00 0.000000e+00
<ENDHMM>
~h "v"
<BEGINHMM>
<NUMSTATES> 5
<STATE> 2
<NUMMIXES> 2
<MIXTURE> 1 6.447060e-01
<MEAN> 39
 4.487642e+00 6.321771e+00 -2.328932e-01 6.395884e+00 -6.555468e-01 -5.526765e+00 -7.867457e+00 -2.507790e+00 -3.284139e-01 4.280002e+00 4.281999e+00 -3.096896e+00 6.172267e+01 -2.625633e-01 6.520299e-01 1.782795e-01 -1.423835e-01 8.815682e-01 6.213862e-01 3.735301e-01 -7.842216e-01 -3.822677e-02 3.074192e-01 1.842649e-01 3.635575e-01 -7.762154e-01 -1.848188e-01 -1.146881e-01 2.204680e-01 5.249195e-02 -1.312790e-01 8.543725e-02 2.540546e-01 1.561066e-01 -6.105084e-02 -2.832599e-01 -1.405904e-01 1.262087e-01 1.016433e-01
<VARIANCE> 39
 7.421178e+00 1.390787e+01 2.308665e+01 1.202003e+01 1.721530e+01 4.099789e+01 3.322651e+01 3.081294e+01 3.350184e+01 2.688037e+01 2.626342e+01 2.563572e+01 1.197322e+01 3.907702e-01 5.404749e-01 8.231401e-01 9.223260e-01 1.250197e+00 1.949080e+00 1.761903e+00 2.522099e+00 2.187896e+00 2.549610e+00 1.520438e+00 1.916988e+00 3.102214e-01 2.851088e-02 7.781499e-02 1.015846e-01 1.294168e-01 1.719651e-01 2.652051e-01 2.656845e-01 3.318372e-01 3.728693e-01 3.290140e-01 2.555567e-01 3.025639e-01 2.255605e-02
<GCONST> 8.898970e+01
<MIXTURE> 2 3.552943e-01
<MEAN> 39
 3.567228e+00 9.929397e-01 4.596489e+00 8.825957e+00 -9.195394e+00 -1.185293e+01 -7.894728e+00 5.825999e+00 -2.801169e+00 -3.479210e+00 5.023243e+00 3.412809e-03 6.718500e+01 4.829094e-01 5.194223e-01 -9.168737e-01 4.086537e-02 1.535804e+00 3.744581e-01 -1.081400e+00 -4.849643e-01 8.304855e-01 6.961256e-01 -1.914729e-01 -5.028359e-01 -8.808857e-01 -6.903179e-02 1.909660e-01 4.850642e-02 -2.255188e-01 1.730614e-01 2.415256e-01 2.229389e-01 -4.526552e-01 3.117877e-02 3.954688e-01 2.249004e-02 -1.195962e-01 -1.632599e-01
<VARIANCE> 39
 8.513242e+00 2.198196e+01 3.536730e+01 1.203995e+01 2.264993e+01 8.565860e+01 5.873808e+01 6.845975e+01 4.351656e+01 2.806893e+01 5.215403e+01 2.736017e+01 1.662571e+01 1.789827e-01 4.649936e-01 5.812678e-01 9.542406e-01 8.170593e-01 1.544605e+00 1.237693e+00 3.030718e+00 1.745991e+00 1.901991e+00 2.243729e+00 1.125259e+00 4.092654e-01 3.032855e-02 3.985651e-02 1.020095e-01 1.344665e-01 1.360134e-01 2.601499e-01 2.534668e-01 2.666259e-01 2.962315e-01 2.202630e-01 3.328638e-01 1.832150e-01 2.592173e-02
<GCONST> 8.950462e+01
<STATE> 3
<MEAN> 39
 -2.900675e+00 7.750211e+00 5.266831e+00 6.351738e+00 1.882663e+00 -2.370698e+00 -3.296416e+00 -2.897644e+00 -1.990215e-01 1.826629e+00 1.044500e+00 3.444102e-02 5.896989e+01 -7.860656e-01 -3.162203e-01 2.429995e-01 -2.223775e-02 1.734030e-01 2.545398e-01 3.391924e-01 1.047077e-01 -2.874485e-02 -3.414328e-01 -2.975987e-01 1.629197e-02 1.177199e-01 9.436665e-02 -8.240496e-02 -1.462923e-01 -5.120049e-02 -1.498797e-01 -1.105341e-01 -1.072463e-01 6.472740e-02 1.130279e-02 5.605833e-02 2.831089e-02 -1.053501e-01 1.280397e-01
<VARIANCE> 39
 2.388276e+01 1.017020e+01 1.566367e+01 1.430621e+01 2.244188e+01 2.791143e+01 2.801651e+01 2.600237e+01 3.092366e+01 3.127507e+01 2.768156e+01 2.249513e+01 1.187836e+01 6.392040e-01 6.239547e-01 1.157250e+00 1.201476e+00 1.562481e+00 2.400473e+00 2.219936e+00 2.446181e+00 2.991936e+00 2.781791e+00 2.399741e+00 1.933062e+00 3.654785e-01 7.914919e-02 1.082985e-01 1.877312e-01 2.371289e-01 2.915092e-01 4.227437e-01 3.518121e-01 4.106907e-01 5.701907e-01 5.752101e-01 4.340050e-01 3.936557e-01 3.652689e-02
<GCONST> 9.837628e+01
<STATE> 4
<NUMMIXES> 2
<MIXTURE> 1 5.962489e-01
<MEAN> 39
 6.360856e+00 8.279716e+00 -3.694286e+00 3.164749e+00 -2.064198e+00 -1.403144e+00 -4.065326e+00 -6.181350e+00 -6.063569e+00 5.024200e+00 8.497993e+00 5.236977e-01 6.173360e+01 1.104527e-01 -1.896715e-01 -1.964789e-01 -5.367632e-02 -1.728989e-01 -2.232168e-01 -4.087359e-01 2.015574e-01 2.590426e-01 2.894587e-01 -9.010636e-02 -2.108719e-01 2.624228e-01 -4.559790e-02 -9.677435e-02 9.160853e-02 5.076877e-02 5.450123e-03 -1.028364e-01 -7.674528e-02 1.533287e-01 2.041466e-01 -4.350410e-02 -1.587756e-01 -7.504535e-02 6.153144e-02
<VARIANCE> 39
 4.693969e+00 1.184522e+01 2.107392e+01 3.393790e+01 2.431795e+01 3.094969e+01 6.256450e+01 3.433835e+01 2.986520e+01 2.920412e+01 3.615131e+01 3.188638e+01 8.861239e+00 3.281422e-01 4.471758e-01 7.412757e-01 1.089149e+00 9.911844e-01 1.489995e+00 1.822475e+00 1.481665e+00 1.799658e+00 1.693299e+00 1.953057e+00 1.438648e+00 2.258483e-01 3.724043e-02 5.055666e-02 9.327346e-02 1.841020e-01 1.572780e-01 2.291455e-01 1.960837e-01 1.907195e-01 2.386047e-01 2.290718e-01 2.938304e-01 1.938305e-01 1.449652e-02
<GCONST> 8.552142e+01
<MIXTURE> 2 4.037514e-01
<MEAN> 39
 -2.746370e+00 6.082727e+00 1.291474e+00 2.907435e+00 -5.781459e-01 -3.420552e+00 -1.150125e+00 2.002415e-01 -8.158702e-01 1.660498e+00 5.342306e-01 -2.082037e+00 6.178689e+01 2.638021e-01 -1.791445e-01 -3.313946e-01 -3.733267e-01 -4.339846e-01 1.453135e-01 -1.087085e-01 9.435729e-02 -2.414099e-02 -3.909630e-01 3.208288e-01 5.964277e-02 3.453008e-01 1.831075e-01 7.181233e-02 -3.590360e-02 7.936749e-02 -1.060647e-01 2.731422e-02 -5.634937e-02 -1.589323e-01 -2.069692e-01 -1.063921e-03 2.390121e-01 1.116611e-01 -1.044673e-01
<VARIANCE> 39
 6.284193e+01 2.318421e+01 2.930118e+01 4.014940e+01 3.836315e+01 3.148736e+01 4.525356e+01 3.009162e+01 3.017452e+01 4.518118e+01 3.162064e+01 3.744951e+01 1.265463e+01 1.082035e+00 1.049096e+00 1.454921e+00 1.606023e+00 1.787819e+00 2.621871e+00 2.110535e+00 2.523137e+00 2.794178e+00 3.107266e+00 3.392987e+00 2.429142e+00 4.889232e-01 1.717673e-01 1.182655e-01 1.595396e-01 2.510421e-01 3.171704e-01 3.411892e-01 3.834477e-01 3.251457e-01 3.748649e-01 5.163462e-01 4.830040e-01 4.353550e-01 7.129269e-02
<GCONST> 1.076629e+02
<TRANSP> 5
 0.000000e+00 1.000000e+00 0.000000e+00 0.000000e+00 0.000000e+00
 0.000000e+00 8.290414e-01 1.709586e-01 0.000000e+00 0.000000e+00
 0.000000e+00 0.000000e+00 8.018464e-01 1.981536e-01 0.000000e+00
 0.000000e+00 0.000000e+00 0.000000e+00 8.479367e-01 1.520633e-01
 0.000000e+00 0.000000e+00 0.000000e+00 0.000000e+00 0.000000e+00
<ENDHMM>
~h "w"
<BEGINHMM>
<NUMSTATES> 5
<STATE> 2
<NUMMIXES> 2
<MIXTURE> 1 3.042295e-01
<MEAN> 39
 2.685725e+00 5.429812e+00 5.327535e+00 1.057919e+01 -7.754494e+00 -1.117381e+01 -5.444967e+00 -2.180779e+00 -4.856728e+00 8.709766e-01 3.459262e+00 1.087154e+00 6.576638e+01 6.097129e-01 3.305183e-01 -1.484703e+00 -4.165230e-01 1.813645e+00 5.089875e-01 -1.027733e+00 -6.503925e-01 3.673161e-01 6.003727e-01 -7.801861e-02 -2.915912e-01 -6.415316e-01 -1.138530e-01 2.081445e-01 9.702496e-02 -3.016858e-01 -2.854378e-02 4.812971e-01 2.339173e-01 -3.557713e-01 -9.122188e-02 2.163270e-01 5.270100e-02 -2.680363e-02 -1.047325e-01
<VARIANCE> 39
 7.872399e+00 6.362750e+00 3.196365e+01 1.473379e+01 5.534370e+01 6.757858e+01 5.352662e+01 3.005714e+01 3.610539e+01 4.726741e+01 3.066835e+01 3.302658e+01 1.102400e+01 3.462119e-01 5.807405e-01 1.260490e+00 1.399398e+00 2.666035e+00 3.579865e+00 3.041518e+00 3.336279e+00 3.138632e+00 3.663742e+00 3.340444e+00 2.385168e+00 2.908136e-01 4.979800e-02 1.029085e-01 1.392286e-01 1.652708e-01 3.709093e-01 3.793679e-01 4.617566e-01 5.085984e-01 5.930840e-01 6.726256e-01 5.058564e-01 4.914257e-01 2.817572e-02
<GCONST> 1.026023e+02
<MIXTURE> 2 6.957706e-01
<MEAN> 39
 -8.856510e+00 6.422209e-01 -4.026809e-01 1.218267e+00 -1.530535e+00 -2.733152e+00 -3.268812e+00 5.902151e-01 -9.017637e-01 9.209143e-01 -5.849521e-01 -1.697495e-01 5.901116e+01 3.504467e-01 5.554559e-01 1.021428e-01 1.896850e-01 3.979609e-01 3.065173e-01 2.076860e-01 -3.623051e-01 -1.108747e-01 1.384292e-01 2.170364e-02 -1.958405e-01 -5.033312e-01 6.127094e-02 1.786483e-01 1.843622e-01 8.733049e-02 5.004504e-02 4.682418e-02 5.867070e-02 4.668338e-03 -9.932882e-02 -7.359990e-02 -8.250397e-04 5.922742e-03 5.143713e-02
<VARIANCE> 39
 4.637318e+01 3.322387e+01 3.467524e+01 4.142223e+01 3.429655e+01 4.448248e+01 5.163149e+01 4.645476e+01 3.905642e+01 4.055491e+01 3.623922e+01 2.966473e+01 2.603234e+01 1.573664e+00 2.426986e+00 2.658854e+00 2.988591e+00 2.931501e+00 2.705346e+00 4.293740e+00 3.617375e+00 3.406154e+00 4.163613e+00 3.141293e+00 3.003403e+00 7.869934e-01 2.168709e-01 3.660209e-01 3.537386e-01 4.745520e-01 5.888042e-01 5.182009e-01 8.218787e-01 7.251627e-01 7.226434e-01 8.175380e-01 6.607665e-01 5.313471e-01 1.183685e-01
<GCONST> 1.221605e+02
<STATE> 3
<MEAN> 39
 -8.277250e-01 9.343732e+00 4.128484e+00 6.721788e+00 1.723606e+00 -5.998425e-01 -1.458922e+00 -2.721872e+00 -2.210366e+00 2.991892e-01 -1.370170e+00 -1.933820e+00 5.713428e+01 7.796060e-01 4.479467e-01 -3.025436e-01 -1.734253e-01 -1.773083e-01 9.370665e-02 7.714705e-02 -1.969599e-01 -2.568031e-01 6.013875e-02 2.148354e-01 7.360587e-02 2.820117e-01 -3.148307e-02 -1.984399e-01 -1.732899e-01 -1.284265e-01 -2.484037e-01 -8.744831e-02 -8.615967e-02 6.600779e-02 5.077356e-03 -4.618621e-03 1.237248e-01 7.691426e-02 1.046316e-01
<VARIANCE> 39
 2.305931e+01 1.312267e+01 2.219001e+01 2.591114e+01 2.711615e+01 3.480718e+01 3.501513e+01 3.086279e+01 3.200563e+01 3.916151e+01 2.883406e+01 2.288813e+01 1.466354e+01 1.822022e+00 1.430018e+00 2.107302e+00 2.321981e+00 2.873098e+00 2.774983e+00 2.942819e+00 2.459406e+00 2.948837e+00 2.905253e+00 2.817480e+00 1.864507e+00 9.200534e-01 2.227743e-01 2.296423e-01 3.093679e-01 3.983856e-01 4.479102e-01 4.312852e-01 5.414057e-01 4.813287e-01 5.009748e-01 5.200207e-01 4.254022e-01 3.845677e-01 9.866742e-02
<GCONST> 1.106878e+02
<STATE> 4
<NUMMIXES> 2
<MIXTURE> 1 3.584940e-01
<MEAN> 39
 6.582400e+00 8.860177e+00 -7.544183e+00 1.316917e+00 -4.716295e+00 3.013639e+00 -5.493386e+00 -7.876218e+00 -8.825669e+00 4.330035e+00 9.525067e+00 5.097815e-01 6.408678e+01 -7.088498e-02 -6.365732e-01 -1.514800e-01 4.335358e-01 1.871892e-01 -5.335224e-02 -1.153344e+00 -1.136143e-02 3.705452e-01 7.320580e-01 3.933662e-01 -4.671514e-01 4.222529e-01 -1.304059e-01 -5.345806e-02 3.153751e-01 1.395142e-01 2.449562e-02 -2.968588e-01 -1.915766e-02 2.632863e-01 3.311180e-01 -7.765391e-02 -4.276732e-01 -1.268603e-01 -2.750409e-02
<VARIANCE> 39
 3.088944e+00 1.089150e+01 1.713106e+01 2.414629e+01 3.606636e+01 3.983261e+01 5.593637e+01 3.534802e+01 3.112990e+01 4.606546e+01 4.012495e+01 3.179428e+01 8.584729e+00 2.716688e-01 8.027312e-01 1.066937e+00 1.432979e+00 1.605832e+00 2.514146e+00 2.856115e+00 2.190272e+00 2.627045e+00 3.127573e+00 3.847997e+00 2.352810e+00 4.687571e-01 4.584688e-02 8.158849e-02 1.258923e-01 1.736395e-01 2.459040e-01 2.862657e-01 4.180049e-01 3.104524e-01 3.215374e-01 5.694072e-01 4.256833e-01 3.536660e-01 2.454408e-02
<GCONST> 9.692358e+01
<MIXTURE> 2 6.415079e-01
<MEAN> 39
 5.232711e+00 1.138456e+01 -3.696468e-01 1.937677e+00 -4.933819e+00 -2.239810e+00 -6.181556e-01 -3.700913e+00 -3.836115e+00 1.697576e+00 1.305485e+00 -2.453682e-01 5.975486e+01 1.029208e-01 6.213451e-02 -2.539188e-01 -2.853479e-01 -3.184857e-01 -1.356591e-02 1.646154e-01 5.198438e-02 -2.987190e-02 -1.957909e-01 1.016991e-01 3.588616e-02 1.589169e-01 -1.368659e-02 -6.204481e-02 -4.026215e-02 3.514131e-02 2.498708e-02 2.694648e-02 -6.173985e-02 -4.936411e-02 -1.039856e-02 3.126984e-02 7.056317e-02 -1.533836e-02 5.550344e-02
<VARIANCE> 39
 5.620444e+00 1.467333e+01 2.231955e+01 3.200186e+01 3.570581e+01 3.146133e+01 3.779724e+01 2.703125e+01 3.585709e+01 3.996947e+01 2.855095e+01 2.809058e+01 7.761210e+00 2.157395e-01 3.731206e-01 8.767884e-01 9.349717e-01 1.304806e+00 1.345994e+00 1.553269e+00 1.478481e+00 1.808860e+00 1.953171e+00 1.720620e+00 1.585687e+00 2.495963e-01 2.566198e-02 6.111791e-02 9.387834e-02 1.376637e-01 1.923146e-01 2.059336e-01 2.937484e-01 2.626230e-01 2.786559e-01 3.136881e-01 2.887852e-01 2.427794e-01 1.529239e-02
<GCONST> 8.629989e+01
<TRANSP> 5
 0.000000e+00 1.000000e+00 0.000000e+00 0.000000e+00 0.000000e+00
 0.000000e+00 8.328028e-01 1.671972e-01 0.000000e+00 0.000000e+00
 0.000000e+00 0.000000e+00 8.143471e-01 1.856529e-01 0.000000e+00
 0.000000e+00 0.000000e+00 0.000000e+00 9.271894e-01 7.281061e-02
 0.000000e+00 0.000000e+00 0.000000e+00 0.000000e+00 0.000000e+00
<ENDHMM>
~h "y"
<BEGINHMM>
<NUMSTATES> 5
<STATE> 2
<NUMMIXES> 2
<MIXTURE> 1 3.237300e-01
<MEAN> 39
 -9.382621e+00 4.606264e+00 1.199450e+01 6.488205e+00 -1.666871e+00 3.414265e+00 4.716274e-01 5.849265e-01 -3.138747e+00 -1.036397e+00 -2.782483e+00 -2.014079e+00 5.777600e+01 2.119995e+00 2.192719e+00 1.611870e+00 1.870111e+00 9.743901e-01 2.651193e-01 2.983577e-01 5.684278e-01 -8.728731e-01 -5.903623e-01 -2.201655e-01 -9.219717e-01 6.322727e-01 2.079243e-01 5.745529e-02 -2.206637e-05 -4.583761e-01 -6.660826e-01 -5.764504e-01 -6.569449e-01 -3.100722e-01 -3.171655e-01 2.627134e-02 4.665459e-01 3.253591e-01 2.728148e-01
<VARIANCE> 39
 2.670667e+01 2.469658e+01 2.665486e+01 4.946421e+01 3.331422e+01 5.724109e+01 6.031810e+01 3.136530e+01 2.420226e+01 4.776753e+01 4.236924e+01 2.511302e+01 1.807503e+01 1.540777e+00 7.075819e-01 1.704391e+00 1.384321e+00 2.863625e+00 4.624386e+00 4.355943e+00 2.673308e+00 1.388713e+00 2.765834e+00 2.275520e+00 2.156031e+00 3.013020e-01 1.988930e-01 2.608660e-01 2.417964e-01 5.227748e-01 5.490558e-01 5.620174e-01 4.587552e-01 4.449660e-01 3.410149e-01 5.766409e-01 6.333072e-01 4.974583e-01 5.209430e-02
<GCONST> 1.115605e+02
<MIXTURE> 2 6.762705e-01
<MEAN> 39
 -7.862594e+00 7.536146e+00 1.739967e+01 6.883331e+00 -7.976635e+00 -2.127749e+00 -3.547319e+00 -1.998071e+00 -2.873623e+00 2.840799e-01 -3.889942e-01 -1.815409e+00 6.352679e+01 6.150758e-01 2.671425e-01 2.797107e-01 -2.318963e-01 -1.171376e+00 -5.199513e-01 -3.678598e-01 -2.772588e-01 -5.883344e-01 -5.509536e-02 1.202519e+00 3.597522e-01 2.678900e-01 -1.368249e-01 -2.411034e-01 -2.099047e-01 -1.053588e-01 -6.959948e-02 1.436355e-01 2.822272e-01 -1.325389e-01 -9.904552e-02 2.791911e-02 1.106538e-01 5.197131e-02 -3.484938e-02
<VARIANCE> 39
 5.279917e+01 2.591362e+01 4.706513e+01 4.283502e+01 3.186326e+01 6.187294e+01 4.676028e+01 4.989673e+01 3.735093e+01 3.002616e+01 3.539526e+01 2.477063e+01 2.451679e+01 2.381075e+00 9.385815e-01 8.721313e-01 1.423345e+00 2.637115e+00 6.377786e+00 4.717582e+00 3.726910e+00 2.793192e+00 2.922646e+00 3.952762e+00 2.270138e+00 5.884874e-01 1.719442e-01 2.874664e-01 1.747446e-01 3.747213e-01 3.872381e-01 6.758394e-01 6.513894e-01 9.119454e-01 4.947231e-01 4.619515e-01 3.602380e-01 3.539129e-01 3.530142e-02
<GCONST> 1.148462e+02
<STATE> 3
<MEAN> 39
 -1.400310e+00 7.616611e+00 1.416940e+01 8.269033e+00 -1.388147e+01 -5.737830e+00 -1.953374e+00 5.151248e-01 -7.802070e+00 -1.352380e+00 7.989180e+00 -1.411851e+00 6.540742e+01 -4.221044e-02 6.975842e-02 2.762471e-01 -9.560788e-02 -9.949858e-01 3.621505e-01 2.898927e-01 -3.905961e-01 -8.960873e-01 1.427187e-01 6.747472e-01 -2.111425e-01 1.494433e-01 -1.017060e-01 -5.246134e-02 -1.241620e-01 -1.570032e-02 3.928942e-01 1.856862e-01 -7.706606e-02 -3.616568e-02 2.523814e-01 2.348965e-01 -4.624835e-01 -1.592385e-01 -5.111580e-02
<VARIANCE> 39
 7.460903e+00 1.854104e+01 3.710358e+01 3.057279e+01 2.038397e+01 5.690789e+01 4.843991e+01 2.415906e+01 4.490588e+01 3.427177e+01 3.206359e+01 2.170252e+01 1.302739e+01 4.172709e-01 6.262208e-01 1.401453e+00 1.576027e+00 2.039455e+00 2.140642e+00 2.131537e+00 2.464722e+00 2.182120e+00 1.979516e+00 2.623124e+00 1.724869e+00 4.163036e-01 1.123065e-01 8.641954e-02 1.324550e-01 2.859816e-01 1.327469e-01 3.029308e-01 4.553093e-01 3.089650e-01 2.726589e-01 4.178382e-01 2.403834e-01 2.910768e-01 2.127887e-02
<GCONST> 9.712714e+01
<STATE> 4
<NUMMIXES> 2
<MIXTURE> 1 4.818301e-01
<MEAN> 39
 4.611621e-01 4.535221e+00 1.073005e+01 1.269714e+01 -1.288540e+01 -9.274372e+00 -6.415429e+00 4.120480e+00 -8.661691e+00 -4.068995e+00 8.847907e+00 -2.148160e+00 6.735578e+01 8.553799e-02 -3.587749e-02 -3.746036e-01 -2.309020e-02 2.607536e-01 -1.710923e-01 -2.895200e-01 2.069735e-01 4.521453e-01 -2.132876e-01 -2.635673e-01 2.713733e-01 8.641314e-02 -8.958208e-03 3.087141e-02 6.753345e-02 -7.095011e-02 8.586235e-02 1.050673e-01 -2.650746e-02 -8.563594e-02 7.516636e-02 5.967455e-02 -9.620739e-02 -2.501729e-02 -5.476645e-02
<VARIANCE> 39
 2.996347e+00 7.879264e+00 1.848334e+01 9.897482e+00 1.911311e+01 7.404606e+01 4.818721e+01 2.902374e+01 4.044176e+01 1.712682e+01 2.261792e+01 3.005503e+01 8.911119e+00 1.610893e-01 2.811603e-01 7.516984e-01 5.155791e-01 9.138161e-01 1.254356e+00 1.026930e+00 8.873935e-01 1.341580e+00 1.043675e+00 1.271963e+00 8.639103e-01 1.321574e-01 1.533828e-02 3.686879e-02 5.181039e-02 7.289393e-02 1.156459e-01 1.552279e-01 1.293491e-01 1.149958e-01 1.664275e-01 1.388344e-01 1.971141e-01 1.360114e-01 1.137437e-02
<GCONST> 7.105607e+01
<MIXTURE> 2 5.181702e-01
<MEAN> 39
 -3.612785e+00 9.033805e+00 2.012458e+01 4.836809e+00 -1.105692e+01 1.647647e+00 -6.040349e+00 -3.206304e+00 -1.090614e+01 2.611061e+00 3.440427e+00 -4.452194e+00 6.317639e+01 1.277818e-01 -1.791748e-01 -1.647426e-01 3.391587e-01 -1.614786e-01 -3.496502e-01 1.162452e-01 1.483390e-01 -2.553312e-01 -2.393178e-02 2.828503e-01 -2.138365e-01 8.013941e-02 1.667562e-02 -3.084674e-02 -5.708409e-02 5.528860e-02 2.393419e-02 -1.304039e-01 7.110406e-03 1.068951e-01 1.012622e-02 -1.096937e-01 5.866502e-02 5.025337e-02 1.537376e-02
<VARIANCE> 39
 2.958427e+00 9.504415e+00 1.649642e+01 1.384016e+01 2.590365e+01 6.838766e+01 6.873343e+01 2.014202e+01 4.723559e+01 4.674467e+01 5.386935e+01 3.956682e+01 9.198726e+00 1.533232e-01 3.389581e-01 5.676322e-01 7.502223e-01 1.252958e+00 1.984082e+00 1.331545e+00 1.418350e+00 1.762802e+00 1.547988e+00 1.949865e+00 1.197129e+00 2.329621e-01 2.647598e-02 5.191879e-02 8.680183e-02 1.098318e-01 2.000216e-01 2.361814e-01 2.205382e-01 2.538982e-01 2.756540e-01 2.652221e-01 2.940917e-01 2.237157e-01 1.491052e-02
<GCONST> 8.415059e+01
<TRANSP> 5
 0.000000e+00 1.000000e+00 0.000000e+00 0.000000e+00 0.000000e+00
 0.000000e+00 7.649643e-01 2.350356e-01 0.000000e+00 0.000000e+00
 0.000000e+00 0.000000e+00 6.786596e-01 3.213404e-01 0.000000e+00
 0.000000e+00 0.000000e+00 0.000000e+00 9.361579e-01 6.384216e-02
 0.000000e+00 0.000000e+00 0.000000e+00 0.000000e+00 0.000000e+00
<ENDHMM>
~h "z"
<BEGINHMM>
<NUMSTATES> 5
<STATE> 2
<NUMMIXES> 2
<MIXTURE> 1 5.872208e-01
<MEAN> 39
 -4.097669e+00 1.086244e+01 7.163651e+00 4.779700e+00 -1.488096e+00 -1.249091e+01 -3.317040e+00 4.559936e-01 -2.521358e+00 2.224140e+00 -1.661626e-01 2.885737e+00 6.531738e+01 -1.540833e+00 1.197542e+00 -4.506342e-02 -7.938972e-01 1.570858e+00 -1.475331e-01 6.630461e-01 1.285302e-01 1.411529e-01 3.999899e-01 -5.245069e-01 5.862440e-01 -1.626030e-01 -2.733639e-01 3.389621e-02 -3.004367e-02 -9.067407e-02 6.408025e-02 3.126827e-01 2.552659e-02 1.338869e-01 1.640463e-02 -1.098811e-01 3.808557e-02 -1.612186e-01 7.769072e-02
<VARIANCE> 39
 1.847201e+01 1.936310e+01 2.268058e+01 2.126332e+01 3.612172e+01 3.013971e+01 5.647104e+01 3.495861e+01 5.758337e+01 2.916880e+01 3.221474e+01 3.029745e+01 1.159294e+01 8.474004e-01 7.660219e-01 1.198084e+00 1.510562e+00 2.513460e+00 2.391585e+00 2.499599e+00 2.901911e+00 2.517922e+00 2.425110e+00 2.143373e+00 2.037377e+00 2.007635e-01 9.968513e-02 1.312758e-01 1.631044e-01 2.291919e-01 3.331888e-01 3.377036e-01 3.975258e-01 4.657909e-01 4.093098e-01 4.210274e-01 3.328559e-01 3.351215e-01 2.857514e-02
<GCONST> 1.016893e+02
<MIXTURE> 2 4.127806e-01
<MEAN> 39
 -1.252977e+01 1.333132e+01 7.884072e+00 1.849296e-01 5.126752e+00 -6.392515e+00 -2.504632e+00 3.082875e+00 -2.392578e+00 4.456763e-01 -1.134462e+00 1.299310e+00 6.339032e+01 -2.362072e+00 6.004916e-01 -1.276991e-01 -7.679800e-01 1.139035e+00 5.121134e-01 2.818476e-01 3.413903e-01 -3.420055e-01 -3.282250e-01 -2.731262e-01 -4.739719e-03 3.014380e-01 2.541017e-01 -2.737117e-01 -1.363398e-01 2.706115e-01 -2.974315e-01 1.024407e-02 -4.029070e-03 -2.295042e-01 -4.597520e-02 8.517052e-03 6.360181e-02 -9.360650e-02 -1.712590e-02
<VARIANCE> 39
 3.824145e+01 3.001512e+01 3.084260e+01 4.877713e+01 4.169872e+01 4.591321e+01 6.846328e+01 4.268446e+01 4.321984e+01 3.802340e+01 2.993987e+01 2.735424e+01 1.876312e+01 1.400133e+00 1.574334e+00 1.723487e+00 2.584318e+00 2.883603e+00 3.648868e+00 2.851871e+00 2.993379e+00 2.813437e+00 2.780015e+00 2.262379e+00 2.471454e+00 6.466422e-01 2.252873e-01 2.805621e-01 2.875637e-01 5.121148e-01 5.301998e-01 6.164196e-01 5.628967e-01 5.473778e-01 5.508580e-01 5.367050e-01 4.904996e-01 4.629760e-01 9.588221e-02
<GCONST> 1.167269e+02
<STATE> 3
<MEAN> 39
 -2.031328e+01 1.322041e+01 4.361585e+00 -8.994181e-01 6.682176e+00 -7.235028e+00 6.995260e-01 1.559438e+00 -3.772184e+00 7.358838e-01 -2.317620e+00 1.416509e+00 6.495598e+01 -4.275034e-01 -3.807623e-01 -1.707641e-01 -2.219901e-01 -1.396414e-02 1.099755e-01 6.384769e-02 3.108063e-02 -1.317711e-01 -7.001088e-03 -3.103196e-02 -1.900288e-01 2.912307e-02 2.201228e-01 -1.104105e-01 7.585297e-02 4.525929e-02 -1.246402e-01 -7.120025e-02 -4.371275e-02 4.358316e-02 1.289789e-02 -1.124557e-03 2.220745e-02 9.334904e-03 -2.288648e-02
<VARIANCE> 39
 1.816134e+01 2.729914e+01 3.237416e+01 3.950266e+01 3.950260e+01 4.155177e+01 5.928430e+01 4.960013e+01 4.440946e+01 4.040187e+01 3.213270e+01 2.770622e+01 7.780320e+00 7.315773e-01 8.872868e-01 1.248754e+00 1.618281e+00 2.232825e+00 2.566227e+00 2.465516e+00 2.698780e+00 2.299114e+00 2.517397e+00 2.382884e+00 2.116940e+00 1.513420e-01 7.461711e-02 1.422285e-01 2.072502e-01 3.024423e-01 4.371945e-01 4.999766e-01 4.658920e-01 5.282679e-01 4.623345e-01 4.887891e-01 4.526044e-01 4.204548e-01 2.554751e-02
<GCONST> 1.051087e+02
<STATE> 4
<NUMMIXES> 2
<MIXTURE> 1 6.086050e-01
<MEAN> 39
 -1.933909e+01 7.193501e+00 5.791653e+00 -1.869283e+00 5.355864e+00 -6.144390e+00 -1.068909e+00 3.557004e+00 -4.711738e+00 -1.932026e-01 -1.810673e+00 1.263690e-01 6.408806e+01 1.670448e+00 -7.764031e-01 2.481710e-01 5.138020e-01 -7.161572e-01 -1.274637e-01 -3.364945e-01 -2.037335e-01 2.207104e-01 -7.430919e-02 -2.227875e-02 -3.136829e-02 -6.102658e-01 5.234210e-01 1.511617e-01 -1.752334e-01 9.456068e-02 -2.512954e-01 -1.445669e-01 -1.740743e-01 -2.042339e-01 1.507129e-01 8.602060e-02 -4.335091e-02 7.897520e-02 -2.079625e-01
<VARIANCE> 39
 2.273746e+01 4.424642e+01 3.923021e+01 4.093922e+01 3.669643e+01 5.738414e+01 6.413896e+01 5.242258e+01 4.496158e+01 4.796097e+01 3.704485e+01 2.935498e+01 1.569850e+01 2.160392e+00 1.890673e+00 2.024868e+00 2.289003e+00 3.350681e+00 4.482672e+00 3.683571e+00 4.456196e+00 3.320379e+00 3.369937e+00 2.707720e+00 2.539994e+00 9.089361e-01 2.544507e-01 4.257156e-01 4.260420e-01 4.747288e-01 5.996658e-01 8.673927e-01 7.729490e-01 8.472206e-01 6.820269e-01 7.301649e-01 5.284386e-01 5.234097e-01 1.064206e-01
<GCONST> 1.227423e+02
<MIXTURE> 2 3.913957e-01
<MEAN> 39
 -8.711551e+00 7.364705e+00 4.622576e+00 1.243910e+00 3.943890e-01 -9.646832e+00 -3.883099e+00 1.311802e+00 -1.943452e+00 1.926478e+00 -2.476353e+00 6.085669e-01 5.928231e+01 1.464168e+00 -1.970184e-01 -6.058105e-01 3.717605e-01 -8.638908e-01 -3.094315e-01 -5.159675e-01 -3.650586e-01 5.703251e-01 4.302695e-01 1.387614e-01 -7.154016e-02 -8.396769e-01 -5.445952e-01 -2.226912e-03 4.051823e-02 -4.812295e-02 2.992194e-01 3.715486e-01 2.081664e-01 3.786505e-02 -1.547170e-01 -5.547765e-02 9.121752e-02 -1.428720e-01 1.735820e-01
<VARIANCE> 39
