~o
<STREAMINFO> 1 39
<VECSIZE> 39<NULLD><MFCC_D_A_0><DIAGC>
~s "silst2"
<NUMMIXES> 2
<MIXTURE> 1 6.269590e-02
<MEAN> 39
 -7.853751e+00 5.129201e+00 2.223236e+00 2.554054e+00 -7.490698e-01 -3.589319e+00 -7.397628e-01 -5.094933e-01 -3.245022e-01 2.624887e-02 -1.325263e+00 2.914325e-01 4.902375e+01 -4.192495e-02 -1.292180e-01 -3.610576e-01 1.830955e-03 1.276149e-01 1.161203e-01 8.945138e-02 -1.813350e-02 -5.925838e-02 -1.570536e-01 2.017273e-02 1.628144e-01 -2.556689e-01 -9.597737e-02 -1.560234e-01 -2.352863e-02 -8.860558e-02 -2.384016e-02 -3.796599e-02 -1.132021e-01 -3.269578e-02 -7.590286e-02 -2.288582e-02 2.198688e-02 1.456133e-02 1.880886e-01
<VARIANCE> 39
 3.049409e+01 1.472390e+01 1.718175e+01 2.348376e+01 2.781465e+01 2.938369e+01 2.638802e+01 3.187272e+01 2.760875e+01 3.085840e+01 2.578453e+01 2.178187e+01 1.473882e+02 6.152440e-01 8.784580e-01 1.429547e+00 1.872774e+00 2.341589e+00 2.053432e+00 2.500900e+00 2.389419e+00 2.912047e+00 2.843910e+00 2.407600e+00 2.373499e+00 6.722120e-01 1.120628e-01 2.081864e-01 2.968469e-01 3.795198e-01 4.404672e-01 4.887767e-01 4.765755e-01 4.966561e-01 4.685549e-01 5.274596e-01 4.375792e-01 3.813137e-01 1.299515e-01
<GCONST> 1.083367e+02
<MIXTURE> 2 9.373092e-01
<MEAN> 39
 -1.955558e+01 -6.079435e-02 -1.510188e+00 2.126122e+00 4.702399e-01 1.444077e+00 -7.585354e-03 4.669996e-01 -3.630742e-01 7.348567e-02 -3.164055e-01 1.324132e-01 1.478471e+01 -2.145878e-03 -8.924158e-04 5.656164e-03 8.955039e-03 -5.739181e-03 -2.093083e-04 1.057001e-02 -8.691528e-03 -1.048245e-02 6.187546e-03 -1.627424e-03 -4.401993e-03 -8.224814e-04 8.824331e-04 4.344339e-03 -4.762696e-04 -3.259546e-03 -4.907541e-03 3.679086e-04 1.938506e-03 1.621963e-03 2.945836e-03 -6.449854e-04 -1.307212e-03 1.929264e-03 -2.701106e-04
<VARIANCE> 39
 7.511302e-01 2.288519e+00 4.916042e+00 7.383695e+00 9.236293e+00 1.134320e+01 1.342369e+01 1.472205e+01 1.509916e+01 1.498230e+01 1.455440e+01 1.273793e+01 1.870390e+00 7.057188e-02 2.458267e-01 5.303013e-01 7.993380e-01 1.009537e+00 1.202231e+00 1.442486e+00 1.623946e+00 1.611608e+00 1.599949e+00 1.557066e+00 1.328333e+00 4.329311e-02 1.428053e-02 4.886609e-02 1.038818e-01 1.610777e-01 2.013274e-01 2.366921e-01 2.894821e-01 3.254709e-01 3.253108e-01 3.169633e-01 3.119886e-01 2.645748e-01 8.744609e-03
<GCONST> 6.541599e+01
~s "silst3"
<MEAN> 39
 -1.159165e+01 2.292684e+00 -5.621833e-01 1.518912e+00 -1.181742e+00 -2.231507e+00 -1.571281e+00 -8.696630e-01 -5.802404e-01 -8.793291e-01 -8.538636e-01 3.732485e-01 3.993790e+01 -4.196767e-02 -7.782304e-02 -6.573360e-02 4.542551e-02 -1.214506e-02 -7.491280e-02 -4.968156e-02 8.948204e-02 5.256961e-03 -5.100331e-02 2.888511e-02 -7.377075e-03 -6.221846e-02 3.319045e-02 3.120116e-02 2.789181e-02 3.632973e-02 1.481324e-03 -2.813785e-02 1.958226e-02 -6.060799e-03 2.149873e-02 6.775797e-03 -1.216858e-02 -5.746196e-03 -4.516342e-02
<VARIANCE> 39
 4.370217e+01 1.604939e+01 1.678000e+01 2.014701e+01 2.009896e+01 3.486590e+01 2.915739e+01 3.272654e+01 2.655714e+01 2.650915e+01 2.156081e+01 1.833618e+01 3.333770e+02 4.424466e+00 1.519776e+00 1.631331e+00 1.980748e+00 2.010510e+00 3.530978e+00 2.832555e+00 3.047581e+00 2.545747e+00 2.594420e+00 2.027020e+00 1.780828e+00 3.134363e+01 6.740671e-01 2.541845e-01 3.086929e-01 3.927166e-01 3.897628e-01 6.556779e-01 5.678976e-01 6.096926e-01 5.094923e-01 5.217103e-01 4.123901e-01 3.583674e-01 4.481131e+00
<GCONST> 1.215867e+02
~s "silst4"
<NUMMIXES> 2
<MIXTURE> 1 7.479432e-01
<MEAN> 39
 -6.997298e+00 4.535763e+00 2.003781e-01 1.553968e+00 -1.956789e+00 -4.377851e+00 -1.852277e+00 -2.380840e+00 -1.242214e-01 -7.735075e-01 -9.258962e-01 1.060090e+00 5.093103e+01 5.869335e-02 1.140233e-01 1.521373e-01 1.729130e-01 1.606781e-01 1.641104e-01 1.075074e-01 -4.940797e-04 -2.783300e-03 -3.993953e-02 -8.510130e-02 -8.522827e-02 8.483219e-03 -9.395792e-04 2.124316e-02 5.067842e-02 5.616108e-02 5.591785e-02 4.523600e-02 3.161863e-02 1.289880e-02 -3.451799e-02 -3.764613e-02 -3.406502e-02 -3.439622e-02 1.904815e-02
<VARIANCE> 39
 2.944236e+00 8.653655e+00 1.118372e+01 1.559842e+01 1.917657e+01 2.479346e+01 2.540910e+01 2.631615e+01 2.805345e+01 2.681888e+01 2.437905e+01 2.194031e+01 1.870390e+00 2.843253e-01 5.805172e-01 9.668674e-01 1.377514e+00 1.809642e+00 2.258524e+00 2.373519e+00 2.472852e+00 2.539192e+00 2.599711e+00 2.438350e+00 2.098484e+00 8.837604e-02 5.536477e-02 1.200258e-01 2.084785e-01 2.860269e-01 3.833787e-01 4.540325e-01 4.760718e-01 4.982132e-01 5.070794e-01 5.102640e-01 4.830691e-01 4.246163e-01 1.673715e-02
<GCONST> 9.098709e+01
<MIXTURE> 2 2.520205e-01
<MEAN> 39
 -7.614931e+00 3.273095e+00 8.145533e-01 3.506390e+00 -2.291739e-01 -3.464034e+00 -6.541274e-01 -1.066986e+00 -1.727382e+00 -2.622355e+00 -1.627475e+00 6.410137e-01 5.062589e+01 -2.051586e-01 -3.282328e-01 -5.088398e-01 -5.121261e-01 -5.577945e-01 -4.165200e-01 -2.697070e-01 -1.168747e-01 5.517666e-02 1.197614e-01 2.309419e-01 2.574136e-01 -1.174292e-01 -4.055324e-03 -4.063980e-02 -8.761474e-02 -1.519522e-01 -1.501019e-01 -1.041657e-01 -8.708927e-02 -3.508928e-02 9.975844e-02 1.252114e-01 9.214509e-02 7.835668e-02 7.413299e-04
<VARIANCE> 39
 1.217250e+01 1.829882e+01 1.567497e+01 1.934045e+01 2.236214e+01 2.956549e+01 2.914458e+01 3.143962e+01 3.163942e+01 3.298959e+01 2.872546e+01 2.301170e+01 5.607281e+01 3.290919e-01 6.572824e-01 9.319393e-01 1.414082e+00 1.785845e+00 2.179391e+00 2.432551e+00 2.522480e+00 2.622002e+00 2.625597e+00 2.442580e+00 2.146797e+00 1.142114e-01 8.860452e-02 1.491348e-01 2.052228e-01 2.961160e-01 3.762068e-01 4.540501e-01 5.045254e-01 4.993730e-01 5.297352e-01 5.471457e-01 5.064617e-01 4.323954e-01 3.160866e-02
<GCONST> 1.004331e+02
~h "b"
<BEGINHMM>
<NUMSTATES> 5
<STATE> 2
<NUMMIXES> 2
<MIXTURE> 1 5.367324e-01
<MEAN> 39
 3.752415e+00 6.238945e+00 2.432460e+00 7.257617e+00 -2.290482e+00 -5.635079e+00 -2.975108e+00 -2.208400e+00 -3.490420e-01 9.681171e-01 3.570841e+00 -1.071981e+00 6.113383e+01 -2.181345e-01 1.348016e+00 6.406828e-01 3.671800e-01 1.882556e+00 8.192831e-01 7.190288e-01 -3.429550e-01 -4.468237e-01 2.892240e-01 -2.155917e-01 -1.267704e-01 -1.865803e+00 -2.133219e-01 1.129208e-01 2.481072e-01 4.074908e-02 -7.781798e-02 1.894426e-01 2.229094e-01 -4.877293e-02 -3.251614e-02 -8.251687e-02 -3.862246e-01 -1.261392e-01 2.239704e-02
<VARIANCE> 39
 9.455958e+00 2.028093e+01 3.410879e+01 2.314547e+01 5.373605e+01 4.029020e+01 4.353240e+01 3.828503e+01 3.448372e+01 4.090351e+01 3.302193e+01 2.637940e+01 1.759192e+01 8.266116e-01 1.154921e+00 2.607172e+00 1.856711e+00 3.587209e+00 3.510728e+00 3.502270e+00 4.270205e+00 2.880950e+00 2.616092e+00 3.177864e+00 2.169281e+00 6.860266e-01 8.303055e-02 1.962873e-01 2.872808e-01 2.754207e-01 6.844136e-01 5.794888e-01 5.842885e-01 5.664862e-01 4.042664e-01 5.136992e-01 4.743013e-01 2.842603e-01 1.817125e-01
<GCONST> 1.119702e+02
<MIXTURE> 2 4.632664e-01
<MEAN> 39
 -2.402005e+00 9.334736e+00 5.532132e+00 7.883755e+00 2.571967e+00 -1.971101e+00 -1.978792e-01 -2.571181e+00 -2.524565e+00 1.933385e-01 -2.920456e+00 -2.218106e+00 5.504818e+01 3.599239e-01 8.909190e-01 6.985820e-01 8.272936e-01 4.409670e-01 8.246651e-02 2.798058e-02 -4.877927e-01 -6.848516e-01 5.109800e-02 -6.129279e-01 -4.373583e-01 -2.819104e-01 -2.883502e-02 -2.678107e-01 -1.724731e-01 -1.607894e-01 -2.560318e-01 -1.706949e-01 -1.776915e-01 6.000286e-02 1.593871e-01 2.697673e-02 1.766762e-01 3.679257e-02 2.092282e-01
<VARIANCE> 39
 2.262090e+01 2.400209e+01 2.677936e+01 4.580197e+01 2.183217e+01 2.390261e+01 3.299506e+01 3.214278e+01 4.778134e+01 3.485209e+01 3.671679e+01 3.327660e+01 9.732219e+00 1.092094e+00 2.838172e+00 2.514031e+00 2.807760e+00 2.411301e+00 2.962796e+00 2.944575e+00 3.452134e+00 2.758335e+00 3.352468e+00 4.180398e+00 2.204287e+00 1.279532e+00 1.298380e-01 5.643891e-01 4.132350e-01 5.667844e-01 3.970328e-01 5.400316e-01 5.711038e-01 7.823057e-01 5.529462e-01 5.973618e-01 9.056770e-01 5.454087e-01 1.646195e-01
<GCONST> 1.171461e+02
<STATE> 3
<MEAN> 39
 2.123383e-01 1.162261e+01 7.379786e+00 8.485747e+00 2.294907e+00 -1.472062e+00 5.809231e-01 -2.612250e+00 -1.446200e+00 -2.233852e-01 -1.985533e+00 -1.804431e+00 5.434275e+01 -2.466826e-01 -3.090335e-03 3.303304e-02 -1.022448e-01 1.070784e-01 1.318325e-01 1.184309e-01 2.163319e-01 1.733143e-01 -1.255277e-01 -9.815670e-02 1.098600e-01 -2.526541e-01 -3.446174e-02 -1.021805e-01 -7.436773e-02 -5.987753e-02 -3.497830e-02 -3.091390e-02 -3.240419e-02 4.270016e-03 2.392940e-02 1.862658e-02 5.852640e-02 1.423841e-02 6.618395e-02
<VARIANCE> 39
 6.206365e+00 6.547828e+00 1.161136e+01 1.855169e+01 1.872195e+01 2.474360e+01 2.529877e+01 2.860827e+01 3.321201e+01 2.742480e+01 2.101771e+01 2.157804e+01 4.224021e+00 2.138128e-01 4.423603e-01 7.272736e-01 1.221662e+00 1.494741e+00 1.596493e+00 1.807553e+00 1.776921e+00 2.008900e+00 1.928929e+00 1.963508e+00 1.801235e+00 9.883621e-02 4.056617e-02 8.613329e-02 1.599540e-01 2.570126e-01 2.847151e-01 3.279157e-01 3.629645e-01 3.364026e-01 3.974293e-01 3.834564e-01 3.876926e-01 3.598504e-01 3.567010e-02
<GCONST> 8.720629e+01
<STATE> 4
<NUMMIXES> 2
<MIXTURE> 1 4.702837e-01
<MEAN> 39
 -3.412160e+00 8.877931e+00 6.262174e+00 6.704857e+00 3.240363e+00 -2.050062e-01 9.931687e-01 -2.244974e+00 -5.749741e-02 1.985992e-01 -2.295249e+00 -1.571550e+00 5.335438e+01 -7.777842e-01 -1.162115e+00 -3.827689e-01 -6.541541e-01 -3.954721e-01 -2.084718e-01 -3.945921e-01 3.702260e-01 2.138069e-01 2.175562e-01 2.560458e-01 4.845293e-02 1.426296e+00 8.082023e-02 -2.563546e-01 -2.559048e-01 -2.622902e-01 -4.930735e-01 -2.924328e-01 -3.245100e-01 2.081191e-01 3.203984e-02 2.012875e-02 2.317231e-01 2.199807e-02 5.813884e-01
<VARIANCE> 39
 1.389362e+01 2.061601e+01 1.792027e+01 1.681539e+01 2.260200e+01 1.698616e+01 2.392739e+01 3.040666e+01 3.057521e+01 3.378556e+01 2.103322e+01 1.599397e+01 6.807372e+00 1.266937e+00 2.772622e+00 1.997653e+00 2.515507e+00 2.987959e+00 2.591052e+00 2.701168e+00 2.893103e+00 3.427818e+00 2.946481e+00 2.081517e+00 1.915323e+00 3.175524e+00 2.933503e-01 5.345967e-01 3.842385e-01 3.436209e-01 6.306102e-01 4.475589e-01 5.346072e-01 5.402144e-01 7.080254e-01 6.176448e-01 4.230295e-01 3.478544e-01 3.749986e-01
<GCONST> 1.119755e+02
<MIXTURE> 2 5.297174e-01
<MEAN> 39
 -6.225938e+00 6.532020e+00 2.798344e+00 1.680252e+00 5.903115e-01 -4.002725e+00 -1.422249e+00 -9.168376e-01 1.660662e-01 1.202741e+00 8.069010e-01 -7.541081e-02 5.199129e+01 -2.719387e-01 -5.553904e-01 -3.324743e-01 -3.977787e-01 -3.029501e-01 -1.144128e-01 -3.014741e-01 -1.684681e-01 -9.304866e-03 -2.277862e-02 2.431144e-02 4.016067e-02 3.568926e-01 4.845795e-02 -2.492309e-02 6.334906e-02 1.249436e-01 3.863297e-02 1.654237e-01 7.120475e-02 -5.520296e-02 1.008621e-02 -1.350228e-02 -1.494641e-01 -9.343365e-02 2.403175e-01
<VARIANCE> 39
 5.645567e+00 9.446627e+00 1.038766e+01 1.546527e+01 2.615246e+01 2.805230e+01 2.949236e+01 2.779455e+01 2.849937e+01 1.880707e+01 2.448235e+01 2.424750e+01 2.699472e+00 6.410081e-01 1.561511e+00 1.417771e+00 1.644183e+00 2.308839e+00 2.310765e+00 2.890314e+00 2.566625e+00 2.351830e+00 2.083996e+00 2.542585e+00 2.310434e+00 1.503720e+00 1.195533e-01 2.173341e-01 2.223145e-01 3.135475e-01 3.975806e-01 3.990431e-01 5.252654e-01 4.943340e-01 4.218335e-01 3.313948e-01 4.389026e-01 4.595361e-01 1.645045e-01
<GCONST> 1.011203e+02
<TRANSP> 5
 0.000000e+00 1.000000e+00 0.000000e+00 0.000000e+00 0.000000e+00
 0.000000e+00 7.559913e-01 2.440087e-01 0.000000e+00 0.000000e+00
 0.000000e+00 0.000000e+00 9.020603e-01 9.793972e-02 0.000000e+00
 0.000000e+00 0.000000e+00 0.000000e+00 8.499562e-01 1.500438e-01
 0.000000e+00 0.000000e+00 0.000000e+00 0.000000e+00 0.000000e+00
<ENDHMM>
~h "d"
<BEGINHMM>
<NUMSTATES> 5
<STATE> 2
<NUMMIXES> 2
<MIXTURE> 1 3.627754e-01
<MEAN> 39
 -7.304826e-01 6.965971e+00 8.928246e+00 6.969326e+00 -6.270720e+00 -6.781658e+00 -1.667699e+00 4.105017e-01 -1.480970e+00 -1.801118e+00 1.176577e+00 6.982594e-01 6.127693e+01 -8.671903e-02 9.554841e-01 7.490592e-02 2.108237e-01 1.544175e+00 5.683833e-01 2.974646e-01 -1.803275e-01 2.813705e-02 1.198326e-01 -5.650879e-01 -1.249082e-01 -1.536307e+00 4.070966e-02 1.124410e-01 -2.248090e-01 2.815433e-02 1.489763e-01 1.456191e-01 -3.623658e-03 -1.639756e-01 6.033481e-02 7.587580e-02 -5.141493e-02 -8.189034e-02 -9.751464e-02
<VARIANCE> 39
 1.578255e+01 2.778318e+01 3.407806e+01 3.042298e+01 5.733996e+01 4.170828e+01 5.123292e+01 4.774545e+01 5.169488e+01 4.018068e+01 4.177394e+01 3.211572e+01 3.138924e+01 9.659471e-01 2.080775e+00 2.321699e+00 2.443847e+00 3.831495e+00 3.766210e+00 3.950775e+00 4.820545e+00 3.417995e+00 3.407417e+00 3.322443e+00 2.512045e+00 1.732411e+00 1.439844e-01 4.210002e-01 3.219521e-01 4.174105e-01 8.140673e-01 6.851558e-01 6.864569e-01 6.737926e-01 6.275229e-01 5.940569e-01 5.660260e-01 4.390220e-01 3.263139e-01
<GCONST> 1.220855e+02
<MIXTURE> 2 6.372271e-01
<MEAN> 39
 -2.124588e+00 1.070228e+01 6.436533e+00 6.748312e+00 6.513055e-01 -3.192708e+00 -1.032334e+00 -2.040452e+00 -8.851026e-01 -6.270177e-01 -1.662326e+00 -2.730956e-01 5.391877e+01 -3.759162e-01 -2.969698e-01 -2.984110e-01 -3.165597e-01 7.144320e-02 1.556216e-01 -2.975708e-02 -2.054125e-03 4.168437e-02 -8.551452e-02 6.395496e-03 9.572325e-02 -2.430228e-01 -1.591125e-01 -3.302784e-01 1.883231e-02 -2.157635e-01 -1.844130e-01 -2.521017e-02 -1.633176e-02 8.405566e-02 -6.456956e-02 6.436949e-03 1.081604e-01 1.499053e-02 3.757823e-01
<VARIANCE> 39
 1.135871e+01 1.078650e+01 1.504668e+01 2.133774e+01 2.089149e+01 2.662964e+01 2.991487e+01 2.899515e+01 3.192827e+01 2.938953e+01 2.321195e+01 2.227337e+01 5.094653e+00 5.435613e-01 7.945518e-01 1.126127e+00 1.454032e+00 1.812631e+00 2.116388e+00 2.276625e+00 2.628983e+00 2.408271e+00 2.625281e+00 2.195387e+00 1.923946e+00 3.403188e-01 1.513725e-01 2.511456e-01 2.470879e-01 3.899895e-01 4.150964e-01 4.888983e-01 5.041067e-01 5.579640e-01 4.946265e-01 4.786675e-01 4.733111e-01 3.660606e-01 2.512006e-01
<GCONST> 1.020108e+02
<STATE> 3
<MEAN> 39
 -6.669400e+00 3.215270e+00 4.998818e+00 2.016366e+00 4.721400e-01 -1.603185e+00 -1.979012e+00 -1.265022e+00 -1.735518e+00 -6.330987e-01 -9.206446e-01 1.316176e-01 5.977324e+01 -1.928006e+00 -2.193813e+00 9.450402e-02 -1.953881e+00 -7.983214e-01 -1.704160e-01 -9.705397e-02 8.090464e-01 -2.655880e-01 2.542797e-01 5.278527e-01 1.967320e-01 3.162097e+00 1.280740e-01 5.584621e-01 3.266674e-01 4.178639e-01 -4.036963e-01 -4.180564e-01 2.150469e-02 -4.247969e-02 -6.350569e-02 3.419425e-02 -8.233297e-04 -4.275960e-02 -3.837481e-02
<VARIANCE> 39
 3.094353e+01 6.746201e+01 3.446652e+01 6.215891e+01 3.261880e+01 3.332954e+01 3.721940e+01 3.544672e+01 2.791079e+01 2.863336e+01 2.371924e+01 1.991957e+01 6.275210e+01 2.062523e+00 3.923395e+00 3.561239e+00 4.348641e+00 4.535273e+00 4.527252e+00 4.140115e+00 4.623386e+00 3.737004e+00 3.530097e+00 2.940104e+00 2.534155e+00 3.490842e+00 6.642979e-01 1.187234e+00 5.879028e-01 1.286940e+00 7.755333e-01 6.994113e-01 7.459033e-01 8.331144e-01 6.210771e-01 6.010285e-01 5.034199e-01 4.207478e-01 1.408774e+00
<GCONST> 1.309918e+02
<STATE> 4
<NUMMIXES> 2
<MIXTURE> 1 4.956658e-01
<MEAN> 39
 -1.334543e+01 2.720892e+00 8.166097e+00 -4.226048e-02 -3.120910e+00 -5.524289e+00 -5.945978e-01 1.070931e+00 -2.754158e+00 -4.470143e-02 -4.471529e-01 3.594691e-01 6.600676e+01 8.874264e-01 1.765903e+00 1.453622e+00 1.998882e+00 -9.397738e-01 -8.585919e-01 1.010396e-02 -1.453812e-01 -2.500764e-01 -4.122355e-01 6.025746e-02 -2.460586e-01 -6.770829e-01 1.226669e+00 4.970576e-01 -2.577715e-01 7.457912e-01 -6.879042e-02 5.364744e-02 -3.011584e-01 -4.189071e-01 1.630040e-01 -1.940334e-01 4.902771e-02 1.418101e-02 -9.492015e-01
<VARIANCE> 39
 2.755398e+01 3.405796e+01 4.450153e+01 4.988498e+01 4.004259e+01 4.405272e+01 5.744485e+01 4.515361e+01 4.730101e+01 4.075326e+01 3.634424e+01 2.626845e+01 1.973536e+01 4.195226e+00 2.748480e+00 2.653070e+00 4.377452e+00 6.788470e+00 5.156211e+00 3.973441e+00 4.704580e+00 3.360055e+00 3.136473e+00 3.200388e+00 2.388192e+00 3.133092e+00 3.739979e-01 5.825697e-01 6.604267e-01 1.059794e+00 9.560891e-01 9.243292e-01 8.817858e-01 7.877159e-01 7.449768e-01 7.201468e-01 6.294327e-01 5.404544e-01 6.901585e-01
<GCONST> 1.314420e+02
<MIXTURE> 2 5.043334e-01
<MEAN> 39
 -5.131734e+00 5.711817e+00 6.368583e+00 3.545573e+00 -7.098569e+00 -8.479186e+00 -4.616384e+00 -1.391518e+00 -2.496974e+00 -6.189417e-01 1.185744e+00 7.670083e-01 5.834879e+01 5.695006e-01 4.772290e-01 -6.819670e-01 2.318962e-01 -1.512716e-01 -3.408396e-02 -1.353829e-01 -2.835394e-01 4.777299e-01 2.248836e-02 1.284745e-01 1.034896e-01 -1.014839e+00 -1.772349e-01 -1.274219e-01 -1.208921e-01 -1.109396e-01 3.260458e-01 3.852547e-01 2.171793e-01 1.630644e-02 5.991922e-02 3.262042e-03 -1.493962e-01 -9.448677e-02 1.072554e-01
<VARIANCE> 39
 2.431580e+01 2.269526e+01 2.013481e+01 2.820654e+01 6.889523e+01 6.273967e+01 4.689208e+01 5.123066e+01 4.641111e+01 4.230648e+01 4.145713e+01 3.574617e+01 3.305141e+01 2.560065e+00 2.090383e+00 2.038642e+00 3.260911e+00 6.679454e+00 6.947625e+00 3.441881e+00 3.273913e+00 3.671608e+00 3.538188e+00 3.490674e+00 2.844042e+00 2.672069e+00 3.444824e-01 3.941503e-01 4.071088e-01 6.608306e-01 1.191376e+00 1.243246e+00 6.838670e-01 6.864069e-01 6.458731e-01 6.925831e-01 6.384591e-01 5.828996e-01 4.966750e-01
<GCONST> 1.283776e+02
<TRANSP> 5
 0.000000e+00 1.000000e+00 0.000000e+00 0.000000e+00 0.000000e+00
 0.000000e+00 8.777608e-01 1.222392e-01 0.000000e+00 0.000000e+00
 0.000000e+00 0.000000e+00 6.353083e-01 3.646917e-01 0.000000e+00
 0.000000e+00 0.000000e+00 0.000000e+00 6.939903e-01 3.060097e-01
 0.000000e+00 0.000000e+00 0.000000e+00 0.000000e+00 0.000000e+00
<ENDHMM>
~h "f"
<BEGINHMM>
<NUMSTATES> 5
<STATE> 2
<NUMMIXES> 2
<MIXTURE> 1 4.119629e-01
<MEAN> 39
 -1.099443e+00 6.579520e+00 1.788666e+00 3.397299e+00 -1.779130e+00 -3.397719e+00 -2.000221e+00 -1.415299e+00 -6.072722e-01 3.045761e+00 3.480021e+00 5.430061e-01 6.054018e+01 -1.356899e+00 -2.525950e-01 8.979889e-01 4.700661e-01 1.370737e+00 6.471430e-01 3.721117e-01 3.676925e-01 3.791973e-01 -3.131808e-01 -7.723504e-01 -3.430349e-01 -4.588068e-01 -3.571179e-01 -1.943551e-01 1.371428e-02 9.103948e-02 6.362669e-02 2.314182e-01 -4.754587e-03 -8.127155e-02 -7.267272e-02 -3.581732e-01 -3.460141e-01 -6.672239e-02 1.042426e-01
<VARIANCE> 39
 4.369126e+01 1.460887e+01 3.009200e+01 2.648989e+01 3.259798e+01 4.876921e+01 4.453826e+01 3.197406e+01 4.511668e+01 3.305638e+01 2.440679e+01 2.456704e+01 1.180642e+01 1.016692e+00 1.250504e+00 1.812325e+00 1.715778e+00 2.760932e+00 3.513759e+00 3.082541e+00 2.986790e+00 3.459013e+00 3.081581e+00 3.299258e+00 2.340614e+00 5.994763e-01 1.253686e-01 1.119606e-01 3.029129e-01 2.883931e-01 4.528678e-01 5.596967e-01 4.949102e-01 5.156685e-01 6.023112e-01 5.228360e-01 4.885121e-01 4.226772e-01 4.291317e-02
<GCONST> 1.100640e+02
<MIXTURE> 2 5.880365e-01
<MEAN> 39
 -8.291549e+00 4.796423e+00 4.215533e+00 5.293379e+00 1.924080e+00 -7.560085e-01 -1.120709e+00 -1.256764e+00 -1.588801e+00 -1.956463e+00 -2.343272e+00 -6.392871e-01 5.905796e+01 -1.670368e+00 -7.144975e-01 -6.550938e-01 -3.884123e-01 -5.014732e-01 -2.218010e-01 -5.292544e-01 -7.168520e-01 -1.044889e-02 -1.277212e-01 -2.114804e-01 1.285012e-01 1.025018e-01 1.110535e-01 -8.607142e-02 -2.924924e-01 -1.383042e-01 -3.647378e-01 -2.527103e-01 -1.259113e-01 -1.905458e-03 2.152145e-02 2.138424e-01 3.011439e-01 3.286191e-02 2.122396e-01
<VARIANCE> 39
 1.681386e+01 1.506828e+01 1.578099e+01 2.385974e+01 3.205074e+01 3.780163e+01 3.918221e+01 3.799645e+01 4.091713e+01 3.226660e+01 2.252389e+01 2.262633e+01 1.057830e+01 1.322176e+00 1.346587e+00 1.568555e+00 2.397342e+00 3.279179e+00 3.546734e+00 2.684536e+00 2.795582e+00 2.883959e+00 2.670236e+00 2.641191e+00 1.951919e+00 6.655604e-01 1.450030e-01 2.122937e-01 3.309769e-01 5.371805e-01 7.370808e-01 6.883350e-01 5.593820e-01 6.054502e-01 5.520487e-01 4.714559e-01 4.479784e-01 3.970624e-01 7.224382e-02
<GCONST> 1.103017e+02
<STATE> 3
<MEAN> 39
 -1.519420e+01 -6.231589e-01 2.613772e-01 3.191043e+00 -8.138937e-01 -1.546070e+00 -2.519613e+00 -1.629295e+00 -5.097711e-01 -9.149281e-01 -1.621598e+00 -7.175943e-02 6.183073e+01 -2.385404e-01 -3.774928e-01 -2.376445e-01 -1.458681e-01 2.261760e-02 8.108401e-02 8.557700e-02 1.183012e-01 1.551149e-01 2.486027e-02 1.101136e-02 -2.969189e-02 2.505340e-01 1.178198e-01 2.755255e-03 3.846985e-03 -6.094702e-02 8.511714e-03 -9.518251e-03 4.060660e-02 4.853090e-02 3.622295e-02 3.587377e-02 1.448662e-02 1.150005e-02 -2.507360e-02
<VARIANCE> 39
 8.136533e+00 1.642139e+01 1.920767e+01 1.903444e+01 2.555324e+01 3.070993e+01 3.489084e+01 2.841546e+01 3.458799e+01 3.409612e+01 2.711431e+01 2.473927e+01 8.765067e+00 4.665994e-01 9.438201e-01 1.300637e+00 1.711575e+00 1.845375e+00 2.533787e+00 2.731327e+00 2.585654e+00 2.547321e+00 2.696778e+00 2.506028e+00 2.415811e+00 2.421178e-01 7.432174e-02 1.757079e-01 2.473164e-01 3.352744e-01 3.787331e-01 5.158016e-01 5.405664e-01 5.080401e-01 4.917410e-01 5.297054e-01 5.238444e-01 4.843884e-01 3.672439e-02
<GCONST> 1.018026e+02
<STATE> 4
<NUMMIXES> 2
<MIXTURE> 1 3.618044e-01
<MEAN> 39
 -7.846981e+00 -2.512049e+00 -3.515199e+00 5.455492e-02 -1.997009e+00 -1.705371e+00 -1.381900e+00 1.171269e-01 6.134821e-01 1.881501e+00 -3.534169e-01 -5.893216e-02 5.831716e+01 2.091200e+00 2.176952e+00 1.047592e+00 1.999361e+00 5.164432e-01 1.018397e+00 3.749775e-01 3.549523e-01 -6.968254e-01 -4.191733e-01 -1.245889e-01 -4.010891e-01 -7.295431e-01 4.267676e-01 6.007940e-01 2.960044e-01 2.013370e-01 -6.354819e-02 1.121412e-01 -4.907631e-02 5.937618e-02 -2.270663e-01 -2.961603e-01 3.697540e-02 -1.848565e-01 6.302652e-01
<VARIANCE> 39
 1.180440e+01 1.169567e+01 3.648349e+01 3.041972e+01 3.262363e+01 3.914878e+01 4.251228e+01 3.529733e+01 3.577341e+01 4.298088e+01 2.867933e+01 2.457183e+01 8.320238e+00 9.853302e-01 1.987337e+00 2.136601e+00 2.307914e+00 2.354636e+00 2.485169e+00 2.966290e+00 2.598902e+00 2.521316e+00 3.255761e+00 2.645529e+00 2.000898e+00 6.680157e-01 1.374860e-01 2.594897e-01 3.447754e-01 5.993483e-01 5.549076e-01 5.293885e-01 6.294183e-01 6.169852e-01 4.963269e-01 4.994863e-01 5.062810e-01 3.643022e-01 1.591060e-01
<GCONST> 1.115380e+02
<MIXTURE> 2 6.381953e-01
<MEAN> 39
 -1.320833e+01 -5.097028e+00 -3.989294e+00 -1.952188e+00 -9.079995e-01 -1.467933e+00 -1.275478e+00 2.882842e-01 1.540163e+00 9.498897e-01 -8.673741e-01 -3.305784e-01 6.324855e+01 1.210224e+00 -1.070131e-02 -3.389161e-01 -6.936355e-01 -6.130340e-01 -3.230357e-01 -2.853014e-02 2.203665e-01 7.411108e-02 3.725195e-01 1.911208e-01 1.895516e-01 -7.210136e-01 2.709911e-01 4.046138e-01 2.223300e-01 3.816954e-01 1.012009e-02 1.034087e-01 -1.291618e-02 -8.009025e-02 -1.850844e-01 -7.441957e-02 3.408309e-02 2.659772e-03 -2.434579e-01
<VARIANCE> 39
 1.394964e+01 1.385870e+01 2.600201e+01 2.875782e+01 2.770463e+01 3.311375e+01 3.930940e+01 2.930367e+01 3.128375e+01 3.448770e+01 2.645967e+01 2.324682e+01 8.409180e+00 6.167238e-01 1.005662e+00 1.507029e+00 2.192866e+00 2.435251e+00 2.430377e+00 2.782962e+00 2.381664e+00 2.641649e+00 2.641510e+00 2.387955e+00 1.992342e+00 5.321139e-01 1.311962e-01 2.168356e-01 2.954267e-01 5.195631e-01 5.201901e-01 5.369459e-01 5.799538e-01 4.460209e-01 4.597664e-01 5.666628e-01 4.640944e-01 3.857341e-01 7.933903e-02
<GCONST> 1.065621e+02
<TRANSP> 5
 0.000000e+00 1.000000e+00 0.000000e+00 0.000000e+00 0.000000e+00
 0.000000e+00 8.145311e-01 1.854689e-01 0.000000e+00 0.000000e+00
 0.000000e+00 0.000000e+00 9.234178e-01 7.658214e-02 0.000000e+00
 0.000000e+00 0.000000e+00 0.000000e+00 8.434482e-01 1.565519e-01
 0.000000e+00 0.000000e+00 0.000000e+00 0.000000e+00 0.000000e+00
<ENDHMM>
~h "g"
<BEGINHMM>
<NUMSTATES> 5
<STATE> 2
<NUMMIXES> 2
<MIXTURE> 1 3.728975e-01
<MEAN> 39
 -6.681206e-01 9.465923e+00 9.644698e+00 7.753153e+00 -5.090446e+00 -5.592719e+00 1.150389e+00 -4.151348e-01 -7.001980e+00 1.505510e+00 5.627048e+00 -2.289499e+00 5.933442e+01 -1.071156e-02 7.303847e-01 -6.733023e-02 2.339445e-01 1.655703e+00 8.826108e-02 2.544965e-01 -2.325314e-01 9.160734e-01 1.563696e-01 -1.019994e+00 3.431055e-02 -1.560916e+00 -1.964394e-03 -1.347314e-01 -1.793959e-01 -9.115005e-02 -2.161490e-01 1.061323e-01 -1.323055e-01 -1.049120e-01 3.170352e-01 -2.923851e-01 -1.787522e-01 9.596200e-02 1.203909e-01
<VARIANCE> 39
 7.490396e+00 1.182137e+01 5.661419e+01 1.764735e+01 6.018317e+01 6.870232e+01 5.595845e+01 5.029287e+01 6.012441e+01 4.081939e+01 4.792971e+01 3.071881e+01 1.630907e+01 5.175607e-01 9.128003e-01 1.964902e+00 1.728239e+00 2.775723e+00 3.554511e+00 2.756319e+00 4.394567e+00 4.340715e+00 3.004869e+00 2.942982e+00 2.842490e+00 8.124927e-01 7.091079e-02 1.401906e-01 2.086106e-01 3.621492e-01 4.889835e-01 4.757102e-01 3.939664e-01 6.558275e-01 7.912663e-01 5.453179e-01 5.174183e-01 4.101579e-01 1.292421e-01
<GCONST> 1.125275e+02
<MIXTURE> 2 6.271018e-01
<MEAN> 39
 -2.034219e+00 9.642042e+00 6.202004e+00 6.700855e+00 -5.156386e-01 -4.677194e+00 -9.030461e-01 -1.933188e+00 -1.746755e+00 -4.597722e-01 -5.255077e-01 -4.480769e-01 5.331790e+01 -4.666433e-01 -4.164926e-01 -3.155340e-01 -2.504889e-01 1.838093e-01 -8.913303e-02 -4.916452e-01 1.355338e-01 9.197149e-02 -1.549901e-01 -5.076417e-01 2.205585e-01 -9.226254e-02 -1.338210e-01 -2.287655e-01 -1.943413e-02 -9.677537e-02 -4.755358e-04 2.783673e-02 -6.991090e-02 1.220942e-01 -2.305244e-01 1.414208e-01 7.616134e-02 -4.274173e-02 2.740550e-01
<VARIANCE> 39
 9.845459e+00 9.143108e+00 1.585285e+01 1.617776e+01 1.939124e+01 3.217682e+01 3.156048e+01 3.109766e+01 2.839274e+01 2.497967e+01 2.303823e+01 2.112165e+01 5.674533e+00 4.383705e-01 7.475509e-01 1.312596e+00 1.587130e+00 2.622660e+00 2.473049e+00 2.158079e+00 2.934032e+00 2.691616e+00 3.028508e+00 2.257395e+00 2.003289e+00 3.964986e-01 9.174518e-02 1.914417e-01 2.542765e-01 3.738399e-01 4.943838e-01 5.206547e-01 4.793011e-01 6.703515e-01 6.054962e-01 5.020911e-01 3.799649e-01 4.687922e-01 9.266558e-02
<GCONST> 1.013702e+02
<STATE> 3
<MEAN> 39
 -9.599640e+00 2.132035e+00 4.023357e+00 9.278108e-01 -9.604128e-01 -3.092934e+00 -3.934640e+00 -1.118008e-01 -5.053800e+00 2.595826e+00 -1.481200e+00 2.914791e-01 5.910427e+01 -1.017113e+00 -6.822984e-01 -1.712510e-01 -7.833277e-01 -1.845547e-02 2.686913e-01 -2.829828e-01 3.543185e-01 -2.882598e-01 2.916355e-01 -1.363797e-01 2.697352e-01 1.028689e+00 2.577378e-01 4.566037e-01 1.116037e-01 2.582523e-01 -9.185737e-02 -1.207685e-01 1.581175e-01 -8.803359e-02 1.175853e-01 -2.529756e-01 1.700069e-01 -6.189362e-02 -1.369598e-01
<VARIANCE> 39
 2.683348e+01 5.204689e+01 3.861437e+01 4.073260e+01 5.685322e+01 5.785563e+01 5.365253e+01 4.976703e+01 5.498170e+01 4.596215e+01 4.194477e+01 2.502400e+01 3.856890e+01 2.250078e+00 6.046874e+00 2.066441e+00 4.182903e+00 3.978845e+00 3.812660e+00 3.511526e+00 3.944125e+00 4.397578e+00 4.235891e+00 2.989560e+00 3.066589e+00 4.360419e+00 5.477777e-01 1.152140e+00 3.662130e-01 7.505667e-01 7.761433e-01 7.069845e-01 6.773452e-01 7.577751e-01 9.482079e-01 8.333496e-01 6.632596e-01 6.559950e-01 8.864143e-01
<GCONST> 1.332322e+02
<STATE> 4
<NUMMIXES> 2
<MIXTURE> 1 4.625569e-01
<MEAN> 39
 -1.323528e+01 6.455789e+00 8.947382e+00 -1.618238e+00 -1.945591e+00 -4.009512e-02 -2.956174e+00 -6.251315e-01 -3.278686e+00 1.683302e+00 -3.200927e+00 2.371028e+00 6.115802e+01 2.405693e+00 2.395397e+00 1.926007e+00 2.610812e+00 -5.950698e-01 -9.785721e-02 8.477607e-01 -1.870237e-01 -8.745074e-02 -8.542767e-01 1.024482e+00 -8.179641e-01 3.049687e-02 8.412609e-01 -4.557763e-01 -2.183002e-01 4.320627e-01 -1.057231e+00 -4.119298e-01 -1.560039e-01 3.164978e-02 -2.894346e-01 1.054225e-01 7.993668e-01 -3.182920e-01 5.573591e-01
<VARIANCE> 39
 2.082773e+01 2.872468e+01 4.558329e+01 4.960047e+01 4.488719e+01 3.785986e+01 3.272240e+01 3.742605e+01 2.637515e+01 4.007926e+01 2.815870e+01 2.286234e+01 1.379201e+01 2.750427e+00 2.250170e+00 2.256583e+00 2.677668e+00 6.615922e+00 3.900260e+00 1.971225e+00 1.616209e+00 3.328661e+00 3.544185e+00 4.469952e+00 1.404611e+00 1.665786e+00 2.988469e-01 5.170809e-01 8.147889e-01 9.901097e-01 1.386859e+00 5.026215e-01 3.362861e-01 3.196597e-01 5.209822e-01 3.679985e-01 4.222080e-01 3.073268e-01 3.553739e-01
<GCONST> 1.198424e+02
<MIXTURE> 2 5.374430e-01
<MEAN> 39
 -3.014814e+00 8.718572e+00 6.856168e+00 7.031026e+00 -4.799265e+00 -3.577521e+00 -4.626248e+00 9.759862e-01 -4.444662e+00 -7.044578e-02 2.457103e+00 -1.523353e+00 6.346940e+01 1.913486e+00 1.184360e-02 -8.265960e-01 8.751045e-01 -3.107236e+00 -1.925831e+00 -7.272141e-01 3.607578e-01 -2.114051e-01 -7.252869e-01 2.722691e+00 -7.805324e-01 1.623147e+00 -3.661243e-01 -5.447642e-01 -4.744168e-01 -5.499325e-01 -1.979311e-01 -1.006175e-01 -4.254854e-03 -9.086122e-02 7.113430e-02 1.829864e-01 1.532134e-01 2.106728e-01 7.555929e-02
<VARIANCE> 39
 1.678838e+01 2.893649e+01 6.417329e+01 1.869423e+01 1.181697e+02 4.725994e+01 8.314873e+01 4.598755e+01 1.834244e+01 3.367762e+01 4.522974e+01 2.169878e+01 2.652218e+01 2.766101e+00 2.602507e+00 1.779773e+00 2.353675e+00 6.573892e+00 3.636266e+00 3.537036e+00 3.960544e+00 3.195305e+00 2.512474e+00 3.824480e+00 2.113744e+00 1.419465e+00 3.342045e-01 7.653276e-01 5.473624e-01 4.971774e-01 1.269843e+00 6.686762e-01 4.396912e-01 4.567102e-01 3.598420e-01 3.877345e-01 6.276944e-01 2.888275e-01 2.364725e-01
<GCONST> 1.226129e+02
<TRANSP> 5
 0.000000e+00 1.000000e+00 0.000000e+00 0.000000e+00 0.000000e+00
 0.000000e+00 8.998940e-01 1.001060e-01 0.000000e+00 0.000000e+00
 0.000000e+00 0.000000e+00 8.179454e-01 1.820545e-01 0.000000e+00
 0.000000e+00 0.000000e+00 0.000000e+00 6.579478e-01 3.420523e-01
 0.000000e+00 0.000000e+00 0.000000e+00 0.000000e+00 0.000000e+00
<ENDHMM>
~h "k"
<BEGINHMM>
<NUMSTATES> 5
<STATE> 2
<NUMMIXES> 2
<MIXTURE> 1 3.595850e-01
<MEAN> 39
 -2.398420e+00 8.572539e+00 7.945889e+00 6.285264e+00 -5.471959e+00 -5.152396e+00 9.407648e-01 6.875853e-02 -4.707069e+00 1.327377e+00 3.409163e+00 -8.402140e-01 5.733563e+01 -5.609003e-01 4.651300e-01 1.154077e-01 -3.384741e-01 1.509878e+00 4.352913e-01 2.533312e-01 6.827076e-03 4.437212e-01 3.074770e-01 -8.826356e-01 -1.918169e-01 -1.198573e+00 -1.959087e-02 -1.764429e-01 -3.326185e-01 -1.057050e-01 2.788023e-02 1.070578e-01 -2.408353e-01 -9.877244e-02 2.796451e-01 -2.088562e-01 -2.758372e-01 7.687662e-02 -4.533349e-04
<VARIANCE> 39
 1.322886e+01 1.548983e+01 3.843135e+01 2.724425e+01 5.016604e+01 5.768143e+01 6.440847e+01 5.204702e+01 5.750507e+01 4.194194e+01 4.550315e+01 3.206783e+01 2.236312e+01 8.176768e-01 9.308469e-01 2.112554e+00 2.154687e+00 3.875121e+00 3.361479e+00 3.025249e+00 3.857330e+00 4.140186e+00 2.858694e+00 3.328263e+00 2.454998e+00 1.116370e+00 1.207705e-01 1.732775e-01 3.805444e-01 3.786342e-01 6.617573e-01 5.264461e-01 5.180193e-01 5.567700e-01 6.974536e-01 4.905353e-01 5.785977e-01 4.604133e-01 8.942828e-02
<GCONST> 1.162591e+02
<MIXTURE> 2 6.404145e-01
<MEAN> 39
 -4.822886e+00 7.943575e+00 3.983046e+00 3.351130e+00 -1.563597e+00 -4.518657e+00 -2.158308e+00 -2.389419e+00 -1.569499e+00 -1.688271e-01 -1.332020e+00 2.617257e-01 5.276802e+01 -1.667590e-01 -3.842731e-01 -6.272538e-01 -2.624383e-01 -7.341632e-02 -2.872735e-02 -2.918311e-01 -2.870407e-01 2.351200e-01 -3.013599e-01 -1.666413e-01 2.147408e-01 -3.800344e-01 -3.879241e-02 -1.546818e-01 1.375649e-01 6.599963e-02 -1.231854e-01 3.947589e-03 4.260929e-02 8.944114e-02 -1.911380e-01 1.043813e-01 1.645822e-01 -3.177158e-02 2.795815e-01
<VARIANCE> 39
 9.520879e+00 9.403369e+00 1.738585e+01 1.934492e+01 2.545887e+01 4.049844e+01 3.934848e+01 3.696236e+01 3.671008e+01 3.291579e+01 2.821720e+01 2.392206e+01 4.798752e+00 6.041611e-01 8.345103e-01 1.770531e+00 1.797337e+00 2.408111e+00 2.919228e+00 2.634013e+00 2.757531e+00 2.886960e+00 2.838600e+00 2.624255e+00 2.138977e+00 5.080961e-01 1.692716e-01 2.829174e-01 3.331064e-01 3.565033e-01 5.940745e-01 6.295121e-01 5.331097e-01 6.047918e-01 5.347269e-01 5.517793e-01 4.932280e-01 4.320424e-01 1.107691e-01
<GCONST> 1.066960e+02
<STATE> 3
<MEAN> 39
 -7.220355e+00 3.832850e+00 3.499282e+00 3.583086e+00 -1.046818e+00 -3.439968e+00 -2.284106e+00 -9.317814e-01 -2.434069e+00 6.898990e-01 -8.482043e-01 5.380940e-01 5.402893e+01 -1.505402e+00 -2.438312e+00 3.113876e-01 -6.607285e-01 3.144120e-02 4.696748e-01 -2.614560e-01 8.788277e-01 -5.589680e-01 8.316677e-01 -3.841648e-01 7.649296e-02 2.156429e+00 -2.718414e-01 -1.367926e-01 1.220853e-02 -3.580843e-01 -1.710254e-01 -4.793537e-02 1.154342e-02 1.219285e-01 3.182431e-03 2.016177e-01 -1.188979e-01 1.611602e-02 5.051480e-01
<VARIANCE> 39
 1.256300e+01 3.066086e+01 3.419946e+01 2.816265e+01 2.676181e+01 3.788280e+01 4.179276e+01 4.502308e+01 4.233343e+01 3.250556e+01 2.400165e+01 2.192269e+01 1.572557e+01 2.011282e+00 3.704950e+00 4.172921e+00 3.585355e+00 3.717262e+00 4.295929e+00 3.577764e+00 5.347386e+00 3.996321e+00 3.586045e+00 2.816711e+00 2.625152e+00 2.802831e+00 3.230407e-01 7.769627e-01 5.714939e-01 4.740115e-01 6.139749e-01 6.478675e-01 6.049709e-01 8.864129e-01 6.813087e-01 6.700274e-01 4.703121e-01 5.144433e-01 4.307847e-01
<GCONST> 1.240614e+02
<STATE> 4
<NUMMIXES> 2
<MIXTURE> 1 4.401612e-01
<MEAN> 39
 -1.473713e+01 4.547932e+00 6.613647e+00 -3.681447e+00 -2.150240e+00 -2.093565e+00 -2.887731e+00 -2.588222e-01 -1.597659e+00 4.384849e+00 -2.678408e+00 2.691090e+00 6.117276e+01 1.706720e+00 1.642724e+00 1.029296e+00 1.806219e+00 1.622833e-02 -4.810914e-02 3.316237e-01 -2.238923e-01 -2.692153e-01 -9.624321e-01 6.093136e-01 -4.543856e-01 -5.811208e-01 7.497301e-01 -2.301248e-01 -8.180192e-02 5.573482e-01 -3.900654e-01 -1.671768e-01 1.389990e-01 -3.103480e-02 -1.757962e-01 -3.015207e-01 2.884795e-01 -2.569195e-01 2.520454e-01
<VARIANCE> 39
 2.651354e+01 2.505362e+01 4.043005e+01 5.575227e+01 5.231821e+01 6.213092e+01 4.915018e+01 5.434275e+01 4.612689e+01 3.652119e+01 3.470208e+01 3.055030e+01 1.144282e+01 3.522828e+00 3.199971e+00 2.380209e+00 4.262845e+00 4.614536e+00 4.385490e+00 3.349974e+00 3.406856e+00 3.433602e+00 3.630344e+00 3.593743e+00 2.705092e+00 1.496697e+00 3.633568e-01 5.635205e-01 6.140904e-01 9.714620e-01 8.411032e-01 8.730862e-01 6.496598e-01 6.516041e-01 6.603532e-01 6.984814e-01 6.649154e-01 5.499759e-01 4.485166e-01
<GCONST> 1.282358e+02
<MIXTURE> 2 5.598391e-01
<MEAN> 39
 -1.314752e+01 -2.530311e+00 4.506419e+00 -1.205855e+00 -3.849069e+00 -3.360578e+00 -2.554356e+00 9.733713e-01 -3.752790e+00 3.714510e+00 -2.489176e+00 9.185550e-01 6.340903e+01 -7.574800e-01 2.342377e-01 -2.170688e-01 -1.172448e+00 -5.422131e-01 -2.947389e-01 -2.271662e-01 1.162061e-01 3.471309e-01 5.225784e-01 -6.469444e-02 2.141119e-01 9.104221e-01 3.857560e-01 8.997119e-01 -2.899724e-04 2.600763e-01 2.079520e-01 -4.066123e-02 1.652732e-02 -2.385828e-01 2.056929e-01 -2.572596e-01 1.538673e-01 2.214743e-02 -7.312314e-01
<VARIANCE> 39
 3.345235e+01 4.613156e+01 4.992477e+01 5.509403e+01 5.522742e+01 6.564265e+01 4.980973e+01 6.043158e+01 4.233110e+01 4.562360e+01 3.385215e+01 2.557056e+01 2.458667e+01 2.838597e+00 4.568272e+00 2.794789e+00 3.639920e+00 4.061136e+00 4.619867e+00 3.370603e+00 4.061862e+00 3.598027e+00 3.743327e+00 3.018595e+00 2.845280e+00 3.772920e+00 4.773590e-01 1.042041e+00 6.659057e-01 8.430350e-01 8.174007e-01 9.496567e-01 6.459347e-01 8.259069e-01 6.645650e-01 7.510757e-01 6.053144e-01 5.118808e-01 5.781149e-01
<GCONST> 1.326130e+02
<TRANSP> 5
 0.000000e+00 1.000000e+00 0.000000e+00 0.000000e+00 0.000000e+00
 0.000000e+00 9.124746e-01 8.752540e-02 0.000000e+00 0.000000e+00
 0.000000e+00 0.000000e+00 6.739100e-01 3.260899e-01 0.000000e+00
 0.000000e+00 0.000000e+00 0.000000e+00 8.397503e-01 1.602498e-01
 0.000000e+00 0.000000e+00 0.000000e+00 0.000000e+00 0.000000e+00
<ENDHMM>
~h "l"
<BEGINHMM>
<NUMSTATES> 5
<STATE> 2
<NUMMIXES> 2
<MIXTURE> 1 6.304193e-01
<MEAN> 39
 1.054306e-02 6.978826e+00 -2.827101e+00 1.534915e+00 -2.454691e+00 -4.030310e+00 -3.702341e+00 -2.134755e+00 3.569592e+00 1.769867e+00 -1.169926e+00 -1.453724e+00 6.481367e+01 1.075947e-01 4.161631e-01 -1.469582e-01 -4.128500e-02 8.370215e-01 2.569844e-01 1.276315e-01 -6.009618e-01 3.100146e-01 3.477340e-01 -3.793975e-01 -1.501130e-01 -2.585700e-01 8.635392e-02 9.578723e-02 1.660842e-01 2.489033e-02 2.589757e-02 1.732015e-02 6.510373e-02 -1.454161e-01 -1.001965e-01 4.523028e-02 2.824871e-02 2.975201e-02 -6.593478e-02
<VARIANCE> 39
 2.860615e+01 2.621615e+01 5.201245e+01 5.543766e+01 4.448799e+01 6.788368e+01 6.291454e+01 6.887826e+01 8.659462e+01 5.679069e+01 4.361657e+01 4.357059e+01 2.859017e+01 8.300052e-01 1.018100e+00 1.798374e+00 1.972122e+00 2.263524e+00 2.514647e+00 2.326062e+00 3.304956e+00 3.313597e+00 2.503039e+00 2.652342e+00 2.196855e+00 5.990764e-01 2.009405e-01 1.632320e-01 2.485734e-01 3.543908e-01 4.021721e-01 4.726241e-01 4.606854e-01 6.179577e-01 6.765550e-01 4.310677e-01 5.148174e-01 3.746854e-01 1.011588e-01
<GCONST> 1.163642e+02
<MIXTURE> 2 3.695801e-01
<MEAN> 39
 2.705271e-02 1.107973e+01 2.912804e+00 3.818036e-02 1.691106e+00 -1.904697e+00 -4.385587e+00 -5.175749e+00 6.450210e-01 1.416097e+00 -1.070613e+00 5.722700e-01 6.249733e+01 1.437459e+00 1.590181e-01 -1.357388e+00 -7.536538e-01 -5.195860e-01 -4.576017e-01 -6.249511e-01 -7.398484e-01 3.374106e-02 5.912309e-01 4.504973e-01 -1.434277e-01 9.884270e-01 -4.292446e-01 -4.357440e-01 -3.370857e-01 -1.137785e-01 -1.466076e-01 -5.898536e-02 8.789261e-02 2.175996e-01 6.980968e-02 -6.288989e-02 3.855484e-02 5.535465e-02 -1.841820e-03
<VARIANCE> 39
 1.471937e+01 2.261091e+01 6.473390e+01 4.419941e+01 4.085699e+01 4.456363e+01 7.695688e+01 6.197819e+01 3.599649e+01 4.620863e+01 3.372645e+01 4.104272e+01 2.245258e+01 2.229684e+00 2.199246e+00 2.119746e+00 3.449784e+00 2.147427e+00 3.316494e+00 3.937738e+00 4.871418e+00 3.873395e+00 3.296401e+00 2.932577e+00 4.347143e+00 9.840131e-01 2.678633e-01 2.657494e-01 5.500478e-01 8.661039e-01 5.029416e-01 4.896978e-01 6.951721e-01 7.098592e-01 5.010091e-01 5.303007e-01 5.709448e-01 6.294001e-01 1.954720e-01
<GCONST> 1.232820e+02
<STATE> 3
<MEAN> 39
 3.027608e+00 6.956677e+00 -3.440693e+00 -1.869259e+00 8.482834e-01 3.790278e-01 -7.249423e+00 -4.354857e+00 2.585532e+00 4.903217e+00 -9.832561e-01 -5.022179e+00 6.669724e+01 1.365953e-02 2.404894e-01 3.372138e-02 -1.671676e-01 2.060115e-01 5.628698e-02 5.694417e-02 -4.099677e-01 -3.185299e-02 1.701126e-01 1.197645e-01 2.346787e-01 -1.648057e-01 -1.420812e-02 2.024230e-03 7.063492e-02 4.607926e-02 -2.567635e-02 -3.410581e-02 2.097799e-02 5.909673e-02 -3.514410e-02 -8.898261e-02 1.753582e-02 6.964324e-02 -3.187148e-02
<VARIANCE> 39
 4.983173e+00 1.546473e+01 2.077614e+01 3.551960e+01 2.377437e+01 5.243774e+01 4.634844e+01 6.644440e+01 6.451288e+01 5.752534e+01 3.376104e+01 3.489197e+01 1.311875e+01 1.449855e-01 3.569452e-01 7.309949e-01 9.507676e-01 9.758678e-01 1.200627e+00 1.329159e+00 1.787734e+00 1.482245e+00 2.000962e+00 1.370468e+00 1.149965e+00 2.202078e-01 2.052911e-02 4.147770e-02 9.041914e-02 1.081355e-01 1.462196e-01 1.440616e-01 1.706593e-01 2.150885e-01 2.112017e-01 2.249045e-01 2.066194e-01 1.711222e-01 1.890925e-02
<GCONST> 8.416036e+01
<STATE> 4
<NUMMIXES> 2
<MIXTURE> 1 5.514431e-01
<MEAN> 39
 3.725938e+00 1.389551e+01 -5.859992e+00 -6.535407e+00 1.635216e+00 -2.038716e+00 2.429894e+00 -1.334467e+01 -2.669709e-01 3.450082e+00 1.892219e+00 4.851412e+00 6.367647e+01 6.292544e-03 1.191067e-01 1.728445e-01 6.223639e-02 6.962151e-02 -8.945547e-02 1.763293e-02 -8.235908e-02 -1.746081e-01 -1.074266e-01 1.189779e-01 1.989934e-01 -2.006845e-01 -2.598958e-02 -5.799776e-02 5.629649e-02 6.046009e-02 -1.187017e-02 -1.013210e-05 -9.337612e-02 1.260314e-01 2.251661e-02 5.042753e-02 -3.370795e-02 -1.039394e-01 7.884512e-03
<VARIANCE> 39
 2.531204e+00 8.260906e+00 2.354651e+01 3.460155e+01 2.970066e+01 5.082213e+01 5.477800e+01 5.072131e+01 5.348005e+01 7.535622e+01 3.703355e+01 3.187521e+01 8.954092e+00 1.249564e-01 3.262033e-01 5.272290e-01 9.232234e-01 9.353743e-01 1.068532e+00 1.280048e+00 1.338846e+00 1.465438e+00 1.526606e+00 1.509086e+00 1.279272e+00 1.395915e-01 1.822693e-02 4.875614e-02 8.125633e-02 1.199945e-01 1.471986e-01 1.911742e-01 1.939582e-01 2.185374e-01 2.417657e-01 2.219634e-01 2.225614e-01 1.796575e-01 1.510647e-02
<GCONST> 8.162426e+01
<MIXTURE> 2 4.485558e-01
<MEAN> 39
 2.307262e+00 1.134149e+01 -1.476594e+00 -1.074932e+00 2.687504e+00 -2.900061e+00 -3.687111e+00 -8.543402e+00 1.803432e+00 3.611253e+00 6.105101e-01 -5.147511e-02 6.271773e+01 -2.643100e-01 -2.865689e-01 3.745692e-01 4.863418e-01 -1.839563e-01 -2.895353e-01 -1.925179e-01 7.567693e-01 2.142285e-01 -3.039544e-01 -2.091387e-01 -3.530330e-01 1.172009e-02 -7.478401e-02 -6.805095e-02 6.692157e-03 5.328782e-02 -1.703160e-01 -9.795178e-03 1.392490e-01 1.049465e-01 1.338646e-02 -1.311764e-01 -2.592253e-02 4.852504e-02 4.687012e-02
<VARIANCE> 39
 6.689230e+00 1.477164e+01 3.487973e+01 4.084209e+01 2.878127e+01 5.414138e+01 7.186166e+01 6.859083e+01 5.854596e+01 6.362286e+01 3.192742e+01 3.842749e+01 1.503336e+01 3.653667e-01 5.989122e-01 1.275766e+00 1.730976e+00 1.915680e+00 2.052429e+00 2.408764e+00 3.216260e+00 2.637167e+00 3.215199e+00 1.984285e+00 2.447397e+00 6.031229e-01 6.877139e-02 7.492547e-02 1.898093e-01 2.252618e-01 2.779627e-01 3.121595e-01 3.943446e-01 5.124118e-01 4.491653e-01 4.289339e-01 3.433609e-01 4.371654e-01 5.502476e-02
<GCONST> 1.044257e+02
<TRANSP> 5
 0.000000e+00 1.000000e+00 0.000000e+00 0.000000e+00 0.000000e+00
 0.000000e+00 6.830947e-01 3.169053e-01 0.000000e+00 0.000000e+00
 0.000000e+00 0.000000e+00 8.696374e-01 1.303626e-01 0.000000e+00
 0.000000e+00 0.000000e+00 0.000000e+00 8.939133e-01 1.060866e-01
 0.000000e+00 0.000000e+00 0.000000e+00 0.000000e+00 0.000000e+00
<ENDHMM>
~h "m"
<BEGINHMM>
<NUMSTATES> 5
<STATE> 2
<NUMMIXES> 2
<MIXTURE> 1 5.756211e-01
<MEAN> 39
 3.043740e+00 4.868306e+00 1.685334e+00 1.037748e+01 8.376606e-01 -3.459867e+00 -1.973951e+00 -9.219465e-01 -1.150756e+00 -1.252776e-01 -1.419017e+00 -4.423010e+00 6.135775e+01 -1.966317e-01 8.187178e-01 1.335368e+00 1.873969e+00 1.266243e+00 -4.654621e-01 2.627823e-01 -1.870880e+00 -8.972994e-01 1.512194e+00 -2.434953e-01 -8.113890e-01 -9.644667e-01 -9.372359e-02 -5.314695e-02 2.271425e-01 7.922422e-03 -2.587215e-01 -1.142417e-01 -1.316410e-02 -1.585732e-03 -7.348765e-02 5.064855e-02 6.447978e-02 -1.027602e-02 2.181834e-01
<VARIANCE> 39
 1.158010e+01 1.300237e+01 2.307168e+01 2.745932e+01 2.192905e+01 2.926899e+01 4.050386e+01 3.987577e+01 4.157020e+01 4.618820e+01 3.432611e+01 2.750199e+01 1.905970e+01 5.847510e-01 7.214684e-01 1.744169e+00 1.405824e+00 1.890724e+00 2.692422e+00 2.355766e+00 3.231012e+00 2.302913e+00 3.427677e+00 1.913851e+00 2.421361e+00 6.112279e-01 7.979282e-02 1.244109e-01 3.119930e-01 3.207426e-01 3.443200e-01 3.622646e-01 4.599043e-01 6.754923e-01 4.079664e-01 5.465622e-01 3.022348e-01 3.620999e-01 8.991136e-02
<GCONST> 1.048635e+02
<MIXTURE> 2 4.243783e-01
<MEAN> 39
 1.043648e-02 7.637303e+00 7.927671e+00 1.105219e+01 4.010110e-01 -2.254447e+00 -2.058425e+00 -2.715692e+00 -4.541348e+00 1.544253e+00 -1.714335e+00 -5.443637e+00 6.020681e+01 8.244096e-01 -3.020837e-01 5.580309e-02 8.385036e-01 3.361474e-01 -8.805211e-01 -4.398259e-01 -3.274228e-02 -2.757293e-01 1.085451e-01 -1.206186e-01 -4.058114e-01 4.970835e-01 -1.715436e-01 -1.750133e-01 -2.343405e-01 -2.800082e-01 -1.995599e-02 -8.989957e-02 -2.963153e-02 -9.547294e-02 1.021311e-01 1.605710e-01 -3.161370e-02 1.204087e-01 -6.233226e-02
<VARIANCE> 39
 9.223857e+00 2.334538e+01 1.934885e+01 2.839210e+01 7.419926e+01 5.145430e+01 3.496183e+01 4.630098e+01 3.918588e+01 4.494532e+01 3.483559e+01 2.830153e+01 3.239870e+01 1.095752e+00 1.145579e+00 1.940598e+00 2.278824e+00 3.659465e+00 2.753564e+00 2.792192e+00 4.084028e+00 1.958670e+00 3.032829e+00 2.138612e+00 2.474842e+00 1.318890e+00 1.809993e-01 3.194208e-01 2.895970e-01 4.287684e-01 6.288289e-01 5.316945e-01 4.858319e-01 8.489363e-01 3.128590e-01 7.116126e-01 4.253705e-01 4.451690e-01 1.915174e-01
<GCONST> 1.152865e+02
<STATE> 3
<MEAN> 39
 2.546148e+00 6.235910e+00 7.008917e+00 1.491326e+01 1.508314e+00 -5.514594e+00 -1.831274e+00 -6.496095e+00 -3.265338e+00 5.345258e+00 -3.052112e+00 -6.562330e+00 6.072861e+01 -9.450443e-03 2.809278e-02 8.230447e-02 1.096762e-02 4.941410e-02 6.889660e-02 -3.217492e-02 -1.041025e-01 -2.022091e-02 -1.717084e-03 -1.830655e-04 8.485848e-03 -1.827831e-02 7.618655e-04 1.257742e-02 -8.256938e-02 -1.354959e-01 -2.167714e-02 9.221828e-02 9.039366e-03 1.041241e-01 4.190482e-02 -1.138421e-01 1.970004e-02 6.066797e-02 1.945261e-02
<VARIANCE> 39
 2.684652e+00 1.064088e+01 9.362233e+00 1.693450e+01 2.362533e+01 4.149392e+01 3.430755e+01 3.157751e+01 3.486451e+01 3.952916e+01 2.799422e+01 3.459615e+01 7.869660e+00 1.272922e-01 3.189813e-01 4.598146e-01 7.425699e-01 7.964800e-01 1.213329e+00 1.074783e+00 1.274584e+00 1.288939e+00 1.573952e+00 1.296792e+00 1.366604e+00 1.428281e-01 2.321217e-02 4.520436e-02 9.882983e-02 1.509474e-01 1.549671e-01 2.192386e-01 2.076436e-01 2.503313e-01 2.373060e-01 2.862566e-01 2.261755e-01 2.357744e-01 2.074850e-02
<GCONST> 7.857431e+01
<STATE> 4
<NUMMIXES> 2
<MIXTURE> 1 4.864508e-01
<MEAN> 39
 2.540175e+00 5.651352e+00 6.910960e+00 1.522014e+01 3.262914e+00 -6.322498e+00 -2.616935e+00 -5.952760e+00 -5.118803e+00 4.359899e+00 -1.373609e+00 -6.900509e+00 6.118531e+01 -4.513304e-02 -1.633438e-01 -7.310615e-01 -1.487726e+00 -7.154562e-01 6.612858e-01 -1.643649e-01 1.296970e+00 6.971270e-01 -1.121009e+00 2.537314e-01 8.588443e-01 6.705639e-01 2.319166e-02 -7.920957e-02 -2.773615e-01 -6.415129e-01 -5.932547e-01 3.368422e-01 1.929820e-04 6.404792e-01 3.151140e-01 -5.396722e-01 -1.451675e-02 3.329551e-01 2.621085e-01
<VARIANCE> 39
 2.943806e+00 1.151187e+01 1.188463e+01 1.815287e+01 2.088738e+01 4.084154e+01 3.582592e+01 2.351155e+01 3.166096e+01 3.240488e+01 2.864312e+01 3.988149e+01 7.652665e+00 3.179613e-01 7.043270e-01 1.295965e+00 1.584640e+00 2.177778e+00 1.759001e+00 1.715743e+00 2.480300e+00 1.970405e+00 2.755804e+00 1.565053e+00 2.775254e+00 6.710575e-01 7.207339e-02 9.688986e-02 3.210117e-01 1.936541e-01 3.274583e-01 3.754484e-01 3.475269e-01 3.022646e-01 3.197358e-01 3.656095e-01 3.508452e-01 4.166919e-01 6.396715e-02
<GCONST> 9.593465e+01
<MIXTURE> 2 5.135489e-01
<MEAN> 39
 1.436422e+00 7.852962e+00 5.602156e+00 1.012466e+01 3.005899e+00 -2.172148e+00 -2.893849e+00 -3.194704e+00 -1.175386e+00 3.534905e-01 -2.823513e+00 -3.954031e+00 6.039584e+01 -2.186563e-01 -1.094467e-01 -6.735407e-01 -1.538468e+00 -8.072099e-01 5.923114e-01 8.768192e-02 1.513009e+00 5.950158e-01 -9.862344e-01 2.177271e-02 6.695231e-01 3.239505e-01 -4.584476e-02 -1.000309e-01 -9.060757e-02 -1.778469e-02 -1.507600e-01 -2.817031e-03 1.350703e-01 -1.361181e-02 -1.689484e-01 2.531752e-03 -3.579029e-02 -4.056505e-02 -3.314976e-02
<VARIANCE> 39
 6.800578e+00 2.341494e+01 2.179709e+01 2.234497e+01 2.665810e+01 2.852117e+01 2.339819e+01 3.260236e+01 3.475226e+01 2.743055e+01 2.279875e+01 1.809406e+01 2.605753e+01 8.961975e-01 1.389367e+00 3.241611e+00 2.941609e+00 3.816814e+00 3.624109e+00 2.819906e+00 3.233298e+00 2.930089e+00 4.405038e+00 2.609465e+00 2.522592e+00 1.196512e+00 1.183565e-01 2.334728e-01 3.649405e-01 3.615968e-01 4.607806e-01 5.137746e-01 5.342830e-01 5.511926e-01 4.401479e-01 4.356533e-01 3.747305e-01 3.894714e-01 8.913272e-02
<GCONST> 1.100114e+02
<TRANSP> 5
 0.000000e+00 1.000000e+00 0.000000e+00 0.000000e+00 0.000000e+00
 0.000000e+00 7.811397e-01 2.188603e-01 0.000000e+00 0.000000e+00
 0.000000e+00 0.000000e+00 9.075907e-01 9.240934e-02 0.000000e+00
 0.000000e+00 0.000000e+00 0.000000e+00 7.114183e-01 2.885817e-01
 0.000000e+00 0.000000e+00 0.000000e+00 0.000000e+00 0.000000e+00
<ENDHMM>
~h "n"
<BEGINHMM>
<NUMSTATES> 5
<STATE> 2
<NUMMIXES> 2
<MIXTURE> 1 5.277779e-01
<MEAN> 39
 1.892790e+00 6.366344e+00 7.327666e+00 1.269228e+01 -6.772291e-01 -3.586742e+00 -1.427541e+00 -3.599998e+00 -1.646755e+00 2.893669e+00 -5.776755e+00 -6.099265e+00 6.156654e+01 3.334911e-01 4.221789e-01 7.822915e-01 1.843019e+00 3.411284e-02 -2.756513e-01 5.898368e-01 -2.397581e+00 -5.029342e-02 2.359420e+00 -1.436200e+00 -4.150633e-01 -1.010183e+00 -9.534423e-02 -8.175567e-02 -1.099481e-01 -3.861656e-01 -4.039784e-01 1.165476e-01 4.589709e-02 1.950417e-01 5.190401e-02 -2.707364e-01 1.706463e-01 1.813023e-01 3.089872e-01
<VARIANCE> 39
 3.545354e+00 1.360992e+01 1.456532e+01 2.130712e+01 1.992295e+01 2.253907e+01 3.210397e+01 3.958277e+01 4.111224e+01 4.145489e+01 2.546504e+01 2.287855e+01 7.730157e+00 6.170478e-01 1.018707e+00 1.795248e+00 1.989419e+00 2.388340e+00 2.538600e+00 2.083490e+00 3.607121e+00 2.470987e+00 2.711812e+00 2.262958e+00 2.355168e+00 4.636230e-01 6.035962e-02 1.180511e-01 2.118086e-01 3.356754e-01 3.142955e-01 3.511466e-01 3.552340e-01 6.531054e-01 3.324095e-01 5.401489e-01 3.912613e-01 3.097892e-01 5.647546e-02
<GCONST> 9.987988e+01
<MIXTURE> 2 4.722210e-01
<MEAN> 39
 -3.611251e-01 6.053957e+00 5.248189e+00 5.962783e+00 -3.892870e+00 -1.816313e+00 -1.401969e+00 1.156402e+00 -1.043836e+00 -2.991366e+00 -1.787037e+00 -4.178716e+00 6.601552e+01 3.232368e-01 3.668703e-01 5.399850e-01 1.175894e+00 1.365453e+00 -6.642920e-01 -3.366058e-01 -5.920779e-01 -1.160470e-01 1.072123e+00 -5.939202e-01 -5.527931e-01 -1.148703e+00 1.419511e-01 1.316592e-02 9.843044e-02 4.812079e-01 -1.276352e-01 8.197712e-03 1.993717e-01 -5.435690e-01 1.060324e-02 5.111362e-01 -3.333752e-01 -9.325618e-02 -2.432109e-01
<VARIANCE> 39
 9.987763e+00 2.602413e+01 3.538199e+01 2.541860e+01 4.089006e+01 4.445229e+01 4.953052e+01 5.529911e+01 5.440705e+01 4.539481e+01 3.137536e+01 2.996074e+01 1.484674e+01 6.661583e-01 9.004694e-01 1.698424e+00 2.372447e+00 2.852604e+00 2.878316e+00 2.577592e+00 4.011976e+00 2.254325e+00 3.031639e+00 2.329214e+00 1.955040e+00 8.365102e-01 1.445538e-01 2.075865e-01 2.979957e-01 4.494908e-01 5.054505e-01 5.238650e-01 4.815680e-01 6.341349e-01 4.642525e-01 4.741675e-01 4.136103e-01 3.216935e-01 9.392481e-02
<GCONST> 1.114716e+02
<STATE> 3
<MEAN> 39
 2.229150e+00 7.664371e+00 8.692382e+00 1.362941e+01 -2.399769e+00 -4.041174e+00 -1.536599e-01 -7.547808e+00 -1.139445e+00 6.409551e+00 -7.204536e+00 -6.116979e+00 6.013729e+01 1.872057e-02 2.431189e-01 6.408843e-04 -9.444883e-02 3.348918e-02 4.701718e-02 -4.308611e-02 -1.822372e-01 -6.275047e-02 3.975301e-02 1.598476e-01 4.445951e-02 -2.011355e-01 -5.283322e-02 1.761130e-02 -3.579454e-02 -1.430546e-01 7.638789e-02 5.114239e-02 -5.413969e-02 1.819681e-01 -2.431173e-02 -1.985929e-01 1.309333e-01 3.660017e-02 2.954647e-02
<VARIANCE> 39
 3.224010e+00 1.210548e+01 9.603246e+00 1.777232e+01 1.940600e+01 2.316891e+01 2.529887e+01 2.768401e+01 3.385757e+01 3.538002e+01 2.176642e+01 2.264380e+01 7.758502e+00 1.482614e-01 3.388973e-01 5.002015e-01 7.130635e-01 8.342976e-01 1.016918e+00 1.099939e+00 1.375245e+00 1.320690e+00 1.471394e+00 1.153368e+00 1.182458e+00 1.286419e-01 3.221656e-02 6.036325e-02 1.090194e-01 1.714883e-01 1.660693e-01 1.958543e-01 2.213342e-01 3.015938e-01 2.394360e-01 3.114018e-01 2.362884e-01 2.255422e-01 2.232820e-02
<GCONST> 7.794565e+01
<STATE> 4
<NUMMIXES> 2
<MIXTURE> 1 5.776053e-01
<MEAN> 39
 1.502366e+00 1.108804e+01 8.261829e+00 1.169915e+01 3.021945e-01 -2.345006e+00 -6.990101e-01 -7.249863e+00 -2.227407e+00 4.277846e+00 -4.615146e+00 -5.329852e+00 5.740617e+01 -5.306188e-01 2.206247e-01 2.356518e-01 -7.429649e-01 6.924700e-01 3.623633e-01 -2.277726e-02 9.332067e-01 -2.821696e-01 -9.558277e-01 2.792004e-01 3.905756e-01 -2.420329e-01 -2.286489e-01 -1.649420e-01 -1.562291e-02 -2.096838e-01 2.846036e-02 -6.179444e-03 -2.726314e-02 3.053348e-01 2.632447e-02 -2.228839e-01 -1.107882e-02 1.480209e-01 1.141628e-01
<VARIANCE> 39
 4.254007e+00 1.044501e+01 8.759660e+00 1.719483e+01 1.816849e+01 2.508983e+01 2.666354e+01 2.949636e+01 3.464596e+01 4.007403e+01 2.448067e+01 2.112849e+01 8.359692e+00 7.440905e-01 9.403498e-01 9.964188e-01 1.858137e+00 1.637092e+00 2.331314e+00 2.533051e+00 2.593568e+00 2.131827e+00 2.324616e+00 2.221628e+00 1.801873e+00 5.923066e-01 1.068439e-01 1.534255e-01 1.948383e-01 2.897544e-01 2.934529e-01 4.092548e-01 4.004328e-01 4.627528e-01 3.870998e-01 4.660414e-01 3.780291e-01 3.274389e-01 8.185884e-02
<GCONST> 9.773309e+01
<MIXTURE> 2 4.223936e-01
<MEAN> 39
 -2.583419e+00 9.723149e+00 8.180073e+00 8.305597e+00 2.348254e+00 -1.725589e+00 -3.152108e-01 -1.922426e+00 -1.895715e+00 -1.069545e+00 -4.472781e+00 -2.798593e+00 5.629414e+01 -6.438468e-01 -4.216278e-01 -4.833622e-01 -8.120880e-01 -3.900607e-02 -1.253360e-01 -1.341123e-01 5.952226e-01 6.212213e-02 -3.827769e-01 3.555366e-01 3.214682e-01 -1.675879e-01 9.319919e-02 -1.029129e-01 -1.991930e-01 1.588961e-02 -3.199811e-01 -1.182801e-01 -6.879487e-03 -2.045588e-01 8.373234e-02 1.904377e-01 6.620263e-02 -1.902809e-02 2.067091e-02
<VARIANCE> 39
 1.063304e+01 2.000639e+01 2.056214e+01 2.898338e+01 4.171033e+01 3.473445e+01 3.502237e+01 3.257660e+01 3.425385e+01 4.020827e+01 2.757235e+01 2.872766e+01 1.938782e+01 1.137970e+00 1.475811e+00 1.785566e+00 2.699561e+00 2.871435e+00 2.988240e+00 2.776709e+00 3.872533e+00 3.027229e+00 3.850679e+00 2.746926e+00 2.796803e+00 9.968554e-01 2.124434e-01 2.723013e-01 3.434697e-01 4.927287e-01 5.911797e-01 5.944305e-01 6.145934e-01 6.899357e-01 5.668504e-01 6.480107e-01 5.612611e-01 5.108808e-01 1.679778e-01
<GCONST> 1.151556e+02
<TRANSP> 5
 0.000000e+00 1.000000e+00 0.000000e+00 0.000000e+00 0.000000e+00
 0.000000e+00 7.916764e-01 2.083236e-01 0.000000e+00 0.000000e+00
 0.000000e+00 0.000000e+00 8.909441e-01 1.090559e-01 0.000000e+00
 0.000000e+00 0.000000e+00 0.000000e+00 8.391644e-01 1.608355e-01
 0.000000e+00 0.000000e+00 0.000000e+00 0.000000e+00 0.000000e+00
<ENDHMM>
~h "p"
<BEGINHMM>
<NUMSTATES> 5
<STATE> 2
<NUMMIXES> 2
<MIXTURE> 1 4.004114e-01
<MEAN> 39
 -2.269652e+00 6.696224e+00 4.898446e+00 4.425887e+00 2.961499e+00 -3.768534e+00 -2.318406e+00 1.710001e+00 -2.497123e+00 1.570166e+00 -9.339957e-01 -1.988132e+00 5.785877e+01 -7.816440e-01 9.841217e-01 -6.642983e-02 -2.645260e-01 6.542209e-01 5.625356e-01 8.859788e-01 1.656177e-01 5.677533e-01 1.674909e-01 -4.810265e-01 -2.448669e-01 -1.570893e+00 -6.063352e-02 5.689662e-02 1.231858e-02 8.952998e-03 -3.610025e-01 1.410656e-01 2.133263e-01 -9.281978e-02 5.488133e-02 -2.422110e-01 -1.265563e-01 4.537240e-03 2.145222e-02
<VARIANCE> 39
 3.233430e+01 2.255200e+01 2.454007e+01 3.173375e+01 5.533337e+01 4.942815e+01 6.007049e+01 4.001331e+01 3.997203e+01 2.827925e+01 2.970234e+01 2.319642e+01 2.132694e+01 1.399673e+00 2.211406e+00 2.467570e+00 3.087355e+00 2.631532e+00 2.723788e+00 2.626347e+00 4.807794e+00 3.488327e+00 3.989015e+00 3.300730e+00 2.925431e+00 1.465642e+00 2.984005e-01 3.409662e-01 3.172849e-01 4.876869e-01 4.254012e-01 4.652188e-01 5.308429e-01 8.017794e-01 7.678685e-01 5.890626e-01 3.696458e-01 5.233850e-01 2.018859e-01
<GCONST> 1.195381e+02
<MIXTURE> 2 5.995883e-01
<MEAN> 39
 -9.078871e-01 1.047462e+01 5.559466e+00 5.584576e+00 1.338059e+00 -3.096164e+00 -1.019645e+00 -1.182799e+00 -5.859869e-01 1.067788e+00 -2.868695e+00 -1.781875e+00 5.475592e+01 -1.157935e+00 4.013612e-02 -2.502393e-01 -6.725757e-01 -3.432572e-01 -1.901150e-01 4.822562e-01 1.257134e-02 -1.723566e-01 -7.849266e-01 -5.998039e-01 5.925121e-01 -1.126958e+00 9.166636e-02 -4.770467e-01 -3.520179e-01 -1.008871e-01 -1.796209e-01 -1.679392e-01 -2.834109e-01 -1.260184e-01 -1.505922e-01 -2.816978e-02 3.602644e-01 1.059792e-02 2.912866e-01
<VARIANCE> 39
 5.681706e+00 6.585343e+00 1.643738e+01 1.586327e+01 3.072240e+01 3.983091e+01 3.158333e+01 2.964287e+01 2.891935e+01 3.255390e+01 2.321532e+01 1.782076e+01 2.671251e+00 3.144149e-01 1.468713e+00 2.186748e+00 1.716574e+00 2.898010e+00 3.144884e+00 3.063726e+00 3.913147e+00 2.727146e+00 2.669337e+00 2.524166e+00 1.970825e+00 3.706471e-01 7.093070e-02 1.679088e-01 3.429923e-01 2.820125e-01 4.696023e-01 4.654395e-01 5.374077e-01 6.218939e-01 5.241596e-01 6.321704e-01 4.726208e-01 4.095537e-01 8.211157e-02
<GCONST> 1.018811e+02
<STATE> 3
<MEAN> 39
 -5.196682e+00 7.471633e+00 2.567251e+00 3.338489e+00 1.665071e-02 -3.524809e+00 -1.667256e+00 -2.550100e+00 -1.220844e+00 -8.838637e-01 -1.360031e+00 -1.072706e-01 5.197064e+01 -1.213279e-01 -1.926493e-01 -1.236434e-01 -4.764203e-02 2.825894e-02 1.223880e-01 1.536113e-02 -1.679644e-01 4.366954e-02 -3.095413e-02 7.334105e-02 5.591640e-02 -1.546082e-01 1.451922e-02 -1.113260e-02 5.533001e-02 3.321514e-02 3.329223e-02 3.490392e-03 -2.434195e-02 2.066592e-02 2.448786e-02 8.239529e-02 -6.447172e-03 -7.723179e-03 9.264180e-02
<VARIANCE> 39
 8.731792e+00 8.851190e+00 1.276224e+01 1.915107e+01 2.584817e+01 3.425079e+01 3.817094e+01 3.522015e+01 3.294944e+01 3.139043e+01 2.694628e+01 2.203615e+01 3.379388e+00 2.651655e-01 5.649598e-01 9.873882e-01 1.506584e+00 1.657852e+00 2.045771e+00 2.488874e+00 2.699629e+00 2.403029e+00 2.271681e+00 2.385695e+00 1.961021e+00 8.182399e-02 5.742943e-02 1.348233e-01 2.059940e-01 3.055027e-01 3.218722e-01 4.119236e-01 5.018145e-01 5.862985e-01 4.746498e-01 4.371065e-01 4.987261e-01 4.100228e-01 3.963897e-02
<GCONST> 9.516233e+01
<STATE> 4
<NUMMIXES> 2
<MIXTURE> 1 5.808682e-01
<MEAN> 39
 -7.630858e+00 2.394697e+00 1.649482e+00 2.763160e+00 6.946402e-01 -3.315200e+00 -1.500376e+00 -1.963287e-02 1.789300e+00 9.519202e-01 -2.302899e+00 -1.747055e-01 5.674900e+01 4.065555e-01 -3.005936e-01 6.731409e-01 8.333815e-01 2.238366e-01 -1.174677e-01 -9.042658e-03 4.447116e-01 1.209894e-02 -1.432988e-01 -5.112582e-02 -1.491258e-02 5.714927e-01 2.669617e-01 2.980511e-01 1.585373e-01 2.498009e-02 -1.624321e-01 -2.470821e-02 -2.709107e-02 -4.554453e-02 -2.262454e-01 -1.195917e-01 2.097603e-01 -1.698077e-02 1.645282e-01
<VARIANCE> 39
 9.991322e+00 3.611952e+01 1.981501e+01 2.640701e+01 3.416740e+01 4.255491e+01 4.004886e+01 3.588168e+01 4.057204e+01 4.227440e+01 2.598964e+01 2.339021e+01 3.312560e+01 1.396179e+00 3.024582e+00 1.955250e+00 2.735245e+00 2.908994e+00 4.599112e+00 3.074636e+00 3.613824e+00 3.971146e+00 3.451226e+00 2.235285e+00 2.777719e+00 3.488462e+00 2.989594e-01 6.999026e-01 3.669724e-01 6.531087e-01 5.744710e-01 9.454490e-01 9.028299e-01 6.406657e-01 6.540912e-01 6.342799e-01 4.470375e-01 5.360867e-01 7.128519e-01
<GCONST> 1.227505e+02
<MIXTURE> 2 4.191322e-01
<MEAN> 39
 -8.919775e+00 3.476882e+00 1.775310e+00 1.087647e+00 -4.998105e-01 -1.911052e+00 -1.590253e+00 -1.706655e+00 -5.366952e-01 -1.199340e-01 1.989938e-01 8.306994e-01 5.802296e+01 -1.140134e+00 -1.508136e+00 -3.217438e-01 -7.134686e-01 -5.116425e-01 -5.744095e-01 -9.051706e-01 7.592018e-01 5.296600e-01 4.275950e-01 2.924098e-01 7.819016e-03 2.474622e+00 1.727602e-01 -1.160015e-02 8.902249e-02 1.443498e-01 3.285174e-02 -2.154002e-01 -2.254387e-02 1.922316e-01 7.665346e-02 -6.320941e-02 -9.298882e-02 -1.424561e-01 -6.676769e-02
<VARIANCE> 39
 2.072056e+01 2.552567e+01 1.776373e+01 2.453530e+01 1.703966e+01 3.201160e+01 3.592194e+01 3.269018e+01 2.784778e+01 2.665592e+01 1.637789e+01 2.166042e+01 6.209312e+01 2.049802e+00 1.918902e+00 2.134537e+00 2.686120e+00 2.806141e+00 4.076645e+00 4.870681e+00 4.478632e+00 2.402011e+00 3.966155e+00 2.481161e+00 2.550949e+00 4.292343e+00 4.421546e-01 5.110568e-01 3.696254e-01 5.139874e-01 4.241368e-01 6.872221e-01 6.448068e-01 8.326619e-01 5.345251e-01 5.705401e-01 4.675645e-01 5.289362e-01 1.299268e+00
<GCONST> 1.208710e+02
<TRANSP> 5
 0.000000e+00 1.000000e+00 0.000000e+00 0.000000e+00 0.000000e+00
 0.000000e+00 7.781777e-01 2.218223e-01 0.000000e+00 0.000000e+00
 0.000000e+00 0.000000e+00 9.137838e-01 8.621618e-02 0.000000e+00
 0.000000e+00 0.000000e+00 0.000000e+00 8.433046e-01 1.566955e-01
 0.000000e+00 0.000000e+00 0.000000e+00 0.000000e+00 0.000000e+00
<ENDHMM>
~h "r"
<BEGINHMM>
<NUMSTATES> 5
<STATE> 2
<NUMMIXES> 2
<MIXTURE> 1 4.456691e-01
<MEAN> 39
 -5.337068e+00 -1.543418e+00 7.365983e-01 7.054485e+00 2.279796e+00 -1.256701e+00 -4.785098e+00 -9.387037e-01 3.677066e+00 2.011779e+00 -1.616055e+00 -2.573464e+00 5.945061e+01 1.945827e+00 1.354353e+00 3.277544e-01 7.826214e-01 4.752040e-01 2.504118e-01 1.318837e-01 -6.705228e-02 -4.410767e-01 -2.359246e-01 1.137772e-01 -1.544301e-01 -2.547889e-02 2.506383e-01 5.276995e-02 -1.612616e-01 -2.573959e-01 -4.406509e-01 -2.658330e-01 -5.421688e-02 4.645943e-03 -3.135359e-01 -1.488760e-01 2.548761e-01 3.365901e-01 2.449588e-01
<VARIANCE> 39
 3.002635e+01 3.966580e+01 2.881747e+01 2.987716e+01 3.030145e+01 5.199179e+01 3.861563e+01 4.804209e+01 4.612268e+01 3.760736e+01 3.440262e+01 3.308803e+01 2.220275e+01 3.528603e+00 2.448003e+00 2.078541e+00 2.792582e+00 2.687359e+00 3.342587e+00 2.842065e+00 2.675541e+00 3.456696e+00 3.066647e+00 2.948201e+00 2.633223e+00 1.295003e+00 2.805983e-01 6.194566e-01 4.764057e-01 5.661954e-01 6.056969e-01 6.315399e-01 5.970486e-01 5.217240e-01 6.609997e-01 5.332899e-01 6.095390e-01 5.368726e-01 2.378248e-01
<GCONST> 1.220262e+02
<MIXTURE> 2 5.543286e-01
<MEAN> 39
 2.073158e+00 1.091722e+00 -7.265584e-01 5.986000e+00 -2.895479e+00 -3.568467e+00 -6.066755e+00 -8.075945e-01 -1.115133e+00 3.452498e-01 1.905700e+00 3.867259e-01 6.349461e+01 8.912901e-01 -3.504360e-01 -6.687288e-01 -2.071196e-01 -9.343694e-01 -7.841285e-01 -6.265599e-01 -3.877191e-02 -2.152988e-01 2.501668e-01 8.094847e-01 4.665628e-01 4.019403e-01 -3.993942e-01 -1.485635e-01 1.273822e-01 4.240983e-02 1.418151e-01 1.028226e-01 1.197073e-01 5.829128e-02 1.828738e-01 3.516106e-02 -1.242371e-01 -1.581770e-01 -1.330822e-01
<VARIANCE> 39
 5.477091e+01 2.991644e+01 5.074020e+01 2.992645e+01 3.506562e+01 7.761797e+01 4.314626e+01 4.771538e+01 4.349563e+01 3.409066e+01 4.106907e+01 2.851989e+01 2.497019e+01 1.713966e+00 1.361783e+00 2.122856e+00 1.987007e+00 2.653986e+00 3.178702e+00 2.810063e+00 2.722846e+00 3.322818e+00 2.565229e+00 2.728463e+00 2.470997e+00 1.102363e+00 3.699627e-01 3.723392e-01 2.968576e-01 3.857972e-01 3.449089e-01 4.920705e-01 4.029015e-01 3.919354e-01 4.482580e-01 3.863293e-01 4.211464e-01 3.456249e-01 1.087386e-01
<GCONST> 1.164634e+02
<STATE> 3
<MEAN> 39
 7.000875e+00 2.552687e+00 -4.409916e+00 6.470742e+00 -2.627187e+00 -2.111811e+00 -8.286230e+00 -2.925148e+00 -3.416863e+00 2.834633e+00 4.879240e+00 7.719958e-01 6.488573e+01 -3.792276e-02 -2.461236e-01 3.086848e-01 2.675515e-01 -1.399086e-01 -5.305709e-01 -1.473414e-01 4.393281e-01 4.014950e-01 -2.234913e-01 -2.562947e-01 -1.033796e-01 3.908110e-02 -9.951530e-02 4.309984e-02 1.369226e-01 -4.042567e-02 5.706399e-04 1.004416e-02 1.317703e-01 9.079697e-02 -1.105291e-02 -1.511632e-01 -6.309233e-02 1.365593e-02 -2.829320e-02
<VARIANCE> 39
 5.966230e+00 1.463008e+01 2.965531e+01 1.746681e+01 2.882740e+01 5.750820e+01 4.420904e+01 5.218766e+01 5.299285e+01 4.221356e+01 5.432588e+01 3.662937e+01 1.001928e+01 2.350705e-01 5.640445e-01 9.893732e-01 9.961018e-01 1.129127e+00 2.023829e+00 1.824185e+00 2.025327e+00 1.930223e+00 2.242331e+00 2.298334e+00 1.585737e+00 2.414765e-01 3.775815e-02 6.516144e-02 9.381201e-02 1.247202e-01 1.696734e-01 2.291280e-01 2.591372e-01 3.044243e-01 2.939745e-01 3.006626e-01 3.266805e-01 2.736127e-01 2.088344e-02
<GCONST> 9.164999e+01
<STATE> 4
<NUMMIXES> 2
<MIXTURE> 1 5.274025e-01
<MEAN> 39
 5.322847e+00 -1.443851e+00 4.592567e+00 9.054197e+00 -1.140104e+01 -1.428795e+01 -5.324745e+00 5.325947e+00 2.551747e+00 -3.705647e+00 4.828125e+00 3.676817e+00 6.619038e+01 -1.270529e-01 2.304875e-01 1.935775e-01 -1.668610e-02 -1.370520e-01 -2.441954e-02 3.618690e-01 8.004229e-02 -6.160290e-03 1.887215e-02 3.457353e-03 5.874280e-02 -1.498156e-01 -2.453882e-02 8.596650e-02 1.827146e-03 -6.484938e-02 1.002563e-01 1.328475e-01 1.580369e-02 -1.133928e-01 -8.565195e-02 9.431579e-02 -4.872273e-02 -9.843289e-02 -2.447894e-02
<VARIANCE> 39
 5.315710e+00 1.450451e+01 3.540878e+01 1.472318e+01 3.488943e+01 3.875418e+01 4.946850e+01 3.817067e+01 5.075577e+01 3.259416e+01 3.675278e+01 2.628631e+01 6.552316e+00 2.143753e-01 3.375595e-01 7.000685e-01 5.272501e-01 1.049224e+00 1.079035e+00 1.360631e+00 1.218964e+00 1.409741e+00 1.423193e+00 1.463868e+00 1.044850e+00 1.463032e-01 1.656523e-02 3.594540e-02 5.548770e-02 7.854199e-02 1.064700e-01 1.506621e-01 1.519891e-01 1.693151e-01 1.795735e-01 1.978806e-01 1.848942e-01 1.415423e-01 1.178049e-02
<GCONST> 7.732619e+01
<MIXTURE> 2 4.725941e-01
<MEAN> 39
 4.555366e+00 -1.170796e+00 5.162336e+00 7.273839e+00 -7.933090e+00 -6.961972e+00 -5.735698e+00 5.121915e+00 -2.736533e+00 -3.657358e+00 1.618404e+00 -1.191249e+00 6.682600e+01 -2.333132e-01 -2.044584e-02 4.617264e-01 -9.069418e-02 -3.660728e-01 -4.796269e-02 2.344621e-01 1.152490e-01 -2.447240e-01 -2.758751e-01 8.155730e-02 5.445640e-02 7.166454e-02 -6.591527e-02 1.211576e-01 -3.774506e-02 -2.363385e-02 6.152696e-02 2.906027e-02 1.949029e-02 -1.367973e-01 2.802537e-02 1.389047e-01 5.912497e-02 4.467762e-02 -7.633433e-02
<VARIANCE> 39
 8.337885e+00 2.157973e+01 6.355843e+01 2.273674e+01 4.336499e+01 4.858686e+01 4.498661e+01 3.720827e+01 5.288803e+01 2.474772e+01 5.658312e+01 2.473621e+01 1.316277e+01 2.890111e-01 4.972513e-01 9.708073e-01 7.618821e-01 1.104294e+00 1.650426e+00 1.391493e+00 1.794212e+00 1.595525e+00 1.522411e+00 1.554522e+00 1.427130e+00 2.687702e-01 3.821567e-02 8.031027e-02 8.608283e-02 1.062032e-01 1.521438e-01 1.854457e-01 1.938807e-01 2.451966e-01 2.249178e-01 1.906247e-01 2.126797e-01 1.602489e-01 3.060378e-02
<GCONST> 8.875356e+01
<TRANSP> 5
 0.000000e+00 1.000000e+00 0.000000e+00 0.000000e+00 0.000000e+00
 0.000000e+00 7.964171e-01 2.035829e-01 0.000000e+00 0.000000e+00
 0.000000e+00 0.000000e+00 8.063661e-01 1.936339e-01 0.000000e+00
 0.000000e+00 0.000000e+00 0.000000e+00 8.385527e-01 1.614474e-01
 0.000000e+00 0.000000e+00 0.000000e+00 0.000000e+00 0.000000e+00
<ENDHMM>
~h "s"
<BEGINHMM>
<NUMSTATES> 5
<STATE> 2
<NUMMIXES> 2
<MIXTURE> 1 4.312473e-01
<MEAN> 39
 -5.116292e+00 1.057760e+01 7.360790e+00 4.200525e+00 -4.631583e-01 -7.789211e+00 -1.559614e+00 6.509302e-01 -2.368442e+00 3.084148e+00 5.896392e-01 1.239057e+00 6.432781e+01 -2.097650e+00 6.204200e-01 3.063117e-01 -3.785337e-01 1.927824e+00 5.705133e-01 9.777205e-01 2.730488e-01 1.008856e-01 -2.328372e-01 -6.725641e-01 -2.802581e-02 -1.315670e-01 -4.630593e-01 -2.001396e-01 -1.780344e-01 -1.556595e-01 -2.494271e-02 1.479158e-01 1.040397e-01 -4.747631e-02 -1.853636e-01 -2.941586e-01 -6.093671e-02 -8.425324e-02 1.547281e-01
<VARIANCE> 39
 4.065078e+01 2.076781e+01 3.276507e+01 3.160054e+01 6.673405e+01 5.823352e+01 4.855645e+01 4.537482e+01 4.736147e+01 3.242725e+01 3.705020e+01 3.469331e+01 9.993493e+00 1.445901e+00 1.133115e+00 1.971499e+00 1.928499e+00 2.954227e+00 3.035318e+00 2.579120e+00 2.869900e+00 2.878860e+00 3.230116e+00 2.995247e+00 2.841987e+00 4.171620e-01 2.603362e-01 1.726512e-01 2.626445e-01 3.664855e-01 5.242583e-01 5.150815e-01 4.436544e-01 4.353343e-01 4.570947e-01 5.239494e-01 5.656148e-01 4.332924e-01 6.530950e-02
<GCONST> 1.136797e+02
<MIXTURE> 2 5.687527e-01
<MEAN> 39
 -1.580788e+01 9.679386e+00 4.977781e+00 1.068021e-02 4.938681e+00 -4.560536e+00 1.041286e+00 1.051127e+00 -3.355612e+00 -7.077553e-01 -2.384824e+00 -2.069645e-01 6.398671e+01 -2.860779e+00 6.395458e-02 -8.805923e-01 -1.278422e+00 1.570269e-01 -3.719496e-01 -1.030676e-01 -1.644470e-01 -6.140352e-01 -3.228947e-01 -2.199992e-02 1.737530e-01 7.005363e-01 3.718188e-01 -4.800874e-02 -1.038066e-01 2.221502e-02 -2.486722e-01 -3.741164e-02 -2.378505e-01 -8.073947e-02 1.317970e-02 2.498219e-01 7.715974e-02 -2.913569e-02 -3.116298e-02
<VARIANCE> 39
 3.920733e+01 3.669999e+01 3.390519e+01 4.866767e+01 4.066616e+01 5.326725e+01 5.687747e+01 4.448927e+01 3.812093e+01 3.403258e+01 3.294976e+01 3.112191e+01 1.681080e+01 1.786795e+00 2.967324e+00 2.285149e+00 2.393973e+00 3.075976e+00 3.367255e+00 3.164437e+00 3.422487e+00 2.760039e+00 3.168432e+00 2.850645e+00 2.245562e+00 7.423836e-01 3.952834e-01 5.965585e-01 4.147619e-01 5.083396e-01 6.730829e-01 6.997808e-01 6.323316e-01 5.904199e-01 5.711210e-01 4.921229e-01 5.948348e-01 4.690627e-01 1.544021e-01
<GCONST> 1.214585e+02
<STATE> 3
<MEAN> 39
 -2.416699e+01 9.333179e+00 1.225233e+00 -3.523524e+00 5.004774e+00 -5.906515e+00 7.158864e-01 6.573961e-01 -4.454051e+00 6.267385e-01 -2.220233e+00 3.596877e-01 6.625138e+01 -1.732310e-01 -2.536199e-01 -5.003208e-02 -1.751537e-01 -9.375762e-02 7.215241e-02 -7.893168e-02 1.196810e-01 8.324144e-02 3.549336e-02 4.214861e-02 -1.400805e-02 1.558338e-02 1.736833e-01 -4.584990e-02 8.121900e-02 6.893343e-02 -6.841485e-02 -2.570157e-02 -1.557909e-02 3.335975e-02 5.048311e-02 -2.124231e-02 2.515637e-02 1.334205e-02 -7.139656e-02
<VARIANCE> 39
 6.577885e+00 1.982266e+01 3.153035e+01 3.975724e+01 3.406356e+01 4.473166e+01 5.586649e+01 4.578059e+01 4.408495e+01 3.899376e+01 2.955832e+01 2.944919e+01 6.933828e+00 4.304714e-01 1.173474e+00 1.176636e+00 1.590235e+00 2.063024e+00 2.533001e+00 2.476502e+00 2.906771e+00 2.602635e+00 2.790745e+00 2.448985e+00 1.997930e+00 1.964673e-01 9.637313e-02 1.670884e-01 2.213350e-01 3.135722e-01 3.787576e-01 4.992421e-01 4.723366e-01 5.770518e-01 5.040926e-01 5.716141e-01 4.686095e-01 3.892538e-01 3.020478e-02
<GCONST> 1.043191e+02
<STATE> 4
<NUMMIXES> 2
<MIXTURE> 1 4.144383e-01
<MEAN> 39
 -1.435900e+01 5.078326e+00 1.344015e+00 -9.267901e-01 1.519580e+00 -6.486463e+00 -8.727745e-01 1.810282e+00 -2.217679e+00 1.191750e+00 -2.470239e+00 -3.170409e-01 5.993261e+01 2.296978e+00 7.203758e-01 5.542989e-01 1.451639e+00 2.516231e-01 6.440650e-01 -3.141315e-02 6.936863e-02 2.873336e-01 -5.410232e-02 -3.941951e-01 -6.032955e-01 -8.154659e-01 1.487562e-02 2.002133e-01 8.776484e-02 2.054555e-02 -8.571560e-02 7.731972e-03 -1.210902e-01 -4.159365e-02 3.727137e-02 4.564946e-02 8.110330e-02 -2.344479e-02 3.933769e-01
<VARIANCE> 39
 2.832587e+01 3.629171e+01 2.623783e+01 3.500109e+01 4.045716e+01 3.451049e+01 4.732846e+01 4.152248e+01 4.314337e+01 3.170180e+01 2.721088e+01 2.841618e+01 2.194021e+01 2.810945e+00 3.235919e+00 2.942107e+00 3.404644e+00 3.573991e+00 3.171593e+00 2.843705e+00 3.127203e+00 2.769326e+00 3.226977e+00 2.647835e+00 2.490988e+00 1.673588e+00 4.694321e-01 4.951922e-01 3.922091e-01 6.212104e-01 6.906872e-01 5.545510e-01 5.302344e-01 4.762451e-01 4.976705e-01 5.463794e-01 4.507188e-01 5.053557e-01 2.831976e-01
<GCONST> 1.216863e+02
<MIXTURE> 2 5.855606e-01
<MEAN> 39
 -2.089826e+01 5.763669e+00 3.157704e+00 -4.080021e+00 1.910073e+00 -5.514022e+00 -2.508594e+00 1.782050e+00 -1.863034e+00 9.559175e-02 -8.653768e-01 9.255581e-01 6.378763e+01 1.736201e+00 -5.456025e-01 -8.578482e-02 3.153396e-01 -7.917957e-01 -4.004711e-01 -4.205408e-01 -4.280550e-02 3.035109e-01 1.144695e-01 -2.211341e-02 1.137897e-01 -1.094431e+00 3.949548e-01 1.395566e-01 -9.605011e-02 2.542624e-01 1.196368e-01 9.902484e-02 9.116710e-02 -5.811505e-02 -6.591325e-02 4.591196e-02 -1.319682e-01 -1.483753e-01 -1.841341e-01
<VARIANCE> 39
 2.130240e+01 5.286007e+01 4.110739e+01 3.541066e+01 4.069292e+01 5.825202e+01 5.237234e+01 5.808984e+01 4.812151e+01 4.447034e+01 3.512282e+01 2.948295e+01 1.535503e+01 1.361160e+00 1.904184e+00 1.882201e+00 2.333460e+00 2.459897e+00 3.533404e+00 3.222224e+00 3.267669e+00 2.923234e+00 3.266163e+00 2.543869e+00 2.491193e+00 7.596593e-01 2.851327e-01 4.952960e-01 4.615625e-01 4.858978e-01 5.556843e-01 7.612998e-01 6.137331e-01 7.294393e-01 5.442258e-01 7.319214e-01 5.486840e-01 4.996615e-01 1.104998e-01
<GCONST> 1.203638e+02
<TRANSP> 5
 0.000000e+00 1.000000e+00 0.000000e+00 0.000000e+00 0.000000e+00
 0.000000e+00 8.561335e-01 1.438665e-01 0.000000e+00 0.000000e+00
 0.000000e+00 0.000000e+00 9.214389e-01 7.856105e-02 0.000000e+00
 0.000000e+00 0.000000e+00 0.000000e+00 8.410161e-01 1.589839e-01
 0.000000e+00 0.000000e+00 0.000000e+00 0.000000e+00 0.000000e+00
<ENDHMM>
~h "t"
<BEGINHMM>
<NUMSTATES> 5
<STATE> 2
<NUMMIXES> 2
<MIXTURE> 1 3.377368e-01
<MEAN> 39
 -2.711113e+00 6.858764e+00 6.691713e+00 3.960855e+00 -4.887464e+00 -4.427166e+00 -2.073937e+00 8.416658e-01 -2.720170e-01 -8.512882e-01 -2.271141e-01 6.849044e-03 6.092774e+01 -3.387155e-01 6.997745e-01 -4.741888e-03 -1.952984e-02 1.162655e+00 2.896132e-01 5.927172e-02 -2.697100e-01 2.951068e-03 8.785161e-02 -4.061861e-01 9.313076e-02 -1.532631e+00 3.423236e-02 -5.721304e-02 -2.953258e-01 8.002167e-03 1.539207e-02 7.260446e-02 3.345161e-02 -1.212963e-01 -2.891468e-02 -2.335593e-02 -2.294323e-02 -5.182908e-02 -9.045912e-02
<VARIANCE> 39
 2.843876e+01 2.471374e+01 4.477233e+01 3.604723e+01 6.083451e+01 5.457316e+01 5.158924e+01 4.781133e+01 5.028325e+01 3.234275e+01 4.705774e+01 3.208405e+01 2.949070e+01 1.842337e+00 1.940170e+00 2.951519e+00 2.823320e+00 4.585200e+00 4.131597e+00 4.036843e+00 4.207054e+00 3.434923e+00 2.769318e+00 3.330899e+00 2.912168e+00 1.794666e+00 3.530147e-01 4.102168e-01 4.262043e-01 5.439005e-01 8.837710e-01 8.250017e-01 7.183944e-01 7.680579e-01 6.497728e-01 5.330106e-01 6.521444e-01 5.488887e-01 3.198059e-01
<GCONST> 1.263798e+02
<MIXTURE> 2 6.622633e-01
<MEAN> 39
 -5.700071e+00 7.794378e+00 2.659688e+00 2.977546e+00 -8.072415e-01 -4.468099e+00 -2.039123e+00 -2.274341e+00 -1.519273e+00 -9.258016e-01 -1.323869e+00 6.469713e-02 5.289550e+01 -1.385409e-01 -3.012415e-01 -3.345432e-01 -1.368375e-01 -1.370417e-01 -3.287588e-02 3.147157e-02 -1.325845e-01 7.327379e-02 1.674744e-02 1.052660e-01 5.891848e-02 -3.223340e-01 -6.282695e-02 -1.230376e-01 1.155900e-01 -6.383343e-02 -1.978871e-02 8.544813e-02 -4.771808e-03 7.420505e-02 3.634339e-02 2.297894e-02 5.376296e-02 -7.940275e-03 2.593200e-01
<VARIANCE> 39
 1.298234e+01 1.268933e+01 1.693485e+01 2.157007e+01 2.447225e+01 3.084055e+01 3.764799e+01 3.930197e+01 3.746218e+01 3.289741e+01 2.799253e+01 2.224950e+01 3.402719e+00 5.080021e-01 7.523918e-01 1.294733e+00 1.771725e+00 2.012506e+00 2.438354e+00 2.431373e+00 2.783900e+00 2.539432e+00 2.737283e+00 2.536982e+00 1.998452e+00 2.686074e-01 1.040026e-01 2.519748e-01 2.594155e-01 3.626577e-01 4.390109e-01 5.165265e-01 5.161815e-01 5.874946e-01 5.335861e-01 5.889903e-01 5.098340e-01 3.971278e-01 1.175628e-01
<GCONST> 1.034251e+02
<STATE> 3
<MEAN> 39
 -5.932647e+00 7.234049e+00 2.758860e+00 2.975256e+00 -1.629077e-01 -3.397145e+00 -1.289608e+00 -2.253638e+00 -7.971706e-01 -6.868929e-02 -9.056301e-01 9.457499e-03 5.228404e+01 -1.194037e+00 -2.300265e+00 7.968960e-02 -1.408067e+00 -2.040486e-01 7.693791e-01 2.807925e-02 3.195802e-01 -7.034724e-03 2.603967e-01 3.636092e-01 4.174280e-01 2.496289e+00 -7.046871e-01 -5.015930e-01 1.812136e-01 -5.282155e-01 -3.477438e-01 -1.241649e-01 4.460153e-03 2.441712e-01 -9.877010e-02 6.424639e-02 3.556873e-02 1.591724e-01 1.194639e+00
<VARIANCE> 39
 1.033416e+01 1.223422e+01 1.597324e+01 2.059151e+01 2.247724e+01 3.017051e+01 3.230626e+01 3.333688e+01 3.474043e+01 3.307440e+01 2.606377e+01 2.502748e+01 4.640687e+00 2.056249e+00 4.478306e+00 2.618898e+00 4.328441e+00 3.619622e+00 4.028175e+00 3.154440e+00 3.809104e+00 3.538430e+00 3.284644e+00 2.498612e+00 2.350621e+00 5.473222e+00 2.035066e-01 5.067958e-01 3.254944e-01 5.354222e-01 6.081480e-01 6.858035e-01 5.820324e-01 7.098344e-01 5.726849e-01 6.463150e-01 4.887324e-01 4.921140e-01 2.800598e-01
<GCONST> 1.171443e+02
<STATE> 4
<NUMMIXES> 2
<MIXTURE> 1 5.621555e-01
<MEAN> 39
 -1.675475e+01 8.167132e-02 7.114473e+00 -1.153525e+00 -4.754382e+00 -5.790814e+00 -2.298238e-01 2.564797e+00 -1.875857e+00 -1.528682e-01 -4.115150e-01 1.528975e+00 6.474211e+01 1.274538e+00 9.437652e-01 1.005687e+00 2.095777e+00 3.203416e-01 -1.895784e-01 1.679924e-01 2.824733e-01 -7.171007e-02 -4.675314e-01 -4.288175e-01 -6.163574e-01 -1.431224e+00 1.071367e+00 2.702533e-01 -1.885345e-01 4.286628e-01 1.765899e-01 2.402257e-01 -2.180660e-01 -2.852076e-01 1.750868e-02 -6.138466e-02 -6.350100e-03 -1.791191e-01 -4.510515e-01
<VARIANCE> 39
 3.197139e+01 3.229282e+01 2.967106e+01 4.404337e+01 3.473694e+01 3.809547e+01 3.851132e+01 4.572463e+01 4.329411e+01 4.900069e+01 3.291617e+01 3.139179e+01 2.231721e+01 4.694205e+00 2.969630e+00 3.270383e+00 3.779655e+00 3.624057e+00 4.202136e+00 3.105582e+00 3.095617e+00 3.072425e+00 2.966057e+00 2.464272e+00 2.676982e+00 1.607154e+00 7.545965e-01 5.562211e-01 6.052315e-01 9.398465e-01 7.519327e-01 7.871290e-01 6.363306e-01 6.915372e-01 6.287225e-01 7.416875e-01 5.485809e-01 6.250848e-01 9.215881e-01
<GCONST> 1.281734e+02
<MIXTURE> 2 4.378451e-01
<MEAN> 39
 -1.349091e+01 -4.057272e+00 3.050133e+00 -3.902520e+00 -2.516634e+00 -7.166432e-01 -1.844023e+00 -4.705316e-01 -1.283320e+00 8.224955e-01 -1.096312e-02 1.429715e+00 6.690393e+01 -2.360891e+00 -9.907848e-01 4.259878e-01 -1.329660e+00 -1.211067e+00 -7.896481e-01 7.506751e-02 9.155472e-01 -1.049903e-01 9.157296e-02 2.794625e-01 4.775788e-01 2.981976e+00 4.214699e-01 1.122802e+00 3.099379e-01 8.980137e-01 6.553302e-02 -4.678648e-01 6.614292e-02 1.864114e-02 -2.029565e-02 -1.611341e-01 -1.557713e-01 -2.078905e-01 -1.188642e+00
<VARIANCE> 39
 3.228123e+01 5.271638e+01 4.017520e+01 5.875277e+01 4.802247e+01 4.058535e+01 3.567251e+01 2.935979e+01 3.267167e+01 3.072453e+01 2.317342e+01 1.916373e+01 3.942215e+01 3.180211e+00 4.668701e+00 3.400745e+00 3.777650e+00 4.144384e+00 3.862821e+00 3.617468e+00 4.163406e+00 4.024795e+00 4.029625e+00 2.838419e+00 2.899721e+00 4.808559e+00 8.282511e-01 7.931538e-01 6.766885e-01 1.186023e+00 9.657504e-01 8.527421e-01 6.493344e-01 6.323808e-01 7.043334e-01 6.193951e-01 4.759940e-01 4.881055e-01 9.337360e-01
<GCONST> 1.312128e+02
<TRANSP> 5
 0.000000e+00 1.000000e+00 0.000000e+00 0.000000e+00 0.000000e+00
 0.000000e+00 8.860228e-01 1.139772e-01 0.000000e+00 0.000000e+00
 0.000000e+00 0.000000e+00 6.096725e-01 3.903276e-01 0.000000e+00
 0.000000e+00 0.000000e+00 0.000000e+00 8.141323e-01 1.858677e-01
 0.000000e+00 0.000000e+00 0.000000e+00 0.000000e+00 0.000000e+00
<ENDHMM>
~h "v"
<BEGINHMM>
<NUMSTATES> 5
<STATE> 2
<NUMMIXES> 2
<MIXTURE> 1 5.841021e-01
<MEAN> 39
 4.790651e+00 6.009658e+00 -7.904436e-01 6.239207e+00 -5.612354e-01 -5.269504e+00 -8.134635e+00 -2.524468e+00 -1.964055e-01 4.447037e+00 4.238235e+00 -3.426091e+00 6.204047e+01 -3.019887e-01 7.074842e-01 2.335423e-01 -1.616655e-01 8.451136e-01 5.900816e-01 4.169695e-01 -8.867402e-01 -5.959941e-02 4.454994e-01 2.335078e-01 4.514285e-01 -8.174832e-01 -1.954894e-01 -1.050123e-01 2.438918e-01 4.734393e-02 -1.297688e-01 5.671376e-02 2.378496e-01 1.878281e-01 -3.004446e-02 -3.103554e-01 -1.332793e-01 1.626968e-01 9.704024e-02
<VARIANCE> 39
 6.029783e+00 1.392041e+01 2.229542e+01 1.191935e+01 1.584004e+01 3.701327e+01 3.462316e+01 2.836328e+01 3.284398e+01 2.641095e+01 2.375715e+01 2.448372e+01 1.075019e+01 3.537441e-01 4.845273e-01 8.220218e-01 9.520152e-01 1.207068e+00 1.924234e+00 1.729725e+00 2.760195e+00 2.211711e+00 2.472779e+00 1.507718e+00 1.917772e+00 2.430955e-01 2.903398e-02 7.175294e-02 9.702199e-02 1.333396e-01 1.784508e-01 2.377050e-01 2.619231e-01 3.227196e-01 3.271590e-01 3.210143e-01 2.440572e-01 2.956709e-01 2.053072e-02
<GCONST> 8.728265e+01
<MIXTURE> 2 4.158978e-01
<MEAN> 39
 3.228204e+00 2.688247e+00 5.048620e+00 8.678053e+00 -8.053157e+00 -1.167225e+01 -7.392733e+00 4.825776e+00 -3.018631e+00 -2.222238e+00 4.592743e+00 -1.002487e-02 6.547956e+01 4.013656e-01 6.171494e-01 -8.316854e-01 4.199885e-03 1.570967e+00 6.397929e-01 -7.709716e-01 -6.089431e-01 7.945899e-01 7.814462e-01 -1.644721e-01 -5.888544e-01 -1.013814e+00 -1.081693e-01 1.637013e-01 6.920403e-02 -1.918658e-01 1.151002e-01 2.616194e-01 2.753857e-01 -4.617077e-01 1.717055e-02 3.162822e-01 -8.370641e-03 -8.371067e-02 -1.175884e-01
<VARIANCE> 39
 8.532422e+00 2.258463e+01 3.478978e+01 1.390309e+01 3.293944e+01 7.180383e+01 6.007143e+01 5.932097e+01 4.518878e+01 2.394597e+01 4.233434e+01 2.507350e+01 2.268876e+01 3.127495e-01 5.060786e-01 7.653119e-01 1.071424e+00 1.018100e+00 1.950021e+00 1.486969e+00 3.136923e+00 2.364279e+00 1.947975e+00 2.386808e+00 1.234489e+00 3.411519e-01 3.520058e-02 5.441806e-02 1.218421e-01 1.636233e-01 1.774351e-01 3.370962e-01 2.533796e-01 3.272940e-01 4.208898e-01 2.801405e-01 3.514979e-01 2.034695e-01 4.847637e-02
<GCONST> 9.457755e+01
<STATE> 3
<MEAN> 39
 -3.067979e+00 7.738618e+00 5.086756e+00 6.294286e+00 1.815425e+00 -2.220006e+00 -3.199935e+00 -2.581109e+00 -1.194588e-01 1.920957e+00 9.543618e-01 -2.382110e-01 5.895716e+01 -6.788980e-01 -2.403732e-01 1.863267e-01 -7.757775e-02 1.767072e-01 2.217069e-01 2.731811e-01 6.491730e-02 -1.327213e-02 -3.040914e-01 -2.428626e-01 8.640682e-02 1.124135e-01 1.094339e-01 -8.190257e-02 -1.355160e-01 -4.571041e-02 -1.567983e-01 -1.311390e-01 -1.182026e-01 4.224052e-02 -1.083060e-02 4.461685e-02 5.225591e-02 -6.870186e-02 1.248202e-01
<VARIANCE> 39
 2.738903e+01 1.104071e+01 1.656101e+01 1.477185e+01 2.414203e+01 2.630469e+01 2.930411e+01 2.698593e+01 3.127986e+01 2.959820e+01 2.924559e+01 2.498706e+01 1.279998e+01 8.714258e-01 7.218750e-01 1.243552e+00 1.246741e+00 1.649418e+00 2.238719e+00 2.247558e+00 2.354239e+00 3.129153e+00 2.685815e+00 2.592290e+00 1.921656e+00 3.735333e-01 9.168343e-02 1.248344e-01 1.886809e-01 2.306202e-01 2.946295e-01 4.013388e-01 3.783337e-01 4.024135e-01 5.626237e-01 5.613073e-01 4.717894e-01 4.133383e-01 3.899572e-02
<GCONST> 1.000330e+02
<STATE> 4
<NUMMIXES> 2
<MIXTURE> 1 5.597640e-01
<MEAN> 39
 6.543392e+00 8.345991e+00 -4.821828e+00 2.325081e+00 -2.285877e+00 -1.964564e-01 -3.546722e+00 -6.434874e+00 -5.993186e+00 4.429384e+00 9.729658e+00 9.149625e-01 6.177403e+01 2.958667e-02 -1.748438e-01 -1.771870e-01 1.640934e-02 -5.380930e-02 -1.238682e-01 -4.276977e-01 1.362875e-01 3.065463e-01 3.776243e-01 -7.158402e-02 -2.267486e-01 2.088846e-01 -3.666700e-02 -1.031733e-01 1.005049e-01 8.223375e-02 -5.845801e-03 -1.546749e-01 -1.094436e-01 1.766858e-01 2.157058e-01 -6.786155e-03 -2.038367e-01 -1.325044e-01 6.404186e-02
<VARIANCE> 39
 4.585108e+00 1.072692e+01 2.397858e+01 3.645965e+01 2.634351e+01 3.037152e+01 7.243404e+01 3.231990e+01 3.081019e+01 2.969680e+01 3.466483e+01 2.695467e+01 8.114376e+00 2.824340e-01 4.232329e-01 7.539760e-01 1.124864e+00 9.282903e-01 1.563773e+00 2.035520e+00 1.307960e+00 1.798548e+00 1.661084e+00 2.168103e+00 1.529151e+00 2.181634e-01 3.642893e-02 4.860247e-02 1.029305e-01 1.861975e-01 1.396680e-01 2.625019e-01 2.098495e-01 1.947077e-01 2.562209e-01 2.408749e-01 2.983768e-01 1.749448e-01 1.417696e-02
<GCONST> 8.558645e+01
<MIXTURE> 2 4.402350e-01
<MEAN> 39
 2.007869e+00 8.407698e+00 -1.922484e-01 2.970933e+00 -6.617986e-01 -4.257935e+00 -2.035625e+00 -1.514550e+00 -2.162752e+00 1.883600e+00 1.976277e+00 -2.548130e+00 6.123577e+01 2.080851e-01 -3.454508e-01 -4.493937e-01 -2.727508e-01 -3.313759e-01 -2.194349e-02 -2.624985e-01 1.990296e-01 1.605710e-01 -5.348432e-01 2.266765e-01 -1.020413e-01 4.848995e-01 -1.827519e-03 -2.030898e-02 1.970017e-03 5.259756e-02 -6.931357e-02 7.514727e-02 -7.656413e-02 -1.153083e-02 -8.890740e-02 -1.353130e-02 1.235586e-01 7.495605e-02 8.896025e-04
<VARIANCE> 39
 3.477650e+01 1.863466e+01 2.907529e+01 4.745640e+01 3.296997e+01 3.627613e+01 5.613006e+01 3.181213e+01 2.845852e+01 4.237120e+01 2.577439e+01 3.188052e+01 1.049635e+01 4.915183e-01 7.890891e-01 9.288175e-01 1.397104e+00 1.630315e+00 2.346338e+00 1.949399e+00 2.005723e+00 2.134866e+00 2.695242e+00 2.145184e+00 1.676689e+00 2.883736e-01 8.321033e-02 9.157589e-02 8.866607e-02 1.613795e-01 2.714476e-01 2.948979e-01 2.221250e-01 2.275935e-01 3.082518e-01 3.813428e-01 2.945122e-01 2.807978e-01 3.483156e-02
<GCONST> 9.729314e+01
<TRANSP> 5
 0.000000e+00 1.000000e+00 0.000000e+00 0.000000e+00 0.000000e+00
 0.000000e+00 8.130610e-01 1.869390e-01 0.000000e+00 0.000000e+00
 0.000000e+00 0.000000e+00 8.183405e-01 1.816595e-01 0.000000e+00
 0.000000e+00 0.000000e+00 0.000000e+00 8.229465e-01 1.770535e-01
 0.000000e+00 0.000000e+00 0.000000e+00 0.000000e+00 0.000000e+00
<ENDHMM>
~h "w"
<BEGINHMM>
<NUMSTATES> 5
<STATE> 2
<NUMMIXES> 2
<MIXTURE> 1 5.460860e-01
<MEAN> 39
 3.780693e-01 3.982193e+00 3.617901e+00 8.302525e+00 -5.670518e+00 -8.869733e+00 -5.495386e+00 -2.348270e+00 -4.059772e+00 2.717503e+00 3.002214e+00 -4.185698e-02 6.398828e+01 6.076488e-01 5.525590e-01 -1.169265e+00 -1.492103e-01 1.815634e+00 6.964925e-01 -7.306630e-01 -5.736834e-01 4.627461e-02 5.065654e-01 6.754441e-02 -2.280620e-01 -7.006159e-01 -8.052778e-02 2.411747e-01 1.700231e-01 -2.382223e-01 -1.118860e-02 4.240126e-01 3.249278e-01 -1.651089e-01 -1.209284e-01 -8.570489e-02 9.993139e-04 5.995630e-02 -6.848601e-02
<VARIANCE> 39
 2.935255e+01 2.083409e+01 5.044607e+01 2.889226e+01 6.416301e+01 7.772425e+01 5.397797e+01 4.365155e+01 4.766325e+01 5.036248e+01 3.962909e+01 3.680200e+01 2.017107e+01 4.533051e-01 1.065737e+00 2.130504e+00 2.150866e+00 2.454946e+00 3.829849e+00 3.625959e+00 3.901121e+00 3.448200e+00 4.086999e+00 3.035784e+00 2.887803e+00 4.271983e-01 8.545427e-02 1.837249e-01 2.352071e-01 2.533209e-01 5.111637e-01 4.289972e-01 6.358798e-01 8.507798e-01 7.357052e-01 9.362690e-01 6.145141e-01 5.547040e-01 5.919747e-02
<GCONST> 1.159989e+02
<MIXTURE> 2 4.539133e-01
<MEAN> 39
 -1.117403e+01 3.675909e-01 2.346646e+00 4.967882e-01 -4.567063e+00 -3.582121e+00 -1.832856e+00 2.294342e+00 -1.197441e+00 -8.160037e-01 -9.793667e-01 9.611398e-01 6.241749e+01 3.505114e-01 1.347220e-01 -3.359359e-01 9.786500e-02 1.125196e-01 -2.255225e-01 -1.656925e-01 -2.392856e-01 1.924435e-01 9.906494e-02 -9.141492e-02 -5.951207e-02 -5.851720e-01 2.700108e-04 1.635290e-01 3.107161e-02 8.044776e-02 1.567989e-01 1.326997e-01 -8.286607e-02 -1.230886e-01 -7.025436e-02 1.449611e-01 2.296473e-02 -6.805414e-02 -1.408692e-02
<VARIANCE> 39
 7.589999e+01 4.117719e+01 4.734850e+01 4.420325e+01 5.008015e+01 4.911024e+01 4.123585e+01 4.133213e+01 5.337044e+01 3.863563e+01 3.769170e+01 3.866329e+01 2.395294e+01 1.880620e+00 1.666795e+00 2.664622e+00 2.441462e+00 2.936359e+00 2.675990e+00 4.047303e+00 3.655779e+00 3.309588e+00 4.409345e+00 3.275864e+00 3.268383e+00 7.196801e-01 2.046175e-01 2.662008e-01 4.079756e-01 4.182807e-01 5.450318e-01 5.595700e-01 7.398025e-01 7.137680e-01 5.718547e-01 7.385201e-01 5.512478e-01 5.402594e-01 9.628405e-02
<GCONST> 1.222868e+02
<STATE> 3
<MEAN> 39
 -2.312347e+00 7.633138e+00 3.038293e+00 5.941943e+00 1.058955e+00 -7.697064e-01 -1.930060e+00 -2.197627e+00 -1.864616e+00 6.529551e-01 -1.217259e+00 -1.564780e+00 5.655615e+01 6.473266e-01 5.478889e-01 -4.494957e-02 -6.229923e-02 -1.041658e-01 1.748369e-01 2.150525e-01 -1.281114e-01 -2.330402e-01 -6.111841e-02 7.811837e-02 7.489367e-03 1.200192e-01 2.464822e-02 -1.263283e-01 -1.071557e-01 -8.282210e-02 -1.958068e-01 -9.156112e-02 -7.421835e-02 1.755974e-02 -2.271577e-02 6.265804e-03 9.214019e-02 5.244781e-02 1.191545e-01
<VARIANCE> 39
 2.741750e+01 2.347964e+01 2.551840e+01 2.839130e+01 2.866951e+01 3.375639e+01 3.682251e+01 3.023938e+01 3.075723e+01 3.768916e+01 3.026411e+01 2.302470e+01 1.475493e+01 1.799674e+00 1.645451e+00 2.102636e+00 2.342172e+00 2.943171e+00 2.526947e+00 3.124745e+00 2.717963e+00 2.940891e+00 3.024255e+00 3.002594e+00 2.120294e+00 9.425338e-01 2.395492e-01 2.800961e-01 3.083191e-01 4.307486e-01 4.878178e-01 4.215795e-01 5.986441e-01 4.946581e-01 5.477499e-01 5.336896e-01 4.934620e-01 3.956525e-01 1.086996e-01
<GCONST> 1.131152e+02
<STATE> 4
<NUMMIXES> 2
<MIXTURE> 1 5.153038e-01
<MEAN> 39
 5.798799e+00 1.059220e+01 -3.190439e+00 1.210359e+00 -4.350472e+00 5.553989e-02 -2.233751e+00 -6.433570e+00 -6.426671e+00 3.943828e+00 5.289346e+00 6.330992e-01 6.116094e+01 -3.249507e-02 -2.645005e-02 -6.033241e-02 -3.924797e-02 6.846261e-02 1.472115e-01 -1.109477e-01 1.142265e-01 1.820330e-01 -3.214722e-02 8.887481e-02 -1.699770e-03 3.707821e-02 -3.005082e-02 -7.251210e-02 6.267330e-02 1.268187e-01 1.091052e-02 -9.582588e-02 -1.064988e-01 9.228934e-02 1.505692e-01 -5.505309e-02 -1.338462e-01 -9.454972e-02 4.625664e-02
<VARIANCE> 39
 3.813759e+00 1.000832e+01 2.780215e+01 2.612562e+01 3.478553e+01 3.714280e+01 5.572694e+01 3.847723e+01 3.615226e+01 4.390186e+01 5.040025e+01 3.585409e+01 9.073490e+00 1.746396e-01 5.083697e-01 8.116941e-01 9.793480e-01 1.369002e+00 1.396762e+00 2.288361e+00 1.573950e+00 1.937051e+00 2.708506e+00 2.518262e+00 1.890996e+00 2.378152e-01 2.179779e-02 5.589586e-02 1.019966e-01 1.343984e-01 1.958540e-01 2.166484e-01 3.296298e-01 2.511092e-01 3.039807e-01 3.813176e-01 3.863224e-01 2.811634e-01 1.314597e-02
<GCONST> 8.951891e+01
<MIXTURE> 2 4.846970e-01
<MEAN> 39
 5.468216e+00 1.099938e+01 -1.545897e+00 2.054251e+00 -5.333742e+00 -1.296663e+00 -1.486676e+00 -3.691777e+00 -4.095409e+00 5.452123e-01 1.533996e+00 -5.358920e-01 6.070267e+01 1.970537e-01 -1.542521e-01 -5.317702e-01 -1.913948e-01 -4.800189e-01 -2.770067e-02 -2.282899e-01 -1.526095e-01 -2.301926e-01 1.244371e-01 4.775665e-01 -1.007813e-01 4.202083e-01 -7.712118e-02 -5.963830e-02 4.397189e-02 2.728554e-02 8.361962e-02 1.156298e-02 -3.328275e-02 -3.807851e-02 2.507684e-02 1.169711e-01 3.292021e-02 -4.113038e-02 1.309144e-02
<VARIANCE> 39
 6.862175e+00 1.745009e+01 3.052363e+01 3.337562e+01 3.902896e+01 3.817995e+01 3.371547e+01 2.507722e+01 4.138135e+01 3.448704e+01 3.091165e+01 2.279353e+01 1.182230e+01 2.503199e-01 5.592025e-01 8.675386e-01 1.163612e+00 1.373529e+00 1.682826e+00 1.848125e+00 1.634074e+00 1.914689e+00 1.896276e+00 2.010978e+00 1.596260e+00 3.083385e-01 4.962753e-02 7.174463e-02 1.180500e-01 1.583935e-01 2.037729e-01 2.313934e-01 2.789923e-01 2.715845e-01 2.966610e-01 3.053175e-01 2.618152e-01 2.628979e-01 2.509381e-02
<GCONST> 9.097747e+01
<TRANSP> 5
 0.000000e+00 1.000000e+00 0.000000e+00 0.000000e+00 0.000000e+00
 0.000000e+00 7.655947e-01 2.344053e-01 0.000000e+00 0.000000e+00
 0.000000e+00 0.000000e+00 8.524020e-01 1.475980e-01 0.000000e+00
 0.000000e+00 0.000000e+00 0.000000e+00 9.219291e-01 7.807089e-02
 0.000000e+00 0.000000e+00 0.000000e+00 0.000000e+00 0.000000e+00
<ENDHMM>
~h "y"
<BEGINHMM>
<NUMSTATES> 5
<STATE> 2
<NUMMIXES> 2
<MIXTURE> 1 4.206181e-01
<MEAN> 39
 -1.108170e+01 3.902291e+00 1.461620e+01 5.512997e+00 -5.099616e+00 1.631794e+00 1.695773e-01 -9.762052e-01 -3.221690e+00 1.832259e-01 -2.627280e+00 -1.900617e+00 5.948925e+01 1.320922e+00 1.588326e+00 1.267110e+00 1.343709e+00 7.288014e-01 2.320331e-01 6.073892e-01 5.078706e-01 -5.276114e-01 -2.231878e-01 -3.703467e-01 -7.179913e-01 4.100195e-01 1.921986e-01 9.072547e-02 -2.763326e-02 -2.304243e-01 -3.632063e-01 -2.701114e-01 -4.503220e-01 -1.142071e-01 -3.143665e-01 -6.031283e-02 3.929845e-01 2.229458e-01 2.089206e-01
<VARIANCE> 39
 2.874095e+01 2.357746e+01 3.117887e+01 3.924917e+01 5.262011e+01 5.574011e+01 5.354313e+01 3.217767e+01 2.092735e+01 4.515889e+01 4.131170e+01 2.097320e+01 2.940332e+01 2.935092e+00 1.501571e+00 1.653121e+00 1.987783e+00 2.498939e+00 4.266634e+00 3.734890e+00 3.624755e+00 2.414492e+00 3.718976e+00 2.718773e+00 1.827755e+00 3.537669e-01 1.528403e-01 2.295081e-01 1.773723e-01 4.537290e-01 7.305732e-01 7.395599e-01 5.421787e-01 6.674390e-01 3.605864e-01 5.375637e-01 5.262480e-01 3.930534e-01 6.143753e-02
<GCONST> 1.146337e+02
<MIXTURE> 2 5.793818e-01
<MEAN> 39
 -9.642031e+00 6.580242e+00 1.448346e+01 4.219651e+00 -6.677254e+00 6.061579e-02 -5.017734e+00 -7.323568e-01 -4.215710e+00 -6.910328e-01 -1.049596e+00 -1.947631e+00 6.316509e+01 7.583987e-01 1.012627e-01 1.959004e-01 -1.013139e-01 -1.107734e+00 -6.380919e-01 -7.498528e-01 -2.465953e-01 -4.381501e-01 -4.081086e-02 1.334272e+00 4.821107e-01 2.017011e-01 -8.986094e-03 -2.722872e-01 -1.769053e-01 -2.882159e-02 -1.391058e-01 -8.387115e-02 1.883695e-01 -1.948547e-01 3.462927e-02 6.665219e-02 1.188127e-01 9.837684e-02 -8.817163e-02
<VARIANCE> 39
 7.452620e+01 3.096178e+01 5.048228e+01 7.814927e+01 3.692414e+01 7.042776e+01 5.380632e+01 5.345098e+01 5.210908e+01 3.158689e+01 4.014663e+01 3.258707e+01 2.438515e+01 2.304260e+00 1.249699e+00 9.847246e-01 1.953422e+00 2.729463e+00 6.765998e+00 4.181797e+00 3.838983e+00 2.603828e+00 2.677749e+00 3.556269e+00 2.060180e+00 8.525501e-01 3.371383e-01 3.584519e-01 1.735097e-01 4.109294e-01 3.872066e-01 7.318755e-01 7.319655e-01 8.980421e-01 5.437480e-01 5.459542e-01 5.224137e-01 4.507754e-01 7.940459e-02
<GCONST> 1.208549e+02
<STATE> 3
<MEAN> 39
 -1.858135e+00 8.286855e+00 1.569370e+01 8.243751e+00 -1.205108e+01 -4.096204e+00 -3.266174e+00 -6.627736e-01 -7.738092e+00 -1.920489e+00 6.569199e+00 -1.569194e+00 6.415375e+01 1.303775e-01 -2.459335e-01 1.187090e-01 1.080027e-01 -1.291817e+00 -3.797697e-01 4.444019e-01 -1.091449e-01 -9.679895e-01 -6.332783e-02 1.025333e+00 -2.752555e-01 4.046049e-01 -1.082346e-01 -4.351113e-02 -1.631838e-01 1.615947e-02 3.300572e-01 1.270308e-01 -3.299318e-02 -2.666678e-02 2.060272e-01 1.435209e-01 -3.127424e-01 -1.142936e-01 -3.627875e-02
<VARIANCE> 39
 8.892886e+00 1.431662e+01 3.633246e+01 2.647798e+01 2.711159e+01 7.818725e+01 4.852160e+01 2.291547e+01 5.116386e+01 2.475041e+01 3.603359e+01 2.061182e+01 1.213278e+01 4.538196e-01 4.557912e-01 1.237993e+00 1.668614e+00 2.002334e+00 3.056969e+00 2.298989e+00 2.510345e+00 1.730394e+00 2.278745e+00 3.041967e+00 2.299176e+00 3.602766e-01 1.141782e-01 9.655780e-02 1.187325e-01 2.705006e-01 1.814657e-01 3.874702e-01 4.745655e-01 3.388105e-01 2.750588e-01 4.012168e-01 3.757053e-01 3.929262e-01 2.737943e-02
<GCONST> 9.918285e+01
<STATE> 4
<NUMMIXES> 2
<MIXTURE> 1 5.486922e-01
<MEAN> 39
 -4.808491e-01 5.549484e+00 1.228644e+01 1.060011e+01 -1.325168e+01 -7.517521e+00 -3.023763e+00 3.751010e+00 -9.786293e+00 -1.959043e+00 7.102723e+00 -2.079979e+00 6.671768e+01 7.184955e-02 1.622730e-02 -4.254765e-01 7.539776e-02 3.766995e-01 -3.007653e-01 -3.713271e-01 2.624285e-01 4.247309e-01 -1.908295e-01 -2.517575e-01 3.783239e-01 7.438295e-02 -1.419204e-02 4.047674e-02 3.503175e-02 -7.308727e-02 1.281885e-01 1.230398e-01 -1.026049e-01 -8.723693e-02 1.335592e-01 5.460867e-02 -1.326259e-01 -5.363692e-02 -4.090540e-02
<VARIANCE> 39
 3.152792e+00 1.047617e+01 2.855010e+01 2.311604e+01 2.179435e+01 6.679807e+01 5.905610e+01 3.694172e+01 4.192406e+01 3.810612e+01 4.161142e+01 2.732548e+01 1.452019e+01 1.984792e-01 3.439681e-01 9.422395e-01 6.863165e-01 1.491709e+00 1.863160e+00 1.364126e+00 1.013897e+00 1.568249e+00 1.290008e+00 1.700786e+00 1.060463e+00 1.723236e-01 1.919183e-02 3.169041e-02 6.301386e-02 7.746249e-02 1.334368e-01 1.507531e-01 1.692627e-01 1.497538e-01 1.930913e-01 2.129855e-01 2.459232e-01 1.871999e-01 1.287475e-02
<GCONST> 8.055766e+01
<MIXTURE> 2 4.513087e-01
<MEAN> 39
 -3.758606e+00 8.093495e+00 1.972662e+01 5.205845e+00 -1.169507e+01 4.086463e+00 -9.171562e+00 -2.480438e+00 -1.149230e+01 1.701360e+00 5.871494e+00 -6.539802e+00 6.443564e+01 1.153987e-01 -1.024781e-01 -1.648086e-01 2.199418e-01 -1.485589e-02 -1.642358e-01 1.403889e-01 1.282420e-01 -2.304389e-01 -7.205065e-02 1.398897e-01 -2.182851e-01 -1.890118e-02 2.468595e-02 -2.881174e-02 -7.913620e-02 4.131829e-02 4.796473e-02 -1.724222e-01 7.153153e-02 1.136170e-01 5.830195e-05 -6.954218e-02 8.859601e-03 8.583129e-02 6.711281e-03
<VARIANCE> 39
 3.161673e+00 9.953165e+00 2.667277e+01 1.530659e+01 2.596423e+01 5.742040e+01 4.012009e+01 2.124593e+01 4.572189e+01 5.045456e+01 4.350920e+01 3.956206e+01 9.191275e+00 1.498340e-01 3.588217e-01 4.875110e-01 5.734716e-01 7.887702e-01 1.662977e+00 9.885470e-01 1.449506e+00 1.644739e+00 1.495785e+00 1.637714e+00 9.878985e-01 2.027508e-01 2.626718e-02 5.368641e-02 8.016418e-02 1.047417e-01 1.965034e-01 2.216180e-01 1.655696e-01 2.504065e-01 2.664317e-01 2.496614e-01 3.033380e-01 1.650149e-01 1.427825e-02
<GCONST> 8.121020e+01
<TRANSP> 5
 0.000000e+00 1.000000e+00 0.000000e+00 0.000000e+00 0.000000e+00
 0.000000e+00 7.928236e-01 2.071764e-01 0.000000e+00 0.000000e+00
 0.000000e+00 0.000000e+00 7.284931e-01 2.715070e-01 0.000000e+00
 0.000000e+00 0.000000e+00 0.000000e+00 9.247073e-01 7.529274e-02
 0.000000e+00 0.000000e+00 0.000000e+00 0.000000e+00 0.000000e+00
<ENDHMM>
~h "z"
<BEGINHMM>
<NUMSTATES> 5
<STATE> 2
<NUMMIXES> 2
<MIXTURE> 1 6.309764e-01
<MEAN> 39
 -4.950456e+00 1.152208e+01 7.079831e+00 4.705226e+00 -1.534176e+00 -1.265261e+01 -2.986101e+00 4.901793e-01 -2.170738e+00 2.058491e+00 5.089519e-02 3.181742e+00 6.562466e+01 -1.499462e+00 1.152102e+00 -6.438639e-02 -7.153286e-01 1.501951e+00 1.896916e-02 6.088118e-01 1.379314e-01 1.522196e-01 3.443407e-01 -4.761907e-01 4.727172e-01 -1.753073e-01 -2.216751e-01 -2.258267e-03 -1.876015e-02 -7.474839e-02 8.374017e-02 3.058671e-01 2.053085e-02 1.100845e-01 -1.229804e-02 -1.048419e-01 1.981971e-02 -1.536382e-01 5.492442e-02
<VARIANCE> 39
 2.261265e+01 2.196938e+01 2.284418e+01 2.294435e+01 3.882923e+01 3.058516e+01 5.663770e+01 3.336506e+01 5.564951e+01 3.021526e+01 3.335545e+01 2.903329e+01 1.058036e+01 7.965810e-01 6.998309e-01 1.145797e+00 1.438630e+00 2.425800e+00 2.524527e+00 2.432815e+00 2.717193e+00 2.453082e+00 2.461820e+00 2.095552e+00 2.139785e+00 1.754165e-01 1.054999e-01 1.385581e-01 1.603067e-01 2.444689e-01 3.387730e-01 3.288552e-01 3.981003e-01 4.585702e-01 4.100018e-01 4.111614e-01 3.384271e-01 3.446865e-01 2.781004e-02
<GCONST> 1.017362e+02
<MIXTURE> 2 3.690239e-01
<MEAN> 39
 -9.346100e+00 1.176684e+01 7.511736e+00 1.571872e+00 4.016288e+00 -6.197098e+00 -2.306673e+00 2.214476e+00 -2.038606e+00 8.545555e-01 -8.530572e-01 6.794787e-01 6.240329e+01 -2.353611e+00 6.544484e-01 -2.762967e-02 -9.859682e-01 1.169157e+00 1.307505e-01 3.056907e-01 4.544729e-01 -2.501768e-01 -2.057999e-01 -3.355292e-01 1.997084e-01 3.555252e-01 6.462988e-02 -1.330049e-01 -1.374707e-01 1.901223e-01 -2.333640e-01 2.241432e-02 -1.580200e-02 -1.546763e-01 -3.314494e-03 4.546377e-03 2.213581e-02 -7.940400e-02 1.102635e-02
<VARIANCE> 39
 4.739666e+01 3.129984e+01 3.300673e+01 4.872971e+01 4.704904e+01 4.661363e+01 6.115239e+01 4.608784e+01 4.349088e+01 3.430648e+01 2.823909e+01 2.785192e+01 2.395480e+01 1.953655e+00 1.791811e+00 1.897323e+00 3.120286e+00 3.113455e+00 3.776792e+00 2.982329e+00 3.147054e+00 2.890630e+00 2.877382e+00 2.445891e+00 2.468282e+00 8.027969e-01 3.026598e-01 3.114977e-01 3.008615e-01 5.748014e-01 6.212780e-01 6.103938e-01 5.511020e-01 5.968358e-01 6.039941e-01 5.125448e-01 4.772491e-01 4.415221e-01 1.197950e-01
<GCONST> 1.195331e+02
<STATE> 3
<MEAN> 39
 -2.048920e+01 1.283698e+01 4.791142e+00 -1.320245e+00 6.934772e+00 -6.878608e+00 2.672927e-01 2.142873e+00 -4.136032e+00 4.515146e-01 -2.269333e+00 1.264722e+00 6.494546e+01 -3.959126e-01 -4.253982e-01 -1.186401e-01 -1.793364e-01 -3.088292e-02 1.340845e-01 8.175328e-02 3.219268e-02 -1.401879e-01 -6.246717e-02 -1.231661e-02 -1.835698e-01 2.818491e-02 2.692666e-01 -1.176344e-01 5.238839e-02 6.213551e-02 -1.559405e-01 -9.123343e-02 -5.873935e-02 -1.373084e-03 3.572873e-02 1.542070e-02 2.850912e-02 1.473729e-02 -3.629201e-02
<VARIANCE> 39
 1.687953e+01 2.904228e+01 3.325070e+01 3.929281e+01 3.729536e+01 4.170275e+01 6.392054e+01 5.002444e+01 4.248697e+01 4.238982e+01 3.288905e+01 2.789100e+01 7.983328e+00 1.019629e+00 9.950593e-01 1.314715e+00 1.712459e+00 2.353572e+00 2.767399e+00 2.558484e+00 2.873736e+00 2.402939e+00 2.620959e+00 2.400456e+00 2.147674e+00 1.873033e-01 9.371794e-02 1.608122e-01 2.167984e-01 3.175686e-01 4.398298e-01 5.306907e-01 4.888172e-01 5.494865e-01 4.707271e-01 5.177664e-01 4.664824e-01 4.328100e-01 3.100079e-02
<GCONST> 1.072361e+02
<STATE> 4
<NUMMIXES> 2
<MIXTURE> 1 4.851822e-01
<MEAN> 39
 -1.605752e+01 6.864470e+00 5.492331e+00 1.056827e+00 4.928115e+00 -5.117858e+00 -1.225901e+00 2.395525e+00 -3.426101e+00 3.016085e-01 -2.380462e+00 9.955896e-02 6.189850e+01 1.831373e+00 -3.374713e-01 4.415003e-01 8.833992e-01 -1.918055e-01 2.968459e-01 -2.920887e-01 -2.627926e-01 1.969199e-01 -2.597793e-02 -9.710045e-02 -3.275188e-01 -6.148983e-01 3.884699e-01 1.509716e-01 -1.846368e-01 -7.271916e-02 -3.428593e-01 -2.769129e-01 -1.951526e-01 -1.368203e-01 5.184732e-02 9.512077e-02 2.535828e-02 1.606405e-02 -2.152880e-02
<VARIANCE> 39
 3.957067e+01 4.725857e+01 3.930296e+01 4.392931e+01 4.141106e+01 6.139822e+01 6.117339e+01 5.383784e+01 5.571986e+01 4.944055e+01 2.905907e+01 2.920685e+01 2.892794e+01 2.985087e+00 4.081726e+00 2.587816e+00 3.004318e+00 4.800235e+00 5.431664e+00 4.014383e+00 4.259422e+00 3.799205e+00 3.531551e+00 3.111840e+00 2.528380e+00 1.667330e+00 4.237671e-01 7.526181e-01 5.107367e-01 6.021725e-01 8.664289e-01 1.065188e+00 8.770372e-01 8.999562e-01 8.630890e-01 6.914411e-01 4.998363e-01 4.999055e-01 2.911353e-01
<GCONST> 1.306809e+02
<MIXTURE> 2 5.148199e-01
<MEAN> 39
 -1.193567e+01 6.632452e+00 4.523963e+00 -1.443407e+00 1.324742e+00 -9.467796e+00 -3.439495e+00 2.051894e+00 -3.177765e+00 7.959456e-01 -1.858249e+00 1.934320e-01 6.054861e+01 1.628624e+00 -4.733312e-01 -6.863461e-01 2.261897e-01 -1.298488e+00 -5.783564e-01 -6.480269e-01 -4.920594e-01 5.112497e-01 2.942342e-01 5.063915e-02 2.301961e-01 -9.267801e-01 -2.562707e-01 6.329120e-02 -2.086732e-02 1.439100e-01 2.436393e-01 3.224236e-01 1.635783e-01 -2.253529e-02 -2.850210e-02 -2.085095e-02 -9.031495e-03 -2.306530e-02 -3.192633e-02
<VARIANCE> 39
