~o
<STREAMINFO> 1 39
<VECSIZE> 39<NULLD><MFCC_D_A_0><DIAGC>
~s "silst2"
<NUMMIXES> 2
<MIXTURE> 1 1.313021e-01
<MEAN> 39
 -8.056206e+00 4.253863e+00 9.276887e-01 1.660252e+00 -1.720079e+00 -4.956414e+00 -2.716129e+00 -9.331718e-01 -1.003418e+00 -6.621767e-01 -5.405095e-01 1.054364e+00 5.324805e+01 2.046720e-02 -5.960757e-02 -2.206051e-01 7.475309e-02 1.103983e-01 1.916583e-01 6.549783e-02 3.005891e-05 2.096676e-02 -1.231713e-01 3.962475e-02 8.573333e-02 -2.661752e-01 6.358597e-03 -4.516566e-02 6.331907e-02 4.839149e-02 2.445702e-02 5.309900e-02 7.035179e-02 -2.755508e-02 -2.883320e-02 -3.909105e-02 -7.933077e-02 -7.655638e-02 -4.623604e-02
<VARIANCE> 39
 1.620671e+01 2.304860e+01 2.278215e+01 2.847885e+01 2.779801e+01 3.544362e+01 3.906675e+01 4.017772e+01 3.669734e+01 3.662273e+01 2.952172e+01 2.254880e+01 1.526763e+01 1.354882e+00 1.696339e+00 1.947373e+00 2.505375e+00 2.665332e+00 3.148646e+00 3.625726e+00 3.598456e+00 3.228675e+00 3.345450e+00 2.742212e+00 2.397218e+00 1.120515e+00 2.944078e-01 3.326765e-01 3.599234e-01 4.845746e-01 4.736659e-01 6.029890e-01 6.645042e-01 7.137305e-01 6.243024e-01 6.268564e-01 5.306962e-01 4.216366e-01 4.534324e-01
<GCONST> 1.169512e+02
<MIXTURE> 2 8.687048e-01
<MEAN> 39
 -1.955904e+01 -4.413863e-02 -1.493328e+00 2.122829e+00 4.491929e-01 1.420871e+00 -5.244984e-03 4.775780e-01 -3.532393e-01 7.831171e-02 -3.211800e-01 1.312508e-01 1.478015e+01 -1.890267e-03 -1.095765e-03 4.505698e-03 8.822081e-03 -4.142507e-03 -4.542086e-04 1.222703e-02 -1.022148e-02 -1.324218e-02 4.717806e-03 -3.815711e-04 -1.612923e-03 -7.020972e-04 1.357135e-03 1.975561e-03 -3.070980e-03 -2.533693e-03 -1.983734e-03 3.346265e-03 2.008173e-03 3.866272e-04 1.615051e-03 -1.684341e-03 -1.276815e-03 2.404509e-03 4.031064e-04
<VARIANCE> 39
 7.511302e-01 2.337239e+00 5.012549e+00 7.433681e+00 9.351056e+00 1.147051e+01 1.347149e+01 1.484261e+01 1.513586e+01 1.499758e+01 1.458994e+01 1.275594e+01 1.870390e+00 7.077160e-02 2.469897e-01 5.316628e-01 8.013846e-01 1.012280e+00 1.204180e+00 1.442650e+00 1.624763e+00 1.615204e+00 1.604118e+00 1.560218e+00 1.337686e+00 4.343458e-02 1.438258e-02 4.978171e-02 1.055910e-01 1.618649e-01 2.034294e-01 2.382664e-01 2.916816e-01 3.266844e-01 3.264384e-01 3.171245e-01 3.123710e-01 2.646001e-01 8.883080e-03
<GCONST> 6.563666e+01
~s "silst3"
<MEAN> 39
 -1.303418e+01 1.485452e+00 -1.155896e+00 1.320843e+00 -1.119841e+00 -1.525868e+00 -1.038498e+00 -7.685687e-01 -5.122280e-01 -7.700999e-01 -6.216916e-01 4.530801e-01 3.492764e+01 1.221543e-02 -7.212012e-02 -7.600070e-02 5.198833e-02 -2.674479e-02 -8.196590e-02 -7.329587e-02 1.213815e-01 -2.583878e-02 -1.591655e-01 -6.606281e-03 -5.544573e-02 -3.582465e-02 3.539517e-02 7.583346e-02 7.087951e-02 6.189978e-02 3.883979e-02 -4.084611e-02 -4.410796e-04 -1.291410e-02 3.728887e-02 7.276636e-03 -1.304541e-02 1.043055e-03 2.420946e-02
<VARIANCE> 39
 4.025940e+01 1.175407e+01 1.269654e+01 1.523526e+01 1.689420e+01 3.029170e+01 2.308687e+01 2.599900e+01 2.130104e+01 2.227821e+01 1.915409e+01 1.504266e+01 3.467681e+02 5.701566e+00 1.417885e+00 1.554914e+00 1.676820e+00 1.918254e+00 3.683541e+00 2.467140e+00 2.830225e+00 2.250332e+00 2.391912e+00 1.910599e+00 1.617038e+00 4.602751e+01 7.914553e-01 1.970842e-01 2.787393e-01 3.218744e-01 3.635372e-01 6.272653e-01 4.755884e-01 5.284097e-01 4.215205e-01 4.822965e-01 3.922347e-01 3.268543e-01 6.243862e+00
<GCONST> 1.180546e+02
~s "silst4"
<NUMMIXES> 2
<MIXTURE> 1 8.349283e-01
<MEAN> 39
 -7.011673e+00 4.380566e+00 1.948600e-01 1.555050e+00 -2.174918e+00 -4.763510e+00 -1.992155e+00 -2.199270e+00 -1.229971e-01 -5.689097e-01 -5.588053e-01 1.229709e+00 5.106873e+01 -5.294082e-03 6.315815e-03 -7.770982e-03 1.335329e-02 -3.268617e-03 2.473765e-02 2.208216e-02 -2.170867e-02 1.339792e-02 8.359879e-03 -1.156378e-02 -1.751927e-03 -1.984237e-02 -7.876466e-03 1.372621e-02 4.613789e-02 6.459583e-02 8.928390e-02 8.707368e-02 5.299169e-02 7.236841e-03 -5.354369e-02 -7.874469e-02 -7.997969e-02 -5.161520e-02 1.519618e-02
<VARIANCE> 39
 3.274744e+00 1.005755e+01 1.145212e+01 1.540986e+01 1.807101e+01 2.378614e+01 2.503650e+01 2.691113e+01 2.792844e+01 2.606998e+01 2.338857e+01 2.181763e+01 2.489991e+00 2.937553e-01 6.189375e-01 1.039886e+00 1.473466e+00 1.932244e+00 2.306833e+00 2.377394e+00 2.478361e+00 2.539588e+00 2.603665e+00 2.461369e+00 2.138328e+00 9.127498e-02 5.796719e-02 1.222277e-01 2.061666e-01 2.739871e-01 3.528031e-01 4.213328e-01 4.600042e-01 4.934943e-01 4.963329e-01 4.839918e-01 4.589943e-01 4.183570e-01 1.773068e-02
<GCONST> 9.148361e+01
<MIXTURE> 2 1.650443e-01
<MEAN> 39
 -7.958473e+00 3.683783e+00 1.399299e+00 4.679439e+00 2.096081e+00 -8.134717e-01 6.426716e-01 -1.233989e+00 -2.761669e+00 -4.739826e+00 -4.054454e+00 -7.651792e-01 4.989679e+01 -1.740064e-02 -1.470754e-03 -2.001512e-02 -2.494355e-02 -6.082426e-02 3.589007e-02 -1.485232e-02 -8.118962e-02 2.997317e-02 3.747967e-03 3.028097e-02 -1.286515e-02 -4.373154e-02 1.945476e-02 -5.426130e-02 -1.587628e-01 -3.385729e-01 -4.807781e-01 -4.551772e-01 -2.812586e-01 -1.352975e-02 2.767806e-01 4.435468e-01 4.175656e-01 2.521603e-01 5.927093e-02
<VARIANCE> 39
 1.435225e+01 1.758216e+01 1.519981e+01 1.755446e+01 1.892070e+01 2.635694e+01 2.832417e+01 3.223681e+01 3.082511e+01 2.986029e+01 2.584653e+01 2.175384e+01 7.719733e+01 3.799792e-01 6.926169e-01 9.994919e-01 1.456593e+00 1.796318e+00 2.262114e+00 2.522069e+00 2.459178e+00 2.649327e+00 2.718844e+00 2.484644e+00 2.131017e+00 1.630843e-01 1.038710e-01 1.542397e-01 2.038966e-01 2.799814e-01 3.273925e-01 4.177263e-01 5.076653e-01 5.327784e-01 5.075328e-01 5.268371e-01 4.693801e-01 4.116051e-01 9.165329e-02
<GCONST> 1.017750e+02
~h "b"
<BEGINHMM>
<NUMSTATES> 5
<STATE> 2
<NUMMIXES> 2
<MIXTURE> 1 3.363713e-01
<MEAN> 39
 4.375875e+00 3.608572e+00 -7.314438e-02 5.671874e+00 -1.985606e+00 -5.435614e+00 -5.568214e+00 -4.375589e-02 7.594486e-01 1.412122e+00 2.996761e+00 -2.955810e+00 6.316333e+01 -1.058890e-01 1.595185e+00 4.463610e-01 1.746264e-01 2.021241e+00 1.076759e+00 8.589243e-01 -1.061204e+00 -5.944022e-01 8.833356e-01 1.448803e-01 -2.448386e-01 -2.127617e+00 -3.177807e-01 2.747319e-01 4.991761e-01 1.570190e-01 -6.339626e-02 2.057781e-01 4.939167e-01 -9.433205e-02 -2.062206e-01 -2.381469e-01 -4.065719e-01 1.447718e-02 -1.163846e-01
<VARIANCE> 39
 7.395656e+00 1.796891e+01 2.567982e+01 3.019197e+01 3.929324e+01 4.040193e+01 3.544806e+01 4.130428e+01 3.785219e+01 3.313686e+01 2.922801e+01 2.943164e+01 1.784492e+01 7.489700e-01 8.378562e-01 2.373424e+00 1.793518e+00 3.004707e+00 2.841311e+00 3.215285e+00 3.032103e+00 2.881006e+00 2.010591e+00 3.436086e+00 2.061270e+00 5.712900e-01 4.832647e-02 1.310381e-01 1.582803e-01 3.484296e-01 4.348893e-01 3.653831e-01 4.384356e-01 4.853240e-01 3.959222e-01 3.633739e-01 4.804623e-01 2.755265e-01 1.448450e-01
<GCONST> 1.059710e+02
<MIXTURE> 2 6.636288e-01
<MEAN> 39
 -9.335570e-01 9.591303e+00 5.948838e+00 8.885405e+00 2.727494e+00 -1.951134e+00 -1.255573e-01 -3.212321e+00 -1.831444e+00 3.998078e-01 -1.986245e+00 -1.998316e+00 5.502586e+01 2.680574e-02 9.136648e-01 1.027146e+00 7.217981e-01 5.425723e-01 3.396905e-01 2.414123e-01 -3.267382e-01 -3.280121e-01 -4.911315e-02 -6.324998e-01 -3.213186e-01 -4.049359e-01 2.943948e-02 -2.505741e-01 -2.165379e-01 -1.419006e-01 -3.103712e-01 -2.059389e-01 -1.613940e-01 9.598940e-02 1.119885e-01 -1.991670e-02 1.119895e-01 7.793726e-03 2.416065e-01
<VARIANCE> 39
 1.810724e+01 1.622212e+01 2.335844e+01 2.819871e+01 2.352026e+01 2.114345e+01 2.780301e+01 2.925211e+01 4.241124e+01 3.256214e+01 3.682145e+01 2.693734e+01 8.327703e+00 1.052670e+00 2.188185e+00 1.863004e+00 2.429124e+00 2.123387e+00 2.477790e+00 2.724642e+00 2.543389e+00 2.707793e+00 3.002201e+00 3.493890e+00 1.922632e+00 1.056019e+00 1.035766e-01 4.179398e-01 3.192136e-01 4.441360e-01 4.342990e-01 4.721611e-01 4.937260e-01 6.674188e-01 4.711512e-01 5.200909e-01 7.113067e-01 4.339075e-01 1.258166e-01
<GCONST> 1.105624e+02
<STATE> 3
<MEAN> 39
 4.350748e-01 1.176935e+01 7.454427e+00 8.613946e+00 2.432836e+00 -1.480829e+00 5.410424e-01 -2.738234e+00 -1.672647e+00 -2.594144e-01 -1.984518e+00 -1.865143e+00 5.449403e+01 -2.362147e-01 -3.424085e-03 2.345205e-02 -1.032846e-01 8.502611e-02 1.335094e-01 1.252161e-01 2.358429e-01 1.660988e-01 -1.248092e-01 -8.572485e-02 1.308542e-01 -2.455626e-01 -3.847089e-02 -9.357964e-02 -6.617071e-02 -4.430553e-02 -2.849274e-02 -1.790006e-02 -2.003062e-02 2.727618e-03 2.541207e-02 3.704455e-02 4.893535e-02 8.862146e-03 4.437042e-02
<VARIANCE> 39
 5.354013e+00 6.349717e+00 1.128085e+01 1.844899e+01 1.774796e+01 2.468137e+01 2.553747e+01 2.781202e+01 3.288321e+01 2.791121e+01 2.051832e+01 2.143052e+01 4.172071e+00 1.867842e-01 4.088100e-01 6.947978e-01 1.198180e+00 1.452585e+00 1.519009e+00 1.789590e+00 1.803279e+00 1.973388e+00 1.875374e+00 1.844133e+00 1.839093e+00 9.076077e-02 3.642396e-02 8.128976e-02 1.568456e-01 2.402914e-01 2.788043e-01 3.050748e-01 3.640354e-01 3.165998e-01 3.660171e-01 3.739055e-01 3.625907e-01 3.537933e-01 2.810465e-02
<GCONST> 8.552383e+01
<STATE> 4
<NUMMIXES> 2
<MIXTURE> 1 4.312046e-01
<MEAN> 39
 -5.861172e+00 5.051138e+00 4.050085e+00 3.867284e+00 1.080579e+00 -1.356256e+00 -6.327466e-01 -1.471856e+00 -2.958558e-02 8.241779e-01 -1.401989e+00 -1.426353e+00 5.763102e+01 -4.780027e-01 -1.684848e+00 -9.843087e-01 -8.950650e-01 -1.090415e+00 -3.335323e-01 -8.977441e-01 5.007107e-01 2.324223e-01 2.986936e-01 4.372348e-01 -1.432956e-01 2.670544e+00 5.466504e-01 3.371749e-01 -1.204652e-01 1.517207e-01 -2.176570e-01 -1.489397e-01 -1.646841e-01 3.466739e-02 3.137811e-02 -2.067070e-02 1.901761e-01 -3.093848e-02 6.643827e-02
<VARIANCE> 39
 2.371725e+01 3.752912e+01 2.694493e+01 2.880575e+01 2.772930e+01 2.454380e+01 3.036888e+01 2.776638e+01 3.267532e+01 3.321128e+01 2.170098e+01 1.796179e+01 4.331844e+01 2.717149e+00 2.435961e+00 3.181918e+00 2.715866e+00 3.299963e+00 3.818506e+00 4.229023e+00 3.728060e+00 3.722634e+00 3.729137e+00 3.106662e+00 2.519736e+00 1.915543e+00 4.154649e-01 8.464468e-01 5.236285e-01 5.027049e-01 8.067167e-01 6.132609e-01 6.696394e-01 6.724915e-01 7.888783e-01 6.163908e-01 5.705171e-01 4.542477e-01 8.711848e-01
<GCONST> 1.236927e+02
<MIXTURE> 2 5.687947e-01
<MEAN> 39
 -4.561055e+00 7.720078e+00 4.242424e+00 4.222294e+00 1.774670e+00 -2.265159e+00 -1.692029e-01 -8.937575e-01 8.024946e-01 8.593372e-01 -3.405006e-01 -5.283375e-01 5.220168e+01 -3.450572e-01 -2.642399e-01 -2.468370e-01 -3.015319e-01 -5.367035e-03 -1.245751e-01 -1.271670e-01 -7.683849e-02 3.066482e-02 3.845563e-02 9.689619e-02 1.322170e-01 -8.389413e-02 -6.987407e-02 -1.813518e-01 -2.504705e-02 -6.479964e-02 -1.192231e-01 -1.876562e-02 -2.968403e-02 2.834567e-03 -3.231048e-02 -1.674462e-02 -2.927964e-02 -1.370239e-02 3.275866e-01
<VARIANCE> 39
 7.550798e+00 1.102584e+01 1.405031e+01 2.085656e+01 2.701410e+01 2.781961e+01 2.811142e+01 3.071894e+01 2.687881e+01 2.230215e+01 2.589627e+01 2.273046e+01 2.697510e+00 4.388580e-01 8.916083e-01 1.135390e+00 1.709106e+00 2.295203e+00 2.031842e+00 2.397668e+00 2.292323e+00 2.284972e+00 1.773549e+00 1.994391e+00 1.982436e+00 1.586926e-01 9.960693e-02 2.700891e-01 2.537231e-01 3.563617e-01 4.952665e-01 4.531561e-01 5.092858e-01 4.885317e-01 4.947133e-01 3.830531e-01 4.317488e-01 4.372419e-01 2.096598e-01
<GCONST> 9.903346e+01
<TRANSP> 5
 0.000000e+00 1.000000e+00 0.000000e+00 0.000000e+00 0.000000e+00
 0.000000e+00 7.675321e-01 2.324679e-01 0.000000e+00 0.000000e+00
 0.000000e+00 0.000000e+00 8.879632e-01 1.120368e-01 0.000000e+00
 0.000000e+00 0.000000e+00 0.000000e+00 8.767279e-01 1.232721e-01
 0.000000e+00 0.000000e+00 0.000000e+00 0.000000e+00 0.000000e+00
<ENDHMM>
~h "d"
<BEGINHMM>
<NUMSTATES> 5
<STATE> 2
<NUMMIXES> 2
<MIXTURE> 1 3.473282e-01
<MEAN> 39
 -1.268710e+00 7.298577e+00 9.076701e+00 6.765488e+00 -4.991014e+00 -6.085019e+00 -2.435177e+00 7.031214e-01 -1.819537e+00 -1.842128e+00 5.952494e-01 7.262943e-01 6.020671e+01 -8.837294e-03 1.151966e+00 -1.168860e-01 3.421034e-01 1.584931e+00 6.177473e-01 3.944296e-01 -4.218734e-01 1.051730e-01 1.650599e-01 -5.971503e-01 -2.135847e-01 -1.674873e+00 7.014486e-02 2.136291e-02 -2.462861e-01 2.500458e-02 3.689678e-02 4.554221e-02 2.350019e-02 -1.944756e-01 4.060773e-02 6.840821e-02 1.403525e-02 -7.734281e-02 2.477082e-02
<VARIANCE> 39
 1.613571e+01 2.516258e+01 3.217097e+01 3.430837e+01 5.460590e+01 4.232698e+01 4.661662e+01 4.154999e+01 4.890891e+01 3.584901e+01 3.491989e+01 2.855811e+01 3.001662e+01 1.038682e+00 1.989323e+00 2.323755e+00 2.423353e+00 3.891955e+00 3.923781e+00 4.079697e+00 4.770039e+00 3.815075e+00 3.280820e+00 3.233087e+00 2.528058e+00 1.847443e+00 1.815647e-01 4.943049e-01 3.651846e-01 4.968542e-01 8.444971e-01 7.588893e-01 7.799940e-01 7.257736e-01 6.261126e-01 5.891237e-01 5.194404e-01 4.555313e-01 3.471978e-01
<GCONST> 1.225427e+02
<MIXTURE> 2 6.526710e-01
<MEAN> 39
 -1.256258e+00 1.133120e+01 7.162416e+00 7.355664e+00 5.112262e-01 -3.101531e+00 -6.574646e-01 -1.994450e+00 -8.246673e-01 -5.008186e-01 -1.925412e+00 -5.844664e-01 5.413822e+01 -3.623202e-01 -1.932436e-01 -2.812222e-01 -2.883420e-01 1.561293e-01 1.461474e-01 -3.394721e-02 2.353437e-02 8.403537e-02 -1.542996e-01 -8.936908e-02 1.221619e-01 -3.317858e-01 -1.404698e-01 -2.890149e-01 -6.350687e-04 -1.648657e-01 -1.695532e-01 -1.931863e-02 -3.620377e-02 5.336231e-02 -5.342149e-02 -2.434527e-02 9.354017e-02 2.694970e-02 2.657453e-01
<VARIANCE> 39
 8.538720e+00 9.026981e+00 1.249109e+01 1.908866e+01 2.181176e+01 2.576659e+01 2.898443e+01 2.951717e+01 3.121152e+01 3.194992e+01 2.259242e+01 2.251420e+01 4.921313e+00 4.141251e-01 6.349351e-01 9.324263e-01 1.395403e+00 1.742410e+00 2.000930e+00 2.137419e+00 2.587257e+00 2.402179e+00 2.549087e+00 2.174439e+00 1.822669e+00 1.886591e-01 1.009711e-01 1.998610e-01 2.121883e-01 3.221676e-01 3.702208e-01 4.574711e-01 4.638632e-01 5.425218e-01 4.829173e-01 4.828462e-01 4.566252e-01 3.533839e-01 1.374424e-01
<GCONST> 9.771154e+01
<STATE> 3
<MEAN> 39
 -3.773479e+00 8.430561e+00 4.980171e+00 5.632744e+00 7.111129e-01 -2.971091e+00 -1.371386e+00 -2.740622e+00 -1.559557e+00 -9.572187e-01 -1.307276e+00 -2.115371e-01 5.394608e+01 -1.442980e+00 -2.210684e+00 -2.785615e-01 -1.716635e+00 -2.647747e-01 3.593032e-01 -4.735706e-02 5.774030e-01 -1.168300e-01 6.526801e-02 3.779960e-01 2.308990e-01 2.146926e+00 -3.077249e-01 -2.355356e-01 1.980907e-01 -2.523987e-01 -3.896314e-01 -2.277192e-01 -1.137257e-02 9.962720e-02 -9.129667e-02 1.527090e-01 6.953852e-02 -3.337940e-03 8.188055e-01
<VARIANCE> 39
 1.379671e+01 2.002222e+01 2.454791e+01 2.707626e+01 2.411399e+01 3.001137e+01 3.078240e+01 3.390961e+01 2.835063e+01 2.897555e+01 2.558323e+01 2.554550e+01 9.747628e+00 2.031502e+00 3.971885e+00 2.992697e+00 4.499619e+00 3.438926e+00 3.548885e+00 3.430086e+00 4.004401e+00 3.046688e+00 3.617625e+00 2.460765e+00 2.408109e+00 4.692450e+00 2.939990e-01 5.696864e-01 4.224918e-01 5.828665e-01 6.438038e-01 5.716805e-01 6.569721e-01 8.003069e-01 6.404232e-01 5.789003e-01 5.357943e-01 4.158024e-01 4.434855e-01
<GCONST> 1.202009e+02
<STATE> 4
<NUMMIXES> 2
<MIXTURE> 1 3.910670e-01
<MEAN> 39
 -1.190043e+01 -3.025463e+00 5.007197e+00 -4.019050e+00 -1.447309e+00 -1.470369e+00 -1.968665e+00 2.300982e-01 -2.115547e+00 9.518648e-02 2.145198e-01 6.827838e-01 6.862032e+01 -1.713981e+00 -4.896344e-01 9.929090e-01 -8.302062e-01 -1.475434e+00 -1.148583e+00 4.522975e-02 6.978773e-01 -4.651037e-01 2.383603e-01 3.593304e-01 6.230855e-02 2.649867e+00 9.796941e-01 1.452904e+00 3.135741e-01 1.394651e+00 -2.054257e-01 -4.038860e-01 -2.271580e-02 -2.612589e-01 4.342115e-02 -2.063477e-01 -9.485901e-02 -1.009754e-01 -1.411894e+00
<VARIANCE> 39
 2.582922e+01 4.194985e+01 4.400085e+01 5.765823e+01 4.247235e+01 4.081570e+01 4.837151e+01 3.372998e+01 3.487942e+01 2.669930e+01 2.356517e+01 1.680177e+01 2.295242e+01 2.725458e+00 3.977715e+00 3.126424e+00 4.301928e+00 4.726401e+00 3.847616e+00 4.730581e+00 5.406109e+00 4.123903e+00 3.652838e+00 3.574821e+00 2.679299e+00 3.826037e+00 5.993901e-01 4.655319e-01 7.681094e-01 1.021068e+00 1.104117e+00 9.308245e-01 8.478340e-01 8.113967e-01 6.078432e-01 6.210105e-01 5.096611e-01 4.450739e-01 4.474005e-01
<GCONST> 1.296203e+02
<MIXTURE> 2 6.089335e-01
<MEAN> 39
 -8.832455e+00 4.241179e+00 7.384609e+00 3.151298e+00 -4.659281e+00 -7.134767e+00 -2.793821e+00 -1.419373e-01 -1.833323e+00 -3.113644e-01 -3.605663e-01 5.085484e-02 6.137354e+01 1.050106e+00 1.193730e+00 2.365098e-01 1.251958e+00 -3.864771e-01 -3.020552e-01 -2.074266e-01 -2.856056e-01 1.927509e-01 -2.011930e-01 8.498545e-02 -5.070107e-02 -1.180091e+00 4.424378e-01 5.848277e-02 -2.607891e-01 1.121661e-01 1.224868e-01 3.145279e-01 -5.365732e-02 -1.808285e-01 7.395050e-02 -6.769125e-02 1.324289e-02 -5.221254e-03 -2.431109e-01
<VARIANCE> 39
 4.619888e+01 3.322560e+01 3.426100e+01 3.539553e+01 5.847955e+01 5.425406e+01 5.822939e+01 5.216189e+01 4.892489e+01 4.520596e+01 4.152235e+01 3.423233e+01 3.111285e+01 3.177154e+00 3.077302e+00 3.537449e+00 5.444827e+00 6.463536e+00 6.312128e+00 3.809449e+00 3.949511e+00 3.351982e+00 3.403970e+00 3.161498e+00 2.663300e+00 2.480431e+00 8.119345e-01 5.265991e-01 5.481372e-01 8.357868e-01 1.060560e+00 1.142167e+00 8.665911e-01 7.733936e-01 7.559497e-01 6.894545e-01 6.899330e-01 5.870417e-01 6.277620e-01
<GCONST> 1.338654e+02
<TRANSP> 5
 0.000000e+00 1.000000e+00 0.000000e+00 0.000000e+00 0.000000e+00
 0.000000e+00 8.586118e-01 1.413882e-01 0.000000e+00 0.000000e+00
 0.000000e+00 0.000000e+00 5.843952e-01 4.156048e-01 0.000000e+00
 0.000000e+00 0.000000e+00 0.000000e+00 7.383884e-01 2.616117e-01
 0.000000e+00 0.000000e+00 0.000000e+00 0.000000e+00 0.000000e+00
<ENDHMM>
~h "f"
<BEGINHMM>
<NUMSTATES> 5
<STATE> 2
<NUMMIXES> 2
<MIXTURE> 1 2.561828e-01
<MEAN> 39
 2.170025e+00 7.462871e+00 8.796304e-01 3.712097e+00 -7.495583e-01 -1.713534e+00 -2.045893e+00 -1.130811e+00 -1.584861e+00 2.523359e+00 3.498502e+00 8.061076e-01 6.133700e+01 -1.725374e+00 -1.954831e-01 1.224507e+00 4.426867e-01 1.646698e+00 6.849470e-01 4.531033e-01 3.818104e-01 5.439692e-01 -3.718210e-01 -9.051697e-01 -1.366521e-01 -7.087810e-01 -4.706423e-01 -2.364795e-01 -2.008199e-03 1.750607e-02 -1.341910e-01 4.553114e-02 -5.374606e-02 -9.207632e-02 -4.394156e-02 -2.713641e-01 -2.955620e-01 -1.072035e-01 1.360186e-01
<VARIANCE> 39
 9.767884e+00 1.373131e+01 2.715923e+01 2.901063e+01 3.668434e+01 6.030809e+01 4.367831e+01 3.046412e+01 4.599388e+01 4.195594e+01 2.849703e+01 2.498322e+01 5.811672e+00 7.611997e-01 1.381523e+00 1.613261e+00 1.736844e+00 2.259627e+00 3.595072e+00 3.238955e+00 3.233442e+00 3.408823e+00 2.701827e+00 3.285259e+00 2.579715e+00 5.248029e-01 8.459986e-02 1.080463e-01 3.090865e-01 3.207287e-01 4.605862e-01 6.198618e-01 5.615298e-01 4.689305e-01 6.237805e-01 5.202354e-01 5.803189e-01 4.360351e-01 4.128602e-02
<GCONST> 1.079894e+02
<MIXTURE> 2 7.438169e-01
<MEAN> 39
 -9.192752e+00 4.659599e+00 3.909827e+00 4.651803e+00 6.719785e-01 -1.997571e+00 -1.568360e+00 -1.930412e+00 -8.909879e-01 -1.101391e+00 -1.389905e+00 -2.398597e-01 5.892549e+01 -1.358558e+00 -6.321548e-01 -5.124276e-01 -2.281802e-01 -4.005109e-01 -1.116335e-01 -3.755684e-01 -4.941877e-01 -4.604055e-02 -1.430545e-01 -2.195176e-01 3.888041e-02 1.634856e-01 9.431899e-02 -7.933243e-02 -1.857044e-01 -6.339290e-02 -1.783157e-01 -9.018300e-02 -3.034627e-02 4.806733e-02 -3.336218e-02 5.544515e-02 1.415867e-01 8.298636e-03 1.570579e-01
<VARIANCE> 39
 1.483149e+01 1.410280e+01 1.630521e+01 2.446729e+01 3.115195e+01 3.689258e+01 3.709110e+01 3.565237e+01 4.316608e+01 3.444652e+01 2.490693e+01 2.171048e+01 9.323095e+00 1.355841e+00 1.206431e+00 1.508573e+00 2.343484e+00 3.195475e+00 3.432282e+00 2.633132e+00 2.743546e+00 2.802812e+00 2.842480e+00 2.554787e+00 1.841627e+00 5.210961e-01 1.384378e-01 1.908423e-01 3.188636e-01 4.840836e-01 6.915433e-01 7.001501e-01 4.968874e-01 5.683615e-01 5.616570e-01 5.704685e-01 5.058241e-01 3.671955e-01 6.921466e-02
<GCONST> 1.091886e+02
<STATE> 3
<MEAN> 39
 -1.538753e+01 -7.162762e-01 2.119497e-01 3.167870e+00 -8.710046e-01 -1.563510e+00 -2.541088e+00 -1.586303e+00 -5.984702e-01 -9.908130e-01 -1.637282e+00 -9.258606e-02 6.189192e+01 -2.531564e-01 -3.719761e-01 -2.127132e-01 -1.178471e-01 5.134865e-02 1.046335e-01 8.879995e-02 1.075899e-01 1.658344e-01 3.389047e-02 2.015250e-02 -3.920310e-02 2.568514e-01 1.106469e-01 9.244822e-04 4.399965e-03 -5.785775e-02 2.086241e-02 -4.597790e-03 3.215058e-02 3.353497e-02 4.436050e-02 4.007374e-02 1.694472e-02 9.173952e-03 -2.011891e-02
<VARIANCE> 39
 7.317582e+00 1.591632e+01 1.863663e+01 1.844309e+01 2.589874e+01 3.004185e+01 3.502442e+01 2.882315e+01 3.452021e+01 3.428754e+01 2.710624e+01 2.462542e+01 8.367209e+00 4.110284e-01 9.262203e-01 1.280864e+00 1.649477e+00 1.848312e+00 2.466448e+00 2.695139e+00 2.661430e+00 2.526755e+00 2.717340e+00 2.484969e+00 2.421639e+00 2.285297e-01 7.121290e-02 1.774554e-01 2.520303e-01 3.295366e-01 3.823907e-01 4.998428e-01 5.389284e-01 5.221475e-01 4.848050e-01 5.385218e-01 5.278892e-01 4.930940e-01 3.402598e-02
<GCONST> 1.012161e+02
<STATE> 4
<NUMMIXES> 2
<MIXTURE> 1 3.246546e-01
<MEAN> 39
 -7.147136e+00 -1.966076e+00 -3.507221e+00 4.585021e-01 -1.658788e+00 -1.188100e+00 -1.208634e+00 4.572054e-01 6.789285e-01 1.953069e+00 -5.096834e-01 3.313609e-02 5.798174e+01 2.286863e+00 2.432180e+00 1.133310e+00 2.037781e+00 4.605733e-01 1.013887e+00 3.749043e-01 2.576132e-01 -7.742727e-01 -5.340744e-01 -1.295742e-01 -4.739339e-01 -5.651116e-01 4.243395e-01 5.396255e-01 2.313714e-01 8.241310e-02 -1.650776e-01 6.334319e-03 -8.825612e-02 1.855438e-02 -2.295504e-01 -2.960587e-01 9.831907e-02 -1.752047e-01 7.278458e-01
<VARIANCE> 39
 1.034156e+01 1.304321e+01 3.452028e+01 3.121462e+01 3.104984e+01 4.203349e+01 4.260525e+01 4.009103e+01 3.541239e+01 4.272626e+01 2.887706e+01 2.258932e+01 7.762241e+00 1.114881e+00 1.991245e+00 2.242227e+00 2.327048e+00 2.291395e+00 2.448561e+00 3.044068e+00 2.760937e+00 2.301657e+00 3.172846e+00 2.624213e+00 1.997200e+00 8.144120e-01 1.365034e-01 2.914137e-01 3.686290e-01 6.807208e-01 5.865473e-01 5.978631e-01 6.734587e-01 6.464724e-01 5.037876e-01 5.152556e-01 5.094349e-01 3.524423e-01 1.428849e-01
<GCONST> 1.122773e+02
<MIXTURE> 2 6.753460e-01
<MEAN> 39
 -1.332594e+01 -4.788488e+00 -3.640824e+00 -1.554845e+00 -8.420507e-01 -1.237777e+00 -1.315350e+00 7.315215e-02 1.309421e+00 9.029055e-01 -8.907933e-01 -2.587783e-01 6.318230e+01 1.172234e+00 -4.515754e-03 -2.820723e-01 -5.922796e-01 -5.088409e-01 -2.698284e-01 2.749916e-02 2.207102e-01 7.106275e-02 3.663731e-01 1.831691e-01 1.674593e-01 -6.732659e-01 2.714173e-01 3.750979e-01 1.967705e-01 3.383106e-01 -6.624761e-03 8.926607e-02 -1.367037e-02 -5.074377e-02 -1.498047e-01 -6.382786e-02 2.085371e-02 -4.645908e-03 -2.256624e-01
<VARIANCE> 39
 1.469502e+01 1.407654e+01 2.691819e+01 2.887167e+01 2.866785e+01 3.383945e+01 3.861925e+01 2.893741e+01 3.227620e+01 3.403548e+01 2.656474e+01 2.473778e+01 8.655348e+00 5.987647e-01 1.089890e+00 1.595575e+00 2.337273e+00 2.482519e+00 2.570466e+00 2.892258e+00 2.410624e+00 2.706659e+00 2.619502e+00 2.498974e+00 2.139078e+00 5.575798e-01 1.277838e-01 2.277558e-01 2.943074e-01 5.281808e-01 5.172517e-01 5.511121e-01 5.830144e-01 4.410718e-01 4.648556e-01 5.418834e-01 4.717908e-01 4.125701e-01 8.119899e-02
<GCONST> 1.074068e+02
<TRANSP> 5
 0.000000e+00 1.000000e+00 0.000000e+00 0.000000e+00 0.000000e+00
 0.000000e+00 8.330314e-01 1.669686e-01 0.000000e+00 0.000000e+00
 0.000000e+00 0.000000e+00 9.162220e-01 8.377797e-02 0.000000e+00
 0.000000e+00 0.000000e+00 0.000000e+00 8.604780e-01 1.395219e-01
 0.000000e+00 0.000000e+00 0.000000e+00 0.000000e+00 0.000000e+00
<ENDHMM>
~h "g"
<BEGINHMM>
<NUMSTATES> 5
<STATE> 2
<NUMMIXES> 2
<MIXTURE> 1 2.508421e-01
<MEAN> 39
 -1.217123e+00 8.457337e+00 1.268518e+01 7.811651e+00 -8.148527e+00 -6.273740e+00 8.737605e-01 1.079060e+00 -9.970488e+00 1.344137e+00 8.131295e+00 -4.109845e+00 6.085518e+01 1.586018e-01 1.082057e+00 -2.999939e-01 1.391376e-01 2.467099e+00 1.311053e-01 2.925901e-01 -4.472009e-01 9.254944e-01 5.311653e-01 -1.259306e+00 1.647531e-01 -2.154155e+00 2.332850e-02 -8.543371e-02 -3.480292e-01 2.298856e-02 -2.065703e-01 5.769187e-02 -1.408944e-01 -2.021620e-01 7.137606e-01 -3.625645e-01 -3.139994e-01 2.745230e-01 1.315211e-01
<VARIANCE> 39
 9.037622e+00 1.425435e+01 3.049458e+01 1.962426e+01 4.071470e+01 6.054686e+01 6.638011e+01 5.347641e+01 5.336868e+01 4.548385e+01 4.405002e+01 3.276038e+01 1.718313e+01 4.898206e-01 8.990307e-01 1.516390e+00 1.576227e+00 1.617597e+00 4.637069e+00 2.902193e+00 3.158868e+00 4.980902e+00 2.798351e+00 3.520750e+00 2.519063e+00 4.199784e-01 1.083998e-01 1.553410e-01 1.687551e-01 3.611456e-01 4.793422e-01 5.280380e-01 4.259194e-01 5.995590e-01 5.644920e-01 5.157769e-01 5.367413e-01 3.576057e-01 1.735865e-01
<GCONST> 1.108029e+02
<MIXTURE> 2 7.491579e-01
<MEAN> 39
 -1.486359e+00 1.008888e+01 6.279146e+00 6.867311e+00 -3.583491e-01 -4.189922e+00 -1.613210e-01 -1.774635e+00 -2.125580e+00 3.035797e-01 3.334607e-02 -5.823345e-01 5.408509e+01 -3.268090e-01 -1.585438e-01 -1.572312e-01 -9.640453e-02 1.369537e-01 -1.291555e-01 -3.768344e-01 -1.309040e-01 3.551728e-01 -1.439671e-01 -5.469551e-01 1.840843e-01 -3.868692e-01 -9.385924e-02 -1.681159e-01 8.752908e-03 -8.605555e-02 -7.077885e-02 2.933640e-04 -1.162536e-01 8.698095e-02 -2.123158e-01 -1.100834e-03 6.592233e-02 -2.515466e-02 1.993322e-01
<VARIANCE> 39
 8.794918e+00 8.573208e+00 2.497832e+01 1.637825e+01 2.304488e+01 4.128057e+01 3.446488e+01 2.674291e+01 3.017652e+01 2.582540e+01 2.426096e+01 1.986461e+01 8.348230e+00 3.512290e-01 4.954687e-01 1.427050e+00 1.796063e+00 1.997373e+00 2.518328e+00 1.964531e+00 2.846697e+00 3.005779e+00 2.393951e+00 2.167922e+00 2.290571e+00 2.951239e-01 6.574845e-02 1.456361e-01 2.347368e-01 3.425018e-01 4.702552e-01 4.626325e-01 4.610032e-01 5.998037e-01 6.291308e-01 5.014986e-01 3.434618e-01 4.003230e-01 6.213991e-02
<GCONST> 9.964524e+01
<STATE> 3
<MEAN> 39
 -6.108851e+00 6.212479e+00 4.291315e+00 4.002467e+00 7.147655e-01 -4.068745e+00 -3.138255e+00 -1.115767e+00 -4.336928e+00 3.872081e-01 -1.732681e+00 -6.844247e-01 5.427135e+01 -1.032281e+00 -1.443735e+00 -4.243031e-01 -7.334304e-01 5.088156e-01 4.723028e-01 -5.294235e-01 6.416477e-01 -2.666808e-01 2.497158e-01 -3.975839e-01 1.387030e-01 1.032400e+00 -1.887865e-01 -2.269278e-01 -4.729413e-02 -2.172704e-01 -1.435297e-01 -2.087324e-03 7.492781e-02 5.531096e-02 -6.393171e-02 2.227350e-01 1.254054e-01 -2.241555e-02 4.194045e-01
<VARIANCE> 39
 1.231559e+01 2.170829e+01 2.310708e+01 3.346250e+01 3.325576e+01 3.444625e+01 4.056885e+01 4.175479e+01 4.377921e+01 4.304005e+01 2.920007e+01 2.597144e+01 9.448296e+00 1.563168e+00 3.730110e+00 2.303488e+00 2.917673e+00 4.092582e+00 3.026829e+00 4.228699e+00 3.512318e+00 4.231766e+00 4.489959e+00 2.470206e+00 2.767356e+00 2.874901e+00 2.283816e-01 6.122499e-01 3.137579e-01 5.009919e-01 6.322708e-01 6.163497e-01 6.062899e-01 6.464909e-01 9.110800e-01 7.822213e-01 5.988224e-01 7.203001e-01 4.219103e-01
<GCONST> 1.218798e+02
<STATE> 4
<NUMMIXES> 2
<MIXTURE> 1 7.276992e-01
<MEAN> 39
 -1.265983e+01 -1.791492e-01 4.190132e+00 -2.030088e+00 -1.137450e+00 -1.948229e+00 -5.062446e+00 1.298543e+00 -4.141635e+00 3.149627e+00 -2.512213e+00 1.462814e+00 6.272631e+01 -2.611867e-01 8.906493e-01 4.119078e-01 -2.895126e-02 -4.333157e-01 -3.194597e-01 1.377811e-02 2.000528e-02 -1.796920e-01 -1.358616e-01 5.294762e-01 2.044219e-01 6.038854e-01 7.473236e-01 7.984307e-01 2.631863e-01 7.189693e-01 -2.565003e-01 -1.439468e-01 2.125086e-01 -2.343634e-01 3.942598e-02 -3.851482e-01 4.126627e-01 -1.388599e-01 -4.294395e-01
<VARIANCE> 39
 2.987823e+01 4.989397e+01 4.750946e+01 3.970834e+01 7.443638e+01 6.854478e+01 5.880295e+01 5.245116e+01 5.461884e+01 4.642130e+01 4.481275e+01 2.069249e+01 2.324858e+01 4.145533e+00 5.816914e+00 2.967597e+00 5.546691e+00 4.133954e+00 4.272640e+00 3.443840e+00 3.118008e+00 3.778319e+00 4.386180e+00 3.041939e+00 2.598741e+00 3.892419e+00 4.295005e-01 9.955639e-01 4.616627e-01 5.850596e-01 1.319969e+00 7.851309e-01 6.285317e-01 6.649946e-01 8.054107e-01 5.952182e-01 6.348960e-01 5.020899e-01 7.087178e-01
<GCONST> 1.331602e+02
<MIXTURE> 2 2.723009e-01
<MEAN> 39
 -4.818798e+00 1.024364e+01 1.042925e+01 5.469047e+00 -6.259696e+00 -1.233418e+00 -3.646670e+00 -8.249872e-01 -4.406682e+00 9.241816e-01 9.724553e-01 -6.403717e-01 6.337209e+01 2.812599e+00 5.087971e-01 -2.054560e-01 1.847384e+00 -3.696560e+00 -1.490165e+00 -1.560200e-01 1.758586e-02 -4.972551e-01 -5.410337e-01 3.319913e+00 -9.009963e-01 1.718840e+00 -3.060737e-01 -1.026296e+00 -8.652963e-01 -6.181208e-01 -4.074059e-01 -2.360845e-01 -2.276728e-01 1.118728e-01 -1.358281e-02 1.264193e-01 2.964256e-01 1.324991e-01 4.306357e-01
<VARIANCE> 39
 2.703393e+01 2.153544e+01 6.981714e+01 2.330509e+01 7.319598e+01 3.935141e+01 6.276765e+01 4.315926e+01 1.790521e+01 3.513112e+01 4.563382e+01 2.331875e+01 2.152964e+01 1.223547e+00 2.392412e+00 3.114596e+00 3.280821e+00 4.472090e+00 4.517844e+00 1.603671e+00 2.659502e+00 2.767805e+00 2.486407e+00 2.976301e+00 1.624903e+00 6.700842e-01 3.356586e-01 3.232031e-01 3.335777e-01 5.102715e-01 1.610167e+00 7.918963e-01 3.279412e-01 3.756006e-01 5.024146e-01 4.288335e-01 7.358862e-01 2.079464e-01 3.608547e-01
<GCONST> 1.184769e+02
<TRANSP> 5
 0.000000e+00 1.000000e+00 0.000000e+00 0.000000e+00 0.000000e+00
 0.000000e+00 8.850265e-01 1.149736e-01 0.000000e+00 0.000000e+00
 0.000000e+00 0.000000e+00 7.596249e-01 2.403752e-01 0.000000e+00
 0.000000e+00 0.000000e+00 0.000000e+00 8.063017e-01 1.936983e-01
 0.000000e+00 0.000000e+00 0.000000e+00 0.000000e+00 0.000000e+00
<ENDHMM>
~h "k"
<BEGINHMM>
<NUMSTATES> 5
<STATE> 2
<NUMMIXES> 2
<MIXTURE> 1 2.967537e-01
<MEAN> 39
 -3.654887e+00 8.922200e+00 9.771873e+00 5.710918e+00 -4.629252e+00 -4.851706e+00 1.012238e+00 2.995281e-01 -6.165423e+00 2.091469e+00 2.513099e+00 -1.255920e+00 5.803357e+01 -5.025681e-01 1.127356e-01 -8.387123e-01 -6.336862e-01 1.556410e+00 2.520589e-01 -1.555513e-01 -3.914047e-01 1.034229e+00 -3.296831e-02 -1.353721e+00 -3.314484e-02 -1.718488e+00 1.523566e-01 -2.556649e-01 -4.612791e-01 -4.369244e-03 -3.532831e-01 -6.041998e-02 -2.262832e-01 -1.833283e-01 2.127410e-01 -3.398630e-01 -5.069540e-02 1.165312e-01 1.127046e-01
<VARIANCE> 39
 1.961248e+01 1.624700e+01 3.293997e+01 2.882128e+01 4.670313e+01 4.840824e+01 6.186071e+01 5.300805e+01 5.071192e+01 4.134748e+01 5.186775e+01 3.481308e+01 1.388402e+01 1.623347e+00 1.549876e+00 3.555182e+00 2.566519e+00 5.172874e+00 4.198792e+00 3.542956e+00 4.684592e+00 4.476703e+00 3.849385e+00 3.637291e+00 3.130691e+00 9.125385e-01 2.414360e-01 2.230203e-01 4.365076e-01 4.899819e-01 8.353088e-01 6.285219e-01 5.653219e-01 6.159768e-01 8.235817e-01 5.615098e-01 7.893412e-01 5.861937e-01 1.610101e-01
<GCONST> 1.225710e+02
<MIXTURE> 2 7.032440e-01
<MEAN> 39
 -4.249915e+00 7.932684e+00 3.417761e+00 3.520325e+00 -1.634488e+00 -4.397312e+00 -1.700710e+00 -2.096385e+00 -8.254457e-01 -3.416442e-01 -8.629557e-01 2.446896e-01 5.235020e+01 -1.779955e-01 -1.346974e-01 -2.764538e-01 -1.721046e-01 2.192149e-02 6.957716e-02 -7.715827e-02 -1.664441e-01 1.104347e-01 -1.553596e-01 -6.094941e-02 1.376622e-01 -2.479431e-01 -3.157241e-02 -6.106485e-02 1.312204e-01 4.613473e-02 -5.926225e-04 4.252142e-02 1.852948e-02 7.788233e-02 -1.347497e-01 9.034058e-02 7.453193e-02 -2.238850e-02 1.720397e-01
<VARIANCE> 39
 6.300640e+00 7.945300e+00 1.283775e+01 1.815741e+01 2.509316e+01 3.917448e+01 4.121238e+01 3.501330e+01 3.648650e+01 3.109276e+01 2.699535e+01 2.276626e+01 2.378444e+00 3.465035e-01 6.495970e-01 1.087751e+00 1.476773e+00 2.091664e+00 2.646262e+00 2.548666e+00 2.685534e+00 2.553200e+00 2.475355e+00 2.264847e+00 2.044777e+00 1.592683e-01 8.657079e-02 1.819451e-01 2.608297e-01 2.981800e-01 4.411526e-01 5.296400e-01 5.308454e-01 5.775918e-01 5.475262e-01 4.717501e-01 4.555130e-01 3.944164e-01 5.437206e-02
<GCONST> 9.836179e+01
<STATE> 3
<MEAN> 39
 -6.056151e+00 6.185771e+00 2.884496e+00 3.395936e+00 -1.410411e+00 -3.754339e+00 -1.710930e+00 -2.158374e+00 -1.773224e+00 1.070133e-01 -7.610679e-01 7.072334e-01 5.221029e+01 -1.201917e+00 -2.000349e+00 2.177397e-01 -4.183866e-01 3.867733e-02 4.553453e-01 -3.085959e-01 5.614595e-01 -4.969245e-01 5.272243e-01 -3.046868e-01 1.026354e-01 1.570305e+00 -4.268531e-01 -4.993589e-01 1.245037e-01 -2.741556e-01 -8.768295e-02 4.100332e-03 -4.200126e-02 2.568583e-01 -1.092321e-01 2.615733e-01 -1.109437e-01 -2.633851e-02 7.362109e-01
<VARIANCE> 39
 8.258120e+00 1.397632e+01 2.056798e+01 2.517310e+01 2.304174e+01 3.813003e+01 3.840375e+01 3.451447e+01 3.636972e+01 3.295621e+01 2.646555e+01 2.036721e+01 6.571808e+00 1.774853e+00 3.528943e+00 3.543489e+00 3.364758e+00 3.123020e+00 3.525286e+00 3.079593e+00 4.464414e+00 3.388072e+00 3.320794e+00 2.741332e+00 2.227529e+00 2.656059e+00 2.324495e-01 4.941856e-01 4.952388e-01 4.919862e-01 6.170716e-01 6.961928e-01 6.020995e-01 7.871917e-01 5.703061e-01 6.319073e-01 5.048123e-01 4.828518e-01 2.396926e-01
<GCONST> 1.174161e+02
<STATE> 4
<NUMMIXES> 2
<MIXTURE> 1 5.935940e-01
<MEAN> 39
 -1.476212e+01 3.552557e+00 6.009496e+00 -4.024948e+00 -3.606286e+00 -2.531725e+00 -2.695098e+00 -1.047840e+00 -1.933463e+00 3.961018e+00 -2.176575e+00 2.310335e+00 6.113785e+01 9.613246e-01 1.211037e+00 4.644417e-01 9.268997e-01 1.334155e-01 -7.907333e-02 1.369199e-01 -1.749871e-01 4.981035e-02 -5.953791e-01 3.228441e-01 -1.325458e-01 -5.839837e-01 5.985091e-01 -1.008220e-01 -1.095391e-02 5.498630e-01 -6.557620e-02 -3.144016e-02 1.330613e-01 2.945087e-02 -1.034492e-01 -2.520915e-01 1.393621e-01 -1.931650e-01 4.781327e-02
<VARIANCE> 39
 3.113382e+01 2.298580e+01 3.991410e+01 5.028942e+01 5.651410e+01 6.719592e+01 4.915094e+01 5.364980e+01 5.117178e+01 4.073241e+01 3.778690e+01 3.092115e+01 1.573010e+01 3.145682e+00 3.524446e+00 2.977870e+00 4.592062e+00 4.006907e+00 4.277278e+00 3.056059e+00 3.369766e+00 3.689705e+00 3.582065e+00 3.274511e+00 2.598800e+00 1.423871e+00 4.573333e-01 5.126458e-01 5.646408e-01 8.213938e-01 9.203380e-01 9.132728e-01 5.908926e-01 6.744869e-01 7.587041e-01 7.464144e-01 6.772241e-01 5.795917e-01 4.515608e-01
<GCONST> 1.290949e+02
<MIXTURE> 2 4.064065e-01
<MEAN> 39
 -1.276343e+01 -5.442502e+00 4.269450e+00 -1.199769e-02 -1.945533e+00 -2.842681e+00 -3.491836e+00 2.543926e+00 -4.616331e+00 3.915734e+00 -2.844293e+00 7.273530e-01 6.340155e+01 -1.434405e+00 -6.603216e-01 8.217802e-02 -1.545726e+00 -7.011070e-01 -1.499671e-01 -2.507866e-01 5.551990e-01 -4.967680e-03 1.004562e+00 -2.783946e-01 2.220286e-01 1.949025e+00 4.043175e-01 1.381279e+00 -3.600816e-02 1.259711e-01 -1.122179e-02 -1.602134e-01 7.418381e-02 -4.154392e-01 3.503216e-01 -2.544697e-01 2.075195e-01 4.917544e-02 -8.665253e-01
<VARIANCE> 39
 2.030392e+01 2.960887e+01 5.912065e+01 5.040813e+01 4.801832e+01 5.494175e+01 4.568170e+01 5.552695e+01 3.776737e+01 4.052326e+01 2.603702e+01 2.288384e+01 2.176544e+01 2.201603e+00 6.400960e+00 3.268499e+00 3.569460e+00 3.958306e+00 5.172140e+00 3.863593e+00 4.941687e+00 3.914072e+00 3.526841e+00 2.756341e+00 3.092283e+00 3.607629e+00 3.802663e-01 6.061448e-01 7.576466e-01 8.607745e-01 7.579362e-01 8.621657e-01 6.731150e-01 8.241947e-01 6.189197e-01 7.073411e-01 5.088198e-01 4.750185e-01 5.050013e-01
<GCONST> 1.298785e+02
<TRANSP> 5
 0.000000e+00 1.000000e+00 0.000000e+00 0.000000e+00 0.000000e+00
 0.000000e+00 9.052915e-01 9.470852e-02 0.000000e+00 0.000000e+00
 0.000000e+00 0.000000e+00 6.801885e-01 3.198115e-01 0.000000e+00
 0.000000e+00 0.000000e+00 0.000000e+00 8.462523e-01 1.537477e-01
 0.000000e+00 0.000000e+00 0.000000e+00 0.000000e+00 0.000000e+00
<ENDHMM>
~h "l"
<BEGINHMM>
<NUMSTATES> 5
<STATE> 2
<NUMMIXES> 2
<MIXTURE> 1 6.285523e-01
<MEAN> 39
 2.059118e+00 7.905375e+00 -4.987375e+00 1.740190e+00 -1.495231e+00 -5.447401e+00 -4.021294e+00 -7.016091e+00 8.131046e+00 5.863256e+00 -3.477577e+00 -3.190180e+00 6.724012e+01 5.419531e-02 4.166229e-01 -1.997857e-01 -5.544133e-01 7.450648e-01 3.425725e-01 1.578141e-01 -1.065402e+00 6.708129e-02 6.212125e-01 8.070502e-02 8.442025e-02 -2.237463e-01 1.394517e-02 2.734243e-02 1.468689e-01 -2.281380e-02 3.274797e-02 -1.698157e-02 -1.990402e-02 8.708770e-02 -1.784935e-01 -1.113584e-01 1.474469e-01 1.010227e-01 -7.708663e-02
<VARIANCE> 39
 4.351878e+00 1.641125e+01 2.625683e+01 2.660825e+01 2.723314e+01 4.777280e+01 4.824510e+01 7.028413e+01 6.512726e+01 6.101584e+01 3.405466e+01 3.204208e+01 9.485270e+00 1.867979e-01 3.093308e-01 9.600343e-01 8.805847e-01 1.010926e+00 1.410319e+00 1.559932e+00 1.874466e+00 1.919031e+00 2.255299e+00 1.728413e+00 1.489967e+00 2.457334e-01 2.960632e-02 4.884882e-02 9.679177e-02 1.173963e-01 1.714544e-01 1.885830e-01 2.289080e-01 2.892978e-01 2.657738e-01 2.975920e-01 2.449729e-01 2.030006e-01 2.323340e-02
<GCONST> 8.828004e+01
<MIXTURE> 2 3.714474e-01
<MEAN> 39
 -1.248759e+00 9.767328e+00 2.264898e+00 9.141392e-01 -1.699124e-01 -1.949484e+00 -3.806785e+00 -2.923430e+00 1.273795e+00 -5.038165e-02 -1.270990e+00 3.460930e-01 6.224553e+01 1.181933e+00 4.329579e-01 -7.905704e-01 -2.461860e-01 1.815207e-01 -2.348375e-01 -3.397146e-01 -7.962494e-01 -2.695401e-02 5.171275e-01 2.522320e-01 -1.142854e-01 4.874474e-01 -1.998511e-01 -2.466614e-01 -2.661877e-01 -1.240306e-01 -7.722428e-02 -9.668230e-02 1.022201e-01 3.532168e-02 3.632527e-03 3.025300e-02 4.965113e-02 1.906914e-02 9.689489e-03
<VARIANCE> 39
 2.494896e+01 2.773270e+01 6.414169e+01 5.374274e+01 5.900387e+01 5.584647e+01 6.683809e+01 6.343759e+01 3.971294e+01 5.043254e+01 4.049911e+01 4.409993e+01 2.723940e+01 2.683135e+00 2.178681e+00 3.266929e+00 3.928908e+00 3.749490e+00 3.942412e+00 4.274534e+00 4.247080e+00 3.762958e+00 3.660918e+00 3.815037e+00 3.651992e+00 1.621777e+00 4.437789e-01 3.851057e-01 6.374435e-01 8.628187e-01 7.203298e-01 7.179880e-01 7.065778e-01 7.854898e-01 5.996483e-01 6.390231e-01 7.197377e-01 5.930034e-01 2.530212e-01
<GCONST> 1.300625e+02
<STATE> 3
<MEAN> 39
 3.327216e+00 7.391757e+00 -3.017985e+00 -3.572858e+00 1.660014e+00 2.702393e+00 -7.907731e+00 -3.657511e+00 5.878765e-01 3.405163e+00 6.400781e-01 -4.860896e+00 6.613544e+01 5.803650e-05 1.826118e-01 1.437250e-01 1.232242e-02 5.277294e-02 -7.562011e-02 5.240221e-03 -1.052413e-01 -5.120176e-02 -6.393639e-02 9.304784e-02 2.642523e-01 -1.671518e-01 -3.435743e-02 -9.397180e-03 5.183529e-02 7.604053e-02 -6.322004e-02 -3.818226e-02 3.864652e-02 6.830596e-02 1.077408e-02 -4.405482e-02 -5.123542e-02 3.567233e-02 -1.228348e-02
<VARIANCE> 39
 5.270370e+00 1.732093e+01 2.251745e+01 4.139816e+01 2.442896e+01 4.163380e+01 4.233523e+01 6.507412e+01 5.269687e+01 5.774608e+01 3.294771e+01 3.739035e+01 1.409149e+01 1.487325e-01 3.727543e-01 7.046066e-01 9.345310e-01 8.597521e-01 1.109627e+00 1.265422e+00 1.470978e+00 1.372222e+00 1.814787e+00 1.295012e+00 1.139361e+00 2.326979e-01 2.435858e-02 4.173949e-02 1.014898e-01 1.148633e-01 1.451382e-01 1.413831e-01 1.800308e-01 2.252295e-01 1.981485e-01 2.142517e-01 1.970915e-01 1.643781e-01 2.061682e-02
<GCONST> 8.385918e+01
<STATE> 4
<NUMMIXES> 2
<MIXTURE> 1 5.674461e-01
<MEAN> 39
 3.746852e+00 1.378977e+01 -5.244309e+00 -6.025043e+00 2.164169e+00 -2.051111e+00 1.980773e+00 -1.357196e+01 -7.034903e-01 4.056848e+00 1.743503e+00 4.933746e+00 6.321908e+01 -2.156950e-03 7.401133e-02 1.695838e-01 7.666222e-02 4.475581e-02 -1.010599e-01 -9.651020e-03 -2.625019e-02 -1.460624e-01 -9.281156e-02 2.853269e-02 1.210624e-01 -1.615284e-01 -3.428421e-02 -6.609365e-02 4.691137e-02 5.257365e-02 -8.388981e-03 -1.445344e-02 -8.192028e-02 1.047141e-01 5.189499e-02 5.144754e-02 -3.781636e-02 -1.119719e-01 2.095824e-02
<VARIANCE> 39
 2.553111e+00 8.705188e+00 2.416997e+01 3.249651e+01 2.785694e+01 4.563704e+01 5.019912e+01 4.314967e+01 4.774154e+01 6.777853e+01 3.305205e+01 3.239030e+01 9.291368e+00 1.314069e-01 3.444293e-01 5.383707e-01 9.794291e-01 9.321533e-01 1.077284e+00 1.391246e+00 1.422827e+00 1.545885e+00 1.675336e+00 1.543892e+00 1.420913e+00 1.530270e-01 2.068104e-02 5.082251e-02 8.356350e-02 1.286881e-01 1.489470e-01 1.940909e-01 1.972356e-01 2.231416e-01 2.523294e-01 2.316068e-01 2.331661e-01 1.920901e-01 1.656578e-02
<GCONST> 8.226871e+01
<MIXTURE> 2 4.325522e-01
<MEAN> 39
 1.648587e+00 1.083917e+01 -1.042389e+00 -4.079305e-01 2.241697e+00 -4.485321e+00 -3.840011e+00 -7.782036e+00 2.450850e+00 4.879882e+00 -2.768364e-01 -3.429872e-01 6.276888e+01 -4.457436e-01 -4.300389e-01 4.377891e-01 5.971385e-01 -5.313275e-01 -2.871496e-01 -1.111416e-02 1.061179e+00 3.210102e-01 -5.013223e-01 -1.940746e-01 -2.805433e-01 2.079532e-02 -6.732223e-02 -6.408367e-02 1.161694e-02 1.548663e-02 -1.964186e-01 8.493003e-02 1.574211e-01 7.762451e-02 -6.481261e-02 -1.846645e-01 5.323666e-02 8.318282e-02 2.256784e-02
<VARIANCE> 39
 8.098471e+00 1.764925e+01 3.794438e+01 4.233945e+01 3.393175e+01 5.723722e+01 7.192410e+01 6.745238e+01 6.169546e+01 5.696056e+01 3.694241e+01 3.829525e+01 2.062178e+01 5.010628e-01 7.197984e-01 1.699521e+00 1.902730e+00 2.278222e+00 2.632860e+00 2.714218e+00 3.618195e+00 3.191240e+00 3.581651e+00 2.373562e+00 2.706722e+00 8.563482e-01 9.734488e-02 8.335770e-02 2.535478e-01 2.912517e-01 3.270903e-01 4.094935e-01 4.521854e-01 5.918650e-01 5.460382e-01 4.847855e-01 4.363444e-01 4.751061e-01 7.810531e-02
<GCONST> 1.106960e+02
<TRANSP> 5
 0.000000e+00 1.000000e+00 0.000000e+00 0.000000e+00 0.000000e+00
 0.000000e+00 7.960306e-01 2.039694e-01 0.000000e+00 0.000000e+00
 0.000000e+00 0.000000e+00 8.375861e-01 1.624139e-01 0.000000e+00
 0.000000e+00 0.000000e+00 0.000000e+00 8.923864e-01 1.076136e-01
 0.000000e+00 0.000000e+00 0.000000e+00 0.000000e+00 0.000000e+00
<ENDHMM>
~h "m"
<BEGINHMM>
<NUMSTATES> 5
<STATE> 2
<NUMMIXES> 2
<MIXTURE> 1 3.896569e-01
<MEAN> 39
 4.736942e+00 2.882915e+00 1.247650e-01 9.095844e+00 -6.213886e-01 -4.057349e+00 -3.330235e+00 2.344429e+00 -3.193177e-01 -2.074521e+00 -1.010350e+00 -3.947367e+00 6.430351e+01 -6.791600e-02 7.737325e-01 8.079244e-01 1.728881e+00 1.538631e+00 -5.423132e-01 2.114283e-01 -1.893657e+00 -8.996228e-01 1.647031e+00 -2.402813e-01 -9.560801e-01 -1.270421e+00 -2.419741e-01 1.111971e-01 4.921539e-01 2.449033e-01 -2.067984e-01 -1.340534e-01 1.708401e-01 -3.447276e-01 -2.350278e-01 3.300180e-01 4.322849e-03 -1.210859e-01 2.654463e-02
<VARIANCE> 39
 3.701488e+00 9.813563e+00 1.915634e+01 2.006512e+01 1.944077e+01 2.924474e+01 3.088773e+01 3.710293e+01 4.405671e+01 4.182810e+01 3.219331e+01 2.103630e+01 7.886436e+00 4.855483e-01 5.841047e-01 2.025835e+00 1.414302e+00 2.110686e+00 2.345556e+00 2.240113e+00 3.073860e+00 2.170535e+00 3.282755e+00 2.035684e+00 2.405584e+00 3.807528e-01 3.985970e-02 9.727906e-02 1.707993e-01 1.953109e-01 2.911875e-01 3.134964e-01 3.688618e-01 6.075154e-01 3.324886e-01 4.763547e-01 2.590240e-01 3.072974e-01 6.706667e-02
<GCONST> 9.670075e+01
<MIXTURE> 2 6.103429e-01
<MEAN> 39
 7.316598e-01 7.821232e+00 6.897801e+00 1.258080e+01 3.516956e+00 -2.941393e+00 -1.788382e+00 -4.097225e+00 -3.811013e+00 2.912032e+00 -2.233599e+00 -6.082272e+00 5.901318e+01 3.782994e-01 1.594224e-01 9.567260e-01 1.244675e+00 2.093420e-01 -6.593668e-01 -8.715596e-02 -9.346163e-01 -4.878806e-01 7.120366e-01 -1.564808e-01 -5.801518e-01 2.523091e-01 -6.313269e-02 -2.868040e-01 -2.833046e-01 -3.987158e-01 -2.771593e-01 -1.008641e-01 -1.289149e-01 2.660924e-01 1.547998e-01 -1.355711e-01 7.135494e-02 1.863106e-01 1.802345e-01
<VARIANCE> 39
 9.317084e+00 1.433818e+01 1.741881e+01 2.540845e+01 2.994159e+01 4.442408e+01 3.988036e+01 3.366655e+01 4.205561e+01 4.232056e+01 3.136286e+01 2.911166e+01 1.855171e+01 1.345426e+00 1.344895e+00 1.767464e+00 2.101487e+00 2.113157e+00 2.536653e+00 2.662233e+00 3.215481e+00 2.308456e+00 3.032113e+00 2.057134e+00 2.435618e+00 1.201780e+00 1.515642e-01 1.947591e-01 2.382345e-01 3.323449e-01 4.179089e-01 4.932155e-01 5.039754e-01 5.409062e-01 4.060749e-01 5.982971e-01 4.024874e-01 3.847637e-01 1.551461e-01
<GCONST> 1.096728e+02
<STATE> 3
<MEAN> 39
 2.543734e+00 6.244871e+00 7.006908e+00 1.489061e+01 1.472786e+00 -5.532547e+00 -1.886148e+00 -6.514799e+00 -3.195808e+00 5.178811e+00 -3.036860e+00 -6.479657e+00 6.072084e+01 -5.343059e-03 2.789368e-02 6.661753e-02 -1.159028e-02 5.019232e-02 8.625043e-02 -3.776483e-02 -8.960962e-02 -7.785085e-03 -2.459227e-02 -1.641330e-03 2.853447e-02 -1.897773e-02 -1.630322e-03 1.799824e-02 -7.242822e-02 -1.260143e-01 -4.919321e-03 8.895268e-02 1.149138e-02 9.281278e-02 2.793622e-02 -1.055864e-01 1.817098e-02 5.354511e-02 1.102786e-02
<VARIANCE> 39
 2.747314e+00 1.065707e+01 9.500170e+00 1.697928e+01 2.325726e+01 4.229960e+01 3.317723e+01 3.170732e+01 3.504109e+01 3.821560e+01 2.748331e+01 3.464443e+01 7.628078e+00 1.308065e-01 3.293385e-01 4.437364e-01 7.350713e-01 7.908493e-01 1.202079e+00 1.076676e+00 1.265917e+00 1.261296e+00 1.544578e+00 1.310898e+00 1.356022e+00 1.449209e-01 2.394645e-02 4.566255e-02 9.489557e-02 1.460237e-01 1.473731e-01 2.202082e-01 2.038484e-01 2.429352e-01 2.250375e-01 2.740289e-01 2.184365e-01 2.302078e-01 1.910181e-02
<GCONST> 7.811742e+01
<STATE> 4
<NUMMIXES> 2
<MIXTURE> 1 4.196394e-01
<MEAN> 39
 2.248130e+00 4.996403e+00 7.352830e+00 1.511678e+01 3.946170e+00 -5.931281e+00 -3.248461e+00 -5.408122e+00 -5.788603e+00 4.063724e+00 -1.805949e+00 -6.781691e+00 6.163206e+01 6.270404e-02 -2.264297e-01 -9.571641e-01 -1.487157e+00 -6.988763e-01 5.163883e-01 -1.005969e-01 1.349985e+00 6.390864e-01 -1.011268e+00 2.056679e-01 6.477919e-01 7.666807e-01 9.257954e-02 -1.134152e-01 -4.168529e-01 -6.738381e-01 -6.394871e-01 3.629877e-01 -2.335145e-02 6.872684e-01 3.415818e-01 -6.143030e-01 5.079136e-02 3.670946e-01 3.194433e-01
<VARIANCE> 39
 2.320505e+00 1.123775e+01 1.204501e+01 2.038110e+01 2.018210e+01 4.158015e+01 3.602327e+01 2.299860e+01 3.112254e+01 3.476582e+01 2.415499e+01 4.150624e+01 7.569405e+00 2.873805e-01 4.987385e-01 1.305111e+00 1.911800e+00 1.699835e+00 1.820827e+00 1.755181e+00 2.344443e+00 2.062778e+00 2.639413e+00 1.359628e+00 2.431542e+00 4.441537e-01 4.908600e-02 7.776085e-02 2.815013e-01 1.756817e-01 2.662255e-01 3.519551e-01 3.286174e-01 2.422904e-01 3.150262e-01 3.523639e-01 3.050264e-01 3.881351e-01 4.219729e-02
<GCONST> 9.243903e+01
<MIXTURE> 2 5.803605e-01
<MEAN> 39
 1.575903e+00 7.934669e+00 5.493200e+00 1.024555e+01 2.193195e+00 -2.993611e+00 -2.493786e+00 -3.285020e+00 -8.326933e-01 7.668858e-01 -1.970433e+00 -3.873830e+00 6.002085e+01 -3.688878e-01 -1.426192e-01 -5.424211e-01 -1.665095e+00 -8.769637e-01 8.232886e-01 -8.801565e-03 1.488988e+00 4.937781e-01 -1.080615e+00 6.841815e-02 6.966099e-01 3.251726e-01 -1.076996e-01 -4.671084e-02 -3.883128e-02 -2.877518e-02 -1.780393e-01 3.660332e-02 1.862536e-01 8.324205e-03 -1.510203e-01 2.438605e-02 -8.822358e-02 -6.779976e-02 -3.815268e-02
<VARIANCE> 39
 9.063308e+00 2.002266e+01 1.725900e+01 2.629536e+01 2.679819e+01 3.519623e+01 2.498967e+01 3.465451e+01 2.916649e+01 2.813186e+01 2.621712e+01 2.205430e+01 2.476864e+01 1.044039e+00 1.641144e+00 3.127921e+00 2.806746e+00 3.990974e+00 3.404374e+00 2.906778e+00 3.503371e+00 2.980392e+00 4.380707e+00 2.785347e+00 3.092359e+00 1.346799e+00 1.220010e-01 2.363111e-01 3.269187e-01 3.869605e-01 4.845106e-01 5.634689e-01 5.310269e-01 6.650663e-01 4.539692e-01 4.315402e-01 4.319638e-01 4.350106e-01 1.040207e-01
<GCONST> 1.120317e+02
<TRANSP> 5
 0.000000e+00 1.000000e+00 0.000000e+00 0.000000e+00 0.000000e+00
 0.000000e+00 7.798950e-01 2.201050e-01 0.000000e+00 0.000000e+00
 0.000000e+00 0.000000e+00 9.044883e-01 9.551170e-02 0.000000e+00
 0.000000e+00 0.000000e+00 0.000000e+00 7.245697e-01 2.754302e-01
 0.000000e+00 0.000000e+00 0.000000e+00 0.000000e+00 0.000000e+00
<ENDHMM>
~h "n"
<BEGINHMM>
<NUMSTATES> 5
<STATE> 2
<NUMMIXES> 2
<MIXTURE> 1 4.969639e-01
<MEAN> 39
 1.915891e+00 6.758932e+00 8.018207e+00 1.401760e+01 -1.206243e+00 -3.624070e+00 -3.727300e-01 -5.773767e+00 -1.603259e+00 4.796002e+00 -6.900919e+00 -6.431545e+00 6.101090e+01 3.149143e-01 2.695794e-01 6.429241e-01 1.436314e+00 -2.601046e-01 -2.486844e-01 5.164774e-01 -2.014174e+00 -4.071970e-03 2.029201e+00 -1.192850e+00 -3.059146e-01 -7.270420e-01 -1.005340e-01 -1.028460e-01 -1.784124e-01 -5.425882e-01 -2.898210e-01 7.804608e-02 -6.954955e-02 4.639257e-01 4.104691e-02 -5.011589e-01 3.326502e-01 1.909053e-01 3.237377e-01
<VARIANCE> 39
 3.728956e+00 1.227545e+01 1.108630e+01 1.657760e+01 1.904162e+01 2.172310e+01 2.773160e+01 2.839338e+01 3.819365e+01 3.719418e+01 1.935512e+01 2.092302e+01 7.067158e+00 5.698262e-01 9.355814e-01 1.571307e+00 2.008696e+00 1.888848e+00 2.125002e+00 1.956166e+00 3.416813e+00 2.368885e+00 2.762629e+00 2.178971e+00 2.159140e+00 4.267676e-01 7.610507e-02 1.189002e-01 2.009636e-01 2.539489e-01 3.200818e-01 3.449213e-01 3.168025e-01 4.959107e-01 3.326601e-01 4.494842e-01 3.137675e-01 3.059895e-01 5.263922e-02
<GCONST> 9.608928e+01
<MIXTURE> 2 5.030355e-01
<MEAN> 39
 3.674596e-01 5.123384e+00 5.452756e+00 6.357675e+00 -2.631516e+00 -2.436194e+00 -3.110686e+00 3.214969e+00 -1.659845e+00 -3.685050e+00 -1.433868e+00 -4.869420e+00 6.552654e+01 3.644163e-01 5.097693e-01 6.126556e-01 1.538867e+00 1.335535e+00 -5.909306e-01 -5.397508e-02 -1.291786e+00 -1.293992e-01 1.569000e+00 -8.902053e-01 -6.070451e-01 -1.381478e+00 8.347128e-02 4.575761e-02 1.196759e-01 4.615583e-01 -2.659009e-01 7.240114e-02 3.415482e-01 -7.243797e-01 9.945834e-03 6.111992e-01 -3.985400e-01 -3.527400e-02 -1.597682e-01
<VARIANCE> 39
 7.909146e+00 2.055655e+01 2.687923e+01 2.171400e+01 3.526379e+01 4.083431e+01 3.772855e+01 4.482687e+01 5.513770e+01 3.878608e+01 2.998860e+01 2.941962e+01 1.282909e+01 5.489014e-01 8.299665e-01 1.660445e+00 2.270581e+00 2.726553e+00 2.883895e+00 2.486243e+00 4.460603e+00 2.167957e+00 3.296373e+00 2.580149e+00 2.059058e+00 5.806593e-01 1.057761e-01 1.731626e-01 2.576761e-01 3.682166e-01 4.570000e-01 4.775984e-01 3.806852e-01 4.799200e-01 4.154596e-01 3.826766e-01 3.730418e-01 3.225536e-01 1.048724e-01
<GCONST> 1.071591e+02
<STATE> 3
<MEAN> 39
 2.337043e+00 7.303079e+00 8.760565e+00 1.398323e+01 -2.427273e+00 -4.370844e+00 -9.218385e-02 -7.551404e+00 -1.112366e+00 6.907160e+00 -7.722579e+00 -6.119040e+00 6.046056e+01 1.895653e-02 2.469771e-01 -4.374724e-02 -1.090149e-01 4.477955e-02 3.618351e-02 -5.847640e-02 -1.641321e-01 -6.488179e-02 3.289169e-02 1.726314e-01 1.915804e-02 -1.867058e-01 -4.712241e-02 2.923963e-02 -3.526252e-02 -1.297591e-01 8.199839e-02 4.956966e-02 -5.465308e-02 1.612291e-01 -2.746078e-02 -1.912516e-01 1.383043e-01 3.194071e-02 2.306175e-02
<VARIANCE> 39
 3.100755e+00 1.108918e+01 9.672059e+00 1.733394e+01 1.736293e+01 2.177370e+01 2.548941e+01 2.810332e+01 3.392155e+01 3.331655e+01 1.930389e+01 2.260807e+01 6.595157e+00 1.400501e-01 3.129377e-01 4.597413e-01 6.656528e-01 7.434773e-01 9.615821e-01 1.035376e+00 1.281372e+00 1.258721e+00 1.306540e+00 1.045674e+00 1.165294e+00 1.214018e-01 2.970655e-02 5.647959e-02 1.011711e-01 1.648706e-01 1.501792e-01 1.860384e-01 2.140962e-01 2.839551e-01 2.274310e-01 2.873141e-01 2.222807e-01 2.187237e-01 2.015587e-02
<GCONST> 7.554506e+01
<STATE> 4
<NUMMIXES> 2
<MIXTURE> 1 5.404710e-01
<MEAN> 39
 1.367930e+00 1.169877e+01 8.226307e+00 1.116029e+01 6.765761e-01 -1.901905e+00 -8.608637e-01 -7.059978e+00 -1.997424e+00 2.957092e+00 -4.087059e+00 -4.701346e+00 5.669933e+01 -3.519973e-01 2.573784e-01 1.930192e-01 -3.865707e-01 5.589457e-01 2.149729e-01 9.964142e-02 5.629945e-01 -2.300305e-01 -6.932395e-01 2.224271e-01 3.173559e-01 -4.116585e-01 -1.713266e-01 -1.320605e-01 -1.008226e-02 -9.504507e-02 3.988591e-02 -3.343318e-02 3.831865e-02 1.900729e-01 -7.719557e-04 -8.448748e-02 -8.645492e-02 5.763117e-02 3.514512e-02
<VARIANCE> 39
 4.100111e+00 6.736458e+00 7.649385e+00 1.516619e+01 1.903463e+01 2.050283e+01 2.625700e+01 2.890287e+01 3.398192e+01 3.919639e+01 2.046583e+01 2.106924e+01 7.154742e+00 3.905359e-01 6.015899e-01 7.115106e-01 1.152661e+00 1.433663e+00 1.818450e+00 2.024252e+00 2.254262e+00 1.884479e+00 2.156736e+00 1.865403e+00 1.564646e+00 2.026441e-01 6.689466e-02 1.128154e-01 1.556727e-01 2.003928e-01 2.745029e-01 3.291264e-01 3.313430e-01 3.945558e-01 3.457826e-01 4.250966e-01 3.085362e-01 3.037514e-01 3.928176e-02
<GCONST> 8.896884e+01
<MIXTURE> 2 4.595285e-01
<MEAN> 39
 -1.488533e+00 9.185215e+00 8.466899e+00 9.366102e+00 1.189031e+00 -2.423163e+00 -3.726394e-01 -3.318928e+00 -2.001862e+00 1.580100e+00 -5.152067e+00 -4.386736e+00 5.780116e+01 -7.543718e-01 -3.240273e-01 -2.749189e-01 -1.223697e+00 3.751069e-02 1.611236e-01 -3.428639e-01 9.569832e-01 -7.796704e-02 -7.030760e-01 5.923176e-01 3.752094e-01 1.139986e-01 -5.832476e-04 -8.597652e-02 -1.577848e-01 -8.937556e-02 -2.585190e-01 -4.418567e-02 -5.234862e-02 -1.618090e-02 1.156199e-01 -1.115898e-03 8.937155e-02 9.556648e-02 7.342067e-02
<VARIANCE> 39
 1.373714e+01 1.981409e+01 1.975621e+01 3.492629e+01 3.509291e+01 3.741656e+01 3.606571e+01 4.057881e+01 3.665396e+01 5.376248e+01 2.863252e+01 2.964041e+01 1.818809e+01 1.431683e+00 1.704357e+00 2.098690e+00 3.125230e+00 2.934795e+00 3.628022e+00 2.967396e+00 4.049451e+00 3.044255e+00 3.823178e+00 2.806881e+00 2.761713e+00 1.318878e+00 2.476369e-01 2.777441e-01 3.584557e-01 5.892596e-01 5.561352e-01 6.301943e-01 6.343072e-01 7.782884e-01 5.676872e-01 6.666984e-01 5.360770e-01 4.809125e-01 1.881366e-01
<GCONST> 1.179394e+02
<TRANSP> 5
 0.000000e+00 1.000000e+00 0.000000e+00 0.000000e+00 0.000000e+00
 0.000000e+00 7.984288e-01 2.015712e-01 0.000000e+00 0.000000e+00
 0.000000e+00 0.000000e+00 8.704017e-01 1.295984e-01 0.000000e+00
 0.000000e+00 0.000000e+00 0.000000e+00 8.559650e-01 1.440351e-01
 0.000000e+00 0.000000e+00 0.000000e+00 0.000000e+00 0.000000e+00
<ENDHMM>
~h "p"
<BEGINHMM>
<NUMSTATES> 5
<STATE> 2
<NUMMIXES> 2
<MIXTURE> 1 2.713830e-01
<MEAN> 39
 2.506444e+00 5.124452e+00 6.136894e-01 4.028933e+00 7.555054e-01 -3.490778e+00 -5.352991e+00 -1.733142e+00 -9.776427e-01 3.953349e+00 2.750953e+00 -3.275014e+00 6.093979e+01 -9.234701e-01 1.469146e+00 5.451788e-01 2.233654e-01 1.160542e+00 6.560932e-01 9.813885e-01 -7.149702e-01 5.986972e-01 1.173021e-01 -5.827736e-01 3.592535e-01 -2.142126e+00 -2.743658e-01 1.223851e-01 2.141243e-01 -4.447548e-02 -2.848278e-01 2.591472e-02 1.470598e-01 2.026958e-01 -4.835659e-02 -5.358113e-01 -4.381529e-01 2.498452e-01 -9.976077e-02
<VARIANCE> 39
 1.184542e+01 1.500600e+01 3.706230e+01 3.723841e+01 3.207000e+01 6.786666e+01 4.570034e+01 6.922309e+01 3.976379e+01 3.907316e+01 2.216531e+01 1.680047e+01 1.292037e+01 7.700273e-01 1.483913e+00 3.052866e+00 2.287692e+00 2.115089e+00 3.040831e+00 2.627851e+00 5.921053e+00 1.907923e+00 4.590485e+00 2.905364e+00 2.872435e+00 1.116599e+00 1.203964e-01 2.782214e-01 3.142526e-01 3.174999e-01 5.073351e-01 4.617521e-01 4.438013e-01 8.975599e-01 6.087235e-01 5.771730e-01 3.138223e-01 2.956645e-01 1.493329e-01
<GCONST> 1.133465e+02
<MIXTURE> 2 7.286173e-01
<MEAN> 39
 -1.978766e+00 1.051997e+01 6.008747e+00 5.021416e+00 2.102588e+00 -2.381253e+00 4.262827e-01 -8.867399e-01 -1.151455e+00 1.156172e+00 -2.701588e+00 -2.055445e+00 5.424038e+01 -8.236019e-01 -2.623366e-02 -2.569443e-01 -5.759743e-01 -3.558852e-01 -1.012431e-01 4.177045e-01 2.325188e-01 -6.052937e-02 -7.519158e-01 -3.376159e-01 5.153892e-01 -8.467581e-01 1.399025e-01 -3.502040e-01 -2.574788e-01 6.339251e-02 -1.005908e-01 -9.291711e-02 -2.534723e-01 -1.497249e-01 6.649776e-03 7.856227e-03 2.124665e-01 -3.824803e-02 2.281849e-01
<VARIANCE> 39
 1.267350e+01 6.840807e+00 1.588271e+01 2.143864e+01 3.170556e+01 3.089967e+01 3.483303e+01 3.293781e+01 3.070761e+01 2.734134e+01 2.367579e+01 2.326858e+01 4.160978e+00 7.478174e-01 1.389147e+00 1.692310e+00 1.714576e+00 2.415432e+00 2.362973e+00 2.645576e+00 3.473990e+00 2.872860e+00 2.421538e+00 2.645722e+00 2.064143e+00 3.214850e-01 1.135906e-01 2.010781e-01 3.168118e-01 3.425169e-01 4.411154e-01 4.228595e-01 5.034364e-01 5.817904e-01 5.885442e-01 5.672896e-01 5.032130e-01 4.263748e-01 8.561081e-02
<GCONST> 1.039373e+02
<STATE> 3
<MEAN> 39
 -5.386266e+00 7.232784e+00 2.335791e+00 3.200997e+00 -9.908641e-02 -3.758331e+00 -1.982813e+00 -2.655846e+00 -1.276146e+00 -9.144791e-01 -1.387492e+00 6.077861e-02 5.191252e+01 -1.015604e-01 -1.825023e-01 -9.504940e-02 -2.871474e-02 2.210789e-02 1.296799e-01 -1.685338e-03 -2.049078e-01 3.847803e-03 -1.714293e-02 5.855372e-02 1.476890e-02 -1.341840e-01 1.802990e-02 2.569984e-02 7.113650e-02 2.666782e-02 3.291904e-02 1.395487e-02 8.881079e-03 1.477804e-02 -5.953973e-04 7.231979e-02 1.300101e-03 -2.349574e-02 5.687485e-02
<VARIANCE> 39
 7.901265e+00 8.892474e+00 1.262120e+01 1.854830e+01 2.645500e+01 3.521457e+01 3.683144e+01 3.449755e+01 3.373397e+01 3.286115e+01 2.693976e+01 2.185481e+01 3.278279e+00 2.523545e-01 5.681566e-01 1.027421e+00 1.473493e+00 1.636285e+00 2.102158e+00 2.399018e+00 2.640009e+00 2.492568e+00 2.250406e+00 2.395098e+00 1.961054e+00 7.662704e-02 5.184421e-02 1.298136e-01 2.102026e-01 2.946116e-01 3.293152e-01 4.195747e-01 4.755258e-01 5.630190e-01 4.896832e-01 4.347149e-01 5.087804e-01 4.199984e-01 2.147488e-02
<GCONST> 9.419050e+01
<STATE> 4
<NUMMIXES> 2
<MIXTURE> 1 5.166576e-01
<MEAN> 39
 -1.038932e+01 -1.151626e+00 1.362693e+00 1.733476e+00 -7.548745e-01 -4.374981e+00 -3.272220e+00 7.440299e-01 1.719579e+00 1.266228e+00 -4.154176e-01 2.898810e-01 6.305143e+01 1.449555e-01 -6.905118e-01 4.494037e-01 4.113781e-01 -1.561179e-01 -7.556215e-01 -5.196245e-01 8.305479e-01 1.467766e-02 -1.415021e-01 1.682602e-01 -2.394492e-01 1.042329e+00 5.866740e-01 7.423248e-01 1.913676e-01 1.679245e-01 -1.153911e-02 1.245003e-01 1.929974e-01 -2.202057e-01 -2.905289e-01 -2.113222e-01 2.993634e-02 -1.140642e-01 -6.792742e-01
<VARIANCE> 39
 1.952650e+01 2.414410e+01 2.519502e+01 3.712653e+01 3.298747e+01 4.542523e+01 3.835283e+01 4.341875e+01 3.814526e+01 4.321214e+01 2.723620e+01 2.706584e+01 2.452057e+01 3.743482e+00 3.518082e+00 2.728337e+00 4.320568e+00 3.655013e+00 4.340544e+00 3.981785e+00 4.359074e+00 3.556313e+00 3.735002e+00 2.850657e+00 2.817147e+00 5.023869e+00 2.569763e-01 4.470875e-01 3.742495e-01 7.129759e-01 6.888556e-01 8.296192e-01 8.194901e-01 7.472100e-01 6.105933e-01 6.898675e-01 5.975147e-01 6.016915e-01 5.797454e-01
<GCONST> 1.265932e+02
<MIXTURE> 2 4.833428e-01
<MEAN> 39
 -5.848893e+00 6.952909e+00 2.405176e+00 2.922000e+00 7.092960e-01 -1.656481e+00 1.501331e-01 -2.202978e+00 -6.351995e-01 -5.998514e-01 -1.097662e+00 4.290859e-02 5.143746e+01 -6.434298e-01 -9.655297e-01 -7.655395e-02 -2.046613e-01 -2.862945e-02 -4.996521e-02 -3.123079e-01 4.044164e-01 5.177224e-01 5.098109e-01 2.275497e-01 2.036529e-01 1.664155e+00 -1.561313e-01 -4.594253e-01 4.483214e-03 -5.334929e-02 -1.594387e-01 -3.023119e-01 -2.534336e-01 3.548820e-01 8.757979e-02 3.287306e-02 2.478736e-02 3.617679e-02 8.421319e-01
<VARIANCE> 39
 6.480481e+00 1.082941e+01 1.166229e+01 1.682401e+01 1.941234e+01 2.900041e+01 3.917308e+01 3.129778e+01 3.169423e+01 2.578504e+01 1.863574e+01 2.066143e+01 3.481806e+00 9.718373e-01 1.846758e+00 1.322909e+00 1.979658e+00 2.647794e+00 3.850499e+00 4.183934e+00 3.756479e+00 2.782378e+00 3.322776e+00 2.212672e+00 2.233757e+00 3.777099e+00 2.458144e-01 2.004839e-01 2.981682e-01 4.392765e-01 3.457756e-01 6.907349e-01 7.738760e-01 6.968864e-01 5.376906e-01 5.360434e-01 3.964724e-01 4.266675e-01 2.220992e-01
<GCONST> 1.087163e+02
<TRANSP> 5
 0.000000e+00 1.000000e+00 0.000000e+00 0.000000e+00 0.000000e+00
 0.000000e+00 8.275090e-01 1.724910e-01 0.000000e+00 0.000000e+00
 0.000000e+00 0.000000e+00 9.047735e-01 9.522642e-02 0.000000e+00
 0.000000e+00 0.000000e+00 0.000000e+00 8.568991e-01 1.431009e-01
 0.000000e+00 0.000000e+00 0.000000e+00 0.000000e+00 0.000000e+00
<ENDHMM>
~h "r"
<BEGINHMM>
<NUMSTATES> 5
<STATE> 2
<NUMMIXES> 2
<MIXTURE> 1 5.850220e-01
<MEAN> 39
 -4.496748e+00 -7.173740e-01 9.040857e-01 6.352551e+00 1.871670e+00 -1.199503e+00 -4.682573e+00 -1.420343e+00 2.793833e+00 1.451199e+00 -9.543992e-01 -1.406807e+00 5.861444e+01 1.589370e+00 9.751510e-01 8.910481e-02 4.254980e-01 1.347120e-01 5.557156e-03 1.085825e-02 -8.658503e-02 -3.605258e-01 -1.224220e-01 2.407556e-01 4.429043e-02 5.716182e-02 1.184239e-01 -1.579632e-02 -1.342197e-01 -1.417561e-01 -3.277921e-01 -2.231135e-01 -4.947665e-02 2.233424e-03 -2.072257e-01 -4.997290e-02 1.676658e-01 1.886486e-01 2.047644e-01
<VARIANCE> 39
 2.577754e+01 4.297270e+01 2.898344e+01 3.326205e+01 3.133884e+01 4.752287e+01 3.850060e+01 4.711071e+01 4.546964e+01 3.533298e+01 3.329227e+01 3.121738e+01 2.004121e+01 3.368382e+00 2.505372e+00 2.043222e+00 2.787677e+00 2.848772e+00 3.597845e+00 3.086894e+00 2.616416e+00 3.505536e+00 3.168928e+00 2.817495e+00 2.662864e+00 1.160749e+00 2.610829e-01 5.325170e-01 4.433354e-01 5.873421e-01 6.091729e-01 6.047982e-01 5.781615e-01 4.881049e-01 6.477031e-01 5.160496e-01 5.662622e-01 5.393392e-01 1.748003e-01
<GCONST> 1.209461e+02
<MIXTURE> 2 4.149773e-01
<MEAN> 39
 6.298084e+00 2.027639e+00 -1.305154e+00 7.032094e+00 -3.925490e+00 -4.551304e+00 -6.638884e+00 -1.115245e+00 -2.356822e+00 5.928670e-01 3.379537e+00 7.517911e-01 6.514043e+01 8.291633e-01 -4.474087e-01 -6.195914e-01 -8.752941e-02 -1.058249e+00 -8.056011e-01 -6.006320e-01 1.000673e-01 -2.517044e-01 1.086849e-01 9.280629e-01 4.472527e-01 5.378431e-01 -5.861635e-01 -1.816574e-01 1.909231e-01 -3.723766e-02 2.126945e-01 2.013488e-01 1.497134e-01 1.385375e-01 2.748301e-01 -3.714160e-02 -2.277435e-01 -2.429339e-01 -1.804588e-01
<VARIANCE> 39
 7.949827e+00 1.928418e+01 5.317598e+01 2.461825e+01 3.174549e+01 9.035122e+01 4.457514e+01 4.782960e+01 4.388733e+01 3.644831e+01 4.203135e+01 2.707695e+01 1.100807e+01 1.440975e+00 1.194362e+00 2.095751e+00 1.737410e+00 2.709556e+00 2.784246e+00 2.525911e+00 2.738140e+00 3.222757e+00 2.469579e+00 2.559372e+00 2.295828e+00 7.900836e-01 2.608236e-01 3.217652e-01 2.169338e-01 2.702780e-01 2.939303e-01 4.206995e-01 3.698339e-01 3.773845e-01 3.769518e-01 3.735884e-01 4.114445e-01 3.085912e-01 6.422395e-02
<GCONST> 1.095825e+02
<STATE> 3
<MEAN> 39
 7.085078e+00 2.260813e+00 -4.784730e+00 6.181530e+00 -2.538903e+00 -1.469164e+00 -7.443388e+00 -2.456363e+00 -3.057982e+00 2.151693e+00 4.369916e+00 5.847499e-01 6.492336e+01 -1.845845e-02 -2.183397e-01 2.316128e-01 2.079158e-01 -1.054370e-01 -3.941081e-01 -2.158567e-01 3.054068e-01 3.757670e-01 -7.813803e-02 -2.821251e-01 -1.725363e-01 4.157998e-02 -6.933808e-02 2.701829e-02 1.139419e-01 -2.716406e-02 -1.183354e-02 -2.368949e-02 7.810842e-02 7.891046e-02 7.097194e-03 -1.186431e-01 -7.639962e-02 1.033375e-02 -1.492142e-02
<VARIANCE> 39
 5.676593e+00 1.707956e+01 3.007902e+01 1.555036e+01 2.850921e+01 5.998149e+01 4.291967e+01 5.120203e+01 5.727077e+01 4.021079e+01 6.144855e+01 3.618110e+01 9.724233e+00 1.995786e-01 5.148222e-01 7.817337e-01 9.428984e-01 9.736610e-01 1.802448e+00 1.678251e+00 1.671688e+00 1.826976e+00 2.003490e+00 2.090150e+00 1.472547e+00 2.095171e-01 3.004196e-02 5.499227e-02 8.940551e-02 1.079332e-01 1.450806e-01 2.001254e-01 2.131072e-01 2.763221e-01 2.551227e-01 2.827839e-01 2.850705e-01 2.351547e-01 1.650641e-02
<GCONST> 8.828080e+01
<STATE> 4
<NUMMIXES> 2
<MIXTURE> 1 6.206003e-01
<MEAN> 39
 4.640493e+00 -1.482898e+00 7.454443e+00 8.228543e+00 -1.276554e+01 -1.383486e+01 -3.475269e+00 4.573497e+00 -6.412584e-01 -4.634059e+00 5.867612e+00 3.096557e+00 6.695648e+01 -7.053841e-02 9.961595e-02 1.480204e-01 -5.960804e-02 -2.205239e-01 1.039223e-01 2.279805e-01 -6.642628e-02 -1.317975e-01 9.334379e-02 3.990280e-02 2.268011e-02 -5.359549e-02 -1.353282e-02 6.196615e-02 -2.971053e-02 -1.687424e-02 6.840882e-02 5.000455e-02 -4.436868e-02 -5.391373e-02 1.148364e-02 8.462533e-02 -4.036541e-02 -2.460972e-02 -2.390570e-02
<VARIANCE> 39
 5.786516e+00 1.561239e+01 3.581766e+01 1.747304e+01 3.133216e+01 3.831279e+01 4.279570e+01 4.009605e+01 5.373848e+01 2.309145e+01 4.073486e+01 2.910249e+01 7.495275e+00 1.644119e-01 3.499462e-01 5.626053e-01 4.880724e-01 8.558105e-01 8.969826e-01 1.008434e+00 1.078409e+00 1.188021e+00 1.036870e+00 1.283522e+00 9.374600e-01 1.370333e-01 1.523525e-02 3.618646e-02 5.402747e-02 6.805137e-02 9.784135e-02 1.228747e-01 1.339939e-01 1.358037e-01 1.459083e-01 1.431753e-01 1.598983e-01 1.331210e-01 1.075779e-02
<GCONST> 7.366467e+01
<MIXTURE> 2 3.794006e-01
<MEAN> 39
 5.348012e+00 1.542212e-01 7.393422e-01 9.084401e+00 -5.598514e+00 -6.915938e+00 -8.330072e+00 4.292809e+00 8.650071e-01 -1.530427e+00 5.968141e-01 -9.176453e-02 6.542336e+01 -6.387960e-01 2.691399e-01 1.127216e+00 5.116363e-02 -1.633790e-01 -6.785738e-01 7.063051e-01 5.654836e-01 -1.014442e-01 -7.969670e-01 -1.784794e-03 4.563616e-01 -2.112646e-01 -1.658735e-01 2.546459e-01 1.631448e-02 -1.463716e-01 1.582329e-01 2.545973e-01 2.416789e-01 -3.258038e-01 -2.243572e-01 1.361975e-01 1.318855e-01 1.561283e-02 -1.244180e-01
<VARIANCE> 39
 7.315910e+00 1.704397e+01 3.326311e+01 2.636331e+01 3.082423e+01 6.532224e+01 5.506245e+01 4.941904e+01 4.906308e+01 4.323460e+01 3.644905e+01 3.052699e+01 1.317454e+01 4.158886e-01 8.650206e-01 1.173565e+00 1.120132e+00 2.003347e+00 2.445800e+00 2.268805e+00 2.927563e+00 2.213138e+00 2.308805e+00 2.209092e+00 1.893480e+00 5.715101e-01 6.490115e-02 1.087347e-01 1.284378e-01 2.032283e-01 2.375679e-01 3.645000e-01 3.655670e-01 4.504713e-01 3.446208e-01 3.328863e-01 2.965517e-01 2.802328e-01 6.126565e-02
<GCONST> 1.009897e+02
<TRANSP> 5
 0.000000e+00 1.000000e+00 0.000000e+00 0.000000e+00 0.000000e+00
 0.000000e+00 7.927541e-01 2.072459e-01 0.000000e+00 0.000000e+00
 0.000000e+00 0.000000e+00 8.123049e-01 1.876951e-01 0.000000e+00
 0.000000e+00 0.000000e+00 0.000000e+00 8.390774e-01 1.609227e-01
 0.000000e+00 0.000000e+00 0.000000e+00 0.000000e+00 0.000000e+00
<ENDHMM>
~h "s"
<BEGINHMM>
<NUMSTATES> 5
<STATE> 2
<NUMMIXES> 2
<MIXTURE> 1 4.087848e-01
<MEAN> 39
 -4.764898e+00 1.042040e+01 7.690279e+00 4.130668e+00 1.627236e+00 -6.383255e+00 -4.641833e-01 1.537467e+00 -2.016581e+00 2.426687e+00 -9.989799e-01 5.365617e-01 6.348528e+01 -2.632384e+00 4.490221e-01 2.226217e-01 -6.861544e-01 1.791287e+00 3.014931e-01 1.098808e+00 1.967205e-01 -7.304367e-02 -5.374169e-01 -5.575789e-01 8.820678e-02 8.233586e-02 -5.442907e-01 -2.452302e-01 -3.375215e-01 -2.449704e-01 -2.461435e-01 -3.201753e-02 -9.189776e-02 -1.625287e-01 -2.356245e-01 -1.956247e-01 8.490528e-02 -7.158533e-02 2.407871e-01
<VARIANCE> 39
 2.141707e+01 1.873219e+01 2.677996e+01 2.970240e+01 6.382158e+01 6.092758e+01 4.393914e+01 3.986481e+01 4.049890e+01 3.078639e+01 3.717412e+01 3.481283e+01 1.343614e+01 1.589592e+00 1.344773e+00 2.276610e+00 2.239521e+00 3.557755e+00 3.859010e+00 2.425585e+00 3.479384e+00 3.187171e+00 3.453744e+00 3.400397e+00 2.775227e+00 5.579135e-01 1.910989e-01 1.845718e-01 2.918892e-01 3.947611e-01 5.897934e-01 5.915608e-01 5.075039e-01 4.877250e-01 4.869679e-01 5.580208e-01 5.987438e-01 4.555403e-01 6.962741e-02
<GCONST> 1.149558e+02
<MIXTURE> 2 5.912167e-01
<MEAN> 39
 -1.827342e+01 9.969484e+00 4.164359e+00 -6.728967e-01 4.316672e+00 -5.606840e+00 5.811950e-01 5.097876e-01 -3.777748e+00 -4.679770e-01 -1.766325e+00 3.547324e-01 6.484251e+01 -2.460704e+00 1.428283e-01 -9.236380e-01 -1.053681e+00 1.755536e-01 -1.968855e-01 -2.173453e-01 -2.321628e-01 -5.141399e-01 -1.051274e-01 -9.719286e-02 1.719180e-02 6.030158e-01 5.445471e-01 -3.025554e-02 4.666495e-02 1.475915e-01 -1.224754e-01 8.151947e-02 -1.036323e-01 -8.065158e-03 7.726303e-02 1.754087e-01 6.675962e-03 -3.486335e-02 -1.104731e-01
<VARIANCE> 39
 2.549835e+01 3.766923e+01 3.563285e+01 4.847249e+01 4.277490e+01 5.033504e+01 6.075229e+01 4.469129e+01 4.090556e+01 3.759824e+01 3.176904e+01 3.204197e+01 1.253771e+01 1.833052e+00 2.858729e+00 1.945294e+00 2.401823e+00 2.807960e+00 3.112634e+00 3.030141e+00 2.997609e+00 2.839650e+00 2.952839e+00 2.728085e+00 2.282562e+00 5.854605e-01 2.360611e-01 5.720180e-01 3.610108e-01 4.433310e-01 6.042989e-01 6.427969e-01 6.327541e-01 5.546758e-01 5.397389e-01 5.450299e-01 5.413358e-01 4.500997e-01 1.080219e-01
<GCONST> 1.186768e+02
<STATE> 3
<MEAN> 39
 -2.421953e+01 9.437390e+00 1.172010e+00 -3.510701e+00 5.212161e+00 -5.873222e+00 7.623742e-01 6.447287e-01 -4.414768e+00 6.495386e-01 -2.305158e+00 3.697658e-01 6.625438e+01 -1.579328e-01 -2.594010e-01 -3.951851e-02 -1.669604e-01 -8.580022e-02 1.091842e-01 -5.942065e-02 1.219328e-01 9.686956e-02 3.092763e-02 3.087415e-02 -1.893343e-02 1.616835e-02 1.373172e-01 -5.283231e-02 7.181465e-02 4.737153e-02 -8.593648e-02 -3.531045e-02 -1.643570e-02 3.596342e-02 4.067987e-02 -2.363520e-02 3.714331e-02 1.569158e-02 -5.991589e-02
<VARIANCE> 39
 6.479416e+00 1.862011e+01 3.159478e+01 4.027479e+01 3.305950e+01 4.405589e+01 5.546191e+01 4.586399e+01 4.337840e+01 3.856617e+01 2.948326e+01 2.904927e+01 6.982608e+00 3.584824e-01 1.115776e+00 1.111179e+00 1.531728e+00 2.007770e+00 2.414032e+00 2.457031e+00 2.858462e+00 2.503908e+00 2.772884e+00 2.383975e+00 1.963947e+00 1.764472e-01 7.836001e-02 1.487353e-01 2.112200e-01 3.041028e-01 3.611932e-01 4.758815e-01 4.633267e-01 5.705458e-01 4.959119e-01 5.638914e-01 4.713975e-01 3.876175e-01 2.726924e-02
<GCONST> 1.028876e+02
<STATE> 4
<NUMMIXES> 2
<MIXTURE> 1 4.229068e-01
<MEAN> 39
 -1.332582e+01 6.388349e+00 1.561638e+00 -9.789166e-01 1.872473e+00 -6.577477e+00 -1.910913e+00 1.034358e+00 -2.511690e+00 1.406010e+00 -2.150717e+00 -1.717760e-01 5.800460e+01 2.069800e+00 4.531635e-01 1.668497e-01 1.098480e+00 -7.425307e-02 4.779817e-01 5.729822e-02 -7.513635e-03 1.789012e-01 -1.954655e-02 -2.868899e-01 -3.446734e-01 -9.657679e-01 -1.580651e-01 8.853693e-02 5.850943e-02 -3.163981e-03 -5.116546e-02 1.241597e-02 4.163910e-02 2.875629e-02 2.380254e-02 2.113546e-02 9.617956e-02 -9.875918e-03 4.574054e-01
<VARIANCE> 39
 1.061749e+01 3.846417e+01 2.627696e+01 3.515162e+01 4.012176e+01 3.353711e+01 4.754131e+01 4.451390e+01 4.111458e+01 3.396162e+01 3.146728e+01 2.820734e+01 1.519263e+01 2.511125e+00 2.773094e+00 2.804605e+00 3.478343e+00 3.381855e+00 3.043282e+00 2.889520e+00 3.357351e+00 2.689342e+00 3.115578e+00 2.708976e+00 2.408084e+00 1.330350e+00 3.539233e-01 3.944528e-01 4.007321e-01 5.880677e-01 6.702955e-01 5.329739e-01 5.691096e-01 5.955588e-01 5.175561e-01 6.098087e-01 4.878627e-01 5.195075e-01 1.833083e-01
<GCONST> 1.194914e+02
<MIXTURE> 2 5.770951e-01
<MEAN> 39
 -2.255927e+01 5.319898e+00 2.677180e+00 -3.990973e+00 1.711238e+00 -5.588294e+00 -1.586550e+00 2.265597e+00 -2.243417e+00 1.664900e-01 -1.074900e+00 8.437977e-01 6.516486e+01 1.536484e+00 -4.807855e-01 1.657546e-01 3.764636e-01 -5.788459e-01 -3.046716e-01 -3.991115e-01 1.239400e-01 3.420499e-01 4.533860e-02 -1.507114e-03 -7.630119e-03 -9.214188e-01 5.198313e-01 1.975493e-01 -4.060967e-02 2.473038e-01 1.160228e-01 1.172394e-01 -2.456473e-02 -9.958341e-02 -3.326464e-02 3.803388e-02 -1.472015e-01 -1.340504e-01 -2.491818e-01
<VARIANCE> 39
 1.291407e+01 4.940462e+01 3.901273e+01 3.559486e+01 4.050724e+01 5.841455e+01 5.409931e+01 5.373691e+01 5.166099e+01 4.215475e+01 3.333344e+01 3.075879e+01 8.305097e+00 1.605466e+00 2.292497e+00 2.028591e+00 2.422613e+00 2.797412e+00 3.788083e+00 2.990328e+00 3.227179e+00 2.933319e+00 3.354931e+00 2.574941e+00 2.684300e+00 7.271963e-01 2.136572e-01 5.253142e-01 4.447502e-01 4.941571e-01 5.773069e-01 7.772327e-01 6.020411e-01 6.657587e-01 5.437778e-01 7.004715e-01 5.137821e-01 4.936974e-01 8.789594e-02
<GCONST> 1.190888e+02
<TRANSP> 5
 0.000000e+00 1.000000e+00 0.000000e+00 0.000000e+00 0.000000e+00
 0.000000e+00 8.575034e-01 1.424966e-01 0.000000e+00 0.000000e+00
 0.000000e+00 0.000000e+00 9.137735e-01 8.622649e-02 0.000000e+00
 0.000000e+00 0.000000e+00 0.000000e+00 8.595205e-01 1.404794e-01
 0.000000e+00 0.000000e+00 0.000000e+00 0.000000e+00 0.000000e+00
<ENDHMM>
~h "t"
<BEGINHMM>
<NUMSTATES> 5
<STATE> 2
<NUMMIXES> 2
<MIXTURE> 1 3.567199e-01
<MEAN> 39
 -3.454421e+00 7.793516e+00 6.079049e+00 3.988328e+00 -2.613080e+00 -3.526803e+00 -2.071340e+00 3.581830e-02 -4.734488e-01 -8.602178e-01 -1.114135e+00 -1.357471e-01 5.907847e+01 -2.784993e-01 5.081455e-01 -3.868536e-01 -8.138862e-02 8.293336e-01 2.054960e-01 8.104859e-03 -4.333785e-01 -6.155207e-02 8.476184e-02 -2.982447e-01 4.217252e-02 -1.518535e+00 4.123676e-02 -2.188662e-01 -2.567084e-01 -2.692105e-02 -1.961408e-01 -6.681364e-02 4.326260e-02 -3.675985e-02 -2.230633e-02 -3.747895e-02 6.847692e-02 -1.584763e-02 9.141865e-02
<VARIANCE> 39
 2.971301e+01 2.487885e+01 3.723200e+01 3.726279e+01 4.939884e+01 5.002956e+01 4.826959e+01 4.647655e+01 4.638180e+01 3.378835e+01 4.197312e+01 3.001814e+01 2.732875e+01 2.033848e+00 2.285464e+00 3.083362e+00 3.013266e+00 4.638358e+00 4.287941e+00 4.126771e+00 4.097773e+00 3.581575e+00 2.910475e+00 3.446988e+00 2.892354e+00 1.715090e+00 3.726257e-01 4.629291e-01 4.831406e-01 5.703690e-01 8.811888e-01 8.538681e-01 7.375808e-01 7.843109e-01 6.970860e-01 5.781304e-01 6.625555e-01 5.288171e-01 3.514114e-01
<GCONST> 1.267354e+02
<MIXTURE> 2 6.432765e-01
<MEAN> 39
 -5.653223e+00 7.424280e+00 2.483266e+00 2.762033e+00 -1.107231e+00 -4.555790e+00 -1.912313e+00 -2.115150e+00 -1.187046e+00 -9.283315e-01 -1.121857e+00 1.200226e-01 5.260378e+01 -1.567816e-01 -2.544370e-01 -2.222503e-01 -9.759985e-02 -8.908154e-02 1.228601e-02 6.979002e-03 -9.997492e-02 8.672042e-02 1.711031e-02 9.999228e-02 7.305785e-02 -2.314757e-01 -3.375293e-02 -5.621329e-02 1.230244e-01 -2.328957e-02 3.534363e-02 1.091739e-01 -7.914805e-03 3.277057e-02 1.181957e-02 2.267287e-02 2.195561e-02 -2.258486e-02 1.947254e-01
<VARIANCE> 39
 1.100534e+01 1.132988e+01 1.570149e+01 2.038873e+01 2.484582e+01 3.073176e+01 3.755270e+01 3.863931e+01 3.619139e+01 3.231909e+01 2.829915e+01 2.158891e+01 3.366030e+00 3.862126e-01 6.614069e-01 1.127792e+00 1.639628e+00 2.001576e+00 2.233359e+00 2.351229e+00 2.602815e+00 2.377796e+00 2.642006e+00 2.421053e+00 1.901096e+00 1.417559e-01 7.844307e-02 1.863771e-01 2.458426e-01 3.325411e-01 3.909155e-01 4.959216e-01 5.060006e-01 5.535741e-01 4.902953e-01 5.775307e-01 4.920329e-01 3.810829e-01 8.457969e-02
<GCONST> 9.980428e+01
<STATE> 3
<MEAN> 39
 -6.067547e+00 7.116822e+00 2.713271e+00 2.970417e+00 -1.007445e-01 -3.336465e+00 -1.385804e+00 -2.278242e+00 -9.398963e-01 -1.341307e-01 -8.549897e-01 4.928060e-02 5.229835e+01 -1.140758e+00 -2.230011e+00 6.494286e-02 -1.390223e+00 -2.250385e-01 7.075564e-01 3.276831e-02 3.139671e-01 -1.864168e-02 2.560279e-01 3.654674e-01 4.157059e-01 2.411375e+00 -6.850628e-01 -5.006805e-01 1.722250e-01 -5.279433e-01 -3.348441e-01 -1.161900e-01 1.909080e-02 2.461293e-01 -7.703119e-02 6.540071e-02 3.008783e-02 1.519054e-01 1.177166e+00
<VARIANCE> 39
 1.049781e+01 1.302350e+01 1.600044e+01 2.044815e+01 2.280308e+01 2.977239e+01 3.135116e+01 3.313334e+01 3.504167e+01 3.393721e+01 2.523141e+01 2.403208e+01 4.568221e+00 1.999608e+00 4.469544e+00 2.560186e+00 4.214229e+00 3.408478e+00 4.005206e+00 3.114394e+00 3.787609e+00 3.444407e+00 3.278514e+00 2.448313e+00 2.316010e+00 5.452816e+00 2.060116e-01 5.199440e-01 3.360321e-01 5.416875e-01 6.091665e-01 6.855744e-01 5.700504e-01 6.940016e-01 5.985397e-01 6.463079e-01 4.837753e-01 4.816414e-01 2.862783e-01
<GCONST> 1.169703e+02
<STATE> 4
<NUMMIXES> 2
<MIXTURE> 1 6.250963e-01
<MEAN> 39
 -1.635613e+01 -2.552140e-01 6.786641e+00 -3.220309e-01 -4.794000e+00 -5.719900e+00 -7.072649e-01 2.435765e+00 -1.653705e+00 -1.385434e-01 -6.632926e-01 1.181956e+00 6.451253e+01 1.238167e+00 8.025838e-01 7.699244e-01 1.786985e+00 2.808408e-01 -2.106217e-01 5.710629e-02 2.209304e-01 -3.094317e-02 -3.796850e-01 -3.809606e-01 -5.561259e-01 -1.364997e+00 9.323962e-01 2.512421e-01 -1.768154e-01 3.387564e-01 1.721584e-01 2.258556e-01 -1.888196e-01 -2.542855e-01 4.343454e-03 -3.557413e-02 1.653777e-02 -1.347151e-01 -3.728024e-01
<VARIANCE> 39
 3.733720e+01 3.515852e+01 3.131186e+01 4.505947e+01 3.579220e+01 3.830960e+01 4.097118e+01 4.424997e+01 4.697892e+01 4.497186e+01 3.328166e+01 3.070656e+01 2.230696e+01 4.328542e+00 3.090497e+00 3.469391e+00 4.340549e+00 3.628487e+00 4.320407e+00 3.152230e+00 3.061782e+00 3.073967e+00 2.895613e+00 2.448029e+00 2.692847e+00 1.619938e+00 8.065057e-01 5.328862e-01 5.620856e-01 8.620130e-01 7.351035e-01 7.550802e-01 6.431426e-01 6.574628e-01 6.256665e-01 6.934840e-01 5.471045e-01 5.916399e-01 7.936822e-01
<GCONST> 1.281921e+02
<MIXTURE> 2 3.749021e-01
<MEAN> 39
 -1.370224e+01 -4.770538e+00 3.022064e+00 -5.209200e+00 -2.656758e+00 -6.278524e-01 -1.827586e+00 -2.913431e-01 -1.438783e+00 8.241880e-01 1.387578e-01 1.797020e+00 6.805382e+01 -2.655815e+00 -1.029489e+00 6.931604e-01 -1.388567e+00 -1.351395e+00 -8.510954e-01 1.585365e-01 1.056728e+00 -1.801798e-01 9.102917e-02 2.588904e-01 5.176347e-01 3.395017e+00 5.195376e-01 1.263613e+00 3.617794e-01 1.111372e+00 9.502301e-02 -4.901977e-01 7.621828e-02 -8.145723e-03 -2.169992e-02 -2.017880e-01 -1.935516e-01 -2.683536e-01 -1.423528e+00
<VARIANCE> 39
 2.714584e+01 4.522695e+01 4.005579e+01 5.169205e+01 4.724347e+01 4.177388e+01 3.652924e+01 3.067796e+01 3.116475e+01 3.039568e+01 2.188968e+01 1.879019e+01 3.152745e+01 2.479347e+00 4.732802e+00 3.113667e+00 4.042161e+00 3.938688e+00 3.717697e+00 3.695227e+00 4.012211e+00 4.057108e+00 4.065435e+00 2.969769e+00 2.874412e+00 3.495132e+00 8.590212e-01 6.625589e-01 6.795985e-01 1.092657e+00 9.654342e-01 8.866619e-01 6.872318e-01 6.721309e-01 6.945164e-01 6.099452e-01 4.608296e-01 4.936986e-01 7.288233e-01
<GCONST> 1.294880e+02
<TRANSP> 5
 0.000000e+00 1.000000e+00 0.000000e+00 0.000000e+00 0.000000e+00
 0.000000e+00 8.812131e-01 1.187869e-01 0.000000e+00 0.000000e+00
 0.000000e+00 0.000000e+00 6.303642e-01 3.696359e-01 0.000000e+00
 0.000000e+00 0.000000e+00 0.000000e+00 8.184276e-01 1.815724e-01
 0.000000e+00 0.000000e+00 0.000000e+00 0.000000e+00 0.000000e+00
<ENDHMM>
~h "v"
<BEGINHMM>
<NUMSTATES> 5
<STATE> 2
<NUMMIXES> 2
<MIXTURE> 1 6.285322e-01
<MEAN> 39
 4.564222e+00 6.262174e+00 -6.539742e-01 6.296699e+00 -6.308352e-01 -5.339120e+00 -7.807343e+00 -2.650057e+00 -7.378471e-01 4.311019e+00 4.469366e+00 -3.073204e+00 6.195362e+01 -2.522485e-01 6.772169e-01 1.912741e-01 -1.545537e-01 8.462611e-01 5.841955e-01 3.770384e-01 -8.254605e-01 -8.617911e-02 3.642439e-01 2.180878e-01 3.749100e-01 -8.044254e-01 -1.901264e-01 -1.085540e-01 2.382848e-01 3.816451e-02 -1.484436e-01 9.840896e-02 2.482696e-01 1.597995e-01 -3.225253e-02 -2.803896e-01 -1.383834e-01 1.212772e-01 9.793323e-02
<VARIANCE> 39
 8.439867e+00 1.347407e+01 2.476450e+01 1.254533e+01 1.901377e+01 4.322252e+01 3.304858e+01 3.332838e+01 3.551859e+01 2.750491e+01 2.741320e+01 2.603272e+01 1.149507e+01 4.018008e-01 5.355440e-01 8.206614e-01 9.402401e-01 1.334110e+00 1.885517e+00 1.772122e+00 2.527907e+00 2.346928e+00 2.560122e+00 1.644930e+00 1.931135e+00 2.773712e-01 3.053668e-02 7.775771e-02 1.059675e-01 1.320757e-01 1.824445e-01 2.759975e-01 2.726638e-01 3.434507e-01 3.969009e-01 3.198639e-01 2.766275e-01 2.971477e-01 2.291555e-02
<GCONST> 9.004802e+01
<MIXTURE> 2 3.714677e-01
<MEAN> 39
 3.603670e+00 1.327896e+00 4.622088e+00 8.738916e+00 -9.308514e+00 -1.186610e+01 -7.357399e+00 5.244726e+00 -2.598232e+00 -3.254695e+00 4.999503e+00 1.880231e-02 6.699531e+01 4.771225e-01 5.197167e-01 -8.796929e-01 7.759374e-02 1.529396e+00 3.571127e-01 -9.899799e-01 -4.087987e-01 7.438353e-01 6.375277e-01 -1.690651e-01 -4.927386e-01 -8.966064e-01 -6.296334e-02 1.948660e-01 2.935424e-02 -2.163190e-01 1.887527e-01 2.235453e-01 2.094868e-01 -4.444938e-01 4.230095e-02 3.997541e-01 -5.059247e-03 -1.084984e-01 -1.646422e-01
<VARIANCE> 39
 6.357918e+00 2.083354e+01 3.886057e+01 1.143441e+01 2.183985e+01 8.465781e+01 6.185408e+01 6.782198e+01 4.754949e+01 2.710627e+01 5.058007e+01 2.773757e+01 1.549375e+01 1.791839e-01 4.440877e-01 5.942251e-01 9.592841e-01 7.644597e-01 1.674922e+00 1.255048e+00 3.074581e+00 1.929331e+00 1.922521e+00 2.169519e+00 1.112312e+00 3.897622e-01 2.864341e-02 3.751389e-02 1.011511e-01 1.288154e-01 1.391377e-01 2.710555e-01 2.536911e-01 2.756918e-01 3.043936e-01 2.021026e-01 3.313844e-01 1.813365e-01 2.745455e-02
<GCONST> 8.911662e+01
<STATE> 3
<MEAN> 39
 -2.210672e+00 8.088695e+00 5.046474e+00 6.264942e+00 1.932365e+00 -2.332636e+00 -3.178015e+00 -3.012261e+00 -1.375851e-02 2.093539e+00 1.396911e+00 1.187053e-01 5.886300e+01 -7.960994e-01 -2.773243e-01 3.260990e-01 -4.881717e-02 1.677904e-01 3.343313e-01 3.190745e-01 4.367054e-02 -2.699191e-02 -4.246119e-01 -3.111700e-01 9.482424e-02 5.226816e-02 6.881297e-02 -1.171776e-01 -1.328404e-01 -3.031938e-02 -1.362312e-01 -1.135651e-01 -1.072120e-01 4.771422e-02 -2.182813e-02 5.860813e-02 8.125961e-03 -1.269735e-01 1.422104e-01
<VARIANCE> 39
 2.148631e+01 9.449223e+00 1.519645e+01 1.350664e+01 1.932554e+01 2.665438e+01 2.611975e+01 2.528563e+01 3.049384e+01 3.129309e+01 2.786481e+01 2.277741e+01 1.172431e+01 5.664654e-01 5.969296e-01 1.080979e+00 1.114452e+00 1.401853e+00 2.426209e+00 2.173710e+00 2.219545e+00 3.025001e+00 2.778195e+00 2.421885e+00 1.860022e+00 3.430364e-01 6.808136e-02 9.600601e-02 1.714393e-01 2.072880e-01 2.613547e-01 4.245989e-01 3.495040e-01 3.905027e-01 5.745350e-01 5.815152e-01 4.292646e-01 3.783532e-01 3.272089e-02
<GCONST> 9.640028e+01
<STATE> 4
<NUMMIXES> 2
<MIXTURE> 1 6.307089e-01
<MEAN> 39
 6.061725e+00 8.356377e+00 -3.090951e+00 3.082793e+00 -2.185325e+00 -2.732329e+00 -3.703312e+00 -5.222324e+00 -4.973757e+00 4.853224e+00 7.299980e+00 -2.768427e-01 6.171582e+01 1.084993e-01 -2.257228e-01 -2.629419e-01 -8.020037e-02 -1.959565e-01 -1.859274e-01 -3.525763e-01 2.790258e-01 2.295834e-01 4.408336e-02 -2.824099e-02 -2.273530e-01 3.320244e-01 -4.562202e-02 -7.226835e-02 7.945127e-02 5.888624e-02 -3.647334e-03 -5.353456e-02 -5.549568e-02 1.164046e-01 1.070825e-01 -5.560592e-02 -1.085668e-01 -2.935519e-02 5.086076e-02
<VARIANCE> 39
 5.201907e+00 1.405250e+01 2.056566e+01 3.956025e+01 2.525035e+01 4.007735e+01 6.422801e+01 3.673129e+01 3.444853e+01 3.015380e+01 3.776453e+01 3.713176e+01 8.597352e+00 3.140256e-01 4.648734e-01 8.023691e-01 1.084352e+00 1.091774e+00 1.567618e+00 1.799434e+00 1.420064e+00 1.857426e+00 1.986660e+00 1.975597e+00 1.452843e+00 2.378076e-01 4.001855e-02 6.120565e-02 9.044536e-02 1.775703e-01 1.848773e-01 2.383509e-01 1.941685e-01 1.912810e-01 2.736774e-01 2.533261e-01 2.835475e-01 2.252196e-01 1.721856e-02
<GCONST> 8.799493e+01
<MIXTURE> 2 3.692909e-01
<MEAN> 39
 -7.771161e+00 3.474043e+00 4.140346e+00 4.707394e+00 -1.654914e-01 -2.935874e+00 -1.998057e+00 -1.473414e-01 -3.627431e-01 6.596162e-01 -9.965696e-01 -1.306065e+00 6.081864e+01 2.859624e-01 -1.579558e-01 -2.789743e-01 -2.707115e-01 -4.391302e-01 -1.119259e-01 -1.057368e-03 -9.528117e-04 -1.343730e-02 -1.098401e-01 1.656570e-01 -9.331662e-02 1.631421e-01 3.360960e-01 1.806385e-01 -1.099976e-01 -9.776064e-03 -8.127294e-02 -9.622121e-02 -7.445281e-02 -7.763056e-02 -1.211205e-01 4.408308e-02 2.057093e-01 1.010676e-01 -1.486513e-01
<VARIANCE> 39
 4.260016e+01 1.655513e+01 1.931473e+01 2.468953e+01 3.584925e+01 2.703911e+01 3.142917e+01 3.441198e+01 2.985685e+01 3.766868e+01 3.275836e+01 2.866930e+01 1.514427e+01 1.750597e+00 1.277454e+00 1.413329e+00 2.053477e+00 2.066951e+00 2.223941e+00 2.525735e+00 3.654637e+00 2.927302e+00 3.009818e+00 3.167688e+00 2.394678e+00 7.734271e-01 2.089816e-01 1.420561e-01 2.354530e-01 3.736787e-01 3.455191e-01 3.472070e-01 5.191545e-01 6.263868e-01 4.359055e-01 5.748500e-01 5.426341e-01 4.362451e-01 1.214374e-01
<GCONST> 1.102924e+02
<TRANSP> 5
 0.000000e+00 1.000000e+00 0.000000e+00 0.000000e+00 0.000000e+00
 0.000000e+00 8.321603e-01 1.678397e-01 0.000000e+00 0.000000e+00
 0.000000e+00 0.000000e+00 7.907918e-01 2.092082e-01 0.000000e+00
 0.000000e+00 0.000000e+00 0.000000e+00 8.687919e-01 1.312081e-01
 0.000000e+00 0.000000e+00 0.000000e+00 0.000000e+00 0.000000e+00
<ENDHMM>
~h "w"
<BEGINHMM>
<NUMSTATES> 5
<STATE> 2
<NUMMIXES> 2
<MIXTURE> 1 2.758780e-01
<MEAN> 39
 3.008447e+00 5.549202e+00 4.524815e+00 1.045626e+01 -6.821708e+00 -1.125670e+01 -6.006938e+00 -2.558459e+00 -4.107671e+00 1.101504e+00 2.956827e+00 1.161177e+00 6.550571e+01 5.718396e-01 3.780565e-01 -1.416180e+00 -5.188750e-01 1.685551e+00 7.865967e-01 -9.529904e-01 -8.486905e-01 2.828915e-01 7.978765e-01 5.731208e-02 -4.181755e-01 -6.422042e-01 -1.150760e-01 1.765921e-01 1.450324e-01 -2.886158e-01 -9.822709e-02 4.503095e-01 3.080135e-01 -2.960815e-01 -1.841516e-01 1.682373e-01 1.289903e-01 1.839379e-03 -8.837994e-02
<VARIANCE> 39
 7.823841e+00 5.999013e+00 3.010706e+01 1.592509e+01 5.049957e+01 6.621999e+01 5.142435e+01 3.222485e+01 3.188204e+01 5.086094e+01 2.748546e+01 2.694991e+01 1.119014e+01 3.468172e-01 5.752797e-01 1.322828e+00 1.385634e+00 2.653494e+00 2.870156e+00 3.240467e+00 2.756470e+00 3.195833e+00 3.070234e+00 3.336708e+00 1.953883e+00 2.734430e-01 4.609229e-02 1.016462e-01 1.232414e-01 1.754261e-01 3.558107e-01 3.848589e-01 4.325860e-01 5.289321e-01 5.141638e-01 7.224004e-01 4.255820e-01 4.838670e-01 2.748690e-02
<GCONST> 1.008907e+02
<MIXTURE> 2 7.241209e-01
<MEAN> 39
 -8.865408e+00 1.314915e+00 -1.726256e-02 1.949346e+00 -6.962141e-01 -2.264104e+00 -3.356595e+00 3.872164e-01 -7.830582e-01 8.090798e-01 -4.551838e-01 -3.542582e-01 5.888352e+01 3.858084e-01 5.493345e-01 1.101109e-01 2.614683e-01 3.874412e-01 3.020787e-01 1.973868e-01 -2.594588e-01 -1.272791e-01 1.423945e-01 -4.446277e-03 -2.373076e-01 -3.834162e-01 1.061228e-01 1.612496e-01 1.452149e-01 6.083516e-02 8.954273e-04 3.865295e-02 4.680768e-02 4.563093e-03 -9.022366e-02 -6.769050e-02 -5.155001e-04 1.649231e-02 7.142659e-02
<VARIANCE> 39
 4.198752e+01 3.278186e+01 3.351830e+01 4.247646e+01 3.341569e+01 4.083061e+01 5.068490e+01 4.445409e+01 3.509701e+01 3.893333e+01 3.371841e+01 2.852600e+01 2.527574e+01 1.714513e+00 2.412872e+00 2.494670e+00 2.927600e+00 2.853785e+00 2.588417e+00 4.118359e+00 3.534802e+00 3.161621e+00 4.114462e+00 2.778908e+00 2.758462e+00 7.623695e-01 2.309759e-01 3.575068e-01 3.493885e-01 4.911550e-01 5.976608e-01 4.789828e-01 8.032304e-01 6.691249e-01 6.652002e-01 7.996042e-01 5.878865e-01 5.378957e-01 1.130768e-01
<GCONST> 1.207492e+02
<STATE> 3
<MEAN> 39
 2.631453e-01 9.917992e+00 4.391963e+00 6.796953e+00 1.649435e+00 -4.532455e-01 -1.045247e+00 -2.731423e+00 -2.166926e+00 2.243930e-01 -1.588949e+00 -2.002449e+00 5.698280e+01 8.930649e-01 4.491306e-01 -3.891824e-01 -3.110635e-01 -3.512869e-01 8.693966e-02 2.277076e-02 -2.777461e-01 -2.750247e-01 5.879940e-02 3.044634e-01 7.266142e-02 3.491579e-01 -8.245611e-02 -2.406134e-01 -1.951271e-01 -1.489751e-01 -2.476433e-01 -1.025894e-01 -1.106278e-01 4.721979e-02 1.006696e-02 8.321920e-03 1.501467e-01 7.743505e-02 9.937078e-02
<VARIANCE> 39
 1.483377e+01 1.141742e+01 2.346986e+01 2.739752e+01 2.922755e+01 3.390196e+01 3.304063e+01 3.151965e+01 3.171090e+01 4.031527e+01 2.910121e+01 2.298647e+01 1.380367e+01 1.644771e+00 1.385739e+00 2.202711e+00 2.272333e+00 3.151302e+00 2.944090e+00 2.971992e+00 2.486710e+00 3.110854e+00 2.781610e+00 2.974713e+00 1.934409e+00 1.011686e+00 2.054360e-01 2.242571e-01 3.247810e-01 3.845289e-01 4.704827e-01 4.508152e-01 5.378671e-01 5.094825e-01 5.098562e-01 4.994850e-01 4.323314e-01 3.728678e-01 1.017357e-01
<GCONST> 1.105066e+02
<STATE> 4
<NUMMIXES> 2
<MIXTURE> 1 3.288625e-01
<MEAN> 39
 6.462096e+00 8.170028e+00 -7.754296e+00 1.883710e+00 -4.654440e+00 3.057743e+00 -6.507275e+00 -7.768187e+00 -8.377351e+00 5.005552e+00 9.838864e+00 -2.901114e-01 6.459638e+01 -1.164797e-01 -7.096589e-01 -2.076690e-02 5.287060e-01 2.187333e-01 -2.484869e-01 -1.254332e+00 3.029001e-02 5.335940e-01 8.530594e-01 2.518209e-01 -5.441421e-01 4.318855e-01 -1.359062e-01 -2.136659e-02 3.418404e-01 1.047327e-01 -3.622463e-03 -3.356922e-01 7.765102e-02 3.228683e-01 3.144623e-01 -1.603374e-01 -4.869832e-01 -7.077646e-02 -4.793264e-02
<VARIANCE> 39
 3.212062e+00 1.227203e+01 1.691510e+01 2.514516e+01 3.572321e+01 4.256575e+01 5.615317e+01 3.674697e+01 3.485366e+01 4.751214e+01 4.214240e+01 3.562690e+01 8.993100e+00 2.925521e-01 8.117186e-01 1.086903e+00 1.433907e+00 1.622858e+00 2.553318e+00 2.921094e+00 2.368126e+00 2.617629e+00 3.278200e+00 3.992806e+00 2.429442e+00 4.933085e-01 5.083470e-02 9.390587e-02 1.318849e-01 1.765455e-01 2.564425e-01 2.826511e-01 4.380608e-01 2.998154e-01 3.264033e-01 6.143987e-01 4.298202e-01 4.069488e-01 2.744954e-02
<GCONST> 9.865822e+01
<MIXTURE> 2 6.711393e-01
<MEAN> 39
 5.408936e+00 1.138645e+01 -8.682083e-01 1.672489e+00 -5.014206e+00 -1.935328e+00 -6.764424e-01 -3.926816e+00 -4.224783e+00 1.729595e+00 1.778005e+00 -9.651101e-02 5.995561e+01 1.046425e-01 4.174176e-02 -2.842670e-01 -2.635332e-01 -3.035695e-01 2.743036e-02 1.219614e-01 5.312300e-02 -3.615735e-02 -1.808747e-01 1.306557e-01 1.806059e-02 1.705756e-01 -1.942596e-02 -6.962010e-02 -2.921326e-02 5.126405e-02 3.405460e-02 2.489853e-02 -8.444632e-02 -5.479703e-02 5.125212e-03 4.268439e-02 5.867223e-02 -2.332577e-02 5.435894e-02
<VARIANCE> 39
 5.322532e+00 1.399359e+01 2.300603e+01 3.042898e+01 3.535626e+01 3.136146e+01 3.870245e+01 2.816688e+01 3.701652e+01 4.008088e+01 3.064928e+01 2.804764e+01 7.800581e+00 2.142422e-01 3.908395e-01 8.836007e-01 9.367583e-01 1.294568e+00 1.391110e+00 1.565685e+00 1.493816e+00 1.822873e+00 1.951973e+00 1.905057e+00 1.571857e+00 2.564769e-01 2.585493e-02 6.061362e-02 9.444739e-02 1.382558e-01 1.905755e-01 2.031602e-01 2.911299e-01 2.593123e-01 2.852452e-01 3.110255e-01 2.912776e-01 2.383693e-01 1.510921e-02
<GCONST> 8.651688e+01
<TRANSP> 5
 0.000000e+00 1.000000e+00 0.000000e+00 0.000000e+00 0.000000e+00
 0.000000e+00 8.453227e-01 1.546773e-01 0.000000e+00 0.000000e+00
 0.000000e+00 0.000000e+00 7.914376e-01 2.085624e-01 0.000000e+00
 0.000000e+00 0.000000e+00 0.000000e+00 9.282874e-01 7.171254e-02
 0.000000e+00 0.000000e+00 0.000000e+00 0.000000e+00 0.000000e+00
<ENDHMM>
~h "y"
<BEGINHMM>
<NUMSTATES> 5
<STATE> 2
<NUMMIXES> 2
<MIXTURE> 1 3.250418e-01
<MEAN> 39
 -9.419472e+00 4.625302e+00 1.202440e+01 6.491309e+00 -1.664820e+00 3.450867e+00 4.888105e-01 5.690510e-01 -3.136165e+00 -1.074784e+00 -2.796655e+00 -2.003799e+00 5.781145e+01 2.128382e+00 2.199229e+00 1.617266e+00 1.870025e+00 9.744608e-01 2.562846e-01 2.878443e-01 5.644066e-01 -8.740883e-01 -6.011639e-01 -2.207175e-01 -9.225427e-01 6.329730e-01 2.077454e-01 5.622095e-02 -1.100560e-04 -4.641799e-01 -6.704012e-01 -5.819704e-01 -6.574908e-01 -3.122376e-01 -3.154245e-01 2.918006e-02 4.707069e-01 3.239834e-01 2.734980e-01
<VARIANCE> 39
 2.732066e+01 2.475608e+01 2.665093e+01 4.952986e+01 3.335413e+01 5.725153e+01 6.028622e+01 3.171409e+01 2.422884e+01 4.770833e+01 4.235004e+01 2.508151e+01 1.826217e+01 1.539281e+00 7.078762e-01 1.700654e+00 1.385651e+00 2.864043e+00 4.630085e+00 4.337822e+00 2.673176e+00 1.388961e+00 2.785348e+00 2.273241e+00 2.153452e+00 3.018038e-01 1.988190e-01 2.602704e-01 2.408013e-01 5.200436e-01 5.460865e-01 5.592481e-01 4.561403e-01 4.432881e-01 3.422166e-01 5.780272e-01 6.314378e-01 4.969023e-01 5.216174e-02
<GCONST> 1.115805e+02
<MIXTURE> 2 6.749588e-01
<MEAN> 39
 -7.797233e+00 7.506295e+00 1.728146e+01 7.054698e+00 -7.881623e+00 -2.278966e+00 -3.556135e+00 -2.105187e+00 -3.034565e+00 4.808607e-01 -4.447746e-01 -1.957351e+00 6.335265e+01 6.014147e-01 2.862889e-01 3.061694e-01 -2.249956e-01 -1.142139e+00 -5.183120e-01 -4.224559e-01 -2.649790e-01 -5.739689e-01 -4.479615e-02 1.209910e+00 2.984817e-01 2.591431e-01 -1.329561e-01 -2.429985e-01 -1.883824e-01 -1.334482e-01 -8.602371e-02 1.506848e-01 2.604176e-01 -1.240269e-01 -9.348317e-02 3.794070e-02 1.158699e-01 6.453556e-02 -3.034331e-02
<VARIANCE> 39
 5.367863e+01 2.584902e+01 4.784549e+01 4.202053e+01 3.246678e+01 6.172563e+01 4.653791e+01 4.956604e+01 4.150484e+01 2.927913e+01 3.546465e+01 2.601834e+01 2.369377e+01 2.381924e+00 9.194289e-01 8.204787e-01 1.453842e+00 2.666578e+00 6.554715e+00 4.932487e+00 3.749047e+00 2.786187e+00 2.977348e+00 3.918566e+00 2.100816e+00 6.097282e-01 1.724561e-01 2.886375e-01 1.764148e-01 3.649488e-01 3.852673e-01 6.733314e-01 6.368665e-01 9.217964e-01 5.061306e-01 4.371456e-01 3.583976e-01 3.485960e-01 3.427349e-02
<GCONST> 1.148411e+02
<STATE> 3
<MEAN> 39
 -1.461201e+00 7.592976e+00 1.405915e+01 8.473516e+00 -1.376130e+01 -5.604378e+00 -2.092251e+00 3.768771e-01 -7.831498e+00 -1.453126e+00 8.251539e+00 -1.459254e+00 6.554559e+01 -4.449001e-02 6.290179e-02 3.779803e-01 -1.591438e-01 -1.030559e+00 4.370569e-01 2.350379e-01 -4.285858e-01 -9.557337e-01 2.235874e-01 7.280019e-01 -2.587232e-01 1.356576e-01 -9.936513e-02 -5.754961e-02 -1.266205e-01 -3.498504e-02 3.882169e-01 1.812787e-01 -6.908187e-02 -1.937549e-02 2.470122e-01 2.317829e-01 -4.974993e-01 -1.317221e-01 -5.873325e-02
<VARIANCE> 39
 8.087071e+00 1.883214e+01 3.890778e+01 3.105217e+01 2.057759e+01 5.948682e+01 4.571709e+01 2.419852e+01 4.417653e+01 3.560746e+01 3.084305e+01 2.268143e+01 1.264818e+01 4.371690e-01 6.430283e-01 1.267529e+00 1.604671e+00 2.076462e+00 2.013873e+00 2.194441e+00 2.467466e+00 2.184815e+00 1.935797e+00 2.638328e+00 1.548982e+00 4.086317e-01 1.136711e-01 8.177871e-02 1.421532e-01 2.952414e-01 1.414456e-01 3.095424e-01 4.610071e-01 3.162983e-01 2.762057e-01 4.392970e-01 2.181229e-01 3.366556e-01 2.203194e-02
<GCONST> 9.744426e+01
<STATE> 4
<NUMMIXES> 2
<MIXTURE> 1 5.062112e-01
<MEAN> 39
 4.416615e-01 4.496152e+00 1.090019e+01 1.268483e+01 -1.296045e+01 -9.272021e+00 -6.395834e+00 4.095279e+00 -8.773596e+00 -4.098876e+00 8.898558e+00 -2.218220e+00 6.739099e+01 8.961879e-02 -4.157693e-02 -3.653849e-01 -1.922273e-02 2.283726e-01 -1.659992e-01 -3.005583e-01 2.091673e-01 4.450649e-01 -1.934136e-01 -2.405331e-01 2.574315e-01 8.899616e-02 -1.131576e-02 3.373244e-02 6.221094e-02 -6.932053e-02 8.558166e-02 1.031716e-01 -2.255755e-02 -8.074328e-02 7.346913e-02 6.177609e-02 -9.079926e-02 -1.804037e-02 -5.414470e-02
<VARIANCE> 39
 3.017172e+00 7.887829e+00 1.832288e+01 1.007633e+01 1.929203e+01 7.373808e+01 4.798333e+01 2.919439e+01 4.110900e+01 1.676266e+01 2.302345e+01 3.009709e+01 8.893843e+00 1.625595e-01 2.777341e-01 7.347408e-01 5.186849e-01 8.835881e-01 1.247793e+00 9.799252e-01 8.654651e-01 1.336962e+00 1.011012e+00 1.254055e+00 7.910449e-01 1.366769e-01 1.639130e-02 3.673736e-02 5.080232e-02 7.284132e-02 1.135319e-01 1.514497e-01 1.294855e-01 1.152547e-01 1.671188e-01 1.390726e-01 1.976379e-01 1.238648e-01 1.144235e-02
<GCONST> 7.078109e+01
<MIXTURE> 2 4.937884e-01
<MEAN> 39
 -3.401721e+00 9.062367e+00 1.983293e+01 5.014287e+00 -1.075715e+01 1.366567e+00 -5.048765e+00 -3.110635e+00 -1.009994e+01 3.599959e+00 2.513570e+00 -4.380107e+00 6.291538e+01 1.473664e-01 -2.072517e-01 -2.024304e-01 3.660612e-01 -1.981047e-01 -4.208271e-01 1.073416e-01 2.278366e-01 -2.673295e-01 -4.984551e-02 3.006202e-01 -2.043314e-01 1.180219e-01 1.757010e-02 -3.071567e-02 -7.354628e-02 6.961557e-02 3.200496e-02 -1.447984e-01 1.041459e-02 1.133536e-01 1.370802e-02 -1.271102e-01 5.695460e-02 5.265479e-02 1.727036e-02
<VARIANCE> 39
 2.929275e+00 1.012912e+01 1.781927e+01 1.498644e+01 2.652427e+01 7.557731e+01 6.912074e+01 2.171010e+01 4.648514e+01 4.077365e+01 5.036661e+01 4.388638e+01 9.255328e+00 1.578784e-01 3.400539e-01 6.007806e-01 7.935049e-01 1.339278e+00 2.134328e+00 1.444280e+00 1.532578e+00 1.880978e+00 1.632182e+00 2.043154e+00 1.395953e+00 2.367822e-01 2.790632e-02 5.209224e-02 9.178892e-02 1.182739e-01 2.120566e-01 2.527876e-01 2.582132e-01 2.726390e-01 2.965420e-01 2.862025e-01 3.150089e-01 2.545859e-01 1.602725e-02
<GCONST> 8.619385e+01
<TRANSP> 5
 0.000000e+00 1.000000e+00 0.000000e+00 0.000000e+00 0.000000e+00
 0.000000e+00 7.637435e-01 2.362565e-01 0.000000e+00 0.000000e+00
 0.000000e+00 0.000000e+00 6.663392e-01 3.336608e-01 0.000000e+00
 0.000000e+00 0.000000e+00 0.000000e+00 9.328361e-01 6.716388e-02
 0.000000e+00 0.000000e+00 0.000000e+00 0.000000e+00 0.000000e+00
<ENDHMM>
~h "z"
<BEGINHMM>
<NUMSTATES> 5
<STATE> 2
<NUMMIXES> 2
<MIXTURE> 1 3.880528e-01
<MEAN> 39
 -1.755460e+00 8.791752e+00 7.631248e+00 5.776479e+00 -3.039886e+00 -1.126518e+01 -4.660622e+00 6.922480e-01 -3.106726e+00 1.600079e+00 4.022672e-01 1.352701e+00 6.486497e+01 -1.383773e+00 1.161191e+00 -1.448663e-02 -8.946100e-01 1.675235e+00 -4.896559e-01 7.984115e-01 3.288162e-02 -1.365952e-02 4.522953e-01 -5.786902e-01 8.722253e-01 -2.178856e-01 -4.142611e-01 1.675308e-01 -9.733988e-02 -2.143819e-01 1.764031e-01 2.154885e-01 8.861359e-02 1.704064e-01 9.881925e-02 -5.595334e-02 -2.371031e-02 -4.019036e-02 1.134551e-01
<VARIANCE> 39
 8.426647e+00 1.356999e+01 2.596616e+01 1.707413e+01 3.571585e+01 3.524987e+01 5.757035e+01 3.842702e+01 5.891701e+01 3.076288e+01 3.250911e+01 2.910377e+01 1.467144e+01 8.344129e-01 9.062924e-01 1.211576e+00 1.610159e+00 2.436126e+00 2.198728e+00 2.494726e+00 3.053623e+00 2.541558e+00 2.357834e+00 2.182865e+00 1.864739e+00 2.497137e-01 8.096944e-02 1.147162e-01 1.523388e-01 1.984701e-01 3.306215e-01 3.285754e-01 4.078248e-01 4.573707e-01 3.501556e-01 3.935872e-01 3.177209e-01 3.187723e-01 3.002688e-02
<GCONST> 1.004418e+02
<MIXTURE> 2 6.119468e-01
<MEAN> 39
 -1.185206e+01 1.494831e+01 7.201905e+00 1.474287e+00 4.138044e+00 -9.881842e+00 -1.068618e+00 2.024459e+00 -2.080633e+00 1.799389e+00 -1.430093e+00 3.140510e+00 6.496358e+01 -1.999979e+00 7.550019e-01 -1.312812e-01 -5.181320e-01 1.227241e+00 6.561114e-01 3.356634e-01 2.407723e-01 -7.256272e-02 -1.436910e-01 -3.085144e-01 -1.028344e-01 9.188337e-02 1.659813e-01 -2.664210e-01 -6.290196e-02 2.006898e-01 -2.291512e-01 1.423142e-01 -4.845765e-02 -1.269955e-01 -9.552843e-02 -7.807165e-02 7.996641e-02 -1.639571e-01 -1.208478e-02
<VARIANCE> 39
 2.163509e+01 1.920880e+01 2.540421e+01 3.525944e+01 3.966820e+01 4.519245e+01 5.244073e+01 3.828089e+01 4.678727e+01 3.374160e+01 2.907833e+01 2.838897e+01 1.283089e+01 1.259057e+00 1.089012e+00 1.275557e+00 1.960286e+00 2.410863e+00 2.850659e+00 2.486532e+00 2.725388e+00 2.767799e+00 2.567065e+00 2.105895e+00 2.198581e+00 3.834059e-01 1.187744e-01 1.774155e-01 2.329915e-01 3.604130e-01 4.272982e-01 4.996422e-01 4.803174e-01 5.359592e-01 5.241265e-01 5.021687e-01 4.120343e-01 4.117886e-01 4.542262e-02
<GCONST> 1.084020e+02
<STATE> 3
<MEAN> 39
 -2.111189e+01 1.262418e+01 4.182640e+00 -1.400813e+00 6.809470e+00 -6.681150e+00 4.681500e-01 1.661122e+00 -4.027057e+00 4.517312e-01 -2.283009e+00 1.127939e+00 6.479416e+01 -3.694921e-01 -4.502726e-01 -1.632939e-01 -2.467960e-01 -9.970845e-02 2.056763e-02 4.554379e-02 3.412764e-02 -1.470781e-01 8.712346e-04 -2.571982e-02 -1.511362e-01 4.696376e-02 2.423169e-01 -9.402500e-02 9.545182e-02 5.214303e-02 -1.186855e-01 -8.251000e-02 -3.747306e-02 5.130975e-02 2.505699e-02 1.423303e-03 2.303780e-02 1.136249e-02 -2.742200e-02
<VARIANCE> 39
 1.378314e+01 2.802067e+01 3.380132e+01 4.118742e+01 4.004049e+01 4.086539e+01 6.466971e+01 5.167075e+01 4.281466e+01 4.193150e+01 3.347890e+01 2.742591e+01 7.808717e+00 6.885870e-01 9.063352e-01 1.316721e+00 1.669538e+00 2.148789e+00 2.555877e+00 2.523281e+00 2.782915e+00 2.264982e+00 2.555026e+00 2.406656e+00 2.133236e+00 1.639597e-01 8.718806e-02 1.517350e-01 2.121435e-01 3.229440e-01 4.426565e-01 5.315153e-01 4.751367e-01 5.306585e-01 4.608338e-01 4.944727e-01 4.684189e-01 4.335745e-01 2.815861e-02
<GCONST> 1.058353e+02
<STATE> 4
<NUMMIXES> 2
<MIXTURE> 1 5.505835e-01
<MEAN> 39
 -1.916701e+01 7.528599e+00 6.371134e+00 -2.135062e+00 5.789582e+00 -6.201659e+00 -1.019359e+00 4.035817e+00 -5.213317e+00 -3.802868e-01 -1.941594e+00 -8.596863e-02 6.432896e+01 1.763499e+00 -8.181272e-01 2.418592e-01 4.958603e-01 -8.541508e-01 -2.097545e-01 -4.004839e-01 -1.697593e-01 3.012498e-01 -8.507166e-02 -2.244535e-02 1.552956e-02 -5.745635e-01 5.139107e-01 1.046031e-01 -2.156049e-01 1.052401e-01 -3.036951e-01 -1.608029e-01 -1.827264e-01 -2.470902e-01 1.866690e-01 1.252430e-01 -2.682068e-02 1.235155e-01 -2.139442e-01
<VARIANCE> 39
 2.470418e+01 3.864879e+01 3.569745e+01 3.835645e+01 3.249386e+01 5.461423e+01 6.368211e+01 4.664296e+01 4.097063e+01 4.592142e+01 3.679734e+01 2.851706e+01 1.557617e+01 2.096864e+00 1.596704e+00 1.930329e+00 2.295171e+00 3.241778e+00 4.426685e+00 3.686077e+00 4.357941e+00 3.228130e+00 3.483801e+00 2.794313e+00 2.505340e+00 8.332622e-01 2.688010e-01 3.347251e-01 3.825227e-01 4.591523e-01 5.250141e-01 7.846063e-01 7.758999e-01 8.046324e-01 6.188175e-01 7.070502e-01 5.405598e-01 5.150944e-01 8.813422e-02
<GCONST> 1.207611e+02
<MIXTURE> 2 4.494157e-01
<MEAN> 39
 -9.891243e+00 6.748483e+00 4.113243e+00 1.255032e+00 3.242588e-01 -9.142046e+00 -3.614337e+00 8.321685e-01 -1.572794e+00 1.983213e+00 -2.077010e+00 5.790281e-01 5.922886e+01 1.393209e+00 -1.346304e-01 -4.898903e-01 4.114925e-01 -6.233835e-01 -1.343171e-01 -3.606855e-01 -3.916693e-01 4.218687e-01 3.468330e-01 1.229164e-01 -1.487215e-01 -8.731223e-01 -3.908605e-01 7.918806e-02 5.668778e-02 -4.709689e-02 2.835751e-01 3.171535e-01 1.491944e-01 7.342988e-02 -1.548475e-01 -8.569537e-02 5.383704e-02 -1.663838e-01 1.539546e-01
<VARIANCE> 39
