~o
<STREAMINFO> 1 39
<VECSIZE> 39<NULLD><MFCC_D_A_0><DIAGC>
~s "silst2"
<NUMMIXES> 2
<MIXTURE> 1 1.187978e-01
<MEAN> 39
 -7.587482e+00 4.578895e+00 1.437304e+00 1.878353e+00 -1.599149e+00 -4.788053e+00 -2.890087e+00 -1.059478e+00 -7.297093e-01 -1.861505e-01 -6.768395e-01 8.265653e-01 5.336994e+01 -9.700400e-04 -6.503680e-02 -2.619928e-01 8.348433e-02 1.525362e-01 1.932677e-01 1.099765e-01 -3.738301e-02 -1.104869e-02 -1.224343e-01 1.320631e-02 8.586042e-02 -3.063667e-01 -3.127360e-02 -5.599104e-02 2.952362e-02 3.249211e-02 1.270305e-02 3.965845e-02 1.002138e-01 -1.457997e-02 -5.987731e-02 -6.991281e-02 -9.381302e-02 -5.953566e-02 -7.737564e-02
<VARIANCE> 39
 1.816527e+01 2.299748e+01 2.410253e+01 3.120535e+01 2.793725e+01 3.513116e+01 3.873986e+01 4.189870e+01 3.597297e+01 3.556147e+01 2.947958e+01 2.282375e+01 1.795755e+01 1.370592e+00 1.796434e+00 2.004175e+00 2.595019e+00 2.680140e+00 3.149355e+00 3.562719e+00 3.399750e+00 3.192256e+00 3.511469e+00 2.732683e+00 2.324648e+00 1.223473e+00 3.019365e-01 3.329653e-01 3.495164e-01 5.025534e-01 4.474975e-01 5.994639e-01 6.491138e-01 6.914253e-01 6.110599e-01 6.137376e-01 5.163453e-01 4.336028e-01 5.049955e-01
<GCONST> 1.175002e+02
<MIXTURE> 2 8.812059e-01
<MEAN> 39
 -1.955904e+01 -4.411397e-02 -1.493164e+00 2.122929e+00 4.490584e-01 1.420724e+00 -5.322956e-03 4.775971e-01 -3.533041e-01 7.824206e-02 -3.211170e-01 1.313688e-01 1.478012e+01 -1.909303e-03 -1.097362e-03 4.538971e-03 8.830082e-03 -4.195887e-03 -4.353578e-04 1.225363e-02 -1.018326e-02 -1.321328e-02 4.616701e-03 -4.077026e-04 -1.579111e-03 -6.959192e-04 1.353694e-03 1.982060e-03 -3.083774e-03 -2.539350e-03 -1.971983e-03 3.359496e-03 2.019291e-03 3.715362e-04 1.607229e-03 -1.661740e-03 -1.285246e-03 2.395036e-03 4.075264e-04
<VARIANCE> 39
 7.511302e-01 2.337207e+00 5.012819e+00 7.433617e+00 9.351219e+00 1.147202e+01 1.347216e+01 1.484268e+01 1.513923e+01 1.499695e+01 1.458956e+01 1.275546e+01 1.870390e+00 7.078221e-02 2.469757e-01 5.317462e-01 8.013468e-01 1.012275e+00 1.204169e+00 1.442601e+00 1.624705e+00 1.615245e+00 1.604249e+00 1.560165e+00 1.337634e+00 4.343479e-02 1.438305e-02 4.978044e-02 1.055907e-01 1.618604e-01 2.034284e-01 2.382780e-01 2.916878e-01 3.266972e-01 3.265146e-01 3.171519e-01 3.123577e-01 2.645895e-01 8.883156e-03
<GCONST> 6.563751e+01
~s "silst3"
<MEAN> 39
 -1.300396e+01 1.558417e+00 -1.066236e+00 1.315070e+00 -1.077762e+00 -1.511335e+00 -9.878905e-01 -8.410273e-01 -5.148670e-01 -6.164104e-01 -5.762159e-01 4.581713e-01 3.527411e+01 1.205559e-02 -7.258265e-02 -6.990459e-02 3.571304e-02 -2.794255e-02 -1.006395e-01 -7.978371e-02 1.172319e-01 -3.453014e-02 -1.305213e-01 -1.039793e-02 -4.923873e-02 -5.266588e-02 4.215388e-02 7.922656e-02 7.395348e-02 6.237593e-02 3.252010e-02 -3.547843e-02 -2.962878e-03 -3.203270e-03 4.169580e-02 -3.098238e-03 -1.754846e-02 -4.524538e-03 2.498162e-02
<VARIANCE> 39
 4.041467e+01 1.217378e+01 1.418604e+01 1.577617e+01 1.709202e+01 2.984046e+01 2.345783e+01 2.594145e+01 2.125507e+01 2.336723e+01 1.875712e+01 1.490926e+01 3.517433e+02 5.691267e+00 1.416285e+00 1.620780e+00 1.704359e+00 1.882798e+00 3.663456e+00 2.506182e+00 2.784933e+00 2.242685e+00 2.458560e+00 1.864306e+00 1.595312e+00 4.550475e+01 7.867032e-01 2.030138e-01 2.955214e-01 3.221093e-01 3.613290e-01 6.233380e-01 4.857533e-01 5.180848e-01 4.236380e-01 4.902841e-01 3.804046e-01 3.202591e-01 6.155795e+00
<GCONST> 1.183126e+02
~s "silst4"
<NUMMIXES> 2
<MIXTURE> 1 8.437970e-01
<MEAN> 39
 -6.963741e+00 4.460386e+00 2.855169e-01 1.652547e+00 -2.045189e+00 -4.629237e+00 -1.937500e+00 -2.255986e+00 -1.303682e-01 -6.219645e-01 -6.719148e-01 1.151887e+00 5.104090e+01 -3.155059e-03 7.844582e-03 -4.052749e-03 1.377797e-02 -2.190726e-03 2.487474e-02 2.941742e-02 -1.788758e-02 1.138185e-02 1.619958e-03 -1.238416e-02 -1.489415e-03 -2.007527e-02 -1.221937e-02 5.665650e-03 3.375332e-02 4.938526e-02 6.977122e-02 7.085413e-02 4.719745e-02 8.898597e-03 -4.712527e-02 -6.685670e-02 -6.417610e-02 -3.988755e-02 1.317518e-02
<VARIANCE> 39
 3.163002e+00 9.649437e+00 1.132725e+01 1.536894e+01 1.837145e+01 2.389585e+01 2.476228e+01 2.665916e+01 2.767415e+01 2.585301e+01 2.354599e+01 2.187218e+01 2.365905e+00 2.893769e-01 6.140675e-01 1.035702e+00 1.464158e+00 1.917024e+00 2.307129e+00 2.368969e+00 2.481101e+00 2.539997e+00 2.589730e+00 2.454224e+00 2.138931e+00 8.894668e-02 5.630166e-02 1.200520e-01 2.069575e-01 2.774787e-01 3.616275e-01 4.293577e-01 4.590046e-01 4.925056e-01 4.955885e-01 4.857706e-01 4.641514e-01 4.222142e-01 1.720169e-02
<GCONST> 9.125890e+01
<MIXTURE> 2 1.561677e-01
<MEAN> 39
 -8.319723e+00 2.921268e+00 9.969692e-01 4.490956e+00 1.675872e+00 -1.238536e+00 6.502950e-01 -7.818689e-01 -2.981826e+00 -4.882301e+00 -3.785312e+00 -3.784177e-01 5.007504e+01 -3.128853e-02 -1.992058e-02 -5.816625e-02 -3.417742e-02 -9.009551e-02 1.786917e-02 -4.840435e-02 -8.489788e-02 6.226813e-02 3.116500e-03 3.162611e-02 -6.590738e-03 -4.054422e-02 5.545205e-02 -5.995606e-03 -9.522232e-02 -2.785876e-01 -4.030002e-01 -3.954247e-01 -2.720374e-01 -3.681817e-02 2.733123e-01 4.236388e-01 3.698606e-01 2.025903e-01 6.789244e-02
<VARIANCE> 39
 1.552906e+01 1.927751e+01 1.732964e+01 2.073967e+01 2.202621e+01 2.944884e+01 3.031371e+01 3.434579e+01 3.226447e+01 3.188063e+01 2.813363e+01 2.344021e+01 8.442177e+01 4.292543e-01 7.559801e-01 1.046752e+00 1.503440e+00 1.856234e+00 2.309824e+00 2.591264e+00 2.539822e+00 2.735687e+00 2.780546e+00 2.492322e+00 2.184519e+00 1.892273e-01 1.186057e-01 1.831852e-01 2.277296e-01 3.134986e-01 3.673881e-01 4.590181e-01 5.351616e-01 5.491076e-01 5.338910e-01 5.654530e-01 4.946516e-01 4.288081e-01 1.010859e-01
<GCONST> 1.047628e+02
~h "b"
<BEGINHMM>
<NUMSTATES> 5
<STATE> 2
<NUMMIXES> 2
<MIXTURE> 1 3.479715e-01
<MEAN> 39
 4.223130e+00 4.149271e+00 1.182323e+00 6.387836e+00 -2.962766e+00 -6.393326e+00 -4.527165e+00 -7.262185e-01 -1.321255e-02 3.214793e-01 4.006286e+00 -2.092721e+00 6.319028e+01 -5.639354e-03 1.460862e+00 2.511610e-01 2.189218e-01 2.405077e+00 9.495628e-01 5.736929e-01 -6.755672e-01 -4.992743e-01 8.252986e-01 -7.478727e-02 -2.996559e-01 -2.154656e+00 -3.205423e-01 2.815767e-01 4.624265e-01 9.134487e-02 -2.879532e-03 3.707709e-01 4.117269e-01 -1.212154e-01 -1.738887e-01 -8.235416e-02 -4.870461e-01 -7.638114e-02 -1.223880e-01
<VARIANCE> 39
 6.902215e+00 1.811176e+01 3.425528e+01 3.019523e+01 4.829176e+01 4.626104e+01 4.084503e+01 3.821886e+01 3.475063e+01 4.027297e+01 3.006808e+01 3.128814e+01 1.665576e+01 8.359022e-01 1.217772e+00 2.690357e+00 1.905194e+00 3.548700e+00 3.484260e+00 4.034654e+00 4.557938e+00 3.181793e+00 2.189602e+00 3.748965e+00 2.045145e+00 5.537307e-01 4.729712e-02 1.272800e-01 1.940732e-01 4.133291e-01 5.485781e-01 5.307805e-01 4.961556e-01 4.904770e-01 3.702044e-01 5.632958e-01 5.220785e-01 3.317321e-01 1.482804e-01
<GCONST> 1.103684e+02
<MIXTURE> 2 6.520280e-01
<MEAN> 39
 -1.021288e+00 9.689551e+00 5.700886e+00 8.497894e+00 2.523589e+00 -2.195984e+00 1.683583e-01 -2.960516e+00 -1.854508e+00 3.207871e-01 -2.143547e+00 -1.969211e+00 5.511539e+01 9.325178e-03 8.887632e-01 1.036082e+00 7.310528e-01 5.693384e-01 2.809299e-01 2.532144e-01 -3.237829e-01 -4.134818e-01 -5.928079e-02 -7.073088e-01 -3.446337e-01 -4.449022e-01 2.261451e-02 -2.708004e-01 -1.882925e-01 -1.247146e-01 -3.167568e-01 -1.817512e-01 -1.904088e-01 7.807761e-02 1.103232e-01 -1.798890e-02 1.379750e-01 1.656623e-03 2.688167e-01
<VARIANCE> 39
 2.111469e+01 1.679517e+01 2.369369e+01 3.077683e+01 2.427519e+01 2.264431e+01 2.719745e+01 2.945197e+01 4.391817e+01 3.227187e+01 3.646892e+01 2.883306e+01 7.980637e+00 1.088283e+00 2.201001e+00 1.978293e+00 2.336417e+00 2.203100e+00 2.831172e+00 2.707181e+00 2.667269e+00 2.700414e+00 3.071963e+00 3.464611e+00 2.059032e+00 1.074304e+00 1.080963e-01 4.299699e-01 3.517163e-01 4.215015e-01 4.428952e-01 5.208320e-01 4.841961e-01 6.568123e-01 4.909897e-01 5.410817e-01 7.438023e-01 4.604943e-01 1.305004e-01
<GCONST> 1.117678e+02
<STATE> 3
<MEAN> 39
 3.305755e-01 1.179733e+01 7.540162e+00 8.610607e+00 2.420776e+00 -1.451294e+00 5.487076e-01 -2.747627e+00 -1.611842e+00 -2.572277e-01 -2.066838e+00 -1.915576e+00 5.442020e+01 -2.354566e-01 -1.122101e-02 7.691388e-03 -1.021972e-01 8.943930e-02 1.258539e-01 1.182947e-01 2.030791e-01 1.462695e-01 -1.157108e-01 -5.826326e-02 1.373628e-01 -2.383235e-01 -4.040726e-02 -1.040954e-01 -7.465381e-02 -6.013445e-02 -3.554791e-02 -2.090324e-02 -3.159998e-02 -1.021386e-03 2.243249e-02 2.754739e-02 5.152566e-02 1.676320e-02 5.867882e-02
<VARIANCE> 39
 5.695314e+00 6.301860e+00 1.124920e+01 1.888638e+01 1.817243e+01 2.452040e+01 2.475645e+01 2.744125e+01 3.319666e+01 2.869880e+01 2.137379e+01 2.110675e+01 4.173064e+00 2.076172e-01 4.204902e-01 6.989149e-01 1.211543e+00 1.464210e+00 1.530092e+00 1.810277e+00 1.760830e+00 2.017734e+00 1.932956e+00 1.938641e+00 1.791859e+00 9.478844e-02 3.851943e-02 8.511806e-02 1.567291e-01 2.556733e-01 2.756896e-01 3.126015e-01 3.535889e-01 3.133915e-01 3.838918e-01 3.876113e-01 3.861030e-01 3.530965e-01 3.458048e-02
<GCONST> 8.639713e+01
<STATE> 4
<NUMMIXES> 2
<MIXTURE> 1 4.778826e-01
<MEAN> 39
 -4.038859e+00 8.102914e+00 5.791195e+00 6.121446e+00 3.026159e+00 -7.525837e-01 6.579406e-01 -1.950629e+00 -4.449431e-01 2.841597e-01 -2.062453e+00 -1.586773e+00 5.399409e+01 -7.553431e-01 -1.507501e+00 -6.111537e-01 -8.809775e-01 -7.934203e-01 -3.108335e-01 -6.516150e-01 3.221597e-01 2.223327e-01 2.403825e-01 3.691341e-01 -4.590086e-02 1.930722e+00 2.002642e-01 -1.424840e-01 -2.352109e-01 -1.694757e-01 -4.496929e-01 -2.446352e-01 -3.213560e-01 1.338949e-01 8.938193e-02 4.345840e-02 2.291919e-01 7.976503e-04 5.373466e-01
<VARIANCE> 39
 1.558433e+01 2.271695e+01 1.869603e+01 1.964836e+01 2.280330e+01 1.929051e+01 2.406307e+01 2.885044e+01 2.883102e+01 3.408853e+01 2.145752e+01 1.574604e+01 1.316716e+01 1.681335e+00 2.831649e+00 2.442676e+00 2.227959e+00 2.819465e+00 3.077748e+00 3.485603e+00 3.328581e+00 3.649019e+00 3.458817e+00 2.494009e+00 2.236695e+00 3.269024e+00 3.375868e-01 5.880767e-01 3.941891e-01 3.912112e-01 6.566517e-01 4.992352e-01 5.513034e-01 5.583899e-01 7.173001e-01 6.288491e-01 4.582742e-01 3.936011e-01 4.374156e-01
<GCONST> 1.155630e+02
<MIXTURE> 2 5.221180e-01
<MEAN> 39
 -5.739362e+00 6.860937e+00 3.100584e+00 2.289978e+00 6.560915e-01 -3.482916e+00 -1.319556e+00 -9.504948e-01 2.150778e-01 1.113171e+00 6.014975e-01 1.122519e-01 5.209013e+01 -1.876826e-01 -2.367482e-01 -2.129120e-01 -1.985646e-01 1.000495e-02 -3.738376e-02 -1.849604e-01 -8.106403e-02 5.102465e-02 -2.434604e-02 4.968034e-04 6.904531e-02 -9.921778e-02 -1.145987e-02 -3.624051e-02 6.258100e-02 7.334778e-02 3.798730e-02 7.801003e-02 7.080651e-02 -1.555144e-02 -1.471977e-02 -4.183896e-02 -1.321198e-01 -7.235954e-02 1.740953e-01
<VARIANCE> 39
 6.548348e+00 8.763882e+00 1.101349e+01 1.777900e+01 2.621092e+01 2.975559e+01 3.548903e+01 3.155449e+01 3.206981e+01 1.987690e+01 2.500186e+01 2.546966e+01 2.772732e+00 3.931340e-01 7.996519e-01 1.084713e+00 1.686092e+00 2.217997e+00 2.048677e+00 2.432411e+00 2.217932e+00 2.060267e+00 1.635823e+00 2.273945e+00 2.004943e+00 1.259438e-01 9.080798e-02 2.053961e-01 2.117748e-01 3.125706e-01 4.197970e-01 4.271009e-01 5.305911e-01 5.172115e-01 4.214066e-01 3.078952e-01 4.098225e-01 4.320359e-01 1.192800e-01
<GCONST> 9.631561e+01
<TRANSP> 5
 0.000000e+00 1.000000e+00 0.000000e+00 0.000000e+00 0.000000e+00
 0.000000e+00 7.642179e-01 2.357821e-01 0.000000e+00 0.000000e+00
 0.000000e+00 0.000000e+00 8.952041e-01 1.047960e-01 0.000000e+00
 0.000000e+00 0.000000e+00 0.000000e+00 8.636768e-01 1.363231e-01
 0.000000e+00 0.000000e+00 0.000000e+00 0.000000e+00 0.000000e+00
<ENDHMM>
~h "d"
<BEGINHMM>
<NUMSTATES> 5
<STATE> 2
<NUMMIXES> 2
<MIXTURE> 1 3.205228e-01
<MEAN> 39
 -1.443965e+00 6.628866e+00 9.368488e+00 6.331924e+00 -6.522238e+00 -6.924170e+00 -2.225032e+00 6.151007e-01 -1.619597e+00 -2.077419e+00 1.507705e+00 9.899751e-01 6.165040e+01 -7.470105e-02 1.091779e+00 -5.032857e-03 2.745103e-01 1.613210e+00 6.417079e-01 3.541687e-01 -1.775700e-01 2.999673e-02 1.683335e-01 -6.303587e-01 -1.774342e-01 -1.767580e+00 1.059750e-01 1.598240e-01 -2.844113e-01 7.007028e-02 1.946184e-01 1.493905e-01 4.142477e-02 -2.009960e-01 4.493554e-02 8.742346e-02 -7.386053e-02 -1.109118e-01 -1.399503e-01
<VARIANCE> 39
 1.910197e+01 2.491290e+01 3.564224e+01 3.282520e+01 5.718373e+01 4.354790e+01 5.080275e+01 4.593395e+01 5.261760e+01 3.848448e+01 4.065100e+01 2.873489e+01 3.055685e+01 1.056716e+00 2.008801e+00 2.391171e+00 2.443164e+00 4.368117e+00 4.261795e+00 4.196265e+00 4.994576e+00 3.821845e+00 3.343184e+00 3.321829e+00 2.615094e+00 1.674147e+00 1.831514e-01 3.859245e-01 3.333657e-01 4.707249e-01 8.314356e-01 7.589818e-01 7.611120e-01 7.274224e-01 6.513485e-01 6.222013e-01 5.972983e-01 4.290850e-01 3.278352e-01
<GCONST> 1.233545e+02
<MIXTURE> 2 6.794763e-01
<MEAN> 39
 -1.391889e+00 1.121888e+01 7.118687e+00 7.396236e+00 5.317786e-01 -3.161358e+00 -6.700042e-01 -1.920880e+00 -8.164358e-01 -4.994677e-01 -1.833727e+00 -5.898917e-01 5.416083e+01 -3.313911e-01 -1.373856e-01 -2.920094e-01 -2.559834e-01 2.144043e-01 1.931797e-01 -2.344956e-02 -6.526423e-02 7.554225e-02 -1.144210e-01 -7.551004e-02 9.996820e-02 -3.584880e-01 -1.503547e-01 -3.350055e-01 -2.825044e-03 -1.997191e-01 -1.948803e-01 -3.274778e-02 -5.003991e-02 5.595386e-02 -6.585408e-02 -2.073808e-02 1.141163e-01 3.917262e-02 3.329731e-01
<VARIANCE> 39
 8.904716e+00 9.673859e+00 1.276590e+01 1.989882e+01 2.204905e+01 2.568192e+01 2.909410e+01 2.967555e+01 3.122193e+01 3.147403e+01 2.222204e+01 2.300131e+01 5.203736e+00 5.063584e-01 7.851279e-01 1.011538e+00 1.469312e+00 1.859524e+00 1.993529e+00 2.249108e+00 2.690345e+00 2.404994e+00 2.675320e+00 2.184715e+00 1.917323e+00 3.302589e-01 1.162554e-01 2.308670e-01 2.259016e-01 3.490563e-01 3.990361e-01 4.665933e-01 4.882652e-01 5.585513e-01 4.799694e-01 4.842425e-01 4.420790e-01 3.652598e-01 1.912677e-01
<GCONST> 1.002423e+02
<STATE> 3
<MEAN> 39
 -3.891971e+00 7.989836e+00 4.957965e+00 5.434284e+00 7.708433e-01 -2.643562e+00 -1.388107e+00 -2.642547e+00 -1.586304e+00 -8.828984e-01 -1.231295e+00 -9.555634e-02 5.426581e+01 -1.560988e+00 -2.382901e+00 -3.415529e-01 -1.888380e+00 -3.003462e-01 3.407552e-01 -6.812982e-02 6.760260e-01 -1.303522e-01 1.149876e-01 4.626173e-01 2.708143e-01 2.447385e+00 -2.900130e-01 -1.543728e-01 2.142318e-01 -1.713964e-01 -4.185821e-01 -2.870312e-01 -3.870490e-03 9.286504e-02 -7.863593e-02 1.382754e-01 4.810283e-02 -1.960291e-02 7.539894e-01
<VARIANCE> 39
 1.477794e+01 2.328430e+01 2.614865e+01 2.856244e+01 2.465030e+01 3.154069e+01 3.101211e+01 3.457393e+01 2.859212e+01 2.889963e+01 2.589884e+01 2.417373e+01 1.168979e+01 2.122202e+00 3.885992e+00 3.243743e+00 4.533514e+00 3.757282e+00 3.778688e+00 3.559418e+00 4.343336e+00 3.038879e+00 3.529028e+00 2.664934e+00 2.348243e+00 4.682802e+00 2.948131e-01 6.270010e-01 4.587184e-01 6.118473e-01 6.536425e-01 5.817088e-01 6.702645e-01 8.037259e-01 6.386949e-01 5.884891e-01 5.331911e-01 4.061847e-01 4.737173e-01
<GCONST> 1.215225e+02
<STATE> 4
<NUMMIXES> 2
<MIXTURE> 1 5.524612e-01
<MEAN> 39
 -1.279580e+01 -1.533904e+00 5.694818e+00 -2.928366e+00 -2.117777e+00 -3.177550e+00 -1.788260e+00 5.632773e-01 -2.199531e+00 9.405386e-02 -9.784953e-02 5.498207e-01 6.802106e+01 -8.782344e-01 2.795496e-01 1.187101e+00 1.732010e-01 -1.195763e+00 -1.093143e+00 6.178264e-02 5.215817e-01 -3.691511e-01 7.259887e-02 2.062287e-01 -9.097133e-02 1.428144e+00 1.107473e+00 1.171716e+00 1.600791e-01 1.226708e+00 -1.284871e-01 -2.025684e-01 -1.155946e-01 -3.117428e-01 6.414711e-02 -2.090151e-01 -6.236077e-02 -7.353488e-02 -1.314791e+00
<VARIANCE> 39
 2.664062e+01 4.663951e+01 4.735172e+01 5.651085e+01 4.298249e+01 4.477962e+01 5.352032e+01 3.942926e+01 3.881216e+01 3.119220e+01 2.835602e+01 2.015202e+01 2.048928e+01 4.378465e+00 4.864528e+00 3.025859e+00 6.397027e+00 5.085131e+00 4.322949e+00 4.576978e+00 5.041248e+00 3.904369e+00 3.613675e+00 3.388287e+00 2.678706e+00 6.541805e+00 5.474970e-01 6.741977e-01 8.213609e-01 1.031030e+00 1.107397e+00 9.939566e-01 9.062963e-01 8.335471e-01 6.638697e-01 6.477026e-01 5.631300e-01 4.723131e-01 4.518427e-01
<GCONST> 1.330494e+02
<MIXTURE> 2 4.475377e-01
<MEAN> 39
 -6.179145e+00 5.445604e+00 6.995261e+00 4.086757e+00 -6.191973e+00 -7.606110e+00 -3.869649e+00 -1.002291e+00 -2.351164e+00 -6.387873e-01 7.796254e-01 4.719145e-01 5.908090e+01 8.555331e-01 7.793511e-01 -4.579222e-01 5.311884e-01 -2.912306e-01 -1.328918e-01 -2.439477e-01 -3.995032e-01 3.385092e-01 -1.104177e-01 9.000342e-02 7.088561e-02 -1.098097e+00 2.289961e-02 -1.371853e-01 -2.101408e-01 -1.221325e-01 2.086594e-01 3.770930e-01 1.354688e-01 -6.702219e-02 1.046233e-01 2.409575e-03 -5.719447e-02 -5.196293e-02 7.021813e-02
<VARIANCE> 39
 3.299855e+01 2.346534e+01 2.105744e+01 3.052406e+01 7.037574e+01 6.643684e+01 5.401145e+01 4.874525e+01 4.736764e+01 4.429115e+01 4.499915e+01 3.812108e+01 2.822478e+01 2.799705e+00 2.626242e+00 2.496065e+00 4.643381e+00 6.870216e+00 7.003547e+00 3.397122e+00 3.390531e+00 3.205766e+00 3.466643e+00 3.345535e+00 2.853113e+00 2.816137e+00 4.784529e-01 4.148643e-01 4.541903e-01 6.977381e-01 1.167402e+00 1.320326e+00 7.149470e-01 6.926122e-01 6.407155e-01 6.645326e-01 6.942004e-01 6.405222e-01 5.100683e-01
<GCONST> 1.306457e+02
<TRANSP> 5
 0.000000e+00 1.000000e+00 0.000000e+00 0.000000e+00 0.000000e+00
 0.000000e+00 8.661962e-01 1.338039e-01 0.000000e+00 0.000000e+00
 0.000000e+00 0.000000e+00 5.516884e-01 4.483116e-01 0.000000e+00
 0.000000e+00 0.000000e+00 0.000000e+00 7.288316e-01 2.711683e-01
 0.000000e+00 0.000000e+00 0.000000e+00 0.000000e+00 0.000000e+00
<ENDHMM>
~h "f"
<BEGINHMM>
<NUMSTATES> 5
<STATE> 2
<NUMMIXES> 2
<MIXTURE> 1 3.162813e-01
<MEAN> 39
 2.053787e+00 7.390786e+00 8.671473e-01 3.475847e+00 -1.688878e+00 -2.593403e+00 -2.530669e+00 -1.654385e+00 -1.396439e+00 3.306147e+00 3.914558e+00 5.811136e-01 6.162000e+01 -1.500676e+00 -2.019316e-01 1.072502e+00 4.229079e-01 1.608882e+00 7.881069e-01 5.335310e-01 4.856093e-01 5.484388e-01 -3.466507e-01 -8.772777e-01 -1.540456e-01 -6.924278e-01 -4.538881e-01 -2.165337e-01 4.072453e-02 6.926172e-02 -1.721223e-02 1.129475e-01 -8.777102e-03 -7.351431e-02 -3.681329e-02 -3.197133e-01 -3.302243e-01 -6.314603e-02 1.039319e-01
<VARIANCE> 39
 1.692224e+01 1.293168e+01 3.418669e+01 2.867699e+01 3.778595e+01 5.670241e+01 4.913989e+01 3.616500e+01 4.550669e+01 3.670415e+01 2.563404e+01 2.613910e+01 6.160962e+00 9.461970e-01 1.379337e+00 1.811272e+00 1.782528e+00 2.557135e+00 3.533967e+00 3.312484e+00 2.992728e+00 3.823763e+00 2.777689e+00 3.319886e+00 2.634535e+00 4.975594e-01 8.859210e-02 1.019726e-01 3.047090e-01 2.750309e-01 4.210429e-01 5.551032e-01 5.243117e-01 5.267623e-01 6.145654e-01 5.066663e-01 4.999324e-01 4.138725e-01 3.687018e-02
<GCONST> 1.086504e+02
<MIXTURE> 2 6.837184e-01
<MEAN> 39
 -8.315969e+00 4.888577e+00 4.007665e+00 4.853630e+00 1.290405e+00 -1.537327e+00 -1.374495e+00 -1.418866e+00 -1.385467e+00 -1.656250e+00 -1.920108e+00 -3.491435e-01 5.886508e+01 -1.566579e+00 -6.592006e-01 -5.597104e-01 -2.815066e-01 -4.326824e-01 -2.051668e-01 -4.926149e-01 -6.269280e-01 8.559329e-03 -9.141413e-02 -2.019755e-01 1.028640e-01 1.325619e-01 8.395085e-02 -8.054943e-02 -2.325015e-01 -8.485416e-02 -2.593981e-01 -1.445683e-01 -9.342857e-02 -4.432173e-03 -1.359919e-02 1.447020e-01 2.306216e-01 4.645539e-03 1.976932e-01
<VARIANCE> 39
 1.616114e+01 1.564165e+01 1.601351e+01 2.529348e+01 3.270760e+01 3.924397e+01 3.918605e+01 3.807553e+01 4.285738e+01 3.333367e+01 2.360458e+01 2.273570e+01 1.069631e+01 1.365496e+00 1.294213e+00 1.566990e+00 2.332593e+00 3.414115e+00 3.384992e+00 2.664239e+00 2.745589e+00 2.788547e+00 2.651207e+00 2.617919e+00 1.892808e+00 6.416415e-01 1.536437e-01 2.087103e-01 3.379835e-01 5.243523e-01 7.677489e-01 7.179903e-01 5.319529e-01 5.926470e-01 5.446509e-01 5.340968e-01 4.828011e-01 4.001793e-01 7.404509e-02
<GCONST> 1.106567e+02
<STATE> 3
<MEAN> 39
 -1.513968e+01 -3.550256e-01 4.855595e-01 3.293876e+00 -9.047033e-01 -1.644512e+00 -2.453501e+00 -1.707830e+00 -4.611703e-01 -8.756834e-01 -1.512113e+00 -5.955543e-02 6.163588e+01 -2.894066e-01 -3.751169e-01 -2.116420e-01 -1.071532e-01 3.492994e-02 1.100704e-01 7.915849e-02 1.034523e-01 1.341677e-01 9.410164e-03 4.566430e-03 -4.108466e-02 2.619245e-01 1.064670e-01 -7.718173e-03 2.152144e-03 -5.887957e-02 2.400941e-02 -3.530328e-03 3.744184e-02 4.638897e-02 3.386172e-02 2.312387e-02 5.694365e-03 8.835763e-03 -1.479720e-02
<VARIANCE> 39
 7.942191e+00 1.632875e+01 1.899181e+01 1.849072e+01 2.544232e+01 3.011191e+01 3.464423e+01 2.866124e+01 3.484905e+01 3.462330e+01 2.735462e+01 2.408813e+01 8.669753e+00 4.253925e-01 9.310036e-01 1.291587e+00 1.672732e+00 1.850038e+00 2.531487e+00 2.671544e+00 2.625407e+00 2.541128e+00 2.769680e+00 2.464048e+00 2.375405e+00 2.310726e-01 7.273062e-02 1.748977e-01 2.505153e-01 3.292535e-01 3.766590e-01 5.149161e-01 5.293801e-01 5.196015e-01 4.953021e-01 5.454038e-01 5.261437e-01 4.800919e-01 3.353467e-02
<GCONST> 1.014103e+02
<STATE> 4
<NUMMIXES> 2
<MIXTURE> 1 3.241072e-01
<MEAN> 39
 -7.463558e+00 -2.289537e+00 -3.720531e+00 -6.479619e-02 -1.791002e+00 -1.293671e+00 -1.247409e+00 1.057476e-01 7.380621e-01 2.112910e+00 -3.165468e-01 4.549192e-02 5.812851e+01 2.158333e+00 2.262262e+00 1.016037e+00 1.962516e+00 4.857437e-01 1.005199e+00 3.901651e-01 3.106179e-01 -6.837544e-01 -4.459648e-01 -1.750627e-01 -4.165223e-01 -6.937483e-01 4.226111e-01 5.853789e-01 2.881655e-01 1.986966e-01 -8.119897e-02 7.779276e-02 -5.108434e-02 4.340524e-02 -2.460600e-01 -3.202179e-01 4.053300e-02 -1.849678e-01 6.675493e-01
<VARIANCE> 39
 1.032949e+01 1.229759e+01 3.511023e+01 3.172659e+01 3.208432e+01 4.025225e+01 4.268694e+01 3.699395e+01 3.489880e+01 4.219850e+01 2.867130e+01 2.289423e+01 7.868045e+00 9.992498e-01 1.984570e+00 2.251278e+00 2.427183e+00 2.258144e+00 2.522351e+00 2.997086e+00 2.705611e+00 2.410146e+00 3.228420e+00 2.561761e+00 1.951025e+00 7.045738e-01 1.380934e-01 2.635944e-01 3.476816e-01 6.523559e-01 5.685639e-01 5.501809e-01 6.339440e-01 6.262255e-01 4.837402e-01 4.936585e-01 5.094187e-01 3.405641e-01 1.470700e-01
<GCONST> 1.114527e+02
<MIXTURE> 2 6.758929e-01
<MEAN> 39
 -1.365303e+01 -4.887279e+00 -3.665759e+00 -1.383186e+00 -7.080799e-01 -1.229851e+00 -1.495795e+00 2.176473e-02 1.192847e+00 7.940904e-01 -1.023880e+00 -3.666353e-01 6.342937e+01 1.129421e+00 -6.820270e-02 -3.076326e-01 -6.526312e-01 -5.040672e-01 -2.827491e-01 1.785298e-02 2.108290e-01 8.510093e-02 3.647781e-01 1.985395e-01 1.663805e-01 -6.185584e-01 2.752419e-01 3.607617e-01 1.843393e-01 3.045766e-01 -2.920012e-02 8.093704e-02 -2.365387e-03 -5.320654e-02 -1.411800e-01 -4.724364e-02 3.590535e-02 8.268691e-03 -2.398678e-01
<VARIANCE> 39
 1.415914e+01 1.401215e+01 2.603319e+01 2.895524e+01 2.794345e+01 3.378610e+01 3.865889e+01 2.902068e+01 3.244170e+01 3.387389e+01 2.646710e+01 2.483174e+01 8.007010e+00 6.208028e-01 1.080321e+00 1.589519e+00 2.261168e+00 2.458294e+00 2.529432e+00 2.863840e+00 2.432343e+00 2.690332e+00 2.611139e+00 2.503493e+00 2.156627e+00 5.709937e-01 1.254532e-01 2.257826e-01 2.894328e-01 5.198733e-01 5.104670e-01 5.487270e-01 5.944233e-01 4.414620e-01 4.712464e-01 5.468463e-01 4.612941e-01 4.087611e-01 7.511465e-02
<GCONST> 1.070782e+02
<TRANSP> 5
 0.000000e+00 1.000000e+00 0.000000e+00 0.000000e+00 0.000000e+00
 0.000000e+00 8.168817e-01 1.831182e-01 0.000000e+00 0.000000e+00
 0.000000e+00 0.000000e+00 9.202504e-01 7.974964e-02 0.000000e+00
 0.000000e+00 0.000000e+00 0.000000e+00 8.605953e-01 1.394047e-01
 0.000000e+00 0.000000e+00 0.000000e+00 0.000000e+00 0.000000e+00
<ENDHMM>
~h "g"
<BEGINHMM>
<NUMSTATES> 5
<STATE> 2
<NUMMIXES> 2
<MIXTURE> 1 2.656309e-01
<MEAN> 39
 -8.936974e-01 8.647765e+00 1.131808e+01 7.531842e+00 -7.216373e+00 -5.471753e+00 1.389554e+00 8.381047e-01 -8.763840e+00 1.524966e+00 7.559191e+00 -3.868400e+00 6.052308e+01 1.056484e-01 1.031917e+00 -1.705213e-01 2.367730e-01 2.274427e+00 1.353478e-01 2.817683e-01 -3.935145e-01 9.534446e-01 5.144422e-01 -1.266785e+00 -1.867025e-03 -1.997770e+00 1.796215e-02 -1.072360e-01 -3.069505e-01 -9.283581e-03 -1.946959e-01 6.470045e-02 -1.576644e-01 -1.484178e-01 5.715670e-01 -3.659274e-01 -3.258252e-01 2.358710e-01 1.222280e-01
<VARIANCE> 39
 8.729093e+00 1.392754e+01 5.658459e+01 1.970580e+01 5.083262e+01 6.456205e+01 6.524258e+01 5.039615e+01 5.760865e+01 4.362735e+01 4.588402e+01 3.126534e+01 1.583324e+01 5.096706e-01 8.711893e-01 1.780035e+00 1.830547e+00 1.843160e+00 4.242546e+00 2.969179e+00 3.216851e+00 4.935368e+00 2.659606e+00 3.411593e+00 2.731648e+00 4.567990e-01 7.832652e-02 1.430354e-01 1.923484e-01 3.613657e-01 4.988597e-01 4.055381e-01 3.667143e-01 5.715992e-01 6.411119e-01 5.264378e-01 5.030222e-01 3.746498e-01 1.551747e-01
<GCONST> 1.113180e+02
<MIXTURE> 2 7.343688e-01
<MEAN> 39
 -1.879209e+00 9.823762e+00 6.631330e+00 6.873187e+00 -5.879052e-01 -4.627606e+00 -8.090706e-01 -1.853771e+00 -2.273714e+00 -1.556926e-01 -2.862336e-01 -3.416907e-01 5.385870e+01 -3.655838e-01 -2.161870e-01 -2.639213e-01 -1.923074e-01 2.068640e-01 -9.096713e-02 -3.582731e-01 -5.993699e-02 2.380016e-01 -1.345338e-01 -5.114354e-01 2.920203e-01 -2.829443e-01 -1.072870e-01 -1.874707e-01 4.268346e-03 -8.377611e-02 -3.632998e-02 1.945532e-02 -9.035199e-02 8.487673e-02 -2.263853e-01 7.791097e-02 9.518793e-02 -5.208793e-02 2.378690e-01
<VARIANCE> 39
 9.023091e+00 9.050679e+00 1.801613e+01 1.545709e+01 2.103121e+01 3.740652e+01 3.421639e+01 3.057652e+01 3.273766e+01 2.760248e+01 2.447073e+01 2.023231e+01 7.028791e+00 3.846502e-01 5.120218e-01 1.371734e+00 1.668403e+00 2.179630e+00 2.471910e+00 2.112453e+00 2.934743e+00 2.995292e+00 2.778680e+00 2.149158e+00 2.093316e+00 2.845393e-01 8.007222e-02 1.668035e-01 2.446829e-01 3.532667e-01 4.965783e-01 5.238402e-01 4.938563e-01 6.109934e-01 6.560227e-01 5.021568e-01 3.723791e-01 4.257703e-01 8.432476e-02
<GCONST> 1.006348e+02
<STATE> 3
<MEAN> 39
 -8.846327e+00 2.241815e+00 3.502412e+00 1.319758e+00 -1.323853e-01 -2.877589e+00 -4.040919e+00 -3.751094e-01 -4.772480e+00 2.396996e+00 -1.459543e+00 7.119846e-02 5.791508e+01 -9.695584e-01 -7.985885e-01 -2.782092e-01 -8.647799e-01 -3.538898e-02 2.080546e-01 -4.027223e-01 3.575783e-01 -2.438677e-01 3.060804e-01 -5.110595e-02 2.111631e-01 1.034465e+00 1.521806e-01 3.665293e-01 1.053591e-01 1.578969e-01 -1.027225e-01 -1.151709e-01 1.202805e-01 -6.329124e-02 5.490103e-02 -1.694824e-01 1.434998e-01 -4.883087e-02 -7.799161e-02
<VARIANCE> 39
 2.600672e+01 4.974459e+01 3.803224e+01 4.171119e+01 5.054885e+01 5.386483e+01 5.354318e+01 4.530084e+01 5.311818e+01 4.473903e+01 3.835703e+01 2.476697e+01 3.549867e+01 2.155337e+00 5.388736e+00 2.170015e+00 3.549757e+00 3.979909e+00 3.368589e+00 3.650432e+00 3.669657e+00 4.405323e+00 3.980639e+00 2.893658e+00 2.892957e+00 3.820730e+00 4.688174e-01 1.178431e+00 3.813096e-01 7.609545e-01 7.593934e-01 6.587970e-01 6.572997e-01 7.838210e-01 9.292523e-01 8.515534e-01 6.465919e-01 6.303041e-01 8.255513e-01
<GCONST> 1.316184e+02
<STATE> 4
<NUMMIXES> 2
<MIXTURE> 1 5.264863e-01
<MEAN> 39
 -1.287167e+01 5.546608e+00 7.713288e+00 -1.448480e+00 -1.857595e+00 -1.155453e+00 -3.006025e+00 -3.215422e-01 -3.339631e+00 2.434646e+00 -2.425153e+00 2.521101e+00 6.096471e+01 1.949678e+00 2.441591e+00 1.773521e+00 2.378280e+00 -3.619330e-01 -1.190256e-01 9.059173e-01 -1.966999e-01 -1.172172e-01 -9.989759e-01 8.425319e-01 -7.630829e-01 -7.579339e-02 8.443249e-01 -2.699195e-01 -1.259920e-01 4.938844e-01 -8.361286e-01 -2.403219e-01 -1.067221e-01 7.036369e-03 -2.074042e-01 -5.836088e-02 6.972391e-01 -3.247794e-01 4.266632e-01
<VARIANCE> 39
 2.522304e+01 3.166004e+01 4.656765e+01 4.161642e+01 4.146214e+01 4.743152e+01 3.413202e+01 4.343848e+01 3.126373e+01 4.371711e+01 3.564255e+01 2.009666e+01 1.791497e+01 3.399656e+00 2.268232e+00 2.162158e+00 3.151182e+00 6.319695e+00 4.592469e+00 2.015326e+00 1.843525e+00 3.160463e+00 3.785542e+00 4.115921e+00 1.508255e+00 1.790691e+00 3.497623e-01 5.728288e-01 7.898367e-01 8.427964e-01 1.402430e+00 6.073176e-01 3.226373e-01 2.975409e-01 5.405237e-01 4.859316e-01 5.333157e-01 3.698994e-01 4.140979e-01
<GCONST> 1.226671e+02
<MIXTURE> 2 4.735135e-01
<MEAN> 39
 -2.049751e+00 9.562541e+00 7.934197e+00 6.948666e+00 -6.351712e+00 -3.363617e+00 -5.348108e+00 6.131318e-01 -4.690021e+00 2.932246e-01 3.567387e+00 -2.222333e+00 6.391467e+01 2.063917e+00 -2.459295e-01 -1.026648e+00 7.996838e-01 -3.182885e+00 -1.573694e+00 -9.482682e-01 2.961904e-01 -3.366503e-01 -7.538307e-01 2.962541e+00 -7.947642e-01 1.720844e+00 -4.667804e-01 -7.010598e-01 -6.182299e-01 -6.354439e-01 -5.428278e-02 4.120607e-02 -5.487293e-03 -6.532525e-02 1.081502e-01 2.002739e-01 -5.988451e-02 3.336664e-01 1.012381e-01
<VARIANCE> 39
 1.570085e+01 2.347454e+01 7.045561e+01 1.278160e+01 1.226944e+02 4.484084e+01 7.635136e+01 4.268137e+01 1.794578e+01 2.957939e+01 6.494395e+01 2.182093e+01 2.576121e+01 1.798152e+00 2.222571e+00 1.932145e+00 2.261138e+00 6.909258e+00 3.582995e+00 2.371577e+00 3.464269e+00 2.294624e+00 2.492902e+00 3.661646e+00 1.739589e+00 1.155885e+00 2.776838e-01 5.782279e-01 4.051228e-01 3.876154e-01 1.451628e+00 7.382977e-01 4.080329e-01 3.935027e-01 4.125143e-01 3.578958e-01 7.193631e-01 2.303650e-01 2.196497e-01
<GCONST> 1.191206e+02
<TRANSP> 5
 0.000000e+00 1.000000e+00 0.000000e+00 0.000000e+00 0.000000e+00
 0.000000e+00 8.918554e-01 1.081446e-01 0.000000e+00 0.000000e+00
 0.000000e+00 0.000000e+00 8.339649e-01 1.660351e-01 0.000000e+00
 0.000000e+00 0.000000e+00 0.000000e+00 6.965415e-01 3.034585e-01
 0.000000e+00 0.000000e+00 0.000000e+00 0.000000e+00 0.000000e+00
<ENDHMM>
~h "k"
<BEGINHMM>
<NUMSTATES> 5
<STATE> 2
<NUMMIXES> 2
<MIXTURE> 1 3.076631e-01
<MEAN> 39
 -3.299114e+00 8.893897e+00 9.793915e+00 5.957760e+00 -5.132103e+00 -4.940901e+00 8.058322e-01 1.806193e-03 -6.333378e+00 2.281685e+00 2.944958e+00 -1.122711e+00 5.846843e+01 -5.688803e-01 1.732920e-01 -6.470249e-01 -6.223416e-01 1.599204e+00 2.292799e-01 -8.580739e-02 -3.071105e-01 9.231880e-01 2.891027e-02 -1.314111e+00 -5.755702e-02 -1.727265e+00 1.201929e-01 -2.394763e-01 -4.708892e-01 -3.947443e-02 -2.659439e-01 -1.845028e-02 -2.113701e-01 -1.673322e-01 2.517520e-01 -3.325526e-01 -1.126740e-01 1.089203e-01 7.548006e-02
<VARIANCE> 39
 2.078677e+01 1.635300e+01 3.524965e+01 2.965928e+01 5.095652e+01 5.440292e+01 6.638467e+01 5.621904e+01 5.078132e+01 4.246878e+01 5.301412e+01 3.520656e+01 1.392122e+01 1.554898e+00 1.511342e+00 3.700109e+00 2.563689e+00 4.952059e+00 4.239872e+00 3.468121e+00 4.645158e+00 4.634618e+00 3.872859e+00 3.542746e+00 3.053382e+00 8.673112e-01 2.381368e-01 2.154295e-01 4.069792e-01 4.843512e-01 8.875434e-01 6.319481e-01 5.672023e-01 6.148083e-01 7.707714e-01 5.655541e-01 7.600021e-01 5.757628e-01 1.566608e-01
<GCONST> 1.227699e+02
<MIXTURE> 2 6.923373e-01
<MEAN> 39
 -4.243841e+00 7.912993e+00 3.387569e+00 3.512862e+00 -1.634487e+00 -4.423905e+00 -1.675111e+00 -2.046424e+00 -8.108947e-01 -3.477609e-01 -8.642917e-01 2.472653e-01 5.236760e+01 -1.824216e-01 -1.446076e-01 -2.888882e-01 -1.701204e-01 1.103683e-02 6.547627e-02 -7.608385e-02 -1.726375e-01 1.248664e-01 -1.594067e-01 -7.279748e-02 1.345936e-01 -2.563652e-01 -2.980270e-02 -6.402040e-02 1.334683e-01 4.821629e-02 -5.569653e-03 3.872383e-02 1.594200e-02 7.810005e-02 -1.408540e-01 8.997331e-02 8.268562e-02 -2.230132e-02 1.774499e-01
<VARIANCE> 39
 6.442438e+00 8.006076e+00 1.296675e+01 1.815782e+01 2.515757e+01 3.904619e+01 4.106927e+01 3.500619e+01 3.640524e+01 3.111626e+01 2.705530e+01 2.254753e+01 2.421211e+00 3.608460e-01 6.622812e-01 1.127712e+00 1.480148e+00 2.116133e+00 2.646190e+00 2.575491e+00 2.706853e+00 2.570677e+00 2.478106e+00 2.275332e+00 2.057120e+00 1.773441e-01 8.773187e-02 1.848337e-01 2.636277e-01 2.956865e-01 4.504685e-01 5.310662e-01 5.356789e-01 5.720440e-01 5.537955e-01 4.751272e-01 4.618275e-01 3.935944e-01 5.739484e-02
<GCONST> 9.879919e+01
<STATE> 3
<MEAN> 39
 -6.067815e+00 5.971214e+00 2.852656e+00 3.392282e+00 -1.465184e+00 -3.764083e+00 -1.722547e+00 -2.217394e+00 -1.829887e+00 9.095732e-02 -8.264565e-01 6.975436e-01 5.237382e+01 -1.196224e+00 -1.989505e+00 2.344761e-01 -4.028247e-01 8.612996e-02 4.596421e-01 -2.759544e-01 5.806162e-01 -4.736095e-01 5.053691e-01 -2.952115e-01 1.019295e-01 1.570832e+00 -4.263433e-01 -4.717783e-01 1.258349e-01 -2.837505e-01 -8.316345e-02 3.954280e-03 -4.025785e-02 2.597918e-01 -1.098033e-01 2.660905e-01 -1.086088e-01 -2.965593e-02 7.225001e-01
<VARIANCE> 39
 8.522008e+00 1.664657e+01 2.139575e+01 2.610333e+01 2.295659e+01 3.910795e+01 3.792872e+01 3.632158e+01 3.712111e+01 3.318121e+01 2.613433e+01 2.027442e+01 7.246149e+00 1.811987e+00 3.499788e+00 3.574309e+00 3.337613e+00 3.256504e+00 3.552468e+00 3.103805e+00 4.361839e+00 3.548181e+00 3.416601e+00 2.757170e+00 2.302071e+00 2.678409e+00 2.363315e-01 5.072467e-01 5.157315e-01 4.917311e-01 6.277294e-01 6.903214e-01 5.956525e-01 7.820523e-01 5.807770e-01 6.408843e-01 4.961016e-01 4.776689e-01 2.483330e-01
<GCONST> 1.181484e+02
<STATE> 4
<NUMMIXES> 2
<MIXTURE> 1 5.766495e-01
<MEAN> 39
 -1.440481e+01 4.115840e+00 6.264519e+00 -3.606133e+00 -3.525860e+00 -2.491898e+00 -2.567696e+00 -1.058550e+00 -1.917610e+00 3.644693e+00 -1.994531e+00 2.120340e+00 6.099472e+01 1.098990e+00 1.183076e+00 4.639494e-01 1.065336e+00 8.546764e-02 -1.355747e-01 1.781552e-01 -1.318633e-01 -3.765877e-02 -7.115197e-01 3.680670e-01 -1.729460e-01 -5.412586e-01 5.610604e-01 -1.683722e-01 -4.767945e-02 4.797660e-01 -1.178274e-01 -4.546187e-02 1.292855e-01 2.672002e-02 -1.152473e-01 -2.047795e-01 1.448220e-01 -1.750097e-01 1.018686e-01
<VARIANCE> 39
 3.413695e+01 2.267696e+01 3.878279e+01 5.401836e+01 5.738673e+01 6.548653e+01 4.820261e+01 5.173843e+01 4.996064e+01 4.181916e+01 3.934064e+01 3.201717e+01 1.600690e+01 3.318874e+00 3.443413e+00 3.033396e+00 4.674102e+00 4.491817e+00 4.275630e+00 3.088356e+00 3.314548e+00 3.730057e+00 3.686921e+00 3.464990e+00 2.643332e+00 1.519489e+00 4.854209e-01 4.996106e-01 5.644180e-01 8.629968e-01 9.623004e-01 8.996937e-01 5.820622e-01 6.558834e-01 7.254000e-01 7.609416e-01 7.129762e-01 5.882835e-01 4.343087e-01
<GCONST> 1.296688e+02
<MIXTURE> 2 4.233512e-01
<MEAN> 39
 -1.296187e+01 -5.110554e+00 4.294399e+00 -2.833973e-01 -1.995493e+00 -2.860008e+00 -3.357826e+00 2.400420e+00 -4.438674e+00 4.180384e+00 -2.817332e+00 8.356941e-01 6.354992e+01 -1.357434e+00 -4.497712e-01 7.661470e-02 -1.499445e+00 -6.639907e-01 -1.543621e-01 -2.711944e-01 4.559191e-01 7.808147e-02 1.035081e+00 -2.737030e-01 2.117874e-01 1.747123e+00 4.457776e-01 1.335325e+00 -3.432764e-02 1.808426e-01 1.846370e-02 -1.525988e-01 6.570862e-02 -4.008687e-01 3.392015e-01 -2.934077e-01 2.019219e-01 3.155982e-02 -8.758584e-01
<VARIANCE> 39
 1.988851e+01 3.081197e+01 5.916130e+01 5.065010e+01 5.085371e+01 5.626802e+01 4.815821e+01 5.582534e+01 3.837244e+01 4.091156e+01 2.682026e+01 2.315044e+01 2.044913e+01 2.184087e+00 6.637071e+00 3.146163e+00 3.562611e+00 3.844304e+00 5.173163e+00 3.885559e+00 5.027599e+00 3.867070e+00 3.462383e+00 2.776973e+00 3.016492e+00 3.888718e+00 3.749005e-01 6.284824e-01 7.501375e-01 8.839198e-01 7.787546e-01 8.744219e-01 6.964195e-01 8.274355e-01 6.550275e-01 7.071782e-01 5.136637e-01 4.876448e-01 4.757135e-01
<GCONST> 1.302062e+02
<TRANSP> 5
 0.000000e+00 1.000000e+00 0.000000e+00 0.000000e+00 0.000000e+00
 0.000000e+00 9.086910e-01 9.130906e-02 0.000000e+00 0.000000e+00
 0.000000e+00 0.000000e+00 6.875203e-01 3.124796e-01 0.000000e+00
 0.000000e+00 0.000000e+00 0.000000e+00 8.496850e-01 1.503151e-01
 0.000000e+00 0.000000e+00 0.000000e+00 0.000000e+00 0.000000e+00
<ENDHMM>
~h "l"
<BEGINHMM>
<NUMSTATES> 5
<STATE> 2
<NUMMIXES> 2
<MIXTURE> 1 6.026545e-01
<MEAN> 39
 1.926398e+00 7.956589e+00 -4.816649e+00 2.359667e+00 -2.344723e+00 -5.868340e+00 -4.095241e+00 -6.009975e+00 7.587813e+00 5.114752e+00 -2.932140e+00 -2.714971e+00 6.718485e+01 7.541594e-02 4.108742e-01 -3.472543e-01 -5.608123e-01 8.317384e-01 3.408011e-01 1.706858e-01 -1.129025e+00 2.475346e-01 7.667903e-01 -1.129351e-01 1.758002e-02 -2.033646e-01 1.998704e-03 3.302925e-02 1.770146e-01 -4.088635e-02 6.547445e-02 -1.279838e-02 -1.085537e-03 5.321088e-02 -1.939606e-01 -7.995892e-02 1.510757e-01 8.895276e-02 -7.880737e-02
<VARIANCE> 39
 5.197638e+00 1.839920e+01 3.393369e+01 3.175912e+01 3.083137e+01 5.520845e+01 6.052242e+01 6.719332e+01 7.230418e+01 6.150011e+01 3.458345e+01 3.379961e+01 1.157127e+01 2.448567e-01 3.982213e-01 1.176419e+00 9.370403e-01 1.102193e+00 1.597374e+00 1.729605e+00 2.086408e+00 2.209974e+00 2.439155e+00 1.890960e+00 1.796028e+00 2.774355e-01 4.440612e-02 6.353114e-02 1.110484e-01 1.448636e-01 1.862809e-01 2.314762e-01 2.848059e-01 3.682913e-01 3.005022e-01 3.459372e-01 2.919523e-01 2.329757e-01 3.110307e-02
<GCONST> 9.430537e+01
<MIXTURE> 2 3.973453e-01
<MEAN> 39
 -1.416850e+00 1.043182e+01 2.645066e+00 -1.687888e-01 6.113212e-01 -1.197996e+00 -3.721913e+00 -3.535825e+00 6.243418e-01 1.652905e-01 -6.872786e-01 8.285759e-01 6.224858e+01 1.312774e+00 4.713255e-01 -6.588472e-01 -2.146183e-01 1.049277e-01 -2.332681e-01 -4.142844e-01 -6.892086e-01 -1.676741e-01 5.177171e-01 2.018730e-01 -1.746434e-01 5.563456e-01 -1.627790e-01 -2.880330e-01 -3.182544e-01 -9.988596e-02 -1.425674e-01 -1.008849e-01 1.063576e-01 8.367671e-03 5.172261e-02 2.447424e-02 1.764100e-02 2.664572e-02 2.196428e-02
<VARIANCE> 39
 2.788476e+01 2.331881e+01 6.814984e+01 5.000144e+01 5.500691e+01 5.347856e+01 6.956900e+01 6.057487e+01 4.015375e+01 4.704274e+01 3.943758e+01 4.417876e+01 2.426528e+01 2.593950e+00 2.154695e+00 3.627648e+00 4.198780e+00 3.080603e+00 3.623640e+00 4.090092e+00 4.519273e+00 3.820507e+00 3.373950e+00 3.387361e+00 3.558196e+00 1.514418e+00 4.738107e-01 3.410449e-01 6.460295e-01 8.913018e-01 6.329226e-01 6.396542e-01 6.768463e-01 7.550123e-01 6.752058e-01 5.962155e-01 6.455062e-01 5.843092e-01 2.350211e-01
<GCONST> 1.287683e+02
<STATE> 3
<MEAN> 39
 3.153349e+00 6.972403e+00 -2.983069e+00 -2.672949e+00 1.646917e+00 1.446508e+00 -7.837877e+00 -4.011716e+00 1.544918e+00 4.586464e+00 -3.782753e-01 -5.064577e+00 6.650137e+01 1.113984e-02 1.936378e-01 1.138618e-01 -6.264470e-02 1.166328e-01 -3.068862e-02 1.188200e-02 -1.967304e-01 -6.371153e-02 -2.317420e-02 1.430658e-01 2.242659e-01 -1.608307e-01 -2.571266e-02 -3.317334e-03 5.198523e-02 6.765107e-02 -6.348018e-02 -2.866157e-02 3.350803e-02 7.276449e-02 3.750423e-03 -8.317843e-02 -1.996248e-02 4.426170e-02 -1.840018e-02
<VARIANCE> 39
 4.977787e+00 1.628486e+01 2.244339e+01 3.750086e+01 2.274452e+01 4.508104e+01 4.463791e+01 7.012230e+01 5.794503e+01 5.658429e+01 3.220634e+01 3.729828e+01 1.275044e+01 1.410839e-01 3.521983e-01 6.820676e-01 9.094450e-01 8.895648e-01 1.147701e+00 1.285265e+00 1.505997e+00 1.380034e+00 1.839463e+00 1.292311e+00 1.139364e+00 2.286194e-01 2.077154e-02 3.746270e-02 9.653790e-02 1.111811e-01 1.474281e-01 1.376268e-01 1.720174e-01 2.075087e-01 1.895321e-01 2.062601e-01 1.921700e-01 1.644336e-01 1.947106e-02
<GCONST> 8.300710e+01
<STATE> 4
<NUMMIXES> 2
<MIXTURE> 1 5.821314e-01
<MEAN> 39
 3.761461e+00 1.367120e+01 -5.375044e+00 -6.299415e+00 1.889791e+00 -1.287287e+00 1.622726e+00 -1.302434e+01 -6.961254e-01 3.224918e+00 2.068563e+00 4.518377e+00 6.345667e+01 4.127458e-03 8.405320e-02 1.627034e-01 6.885926e-02 5.155933e-02 -9.358676e-02 -2.560833e-02 -3.866404e-02 -1.582175e-01 -9.158363e-02 5.148286e-02 1.444282e-01 -1.719575e-01 -3.300733e-02 -5.745888e-02 4.297890e-02 5.424607e-02 -7.369394e-03 -2.445458e-02 -7.810102e-02 1.029580e-01 4.016820e-02 6.922004e-02 -4.546750e-02 -9.532968e-02 1.594600e-02
<VARIANCE> 39
 2.498803e+00 8.395391e+00 2.371511e+01 3.331634e+01 2.850510e+01 5.226156e+01 5.186522e+01 4.817313e+01 4.884584e+01 7.060952e+01 3.587804e+01 3.290516e+01 9.562752e+00 1.296751e-01 3.402785e-01 5.272830e-01 9.566070e-01 9.151810e-01 1.069576e+00 1.317577e+00 1.386343e+00 1.510378e+00 1.632702e+00 1.523506e+00 1.359799e+00 1.488503e-01 2.004755e-02 5.125770e-02 8.106752e-02 1.253197e-01 1.462385e-01 1.921069e-01 1.927609e-01 2.247544e-01 2.460720e-01 2.287711e-01 2.320548e-01 1.917500e-01 1.627639e-02
<GCONST> 8.221353e+01
<MIXTURE> 2 4.178648e-01
<MEAN> 39
 1.810182e+00 1.094964e+01 -1.371974e+00 -4.787855e-01 2.341404e+00 -4.322069e+00 -3.680806e+00 -7.970273e+00 2.482785e+00 4.825060e+00 -2.180108e-01 -2.330719e-01 6.283324e+01 -4.200459e-01 -4.034608e-01 4.348586e-01 5.952072e-01 -4.962987e-01 -3.157675e-01 -4.022704e-03 1.022767e+00 3.097278e-01 -4.911994e-01 -2.066886e-01 -2.769455e-01 1.031463e-02 -6.999900e-02 -6.504740e-02 2.497002e-02 2.059855e-02 -2.017712e-01 9.061212e-02 1.548595e-01 8.712321e-02 -5.895735e-02 -1.904193e-01 5.366496e-02 7.159790e-02 1.589607e-02
<VARIANCE> 39
 7.527434e+00 1.717592e+01 3.640363e+01 4.231532e+01 3.310188e+01 5.845756e+01 7.051220e+01 6.788952e+01 6.108013e+01 5.741241e+01 3.705152e+01 3.909071e+01 1.935084e+01 4.769457e-01 7.045560e-01 1.651763e+00 1.926254e+00 2.303915e+00 2.597817e+00 2.733069e+00 3.571065e+00 3.140006e+00 3.475196e+00 2.371581e+00 2.704205e+00 8.390227e-01 9.282766e-02 8.051408e-02 2.396467e-01 2.786710e-01 3.163140e-01 4.067549e-01 4.511783e-01 5.871547e-01 5.414638e-01 4.766415e-01 4.391536e-01 4.809504e-01 7.287469e-02
<GCONST> 1.100213e+02
<TRANSP> 5
 0.000000e+00 1.000000e+00 0.000000e+00 0.000000e+00 0.000000e+00
 0.000000e+00 7.610348e-01 2.389652e-01 0.000000e+00 0.000000e+00
 0.000000e+00 0.000000e+00 8.458119e-01 1.541882e-01 0.000000e+00
 0.000000e+00 0.000000e+00 0.000000e+00 8.968421e-01 1.031579e-01
 0.000000e+00 0.000000e+00 0.000000e+00 0.000000e+00 0.000000e+00
<ENDHMM>
~h "m"
<BEGINHMM>
<NUMSTATES> 5
<STATE> 2
<NUMMIXES> 2
<MIXTURE> 1 5.310824e-01
<MEAN> 39
 4.203505e+00 4.213171e+00 1.723343e+00 1.125990e+01 9.500578e-01 -4.417510e+00 -2.579892e+00 -7.002755e-01 -1.928187e+00 2.806324e-01 -1.527582e+00 -4.994535e+00 6.289127e+01 -3.005981e-01 6.585570e-01 1.281583e+00 1.876662e+00 1.138771e+00 -7.884432e-01 2.115090e-01 -1.982442e+00 -9.346831e-01 1.680878e+00 -1.898820e-01 -7.201808e-01 -1.007787e+00 -1.358772e-01 -3.188363e-02 2.126438e-01 -5.268565e-02 -2.760583e-01 -4.688537e-02 8.870163e-03 7.592990e-03 -6.993824e-03 3.524615e-02 6.729326e-02 2.198945e-02 1.744341e-01
<VARIANCE> 39
 3.381653e+00 9.371644e+00 1.961738e+01 2.753125e+01 1.976422e+01 3.279541e+01 3.974408e+01 3.936506e+01 4.258882e+01 4.718424e+01 3.222798e+01 2.757872e+01 7.308264e+00 3.448155e-01 6.001596e-01 1.640230e+00 1.165230e+00 2.067978e+00 1.943786e+00 2.105153e+00 2.755977e+00 2.159207e+00 2.932727e+00 1.979103e+00 2.469142e+00 4.667504e-01 5.503229e-02 9.718849e-02 3.051520e-01 3.104692e-01 3.068727e-01 3.476970e-01 4.080304e-01 6.073326e-01 3.960256e-01 5.416020e-01 2.926722e-01 3.217360e-01 5.873810e-02
<GCONST> 9.857379e+01
<MIXTURE> 2 4.689175e-01
<MEAN> 39
 -8.834330e-01 8.622366e+00 7.767360e+00 1.085777e+01 2.517213e+00 -2.016184e+00 -1.652423e+00 -3.458223e+00 -3.926186e+00 2.405337e+00 -1.816654e+00 -5.100327e+00 5.802882e+01 8.688836e-01 1.355791e-01 5.785046e-01 1.188250e+00 3.436433e-01 -4.476493e-01 -1.966449e-01 -4.038293e-01 -3.552392e-01 1.585791e-01 -2.569271e-01 -7.043999e-01 5.338702e-01 -8.205441e-02 -2.777326e-01 -2.491839e-01 -2.922675e-01 -1.851080e-01 -1.744877e-01 -8.897533e-02 4.069778e-02 3.842302e-02 6.048021e-02 -9.252273e-03 1.147680e-01 1.306773e-01
<VARIANCE> 39
 1.096264e+01 1.710827e+01 1.650573e+01 2.662388e+01 4.966525e+01 4.170351e+01 3.216146e+01 3.783174e+01 4.085472e+01 4.035757e+01 3.436251e+01 2.872608e+01 2.553921e+01 1.475260e+00 1.788501e+00 2.178968e+00 2.648943e+00 3.603611e+00 3.260370e+00 2.796618e+00 3.374453e+00 2.367538e+00 2.995541e+00 2.279504e+00 2.375011e+00 1.262547e+00 2.159258e-01 2.746088e-01 2.919659e-01 4.181980e-01 5.561813e-01 5.264159e-01 5.206978e-01 7.152306e-01 4.291703e-01 6.559964e-01 4.289199e-01 4.253322e-01 2.080314e-01
<GCONST> 1.149089e+02
<STATE> 3
<MEAN> 39
 2.513786e+00 6.294871e+00 7.052362e+00 1.488821e+01 1.471345e+00 -5.468421e+00 -1.827650e+00 -6.558138e+00 -3.248107e+00 5.308933e+00 -3.081921e+00 -6.537689e+00 6.068993e+01 1.527993e-03 2.722799e-02 6.205716e-02 -2.273151e-02 3.847399e-02 9.304816e-02 -3.470942e-02 -9.292956e-02 -1.808161e-03 -2.165888e-02 -1.341649e-03 3.154708e-02 -1.587879e-02 -1.527800e-03 1.467504e-02 -7.341000e-02 -1.241899e-01 -8.496474e-03 8.646198e-02 9.943433e-03 9.651718e-02 3.357853e-02 -1.047262e-01 1.757810e-02 5.418318e-02 1.191728e-02
<VARIANCE> 39
 2.711179e+00 1.067482e+01 9.274483e+00 1.697214e+01 2.346646e+01 4.155299e+01 3.362220e+01 3.164889e+01 3.501146e+01 3.926760e+01 2.790883e+01 3.449362e+01 7.897887e+00 1.299095e-01 3.266068e-01 4.388776e-01 7.062606e-01 7.782195e-01 1.188355e+00 1.070917e+00 1.266255e+00 1.266461e+00 1.550445e+00 1.308748e+00 1.364275e+00 1.466854e-01 2.469425e-02 4.652719e-02 9.636586e-02 1.467593e-01 1.513880e-01 2.194528e-01 2.073165e-01 2.465979e-01 2.297502e-01 2.818335e-01 2.243876e-01 2.324988e-01 2.059301e-02
<GCONST> 7.836757e+01
<STATE> 4
<NUMMIXES> 2
<MIXTURE> 1 4.050078e-01
<MEAN> 39
 2.258558e+00 4.980964e+00 7.380385e+00 1.518980e+01 3.949247e+00 -6.095520e+00 -3.283346e+00 -5.362436e+00 -5.800899e+00 4.091034e+00 -1.731792e+00 -6.837286e+00 6.161636e+01 5.593286e-02 -2.349129e-01 -9.512855e-01 -1.482180e+00 -6.943266e-01 5.233610e-01 -1.022227e-01 1.337472e+00 6.406941e-01 -1.026990e+00 2.136975e-01 6.588498e-01 7.732198e-01 9.067768e-02 -1.170685e-01 -4.180899e-01 -6.798095e-01 -6.405054e-01 3.725138e-01 -2.389353e-02 6.923608e-01 3.415459e-01 -6.259046e-01 5.012621e-02 3.736006e-01 3.241079e-01
<VARIANCE> 39
 2.296275e+00 1.123679e+01 1.204851e+01 1.997574e+01 1.976454e+01 4.089815e+01 3.616417e+01 2.294200e+01 3.120440e+01 3.476810e+01 2.370799e+01 4.170430e+01 7.520808e+00 2.879722e-01 4.985408e-01 1.280731e+00 1.885473e+00 1.682426e+00 1.797101e+00 1.729923e+00 2.305980e+00 2.021521e+00 2.616148e+00 1.359011e+00 2.441598e+00 4.422109e-01 4.871077e-02 7.745832e-02 2.827288e-01 1.753540e-01 2.667074e-01 3.486490e-01 3.292378e-01 2.417137e-01 3.121708e-01 3.464072e-01 3.041327e-01 3.893202e-01 4.148293e-02
<GCONST> 9.217933e+01
<MIXTURE> 2 5.949921e-01
<MEAN> 39
 1.798877e+00 7.745981e+00 5.155592e+00 1.038667e+01 2.413133e+00 -3.030314e+00 -2.473827e+00 -3.425562e+00 -9.507584e-01 7.522227e-01 -1.900673e+00 -4.076273e+00 6.030399e+01 -2.954762e-01 -9.442597e-02 -5.359280e-01 -1.561731e+00 -8.827181e-01 7.751558e-01 5.433473e-03 1.477100e+00 5.327184e-01 -1.045078e+00 2.048499e-02 7.169681e-01 3.266348e-01 -1.021248e-01 -4.000616e-02 -4.517034e-03 -3.345942e-02 -1.879315e-01 4.465420e-02 1.646654e-01 2.937344e-02 -1.296554e-01 1.008456e-02 -1.041756e-01 -4.982082e-02 -5.150990e-02
<VARIANCE> 39
 7.916896e+00 2.028160e+01 1.966564e+01 2.516038e+01 2.772144e+01 3.483110e+01 2.452203e+01 3.506425e+01 2.961991e+01 2.910188e+01 2.632373e+01 2.159826e+01 2.501204e+01 9.049177e-01 1.490476e+00 3.125455e+00 2.712911e+00 4.051130e+00 3.493433e+00 2.974889e+00 3.467997e+00 2.908403e+00 4.391016e+00 2.736912e+00 3.117520e+00 1.316573e+00 1.136590e-01 2.201954e-01 3.369875e-01 3.698562e-01 4.933601e-01 5.380322e-01 5.456202e-01 6.522737e-01 4.373381e-01 4.426281e-01 4.108045e-01 4.405442e-01 9.097484e-02
<GCONST> 1.114195e+02
<TRANSP> 5
 0.000000e+00 1.000000e+00 0.000000e+00 0.000000e+00 0.000000e+00
 0.000000e+00 7.763603e-01 2.236397e-01 0.000000e+00 0.000000e+00
 0.000000e+00 0.000000e+00 9.062477e-01 9.375227e-02 0.000000e+00
 0.000000e+00 0.000000e+00 0.000000e+00 7.273148e-01 2.726852e-01
 0.000000e+00 0.000000e+00 0.000000e+00 0.000000e+00 0.000000e+00
<ENDHMM>
~h "n"
<BEGINHMM>
<NUMSTATES> 5
<STATE> 2
<NUMMIXES> 2
<MIXTURE> 1 4.970073e-01
<MEAN> 39
 1.905796e+00 6.670732e+00 8.025653e+00 1.395035e+01 -1.194418e+00 -3.618330e+00 -5.362993e-01 -5.686724e+00 -1.601539e+00 4.757151e+00 -6.881986e+00 -6.383967e+00 6.109851e+01 3.044354e-01 2.809007e-01 6.476570e-01 1.438275e+00 -2.333637e-01 -2.477644e-01 5.209993e-01 -2.024473e+00 1.730170e-03 2.030289e+00 -1.191105e+00 -3.063999e-01 -7.428600e-01 -9.584426e-02 -9.788198e-02 -1.746877e-01 -5.332052e-01 -2.942558e-01 7.950141e-02 -6.253166e-02 4.500220e-01 3.856623e-02 -4.908864e-01 3.241268e-01 1.866046e-01 3.209992e-01
<VARIANCE> 39
 3.768814e+00 1.238064e+01 1.152676e+01 1.690221e+01 1.905700e+01 2.174714e+01 2.869937e+01 2.872049e+01 3.837582e+01 3.730369e+01 1.949374e+01 2.143748e+01 7.133831e+00 6.008109e-01 9.676954e-01 1.597248e+00 2.061200e+00 1.924688e+00 2.143798e+00 1.964286e+00 3.484095e+00 2.347312e+00 2.801264e+00 2.207054e+00 2.158709e+00 4.359368e-01 7.684683e-02 1.208844e-01 2.013203e-01 2.593631e-01 3.229311e-01 3.434415e-01 3.242650e-01 5.085828e-01 3.321649e-01 4.546390e-01 3.201720e-01 3.099740e-01 5.204042e-02
<GCONST> 9.661551e+01
<MIXTURE> 2 5.029918e-01
<MEAN> 39
 3.251344e-01 5.129681e+00 5.171212e+00 6.328731e+00 -2.620011e+00 -2.245620e+00 -2.947374e+00 2.868337e+00 -1.542140e+00 -3.539856e+00 -1.461516e+00 -4.795353e+00 6.572020e+01 3.314709e-01 4.842398e-01 6.417294e-01 1.480089e+00 1.327867e+00 -6.207728e-01 -1.133135e-01 -1.184306e+00 -1.080586e-01 1.483749e+00 -8.424510e-01 -5.895692e-01 -1.336457e+00 9.268985e-02 4.291525e-02 1.302205e-01 4.625480e-01 -2.504452e-01 7.480334e-02 3.105206e-01 -6.882171e-01 1.753982e-02 5.837919e-01 -3.918824e-01 -3.228718e-02 -1.750242e-01
<VARIANCE> 39
 8.865720e+00 2.143906e+01 3.142831e+01 2.223267e+01 3.581112e+01 4.139054e+01 4.031942e+01 4.760281e+01 5.455916e+01 3.962506e+01 3.006280e+01 2.923779e+01 1.279717e+01 5.664006e-01 8.576421e-01 1.734018e+00 2.309224e+00 2.751509e+00 2.947197e+00 2.588259e+00 4.556159e+00 2.197140e+00 3.247058e+00 2.565575e+00 1.999321e+00 6.138682e-01 1.192084e-01 1.870444e-01 2.680845e-01 3.782668e-01 4.654348e-01 4.931989e-01 3.983329e-01 5.187844e-01 4.203327e-01 3.967373e-01 3.729319e-01 3.134146e-01 1.017944e-01
<GCONST> 1.083165e+02
<STATE> 3
<MEAN> 39
 2.321727e+00 7.456297e+00 8.714744e+00 1.384630e+01 -2.396371e+00 -4.299643e+00 -1.053935e-01 -7.548563e+00 -1.080506e+00 6.692300e+00 -7.551192e+00 -6.092841e+00 6.028733e+01 1.662571e-02 2.533183e-01 -3.091951e-02 -1.052355e-01 4.981570e-02 4.891917e-02 -6.713144e-02 -1.578773e-01 -6.386509e-02 1.028775e-02 1.882107e-01 3.601284e-02 -1.944257e-01 -4.676970e-02 2.619991e-02 -3.126550e-02 -1.239918e-01 8.170997e-02 4.802575e-02 -5.152196e-02 1.584786e-01 -2.753280e-02 -1.809398e-01 1.288540e-01 3.177563e-02 2.220234e-02
<VARIANCE> 39
 3.115314e+00 1.155572e+01 9.690117e+00 1.742711e+01 1.744108e+01 2.155815e+01 2.549276e+01 2.770017e+01 3.394691e+01 3.374759e+01 1.978199e+01 2.258354e+01 7.193108e+00 1.389234e-01 3.175034e-01 4.617197e-01 6.671131e-01 7.488660e-01 9.820905e-01 1.053232e+00 1.289025e+00 1.283722e+00 1.346440e+00 1.067289e+00 1.161312e+00 1.207083e-01 2.950412e-02 5.656830e-02 1.000895e-01 1.595509e-01 1.517778e-01 1.842597e-01 2.143359e-01 2.814385e-01 2.303636e-01 2.885281e-01 2.221287e-01 2.188864e-01 1.993814e-02
<GCONST> 7.577809e+01
<STATE> 4
<NUMMIXES> 2
<MIXTURE> 1 5.887147e-01
<MEAN> 39
 1.359217e+00 1.143156e+01 8.256927e+00 1.136747e+01 6.157125e-01 -2.119580e+00 -8.261701e-01 -6.968739e+00 -2.034859e+00 3.373256e+00 -4.382216e+00 -4.775811e+00 5.701278e+01 -4.144723e-01 2.259414e-01 1.916490e-01 -4.932144e-01 6.014386e-01 2.446858e-01 4.663912e-02 6.673709e-01 -2.519054e-01 -7.358783e-01 2.320796e-01 3.122708e-01 -3.528322e-01 -1.955233e-01 -1.423806e-01 -1.285992e-02 -1.449435e-01 3.620602e-02 -1.669424e-02 8.933140e-03 2.236756e-01 -1.175892e-03 -1.287357e-01 -4.555620e-02 8.213609e-02 6.340621e-02
<VARIANCE> 39
 4.282765e+00 8.278049e+00 8.013590e+00 1.671968e+01 1.910640e+01 2.325938e+01 2.648099e+01 3.031303e+01 3.407836e+01 4.132425e+01 2.246907e+01 2.139626e+01 7.886892e+00 5.361234e-01 7.498640e-01 8.069555e-01 1.347701e+00 1.569233e+00 2.029385e+00 2.208212e+00 2.310804e+00 1.971781e+00 2.264827e+00 2.011395e+00 1.674567e+00 3.126313e-01 8.273858e-02 1.301396e-01 1.713975e-01 2.500458e-01 2.851282e-01 3.651544e-01 3.695046e-01 4.385808e-01 3.603010e-01 4.500194e-01 3.427155e-01 3.204208e-01 5.771410e-02
<GCONST> 9.328373e+01
<MIXTURE> 2 4.112857e-01
<MEAN> 39
 -2.107894e+00 8.951431e+00 8.344240e+00 8.461269e+00 1.590316e+00 -2.150726e+00 -8.263618e-01 -2.121691e+00 -1.882475e+00 3.705885e-01 -4.774331e+00 -3.984851e+00 5.767667e+01 -7.260644e-01 -4.049528e-01 -3.654003e-01 -1.251627e+00 -1.352035e-01 1.259259e-01 -3.302514e-01 9.186636e-01 -2.423077e-02 -6.390194e-01 5.715327e-01 3.643420e-01 1.310828e-01 5.890099e-02 -7.295948e-02 -1.966950e-01 -1.235554e-02 -3.117045e-01 -8.681979e-02 1.680214e-03 -1.238445e-01 1.417083e-01 7.676362e-02 4.789658e-02 6.497973e-02 4.878023e-02
<VARIANCE> 39
 1.343114e+01 2.169019e+01 2.249548e+01 3.416667e+01 3.697914e+01 3.875309e+01 3.906585e+01 4.079054e+01 3.946131e+01 5.068748e+01 2.912857e+01 3.019561e+01 2.126715e+01 1.440665e+00 1.699268e+00 2.265470e+00 3.235891e+00 3.086481e+00 3.939185e+00 3.152182e+00 4.466492e+00 3.208430e+00 4.148338e+00 2.855672e+00 2.828699e+00 1.466709e+00 2.616440e-01 2.932422e-01 3.838153e-01 6.040757e-01 6.101806e-01 7.079368e-01 6.814049e-01 7.972823e-01 5.943182e-01 6.847157e-01 5.684731e-01 5.050724e-01 2.076684e-01
<GCONST> 1.199683e+02
<TRANSP> 5
 0.000000e+00 1.000000e+00 0.000000e+00 0.000000e+00 0.000000e+00
 0.000000e+00 8.034254e-01 1.965747e-01 0.000000e+00 0.000000e+00
 0.000000e+00 0.000000e+00 8.752026e-01 1.247974e-01 0.000000e+00
 0.000000e+00 0.000000e+00 0.000000e+00 8.552799e-01 1.447201e-01
 0.000000e+00 0.000000e+00 0.000000e+00 0.000000e+00 0.000000e+00
<ENDHMM>
~h "p"
<BEGINHMM>
<NUMSTATES> 5
<STATE> 2
<NUMMIXES> 2
<MIXTURE> 1 3.317983e-01
<MEAN> 39
 -1.277771e+00 5.200868e+00 3.232355e+00 5.238206e+00 5.695722e-01 -5.197861e+00 -4.906131e+00 1.191561e+00 -8.956228e-01 2.198730e+00 1.129499e+00 -2.099093e+00 5.875454e+01 -9.816771e-01 1.300874e+00 -1.773732e-02 -2.626543e-02 1.338576e+00 9.721311e-01 1.135958e+00 -4.525876e-01 5.239959e-01 3.309249e-01 -4.280722e-01 -2.119998e-01 -2.043798e+00 -1.423638e-01 9.692048e-02 1.668138e-01 -1.607619e-01 -4.256568e-01 8.684593e-02 1.790767e-01 -4.146613e-02 -1.735993e-01 -4.264571e-01 -2.742743e-01 2.167392e-01 9.171581e-02
<VARIANCE> 39
 2.929336e+01 1.684812e+01 2.116912e+01 2.151522e+01 4.965356e+01 5.917862e+01 4.733500e+01 3.940565e+01 3.994086e+01 3.784533e+01 2.172200e+01 1.985267e+01 2.035154e+01 7.889121e-01 2.177934e+00 2.320175e+00 2.395452e+00 1.968657e+00 3.079575e+00 3.143976e+00 5.280252e+00 3.404594e+00 4.693149e+00 3.039895e+00 2.777542e+00 1.415063e+00 2.296281e-01 3.399007e-01 3.205824e-01 3.375092e-01 4.093282e-01 5.424049e-01 5.209715e-01 8.688090e-01 6.880999e-01 7.186867e-01 2.810943e-01 4.046150e-01 2.394981e-01
<GCONST> 1.166584e+02
<MIXTURE> 2 6.682017e-01
<MEAN> 39
 -8.508587e-01 1.089801e+01 6.178749e+00 5.585873e+00 2.328440e+00 -2.244151e+00 -3.568622e-01 -1.732277e+00 -9.421216e-01 1.246009e+00 -3.124268e+00 -2.206034e+00 5.468259e+01 -1.048042e+00 -7.650954e-02 -2.114220e-01 -6.620640e-01 -4.431623e-01 -3.378541e-01 3.590800e-01 3.514134e-01 -1.923644e-02 -7.892719e-01 -5.867175e-01 6.309858e-01 -9.337512e-01 8.556852e-02 -4.341638e-01 -3.801431e-01 -7.127390e-03 -1.274080e-01 -1.158827e-01 -2.247962e-01 -8.785687e-02 -4.369142e-02 -9.217475e-03 3.341227e-01 -3.616021e-02 2.106088e-01
<VARIANCE> 39
 7.149503e+00 5.478885e+00 1.588571e+01 1.822277e+01 2.627116e+01 3.281749e+01 3.211380e+01 3.234054e+01 2.897842e+01 2.828395e+01 1.997837e+01 2.088423e+01 3.394469e+00 4.906248e-01 1.353233e+00 2.115183e+00 1.838276e+00 2.510916e+00 2.376601e+00 2.700676e+00 3.657237e+00 2.648493e+00 2.350127e+00 2.453362e+00 2.051975e+00 3.303730e-01 7.754770e-02 1.785375e-01 2.860447e-01 3.194753e-01 4.186111e-01 4.112180e-01 5.336700e-01 5.994029e-01 5.209813e-01 5.288691e-01 4.389588e-01 4.259183e-01 7.861586e-02
<GCONST> 1.009642e+02
<STATE> 3
<MEAN> 39
 -5.383013e+00 7.367929e+00 2.499230e+00 3.095021e+00 -1.409744e-02 -3.629580e+00 -1.679520e+00 -2.382374e+00 -1.318717e+00 -8.664253e-01 -1.444829e+00 -3.684312e-02 5.192109e+01 -9.799592e-02 -1.868842e-01 -1.228285e-01 -4.793132e-02 9.198535e-03 1.383916e-01 1.545914e-02 -2.055384e-01 1.832908e-02 -5.966792e-02 8.498968e-02 2.626019e-02 -1.564669e-01 3.211780e-02 1.442082e-02 7.015911e-02 5.080324e-02 3.259100e-02 1.058907e-02 -1.265824e-02 4.665559e-03 2.691156e-02 7.934149e-02 1.011412e-03 -2.140551e-02 7.385499e-02
<VARIANCE> 39
 7.888244e+00 8.957653e+00 1.324579e+01 1.905851e+01 2.748716e+01 3.468843e+01 3.909682e+01 3.609929e+01 3.311913e+01 3.251412e+01 2.771912e+01 2.218695e+01 3.280860e+00 2.927572e-01 5.699326e-01 9.978639e-01 1.490050e+00 1.663856e+00 2.023131e+00 2.389950e+00 2.654040e+00 2.479764e+00 2.280359e+00 2.400957e+00 1.971225e+00 8.467299e-02 6.161578e-02 1.333774e-01 2.082451e-01 3.044464e-01 3.295991e-01 4.153431e-01 4.972346e-01 5.788666e-01 4.922720e-01 4.345689e-01 5.146073e-01 4.170437e-01 2.990911e-02
<GCONST> 9.527122e+01
<STATE> 4
<NUMMIXES> 2
<MIXTURE> 1 5.140983e-01
<MEAN> 39
 -1.035612e+01 -1.226308e+00 1.128085e+00 1.832447e+00 -9.292509e-01 -4.598687e+00 -3.400433e+00 6.678809e-01 1.951562e+00 1.385293e+00 -2.697449e-01 5.991850e-01 6.303712e+01 1.046783e-01 -6.936262e-01 4.799906e-01 4.086436e-01 -1.344946e-01 -6.801987e-01 -5.419028e-01 7.956293e-01 2.542879e-02 -1.927487e-01 1.185621e-01 -2.286254e-01 1.007485e+00 5.799300e-01 7.719887e-01 2.282761e-01 1.547794e-01 2.599330e-02 1.615182e-01 2.226369e-01 -2.250628e-01 -3.218708e-01 -2.200970e-01 9.620546e-03 -1.583288e-01 -6.958117e-01
<VARIANCE> 39
 1.903074e+01 2.428825e+01 2.471813e+01 3.649072e+01 3.037997e+01 4.459278e+01 3.680034e+01 3.915247e+01 3.722254e+01 4.437500e+01 2.701540e+01 2.688639e+01 2.457917e+01 3.665305e+00 3.455211e+00 2.757405e+00 4.272007e+00 3.269476e+00 4.310874e+00 3.811211e+00 4.364848e+00 3.665095e+00 3.631480e+00 2.679481e+00 2.852143e+00 4.912656e+00 2.556498e-01 4.302192e-01 3.499874e-01 7.271192e-01 6.476855e-01 8.185149e-01 7.782919e-01 6.856176e-01 6.445097e-01 6.977951e-01 6.061005e-01 5.905181e-01 5.695955e-01
<GCONST> 1.257501e+02
<MIXTURE> 2 4.859020e-01
<MEAN> 39
 -5.919131e+00 6.907047e+00 2.476468e+00 2.884759e+00 9.256788e-01 -1.387372e+00 2.603423e-01 -2.245731e+00 -5.473672e-01 -4.989832e-01 -1.329099e+00 -1.180752e-01 5.153391e+01 -6.533931e-01 -1.035931e+00 -8.955012e-02 -1.883025e-01 -7.384486e-02 -1.185306e-01 -3.325582e-01 4.598930e-01 5.375491e-01 4.843455e-01 2.564919e-01 2.574747e-01 1.769765e+00 -1.529727e-01 -4.592831e-01 1.172951e-02 -6.162476e-02 -1.852932e-01 -3.289374e-01 -2.689608e-01 3.614314e-01 7.633849e-02 1.989473e-02 5.071630e-02 4.907139e-02 8.416200e-01
<VARIANCE> 39
 7.092227e+00 1.138993e+01 1.159541e+01 1.663888e+01 2.164213e+01 2.954947e+01 3.757092e+01 3.032113e+01 3.226184e+01 2.465966e+01 1.819532e+01 2.099314e+01 3.920425e+00 1.006176e+00 1.870609e+00 1.338178e+00 2.028365e+00 2.626193e+00 4.042760e+00 4.333210e+00 3.772601e+00 2.823611e+00 3.512248e+00 2.185570e+00 2.138522e+00 3.828287e+00 2.560442e-01 2.078789e-01 2.946768e-01 4.435462e-01 3.870956e-01 7.113937e-01 7.534104e-01 6.859492e-01 5.399742e-01 5.273175e-01 3.899038e-01 4.400705e-01 2.375762e-01
<GCONST> 1.094130e+02
<TRANSP> 5
 0.000000e+00 1.000000e+00 0.000000e+00 0.000000e+00 0.000000e+00
 0.000000e+00 7.924253e-01 2.075747e-01 0.000000e+00 0.000000e+00
 0.000000e+00 0.000000e+00 9.105206e-01 8.947945e-02 0.000000e+00
 0.000000e+00 0.000000e+00 0.000000e+00 8.515211e-01 1.484788e-01
 0.000000e+00 0.000000e+00 0.000000e+00 0.000000e+00 0.000000e+00
<ENDHMM>
~h "r"
<BEGINHMM>
<NUMSTATES> 5
<STATE> 2
<NUMMIXES> 2
<MIXTURE> 1 5.591851e-01
<MEAN> 39
 -5.210774e+00 -1.604863e+00 7.734957e-01 6.509417e+00 1.739829e+00 -1.604952e+00 -5.032456e+00 -9.991110e-01 3.406776e+00 1.447412e+00 -1.574349e+00 -1.849267e+00 5.933601e+01 1.725396e+00 1.026683e+00 8.119203e-02 5.155556e-01 2.207436e-01 5.665899e-02 -8.748098e-02 -1.325269e-01 -3.573270e-01 -7.267899e-02 2.754653e-01 -2.950784e-02 5.027427e-02 1.879915e-01 3.421199e-02 -1.282895e-01 -1.356961e-01 -3.295052e-01 -1.964596e-01 -2.111667e-02 -3.179193e-03 -2.319862e-01 -6.807297e-02 2.157338e-01 2.415578e-01 1.748856e-01
<VARIANCE> 39
 2.775340e+01 4.228533e+01 3.011497e+01 3.266918e+01 3.137460e+01 4.874681e+01 3.942712e+01 4.830823e+01 4.550293e+01 3.664910e+01 3.189268e+01 3.237430e+01 2.388756e+01 3.484355e+00 2.653289e+00 2.205402e+00 2.896032e+00 2.775911e+00 3.608780e+00 3.336982e+00 2.783458e+00 3.562478e+00 3.201848e+00 2.992624e+00 2.670511e+00 1.362112e+00 3.181363e-01 6.013152e-01 4.870609e-01 6.274512e-01 6.120939e-01 6.451706e-01 6.051689e-01 5.063847e-01 6.909725e-01 5.143174e-01 5.777819e-01 5.254833e-01 2.508433e-01
<GCONST> 1.229258e+02
<MIXTURE> 2 4.408138e-01
<MEAN> 39
 5.988618e+00 2.252063e+00 -1.158820e+00 6.946735e+00 -3.730263e+00 -4.223884e+00 -6.489064e+00 -1.167477e+00 -2.245178e+00 5.286140e-01 3.433202e+00 7.731733e-01 6.488413e+01 7.880592e-01 -4.022654e-01 -5.848200e-01 -6.989652e-02 -1.032020e+00 -7.866077e-01 -5.984318e-01 5.871474e-02 -2.474087e-01 1.442983e-01 8.810782e-01 4.309530e-01 5.184924e-01 -5.616665e-01 -1.836194e-01 1.826150e-01 -2.165563e-02 2.044087e-01 1.636489e-01 1.523168e-01 1.263528e-01 2.639911e-01 -2.954376e-02 -2.263306e-01 -2.429998e-01 -1.659772e-01
<VARIANCE> 39
 8.820483e+00 2.020030e+01 5.395664e+01 2.512472e+01 3.237122e+01 9.079401e+01 4.545465e+01 5.113092e+01 4.149119e+01 3.630057e+01 3.970976e+01 2.733542e+01 1.299014e+01 1.539191e+00 1.217780e+00 2.166580e+00 1.796237e+00 2.654588e+00 2.792567e+00 2.462662e+00 2.667294e+00 3.275980e+00 2.346046e+00 2.564137e+00 2.263849e+00 8.082677e-01 2.741917e-01 3.242877e-01 2.298064e-01 2.710094e-01 2.952119e-01 4.284706e-01 3.715388e-01 3.701516e-01 3.626938e-01 3.710347e-01 3.964778e-01 3.081352e-01 7.175113e-02
<GCONST> 1.101479e+02
<STATE> 3
<MEAN> 39
 7.041151e+00 2.334994e+00 -4.785275e+00 6.159112e+00 -2.379745e+00 -1.531239e+00 -7.371995e+00 -2.617280e+00 -3.105256e+00 2.150084e+00 4.280416e+00 6.032734e-01 6.492859e+01 -8.782436e-03 -2.087151e-01 1.931865e-01 2.028069e-01 -1.014304e-01 -3.786890e-01 -2.089021e-01 2.934456e-01 3.705283e-01 -6.570979e-02 -2.620227e-01 -1.771304e-01 4.526957e-02 -6.897437e-02 2.267326e-02 1.163990e-01 -2.470489e-02 -1.645696e-02 -2.314671e-02 7.088207e-02 9.327557e-02 9.902728e-03 -1.133624e-01 -8.021949e-02 5.694046e-03 -1.442567e-02
<VARIANCE> 39
 5.805460e+00 1.643666e+01 3.026896e+01 1.525753e+01 2.914864e+01 5.862870e+01 4.323696e+01 5.040868e+01 5.626939e+01 4.065456e+01 6.170961e+01 3.537607e+01 9.570686e+00 2.102010e-01 5.178325e-01 7.640492e-01 9.499531e-01 9.761744e-01 1.727628e+00 1.676191e+00 1.652602e+00 1.819766e+00 2.001123e+00 2.097334e+00 1.465744e+00 2.089173e-01 3.140952e-02 5.539685e-02 9.051940e-02 1.121040e-01 1.509438e-01 2.016219e-01 2.126669e-01 2.785484e-01 2.543661e-01 2.938460e-01 2.862410e-01 2.289143e-01 1.712140e-02
<GCONST> 8.838727e+01
<STATE> 4
<NUMMIXES> 2
<MIXTURE> 1 6.100810e-01
<MEAN> 39
 4.354724e+00 -1.144385e+00 8.049384e+00 8.271736e+00 -1.303168e+01 -1.396427e+01 -3.520368e+00 4.468597e+00 -1.226879e+00 -4.683190e+00 6.156745e+00 3.145367e+00 6.691670e+01 -6.639986e-02 1.152269e-01 1.461427e-01 -7.006086e-02 -2.057846e-01 1.156912e-01 2.430488e-01 -1.053104e-01 -9.462228e-02 1.186983e-01 2.115334e-02 9.337985e-03 -6.470972e-02 -7.366127e-03 5.322160e-02 -3.523398e-02 -1.214768e-02 6.550711e-02 5.138716e-02 -5.271587e-02 -5.177868e-02 2.634655e-02 7.539938e-02 -5.059619e-02 -2.202324e-02 -2.270231e-02
<VARIANCE> 39
 6.807106e+00 1.711420e+01 3.676096e+01 1.795996e+01 3.084786e+01 3.596368e+01 4.267038e+01 3.863694e+01 5.921035e+01 2.285937e+01 3.947959e+01 2.849586e+01 8.020350e+00 1.600629e-01 3.448002e-01 5.418645e-01 4.900829e-01 8.457094e-01 9.217020e-01 1.001189e+00 1.067567e+00 1.166553e+00 1.013635e+00 1.275406e+00 9.273664e-01 1.327206e-01 1.474807e-02 3.550037e-02 5.450325e-02 6.573051e-02 9.462480e-02 1.245525e-01 1.303950e-01 1.365186e-01 1.485844e-01 1.434680e-01 1.609492e-01 1.321606e-01 1.053600e-02
<GCONST> 7.366795e+01
<MIXTURE> 2 3.899196e-01
<MEAN> 39
 5.513936e+00 -3.969697e-02 6.932059e-01 9.112620e+00 -5.795732e+00 -7.181213e+00 -8.458550e+00 4.341955e+00 1.077827e+00 -1.592601e+00 5.032081e-01 -1.614756e-01 6.553026e+01 -5.705004e-01 1.756804e-01 1.060814e+00 5.163856e-02 -2.415427e-01 -6.446326e-01 6.694896e-01 6.190548e-01 -1.298264e-01 -8.154629e-01 2.230163e-02 3.936209e-01 -1.416740e-01 -1.513127e-01 2.332843e-01 3.328909e-02 -1.462733e-01 1.353681e-01 2.218403e-01 2.305885e-01 -2.955020e-01 -2.251804e-01 1.325849e-01 1.509319e-01 1.862900e-02 -1.124648e-01
<VARIANCE> 39
 7.052312e+00 1.744087e+01 3.286809e+01 2.411032e+01 2.962898e+01 6.386644e+01 5.352627e+01 4.683448e+01 4.764540e+01 4.067274e+01 3.526645e+01 3.032192e+01 1.283356e+01 3.978114e-01 7.860940e-01 1.151029e+00 1.039473e+00 1.980463e+00 2.405695e+00 2.252961e+00 2.836479e+00 2.136839e+00 2.192124e+00 2.057690e+00 1.900307e+00 4.970929e-01 5.357439e-02 9.656981e-02 1.142376e-01 1.734686e-01 2.245683e-01 3.265493e-01 3.410069e-01 3.957331e-01 3.234402e-01 3.141274e-01 2.722312e-01 2.712959e-01 4.867011e-02
<GCONST> 9.855873e+01
<TRANSP> 5
 0.000000e+00 1.000000e+00 0.000000e+00 0.000000e+00 0.000000e+00
 0.000000e+00 7.922564e-01 2.077436e-01 0.000000e+00 0.000000e+00
 0.000000e+00 0.000000e+00 8.142363e-01 1.857638e-01 0.000000e+00
 0.000000e+00 0.000000e+00 0.000000e+00 8.457962e-01 1.542038e-01
 0.000000e+00 0.000000e+00 0.000000e+00 0.000000e+00 0.000000e+00
<ENDHMM>
~h "s"
<BEGINHMM>
<NUMSTATES> 5
<STATE> 2
<NUMMIXES> 2
<MIXTURE> 1 3.716814e-01
<MEAN> 39
 -3.851563e+00 1.044255e+01 7.901635e+00 4.672909e+00 2.446880e-01 -7.281688e+00 -9.225439e-01 1.007718e+00 -2.354202e+00 2.980253e+00 -2.985416e-01 9.519497e-01 6.377289e+01 -2.440533e+00 5.807972e-01 3.243163e-01 -6.440831e-01 2.042425e+00 4.234517e-01 1.144791e+00 2.800657e-01 5.416752e-02 -4.109128e-01 -6.470577e-01 7.223381e-02 -1.127526e-02 -6.059316e-01 -2.303797e-01 -2.954264e-01 -2.336555e-01 -1.417520e-01 4.239517e-02 6.996876e-03 -1.024694e-01 -2.091148e-01 -2.657884e-01 2.142169e-02 -9.650594e-02 2.380560e-01
<VARIANCE> 39
 1.841820e+01 1.804226e+01 2.830193e+01 2.803861e+01 6.762508e+01 6.005816e+01 4.411259e+01 4.240157e+01 4.466777e+01 2.893636e+01 3.866113e+01 3.402470e+01 1.166028e+01 1.457319e+00 1.090801e+00 2.059057e+00 2.112464e+00 3.186449e+00 3.568284e+00 2.420115e+00 3.383402e+00 3.130375e+00 3.413506e+00 3.227415e+00 2.804058e+00 4.410369e-01 1.657492e-01 1.588462e-01 2.741583e-01 3.832597e-01 5.608864e-01 5.746753e-01 4.494190e-01 4.865462e-01 4.616506e-01 4.998611e-01 5.859563e-01 4.271331e-01 5.981558e-02
<GCONST> 1.128151e+02
<MIXTURE> 2 6.283184e-01
<MEAN> 39
 -1.735098e+01 1.001764e+01 4.535080e+00 -4.000057e-01 4.484219e+00 -5.316620e+00 7.736657e-01 6.714934e-01 -3.512905e+00 -4.602942e-01 -1.871594e+00 1.916621e-01 6.462267e+01 -2.594778e+00 1.135047e-01 -8.991618e-01 -1.074552e+00 2.071654e-01 -2.143540e-01 -1.329659e-01 -2.121343e-01 -5.226099e-01 -1.992599e-01 -8.327796e-02 4.662612e-02 6.105776e-01 4.778250e-01 -5.284189e-02 -1.188153e-02 1.014132e-01 -1.664791e-01 3.837530e-02 -1.550747e-01 -3.958041e-02 3.540989e-02 1.867483e-01 2.966935e-02 -3.044665e-02 -8.121827e-02
<VARIANCE> 39
 3.069060e+01 3.650911e+01 3.547635e+01 4.865583e+01 4.341265e+01 5.249842e+01 5.894677e+01 4.455611e+01 4.019839e+01 3.748625e+01 3.193423e+01 3.230777e+01 1.324744e+01 1.859699e+00 2.843625e+00 2.040498e+00 2.447680e+00 2.861928e+00 3.204864e+00 3.037447e+00 3.074532e+00 2.843543e+00 3.035777e+00 2.799603e+00 2.304447e+00 6.674939e-01 2.726763e-01 5.661145e-01 3.908741e-01 4.637259e-01 6.461843e-01 6.578941e-01 6.444821e-01 5.613742e-01 5.627416e-01 5.559090e-01 5.627318e-01 4.625267e-01 1.244244e-01
<GCONST> 1.198972e+02
<STATE> 3
<MEAN> 39
 -2.420408e+01 9.444710e+00 1.181014e+00 -3.500210e+00 5.188204e+00 -5.887412e+00 7.542390e-01 6.234499e-01 -4.425241e+00 6.481491e-01 -2.291455e+00 3.697504e-01 6.625449e+01 -1.668290e-01 -2.553320e-01 -4.511350e-02 -1.706652e-01 -8.325969e-02 1.077242e-01 -6.431405e-02 1.146259e-01 9.149873e-02 3.259058e-02 2.874105e-02 -1.956936e-02 1.957519e-02 1.425255e-01 -5.212604e-02 7.420899e-02 5.031528e-02 -8.402923e-02 -3.258432e-02 -1.344805e-02 3.888472e-02 4.340538e-02 -2.347564e-02 3.604497e-02 1.533546e-02 -6.072206e-02
<VARIANCE> 39
 6.514184e+00 1.870041e+01 3.158758e+01 4.028923e+01 3.314200e+01 4.388773e+01 5.554028e+01 4.586413e+01 4.340377e+01 3.850415e+01 2.944421e+01 2.905011e+01 6.999281e+00 3.657871e-01 1.117947e+00 1.119913e+00 1.535969e+00 2.010995e+00 2.422605e+00 2.457703e+00 2.861419e+00 2.515894e+00 2.769136e+00 2.396658e+00 1.966881e+00 1.779438e-01 8.100790e-02 1.510826e-01 2.128306e-01 3.052162e-01 3.623208e-01 4.759909e-01 4.643904e-01 5.716589e-01 4.978691e-01 5.630755e-01 4.699110e-01 3.874622e-01 2.751873e-02
<GCONST> 1.030311e+02
<STATE> 4
<NUMMIXES> 2
<MIXTURE> 1 4.150057e-01
<MEAN> 39
 -1.340850e+01 6.408892e+00 1.532367e+00 -1.203943e+00 1.855479e+00 -6.725256e+00 -1.967258e+00 1.027941e+00 -2.556943e+00 1.460098e+00 -2.080325e+00 -1.118934e-01 5.795823e+01 2.053275e+00 4.405298e-01 1.480060e-01 1.098934e+00 -9.849554e-02 4.633515e-01 7.285690e-02 -2.879794e-02 1.943828e-01 -1.653395e-02 -2.820380e-01 -3.268566e-01 -1.013475e+00 -1.683015e-01 9.538026e-02 6.622066e-02 1.780795e-02 -3.062650e-02 2.183375e-02 5.268352e-02 3.702142e-02 2.366926e-02 1.737150e-02 8.947231e-02 -1.578709e-02 4.503275e-01
<VARIANCE> 39
 1.034704e+01 3.873451e+01 2.557682e+01 3.414833e+01 3.816594e+01 3.294448e+01 4.675177e+01 4.524770e+01 4.032317e+01 3.402064e+01 3.160477e+01 2.815216e+01 1.450295e+01 2.459911e+00 2.699811e+00 2.815759e+00 3.443988e+00 3.170885e+00 3.002178e+00 2.852255e+00 3.305937e+00 2.723045e+00 3.141159e+00 2.742091e+00 2.366177e+00 1.289643e+00 3.402274e-01 3.855595e-01 3.945681e-01 5.663195e-01 6.334835e-01 5.244437e-01 5.495341e-01 6.000337e-01 5.141106e-01 6.081966e-01 4.909235e-01 5.170940e-01 1.807803e-01
<GCONST> 1.188738e+02
<MIXTURE> 2 5.849949e-01
<MEAN> 39
 -2.255896e+01 5.309446e+00 2.682311e+00 -3.964336e+00 1.717208e+00 -5.584598e+00 -1.616106e+00 2.291250e+00 -2.260481e+00 1.550220e-01 -1.069680e+00 8.265629e-01 6.517062e+01 1.541301e+00 -4.891684e-01 1.615974e-01 3.743919e-01 -5.808189e-01 -3.051931e-01 -3.977131e-01 1.338476e-01 3.489805e-01 5.361200e-02 3.728137e-03 -7.613262e-03 -9.229042e-01 5.216309e-01 1.993224e-01 -4.251459e-02 2.465476e-01 1.159157e-01 1.168225e-01 -2.389160e-02 -9.967226e-02 -3.198657e-02 3.902468e-02 -1.482241e-01 -1.343486e-01 -2.489591e-01
<VARIANCE> 39
 1.287225e+01 4.939407e+01 3.898087e+01 3.561109e+01 4.053468e+01 5.856097e+01 5.416965e+01 5.371432e+01 5.147916e+01 4.194833e+01 3.329026e+01 3.055525e+01 8.326840e+00 1.601119e+00 2.300406e+00 2.026043e+00 2.421390e+00 2.805514e+00 3.793139e+00 3.004060e+00 3.225066e+00 2.938237e+00 3.361594e+00 2.560446e+00 2.686800e+00 7.302942e-01 2.131638e-01 5.269178e-01 4.452788e-01 4.940428e-01 5.789005e-01 7.800297e-01 6.047571e-01 6.634437e-01 5.440551e-01 6.995423e-01 5.142524e-01 4.946362e-01 8.862783e-02
<GCONST> 1.191050e+02
<TRANSP> 5
 0.000000e+00 1.000000e+00 0.000000e+00 0.000000e+00 0.000000e+00
 0.000000e+00 8.584512e-01 1.415488e-01 0.000000e+00 0.000000e+00
 0.000000e+00 0.000000e+00 9.147787e-01 8.522125e-02 0.000000e+00
 0.000000e+00 0.000000e+00 0.000000e+00 8.568466e-01 1.431534e-01
 0.000000e+00 0.000000e+00 0.000000e+00 0.000000e+00 0.000000e+00
<ENDHMM>
~h "t"
<BEGINHMM>
<NUMSTATES> 5
<STATE> 2
<NUMMIXES> 2
<MIXTURE> 1 3.606106e-01
<MEAN> 39
 -3.284841e+00 7.600446e+00 6.460834e+00 4.031443e+00 -3.366572e+00 -3.830811e+00 -2.107998e+00 1.420162e-02 -6.985784e-01 -8.609236e-01 -7.434672e-01 -1.176194e-01 5.968290e+01 -2.974253e-01 5.313795e-01 -3.172422e-01 -6.540851e-02 9.703975e-01 1.779040e-01 5.425541e-02 -3.496894e-01 -2.779993e-02 9.374574e-02 -3.465194e-01 6.794626e-02 -1.557709e+00 3.838228e-02 -1.692883e-01 -2.728399e-01 -2.321228e-02 -1.419444e-01 -2.651657e-02 3.553227e-02 -5.226580e-02 -8.968539e-03 -2.271294e-02 4.795429e-02 -1.913337e-02 3.393504e-02
<VARIANCE> 39
 3.018026e+01 2.544208e+01 4.112952e+01 3.605160e+01 5.401634e+01 5.147906e+01 4.884704e+01 4.677208e+01 4.735692e+01 3.445095e+01 4.447603e+01 3.057419e+01 2.810365e+01 1.980392e+00 2.262852e+00 3.157586e+00 2.972466e+00 4.675577e+00 4.384533e+00 4.102849e+00 4.200889e+00 3.484404e+00 2.876139e+00 3.538038e+00 2.856091e+00 1.705885e+00 3.670326e-01 4.625447e-01 4.763375e-01 5.585853e-01 8.811016e-01 8.487338e-01 7.221362e-01 7.984514e-01 6.773527e-01 5.773481e-01 6.772278e-01 5.332592e-01 3.561022e-01
<GCONST> 1.270651e+02
<MIXTURE> 2 6.393895e-01
<MEAN> 39
 -5.711542e+00 7.397733e+00 2.478208e+00 2.763821e+00 -1.047561e+00 -4.684459e+00 -1.911181e+00 -2.113402e+00 -1.209288e+00 -8.862972e-01 -1.078841e+00 1.378206e-01 5.264872e+01 -1.558348e-01 -2.669980e-01 -2.312124e-01 -1.029011e-01 -1.004423e-01 6.977834e-03 8.538779e-03 -1.094739e-01 8.605882e-02 3.409414e-02 1.036624e-01 6.507339e-02 -2.352652e-01 -3.628459e-02 -6.122443e-02 1.238051e-01 -2.759884e-02 2.921921e-02 1.111005e-01 -1.003753e-02 3.250864e-02 1.029685e-02 2.150730e-02 2.228816e-02 -1.886704e-02 2.054913e-01
<VARIANCE> 39
 1.124867e+01 1.162627e+01 1.590239e+01 2.048831e+01 2.478188e+01 3.054959e+01 3.737788e+01 3.904120e+01 3.625326e+01 3.247274e+01 2.850398e+01 2.151056e+01 3.342551e+00 4.031605e-01 6.874666e-01 1.148756e+00 1.641359e+00 1.982501e+00 2.247962e+00 2.368975e+00 2.618633e+00 2.439087e+00 2.648261e+00 2.419222e+00 1.922576e+00 1.468803e-01 8.232126e-02 2.040892e-01 2.490198e-01 3.348236e-01 3.950265e-01 4.969369e-01 5.081215e-01 5.564107e-01 5.062147e-01 5.775676e-01 4.934723e-01 3.854952e-01 9.090775e-02
<GCONST> 1.003543e+02
<STATE> 3
<MEAN> 39
 -6.055446e+00 7.080555e+00 2.718096e+00 2.969133e+00 -7.572754e-02 -3.354608e+00 -1.373395e+00 -2.256746e+00 -9.608533e-01 -1.039078e-01 -8.936375e-01 2.056866e-02 5.232850e+01 -1.152559e+00 -2.226427e+00 6.529548e-02 -1.399126e+00 -2.350498e-01 7.262187e-01 3.929996e-02 3.022864e-01 -2.208091e-02 2.408017e-01 3.717094e-01 4.240749e-01 2.443818e+00 -6.894590e-01 -4.969578e-01 1.669016e-01 -5.342420e-01 -3.446919e-01 -1.143430e-01 2.200788e-02 2.403631e-01 -7.642146e-02 6.291678e-02 3.183065e-02 1.532385e-01 1.179412e+00
<VARIANCE> 39
 1.079208e+01 1.317799e+01 1.612372e+01 2.075263e+01 2.291247e+01 3.006397e+01 3.161109e+01 3.291581e+01 3.474435e+01 3.363422e+01 2.558908e+01 2.420641e+01 4.771447e+00 2.014520e+00 4.501070e+00 2.589625e+00 4.256000e+00 3.427712e+00 3.974566e+00 3.131243e+00 3.809246e+00 3.451724e+00 3.303706e+00 2.457696e+00 2.333867e+00 5.441281e+00 2.049139e-01 5.238651e-01 3.401176e-01 5.441419e-01 6.078776e-01 6.882947e-01 5.719718e-01 6.979495e-01 5.944463e-01 6.491095e-01 4.855693e-01 4.818933e-01 2.891523e-01
<GCONST> 1.172010e+02
<STATE> 4
<NUMMIXES> 2
<MIXTURE> 1 6.189445e-01
<MEAN> 39
 -1.653812e+01 -2.597058e-01 6.889812e+00 -4.675591e-01 -4.930770e+00 -5.721935e+00 -6.420729e-01 2.498041e+00 -1.714862e+00 -1.396062e-01 -5.707788e-01 1.259962e+00 6.469148e+01 1.232105e+00 8.004690e-01 7.960512e-01 1.810556e+00 2.732989e-01 -2.329507e-01 6.994985e-02 2.272381e-01 -2.798757e-02 -3.894030e-01 -3.779041e-01 -5.557369e-01 -1.369130e+00 9.548060e-01 2.497132e-01 -1.875700e-01 3.527865e-01 1.827028e-01 2.306614e-01 -1.967582e-01 -2.541152e-01 1.497072e-02 -4.523579e-02 5.423871e-03 -1.488193e-01 -3.947274e-01
<VARIANCE> 39
 3.685730e+01 3.488471e+01 3.127516e+01 4.532620e+01 3.540281e+01 3.835915e+01 4.060146e+01 4.395453e+01 4.639006e+01 4.575518e+01 3.290127e+01 3.075626e+01 2.100917e+01 4.399661e+00 3.086100e+00 3.463321e+00 4.292133e+00 3.591040e+00 4.212952e+00 3.122982e+00 3.046519e+00 3.091935e+00 2.937524e+00 2.460909e+00 2.710948e+00 1.631564e+00 8.060755e-01 5.357076e-01 5.638177e-01 8.723274e-01 7.298670e-01 7.621384e-01 6.363263e-01 6.564570e-01 6.130629e-01 6.976290e-01 5.306295e-01 6.003015e-01 7.883386e-01
<GCONST> 1.280493e+02
<MIXTURE> 2 3.810569e-01
<MEAN> 39
 -1.370199e+01 -4.758837e+00 2.966847e+00 -5.215530e+00 -2.656031e+00 -6.430979e-01 -1.792570e+00 -3.289278e-01 -1.413054e+00 7.923768e-01 1.556093e-01 1.755185e+00 6.805385e+01 -2.654164e+00 -1.023231e+00 6.872619e-01 -1.396703e+00 -1.361006e+00 -8.484014e-01 1.648882e-01 1.045304e+00 -1.752543e-01 9.379128e-02 2.583838e-01 5.145767e-01 3.398518e+00 5.199047e-01 1.263383e+00 3.676056e-01 1.113784e+00 9.710006e-02 -4.883686e-01 7.336449e-02 -4.016783e-03 -2.346613e-02 -1.966163e-01 -1.971665e-01 -2.661470e-01 -1.422462e+00
<VARIANCE> 39
 2.710278e+01 4.532858e+01 4.042842e+01 5.171738e+01 4.719431e+01 4.174057e+01 3.685400e+01 3.073852e+01 3.132745e+01 3.048425e+01 2.198266e+01 1.900569e+01 3.147024e+01 2.475433e+00 4.741352e+00 3.107183e+00 4.031402e+00 3.924625e+00 3.707636e+00 3.702526e+00 4.021841e+00 4.041748e+00 4.055711e+00 2.966879e+00 2.874553e+00 3.475359e+00 8.588115e-01 6.614363e-01 6.821021e-01 1.095258e+00 9.643440e-01 8.826929e-01 6.877017e-01 6.720967e-01 6.949770e-01 6.097899e-01 4.662348e-01 4.911965e-01 7.276560e-01
<GCONST> 1.295146e+02
<TRANSP> 5
 0.000000e+00 1.000000e+00 0.000000e+00 0.000000e+00 0.000000e+00
 0.000000e+00 8.837197e-01 1.162803e-01 0.000000e+00 0.000000e+00
 0.000000e+00 0.000000e+00 6.275885e-01 3.724116e-01 0.000000e+00
 0.000000e+00 0.000000e+00 0.000000e+00 8.156566e-01 1.843433e-01
 0.000000e+00 0.000000e+00 0.000000e+00 0.000000e+00 0.000000e+00
<ENDHMM>
~h "v"
<BEGINHMM>
<NUMSTATES> 5
<STATE> 2
<NUMMIXES> 2
<MIXTURE> 1 6.257920e-01
<MEAN> 39
 4.502392e+00 6.395686e+00 -3.693663e-01 6.403088e+00 -4.504838e-01 -5.334080e+00 -7.679827e+00 -2.621303e+00 -1.925585e-01 4.270698e+00 4.084021e+00 -3.148843e+00 6.159100e+01 -2.796334e-01 6.633795e-01 2.145509e-01 -1.375428e-01 8.499023e-01 6.182647e-01 3.817236e-01 -7.696221e-01 -6.716697e-02 3.131029e-01 1.950536e-01 3.780441e-01 -7.666066e-01 -1.872196e-01 -1.202485e-01 2.197493e-01 4.013040e-02 -1.396392e-01 7.691271e-02 2.452501e-01 1.655162e-01 -6.227055e-02 -2.806725e-01 -1.241120e-01 1.406299e-01 1.079576e-01
<VARIANCE> 39
 7.124667e+00 1.365447e+01 2.283494e+01 1.157897e+01 1.524692e+01 3.823585e+01 3.245354e+01 2.974736e+01 3.315034e+01 2.689353e+01 2.451759e+01 2.523910e+01 1.152123e+01 3.678429e-01 5.098621e-01 8.094072e-01 9.128160e-01 1.306946e+00 1.889348e+00 1.785047e+00 2.503088e+00 2.227928e+00 2.636752e+00 1.579745e+00 1.894611e+00 3.027146e-01 2.901488e-02 7.857291e-02 1.001360e-01 1.263798e-01 1.803316e-01 2.515936e-01 2.667314e-01 3.290595e-01 3.797942e-01 3.374566e-01 2.646757e-01 2.888032e-01 2.214899e-02
<GCONST> 8.841940e+01
<MIXTURE> 2 3.742074e-01
<MEAN> 39
 3.549027e+00 1.091864e+00 4.705559e+00 8.583459e+00 -8.989522e+00 -1.171253e+01 -7.830093e+00 5.828457e+00 -2.966612e+00 -3.440664e+00 5.097462e+00 -4.676830e-02 6.710192e+01 4.805290e-01 5.306839e-01 -9.081409e-01 5.597970e-02 1.499925e+00 4.238507e-01 -1.056588e+00 -4.924887e-01 8.386646e-01 6.944385e-01 -1.819156e-01 -4.999595e-01 -8.946332e-01 -7.655856e-02 1.804160e-01 4.526641e-02 -2.026849e-01 1.451684e-01 2.464283e-01 2.140344e-01 -4.345675e-01 2.549245e-02 3.782988e-01 1.473525e-02 -1.101838e-01 -1.508415e-01
<VARIANCE> 39
 8.824173e+00 2.199673e+01 3.492820e+01 1.292102e+01 2.630306e+01 8.464195e+01 6.046695e+01 6.504226e+01 4.402945e+01 2.728664e+01 5.175343e+01 2.666687e+01 1.670127e+01 1.883336e-01 4.862286e-01 5.729484e-01 9.801641e-01 8.670374e-01 1.725131e+00 1.310983e+00 3.032319e+00 1.780365e+00 1.877169e+00 2.179365e+00 1.176295e+00 4.016741e-01 3.255376e-02 4.371100e-02 1.027350e-01 1.476272e-01 1.541766e-01 2.615183e-01 2.607369e-01 2.780551e-01 2.994811e-01 2.263961e-01 3.289613e-01 1.890040e-01 2.966691e-02
<GCONST> 9.066517e+01
<STATE> 3
<MEAN> 39
 -3.117481e+00 7.712434e+00 5.262283e+00 6.434096e+00 1.788292e+00 -2.245692e+00 -3.167462e+00 -2.602666e+00 -3.121030e-01 1.817503e+00 8.477600e-01 -2.103525e-01 5.897927e+01 -7.213615e-01 -2.919841e-01 2.045492e-01 -6.111709e-02 1.209837e-01 2.299142e-01 3.082399e-01 1.141949e-01 6.484443e-03 -3.055646e-01 -2.912891e-01 4.207930e-02 1.575313e-01 1.072671e-01 -8.134034e-02 -1.543210e-01 -6.569080e-02 -1.549287e-01 -1.252311e-01 -1.194278e-01 3.990617e-02 1.217566e-02 5.047188e-02 5.135010e-02 -6.594971e-02 1.266030e-01
<VARIANCE> 39
 2.623370e+01 1.060901e+01 1.659432e+01 1.424492e+01 2.397372e+01 2.784777e+01 2.865418e+01 2.892201e+01 3.130544e+01 3.037920e+01 2.937401e+01 2.459389e+01 1.201119e+01 8.360282e-01 6.983978e-01 1.242543e+00 1.254150e+00 1.682920e+00 2.391217e+00 2.175444e+00 2.457733e+00 3.035964e+00 2.659709e+00 2.505343e+00 1.959634e+00 3.926108e-01 8.902728e-02 1.196330e-01 1.898160e-01 2.446332e-01 2.838108e-01 4.053061e-01 3.602229e-01 4.265876e-01 5.794585e-01 5.698103e-01 4.636427e-01 4.263827e-01 3.690182e-02
<GCONST> 9.996436e+01
<STATE> 4
<NUMMIXES> 2
<MIXTURE> 1 5.439283e-01
<MEAN> 39
 6.515195e+00 8.347545e+00 -4.381997e+00 2.971235e+00 -2.247493e+00 -3.636305e-01 -3.919871e+00 -6.340729e+00 -6.329200e+00 4.641220e+00 9.300628e+00 6.132398e-01 6.169796e+01 6.366377e-02 -1.784583e-01 -2.201126e-01 -8.834552e-03 -1.215474e-01 -1.480771e-01 -4.359796e-01 1.670122e-01 2.835888e-01 3.397312e-01 -1.402762e-01 -2.697004e-01 2.501431e-01 -3.689161e-02 -1.043587e-01 9.515143e-02 4.217701e-02 1.841724e-02 -1.425971e-01 -1.152663e-01 1.710412e-01 2.257437e-01 -2.585024e-02 -1.721621e-01 -9.148356e-02 6.438212e-02
<VARIANCE> 39
 4.549253e+00 1.045338e+01 2.090059e+01 3.299737e+01 2.453766e+01 2.662059e+01 6.312030e+01 3.252029e+01 2.886810e+01 2.518834e+01 3.481701e+01 2.901537e+01 8.499189e+00 3.054617e-01 3.985174e-01 7.276683e-01 1.129316e+00 8.955249e-01 1.459707e+00 1.903645e+00 1.320174e+00 1.803688e+00 1.692710e+00 2.014973e+00 1.374692e+00 2.222689e-01 3.730946e-02 4.496247e-02 9.752803e-02 1.887918e-01 1.450861e-01 2.249987e-01 1.859440e-01 1.940664e-01 2.368508e-01 2.082799e-01 2.963403e-01 1.737911e-01 1.458936e-02
<GCONST> 8.401754e+01
<MIXTURE> 2 4.560718e-01
<MEAN> 39
 3.359249e-01 7.272524e+00 4.246942e-01 2.342195e+00 -9.553239e-01 -5.191693e+00 -2.237576e+00 -5.464975e-01 -1.318278e+00 1.348747e+00 1.987434e+00 -2.067382e+00 6.196048e+01 1.729091e-01 -3.018576e-01 -3.601907e-01 -3.898885e-01 -3.614867e-01 4.992490e-02 -2.816851e-01 2.161654e-01 8.095162e-02 -5.516753e-01 3.128659e-01 1.198799e-01 4.394638e-01 5.456471e-02 4.606565e-02 -8.331461e-03 1.186649e-01 -7.311764e-02 1.134760e-01 -2.546353e-02 -1.091133e-01 -1.562958e-01 2.752606e-02 1.202020e-01 6.381492e-02 -6.143570e-02
<VARIANCE> 39
 5.151865e+01 2.249332e+01 2.842577e+01 4.767934e+01 3.628799e+01 3.891226e+01 6.464371e+01 3.013758e+01 2.944727e+01 4.528759e+01 2.640389e+01 3.341954e+01 1.003253e+01 6.218934e-01 9.093907e-01 1.108559e+00 1.470101e+00 1.532099e+00 2.307963e+00 2.125118e+00 2.562061e+00 2.363730e+00 2.719564e+00 2.304040e+00 1.904070e+00 3.572087e-01 1.129983e-01 1.043537e-01 1.098015e-01 1.979290e-01 2.660480e-01 3.068264e-01 3.172376e-01 2.437299e-01 3.011761e-01 4.670548e-01 3.306565e-01 3.182384e-01 4.724567e-02
<GCONST> 1.016417e+02
<TRANSP> 5
 0.000000e+00 1.000000e+00 0.000000e+00 0.000000e+00 0.000000e+00
 0.000000e+00 8.308743e-01 1.691256e-01 0.000000e+00 0.000000e+00
 0.000000e+00 0.000000e+00 8.085058e-01 1.914942e-01 0.000000e+00
 0.000000e+00 0.000000e+00 0.000000e+00 8.325840e-01 1.674160e-01
 0.000000e+00 0.000000e+00 0.000000e+00 0.000000e+00 0.000000e+00
<ENDHMM>
~h "w"
<BEGINHMM>
<NUMSTATES> 5
<STATE> 2
<NUMMIXES> 2
<MIXTURE> 1 3.344902e-01
<MEAN> 39
 2.631077e+00 5.414353e+00 5.437334e+00 1.054686e+01 -7.915975e+00 -1.106141e+01 -5.351189e+00 -2.147775e+00 -5.021546e+00 9.100117e-01 3.595794e+00 9.943460e-01 6.577236e+01 6.182899e-01 3.291122e-01 -1.488149e+00 -3.931655e-01 1.821140e+00 4.511375e-01 -1.023779e+00 -6.062612e-01 3.669424e-01 5.598049e-01 -7.493022e-02 -2.613041e-01 -6.483195e-01 -1.130626e-01 2.097049e-01 8.560853e-02 -2.995980e-01 -1.205773e-02 4.717862e-01 2.217503e-01 -3.611605e-01 -6.411366e-02 2.101662e-01 3.001827e-02 -1.918555e-02 -1.073391e-01
<VARIANCE> 39
 7.953309e+00 6.519963e+00 3.270210e+01 1.489777e+01 5.642374e+01 6.853057e+01 5.369408e+01 3.000576e+01 3.724653e+01 4.709902e+01 3.135531e+01 3.443288e+01 1.104776e+01 3.472351e-01 5.810117e-01 1.242598e+00 1.433938e+00 2.624622e+00 3.779361e+00 2.990795e+00 3.426586e+00 3.117810e+00 3.724664e+00 3.307917e+00 2.421471e+00 2.986961e-01 4.952154e-02 1.034250e-01 1.457106e-01 1.651952e-01 3.744404e-01 3.777261e-01 4.653529e-01 5.038625e-01 6.145034e-01 6.691823e-01 5.277573e-01 4.941112e-01 2.929922e-02
<GCONST> 1.030683e+02
<MIXTURE> 2 6.655090e-01
<MEAN> 39
 -9.383606e+00 1.047068e-01 -5.107731e-01 7.177999e-01 -1.471404e+00 -2.471743e+00 -3.303038e+00 1.037857e+00 -7.100130e-01 8.543294e-01 -5.541406e-01 1.310907e-02 5.969335e+01 3.877878e-01 5.595317e-01 8.959041e-02 1.875077e-01 4.262938e-01 3.197356e-01 1.870943e-01 -3.804828e-01 -1.044686e-01 1.751287e-01 8.398999e-03 -2.230392e-01 -5.455945e-01 4.479091e-02 1.891127e-01 1.939235e-01 1.033798e-01 5.416915e-02 5.928358e-02 6.768364e-02 -8.153855e-04 -1.144990e-01 -7.970823e-02 1.325327e-02 4.571847e-03 4.898720e-02
<VARIANCE> 39
 4.900878e+01 3.351697e+01 3.663560e+01 4.048941e+01 3.515242e+01 4.496193e+01 5.319066e+01 4.700770e+01 4.058276e+01 4.024943e+01 3.612560e+01 2.979426e+01 2.372810e+01 1.566769e+00 2.372232e+00 2.730891e+00 3.047297e+00 2.990795e+00 2.718935e+00 4.245636e+00 3.599630e+00 3.369229e+00 4.148268e+00 3.030194e+00 3.138935e+00 6.642932e-01 1.975143e-01 3.589253e-01 3.591608e-01 4.492657e-01 5.682193e-01 5.441424e-01 8.285640e-01 7.437641e-01 7.042543e-01 8.107378e-01 6.291374e-01 5.553121e-01 8.866647e-02
<GCONST> 1.216910e+02
<STATE> 3
<MEAN> 39
 -1.302592e+00 8.833737e+00 3.631914e+00 6.243612e+00 1.283012e+00 -8.222870e-01 -1.787277e+00 -2.687779e+00 -2.189856e+00 5.460498e-01 -1.280346e+00 -1.768106e+00 5.684589e+01 7.224346e-01 4.658684e-01 -2.089033e-01 -1.091429e-01 -1.584087e-01 1.399962e-01 1.232128e-01 -1.818127e-01 -2.843441e-01 4.988038e-02 1.584091e-01 8.001945e-02 2.334271e-01 -1.258408e-02 -1.616523e-01 -1.299126e-01 -9.894780e-02 -2.138884e-01 -7.284366e-02 -7.244607e-02 5.403080e-02 -8.942683e-03 -2.737015e-03 1.005020e-01 5.673243e-02 1.018013e-01
<VARIANCE> 39
 2.474763e+01 1.541873e+01 2.320363e+01 2.724033e+01 2.989154e+01 3.614881e+01 3.523409e+01 3.115699e+01 3.234845e+01 4.079896e+01 3.026882e+01 2.276738e+01 1.588359e+01 1.840003e+00 1.530946e+00 2.011362e+00 2.364374e+00 2.990348e+00 2.621031e+00 3.068601e+00 2.560148e+00 2.995644e+00 3.039610e+00 2.993607e+00 1.916556e+00 9.466078e-01 2.417859e-01 2.560706e-01 3.154199e-01 4.261927e-01 5.023653e-01 4.035928e-01 5.679926e-01 5.109504e-01 5.281835e-01 5.537355e-01 4.663000e-01 3.812374e-01 1.189482e-01
<GCONST> 1.124517e+02
<STATE> 4
<NUMMIXES> 2
<MIXTURE> 1 3.647420e-01
<MEAN> 39
 6.611852e+00 9.018942e+00 -7.383627e+00 1.282280e+00 -4.445990e+00 2.866210e+00 -5.468394e+00 -8.202777e+00 -8.764486e+00 4.256435e+00 9.637197e+00 8.245650e-01 6.382341e+01 -9.173837e-02 -5.884935e-01 -1.157268e-01 4.069842e-01 1.844830e-01 -3.562560e-02 -1.036263e+00 1.016517e-02 3.816904e-01 6.556072e-01 3.702925e-01 -4.876944e-01 3.723809e-01 -1.130133e-01 -5.793414e-02 2.834187e-01 1.412481e-01 1.272318e-02 -2.862886e-01 -2.739588e-02 2.583668e-01 3.206857e-01 -5.058528e-02 -4.106136e-01 -1.457104e-01 -1.787193e-02
<VARIANCE> 39
 3.041011e+00 9.217598e+00 1.766330e+01 2.124569e+01 3.624776e+01 3.987965e+01 5.117911e+01 3.394855e+01 3.184854e+01 4.548620e+01 3.834694e+01 3.057275e+01 8.434240e+00 2.474491e-01 7.947317e-01 9.663806e-01 1.359057e+00 1.471205e+00 2.147230e+00 2.858282e+00 2.065949e+00 2.188164e+00 3.120967e+00 3.731248e+00 2.170745e+00 4.236747e-01 3.815849e-02 6.579915e-02 1.169228e-01 1.409750e-01 2.369770e-01 2.772131e-01 3.853904e-01 2.811736e-01 3.218258e-01 5.016350e-01 4.126639e-01 3.249061e-01 2.253381e-02
<GCONST> 9.421536e+01
<MIXTURE> 2 6.352576e-01
<MEAN> 39
 5.170588e+00 1.145673e+01 -1.819697e-01 1.978225e+00 -5.060817e+00 -2.245178e+00 -3.905619e-01 -3.448505e+00 -3.774184e+00 1.631909e+00 9.434461e-01 -3.567253e-01 5.969551e+01 1.226167e-01 7.478445e-02 -2.742925e-01 -2.898484e-01 -3.150380e-01 -8.984171e-04 1.542167e-01 3.081225e-02 -7.445278e-02 -1.888664e-01 1.323589e-01 5.648512e-02 1.701231e-01 -1.660812e-02 -6.522407e-02 -4.348565e-02 3.358716e-02 3.473737e-02 2.701127e-02 -6.895904e-02 -5.536028e-02 -9.362399e-03 2.979629e-02 8.045349e-02 -1.435161e-02 5.507465e-02
<VARIANCE> 39
 5.670680e+00 1.457313e+01 2.222285e+01 3.353282e+01 3.616467e+01 3.126520e+01 3.648732e+01 2.603215e+01 3.531672e+01 3.931312e+01 2.651783e+01 2.819671e+01 7.899552e+00 2.267079e-01 3.667428e-01 8.992472e-01 9.405186e-01 1.342018e+00 1.400289e+00 1.545297e+00 1.517013e+00 1.932149e+00 1.939435e+00 1.711610e+00 1.592265e+00 2.563728e-01 2.824437e-02 6.542177e-02 9.466356e-02 1.467606e-01 2.004981e-01 2.101661e-01 2.965272e-01 2.694685e-01 2.782214e-01 3.178986e-01 2.875671e-01 2.494273e-01 1.635217e-02
<GCONST> 8.686504e+01
<TRANSP> 5
 0.000000e+00 1.000000e+00 0.000000e+00 0.000000e+00 0.000000e+00
 0.000000e+00 8.190402e-01 1.809599e-01 0.000000e+00 0.000000e+00
 0.000000e+00 0.000000e+00 8.280441e-01 1.719559e-01 0.000000e+00
 0.000000e+00 0.000000e+00 0.000000e+00 9.265819e-01 7.341816e-02
 0.000000e+00 0.000000e+00 0.000000e+00 0.000000e+00 0.000000e+00
<ENDHMM>
~h "y"
<BEGINHMM>
<NUMSTATES> 5
<STATE> 2
<NUMMIXES> 2
<MIXTURE> 1 3.174353e-01
<MEAN> 39
 -9.390818e+00 4.610057e+00 1.199517e+01 6.480197e+00 -1.675372e+00 3.403930e+00 4.793105e-01 5.786322e-01 -3.139615e+00 -1.042393e+00 -2.783557e+00 -2.019403e+00 5.778581e+01 2.119448e+00 2.191921e+00 1.610582e+00 1.868441e+00 9.695157e-01 2.606140e-01 2.992381e-01 5.675281e-01 -8.713949e-01 -5.889147e-01 -2.184877e-01 -9.219360e-01 6.323655e-01 2.078776e-01 5.689131e-02 -1.055088e-03 -4.576659e-01 -6.645384e-01 -5.750347e-01 -6.559361e-01 -3.098566e-01 -3.166665e-01 2.759686e-02 4.670798e-01 3.260526e-01 2.725103e-01
<VARIANCE> 39
 2.675385e+01 2.476668e+01 2.665911e+01 4.947467e+01 3.338295e+01 5.728830e+01 6.038905e+01 3.139562e+01 2.414251e+01 4.780431e+01 4.240022e+01 2.509575e+01 1.811861e+01 1.541992e+00 7.076665e-01 1.703501e+00 1.385592e+00 2.871761e+00 4.633755e+00 4.354445e+00 2.665229e+00 1.390782e+00 2.765633e+00 2.274520e+00 2.159027e+00 3.015685e-01 1.990441e-01 2.616839e-01 2.420721e-01 5.239263e-01 5.511510e-01 5.623196e-01 4.595053e-01 4.457247e-01 3.406898e-01 5.768957e-01 6.330804e-01 4.969007e-01 5.206705e-02
<GCONST> 1.115897e+02
<MIXTURE> 2 6.825652e-01
<MEAN> 39
 -8.122422e+00 7.335845e+00 1.718673e+01 6.352276e+00 -7.896474e+00 -1.885751e+00 -3.656865e+00 -1.821999e+00 -2.901491e+00 2.861881e-01 -4.937411e-01 -1.687519e+00 6.337006e+01 6.249185e-01 2.464689e-01 2.698395e-01 -2.032288e-01 -1.156265e+00 -5.172290e-01 -3.846522e-01 -2.525543e-01 -5.482536e-01 -7.204033e-02 1.189944e+00 3.809450e-01 2.361374e-01 -1.369052e-01 -2.254157e-01 -2.002913e-01 -9.233086e-02 -5.659409e-02 1.527391e-01 2.803913e-01 -1.338791e-01 -9.451318e-02 1.879695e-02 9.580696e-02 3.292300e-02 -3.591625e-02
<VARIANCE> 39
 5.311799e+01 2.702001e+01 4.730766e+01 4.971153e+01 3.195869e+01 6.309035e+01 4.886346e+01 5.002516e+01 3.695127e+01 2.936123e+01 3.468840e+01 2.575497e+01 2.510849e+01 2.303319e+00 9.710170e-01 8.967546e-01 1.437773e+00 2.650369e+00 6.268403e+00 4.586657e+00 3.665763e+00 2.822465e+00 2.953241e+00 3.967592e+00 2.281977e+00 6.050428e-01 1.725909e-01 2.873929e-01 1.755131e-01 3.802500e-01 3.965763e-01 6.922471e-01 6.409913e-01 8.976507e-01 5.028355e-01 4.692723e-01 3.754506e-01 3.758290e-01 3.540912e-02
<GCONST> 1.153408e+02
<STATE> 3
<MEAN> 39
 -1.372312e+00 7.588446e+00 1.410472e+01 8.334783e+00 -1.391275e+01 -5.747577e+00 -1.913284e+00 5.423430e-01 -7.760972e+00 -1.400030e+00 7.977244e+00 -1.437366e+00 6.541550e+01 -4.241878e-02 7.063637e-02 2.728762e-01 -9.202013e-02 -1.003502e+00 3.618176e-01 2.968775e-01 -3.819332e-01 -8.917712e-01 1.306910e-01 6.789787e-01 -2.221949e-01 1.545668e-01 -1.024584e-01 -5.073051e-02 -1.226337e-01 -1.658300e-02 3.920610e-01 1.841023e-01 -7.867254e-02 -4.047884e-02 2.509398e-01 2.399209e-01 -4.560877e-01 -1.571345e-01 -5.038817e-02
<VARIANCE> 39
 7.400290e+00 1.838143e+01 3.738154e+01 3.032241e+01 2.026367e+01 5.645455e+01 4.826207e+01 2.402636e+01 4.519514e+01 3.448158e+01 3.188514e+01 2.151000e+01 1.293424e+01 4.156543e-01 6.152275e-01 1.407211e+00 1.573184e+00 2.039292e+00 2.133169e+00 2.136611e+00 2.455808e+00 2.177312e+00 1.963023e+00 2.608032e+00 1.713478e+00 4.145651e-01 1.117606e-01 8.756398e-02 1.322104e-01 2.819644e-01 1.323055e-01 2.968863e-01 4.499245e-01 3.061116e-01 2.748344e-01 4.171759e-01 2.449752e-01 2.875793e-01 2.109468e-02
<GCONST> 9.697817e+01
<STATE> 4
<NUMMIXES> 2
<MIXTURE> 1 4.808220e-01
<MEAN> 39
 4.544193e-01 4.545760e+00 1.073188e+01 1.270380e+01 -1.285749e+01 -9.338632e+00 -6.360627e+00 4.105208e+00 -8.655885e+00 -4.039036e+00 8.812595e+00 -2.126389e+00 6.734564e+01 8.813040e-02 -3.674581e-02 -3.754980e-01 -2.335140e-02 2.650532e-01 -1.718986e-01 -2.973942e-01 2.084104e-01 4.521871e-01 -2.117429e-01 -2.752610e-01 2.766062e-01 8.471514e-02 -8.085848e-03 3.125908e-02 6.822232e-02 -7.133052e-02 8.469876e-02 1.062503e-01 -2.799079e-02 -8.606842e-02 7.420698e-02 5.918268e-02 -9.593475e-02 -2.543369e-02 -5.501921e-02
<VARIANCE> 39
 3.001263e+00 7.894274e+00 1.839024e+01 9.811554e+00 1.921308e+01 7.486282e+01 4.905868e+01 2.899889e+01 4.021996e+01 1.736401e+01 2.297479e+01 3.012366e+01 8.932514e+00 1.618409e-01 2.810424e-01 7.524083e-01 5.144908e-01 9.145541e-01 1.254682e+00 1.029251e+00 8.859767e-01 1.346400e+00 1.042727e+00 1.299010e+00 8.699791e-01 1.330775e-01 1.526512e-02 3.674574e-02 5.203478e-02 7.279035e-02 1.161143e-01 1.558182e-01 1.295448e-01 1.142284e-01 1.660250e-01 1.387370e-01 1.974994e-01 1.365066e-01 1.139177e-02
<GCONST> 7.115159e+01
<MIXTURE> 2 5.191774e-01
<MEAN> 39
 -3.593778e+00 9.006644e+00 2.009940e+01 4.859842e+00 -1.109008e+01 1.661784e+00 -6.052149e+00 -3.191698e+00 -1.092616e+01 2.609439e+00 3.467913e+00 -4.487788e+00 6.319837e+01 1.302472e-01 -1.787444e-01 -1.714416e-01 3.412153e-01 -1.605770e-01 -3.595857e-01 1.177586e-01 1.547759e-01 -2.519327e-01 -3.097695e-02 2.881732e-01 -2.083957e-01 7.991307e-02 1.433121e-02 -2.808457e-02 -5.943508e-02 5.391004e-02 3.076020e-02 -1.366173e-01 9.522189e-03 1.077268e-01 1.017035e-02 -1.087669e-01 5.373668e-02 5.332712e-02 1.638763e-02
<VARIANCE> 39
 3.032194e+00 9.674030e+00 1.656279e+01 1.381009e+01 2.601331e+01 6.865086e+01 6.843668e+01 2.014627e+01 4.708884e+01 4.649315e+01 5.382872e+01 3.983103e+01 9.253934e+00 1.538608e-01 3.378456e-01 5.726891e-01 7.491984e-01 1.247888e+00 1.987172e+00 1.327348e+00 1.436195e+00 1.752273e+00 1.560771e+00 1.951977e+00 1.192101e+00 2.324731e-01 2.749037e-02 5.334328e-02 8.750920e-02 1.090235e-01 2.056090e-01 2.473868e-01 2.262037e-01 2.531812e-01 2.745344e-01 2.631252e-01 2.955868e-01 2.242631e-01 1.486512e-02
<GCONST> 8.436794e+01
<TRANSP> 5
 0.000000e+00 1.000000e+00 0.000000e+00 0.000000e+00 0.000000e+00
 0.000000e+00 7.699874e-01 2.300126e-01 0.000000e+00 0.000000e+00
 0.000000e+00 0.000000e+00 6.808794e-01 3.191206e-01 0.000000e+00
 0.000000e+00 0.000000e+00 0.000000e+00 9.364656e-01 6.353437e-02
 0.000000e+00 0.000000e+00 0.000000e+00 0.000000e+00 0.000000e+00
<ENDHMM>
~h "z"
<BEGINHMM>
<NUMSTATES> 5
<STATE> 2
<NUMMIXES> 2
<MIXTURE> 1 6.158432e-01
<MEAN> 39
 -4.482087e+00 1.117559e+01 7.111328e+00 4.645042e+00 -1.348714e+00 -1.246641e+01 -3.176045e+00 5.200382e-01 -2.428363e+00 2.217198e+00 -1.553327e-01 2.939341e+00 6.537899e+01 -1.545411e+00 1.182180e+00 -4.065258e-02 -7.702930e-01 1.553174e+00 -7.450926e-02 6.450839e-01 1.231761e-01 1.342538e-01 3.740051e-01 -5.018693e-01 5.315772e-01 -1.600494e-01 -2.519284e-01 1.665458e-02 -2.908581e-02 -7.379697e-02 6.195675e-02 3.114763e-01 2.182456e-02 1.202587e-01 1.010857e-02 -1.104106e-01 3.406925e-02 -1.616614e-01 7.032421e-02
<VARIANCE> 39
 2.014863e+01 2.069329e+01 2.293118e+01 2.200485e+01 3.626958e+01 2.976561e+01 5.586548e+01 3.472750e+01 5.741452e+01 2.919535e+01 3.207736e+01 2.993722e+01 1.137279e+01 8.561798e-01 7.578048e-01 1.189819e+00 1.490747e+00 2.499885e+00 2.444961e+00 2.501859e+00 2.855336e+00 2.531214e+00 2.452541e+00 2.126477e+00 2.056064e+00 1.924223e-01 1.030132e-01 1.345638e-01 1.625427e-01 2.333718e-01 3.347262e-01 3.374506e-01 3.973877e-01 4.695261e-01 4.146075e-01 4.200658e-01 3.352476e-01 3.378503e-01 2.854713e-02
<GCONST> 1.018893e+02
<MIXTURE> 2 3.841572e-01
<MEAN> 39
 -1.216431e+01 1.292468e+01 7.735679e+00 3.857123e-01 5.172504e+00 -5.969791e+00 -2.462466e+00 2.984538e+00 -2.212589e+00 4.094487e-01 -1.158586e+00 1.049849e+00 6.304508e+01 -2.408353e+00 5.842446e-01 -1.291565e-01 -8.325167e-01 1.115956e+00 4.176151e-01 2.643293e-01 4.099865e-01 -3.184511e-01 -3.269716e-01 -2.890046e-01 2.999708e-02 3.542582e-01 2.328672e-01 -2.451640e-01 -1.334847e-01 2.715552e-01 -3.045037e-01 2.991336e-03 3.919350e-03 -2.340805e-01 -4.671920e-02 2.025837e-02 6.687576e-02 -8.998575e-02 -1.869948e-02
<VARIANCE> 39
 4.157668e+01 3.135994e+01 3.211169e+01 5.162148e+01 4.307706e+01 4.530548e+01 6.802685e+01 4.412195e+01 4.207235e+01 3.794445e+01 3.009286e+01 2.724380e+01 1.975607e+01 1.457531e+00 1.661589e+00 1.794089e+00 2.720191e+00 2.990944e+00 3.782721e+00 2.882695e+00 2.986165e+00 2.779026e+00 2.756891e+00 2.327340e+00 2.490499e+00 7.296260e-01 2.557571e-01 3.044772e-01 2.979511e-01 5.414166e-01 5.399267e-01 6.214485e-01 5.823504e-01 5.539979e-01 5.537823e-01 5.422188e-01 4.983889e-01 4.618488e-01 1.047101e-01
<GCONST> 1.179126e+02
<STATE> 3
<MEAN> 39
 -2.040880e+01 1.314570e+01 4.508145e+00 -1.041158e+00 6.788344e+00 -7.169615e+00 5.889007e-01 1.676112e+00 -3.908441e+00 6.787906e-01 -2.354858e+00 1.389437e+00 6.494948e+01 -4.346296e-01 -3.897690e-01 -1.669337e-01 -2.189521e-01 -9.564043e-03 1.132249e-01 7.341298e-02 2.584054e-02 -1.428626e-01 -1.366672e-02 -2.721312e-02 -1.868630e-01 2.978729e-02 2.277115e-01 -1.135782e-01 6.946563e-02 4.846915e-02 -1.300123e-01 -7.340245e-02 -4.489082e-02 3.959148e-02 1.391299e-02 1.134099e-03 2.649295e-02 1.016285e-02 -2.379337e-02
<VARIANCE> 39
 1.718411e+01 2.749580e+01 3.280976e+01 3.885248e+01 3.827632e+01 4.179574e+01 6.060964e+01 4.956707e+01 4.350913e+01 4.083158e+01 3.198144e+01 2.771977e+01 7.777725e+00 7.695466e-01 9.059939e-01 1.261533e+00 1.631900e+00 2.247462e+00 2.598794e+00 2.468880e+00 2.724268e+00 2.326531e+00 2.522766e+00 2.393246e+00 2.132854e+00 1.558883e-01 7.661980e-02 1.451456e-01 2.107776e-01 3.048007e-01 4.373593e-01 5.040420e-01 4.653392e-01 5.307473e-01 4.639721e-01 4.958065e-01 4.537416e-01 4.237268e-01 2.640636e-02
<GCONST> 1.053585e+02
<STATE> 4
<NUMMIXES> 2
<MIXTURE> 1 6.110451e-01
<MEAN> 39
 -1.914789e+01 7.106483e+00 5.835063e+00 -1.693736e+00 5.404972e+00 -5.971042e+00 -1.044456e+00 3.565626e+00 -4.715324e+00 -2.177087e-01 -1.805502e+00 4.033191e-02 6.392311e+01 1.720761e+00 -7.314438e-01 2.573999e-01 5.281591e-01 -6.892717e-01 -1.142735e-01 -3.578253e-01 -2.020413e-01 2.502833e-01 -7.980486e-02 -3.690103e-02 -6.063392e-02 -6.284398e-01 5.204749e-01 1.585129e-01 -1.911926e-01 7.968802e-02 -2.776660e-01 -1.757222e-01 -1.870058e-01 -2.108680e-01 1.575369e-01 9.795421e-02 -4.057740e-02 8.838402e-02 -1.983581e-01
<VARIANCE> 39
 2.330919e+01 4.435636e+01 3.914405e+01 4.132056e+01 3.701834e+01 5.735291e+01 6.414828e+01 5.222396e+01 4.585197e+01 4.784034e+01 3.686506e+01 2.986736e+01 1.674738e+01 2.234262e+00 2.063867e+00 2.079998e+00 2.339654e+00 3.530073e+00 4.566399e+00 3.713297e+00 4.537654e+00 3.373033e+00 3.384289e+00 2.729233e+00 2.569447e+00 9.682539e-01 2.620289e-01 4.447842e-01 4.325654e-01 4.864908e-01 6.240061e-01 8.958793e-01 7.798454e-01 8.555337e-01 7.011134e-01 7.242197e-01 5.325618e-01 5.278222e-01 1.194868e-01
<GCONST> 1.235999e+02
<MIXTURE> 2 3.889547e-01
<MEAN> 39
 -8.581131e+00 7.430174e+00 4.493882e+00 1.043608e+00 1.478490e-01 -1.017513e+01 -3.958857e+00 1.311423e+00 -1.877937e+00 2.019609e+00 -2.493228e+00 7.544563e-01 5.940560e+01 1.428116e+00 -2.866350e-01 -6.658306e-01 3.648352e-01 -9.440733e-01 -2.971894e-01 -5.171022e-01 -4.474835e-01 5.538483e-01 4.742082e-01 1.643097e-01 -6.601743e-03 -8.294637e-01 -5.674606e-01 -1.752526e-04 6.306392e-02 -1.965286e-02 3.561516e-01 4.401754e-01 2.417352e-01 4.175469e-02 -1.696786e-01 -7.016619e-02 9.185398e-02 -1.653325e-01 1.568904e-01
<VARIANCE> 39
