~o
<STREAMINFO> 1 39
<VECSIZE> 39<NULLD><MFCC_D_A_0><DIAGC>
~s "silst2"
<NUMMIXES> 2
<MIXTURE> 1 1.310593e-01
<MEAN> 39
 -8.052901e+00 4.250928e+00 9.619391e-01 1.679868e+00 -1.728288e+00 -4.978174e+00 -2.743423e+00 -9.231438e-01 -1.007516e+00 -6.484955e-01 -5.290410e-01 1.029187e+00 5.325822e+01 1.455990e-02 -6.245532e-02 -2.264342e-01 7.444964e-02 1.112405e-01 1.890190e-01 6.823763e-02 -7.421683e-03 7.022103e-03 -1.341094e-01 3.536548e-02 9.422260e-02 -2.720177e-01 4.282083e-03 -4.709793e-02 6.022047e-02 4.440594e-02 2.467584e-02 5.513153e-02 7.516260e-02 -2.822892e-02 -3.242161e-02 -4.091275e-02 -7.730562e-02 -7.296177e-02 -4.508092e-02
<VARIANCE> 39
 1.626192e+01 2.291043e+01 2.309643e+01 2.875337e+01 2.792119e+01 3.545706e+01 3.906740e+01 4.030311e+01 3.679975e+01 3.645920e+01 2.958964e+01 2.273160e+01 1.528379e+01 1.360768e+00 1.702350e+00 1.950225e+00 2.497238e+00 2.661658e+00 3.151962e+00 3.630475e+00 3.589505e+00 3.211425e+00 3.374647e+00 2.749096e+00 2.403166e+00 1.126732e+00 2.934422e-01 3.306310e-01 3.618182e-01 4.821730e-01 4.715492e-01 6.018379e-01 6.643611e-01 7.104453e-01 6.240484e-01 6.239468e-01 5.309463e-01 4.224833e-01 4.565800e-01
<GCONST> 1.169920e+02
<MIXTURE> 2 8.689457e-01
<MEAN> 39
 -1.955904e+01 -4.413457e-02 -1.493254e+00 2.122874e+00 4.491204e-01 1.420824e+00 -5.255538e-03 4.775673e-01 -3.533067e-01 7.829371e-02 -3.211667e-01 1.313009e-01 1.478014e+01 -1.896492e-03 -1.096936e-03 4.511285e-03 8.826566e-03 -4.162993e-03 -4.519038e-04 1.223361e-02 -1.020261e-02 -1.322058e-02 4.676112e-03 -3.886290e-04 -1.600599e-03 -6.980918e-04 1.354596e-03 1.978348e-03 -3.077132e-03 -2.533874e-03 -1.976426e-03 3.351093e-03 2.008521e-03 3.822818e-04 1.618577e-03 -1.678917e-03 -1.278936e-03 2.400200e-03 4.047876e-04
<VARIANCE> 39
 7.511302e-01 2.337194e+00 5.012625e+00 7.433539e+00 9.351102e+00 1.147081e+01 1.347161e+01 1.484248e+01 1.513727e+01 1.499713e+01 1.458950e+01 1.275557e+01 1.870390e+00 7.077404e-02 2.469805e-01 5.316880e-01 8.013564e-01 1.012263e+00 1.204157e+00 1.442608e+00 1.624725e+00 1.615200e+00 1.604148e+00 1.560177e+00 1.337651e+00 4.343438e-02 1.438270e-02 4.978049e-02 1.055903e-01 1.618605e-01 2.034264e-01 2.382651e-01 2.916797e-01 3.266835e-01 3.264681e-01 3.171304e-01 3.123607e-01 2.645927e-01 8.882925e-03
<GCONST> 6.563652e+01
~s "silst3"
<MEAN> 39
 -1.305855e+01 1.478446e+00 -1.150281e+00 1.331673e+00 -1.118160e+00 -1.520503e+00 -1.030858e+00 -7.621559e-01 -5.145112e-01 -7.699308e-01 -6.222273e-01 4.504887e-01 3.487893e+01 1.197748e-02 -7.407709e-02 -7.531022e-02 5.053747e-02 -2.860686e-02 -8.360770e-02 -7.581888e-02 1.224713e-01 -2.200149e-02 -1.557618e-01 -5.038678e-03 -5.461324e-02 -3.151860e-02 3.649260e-02 7.683157e-02 7.074241e-02 6.107129e-02 3.823483e-02 -4.028847e-02 -1.154143e-03 -1.271780e-02 3.844269e-02 6.669819e-03 -1.374739e-02 1.168908e-03 2.466348e-02
<VARIANCE> 39
 4.015620e+01 1.176311e+01 1.269177e+01 1.518948e+01 1.686878e+01 3.031145e+01 2.310178e+01 2.600986e+01 2.124638e+01 2.227644e+01 1.916300e+01 1.500762e+01 3.468807e+02 5.717535e+00 1.415736e+00 1.557304e+00 1.676614e+00 1.916429e+00 3.686779e+00 2.470220e+00 2.832075e+00 2.243143e+00 2.389414e+00 1.912513e+00 1.617920e+00 4.616159e+01 7.930359e-01 1.966427e-01 2.790778e-01 3.213231e-01 3.633100e-01 6.277328e-01 4.761974e-01 5.288420e-01 4.209362e-01 4.811745e-01 3.925141e-01 3.268745e-01 6.258049e+00
<GCONST> 1.180510e+02
~s "silst4"
<NUMMIXES> 2
<MIXTURE> 1 8.391294e-01
<MEAN> 39
 -7.008758e+00 4.388802e+00 2.092048e-01 1.573831e+00 -2.150721e+00 -4.742758e+00 -1.983970e+00 -2.201617e+00 -1.301644e-01 -5.842296e-01 -5.765718e-01 1.215061e+00 5.106962e+01 -5.349529e-03 6.142754e-03 -8.510853e-03 1.234503e-02 -3.747561e-03 2.453699e-02 2.252152e-02 -2.077200e-02 1.321243e-02 8.421780e-03 -1.130839e-02 -1.500418e-03 -2.011505e-02 -8.359994e-03 1.267616e-02 4.429227e-02 6.188919e-02 8.546320e-02 8.378870e-02 5.157814e-02 7.196672e-03 -5.220540e-02 -7.655413e-02 -7.734797e-02 -4.932136e-02 1.509682e-02
<VARIANCE> 39
 3.269290e+00 1.005382e+01 1.146025e+01 1.544175e+01 1.812843e+01 2.383287e+01 2.504967e+01 2.690318e+01 2.791535e+01 2.606191e+01 2.343906e+01 2.183361e+01 2.499792e+00 2.929743e-01 6.180533e-01 1.039458e+00 1.472584e+00 1.930749e+00 2.305167e+00 2.377135e+00 2.478790e+00 2.539322e+00 2.601459e+00 2.460840e+00 2.137784e+00 9.096780e-02 5.787055e-02 1.221133e-01 2.064734e-01 2.749723e-01 3.544502e-01 4.222071e-01 4.600927e-01 4.931625e-01 4.961157e-01 4.840697e-01 4.599117e-01 4.190123e-01 1.771787e-02
<GCONST> 9.149571e+01
<MIXTURE> 2 1.608333e-01
<MEAN> 39
 -8.029284e+00 3.616671e+00 1.363831e+00 4.665080e+00 2.092092e+00 -8.122127e-01 6.379642e-01 -1.208707e+00 -2.830364e+00 -4.778462e+00 -4.063307e+00 -7.379647e-01 4.989864e+01 -1.541098e-02 8.082814e-04 -2.031495e-02 -2.460040e-02 -6.257609e-02 3.368374e-02 -1.950596e-02 -8.373668e-02 3.656174e-02 3.412384e-03 3.541080e-02 -1.350054e-02 -4.476966e-02 2.410831e-02 -5.062493e-02 -1.535555e-01 -3.332897e-01 -4.763999e-01 -4.542442e-01 -2.831795e-01 -1.336376e-02 2.803369e-01 4.467656e-01 4.170369e-01 2.454997e-01 6.096661e-02
<VARIANCE> 39
 1.467692e+01 1.780354e+01 1.535083e+01 1.776909e+01 1.915300e+01 2.656783e+01 2.864833e+01 3.245490e+01 3.096838e+01 3.028635e+01 2.605594e+01 2.182780e+01 7.930705e+01 3.868895e-01 6.991537e-01 1.003209e+00 1.458148e+00 1.796203e+00 2.262458e+00 2.531750e+00 2.476855e+00 2.664091e+00 2.728715e+00 2.484911e+00 2.121120e+00 1.674388e-01 1.066611e-01 1.576386e-01 2.055025e-01 2.837344e-01 3.316376e-01 4.211247e-01 5.103097e-01 5.353771e-01 5.086565e-01 5.321048e-01 4.715272e-01 4.125174e-01 9.440210e-02
<GCONST> 1.021507e+02
~h "b"
<BEGINHMM>
<NUMSTATES> 5
<STATE> 2
<NUMMIXES> 2
<MIXTURE> 1 3.404720e-01
<MEAN> 39
 4.384492e+00 3.723903e+00 9.516889e-02 5.800671e+00 -2.089411e+00 -5.558884e+00 -5.489675e+00 -1.233459e-01 6.641100e-01 1.258617e+00 3.128702e+00 -2.837098e+00 6.309725e+01 -1.001631e-01 1.582632e+00 4.261962e-01 2.077280e-01 2.090151e+00 1.095794e+00 8.032736e-01 -1.010222e+00 -5.875341e-01 8.988824e-01 7.768670e-02 -2.836067e-01 -2.147876e+00 -3.239146e-01 2.780188e-01 4.972686e-01 1.438873e-01 -7.212418e-02 2.305740e-01 4.947779e-01 -1.057734e-01 -1.964494e-01 -2.183722e-01 -4.153503e-01 3.158857e-03 -1.110239e-01
<VARIANCE> 39
 7.185789e+00 1.787860e+01 2.634740e+01 2.944436e+01 4.014371e+01 4.018439e+01 3.496626e+01 3.990681e+01 3.705434e+01 3.386289e+01 2.878183e+01 2.906690e+01 1.767799e+01 7.475505e-01 8.738715e-01 2.400992e+00 1.809375e+00 3.133229e+00 2.861829e+00 3.454237e+00 3.328835e+00 2.906281e+00 2.011579e+00 3.613736e+00 2.113056e+00 5.711488e-01 4.825431e-02 1.305980e-01 1.603184e-01 3.563824e-01 4.469847e-01 3.949349e-01 4.353165e-01 4.979015e-01 3.993992e-01 3.871361e-01 4.807039e-01 2.815059e-01 1.459045e-01
<GCONST> 1.064832e+02
<MIXTURE> 2 6.595283e-01
<MEAN> 39
 -8.917966e-01 9.582961e+00 5.851134e+00 8.783392e+00 2.683416e+00 -1.961790e+00 -7.088028e-02 -3.140837e+00 -1.798753e+00 3.290124e-01 -2.026275e+00 -1.990577e+00 5.505969e+01 1.398613e-02 9.279645e-01 1.063646e+00 7.304395e-01 5.566192e-01 3.470833e-01 2.494992e-01 -3.336734e-01 -3.560919e-01 -5.400862e-02 -6.565365e-01 -3.279701e-01 -4.235820e-01 2.637523e-02 -2.548276e-01 -2.124944e-01 -1.306324e-01 -3.115210e-01 -2.122220e-01 -1.688704e-01 8.889700e-02 1.132603e-01 -1.175916e-02 1.156171e-01 6.477174e-03 2.471325e-01
<VARIANCE> 39
 1.840035e+01 1.655420e+01 2.349249e+01 2.783935e+01 2.406609e+01 2.136307e+01 2.769139e+01 2.938746e+01 4.311742e+01 3.210616e+01 3.690019e+01 2.737832e+01 8.289519e+00 1.068241e+00 2.240106e+00 1.852290e+00 2.412202e+00 2.149457e+00 2.508970e+00 2.755498e+00 2.589626e+00 2.743482e+00 3.036028e+00 3.501758e+00 1.967693e+00 1.076143e+00 1.051803e-01 4.254168e-01 3.244071e-01 4.333614e-01 4.418457e-01 4.795568e-01 4.996379e-01 6.746947e-01 4.779517e-01 5.205778e-01 7.202925e-01 4.457745e-01 1.267160e-01
<GCONST> 1.109318e+02
<STATE> 3
<MEAN> 39
 4.019716e-01 1.175652e+01 7.474265e+00 8.648520e+00 2.454022e+00 -1.465806e+00 5.300072e-01 -2.754557e+00 -1.676764e+00 -2.371335e-01 -1.973485e+00 -1.875304e+00 5.448145e+01 -2.322289e-01 2.207493e-04 1.757980e-02 -1.025697e-01 8.463142e-02 1.298306e-01 1.199010e-01 2.298923e-01 1.696999e-01 -1.187882e-01 -7.940325e-02 1.310586e-01 -2.422378e-01 -3.815020e-02 -9.593344e-02 -7.021195e-02 -5.112236e-02 -3.125658e-02 -2.108236e-02 -2.038332e-02 5.889039e-03 2.678417e-02 3.470738e-02 4.885687e-02 1.043886e-02 4.704465e-02
<VARIANCE> 39
 5.431672e+00 6.347145e+00 1.122371e+01 1.864680e+01 1.778655e+01 2.471575e+01 2.562859e+01 2.778866e+01 3.272019e+01 2.819492e+01 2.062807e+01 2.136854e+01 4.212187e+00 1.930679e-01 4.111410e-01 6.958072e-01 1.216761e+00 1.453901e+00 1.522120e+00 1.792060e+00 1.801693e+00 1.965747e+00 1.880070e+00 1.848822e+00 1.824430e+00 9.313451e-02 3.691161e-02 8.267761e-02 1.573168e-01 2.472391e-01 2.787485e-01 3.060804e-01 3.631545e-01 3.178518e-01 3.642402e-01 3.773153e-01 3.629372e-01 3.530665e-01 2.964798e-02
<GCONST> 8.576780e+01
<STATE> 4
<NUMMIXES> 2
<MIXTURE> 1 4.372407e-01
<MEAN> 39
 -5.829722e+00 5.021125e+00 4.014465e+00 3.828046e+00 1.042660e+00 -1.373027e+00 -6.898153e-01 -1.486712e+00 -6.726135e-03 8.672974e-01 -1.400063e+00 -1.429203e+00 5.766353e+01 -4.529824e-01 -1.662511e+00 -9.871382e-01 -8.953297e-01 -1.096526e+00 -3.450121e-01 -9.031700e-01 5.057753e-01 2.541800e-01 2.993884e-01 4.318084e-01 -1.526451e-01 2.656787e+00 5.434770e-01 3.400031e-01 -1.186988e-01 1.548992e-01 -2.111410e-01 -1.485920e-01 -1.567416e-01 4.033925e-02 2.852424e-02 -2.750987e-02 1.875223e-01 -3.173693e-02 5.811674e-02
<VARIANCE> 39
 2.363179e+01 3.744436e+01 2.701494e+01 2.892457e+01 2.784416e+01 2.450536e+01 3.075266e+01 2.761147e+01 3.269784e+01 3.338553e+01 2.173287e+01 1.799176e+01 4.321425e+01 2.752612e+00 2.482683e+00 3.186522e+00 2.715494e+00 3.299987e+00 3.813198e+00 4.235640e+00 3.763103e+00 3.777740e+00 3.724649e+00 3.093263e+00 2.517864e+00 1.947527e+00 4.140791e-01 8.453296e-01 5.216839e-01 5.048375e-01 8.089476e-01 6.116377e-01 6.757888e-01 6.719465e-01 7.881412e-01 6.240889e-01 5.698955e-01 4.519743e-01 8.747299e-01
<GCONST> 1.237912e+02
<MIXTURE> 2 5.627590e-01
<MEAN> 39
 -4.606138e+00 7.660493e+00 4.180022e+00 4.148266e+00 1.729310e+00 -2.312627e+00 -1.892634e-01 -8.799357e-01 8.424397e-01 8.742718e-01 -3.097599e-01 -4.943398e-01 5.218563e+01 -3.447477e-01 -2.659670e-01 -2.427222e-01 -2.959750e-01 -5.135492e-03 -1.174940e-01 -1.201286e-01 -7.469308e-02 2.740551e-02 3.062349e-02 9.253132e-02 1.286126e-01 -8.330604e-02 -6.824215e-02 -1.775258e-01 -1.996206e-02 -5.916176e-02 -1.170497e-01 -1.294017e-02 -2.839710e-02 2.121565e-03 -3.585921e-02 -1.871344e-02 -3.132970e-02 -1.646775e-02 3.266822e-01
<VARIANCE> 39
 7.468508e+00 1.085927e+01 1.394746e+01 2.050624e+01 2.691704e+01 2.763249e+01 2.811579e+01 3.077929e+01 2.683096e+01 2.208304e+01 2.585913e+01 2.265742e+01 2.673821e+00 4.374690e-01 8.959440e-01 1.141055e+00 1.716268e+00 2.299108e+00 2.036048e+00 2.404956e+00 2.290426e+00 2.285765e+00 1.749387e+00 2.000180e+00 1.996617e+00 1.586330e-01 1.002241e-01 2.709911e-01 2.541969e-01 3.546260e-01 4.964945e-01 4.524231e-01 5.110775e-01 4.913933e-01 4.956102e-01 3.781177e-01 4.317557e-01 4.372730e-01 2.114522e-01
<GCONST> 9.897690e+01
<TRANSP> 5
 0.000000e+00 1.000000e+00 0.000000e+00 0.000000e+00 0.000000e+00
 0.000000e+00 7.636396e-01 2.363605e-01 0.000000e+00 0.000000e+00
 0.000000e+00 0.000000e+00 8.896663e-01 1.103337e-01 0.000000e+00
 0.000000e+00 0.000000e+00 0.000000e+00 8.763663e-01 1.236337e-01
 0.000000e+00 0.000000e+00 0.000000e+00 0.000000e+00 0.000000e+00
<ENDHMM>
~h "d"
<BEGINHMM>
<NUMSTATES> 5
<STATE> 2
<NUMMIXES> 2
<MIXTURE> 1 3.334704e-01
<MEAN> 39
 -1.253745e+00 7.107787e+00 9.135675e+00 6.671099e+00 -5.342061e+00 -6.336974e+00 -2.497557e+00 8.413950e-01 -1.768999e+00 -1.928740e+00 7.969070e-01 8.466687e-01 6.046683e+01 -1.435064e-02 1.173932e+00 -8.788649e-02 3.698130e-01 1.616209e+00 6.382824e-01 4.132475e-01 -4.146378e-01 1.135560e-01 1.726832e-01 -6.239228e-01 -2.097983e-01 -1.727178e+00 7.437794e-02 4.627192e-02 -2.544719e-01 3.604076e-02 6.700920e-02 6.938603e-02 3.552020e-02 -2.010517e-01 4.470255e-02 7.120544e-02 -1.963331e-03 -8.741815e-02 5.401122e-03
<VARIANCE> 39
 1.636367e+01 2.506134e+01 3.301343e+01 3.437962e+01 5.443879e+01 4.197684e+01 4.693555e+01 4.107623e+01 4.945115e+01 3.638191e+01 3.564492e+01 2.849807e+01 3.065884e+01 1.008013e+00 1.981456e+00 2.343650e+00 2.415335e+00 3.890714e+00 3.971109e+00 4.109325e+00 4.787245e+00 3.827923e+00 3.267467e+00 3.225646e+00 2.550345e+00 1.779492e+00 1.798945e-01 4.837763e-01 3.643947e-01 4.988620e-01 8.522659e-01 7.544085e-01 7.814476e-01 7.258253e-01 6.313561e-01 5.903967e-01 5.301005e-01 4.535975e-01 3.504919e-01
<GCONST> 1.226044e+02
<MIXTURE> 2 6.665282e-01
<MEAN> 39
 -1.256891e+00 1.133265e+01 7.172289e+00 7.377696e+00 5.262669e-01 -3.070687e+00 -6.569926e-01 -2.011583e+00 -8.376687e-01 -5.051327e-01 -1.934332e+00 -6.115355e-01 5.416531e+01 -3.530399e-01 -1.828719e-01 -2.832538e-01 -2.855096e-01 1.686832e-01 1.548266e-01 -3.532031e-02 9.994946e-03 8.074520e-02 -1.508410e-01 -8.941622e-02 1.194923e-01 -3.302079e-01 -1.407157e-01 -2.981295e-01 -3.143836e-03 -1.683087e-01 -1.749873e-01 -2.615919e-02 -3.837455e-02 5.622200e-02 -5.612242e-02 -2.371988e-02 9.836160e-02 2.927844e-02 2.735722e-01
<VARIANCE> 39
 8.548986e+00 9.080090e+00 1.256128e+01 1.924572e+01 2.187586e+01 2.582123e+01 2.895403e+01 2.968435e+01 3.130875e+01 3.189172e+01 2.252612e+01 2.257564e+01 5.007248e+00 4.445853e-01 6.645163e-01 9.438169e-01 1.406103e+00 1.770261e+00 2.005618e+00 2.174390e+00 2.608947e+00 2.428123e+00 2.578526e+00 2.180926e+00 1.841849e+00 2.217426e-01 1.044185e-01 2.059524e-01 2.142954e-01 3.254747e-01 3.732757e-01 4.603422e-01 4.650539e-01 5.431343e-01 4.848371e-01 4.840485e-01 4.530860e-01 3.550615e-01 1.442174e-01
<GCONST> 9.829105e+01
<STATE> 3
<MEAN> 39
 -3.775252e+00 8.356942e+00 4.965024e+00 5.603480e+00 6.951920e-01 -2.971572e+00 -1.371193e+00 -2.770771e+00 -1.562567e+00 -9.338547e-01 -1.314107e+00 -1.935491e-01 5.398457e+01 -1.452013e+00 -2.235840e+00 -2.891410e-01 -1.731174e+00 -2.664045e-01 3.600542e-01 -4.029224e-02 5.969539e-01 -1.100104e-01 7.511690e-02 3.829063e-01 2.331386e-01 2.181723e+00 -3.073437e-01 -2.250284e-01 1.982736e-01 -2.429834e-01 -3.911502e-01 -2.291946e-01 -1.302423e-02 1.023519e-01 -8.992626e-02 1.518390e-01 6.996937e-02 -7.104379e-03 8.098618e-01
<VARIANCE> 39
 1.394593e+01 2.044425e+01 2.477993e+01 2.695981e+01 2.411010e+01 3.009356e+01 3.080868e+01 3.386787e+01 2.838300e+01 2.930562e+01 2.560314e+01 2.538280e+01 1.009819e+01 2.040062e+00 3.972530e+00 3.026978e+00 4.514766e+00 3.470327e+00 3.565588e+00 3.444377e+00 4.050764e+00 3.030642e+00 3.608435e+00 2.490285e+00 2.396692e+00 4.661493e+00 2.944451e-01 5.727370e-01 4.250684e-01 5.846006e-01 6.448328e-01 5.708404e-01 6.588675e-01 7.953074e-01 6.441913e-01 5.793120e-01 5.352595e-01 4.130428e-01 4.500311e-01
<GCONST> 1.203495e+02
<STATE> 4
<NUMMIXES> 2
<MIXTURE> 1 3.908563e-01
<MEAN> 39
 -1.194854e+01 -3.024911e+00 5.006167e+00 -4.039138e+00 -1.465042e+00 -1.497256e+00 -1.956481e+00 2.353974e-01 -2.132644e+00 9.140896e-02 2.147154e-01 6.846591e-01 6.865926e+01 -1.704316e+00 -4.679374e-01 1.005388e+00 -8.169227e-01 -1.475953e+00 -1.149961e+00 4.764488e-02 6.972702e-01 -4.670972e-01 2.308079e-01 3.509950e-01 5.863960e-02 2.631678e+00 9.871327e-01 1.453424e+00 3.130525e-01 1.397969e+00 -2.032259e-01 -4.001355e-01 -2.585017e-02 -2.622377e-01 4.473996e-02 -2.075129e-01 -9.324121e-02 -1.003588e-01 -1.417336e+00
<VARIANCE> 39
 2.566008e+01 4.180452e+01 4.390501e+01 5.752707e+01 4.252514e+01 4.091427e+01 4.856057e+01 3.391831e+01 3.497368e+01 2.677050e+01 2.355929e+01 1.688371e+01 2.259213e+01 2.744026e+00 3.967522e+00 3.099408e+00 4.326734e+00 4.729525e+00 3.850607e+00 4.729394e+00 5.408694e+00 4.127253e+00 3.650984e+00 3.569241e+00 2.667684e+00 3.856507e+00 5.953982e-01 4.656257e-01 7.682394e-01 1.019433e+00 1.104913e+00 9.315090e-01 8.493931e-01 8.134874e-01 6.100529e-01 6.218808e-01 5.110960e-01 4.465221e-01 4.409895e-01
<GCONST> 1.296129e+02
<MIXTURE> 2 6.091444e-01
<MEAN> 39
 -8.785300e+00 4.268957e+00 7.405327e+00 3.177266e+00 -4.667743e+00 -7.108822e+00 -2.748492e+00 -1.273334e-01 -1.791917e+00 -3.578145e-01 -3.706991e-01 7.000754e-02 6.137835e+01 1.035827e+00 1.185178e+00 2.247746e-01 1.242007e+00 -3.994972e-01 -2.855400e-01 -2.094090e-01 -2.695011e-01 1.661272e-01 -1.956999e-01 1.041033e-01 -4.816278e-02 -1.173275e+00 4.381855e-01 5.850975e-02 -2.608512e-01 1.116152e-01 1.249897e-01 3.179417e-01 -5.246124e-02 -1.816108e-01 6.865755e-02 -6.400024e-02 1.288180e-02 -7.981381e-03 -2.478755e-01
<VARIANCE> 39
 4.604772e+01 3.259967e+01 3.391302e+01 3.585041e+01 5.848103e+01 5.470317e+01 5.835546e+01 5.198793e+01 4.881677e+01 4.530790e+01 4.136003e+01 3.410682e+01 3.089816e+01 3.192313e+00 3.080518e+00 3.528950e+00 5.438316e+00 6.460461e+00 6.334362e+00 3.753074e+00 3.966688e+00 3.468154e+00 3.397822e+00 3.196168e+00 2.682006e+00 2.501322e+00 8.054975e-01 5.232016e-01 5.453110e-01 8.321933e-01 1.058057e+00 1.139859e+00 8.751970e-01 7.710288e-01 7.545382e-01 6.929860e-01 6.840457e-01 5.847235e-01 6.250663e-01
<GCONST> 1.338564e+02
<TRANSP> 5
 0.000000e+00 1.000000e+00 0.000000e+00 0.000000e+00 0.000000e+00
 0.000000e+00 8.592935e-01 1.407065e-01 0.000000e+00 0.000000e+00
 0.000000e+00 0.000000e+00 5.810924e-01 4.189076e-01 0.000000e+00
 0.000000e+00 0.000000e+00 0.000000e+00 7.381506e-01 2.618494e-01
 0.000000e+00 0.000000e+00 0.000000e+00 0.000000e+00 0.000000e+00
<ENDHMM>
~h "f"
<BEGINHMM>
<NUMSTATES> 5
<STATE> 2
<NUMMIXES> 2
<MIXTURE> 1 2.756581e-01
<MEAN> 39
 2.428294e+00 7.503444e+00 5.065860e-01 3.398172e+00 -1.108144e+00 -1.796741e+00 -2.193478e+00 -1.425803e+00 -1.532392e+00 2.903047e+00 3.620082e+00 8.147548e-01 6.142212e+01 -1.657878e+00 -1.950269e-01 1.216950e+00 4.314406e-01 1.575526e+00 6.861392e-01 5.081170e-01 4.034320e-01 6.038041e-01 -3.452940e-01 -8.528296e-01 -1.149402e-01 -7.034357e-01 -4.730306e-01 -2.354175e-01 3.437876e-02 4.469337e-02 -8.160534e-02 7.224465e-02 -2.629067e-02 -6.099919e-02 -5.704588e-02 -3.018112e-01 -3.104639e-01 -9.134658e-02 1.254588e-01
<VARIANCE> 39
 9.551842e+00 1.376144e+01 2.732291e+01 2.975363e+01 3.666742e+01 5.949149e+01 4.579829e+01 3.432311e+01 4.532286e+01 3.948979e+01 2.758186e+01 2.540731e+01 5.524283e+00 8.053618e-01 1.353697e+00 1.610378e+00 1.724171e+00 2.314094e+00 3.555160e+00 3.214734e+00 3.142451e+00 3.384823e+00 2.721087e+00 3.282061e+00 2.597485e+00 5.065306e-01 8.224496e-02 1.035034e-01 2.998644e-01 3.036274e-01 4.284414e-01 5.961530e-01 5.584227e-01 4.957802e-01 6.197263e-01 5.035399e-01 5.545316e-01 4.343768e-01 3.770214e-02
<GCONST> 1.075887e+02
<MIXTURE> 2 7.243408e-01
<MEAN> 39
 -8.733697e+00 4.788870e+00 3.930676e+00 4.621388e+00 9.141753e-01 -1.788928e+00 -1.387575e+00 -1.560903e+00 -1.052755e+00 -1.228379e+00 -1.667360e+00 -3.572608e-01 5.890913e+01 -1.485050e+00 -6.647198e-01 -5.232489e-01 -2.469018e-01 -4.066801e-01 -1.413970e-01 -4.334179e-01 -5.736662e-01 -3.065016e-02 -1.447310e-01 -2.336275e-01 3.748913e-02 1.415877e-01 9.222768e-02 -7.938372e-02 -2.094729e-01 -6.289490e-02 -2.073729e-01 -1.066832e-01 -6.293216e-02 1.634398e-02 -2.410989e-02 9.092394e-02 1.890077e-01 1.337819e-02 1.796080e-01
<VARIANCE> 39
 1.564757e+01 1.481108e+01 1.601347e+01 2.525122e+01 3.269809e+01 3.844015e+01 3.772678e+01 3.637701e+01 4.270230e+01 3.503846e+01 2.466949e+01 2.259927e+01 1.012455e+01 1.370682e+00 1.264493e+00 1.595033e+00 2.364503e+00 3.410563e+00 3.597714e+00 2.724077e+00 2.723201e+00 2.833959e+00 2.854270e+00 2.664531e+00 1.896432e+00 6.163072e-01 1.448059e-01 2.011779e-01 3.281485e-01 5.060506e-01 7.487025e-01 7.444494e-01 5.191624e-01 5.809435e-01 5.468951e-01 5.712076e-01 5.057458e-01 3.840064e-01 7.184812e-02
<GCONST> 1.105001e+02
<STATE> 3
<MEAN> 39
 -1.525433e+01 -5.034944e-01 3.863990e-01 3.261083e+00 -8.739622e-01 -1.606337e+00 -2.488051e+00 -1.656178e+00 -5.257120e-01 -9.662893e-01 -1.561201e+00 -6.640603e-02 6.175652e+01 -2.783256e-01 -3.761044e-01 -2.114787e-01 -1.100539e-01 4.284259e-02 1.136919e-01 8.386116e-02 1.092712e-01 1.451053e-01 1.727205e-02 1.194579e-02 -3.933192e-02 2.620861e-01 1.075615e-01 -3.695194e-03 2.446084e-03 -5.961788e-02 2.056506e-02 -6.292055e-03 3.333620e-02 3.893243e-02 3.979365e-02 3.338591e-02 1.073400e-02 7.744916e-03 -1.730793e-02
<VARIANCE> 39
 7.571855e+00 1.615993e+01 1.903813e+01 1.852085e+01 2.561474e+01 2.981713e+01 3.487649e+01 2.871115e+01 3.472284e+01 3.417007e+01 2.712370e+01 2.428220e+01 8.423105e+00 4.154506e-01 9.289486e-01 1.289891e+00 1.673633e+00 1.853836e+00 2.464650e+00 2.666523e+00 2.647631e+00 2.544338e+00 2.726408e+00 2.457161e+00 2.382276e+00 2.278362e-01 7.253502e-02 1.760347e-01 2.525341e-01 3.311543e-01 3.778917e-01 4.983449e-01 5.294898e-01 5.213567e-01 4.935049e-01 5.399978e-01 5.250964e-01 4.850751e-01 3.365555e-02
<GCONST> 1.012322e+02
<STATE> 4
<NUMMIXES> 2
<MIXTURE> 1 3.240290e-01
<MEAN> 39
 -7.213324e+00 -2.030065e+00 -3.568582e+00 3.260081e-01 -1.683563e+00 -1.180984e+00 -1.192610e+00 3.905163e-01 7.125623e-01 1.976554e+00 -4.663916e-01 4.166992e-02 5.801413e+01 2.258386e+00 2.392359e+00 1.100305e+00 2.011970e+00 4.552123e-01 1.003668e+00 3.755430e-01 2.637951e-01 -7.491913e-01 -5.037858e-01 -1.375796e-01 -4.603153e-01 -5.945542e-01 4.213402e-01 5.487818e-01 2.428429e-01 1.087075e-01 -1.463832e-01 1.773330e-02 -8.449025e-02 2.456881e-02 -2.305820e-01 -2.974212e-01 8.429364e-02 -1.773720e-01 7.122858e-01
<VARIANCE> 39
 1.039053e+01 1.284777e+01 3.453042e+01 3.142598e+01 3.133080e+01 4.174883e+01 4.246371e+01 3.932405e+01 3.520421e+01 4.256261e+01 2.876379e+01 2.263553e+01 7.762757e+00 1.104303e+00 2.008437e+00 2.260067e+00 2.352193e+00 2.289157e+00 2.476261e+00 3.048960e+00 2.757403e+00 2.338794e+00 3.179855e+00 2.617217e+00 1.981992e+00 7.941458e-01 1.374646e-01 2.857085e-01 3.657945e-01 6.869667e-01 5.890712e-01 5.909047e-01 6.678981e-01 6.380643e-01 4.981096e-01 5.114942e-01 5.114061e-01 3.509829e-01 1.462385e-01
<GCONST> 1.122171e+02
<MIXTURE> 2 6.759719e-01
<MEAN> 39
 -1.347257e+01 -4.800271e+00 -3.603447e+00 -1.448381e+00 -7.847875e-01 -1.219546e+00 -1.385034e+00 3.663185e-02 1.239905e+00 8.616984e-01 -9.559631e-01 -2.967321e-01 6.328075e+01 1.148995e+00 -3.166240e-02 -2.882176e-01 -6.115726e-01 -4.992863e-01 -2.765455e-01 2.498707e-02 2.138379e-01 8.008330e-02 3.661478e-01 1.914275e-01 1.653753e-01 -6.441613e-01 2.720820e-01 3.651172e-01 1.891631e-01 3.209469e-01 -1.679650e-02 8.707494e-02 -6.541099e-03 -4.926084e-02 -1.438433e-01 -5.750293e-02 2.555236e-02 9.518203e-04 -2.299847e-01
<VARIANCE> 39
 1.459900e+01 1.413166e+01 2.660485e+01 2.886952e+01 2.845882e+01 3.392484e+01 3.862900e+01 2.889955e+01 3.248577e+01 3.389259e+01 2.653283e+01 2.478541e+01 8.418962e+00 6.076935e-01 1.086715e+00 1.590157e+00 2.295025e+00 2.468654e+00 2.560394e+00 2.880997e+00 2.417988e+00 2.698754e+00 2.615853e+00 2.506996e+00 2.157060e+00 5.654597e-01 1.264638e-01 2.268039e-01 2.902890e-01 5.248887e-01 5.137083e-01 5.521119e-01 5.888771e-01 4.411360e-01 4.676461e-01 5.423227e-01 4.684570e-01 4.119321e-01 7.819559e-02
<GCONST> 1.072940e+02
<TRANSP> 5
 0.000000e+00 1.000000e+00 0.000000e+00 0.000000e+00 0.000000e+00
 0.000000e+00 8.202648e-01 1.797352e-01 0.000000e+00 0.000000e+00
 0.000000e+00 0.000000e+00 9.183304e-01 8.166957e-02 0.000000e+00
 0.000000e+00 0.000000e+00 0.000000e+00 8.628427e-01 1.371573e-01
 0.000000e+00 0.000000e+00 0.000000e+00 0.000000e+00 0.000000e+00
<ENDHMM>
~h "g"
<BEGINHMM>
<NUMSTATES> 5
<STATE> 2
<NUMMIXES> 2
<MIXTURE> 1 2.356947e-01
<MEAN> 39
 -1.185897e+00 8.345241e+00 1.266034e+01 7.796679e+00 -8.122435e+00 -6.218486e+00 1.033134e+00 1.252627e+00 -1.013751e+01 1.285181e+00 8.252096e+00 -4.292172e+00 6.084433e+01 1.599661e-01 1.119545e+00 -2.943798e-01 1.328236e-01 2.498841e+00 1.516448e-01 3.067625e-01 -4.440396e-01 8.707933e-01 5.305233e-01 -1.278834e+00 1.570335e-01 -2.147010e+00 3.842607e-02 -8.409742e-02 -3.476998e-01 3.893547e-02 -2.184144e-01 7.197544e-02 -1.681217e-01 -1.968774e-01 7.231206e-01 -3.682880e-01 -3.188826e-01 2.810101e-01 1.225123e-01
<VARIANCE> 39
 9.048238e+00 1.410130e+01 3.122942e+01 1.989760e+01 4.062706e+01 6.126737e+01 6.641195e+01 5.260825e+01 5.285582e+01 4.557171e+01 4.353949e+01 3.192005e+01 1.741347e+01 4.970596e-01 8.469265e-01 1.528532e+00 1.601365e+00 1.606595e+00 4.703146e+00 2.926110e+00 3.176928e+00 4.891690e+00 2.800534e+00 3.507206e+00 2.542987e+00 4.041952e-01 9.404440e-02 1.572802e-01 1.717611e-01 3.418609e-01 4.742316e-01 4.975908e-01 3.976336e-01 6.031958e-01 5.528827e-01 5.189755e-01 5.406562e-01 3.620943e-01 1.711980e-01
<GCONST> 1.104343e+02
<MIXTURE> 2 7.643056e-01
<MEAN> 39
 -1.664422e+00 9.962657e+00 6.329048e+00 6.812191e+00 -4.212703e-01 -4.372817e+00 -5.020666e-01 -1.822508e+00 -2.287536e+00 8.635584e-02 -1.769839e-01 -4.440502e-01 5.410677e+01 -3.404811e-01 -1.845752e-01 -2.042893e-01 -1.313105e-01 1.587449e-01 -1.078978e-01 -3.755253e-01 -1.027541e-01 3.103311e-01 -1.601089e-01 -5.428662e-01 2.247050e-01 -3.593695e-01 -9.886465e-02 -1.868868e-01 -2.497212e-03 -8.827107e-02 -5.898884e-02 1.870615e-02 -1.073113e-01 8.256117e-02 -2.087837e-01 3.593135e-02 9.036846e-02 -3.522231e-02 2.211748e-01
<VARIANCE> 39
 9.131744e+00 8.792358e+00 2.410750e+01 1.580285e+01 2.306674e+01 4.152280e+01 3.559534e+01 2.871489e+01 3.165046e+01 2.776368e+01 2.484711e+01 2.004170e+01 8.086844e+00 3.638094e-01 5.281421e-01 1.493516e+00 1.796011e+00 2.009429e+00 2.501077e+00 2.048110e+00 2.840383e+00 3.121991e+00 2.610338e+00 2.220632e+00 2.308546e+00 3.163871e-01 7.275086e-02 1.565241e-01 2.419953e-01 3.416574e-01 4.948748e-01 4.922985e-01 4.794880e-01 5.928476e-01 6.324770e-01 5.167564e-01 3.676282e-01 4.243858e-01 7.268781e-02
<GCONST> 1.009376e+02
<STATE> 3
<MEAN> 39
 -7.226749e+00 3.614441e+00 4.007302e+00 3.084729e+00 9.341569e-01 -3.281943e+00 -3.900047e+00 1.768217e-01 -4.073557e+00 9.388828e-01 -1.771028e+00 -8.997380e-01 5.601763e+01 -1.108650e+00 -1.428851e+00 -3.689432e-01 -9.184598e-01 1.771858e-01 3.034525e-01 -5.012863e-01 6.243920e-01 -2.881972e-01 4.374961e-01 -2.285435e-01 1.285960e-01 1.257919e+00 -9.062018e-02 1.137700e-01 6.267577e-03 -1.009230e-01 -2.064073e-01 -8.696019e-02 1.458228e-01 -8.591232e-02 -6.553956e-02 7.102863e-02 1.799634e-01 8.731408e-02 1.880652e-01
<VARIANCE> 39
 1.689595e+01 4.580966e+01 2.874277e+01 3.577673e+01 4.961797e+01 3.561134e+01 4.682490e+01 4.584102e+01 4.674192e+01 4.002224e+01 2.979728e+01 2.539338e+01 2.175295e+01 1.967461e+00 4.025853e+00 2.243774e+00 3.153057e+00 4.559575e+00 3.579204e+00 4.044994e+00 3.859396e+00 4.499481e+00 4.285547e+00 2.728262e+00 2.852629e+00 3.472404e+00 2.746895e-01 9.393015e-01 3.197655e-01 5.871813e-01 7.138431e-01 5.671707e-01 6.144338e-01 7.110892e-01 9.308361e-01 7.437958e-01 5.632628e-01 6.843030e-01 5.538890e-01
<GCONST> 1.268068e+02
<STATE> 4
<NUMMIXES> 2
<MIXTURE> 1 6.974362e-01
<MEAN> 39
 -1.320326e+01 2.310199e+00 5.103324e+00 -2.517263e+00 -2.140105e+00 -1.354543e+00 -3.518109e+00 -2.547631e-01 -4.026838e+00 3.670636e+00 -2.221536e+00 2.553436e+00 6.252521e+01 5.289633e-01 1.781950e+00 8.643140e-01 8.791416e-01 -4.296199e-01 -3.325325e-01 3.907422e-01 -1.945550e-01 -1.626584e-01 -5.810971e-01 8.355283e-01 9.587207e-02 1.170746e-01 8.707013e-01 4.460618e-01 1.733474e-01 7.403062e-01 -3.053028e-01 -1.475300e-01 8.332572e-02 -5.161817e-02 5.149370e-02 -3.541456e-01 4.181617e-01 -3.222608e-01 -2.217990e-01
<VARIANCE> 39
 2.877003e+01 4.693113e+01 6.122630e+01 4.119170e+01 5.241799e+01 7.539482e+01 4.850877e+01 4.904476e+01 4.914074e+01 4.910013e+01 4.800667e+01 1.561040e+01 2.516023e+01 4.726386e+00 3.404271e+00 2.796338e+00 5.586988e+00 4.634932e+00 3.836229e+00 3.053453e+00 2.177148e+00 3.022802e+00 3.572436e+00 3.099461e+00 2.500933e+00 2.498852e+00 3.642779e-01 1.251372e+00 6.691169e-01 6.500563e-01 1.457089e+00 9.201535e-01 5.636428e-01 6.143037e-01 7.798123e-01 7.083840e-01 7.433738e-01 3.465525e-01 9.749618e-01
<GCONST> 1.316895e+02
<MIXTURE> 2 3.025637e-01
<MEAN> 39
 -2.222984e+00 9.661766e+00 8.598106e+00 6.958947e+00 -8.078700e+00 -3.849945e+00 -5.819365e+00 2.369919e-01 -5.006883e+00 5.834856e-01 3.979436e+00 -1.913501e+00 6.493555e+01 2.342278e+00 -1.056124e-01 -9.448282e-01 1.063902e+00 -3.945366e+00 -1.600252e+00 -5.375839e-01 -8.558796e-02 -3.159967e-01 -5.907172e-01 3.355094e+00 -8.396717e-01 1.944790e+00 -5.137012e-01 -8.592663e-01 -6.762596e-01 -7.072707e-01 3.175649e-02 8.947646e-02 -7.485863e-02 6.853786e-04 8.826628e-02 1.593789e-01 -1.157400e-01 2.230902e-01 1.295853e-01
<VARIANCE> 39
 1.612039e+01 2.273200e+01 7.476963e+01 1.288212e+01 1.045764e+02 4.476575e+01 7.957870e+01 4.517421e+01 1.876976e+01 3.266853e+01 6.955907e+01 2.207310e+01 2.200840e+01 1.127712e+00 2.143883e+00 1.689884e+00 2.324844e+00 3.393679e+00 4.019157e+00 1.452254e+00 2.754888e+00 2.605798e+00 2.626515e+00 2.714151e+00 1.516222e+00 4.631851e-01 2.538810e-01 4.849978e-01 3.786068e-01 3.788096e-01 1.387410e+00 7.984760e-01 4.201610e-01 4.155316e-01 4.277804e-01 3.530870e-01 7.430518e-01 1.909267e-01 2.778284e-01
<GCONST> 1.159524e+02
<TRANSP> 5
 0.000000e+00 1.000000e+00 0.000000e+00 0.000000e+00 0.000000e+00
 0.000000e+00 8.892091e-01 1.107909e-01 0.000000e+00 0.000000e+00
 0.000000e+00 0.000000e+00 7.995679e-01 2.004320e-01 0.000000e+00
 0.000000e+00 0.000000e+00 0.000000e+00 7.734003e-01 2.265997e-01
 0.000000e+00 0.000000e+00 0.000000e+00 0.000000e+00 0.000000e+00
<ENDHMM>
~h "k"
<BEGINHMM>
<NUMSTATES> 5
<STATE> 2
<NUMMIXES> 2
<MIXTURE> 1 3.011753e-01
<MEAN> 39
 -3.629860e+00 8.932425e+00 9.727094e+00 5.753517e+00 -4.556514e+00 -4.674660e+00 9.219731e-01 2.316124e-01 -6.119598e+00 2.141907e+00 2.449457e+00 -1.316384e+00 5.801304e+01 -5.047427e-01 1.045717e-01 -8.203708e-01 -6.320768e-01 1.530362e+00 2.497671e-01 -1.533759e-01 -3.878295e-01 1.026211e+00 -3.129023e-02 -1.338828e+00 -2.640050e-02 -1.702529e+00 1.471239e-01 -2.515276e-01 -4.519792e-01 -8.732957e-03 -3.510189e-01 -6.031077e-02 -2.238545e-01 -1.800420e-01 2.052966e-01 -3.392496e-01 -4.594599e-02 1.205229e-01 1.128327e-01
<VARIANCE> 39
 1.972169e+01 1.630845e+01 3.321960e+01 2.918982e+01 4.672463e+01 5.020103e+01 6.261665e+01 5.318847e+01 5.047874e+01 4.151818e+01 5.164405e+01 3.499059e+01 1.368623e+01 1.604792e+00 1.537925e+00 3.544513e+00 2.561581e+00 5.148381e+00 4.243331e+00 3.521246e+00 4.622930e+00 4.451354e+00 3.849398e+00 3.616368e+00 3.113014e+00 9.107270e-01 2.395408e-01 2.228599e-01 4.372219e-01 4.870765e-01 8.303172e-01 6.332444e-01 5.689753e-01 6.169338e-01 8.167486e-01 5.625528e-01 7.811217e-01 5.838372e-01 1.589972e-01
<GCONST> 1.225459e+02
<MIXTURE> 2 6.988262e-01
<MEAN> 39
 -4.251633e+00 7.936201e+00 3.428693e+00 3.531090e+00 -1.635463e+00 -4.375280e+00 -1.709341e+00 -2.101006e+00 -8.235911e-01 -3.410070e-01 -8.679481e-01 2.448839e-01 5.235423e+01 -1.776827e-01 -1.338352e-01 -2.734954e-01 -1.715702e-01 1.892936e-02 6.399975e-02 -7.944362e-02 -1.692562e-01 1.105080e-01 -1.525914e-01 -5.791371e-02 1.390776e-01 -2.476844e-01 -3.171239e-02 -6.077338e-02 1.317041e-01 4.517123e-02 -3.492379e-04 4.126333e-02 1.922750e-02 7.865289e-02 -1.356921e-01 8.935104e-02 7.475863e-02 -2.218758e-02 1.716007e-01
<VARIANCE> 39
 6.269881e+00 7.943490e+00 1.291412e+01 1.819606e+01 2.504999e+01 3.982636e+01 4.115293e+01 3.494987e+01 3.641091e+01 3.105071e+01 2.700524e+01 2.273229e+01 2.398757e+00 3.448312e-01 6.460730e-01 1.084040e+00 1.474433e+00 2.085903e+00 2.656657e+00 2.540408e+00 2.686431e+00 2.548282e+00 2.469702e+00 2.261336e+00 2.042957e+00 1.578314e-01 8.631048e-02 1.815936e-01 2.604240e-01 2.980976e-01 4.400124e-01 5.346723e-01 5.300843e-01 5.767783e-01 5.468500e-01 4.719376e-01 4.552607e-01 3.941673e-01 5.414909e-02
<GCONST> 9.833858e+01
<STATE> 3
<MEAN> 39
 -6.060268e+00 6.180127e+00 2.892237e+00 3.397603e+00 -1.424414e+00 -3.771202e+00 -1.722865e+00 -2.151935e+00 -1.773893e+00 1.182602e-01 -7.563705e-01 6.956669e-01 5.221258e+01 -1.198855e+00 -2.000554e+00 2.145053e-01 -4.227307e-01 4.533768e-02 4.572424e-01 -3.043799e-01 5.669340e-01 -5.029294e-01 5.222348e-01 -3.066632e-01 1.056259e-01 1.568967e+00 -4.262635e-01 -4.981644e-01 1.241121e-01 -2.737277e-01 -8.518337e-02 6.151746e-03 -4.057197e-02 2.573268e-01 -1.105354e-01 2.590435e-01 -1.126902e-01 -2.606804e-02 7.359797e-01
<VARIANCE> 39
 8.280666e+00 1.407905e+01 2.058270e+01 2.510164e+01 2.296470e+01 3.788221e+01 3.836478e+01 3.462959e+01 3.647246e+01 3.290298e+01 2.645530e+01 2.034172e+01 6.580525e+00 1.776755e+00 3.527611e+00 3.547723e+00 3.365071e+00 3.120753e+00 3.538331e+00 3.094626e+00 4.459095e+00 3.395355e+00 3.333408e+00 2.742735e+00 2.226972e+00 2.660301e+00 2.323696e-01 4.952364e-01 4.954561e-01 4.911953e-01 6.140659e-01 6.935192e-01 6.017948e-01 7.861767e-01 5.702493e-01 6.307468e-01 5.027580e-01 4.827387e-01 2.396711e-01
<GCONST> 1.174175e+02
<STATE> 4
<NUMMIXES> 2
<MIXTURE> 1 5.953823e-01
<MEAN> 39
 -1.474905e+01 3.565070e+00 5.999290e+00 -4.019617e+00 -3.595027e+00 -2.516672e+00 -2.677031e+00 -1.044445e+00 -1.956717e+00 3.952188e+00 -2.174857e+00 2.303271e+00 6.112032e+01 9.580875e-01 1.204092e+00 4.596248e-01 9.234375e-01 1.325534e-01 -7.912735e-02 1.367792e-01 -1.750886e-01 5.066092e-02 -5.958173e-01 3.193842e-01 -1.325130e-01 -5.777371e-01 5.962058e-01 -1.010830e-01 -1.033292e-02 5.479982e-01 -6.778803e-02 -3.297068e-02 1.322538e-01 2.732699e-02 -1.006729e-01 -2.502946e-01 1.394873e-01 -1.913391e-01 4.868602e-02
<VARIANCE> 39
 3.124385e+01 2.284713e+01 3.996352e+01 5.019384e+01 5.634501e+01 6.717388e+01 4.906849e+01 5.360297e+01 5.116525e+01 4.066327e+01 3.779505e+01 3.093467e+01 1.578667e+01 3.149958e+00 3.525175e+00 2.975681e+00 4.592761e+00 4.007046e+00 4.278019e+00 3.050866e+00 3.371414e+00 3.683590e+00 3.573031e+00 3.277127e+00 2.607976e+00 1.432319e+00 4.581335e-01 5.111768e-01 5.646899e-01 8.214430e-01 9.182466e-01 9.139339e-01 5.902590e-01 6.748334e-01 7.602445e-01 7.468290e-01 6.774902e-01 5.803499e-01 4.493310e-01
<GCONST> 1.290906e+02
<MIXTURE> 2 4.046200e-01
<MEAN> 39
 -1.278085e+01 -5.464562e+00 4.267719e+00 -4.853135e-02 -1.942701e+00 -2.860809e+00 -3.509774e+00 2.553213e+00 -4.628519e+00 3.958729e+00 -2.849529e+00 7.353216e-01 6.343784e+01 -1.436845e+00 -6.535308e-01 8.286983e-02 -1.547482e+00 -7.020425e-01 -1.477820e-01 -2.520374e-01 5.542895e-01 -3.675688e-03 1.007791e+00 -2.821401e-01 2.212379e-01 1.951842e+00 4.074113e-01 1.388227e+00 -3.498749e-02 1.303595e-01 -1.106416e-02 -1.601675e-01 7.524013e-02 -4.185542e-01 3.508931e-01 -2.594678e-01 2.090336e-01 4.846834e-02 -8.734741e-01
<VARIANCE> 39
 2.032750e+01 2.944888e+01 5.934795e+01 5.042058e+01 4.820526e+01 5.490054e+01 4.567023e+01 5.544495e+01 3.767580e+01 4.043486e+01 2.605099e+01 2.291938e+01 2.166573e+01 2.199350e+00 6.445016e+00 3.274391e+00 3.575871e+00 3.952842e+00 5.174381e+00 3.874469e+00 4.949936e+00 3.910685e+00 3.520938e+00 2.753844e+00 3.095527e+00 3.615308e+00 3.802386e-01 6.002180e-01 7.611630e-01 8.641232e-01 7.614681e-01 8.653462e-01 6.742101e-01 8.237197e-01 6.197666e-01 7.055187e-01 5.101395e-01 4.760806e-01 5.008997e-01
<GCONST> 1.298889e+02
<TRANSP> 5
 0.000000e+00 1.000000e+00 0.000000e+00 0.000000e+00 0.000000e+00
 0.000000e+00 9.057600e-01 9.423999e-02 0.000000e+00 0.000000e+00
 0.000000e+00 0.000000e+00 6.805731e-01 3.194268e-01 0.000000e+00
 0.000000e+00 0.000000e+00 0.000000e+00 8.460475e-01 1.539525e-01
 0.000000e+00 0.000000e+00 0.000000e+00 0.000000e+00 0.000000e+00
<ENDHMM>
~h "l"
<BEGINHMM>
<NUMSTATES> 5
<STATE> 2
<NUMMIXES> 2
<MIXTURE> 1 6.248293e-01
<MEAN> 39
 2.047885e+00 7.902133e+00 -4.965751e+00 1.779554e+00 -1.542626e+00 -5.465961e+00 -4.068501e+00 -7.001634e+00 8.147550e+00 5.866149e+00 -3.471676e+00 -3.133856e+00 6.724091e+01 5.071595e-02 4.160661e-01 -1.923664e-01 -5.607039e-01 7.563745e-01 3.399592e-01 1.334418e-01 -1.058535e+00 7.138213e-02 6.325564e-01 7.897374e-02 8.178587e-02 -2.223733e-01 1.396137e-02 2.883448e-02 1.470248e-01 -2.214408e-02 3.725006e-02 -1.992385e-02 -1.926960e-02 8.520063e-02 -1.776434e-01 -1.167402e-01 1.503796e-01 1.022577e-01 -7.774149e-02
<VARIANCE> 39
 4.328723e+00 1.665642e+01 2.680742e+01 2.684868e+01 2.756053e+01 4.836175e+01 4.840029e+01 7.109932e+01 6.498177e+01 6.122889e+01 3.383151e+01 3.197583e+01 9.706355e+00 1.893990e-01 3.097135e-01 9.718365e-01 8.801014e-01 1.005420e+00 1.423266e+00 1.555925e+00 1.891669e+00 1.930836e+00 2.258059e+00 1.746770e+00 1.507115e+00 2.451649e-01 2.982167e-02 4.932928e-02 9.727196e-02 1.185148e-01 1.720502e-01 1.879864e-01 2.317622e-01 2.954009e-01 2.683645e-01 3.001051e-01 2.426827e-01 2.031901e-01 2.334484e-02
<GCONST> 8.851735e+01
<MIXTURE> 2 3.751710e-01
<MEAN> 39
 -1.249449e+00 9.789597e+00 2.297249e+00 9.408851e-01 -1.910282e-01 -2.004812e+00 -3.792462e+00 -2.907085e+00 1.263226e+00 -6.942443e-02 -1.228002e+00 3.626121e-01 6.226871e+01 1.173430e+00 4.273253e-01 -7.826201e-01 -2.421333e-01 1.834473e-01 -2.357665e-01 -3.432762e-01 -7.966850e-01 -1.722552e-02 5.168684e-01 2.313644e-01 -1.149407e-01 4.833554e-01 -1.996177e-01 -2.452982e-01 -2.664858e-01 -1.256810e-01 -7.583062e-02 -9.493728e-02 1.025630e-01 3.237417e-02 7.854695e-03 2.861837e-02 4.663357e-02 2.054120e-02 1.108964e-02
<VARIANCE> 39
 2.489403e+01 2.758494e+01 6.404218e+01 5.393565e+01 5.921245e+01 5.594672e+01 6.712828e+01 6.345687e+01 3.988255e+01 5.040642e+01 4.042960e+01 4.394430e+01 2.707087e+01 2.685649e+00 2.175629e+00 3.267379e+00 3.907360e+00 3.741984e+00 3.920988e+00 4.269330e+00 4.282266e+00 3.793272e+00 3.676418e+00 3.883692e+00 3.641635e+00 1.614285e+00 4.412445e-01 3.833223e-01 6.350458e-01 8.567194e-01 7.184488e-01 7.164701e-01 7.037120e-01 7.881812e-01 6.044770e-01 6.374799e-01 7.198284e-01 5.928470e-01 2.518181e-01
<GCONST> 1.300498e+02
<STATE> 3
<MEAN> 39
 3.248414e+00 7.156280e+00 -2.924019e+00 -3.395857e+00 1.841351e+00 2.508536e+00 -8.182261e+00 -3.334490e+00 5.967201e-01 3.770309e+00 4.883265e-01 -5.051380e+00 6.633229e+01 3.707818e-04 1.874454e-01 1.354293e-01 7.425711e-04 7.021762e-02 -6.832065e-02 1.225189e-02 -1.187763e-01 -5.031037e-02 -7.006975e-02 1.008033e-01 2.574275e-01 -1.648324e-01 -3.423308e-02 -7.922797e-03 5.201979e-02 7.719828e-02 -6.855988e-02 -3.444863e-02 4.534628e-02 6.647741e-02 1.184157e-02 -5.350690e-02 -5.107012e-02 3.989926e-02 -1.257796e-02
<VARIANCE> 39
 5.300376e+00 1.717302e+01 2.292540e+01 4.072881e+01 2.390324e+01 4.195075e+01 4.292217e+01 6.515855e+01 5.409280e+01 5.664102e+01 3.061861e+01 3.760256e+01 1.366793e+01 1.477325e-01 3.776243e-01 7.154478e-01 9.418854e-01 8.755637e-01 1.122064e+00 1.276594e+00 1.481054e+00 1.363760e+00 1.827869e+00 1.298018e+00 1.149061e+00 2.360876e-01 2.427343e-02 4.024289e-02 1.028837e-01 1.163994e-01 1.474861e-01 1.416918e-01 1.792529e-01 2.246277e-01 1.966480e-01 2.110678e-01 1.963793e-01 1.677171e-01 2.073184e-02
<GCONST> 8.386569e+01
<STATE> 4
<NUMMIXES> 2
<MIXTURE> 1 5.794640e-01
<MEAN> 39
 3.771501e+00 1.365985e+01 -5.223463e+00 -6.178017e+00 1.947780e+00 -1.730116e+00 1.821260e+00 -1.330723e+01 -6.262551e-01 3.696052e+00 1.844334e+00 4.731070e+00 6.331834e+01 9.984323e-04 7.861143e-02 1.586526e-01 8.085006e-02 3.417321e-02 -1.020330e-01 -1.453218e-02 -2.763419e-02 -1.425584e-01 -8.500091e-02 2.621292e-02 1.207024e-01 -1.625087e-01 -3.268497e-02 -6.382472e-02 4.465298e-02 5.308623e-02 -8.068722e-03 -1.841315e-02 -7.813647e-02 1.039442e-01 4.641830e-02 5.574459e-02 -3.905140e-02 -1.070092e-01 1.836240e-02
<VARIANCE> 39
 2.535972e+00 8.832622e+00 2.384305e+01 3.287424e+01 2.814702e+01 4.750802e+01 5.268512e+01 4.499004e+01 4.714874e+01 6.900710e+01 3.517619e+01 3.282265e+01 9.243107e+00 1.303298e-01 3.375431e-01 5.331748e-01 9.632303e-01 9.150388e-01 1.066414e+00 1.388158e+00 1.412895e+00 1.520621e+00 1.657302e+00 1.530741e+00 1.400316e+00 1.512906e-01 2.056947e-02 5.085669e-02 8.254594e-02 1.268616e-01 1.464367e-01 1.917117e-01 1.999992e-01 2.213625e-01 2.465957e-01 2.295798e-01 2.328015e-01 1.903880e-01 1.636188e-02
<GCONST> 8.222701e+01
<MIXTURE> 2 4.205357e-01
<MEAN> 39
 1.650427e+00 1.087069e+01 -1.045739e+00 -4.203729e-01 2.266013e+00 -4.512360e+00 -3.819821e+00 -7.834668e+00 2.453006e+00 4.912920e+00 -2.726091e-01 -2.861474e-01 6.274911e+01 -4.460018e-01 -4.258116e-01 4.371942e-01 5.937313e-01 -5.283867e-01 -2.902089e-01 -9.893752e-03 1.066383e+00 3.183554e-01 -5.021872e-01 -1.929012e-01 -2.821332e-01 2.030182e-02 -6.727759e-02 -6.521863e-02 1.219813e-02 1.567349e-02 -1.974901e-01 8.727188e-02 1.573675e-01 7.842056e-02 -6.461058e-02 -1.861139e-01 5.195209e-02 8.068080e-02 2.300422e-02
<VARIANCE> 39
 8.056656e+00 1.761414e+01 3.782860e+01 4.225541e+01 3.369685e+01 5.700860e+01 7.149882e+01 6.759113e+01 6.131283e+01 5.678382e+01 3.696836e+01 3.844574e+01 2.064094e+01 5.012978e-01 7.237847e-01 1.693369e+00 1.904155e+00 2.286717e+00 2.629760e+00 2.719183e+00 3.607691e+00 3.183825e+00 3.583649e+00 2.380069e+00 2.700526e+00 8.550527e-01 9.746147e-02 8.292428e-02 2.531475e-01 2.914606e-01 3.260700e-01 4.083441e-01 4.512434e-01 5.899112e-01 5.475361e-01 4.854107e-01 4.377001e-01 4.783908e-01 7.816526e-02
<GCONST> 1.106654e+02
<TRANSP> 5
 0.000000e+00 1.000000e+00 0.000000e+00 0.000000e+00 0.000000e+00
 0.000000e+00 7.947962e-01 2.052038e-01 0.000000e+00 0.000000e+00
 0.000000e+00 0.000000e+00 8.313469e-01 1.686531e-01 0.000000e+00
 0.000000e+00 0.000000e+00 0.000000e+00 8.953639e-01 1.046361e-01
 0.000000e+00 0.000000e+00 0.000000e+00 0.000000e+00 0.000000e+00
<ENDHMM>
~h "m"
<BEGINHMM>
<NUMSTATES> 5
<STATE> 2
<NUMMIXES> 2
<MIXTURE> 1 4.872317e-01
<MEAN> 39
 4.475385e+00 3.693990e+00 8.491693e-01 1.028059e+01 3.573731e-01 -4.140604e+00 -2.610789e+00 5.099143e-01 -1.313275e+00 -9.241925e-01 -1.358184e+00 -4.431575e+00 6.338627e+01 -2.152869e-01 7.114141e-01 1.135027e+00 1.882135e+00 1.290205e+00 -6.864545e-01 2.152451e-01 -1.994474e+00 -9.293827e-01 1.678955e+00 -1.971743e-01 -8.007383e-01 -1.134026e+00 -1.806475e-01 2.559839e-02 3.399867e-01 7.247777e-02 -2.496991e-01 -8.877532e-02 4.611573e-02 -1.536507e-01 -1.025343e-01 1.697228e-01 5.914897e-02 -4.370206e-02 1.215136e-01
<VARIANCE> 39
 3.535972e+00 9.410830e+00 1.838288e+01 2.418451e+01 2.067794e+01 3.181322e+01 3.627777e+01 4.271466e+01 4.188354e+01 4.306052e+01 3.092294e+01 2.368166e+01 7.903485e+00 4.152409e-01 5.890300e-01 1.873194e+00 1.252385e+00 2.205066e+00 2.102715e+00 2.097733e+00 2.849162e+00 2.128842e+00 3.045259e+00 2.036027e+00 2.438175e+00 4.082663e-01 5.345669e-02 9.736872e-02 2.508097e-01 2.671579e-01 3.075059e-01 3.411078e-01 4.334455e-01 6.396774e-01 3.702894e-01 5.131119e-01 2.705086e-01 3.040621e-01 6.580546e-02
<GCONST> 9.823839e+01
<MIXTURE> 2 5.127688e-01
<MEAN> 39
 -1.492193e-01 8.395926e+00 7.623412e+00 1.190413e+01 3.490237e+00 -2.535498e+00 -2.040878e+00 -3.793101e+00 -3.817904e+00 3.024868e+00 -2.090971e+00 -5.835575e+00 5.836283e+01 6.554423e-01 1.285870e-01 7.684388e-01 1.138959e+00 1.464023e-01 -5.076234e-01 -1.399608e-01 -6.564522e-01 -4.009904e-01 4.083441e-01 -1.782587e-01 -6.395432e-01 5.018611e-01 -7.361177e-02 -3.185454e-01 -2.966764e-01 -3.713795e-01 -2.559418e-01 -1.255119e-01 -9.285071e-02 1.852537e-01 9.653167e-02 -6.776803e-02 2.682403e-02 1.608688e-01 1.589540e-01
<VARIANCE> 39
 1.000667e+01 1.513051e+01 1.540697e+01 2.672039e+01 3.287188e+01 4.289066e+01 3.796424e+01 3.528459e+01 4.346229e+01 4.316457e+01 3.284715e+01 2.989668e+01 2.196668e+01 1.511531e+00 1.579787e+00 1.850176e+00 2.368854e+00 2.555268e+00 2.841835e+00 2.756552e+00 3.198586e+00 2.341795e+00 3.010208e+00 2.157888e+00 2.417486e+00 1.120410e+00 1.935278e-01 2.300245e-01 2.509418e-01 3.863150e-01 4.648398e-01 5.091482e-01 5.277019e-01 6.191351e-01 4.226350e-01 6.292413e-01 4.307895e-01 4.166204e-01 1.802233e-01
<GCONST> 1.121497e+02
<STATE> 3
<MEAN> 39
 2.534545e+00 6.250968e+00 7.015172e+00 1.490039e+01 1.487849e+00 -5.540124e+00 -1.878613e+00 -6.530335e+00 -3.214046e+00 5.195072e+00 -3.018804e+00 -6.500080e+00 6.072840e+01 -4.849531e-03 2.769004e-02 7.000919e-02 -1.096324e-02 4.790995e-02 8.082467e-02 -3.749472e-02 -9.310042e-02 -3.339400e-03 -1.737379e-02 -6.978475e-03 3.115414e-02 -1.779395e-02 -7.955175e-04 1.615656e-02 -7.522251e-02 -1.292492e-01 -7.938336e-03 8.973368e-02 1.046115e-02 9.879339e-02 3.440101e-02 -1.101455e-01 1.711554e-02 5.606436e-02 1.258553e-02
<VARIANCE> 39
 2.736585e+00 1.062552e+01 9.490820e+00 1.700315e+01 2.334569e+01 4.229208e+01 3.341866e+01 3.162085e+01 3.531158e+01 3.815614e+01 2.749124e+01 3.478307e+01 7.623236e+00 1.311910e-01 3.290161e-01 4.512278e-01 7.258062e-01 7.822728e-01 1.205006e+00 1.081100e+00 1.265644e+00 1.259883e+00 1.550205e+00 1.310852e+00 1.367333e+00 1.470033e-01 2.436665e-02 4.593213e-02 9.730317e-02 1.480349e-01 1.508268e-01 2.213812e-01 2.057184e-01 2.461370e-01 2.287559e-01 2.783810e-01 2.198757e-01 2.330352e-01 2.007315e-02
<GCONST> 7.836862e+01
<STATE> 4
<NUMMIXES> 2
<MIXTURE> 1 4.149086e-01
<MEAN> 39
 2.251770e+00 4.973654e+00 7.358910e+00 1.514666e+01 3.943027e+00 -6.000257e+00 -3.284586e+00 -5.381022e+00 -5.799168e+00 4.074545e+00 -1.765845e+00 -6.816355e+00 6.164320e+01 6.307016e-02 -2.335071e-01 -9.682375e-01 -1.502521e+00 -7.086999e-01 5.266305e-01 -1.014710e-01 1.360382e+00 6.471149e-01 -1.026712e+00 2.128563e-01 6.581396e-01 7.779558e-01 9.206717e-02 -1.159703e-01 -4.180264e-01 -6.749709e-01 -6.424390e-01 3.692451e-01 -2.338300e-02 6.899725e-01 3.396861e-01 -6.216332e-01 5.078609e-02 3.706247e-01 3.215404e-01
<VARIANCE> 39
 2.304956e+00 1.113640e+01 1.208300e+01 2.024488e+01 2.007177e+01 4.113042e+01 3.603111e+01 2.298714e+01 3.096021e+01 3.482333e+01 2.391749e+01 4.163497e+01 7.569612e+00 2.879930e-01 4.995490e-01 1.310614e+00 1.905871e+00 1.694951e+00 1.815648e+00 1.755602e+00 2.349597e+00 2.058141e+00 2.643508e+00 1.357466e+00 2.439071e+00 4.396987e-01 4.895230e-02 7.752113e-02 2.831196e-01 1.766679e-01 2.657583e-01 3.493228e-01 3.286977e-01 2.427720e-01 3.118945e-01 3.475327e-01 3.042209e-01 3.884497e-01 4.201206e-02
<GCONST> 9.235339e+01
<MIXTURE> 2 5.850913e-01
<MEAN> 39
 1.600601e+00 7.969252e+00 5.470088e+00 1.033402e+01 2.284666e+00 -2.904266e+00 -2.520551e+00 -3.367980e+00 -8.967696e-01 7.813830e-01 -1.927746e+00 -3.923074e+00 6.001213e+01 -3.542545e-01 -1.086762e-01 -4.943988e-01 -1.653031e+00 -8.669094e-01 8.061260e-01 -1.099104e-02 1.490455e+00 4.763744e-01 -1.057832e+00 5.521190e-02 6.867648e-01 2.961707e-01 -1.062299e-01 -4.391893e-02 -3.439406e-02 -4.647496e-02 -1.849973e-01 2.593453e-02 1.831229e-01 1.687844e-02 -1.385987e-01 2.209814e-02 -9.439122e-02 -6.223354e-02 -4.141925e-02
<VARIANCE> 39
 8.792990e+00 1.975052e+01 1.720884e+01 2.568237e+01 2.734506e+01 3.602654e+01 2.465949e+01 3.451197e+01 2.941990e+01 2.829631e+01 2.638027e+01 2.194030e+01 2.431145e+01 1.001550e+00 1.559043e+00 3.038301e+00 2.812855e+00 3.951817e+00 3.439530e+00 2.954249e+00 3.477921e+00 2.956163e+00 4.359418e+00 2.709574e+00 3.089706e+00 1.312923e+00 1.214164e-01 2.319004e-01 3.223941e-01 3.768084e-01 4.886056e-01 5.758162e-01 5.362737e-01 6.656914e-01 4.540480e-01 4.329514e-01 4.287371e-01 4.406497e-01 9.858766e-02
<GCONST> 1.117387e+02
<TRANSP> 5
 0.000000e+00 1.000000e+00 0.000000e+00 0.000000e+00 0.000000e+00
 0.000000e+00 7.740747e-01 2.259253e-01 0.000000e+00 0.000000e+00
 0.000000e+00 0.000000e+00 9.053885e-01 9.461150e-02 0.000000e+00
 0.000000e+00 0.000000e+00 0.000000e+00 7.230151e-01 2.769849e-01
 0.000000e+00 0.000000e+00 0.000000e+00 0.000000e+00 0.000000e+00
<ENDHMM>
~h "n"
<BEGINHMM>
<NUMSTATES> 5
<STATE> 2
<NUMMIXES> 2
<MIXTURE> 1 4.949179e-01
<MEAN> 39
 1.931583e+00 6.729054e+00 8.012735e+00 1.404502e+01 -1.242740e+00 -3.629256e+00 -3.575976e-01 -5.777705e+00 -1.646603e+00 4.848426e+00 -6.893347e+00 -6.457298e+00 6.102608e+01 3.116722e-01 2.706442e-01 6.389950e-01 1.427455e+00 -2.648076e-01 -2.455491e-01 5.161313e-01 -2.016933e+00 -3.531068e-03 2.036546e+00 -1.190773e+00 -3.086275e-01 -7.209631e-01 -1.016854e-01 -1.012451e-01 -1.780574e-01 -5.474728e-01 -2.883405e-01 7.931542e-02 -7.359917e-02 4.669903e-01 4.520713e-02 -5.072374e-01 3.326819e-01 1.929773e-01 3.241112e-01
<VARIANCE> 39
 3.694691e+00 1.210423e+01 1.107720e+01 1.659946e+01 1.905615e+01 2.164370e+01 2.777500e+01 2.856240e+01 3.794461e+01 3.688422e+01 1.921590e+01 2.090729e+01 7.017026e+00 5.658267e-01 9.261361e-01 1.566821e+00 2.018250e+00 1.870730e+00 2.113830e+00 1.951394e+00 3.410379e+00 2.369499e+00 2.720079e+00 2.178169e+00 2.153391e+00 4.264601e-01 7.562080e-02 1.188744e-01 2.008582e-01 2.508150e-01 3.194691e-01 3.453866e-01 3.159589e-01 4.958748e-01 3.271559e-01 4.464921e-01 3.128352e-01 3.057800e-01 5.251716e-02
<GCONST> 9.593536e+01
<MIXTURE> 2 5.050812e-01
<MEAN> 39
 3.495466e-01 5.165037e+00 5.440528e+00 6.374093e+00 -2.606587e+00 -2.433232e+00 -3.061322e+00 3.130784e+00 -1.652968e+00 -3.598080e+00 -1.454744e+00 -4.861588e+00 6.550301e+01 3.633543e-01 5.055913e-01 6.205397e-01 1.548619e+00 1.329580e+00 -5.892109e-01 -5.878833e-02 -1.291793e+00 -1.305714e-01 1.569186e+00 -8.864960e-01 -6.073806e-01 -1.380871e+00 8.522937e-02 4.376858e-02 1.190097e-01 4.603527e-01 -2.685342e-01 7.228853e-02 3.365698e-01 -7.163340e-01 1.059224e-02 6.038236e-01 -3.969291e-01 -3.466994e-02 -1.583209e-01
<VARIANCE> 39
 8.199700e+00 2.097752e+01 2.706859e+01 2.174921e+01 3.517669e+01 4.091782e+01 3.761155e+01 4.484476e+01 5.488667e+01 3.892547e+01 2.988398e+01 2.949078e+01 1.294230e+01 5.512124e-01 8.307216e-01 1.662081e+00 2.266896e+00 2.740052e+00 2.895810e+00 2.488135e+00 4.471833e+00 2.183822e+00 3.299240e+00 2.582320e+00 2.060255e+00 5.817679e-01 1.081413e-01 1.745802e-01 2.592678e-01 3.706395e-01 4.579046e-01 4.792282e-01 3.828296e-01 4.855479e-01 4.188409e-01 3.861135e-01 3.731599e-01 3.236771e-01 1.056612e-01
<GCONST> 1.073500e+02
<STATE> 3
<MEAN> 39
 2.328405e+00 7.308296e+00 8.766126e+00 1.395706e+01 -2.435466e+00 -4.374879e+00 -9.917521e-02 -7.527792e+00 -1.111529e+00 6.901136e+00 -7.690862e+00 -6.111260e+00 6.045827e+01 1.788065e-02 2.477124e-01 -4.078802e-02 -1.078402e-01 4.863851e-02 3.679277e-02 -6.037519e-02 -1.658333e-01 -5.909721e-02 2.902822e-02 1.680796e-01 2.244374e-02 -1.883443e-01 -4.630151e-02 2.900342e-02 -3.446925e-02 -1.277620e-01 8.159176e-02 4.838535e-02 -5.426707e-02 1.603879e-01 -2.740913e-02 -1.910340e-01 1.358220e-01 3.230766e-02 2.223323e-02
<VARIANCE> 39
 3.096094e+00 1.114234e+01 9.661187e+00 1.739357e+01 1.739145e+01 2.175341e+01 2.542174e+01 2.815209e+01 3.395013e+01 3.317486e+01 1.950474e+01 2.255675e+01 6.693541e+00 1.394189e-01 3.137360e-01 4.574630e-01 6.642666e-01 7.473467e-01 9.624926e-01 1.031921e+00 1.283289e+00 1.270110e+00 1.306897e+00 1.057971e+00 1.165040e+00 1.219444e-01 2.932233e-02 5.651656e-02 1.002314e-01 1.643894e-01 1.503308e-01 1.854436e-01 2.138296e-01 2.827026e-01 2.314873e-01 2.867144e-01 2.224927e-01 2.188594e-01 2.009551e-02
<GCONST> 7.557207e+01
<STATE> 4
<NUMMIXES> 2
<MIXTURE> 1 5.445707e-01
<MEAN> 39
 1.372066e+00 1.168869e+01 8.209333e+00 1.113943e+01 6.937910e-01 -1.907040e+00 -8.570745e-01 -7.048026e+00 -1.983298e+00 2.948620e+00 -4.110226e+00 -4.701903e+00 5.671494e+01 -3.528353e-01 2.542810e-01 1.950750e-01 -3.876848e-01 5.603112e-01 2.144972e-01 9.671806e-02 5.651250e-01 -2.269397e-01 -6.969581e-01 2.173527e-01 3.201464e-01 -4.119958e-01 -1.741693e-01 -1.319187e-01 -1.130631e-02 -9.686605e-02 4.029614e-02 -3.263774e-02 3.677082e-02 1.914589e-01 -8.839767e-04 -8.362599e-02 -8.244240e-02 5.912819e-02 3.769300e-02
<VARIANCE> 39
 4.167630e+00 6.794323e+00 7.787687e+00 1.537571e+01 1.893515e+01 2.062416e+01 2.626094e+01 2.903356e+01 3.409760e+01 3.931566e+01 2.055716e+01 2.108619e+01 7.222111e+00 4.045005e-01 6.126769e-01 7.175690e-01 1.162741e+00 1.440430e+00 1.821284e+00 2.041486e+00 2.265610e+00 1.888715e+00 2.158214e+00 1.874715e+00 1.566854e+00 2.065600e-01 6.890906e-02 1.140542e-01 1.573734e-01 2.035976e-01 2.746893e-01 3.307616e-01 3.339410e-01 3.983963e-01 3.445049e-01 4.266737e-01 3.113922e-01 3.043871e-01 4.069866e-02
<GCONST> 8.930776e+01
<MIXTURE> 2 4.554287e-01
<MEAN> 39
 -1.527513e+00 9.201914e+00 8.469150e+00 9.338387e+00 1.217775e+00 -2.433702e+00 -3.996830e-01 -3.280830e+00 -2.002992e+00 1.549843e+00 -5.143763e+00 -4.368172e+00 5.781023e+01 -7.598107e-01 -3.237393e-01 -2.749995e-01 -1.234189e+00 2.604021e-02 1.573967e-01 -3.492170e-01 9.541832e-01 -8.255015e-02 -7.061191e-01 5.933696e-01 3.850828e-01 1.192087e-01 6.480306e-03 -8.725826e-02 -1.588280e-01 -8.702041e-02 -2.641530e-01 -4.525560e-02 -4.584403e-02 -2.125288e-02 1.185535e-01 2.566005e-03 8.734531e-02 9.400722e-02 7.185505e-02
<VARIANCE> 39
 1.372891e+01 2.000364e+01 1.989527e+01 3.499129e+01 3.541629e+01 3.763794e+01 3.625551e+01 4.075316e+01 3.698700e+01 5.356282e+01 2.870879e+01 2.973025e+01 1.837887e+01 1.437542e+00 1.709492e+00 2.122611e+00 3.129833e+00 2.966871e+00 3.660584e+00 2.955215e+00 4.083792e+00 3.058101e+00 3.819303e+00 2.801464e+00 2.761987e+00 1.332460e+00 2.501661e-01 2.798034e-01 3.611973e-01 5.917842e-01 5.633238e-01 6.373059e-01 6.373930e-01 7.834075e-01 5.667080e-01 6.671424e-01 5.378417e-01 4.828005e-01 1.887143e-01
<GCONST> 1.181333e+02
<TRANSP> 5
 0.000000e+00 1.000000e+00 0.000000e+00 0.000000e+00 0.000000e+00
 0.000000e+00 7.984104e-01 2.015895e-01 0.000000e+00 0.000000e+00
 0.000000e+00 0.000000e+00 8.711480e-01 1.288519e-01 0.000000e+00
 0.000000e+00 0.000000e+00 0.000000e+00 8.559781e-01 1.440219e-01
 0.000000e+00 0.000000e+00 0.000000e+00 0.000000e+00 0.000000e+00
<ENDHMM>
~h "p"
<BEGINHMM>
<NUMSTATES> 5
<STATE> 2
<NUMMIXES> 2
<MIXTURE> 1 2.694639e-01
<MEAN> 39
 1.957920e+00 5.165330e+00 9.662238e-01 4.090057e+00 5.522923e-01 -3.541647e+00 -5.363130e+00 -1.419549e+00 -8.876169e-01 3.593144e+00 2.471859e+00 -2.882308e+00 6.060123e+01 -9.655177e-01 1.505394e+00 5.500993e-01 1.653662e-01 1.204473e+00 6.758801e-01 9.590704e-01 -6.365822e-01 6.554655e-01 1.506781e-01 -6.349169e-01 2.958515e-01 -2.160155e+00 -2.797416e-01 9.582709e-02 2.100520e-01 -4.160263e-02 -2.831361e-01 2.048583e-02 1.644670e-01 2.176518e-01 -1.099148e-01 -5.462750e-01 -4.169776e-01 2.357718e-01 -6.065424e-02
<VARIANCE> 39
 1.750121e+01 1.539130e+01 3.439540e+01 3.658966e+01 3.337570e+01 7.003937e+01 4.226148e+01 6.710632e+01 3.846804e+01 3.566101e+01 1.964252e+01 1.590356e+01 1.330861e+01 7.340511e-01 1.477011e+00 3.125264e+00 2.404004e+00 2.055299e+00 3.157342e+00 2.679378e+00 5.925551e+00 1.972124e+00 4.451569e+00 2.824163e+00 2.984309e+00 1.136072e+00 1.244618e-01 3.088906e-01 3.162626e-01 3.265061e-01 5.080231e-01 4.647430e-01 4.912884e-01 9.449761e-01 6.059206e-01 5.821860e-01 3.093718e-01 3.010638e-01 1.714517e-01
<GCONST> 1.139197e+02
<MIXTURE> 2 7.305366e-01
<MEAN> 39
 -1.956572e+00 1.052304e+01 6.015908e+00 5.012892e+00 2.143769e+00 -2.372640e+00 4.737930e-01 -8.871746e-01 -1.173129e+00 1.162662e+00 -2.716289e+00 -2.058072e+00 5.422256e+01 -8.221326e-01 -3.702693e-02 -2.635083e-01 -5.773798e-01 -3.718351e-01 -1.052913e-01 4.030442e-01 2.313252e-01 -5.107453e-02 -7.586364e-01 -3.416426e-01 5.109169e-01 -8.406709e-01 1.413129e-01 -3.463320e-01 -2.592182e-01 6.294265e-02 -9.816064e-02 -8.876425e-02 -2.533399e-01 -1.518321e-01 1.571948e-02 1.329025e-02 2.109082e-01 -4.049167e-02 2.257901e-01
<VARIANCE> 39
 1.226601e+01 6.832183e+00 1.588702e+01 2.134265e+01 3.154543e+01 3.050512e+01 3.474644e+01 3.300744e+01 3.062049e+01 2.742172e+01 2.359999e+01 2.340475e+01 4.164343e+00 7.473860e-01 1.380789e+00 1.693949e+00 1.722146e+00 2.389246e+00 2.343079e+00 2.621695e+00 3.447812e+00 2.880005e+00 2.422803e+00 2.665675e+00 2.076573e+00 3.122904e-01 1.134001e-01 2.017470e-01 3.167153e-01 3.428076e-01 4.432260e-01 4.202951e-01 5.038400e-01 5.813540e-01 5.799791e-01 5.642888e-01 5.069872e-01 4.276830e-01 8.540779e-02
<GCONST> 1.038238e+02
<STATE> 3
<MEAN> 39
 -5.392132e+00 7.237100e+00 2.336187e+00 3.196610e+00 -9.362108e-02 -3.747664e+00 -1.992155e+00 -2.651459e+00 -1.267945e+00 -9.237880e-01 -1.395844e+00 4.437502e-02 5.191364e+01 -1.015868e-01 -1.839365e-01 -9.646312e-02 -2.819172e-02 2.353695e-02 1.278510e-01 -1.366312e-04 -2.020579e-01 6.559566e-03 -1.533223e-02 6.052197e-02 1.786574e-02 -1.348185e-01 1.725419e-02 2.420221e-02 7.123508e-02 2.730477e-02 3.176358e-02 1.318941e-02 9.889863e-03 1.524065e-02 -1.594374e-03 7.064836e-02 2.619073e-03 -2.098156e-02 5.718046e-02
<VARIANCE> 39
 7.967625e+00 8.878703e+00 1.259655e+01 1.855342e+01 2.643093e+01 3.531972e+01 3.682007e+01 3.450637e+01 3.372182e+01 3.283111e+01 2.694524e+01 2.186824e+01 3.286765e+00 2.516902e-01 5.639862e-01 1.018801e+00 1.473182e+00 1.634356e+00 2.099757e+00 2.402327e+00 2.652170e+00 2.478602e+00 2.245682e+00 2.391258e+00 1.958865e+00 7.634407e-02 5.156660e-02 1.297469e-01 2.096895e-01 2.956255e-01 3.283779e-01 4.203195e-01 4.760570e-01 5.634841e-01 4.893917e-01 4.368213e-01 5.083773e-01 4.197523e-01 2.159654e-02
<GCONST> 9.417513e+01
<STATE> 4
<NUMMIXES> 2
<MIXTURE> 1 5.180482e-01
<MEAN> 39
 -1.038562e+01 -1.133687e+00 1.355427e+00 1.724070e+00 -7.698188e-01 -4.369671e+00 -3.267092e+00 7.307631e-01 1.724988e+00 1.277322e+00 -4.027457e-01 3.217724e-01 6.300975e+01 1.398616e-01 -6.869156e-01 4.541527e-01 4.095550e-01 -1.517518e-01 -7.450047e-01 -5.163422e-01 8.259547e-01 5.665828e-03 -1.469969e-01 1.645293e-01 -2.383845e-01 1.038299e+00 5.854377e-01 7.425398e-01 1.924273e-01 1.686842e-01 -8.336695e-03 1.236759e-01 1.925052e-01 -2.201206e-01 -2.925410e-01 -2.105723e-01 2.758024e-02 -1.181252e-01 -6.766697e-01
<VARIANCE> 39
 1.948509e+01 2.418453e+01 2.518692e+01 3.704823e+01 3.294077e+01 4.539262e+01 3.831052e+01 4.333978e+01 3.811771e+01 4.320163e+01 2.720133e+01 2.707762e+01 2.479673e+01 3.723039e+00 3.520667e+00 2.733648e+00 4.313691e+00 3.628738e+00 4.350008e+00 3.977873e+00 4.352909e+00 3.574774e+00 3.732946e+00 2.853924e+00 2.811284e+00 5.011280e+00 2.563660e-01 4.459665e-01 3.742175e-01 7.119147e-01 6.883819e-01 8.293873e-01 8.180447e-01 7.454715e-01 6.139045e-01 6.888430e-01 5.979561e-01 6.011232e-01 5.801324e-01
<GCONST> 1.265768e+02
<MIXTURE> 2 4.819517e-01
<MEAN> 39
 -5.845237e+00 6.953852e+00 2.403305e+00 2.926358e+00 7.082997e-01 -1.647627e+00 1.562420e-01 -2.204407e+00 -6.333845e-01 -6.121308e-01 -1.098963e+00 4.286774e-02 5.143420e+01 -6.469491e-01 -9.701110e-01 -7.826376e-02 -2.085205e-01 -3.364494e-02 -4.959868e-02 -3.138838e-01 4.034006e-01 5.209234e-01 5.109394e-01 2.299068e-01 2.086182e-01 1.668217e+00 -1.576634e-01 -4.601148e-01 5.031204e-03 -5.532723e-02 -1.597842e-01 -3.019431e-01 -2.525050e-01 3.563710e-01 8.654419e-02 3.285128e-02 2.467882e-02 3.699926e-02 8.432634e-01
<VARIANCE> 39
 6.480732e+00 1.083276e+01 1.162533e+01 1.680082e+01 1.940978e+01 2.901566e+01 3.929012e+01 3.133215e+01 3.164780e+01 2.576558e+01 1.854751e+01 2.065209e+01 3.471250e+00 9.671425e-01 1.833407e+00 1.324522e+00 1.972149e+00 2.639434e+00 3.856896e+00 4.191391e+00 3.764953e+00 2.784089e+00 3.325095e+00 2.213156e+00 2.225749e+00 3.780243e+00 2.454970e-01 2.002246e-01 2.977341e-01 4.387707e-01 3.455157e-01 6.920269e-01 7.744532e-01 6.971650e-01 5.375508e-01 5.364433e-01 3.970324e-01 4.266141e-01 2.222533e-01
<GCONST> 1.086923e+02
<TRANSP> 5
 0.000000e+00 1.000000e+00 0.000000e+00 0.000000e+00 0.000000e+00
 0.000000e+00 8.259184e-01 1.740816e-01 0.000000e+00 0.000000e+00
 0.000000e+00 0.000000e+00 9.046991e-01 9.530089e-02 0.000000e+00
 0.000000e+00 0.000000e+00 0.000000e+00 8.568493e-01 1.431507e-01
 0.000000e+00 0.000000e+00 0.000000e+00 0.000000e+00 0.000000e+00
<ENDHMM>
~h "r"
<BEGINHMM>
<NUMSTATES> 5
<STATE> 2
<NUMMIXES> 2
<MIXTURE> 1 5.847640e-01
<MEAN> 39
 -4.602398e+00 -8.783774e-01 9.486833e-01 6.415677e+00 1.855077e+00 -1.349630e+00 -4.704842e+00 -1.321456e+00 2.920517e+00 1.438462e+00 -1.091839e+00 -1.491918e+00 5.874429e+01 1.605931e+00 9.774641e-01 9.934158e-02 4.562539e-01 1.630311e-01 1.414150e-02 -1.362887e-02 -9.263906e-02 -3.394827e-01 -1.063296e-01 2.441653e-01 2.052256e-02 3.639387e-02 1.225090e-01 -7.159152e-03 -1.346981e-01 -1.486871e-01 -3.270949e-01 -2.221980e-01 -4.712027e-02 7.832032e-03 -2.043597e-01 -5.682171e-02 1.771790e-01 1.924860e-01 2.039142e-01
<VARIANCE> 39
 2.648673e+01 4.387780e+01 2.886820e+01 3.283362e+01 3.134589e+01 4.779153e+01 3.869265e+01 4.755796e+01 4.555241e+01 3.540910e+01 3.350009e+01 3.115978e+01 2.033645e+01 3.367512e+00 2.501267e+00 2.027169e+00 2.762501e+00 2.838032e+00 3.598490e+00 3.142120e+00 2.629174e+00 3.524365e+00 3.171154e+00 2.821756e+00 2.651993e+00 1.180421e+00 2.647985e-01 5.389609e-01 4.414342e-01 5.810785e-01 6.059310e-01 6.070353e-01 5.848464e-01 4.831621e-01 6.467575e-01 5.170095e-01 5.707832e-01 5.362158e-01 1.750007e-01
<GCONST> 1.210553e+02
<MIXTURE> 2 4.152365e-01
<MEAN> 39
 6.289398e+00 2.036554e+00 -1.334073e+00 7.018408e+00 -3.908570e+00 -4.492627e+00 -6.608625e+00 -1.134045e+00 -2.380806e+00 5.925840e-01 3.366430e+00 7.399942e-01 6.512337e+01 8.240061e-01 -4.362915e-01 -6.128209e-01 -9.070767e-02 -1.064708e+00 -8.048686e-01 -6.074036e-01 9.899826e-02 -2.602648e-01 1.076819e-01 9.307510e-01 4.530280e-01 5.345826e-01 -5.872920e-01 -1.793280e-01 1.938640e-01 -3.611970e-02 2.135060e-01 1.983061e-01 1.511575e-01 1.375609e-01 2.755828e-01 -3.396183e-02 -2.282403e-01 -2.418737e-01 -1.817155e-01
<VARIANCE> 39
 8.009985e+00 1.934226e+01 5.268764e+01 2.437628e+01 3.175144e+01 9.002488e+01 4.484367e+01 4.785398e+01 4.394505e+01 3.600288e+01 4.043387e+01 2.706124e+01 1.114700e+01 1.448361e+00 1.204707e+00 2.110721e+00 1.739759e+00 2.693316e+00 2.784952e+00 2.512620e+00 2.722367e+00 3.241377e+00 2.460123e+00 2.562721e+00 2.303618e+00 7.894409e-01 2.582624e-01 3.245735e-01 2.169260e-01 2.691394e-01 2.937475e-01 4.194447e-01 3.716871e-01 3.805850e-01 3.726614e-01 3.749671e-01 4.065603e-01 3.090560e-01 6.457672e-02
<GCONST> 1.095421e+02
<STATE> 3
<MEAN> 39
 7.081696e+00 2.259383e+00 -4.762393e+00 6.182419e+00 -2.533645e+00 -1.475796e+00 -7.452326e+00 -2.470448e+00 -3.060843e+00 2.141390e+00 4.366407e+00 5.851217e-01 6.492875e+01 -1.948618e-02 -2.177718e-01 2.294942e-01 2.038615e-01 -1.046321e-01 -3.912079e-01 -2.134699e-01 3.058567e-01 3.754936e-01 -7.657465e-02 -2.829927e-01 -1.726309e-01 4.298741e-02 -6.901202e-02 2.633703e-02 1.138621e-01 -2.645882e-02 -1.146722e-02 -2.464466e-02 7.847640e-02 7.905181e-02 7.235738e-03 -1.180276e-01 -7.661585e-02 9.658850e-03 -1.478326e-02
<VARIANCE> 39
 5.717228e+00 1.711187e+01 3.031149e+01 1.554159e+01 2.849478e+01 5.961929e+01 4.297033e+01 5.114418e+01 5.708187e+01 4.030273e+01 6.145527e+01 3.591241e+01 9.724914e+00 1.988938e-01 5.133015e-01 7.782657e-01 9.405534e-01 9.673450e-01 1.803810e+00 1.679289e+00 1.672454e+00 1.830302e+00 1.995471e+00 2.085899e+00 1.470574e+00 2.091005e-01 2.988792e-02 5.515654e-02 8.943015e-02 1.082535e-01 1.452821e-01 1.993628e-01 2.133501e-01 2.764816e-01 2.539092e-01 2.827994e-01 2.837441e-01 2.340198e-01 1.640988e-02
<GCONST> 8.823685e+01
<STATE> 4
<NUMMIXES> 2
<MIXTURE> 1 6.189941e-01
<MEAN> 39
 4.527749e+00 -1.322790e+00 7.682265e+00 8.271954e+00 -1.289190e+01 -1.391313e+01 -3.476764e+00 4.584968e+00 -9.055765e-01 -4.693018e+00 6.018457e+00 3.168319e+00 6.691613e+01 -6.885091e-02 1.037549e-01 1.473442e-01 -6.082780e-02 -2.176142e-01 1.058764e-01 2.337634e-01 -8.079703e-02 -1.306511e-01 1.081482e-01 3.711836e-02 1.762531e-02 -5.801967e-02 -1.080411e-02 5.758782e-02 -3.193645e-02 -1.472786e-02 6.898618e-02 5.030364e-02 -4.761996e-02 -5.435250e-02 1.576101e-02 8.140260e-02 -4.249779e-02 -2.628137e-02 -2.369121e-02
<VARIANCE> 39
 6.118258e+00 1.634971e+01 3.583501e+01 1.765221e+01 3.101120e+01 3.753249e+01 4.267972e+01 3.964802e+01 5.554918e+01 2.301095e+01 4.038388e+01 2.878207e+01 7.735476e+00 1.632157e-01 3.480528e-01 5.549974e-01 4.845346e-01 8.528653e-01 8.941997e-01 1.018592e+00 1.083724e+00 1.173519e+00 1.027484e+00 1.270503e+00 9.363153e-01 1.346477e-01 1.503358e-02 3.616837e-02 5.351132e-02 6.759659e-02 9.667040e-02 1.232727e-01 1.337187e-01 1.360030e-01 1.435451e-01 1.444767e-01 1.588438e-01 1.350723e-01 1.073035e-02
<GCONST> 7.365687e+01
<MIXTURE> 2 3.810090e-01
<MEAN> 39
 5.372947e+00 1.082887e-01 7.686449e-01 9.117211e+00 -5.656042e+00 -6.999364e+00 -8.296001e+00 4.295529e+00 8.698382e-01 -1.582249e+00 6.093702e-01 -7.604608e-02 6.544903e+01 -6.257391e-01 2.601524e-01 1.104388e+00 4.537512e-02 -1.715505e-01 -6.627166e-01 7.077590e-01 5.540813e-01 -1.112056e-01 -7.940526e-01 1.080282e-02 4.422365e-01 -2.012517e-01 -1.633382e-01 2.524956e-01 1.696083e-02 -1.439809e-01 1.544992e-01 2.498574e-01 2.379410e-01 -3.208207e-01 -2.226886e-01 1.399069e-01 1.342264e-01 1.402426e-02 -1.227585e-01
<VARIANCE> 39
 7.236814e+00 1.702600e+01 3.325353e+01 2.599758e+01 3.075524e+01 6.504947e+01 5.469331e+01 4.900261e+01 4.860807e+01 4.306680e+01 3.600132e+01 3.038637e+01 1.306147e+01 4.133498e-01 8.552397e-01 1.185565e+00 1.093087e+00 2.004509e+00 2.449208e+00 2.269837e+00 2.951577e+00 2.198093e+00 2.308227e+00 2.185654e+00 1.892258e+00 5.645750e-01 6.301968e-02 1.063876e-01 1.257587e-01 2.000247e-01 2.346785e-01 3.580727e-01 3.601756e-01 4.413732e-01 3.411022e-01 3.291516e-01 2.929989e-01 2.792390e-01 5.950649e-02
<GCONST> 1.006315e+02
<TRANSP> 5
 0.000000e+00 1.000000e+00 0.000000e+00 0.000000e+00 0.000000e+00
 0.000000e+00 7.932767e-01 2.067232e-01 0.000000e+00 0.000000e+00
 0.000000e+00 0.000000e+00 8.121796e-01 1.878203e-01 0.000000e+00
 0.000000e+00 0.000000e+00 0.000000e+00 8.412371e-01 1.587630e-01
 0.000000e+00 0.000000e+00 0.000000e+00 0.000000e+00 0.000000e+00
<ENDHMM>
~h "s"
<BEGINHMM>
<NUMSTATES> 5
<STATE> 2
<NUMMIXES> 2
<MIXTURE> 1 4.042363e-01
<MEAN> 39
 -4.604274e+00 1.042766e+01 7.664244e+00 4.192826e+00 1.478242e+00 -6.457276e+00 -5.118686e-01 1.444030e+00 -1.988720e+00 2.489178e+00 -9.409735e-01 5.695539e-01 6.348255e+01 -2.601489e+00 4.652802e-01 2.491475e-01 -6.704920e-01 1.809859e+00 3.122905e-01 1.112775e+00 2.098186e-01 -5.835932e-02 -5.257342e-01 -5.779182e-01 8.927672e-02 6.835017e-02 -5.530292e-01 -2.443557e-01 -3.305741e-01 -2.444437e-01 -2.335698e-01 -2.251909e-02 -8.278752e-02 -1.536930e-01 -2.347614e-01 -2.057969e-01 8.064701e-02 -7.523331e-02 2.409114e-01
<VARIANCE> 39
 2.104784e+01 1.858998e+01 2.707356e+01 2.975718e+01 6.437783e+01 6.047265e+01 4.375484e+01 4.066636e+01 4.063773e+01 3.046971e+01 3.724483e+01 3.450439e+01 1.332848e+01 1.583286e+00 1.315051e+00 2.255248e+00 2.211689e+00 3.537966e+00 3.840751e+00 2.414895e+00 3.472017e+00 3.176060e+00 3.438751e+00 3.403897e+00 2.773102e+00 5.503688e-01 1.870164e-01 1.812730e-01 2.914835e-01 3.940929e-01 5.865961e-01 5.876206e-01 5.003234e-01 4.957709e-01 4.827345e-01 5.493601e-01 5.963185e-01 4.503705e-01 6.954868e-02
<GCONST> 1.147585e+02
<MIXTURE> 2 5.957648e-01
<MEAN> 39
 -1.816265e+01 9.976398e+00 4.219993e+00 -6.242639e-01 4.337712e+00 -5.578094e+00 6.041474e-01 5.346072e-01 -3.748995e+00 -4.699614e-01 -1.779321e+00 3.398696e-01 6.482490e+01 -2.477893e+00 1.371982e-01 -9.241030e-01 -1.057052e+00 1.819644e-01 -1.960532e-01 -2.099710e-01 -2.305417e-01 -5.182365e-01 -1.149187e-01 -9.361690e-02 2.031773e-02 6.039498e-01 5.363230e-01 -3.253610e-02 3.947419e-02 1.409355e-01 -1.285428e-01 7.561553e-02 -1.110974e-01 -1.206283e-02 7.219020e-02 1.776773e-01 9.845553e-03 -3.389462e-02 -1.071736e-01
<VARIANCE> 39
 2.602545e+01 3.749758e+01 3.565384e+01 4.837460e+01 4.273769e+01 5.058419e+01 6.048605e+01 4.457753e+01 4.078861e+01 3.761032e+01 3.175555e+01 3.220715e+01 1.259266e+01 1.842353e+00 2.852766e+00 1.947009e+00 2.414945e+00 2.805694e+00 3.122638e+00 3.025667e+00 3.002722e+00 2.842368e+00 2.964583e+00 2.735186e+00 2.284433e+00 5.869845e-01 2.398822e-01 5.698156e-01 3.638515e-01 4.458211e-01 6.088671e-01 6.452162e-01 6.341059e-01 5.536157e-01 5.407981e-01 5.468973e-01 5.431463e-01 4.532928e-01 1.086270e-01
<GCONST> 1.187764e+02
<STATE> 3
<MEAN> 39
 -2.421819e+01 9.437847e+00 1.172470e+00 -3.510634e+00 5.209128e+00 -5.875729e+00 7.612628e-01 6.422745e-01 -4.416200e+00 6.504386e-01 -2.303589e+00 3.700385e-01 6.625464e+01 -1.588609e-01 -2.589526e-01 -4.002910e-02 -1.673048e-01 -8.556513e-02 1.091756e-01 -5.984691e-02 1.210419e-01 9.637988e-02 3.107715e-02 3.058260e-02 -1.896793e-02 1.648276e-02 1.378262e-01 -5.270738e-02 7.214107e-02 4.778549e-02 -8.561681e-02 -3.489752e-02 -1.603852e-02 3.636415e-02 4.095248e-02 -2.374208e-02 3.699147e-02 1.563025e-02 -5.999698e-02
<VARIANCE> 39
 6.481612e+00 1.862571e+01 3.158727e+01 4.027582e+01 3.306571e+01 4.402712e+01 5.547489e+01 4.586092e+01 4.337938e+01 3.855991e+01 2.947801e+01 2.904552e+01 6.984451e+00 3.592161e-01 1.115690e+00 1.111953e+00 1.531868e+00 2.008116e+00 2.414793e+00 2.456967e+00 2.858665e+00 2.504787e+00 2.772237e+00 2.385053e+00 1.964226e+00 1.765388e-01 7.862754e-02 1.489387e-01 2.113854e-01 3.042371e-01 3.612533e-01 4.756767e-01 4.634457e-01 5.707134e-01 4.960945e-01 5.637243e-01 4.711965e-01 3.876006e-01 2.729450e-02
<GCONST> 1.028989e+02
<STATE> 4
<NUMMIXES> 2
<MIXTURE> 1 4.205283e-01
<MEAN> 39
 -1.336453e+01 6.373475e+00 1.513982e+00 -1.066125e+00 1.921483e+00 -6.609999e+00 -1.971291e+00 1.046033e+00 -2.466772e+00 1.416172e+00 -2.151697e+00 -1.718715e-01 5.794829e+01 2.050170e+00 4.444556e-01 1.573552e-01 1.100156e+00 -6.287532e-02 4.671044e-01 6.813120e-02 -1.695319e-02 1.883500e-01 -2.512056e-02 -2.889507e-01 -3.327535e-01 -9.840116e-01 -1.577134e-01 9.484828e-02 6.302845e-02 6.789092e-03 -4.949484e-02 1.508045e-02 5.177656e-02 2.942722e-02 2.027816e-02 1.808939e-02 9.552806e-02 -6.647142e-03 4.552104e-01
<VARIANCE> 39
 1.015670e+01 3.861121e+01 2.616847e+01 3.478447e+01 3.929272e+01 3.353228e+01 4.709908e+01 4.472872e+01 4.068022e+01 3.416163e+01 3.154992e+01 2.829620e+01 1.475421e+01 2.486888e+00 2.759655e+00 2.808068e+00 3.423017e+00 3.284508e+00 3.032063e+00 2.897016e+00 3.352006e+00 2.680015e+00 3.105558e+00 2.703608e+00 2.400918e+00 1.295071e+00 3.476813e-01 3.877288e-01 4.016741e-01 5.825691e-01 6.610900e-01 5.304939e-01 5.578785e-01 5.975441e-01 5.150809e-01 6.122341e-01 4.910601e-01 5.182631e-01 1.816862e-01
<GCONST> 1.191999e+02
<MIXTURE> 2 5.794724e-01
<MEAN> 39
 -2.256136e+01 5.326480e+00 2.681154e+00 -3.977739e+00 1.713712e+00 -5.583540e+00 -1.583199e+00 2.260480e+00 -2.247872e+00 1.594574e-01 -1.078484e+00 8.461047e-01 6.516656e+01 1.538061e+00 -4.807423e-01 1.665465e-01 3.772494e-01 -5.792884e-01 -3.038374e-01 -3.988869e-01 1.256631e-01 3.424555e-01 4.654995e-02 -1.996485e-03 -8.835468e-03 -9.215178e-01 5.203822e-01 1.974283e-01 -4.135779e-02 2.462323e-01 1.149862e-01 1.164326e-01 -2.531428e-02 -9.922319e-02 -3.257881e-02 3.892862e-02 -1.465342e-01 -1.343773e-01 -2.487480e-01
<VARIANCE> 39
 1.288906e+01 4.942500e+01 3.902686e+01 3.563200e+01 4.059243e+01 5.844466e+01 5.411862e+01 5.375756e+01 5.165965e+01 4.211366e+01 3.332209e+01 3.075587e+01 8.306245e+00 1.612562e+00 2.299185e+00 2.030728e+00 2.426584e+00 2.799969e+00 3.791250e+00 2.991327e+00 3.227859e+00 2.937284e+00 3.359161e+00 2.576565e+00 2.686175e+00 7.303929e-01 2.135201e-01 5.257178e-01 4.446054e-01 4.943902e-01 5.783291e-01 7.781531e-01 6.029229e-01 6.656497e-01 5.439525e-01 7.003216e-01 5.138363e-01 4.940066e-01 8.832822e-02
<GCONST> 1.191216e+02
<TRANSP> 5
 0.000000e+00 1.000000e+00 0.000000e+00 0.000000e+00 0.000000e+00
 0.000000e+00 8.578275e-01 1.421725e-01 0.000000e+00 0.000000e+00
 0.000000e+00 0.000000e+00 9.138674e-01 8.613263e-02 0.000000e+00
 0.000000e+00 0.000000e+00 0.000000e+00 8.590037e-01 1.409963e-01
 0.000000e+00 0.000000e+00 0.000000e+00 0.000000e+00 0.000000e+00
<ENDHMM>
~h "t"
<BEGINHMM>
<NUMSTATES> 5
<STATE> 2
<NUMMIXES> 2
<MIXTURE> 1 3.575146e-01
<MEAN> 39
 -3.455523e+00 7.787600e+00 6.066845e+00 3.988250e+00 -2.618873e+00 -3.533254e+00 -2.090058e+00 2.887824e-02 -4.755488e-01 -8.657237e-01 -1.100859e+00 -1.393715e-01 5.907610e+01 -2.759995e-01 5.097035e-01 -3.816835e-01 -7.674787e-02 8.242803e-01 2.049790e-01 1.275141e-02 -4.295632e-01 -6.097245e-02 8.482022e-02 -2.949096e-01 4.513698e-02 -1.518475e+00 3.965254e-02 -2.174152e-01 -2.554407e-01 -2.910982e-02 -1.945167e-01 -6.492072e-02 4.352459e-02 -3.574618e-02 -2.318120e-02 -3.670083e-02 6.723368e-02 -1.558561e-02 9.167049e-02
<VARIANCE> 39
 2.985988e+01 2.488822e+01 3.721369e+01 3.721374e+01 4.938140e+01 5.003481e+01 4.847105e+01 4.666784e+01 4.633572e+01 3.370578e+01 4.195992e+01 3.007955e+01 2.732917e+01 2.032889e+00 2.289150e+00 3.097331e+00 3.015554e+00 4.641266e+00 4.288044e+00 4.131880e+00 4.095490e+00 3.567213e+00 2.906540e+00 3.461615e+00 2.895348e+00 1.711533e+00 3.729981e-01 4.639740e-01 4.835509e-01 5.719014e-01 8.791773e-01 8.543562e-01 7.376591e-01 7.875813e-01 6.960608e-01 5.789492e-01 6.611607e-01 5.288565e-01 3.514558e-01
<GCONST> 1.267582e+02
<MIXTURE> 2 6.424837e-01
<MEAN> 39
 -5.657387e+00 7.419007e+00 2.481483e+00 2.765192e+00 -1.110342e+00 -4.554239e+00 -1.914397e+00 -2.123723e+00 -1.186205e+00 -9.355486e-01 -1.120222e+00 1.211383e-01 5.260275e+01 -1.565741e-01 -2.555971e-01 -2.228764e-01 -9.701090e-02 -8.773576e-02 1.243205e-02 6.224941e-03 -9.940497e-02 8.693301e-02 1.757669e-02 9.903467e-02 7.151993e-02 -2.311534e-01 -3.367871e-02 -5.614964e-02 1.226882e-01 -2.321624e-02 3.519066e-02 1.080395e-01 -8.006180e-03 3.306162e-02 1.161634e-02 2.344388e-02 2.202117e-02 -2.250342e-02 1.944092e-01
<VARIANCE> 39
 1.101980e+01 1.134449e+01 1.570673e+01 2.037843e+01 2.483117e+01 3.073476e+01 3.754206e+01 3.860937e+01 3.619645e+01 3.224543e+01 2.829698e+01 2.159330e+01 3.359250e+00 3.861333e-01 6.601013e-01 1.127262e+00 1.638894e+00 1.999003e+00 2.233667e+00 2.348087e+00 2.603333e+00 2.382401e+00 2.642300e+00 2.420056e+00 1.898824e+00 1.416295e-01 7.832813e-02 1.860150e-01 2.457989e-01 3.326490e-01 3.909006e-01 4.948976e-01 5.060928e-01 5.534030e-01 4.909810e-01 5.762993e-01 4.920300e-01 3.809980e-01 8.437179e-02
<GCONST> 9.978636e+01
<STATE> 3
<MEAN> 39
 -6.067951e+00 7.116263e+00 2.711770e+00 2.969074e+00 -1.021624e-01 -3.337623e+00 -1.384735e+00 -2.275254e+00 -9.382654e-01 -1.317445e-01 -8.556404e-01 4.869536e-02 5.229848e+01 -1.140355e+00 -2.229629e+00 6.580997e-02 -1.390499e+00 -2.252249e-01 7.069399e-01 3.249276e-02 3.133883e-01 -1.848312e-02 2.560941e-01 3.648066e-01 4.160782e-01 2.410475e+00 -6.849316e-01 -5.007993e-01 1.723168e-01 -5.278406e-01 -3.345606e-01 -1.157758e-01 1.904258e-02 2.456571e-01 -7.723161e-02 6.490855e-02 3.005945e-02 1.519903e-01 1.177090e+00
<VARIANCE> 39
 1.049604e+01 1.302474e+01 1.600170e+01 2.043878e+01 2.281727e+01 2.977158e+01 3.133786e+01 3.312088e+01 3.503075e+01 3.395697e+01 2.523349e+01 2.403621e+01 4.576779e+00 1.998186e+00 4.466571e+00 2.559815e+00 4.211310e+00 3.407338e+00 4.003458e+00 3.115204e+00 3.789355e+00 3.445183e+00 3.278967e+00 2.447002e+00 2.315905e+00 5.452818e+00 2.059810e-01 5.198411e-01 3.359063e-01 5.417886e-01 6.090748e-01 6.857346e-01 5.700377e-01 6.941164e-01 5.985541e-01 6.468775e-01 4.839766e-01 4.818161e-01 2.863192e-01
<GCONST> 1.169711e+02
<STATE> 4
<NUMMIXES> 2
<MIXTURE> 1 6.244131e-01
<MEAN> 39
 -1.638448e+01 -2.464707e-01 6.790516e+00 -3.637184e-01 -4.812304e+00 -5.729205e+00 -7.058609e-01 2.436440e+00 -1.670584e+00 -1.344583e-01 -6.397094e-01 1.201535e+00 6.452943e+01 1.225462e+00 7.972012e-01 7.714352e-01 1.787443e+00 2.787926e-01 -2.145436e-01 6.088958e-02 2.225946e-01 -3.023803e-02 -3.814393e-01 -3.812915e-01 -5.552312e-01 -1.365530e+00 9.362708e-01 2.514285e-01 -1.766182e-01 3.442817e-01 1.763631e-01 2.292190e-01 -1.886833e-01 -2.545511e-01 5.074035e-03 -3.764137e-02 1.221409e-02 -1.375155e-01 -3.782109e-01
<VARIANCE> 39
 3.730900e+01 3.508255e+01 3.129342e+01 4.503393e+01 3.578491e+01 3.835573e+01 4.082888e+01 4.418605e+01 4.689101e+01 4.507788e+01 3.317861e+01 3.071149e+01 2.231428e+01 4.325804e+00 3.086752e+00 3.465967e+00 4.336360e+00 3.622211e+00 4.312908e+00 3.148510e+00 3.060661e+00 3.069394e+00 2.898582e+00 2.452863e+00 2.695663e+00 1.624526e+00 8.073516e-01 5.329978e-01 5.625045e-01 8.624679e-01 7.328498e-01 7.533731e-01 6.419312e-01 6.568744e-01 6.233460e-01 6.947641e-01 5.431225e-01 5.924143e-01 7.942045e-01
<GCONST> 1.281657e+02
<MIXTURE> 2 3.755841e-01
<MEAN> 39
 -1.369291e+01 -4.780751e+00 3.020659e+00 -5.202470e+00 -2.648505e+00 -6.180274e-01 -1.828817e+00 -2.951631e-01 -1.437194e+00 8.233672e-01 1.367420e-01 1.792440e+00 6.804811e+01 -2.657806e+00 -1.032750e+00 6.923893e-01 -1.392440e+00 -1.353207e+00 -8.500369e-01 1.574881e-01 1.056653e+00 -1.795545e-01 9.177501e-02 2.600467e-01 5.185440e-01 3.400239e+00 5.178574e-01 1.264860e+00 3.616800e-01 1.109926e+00 9.391669e-02 -4.914874e-01 7.628185e-02 -7.803481e-03 -2.163947e-02 -2.011503e-01 -1.931220e-01 -2.676807e-01 -1.422406e+00
<VARIANCE> 39
 2.711897e+01 4.520884e+01 4.007469e+01 5.171567e+01 4.725590e+01 4.171955e+01 3.653813e+01 3.064480e+01 3.116654e+01 3.035605e+01 2.189519e+01 1.877893e+01 3.157835e+01 2.476548e+00 4.731849e+00 3.114360e+00 4.037093e+00 3.939060e+00 3.718823e+00 3.694941e+00 4.013215e+00 4.059276e+00 4.068575e+00 2.968972e+00 2.875029e+00 3.483009e+00 8.585255e-01 6.618994e-01 6.795809e-01 1.093118e+00 9.658388e-01 8.857786e-01 6.872815e-01 6.719584e-01 6.949925e-01 6.089424e-01 4.608509e-01 4.933512e-01 7.295859e-01
<GCONST> 1.294791e+02
<TRANSP> 5
 0.000000e+00 1.000000e+00 0.000000e+00 0.000000e+00 0.000000e+00
 0.000000e+00 8.813471e-01 1.186529e-01 0.000000e+00 0.000000e+00
 0.000000e+00 0.000000e+00 6.304517e-01 3.695482e-01 0.000000e+00
 0.000000e+00 0.000000e+00 0.000000e+00 8.178179e-01 1.821821e-01
 0.000000e+00 0.000000e+00 0.000000e+00 0.000000e+00 0.000000e+00
<ENDHMM>
~h "v"
<BEGINHMM>
<NUMSTATES> 5
<STATE> 2
<NUMMIXES> 2
<MIXTURE> 1 6.339988e-01
<MEAN> 39
 4.513823e+00 6.334306e+00 -5.720569e-01 6.306427e+00 -5.907097e-01 -5.376122e+00 -7.752614e+00 -2.635167e+00 -7.132724e-01 4.333697e+00 4.428630e+00 -3.038389e+00 6.187515e+01 -2.634698e-01 6.715913e-01 2.020051e-01 -1.482359e-01 8.507462e-01 5.988864e-01 3.804194e-01 -8.216520e-01 -7.711118e-02 3.422988e-01 2.025515e-01 3.738165e-01 -8.026171e-01 -1.904291e-01 -1.135294e-01 2.386223e-01 3.991083e-02 -1.495284e-01 1.023839e-01 2.489949e-01 1.585361e-01 -3.859396e-02 -2.858929e-01 -1.395154e-01 1.192291e-01 1.011094e-01
<VARIANCE> 39
 8.551046e+00 1.342624e+01 2.502201e+01 1.254771e+01 1.858473e+01 4.414768e+01 3.319733e+01 3.344621e+01 3.534999e+01 2.757711e+01 2.727144e+01 2.604720e+01 1.159158e+01 4.050161e-01 5.368661e-01 8.197530e-01 9.397820e-01 1.332372e+00 1.924369e+00 1.778634e+00 2.513670e+00 2.352018e+00 2.581546e+00 1.643659e+00 1.931500e+00 2.757547e-01 3.070824e-02 7.869793e-02 1.058163e-01 1.320725e-01 1.818086e-01 2.792929e-01 2.728526e-01 3.530425e-01 4.047300e-01 3.219124e-01 2.794377e-01 2.981555e-01 2.348155e-02
<GCONST> 9.022269e+01
<MIXTURE> 2 3.660007e-01
<MEAN> 39
 3.737294e+00 1.197629e+00 4.329717e+00 8.763895e+00 -9.149192e+00 -1.157111e+01 -7.873151e+00 5.526905e+00 -2.337165e+00 -3.298361e+00 4.957454e+00 -2.175337e-01 6.704838e+01 4.707167e-01 5.462285e-01 -8.644571e-01 1.745000e-02 1.540228e+00 4.027916e-01 -9.751000e-01 -4.827617e-01 7.453144e-01 7.078977e-01 -1.587968e-01 -4.967858e-01 -9.090322e-01 -6.647874e-02 1.898296e-01 4.703771e-02 -2.211127e-01 1.802145e-01 2.118330e-01 2.373083e-01 -4.574200e-01 1.640139e-02 3.967439e-01 1.962671e-02 -9.778200e-02 -1.600407e-01
<VARIANCE> 39
 6.197995e+00 2.092198e+01 3.787467e+01 1.153220e+01 2.181787e+01 8.344073e+01 5.765694e+01 6.718489e+01 4.762677e+01 2.813283e+01 5.049284e+01 2.758592e+01 1.581920e+01 1.810851e-01 4.348999e-01 6.043316e-01 9.307612e-01 7.567706e-01 1.642457e+00 1.296183e+00 3.046670e+00 1.954998e+00 1.856736e+00 2.218548e+00 1.144709e+00 3.869632e-01 2.923573e-02 3.786272e-02 9.516133e-02 1.293233e-01 1.409969e-01 2.728541e-01 2.343203e-01 2.741834e-01 2.912808e-01 2.036475e-01 3.150980e-01 1.821170e-01 2.759899e-02
<GCONST> 8.885771e+01
<STATE> 3
<MEAN> 39
 -2.442065e+00 8.015117e+00 5.134592e+00 6.156229e+00 1.718992e+00 -2.412410e+00 -3.351963e+00 -3.005412e+00 4.292161e-02 1.987673e+00 1.312268e+00 1.642455e-01 5.888308e+01 -8.152700e-01 -2.913618e-01 3.225960e-01 -2.112992e-02 1.644476e-01 3.057168e-01 3.335111e-01 8.683174e-02 -2.533141e-02 -4.060066e-01 -2.968588e-01 6.000571e-02 7.559910e-02 7.165224e-02 -1.089457e-01 -1.328562e-01 -2.686572e-02 -1.189286e-01 -1.076738e-01 -9.414533e-02 5.884186e-02 -1.461487e-02 5.950445e-02 1.135681e-02 -1.329539e-01 1.346561e-01
<VARIANCE> 39
 2.263087e+01 9.444824e+00 1.532443e+01 1.421038e+01 2.183918e+01 2.629624e+01 2.748995e+01 2.452954e+01 3.030891e+01 3.124169e+01 2.767416e+01 2.249051e+01 1.161002e+01 5.790508e-01 5.865209e-01 1.086305e+00 1.170014e+00 1.480476e+00 2.392390e+00 2.173946e+00 2.272198e+00 2.977005e+00 2.771350e+00 2.409385e+00 1.894251e+00 3.462940e-01 6.742835e-02 9.554334e-02 1.773434e-01 2.282832e-01 2.798465e-01 4.210240e-01 3.573579e-01 3.834118e-01 5.593937e-01 5.753226e-01 4.364414e-01 3.755405e-01 3.430240e-02
<GCONST> 9.692799e+01
<STATE> 4
<NUMMIXES> 2
<MIXTURE> 1 6.397064e-01
<MEAN> 39
 6.106648e+00 8.311465e+00 -3.071537e+00 3.169897e+00 -2.180121e+00 -2.713133e+00 -3.719772e+00 -5.376119e+00 -5.053064e+00 4.872677e+00 7.393425e+00 -1.521232e-01 6.169168e+01 1.087697e-01 -2.206569e-01 -2.616630e-01 -8.253827e-02 -2.085791e-01 -1.957027e-01 -3.611135e-01 2.723736e-01 2.381096e-01 7.502370e-02 -2.207765e-02 -2.246127e-01 3.321714e-01 -4.723579e-02 -7.277278e-02 7.811944e-02 5.881160e-02 -5.522853e-03 -5.010482e-02 -5.909059e-02 1.235116e-01 1.136783e-01 -5.248462e-02 -1.134272e-01 -3.720066e-02 5.221569e-02
<VARIANCE> 39
 5.104826e+00 1.383129e+01 2.057185e+01 3.855337e+01 2.532821e+01 4.023488e+01 6.383496e+01 3.581664e+01 3.411576e+01 3.029357e+01 3.735465e+01 3.565185e+01 8.594928e+00 3.166935e-01 4.683323e-01 7.999103e-01 1.081301e+00 1.089001e+00 1.549642e+00 1.804891e+00 1.422779e+00 1.836962e+00 1.919275e+00 1.979155e+00 1.455830e+00 2.399348e-01 3.982027e-02 6.152730e-02 9.070104e-02 1.775943e-01 1.859145e-01 2.385288e-01 1.951639e-01 1.891191e-01 2.713983e-01 2.531269e-01 2.843983e-01 2.167396e-01 1.700980e-02
<GCONST> 8.776806e+01
<MIXTURE> 2 3.602939e-01
<MEAN> 39
 -7.646462e+00 3.358757e+00 3.897431e+00 4.823456e+00 1.765425e-01 -2.695844e+00 -1.608781e+00 -3.473207e-02 -5.260258e-01 7.543409e-01 -9.807872e-01 -1.432041e+00 6.092587e+01 3.770365e-01 -1.394255e-01 -3.072810e-01 -3.418628e-01 -4.783704e-01 -1.173331e-01 -5.642017e-02 -6.927433e-02 -4.160863e-03 -1.211148e-01 1.785667e-01 -4.183557e-02 1.384652e-01 3.489746e-01 1.849259e-01 -1.098446e-01 -1.782029e-02 -1.142467e-01 -1.135488e-01 -1.001801e-01 -1.014593e-01 -1.284560e-01 4.693813e-02 2.140099e-01 1.190205e-01 -1.544323e-01
<VARIANCE> 39
 4.429898e+01 1.690066e+01 1.880790e+01 2.437299e+01 3.344810e+01 2.679451e+01 2.819075e+01 3.520435e+01 3.029635e+01 3.836869e+01 3.378479e+01 2.907519e+01 1.542142e+01 1.633251e+00 1.312500e+00 1.400459e+00 1.961270e+00 1.913391e+00 2.244718e+00 2.506956e+00 3.610999e+00 3.015857e+00 3.030698e+00 3.234189e+00 2.382790e+00 7.901655e-01 2.117323e-01 1.461056e-01 2.276305e-01 3.446677e-01 3.183748e-01 3.488783e-01 5.126035e-01 6.358185e-01 4.518149e-01 5.811887e-01 5.262278e-01 4.407076e-01 1.242898e-01
<GCONST> 1.100348e+02
<TRANSP> 5
 0.000000e+00 1.000000e+00 0.000000e+00 0.000000e+00 0.000000e+00
 0.000000e+00 8.305020e-01 1.694979e-01 0.000000e+00 0.000000e+00
 0.000000e+00 0.000000e+00 7.954783e-01 2.045217e-01 0.000000e+00
 0.000000e+00 0.000000e+00 0.000000e+00 8.652970e-01 1.347030e-01
 0.000000e+00 0.000000e+00 0.000000e+00 0.000000e+00 0.000000e+00
<ENDHMM>
~h "w"
<BEGINHMM>
<NUMSTATES> 5
<STATE> 2
<NUMMIXES> 2
<MIXTURE> 1 2.754619e-01
<MEAN> 39
 3.048573e+00 5.559005e+00 4.443515e+00 1.043361e+01 -6.745769e+00 -1.117818e+01 -6.100007e+00 -2.525722e+00 -4.096559e+00 1.101974e+00 2.985760e+00 1.104018e+00 6.547675e+01 5.656902e-01 3.866132e-01 -1.406921e+00 -5.312911e-01 1.680524e+00 8.106046e-01 -9.380396e-01 -8.598652e-01 2.650711e-01 8.083580e-01 7.064963e-02 -4.209103e-01 -6.478349e-01 -1.182105e-01 1.745716e-01 1.504676e-01 -2.855702e-01 -1.063550e-01 4.472738e-01 3.174492e-01 -2.958337e-01 -1.879175e-01 1.663264e-01 1.305664e-01 4.382420e-03 -8.707283e-02
<VARIANCE> 39
 7.857032e+00 6.012984e+00 3.008953e+01 1.608557e+01 5.026765e+01 6.609329e+01 5.063311e+01 3.259897e+01 3.153227e+01 5.088404e+01 2.755230e+01 2.699947e+01 1.116466e+01 3.491380e-01 5.716524e-01 1.326397e+00 1.377490e+00 2.659990e+00 2.861179e+00 3.215129e+00 2.735872e+00 3.213427e+00 3.050418e+00 3.357032e+00 1.963870e+00 2.735256e-01 4.634805e-02 1.020002e-01 1.222317e-01 1.761238e-01 3.499416e-01 3.869872e-01 4.240174e-01 5.318173e-01 5.134822e-01 7.227307e-01 4.275448e-01 4.822495e-01 2.758080e-02
<GCONST> 1.008621e+02
<MIXTURE> 2 7.245387e-01
<MEAN> 39
 -8.882842e+00 1.299857e+00 -1.689416e-02 1.944857e+00 -7.062715e-01 -2.269667e+00 -3.350537e+00 3.958806e-01 -7.794096e-01 8.076244e-01 -4.568986e-01 -3.479197e-01 5.888426e+01 3.875420e-01 5.484676e-01 1.096706e-01 2.611890e-01 3.874596e-01 3.027994e-01 1.975971e-01 -2.592139e-01 -1.288158e-01 1.394811e-01 -6.317127e-03 -2.391374e-01 -3.839842e-01 1.064175e-01 1.621695e-01 1.456798e-01 6.120761e-02 2.739731e-03 3.911569e-02 4.629064e-02 3.751665e-03 -8.979302e-02 -6.719495e-02 -1.338882e-03 1.588512e-02 7.083212e-02
<VARIANCE> 39
 4.185134e+01 3.273349e+01 3.353168e+01 4.253244e+01 3.339830e+01 4.079231e+01 5.070270e+01 4.452379e+01 3.516639e+01 3.901907e+01 3.370337e+01 2.854925e+01 2.526496e+01 1.715849e+00 2.409904e+00 2.496618e+00 2.929093e+00 2.855320e+00 2.585313e+00 4.120478e+00 3.536498e+00 3.162524e+00 4.116516e+00 2.783456e+00 2.759487e+00 7.621285e-01 2.308679e-01 3.582163e-01 3.493169e-01 4.907773e-01 5.975622e-01 4.786536e-01 8.037900e-01 6.702903e-01 6.655542e-01 7.997698e-01 5.878543e-01 5.384455e-01 1.132668e-01
<GCONST> 1.207599e+02
<STATE> 3
<MEAN> 39
 2.476267e-01 9.908509e+00 4.403935e+00 6.810409e+00 1.662099e+00 -4.455408e-01 -1.053896e+00 -2.727154e+00 -2.173090e+00 2.233050e-01 -1.583395e+00 -2.006171e+00 5.698022e+01 8.941191e-01 4.512706e-01 -3.872868e-01 -3.107304e-01 -3.507755e-01 8.804633e-02 2.422364e-02 -2.781704e-01 -2.737845e-01 6.045058e-02 3.007613e-01 7.079870e-02 3.485369e-01 -8.162802e-02 -2.404834e-01 -1.966704e-01 -1.502526e-01 -2.490148e-01 -1.041891e-01 -1.087180e-01 4.636556e-02 9.510260e-03 9.590660e-03 1.497425e-01 7.821468e-02 1.001095e-01
<VARIANCE> 39
 1.479682e+01 1.142337e+01 2.340535e+01 2.731772e+01 2.914414e+01 3.390225e+01 3.313600e+01 3.162947e+01 3.175516e+01 4.034666e+01 2.913061e+01 2.286935e+01 1.380965e+01 1.647443e+00 1.390473e+00 2.203729e+00 2.274272e+00 3.150927e+00 2.949159e+00 2.979959e+00 2.489323e+00 3.109002e+00 2.781071e+00 2.971794e+00 1.927542e+00 1.012928e+00 2.054090e-01 2.244472e-01 3.239276e-01 3.846158e-01 4.699496e-01 4.503931e-01 5.372357e-01 5.100017e-01 5.095842e-01 4.997242e-01 4.321515e-01 3.727514e-01 1.017932e-01
<GCONST> 1.105044e+02
<STATE> 4
<NUMMIXES> 2
<MIXTURE> 1 3.337893e-01
<MEAN> 39
 6.473449e+00 8.264078e+00 -7.704661e+00 1.843466e+00 -4.642404e+00 3.062012e+00 -6.382629e+00 -7.738641e+00 -8.444746e+00 4.916013e+00 9.788771e+00 -2.048946e-01 6.450407e+01 -1.059467e-01 -6.973664e-01 -4.601776e-02 5.179608e-01 2.062233e-01 -2.200309e-01 -1.244440e+00 2.783732e-02 5.075139e-01 8.383429e-01 2.774291e-01 -5.294217e-01 4.305949e-01 -1.366044e-01 -2.701915e-02 3.384058e-01 1.123675e-01 1.940565e-03 -3.278306e-01 6.410685e-02 3.131613e-01 3.172276e-01 -1.489245e-01 -4.791768e-01 -7.684159e-02 -4.554443e-02
<VARIANCE> 39
 3.203662e+00 1.212772e+01 1.700213e+01 2.515108e+01 3.568740e+01 4.229682e+01 5.612581e+01 3.693185e+01 3.439357e+01 4.734074e+01 4.179832e+01 3.551391e+01 8.913275e+00 2.918830e-01 8.106893e-01 1.096973e+00 1.431925e+00 1.630140e+00 2.542423e+00 2.922201e+00 2.325245e+00 2.644595e+00 3.275391e+00 3.994480e+00 2.442201e+00 4.924040e-01 5.101382e-02 9.397808e-02 1.321566e-01 1.778604e-01 2.565176e-01 2.829292e-01 4.423570e-01 3.050108e-01 3.271075e-01 6.108049e-01 4.321559e-01 4.013577e-01 2.753383e-02
<GCONST> 9.864183e+01
<MIXTURE> 2 6.662092e-01
<MEAN> 39
 5.390034e+00 1.140346e+01 -7.942381e-01 1.691573e+00 -5.013129e+00 -1.975783e+00 -6.537499e-01 -3.916949e+00 -4.159897e+00 1.729302e+00 1.711938e+00 -1.145436e-01 5.991792e+01 1.036456e-01 4.662672e-02 -2.783628e-01 -2.666427e-01 -3.068707e-01 1.769671e-02 1.287411e-01 5.563882e-02 -3.124204e-02 -1.840911e-01 1.226586e-01 1.928577e-02 1.681130e-01 -1.854737e-02 -6.814370e-02 -3.105867e-02 4.863337e-02 3.301603e-02 2.505252e-02 -8.124284e-02 -5.368759e-02 2.298190e-03 4.047113e-02 6.047066e-02 -2.174270e-02 5.449226e-02
<VARIANCE> 39
 5.334325e+00 1.402830e+01 2.289029e+01 3.041612e+01 3.535808e+01 3.127879e+01 3.857781e+01 2.782823e+01 3.694174e+01 4.015699e+01 3.044535e+01 2.804354e+01 7.786433e+00 2.147447e-01 3.878147e-01 8.822110e-01 9.363543e-01 1.295170e+00 1.374854e+00 1.557491e+00 1.492641e+00 1.809159e+00 1.952721e+00 1.868866e+00 1.571307e+00 2.550647e-01 2.578639e-02 6.056879e-02 9.443332e-02 1.374643e-01 1.902203e-01 2.033039e-01 2.898176e-01 2.591508e-01 2.839643e-01 3.109533e-01 2.902888e-01 2.387489e-01 1.510369e-02
<GCONST> 8.640995e+01
<TRANSP> 5
 0.000000e+00 1.000000e+00 0.000000e+00 0.000000e+00 0.000000e+00
 0.000000e+00 8.450839e-01 1.549162e-01 0.000000e+00 0.000000e+00
 0.000000e+00 0.000000e+00 7.913732e-01 2.086268e-01 0.000000e+00
 0.000000e+00 0.000000e+00 0.000000e+00 9.280859e-01 7.191408e-02
 0.000000e+00 0.000000e+00 0.000000e+00 0.000000e+00 0.000000e+00
<ENDHMM>
~h "y"
<BEGINHMM>
<NUMSTATES> 5
<STATE> 2
<NUMMIXES> 2
<MIXTURE> 1 3.257827e-01
<MEAN> 39
 -9.408591e+00 4.620400e+00 1.201926e+01 6.492304e+00 -1.663124e+00 3.443665e+00 4.854501e-01 5.787721e-01 -3.141086e+00 -1.070458e+00 -2.798870e+00 -2.006302e+00 5.780473e+01 2.127215e+00 2.198128e+00 1.615915e+00 1.869526e+00 9.741870e-01 2.574760e-01 2.894850e-01 5.647422e-01 -8.739070e-01 -5.987225e-01 -2.203503e-01 -9.225067e-01 6.332021e-01 2.074914e-01 5.612617e-02 -7.824951e-05 -4.633719e-01 -6.697664e-01 -5.809868e-01 -6.575354e-01 -3.122085e-01 -3.158516e-01 2.920157e-02 4.702857e-01 3.243420e-01 2.732828e-01
<VARIANCE> 39
 2.713587e+01 2.475427e+01 2.665441e+01 4.953601e+01 3.334450e+01 5.727111e+01 6.029845e+01 3.152969e+01 2.419442e+01 4.772752e+01 4.233521e+01 2.508886e+01 1.821952e+01 1.539907e+00 7.079030e-01 1.700856e+00 1.385132e+00 2.866106e+00 4.631273e+00 4.342150e+00 2.674526e+00 1.389363e+00 2.782400e+00 2.274488e+00 2.154535e+00 3.015661e-01 1.987773e-01 2.603365e-01 2.409859e-01 5.207138e-01 5.468561e-01 5.596567e-01 4.565303e-01 4.435278e-01 3.420202e-01 5.776287e-01 6.319115e-01 4.969975e-01 5.218177e-02
<GCONST> 1.115727e+02
<MIXTURE> 2 6.742178e-01
<MEAN> 39
 -7.830523e+00 7.564055e+00 1.738004e+01 6.973651e+00 -7.912842e+00 -2.213730e+00 -3.608084e+00 -2.018104e+00 -3.001828e+00 4.570714e-01 -3.813985e-01 -1.951483e+00 6.338846e+01 6.060441e-01 2.741350e-01 2.855285e-01 -2.431366e-01 -1.146726e+00 -5.137968e-01 -3.878827e-01 -2.358766e-01 -5.558713e-01 -7.270514e-02 1.194577e+00 3.379109e-01 2.671459e-01 -1.320133e-01 -2.475162e-01 -1.989211e-01 -1.208468e-01 -8.684130e-02 1.488500e-01 2.736351e-01 -1.313754e-01 -9.364372e-02 2.558838e-02 1.091553e-01 6.799699e-02 -2.980026e-02
<VARIANCE> 39
 5.338947e+01 2.597128e+01 4.748537e+01 4.187727e+01 3.195560e+01 6.124646e+01 4.543626e+01 4.968306e+01 4.060217e+01 2.936028e+01 3.648552e+01 2.487232e+01 2.384813e+01 2.384804e+00 9.240550e-01 8.580443e-01 1.440946e+00 2.675711e+00 6.518760e+00 4.891403e+00 3.765446e+00 2.803744e+00 2.959360e+00 3.966152e+00 2.202776e+00 6.005185e-01 1.716485e-01 2.877769e-01 1.725571e-01 3.673403e-01 3.853727e-01 6.704568e-01 6.511910e-01 9.218314e-01 5.078854e-01 4.486646e-01 3.613310e-01 3.469383e-01 3.463977e-02
<GCONST> 1.148737e+02
<STATE> 3
<MEAN> 39
 -1.436780e+00 7.636911e+00 1.412938e+01 8.340131e+00 -1.375214e+01 -5.649792e+00 -1.922765e+00 4.046549e-01 -7.720200e+00 -1.401088e+00 8.061729e+00 -1.365972e+00 6.541421e+01 -3.808487e-02 4.774204e-02 3.198399e-01 -1.139573e-01 -1.023709e+00 3.849925e-01 2.597195e-01 -4.057736e-01 -9.282361e-01 1.588067e-01 7.095406e-01 -2.013151e-01 1.445863e-01 -1.014248e-01 -5.900370e-02 -1.233307e-01 -2.098591e-02 3.859048e-01 1.875522e-01 -7.941366e-02 -3.032509e-02 2.421731e-01 2.359571e-01 -4.842855e-01 -1.561620e-01 -5.570268e-02
<VARIANCE> 39
 7.848617e+00 1.868628e+01 3.836431e+01 3.182137e+01 2.006460e+01 5.740192e+01 4.619493e+01 2.434489e+01 4.412344e+01 3.460669e+01 3.177241e+01 2.270182e+01 1.320719e+01 4.277577e-01 6.356280e-01 1.321397e+00 1.583845e+00 2.089958e+00 2.092233e+00 2.151168e+00 2.446261e+00 2.170090e+00 1.974749e+00 2.634780e+00 1.687802e+00 4.100785e-01 1.124081e-01 8.479656e-02 1.380131e-01 2.909254e-01 1.400599e-01 3.058577e-01 4.618213e-01 3.149046e-01 2.739050e-01 4.339420e-01 2.233073e-01 3.165305e-01 2.211029e-02
<GCONST> 9.743018e+01
<STATE> 4
<NUMMIXES> 2
<MIXTURE> 1 4.993543e-01
<MEAN> 39
 4.551839e-01 4.521881e+00 1.080914e+01 1.268425e+01 -1.292242e+01 -9.277342e+00 -6.397494e+00 4.109187e+00 -8.728924e+00 -4.065871e+00 8.856857e+00 -2.186946e+00 6.737449e+01 8.708189e-02 -3.687447e-02 -3.711998e-01 -2.122014e-02 2.467298e-01 -1.716730e-01 -2.934144e-01 2.130217e-01 4.494890e-01 -2.050431e-01 -2.509259e-01 2.677131e-01 8.654502e-02 -1.058670e-02 3.184834e-02 6.495763e-02 -7.009029e-02 8.722904e-02 1.042422e-01 -2.389960e-02 -8.261055e-02 7.434826e-02 6.025260e-02 -9.492987e-02 -1.995745e-02 -5.436711e-02
<VARIANCE> 39
 3.016358e+00 7.904257e+00 1.844121e+01 9.978093e+00 1.921372e+01 7.398370e+01 4.823331e+01 2.910061e+01 4.071845e+01 1.707709e+01 2.288576e+01 3.011540e+01 8.879786e+00 1.616701e-01 2.803319e-01 7.434664e-01 5.168476e-01 9.007131e-01 1.255969e+00 1.005466e+00 8.778155e-01 1.338004e+00 1.028861e+00 1.268862e+00 8.351097e-01 1.347191e-01 1.586133e-02 3.684992e-02 5.143478e-02 7.287119e-02 1.150952e-01 1.530550e-01 1.300198e-01 1.151720e-01 1.663715e-01 1.387768e-01 1.978349e-01 1.304391e-01 1.138844e-02
<GCONST> 7.098233e+01
<MIXTURE> 2 5.006451e-01
<MEAN> 39
 -3.507632e+00 9.025815e+00 1.998739e+01 4.923347e+00 -1.080741e+01 1.590173e+00 -5.484660e+00 -3.199468e+00 -1.045975e+01 3.179341e+00 2.810330e+00 -4.415640e+00 6.298483e+01 1.375016e-01 -1.975890e-01 -1.774870e-01 3.544361e-01 -1.952107e-01 -3.737948e-01 1.024093e-01 1.979471e-01 -2.726052e-01 -3.626081e-02 2.872678e-01 -2.195782e-01 1.037710e-01 1.668716e-02 -2.565295e-02 -6.361650e-02 6.363188e-02 2.491549e-02 -1.455573e-01 1.193643e-02 1.091559e-01 7.987058e-03 -1.175718e-01 7.119855e-02 5.002457e-02 1.583194e-02
<VARIANCE> 39
 2.934127e+00 9.842020e+00 1.732311e+01 1.448887e+01 2.612921e+01 7.177634e+01 6.817269e+01 2.104840e+01 4.623628e+01 4.419585e+01 5.122710e+01 4.209674e+01 9.006762e+00 1.589643e-01 3.386446e-01 5.757391e-01 7.788687e-01 1.291753e+00 2.076888e+00 1.383415e+00 1.487446e+00 1.835229e+00 1.598220e+00 2.030434e+00 1.287346e+00 2.343617e-01 2.789379e-02 5.102984e-02 8.852570e-02 1.161210e-01 2.038733e-01 2.436756e-01 2.334799e-01 2.677160e-01 2.899964e-01 2.770161e-01 3.039518e-01 2.382413e-01 1.561057e-02
<GCONST> 8.522471e+01
<TRANSP> 5
 0.000000e+00 1.000000e+00 0.000000e+00 0.000000e+00 0.000000e+00
 0.000000e+00 7.631854e-01 2.368146e-01 0.000000e+00 0.000000e+00
 0.000000e+00 0.000000e+00 6.769153e-01 3.230847e-01 0.000000e+00
 0.000000e+00 0.000000e+00 0.000000e+00 9.339632e-01 6.603677e-02
 0.000000e+00 0.000000e+00 0.000000e+00 0.000000e+00 0.000000e+00
<ENDHMM>
~h "z"
<BEGINHMM>
<NUMSTATES> 5
<STATE> 2
<NUMMIXES> 2
<MIXTURE> 1 4.204686e-01
<MEAN> 39
 -2.183854e+00 9.271447e+00 7.398786e+00 5.602112e+00 -2.618731e+00 -1.154724e+01 -4.211082e+00 4.751103e-01 -2.968165e+00 1.808653e+00 1.994023e-01 1.720337e+00 6.488329e+01 -1.410027e+00 1.161319e+00 -4.076746e-02 -8.835249e-01 1.642532e+00 -4.410726e-01 7.733683e-01 6.672941e-02 3.671427e-02 4.415241e-01 -5.731341e-01 8.175235e-01 -1.972457e-01 -3.892807e-01 1.409455e-01 -7.581741e-02 -1.867782e-01 1.346176e-01 2.395422e-01 6.086050e-02 1.708107e-01 8.982135e-02 -7.728058e-02 -2.252660e-03 -6.871835e-02 1.074584e-01
<VARIANCE> 39
 9.911964e+00 1.479126e+01 2.529354e+01 1.756711e+01 3.590159e+01 3.509624e+01 5.726773e+01 3.814403e+01 5.812601e+01 3.028626e+01 3.354596e+01 2.927944e+01 1.444990e+01 8.684174e-01 9.098417e-01 1.208809e+00 1.635514e+00 2.596717e+00 2.214744e+00 2.543737e+00 3.046266e+00 2.540412e+00 2.341246e+00 2.228622e+00 1.917989e+00 2.463419e-01 8.510231e-02 1.168839e-01 1.553980e-01 2.041142e-01 3.390561e-01 3.324699e-01 4.175224e-01 4.528452e-01 3.525220e-01 4.074492e-01 3.275705e-01 3.156252e-01 3.064883e-02
<GCONST> 1.010963e+02
<MIXTURE> 2 5.795311e-01
<MEAN> 39
 -1.236215e+01 1.496952e+01 7.429713e+00 1.142731e+00 4.518336e+00 -9.610652e+00 -1.173818e+00 2.306361e+00 -2.147282e+00 1.609137e+00 -1.443015e+00 3.027619e+00 6.486452e+01 -2.043223e+00 7.266983e-01 -1.351898e-01 -5.161509e-01 1.218641e+00 7.033641e-01 3.310609e-01 2.235739e-01 -1.159856e-01 -1.867800e-01 -2.982351e-01 -1.267424e-01 1.108664e-01 1.962988e-01 -2.820093e-01 -7.777920e-02 2.145581e-01 -2.378825e-01 1.240026e-01 -4.299891e-02 -1.484845e-01 -9.954694e-02 -6.357665e-02 7.028051e-02 -1.572399e-01 -1.463103e-02
<VARIANCE> 39
 2.130143e+01 2.016932e+01 2.510538e+01 3.578017e+01 3.826823e+01 4.559069e+01 5.499846e+01 3.803283e+01 4.758100e+01 3.415961e+01 2.824351e+01 2.876126e+01 1.279629e+01 1.238507e+00 1.113380e+00 1.302538e+00 2.005052e+00 2.333226e+00 2.878273e+00 2.450836e+00 2.767754e+00 2.819245e+00 2.590932e+00 2.063705e+00 2.219490e+00 4.016222e-01 1.205980e-01 1.856640e-01 2.395342e-01 3.730927e-01 4.344342e-01 5.142886e-01 4.820751e-01 5.366678e-01 5.344972e-01 5.016278e-01 4.163266e-01 4.292319e-01 4.775785e-02
<GCONST> 1.088467e+02
<STATE> 3
<MEAN> 39
 -2.101177e+01 1.270164e+01 4.099420e+00 -1.282150e+00 6.753494e+00 -6.716686e+00 5.732637e-01 1.559892e+00 -3.950216e+00 5.162396e-01 -2.284421e+00 1.140023e+00 6.481718e+01 -3.602667e-01 -4.457062e-01 -1.625093e-01 -2.463685e-01 -1.024769e-01 2.175311e-02 3.013685e-02 3.639705e-02 -1.412755e-01 1.251444e-02 -2.744511e-02 -1.546948e-01 4.397257e-02 2.343617e-01 -9.230045e-02 9.813781e-02 4.610350e-02 -1.178210e-01 -8.130350e-02 -3.952486e-02 5.732652e-02 2.391426e-02 -7.897401e-04 2.548069e-02 1.076471e-02 -2.590725e-02
<VARIANCE> 39
 1.475506e+01 2.776414e+01 3.354890e+01 4.167659e+01 4.052037e+01 4.063899e+01 6.336807e+01 5.169133e+01 4.289563e+01 4.184722e+01 3.336792e+01 2.730232e+01 7.829033e+00 6.693441e-01 8.864917e-01 1.306366e+00 1.644369e+00 2.141335e+00 2.538031e+00 2.528062e+00 2.751032e+00 2.239472e+00 2.550187e+00 2.405048e+00 2.112736e+00 1.568701e-01 8.454023e-02 1.476213e-01 2.092779e-01 3.198311e-01 4.408225e-01 5.225549e-01 4.747633e-01 5.293961e-01 4.573300e-01 4.920365e-01 4.667635e-01 4.297577e-01 2.718755e-02
<GCONST> 1.055522e+02
<STATE> 4
<NUMMIXES> 2
<MIXTURE> 1 5.588722e-01
<MEAN> 39
 -1.936288e+01 7.581698e+00 6.265629e+00 -2.140438e+00 5.697488e+00 -6.132578e+00 -1.074683e+00 3.988149e+00 -5.064721e+00 -3.757184e-01 -1.874089e+00 -2.890239e-02 6.435320e+01 1.710514e+00 -8.232001e-01 2.482281e-01 4.955743e-01 -8.209886e-01 -1.878303e-01 -3.659272e-01 -1.601252e-01 2.749776e-01 -9.562824e-02 -2.005633e-02 9.060564e-03 -5.701164e-01 5.247667e-01 1.031635e-01 -2.071517e-01 1.097077e-01 -2.876914e-01 -1.611814e-01 -1.753059e-01 -2.429577e-01 1.726186e-01 1.169297e-01 -3.397989e-02 1.154646e-01 -2.153897e-01
<VARIANCE> 39
 2.358896e+01 3.904921e+01 3.655744e+01 3.912941e+01 3.355873e+01 5.470594e+01 6.432072e+01 4.775581e+01 4.203190e+01 4.629970e+01 3.701356e+01 2.881819e+01 1.520929e+01 2.115033e+00 1.624050e+00 1.924174e+00 2.281449e+00 3.212854e+00 4.414836e+00 3.674455e+00 4.380550e+00 3.238319e+00 3.474069e+00 2.778304e+00 2.515727e+00 8.341856e-01 2.589746e-01 3.353304e-01 3.887257e-01 4.589086e-01 5.300747e-01 7.938553e-01 7.763036e-01 8.072067e-01 6.283098e-01 7.122670e-01 5.379789e-01 5.159713e-01 8.644395e-02
<GCONST> 1.208747e+02
<MIXTURE> 2 4.411281e-01
<MEAN> 39
 -9.780742e+00 6.796938e+00 4.187781e+00 1.208337e+00 4.244576e-01 -9.226043e+00 -3.544158e+00 9.276384e-01 -1.815318e+00 1.926983e+00 -2.229089e+00 6.280322e-01 5.925573e+01 1.432819e+00 -1.535563e-01 -4.970064e-01 4.063631e-01 -6.982355e-01 -1.960366e-01 -4.094043e-01 -3.882316e-01 4.550322e-01 3.665833e-01 1.281899e-01 -1.291488e-01 -8.694378e-01 -4.172121e-01 7.795377e-02 5.515083e-02 -4.674815e-02 2.755860e-01 3.195960e-01 1.463381e-01 6.609744e-02 -1.392786e-01 -7.835158e-02 6.558663e-02 -1.613998e-01 1.561348e-01
<VARIANCE> 39
