~o
<STREAMINFO> 1 39
<VECSIZE> 39<NULLD><MFCC_D_A_0><DIAGC>
~s "silst2"
<NUMMIXES> 2
<MIXTURE> 1 4.773336e-01
<MEAN> 39
 -1.868349e+01 3.958903e-01 -1.066790e+00 2.287898e+00 4.275632e-01 9.793457e-01 -1.486719e-01 2.874544e-01 -3.715168e-01 1.317992e-01 -2.595778e-01 2.598308e-01 1.751354e+01 1.236267e-02 -1.349510e-03 -2.196942e-02 -1.297746e-04 4.641387e-03 1.138964e-02 5.738836e-03 -3.898062e-02 -2.579908e-02 2.774149e-02 1.245513e-01 1.101151e-01 -9.476565e-03 1.143534e-02 -6.844629e-03 -1.762680e-02 -2.308504e-02 -8.973760e-03 9.416044e-03 3.250198e-03 1.584846e-03 -1.430681e-03 3.988873e-03 1.396959e-02 1.700877e-02 2.036738e-02
<VARIANCE> 39
 1.290008e+01 4.242292e+00 6.236678e+00 8.466861e+00 1.038484e+01 1.353766e+01 1.426344e+01 1.576073e+01 1.605958e+01 1.625130e+01 1.529075e+01 1.327443e+01 9.996631e+01 9.765369e-02 2.820153e-01 5.743529e-01 8.651600e-01 1.101001e+00 1.280664e+00 1.504843e+00 1.726462e+00 1.708367e+00 1.697490e+00 1.601997e+00 1.396694e+00 9.003209e-02 1.805264e-02 5.629122e-02 1.164110e-01 1.747869e-01 2.136301e-01 2.486295e-01 3.033209e-01 3.312055e-01 3.353472e-01 3.337964e-01 3.195937e-01 2.747753e-01 1.470478e-02
<GCONST> 7.709727e+01
<MIXTURE> 2 5.226737e-01
<MEAN> 39
 -1.935955e+01 -1.261604e-01 -1.663459e+00 1.971979e+00 4.174583e-01 1.470688e+00 8.447769e-02 5.519540e-01 -3.455737e-01 2.116090e-02 -4.344271e-01 5.080951e-02 1.526824e+01 -1.036948e-02 -9.890416e-03 1.073028e-02 1.796672e-02 -9.493188e-03 -2.665272e-03 2.608223e-02 1.789696e-02 -6.326129e-03 -2.716465e-02 -1.107498e-01 -9.257969e-02 -3.155475e-03 -8.487909e-03 1.187618e-02 1.827603e-02 1.188581e-02 -4.456442e-04 -1.106323e-02 -7.697790e-03 -3.002525e-03 4.377008e-03 -2.958507e-03 -1.329583e-02 -1.210548e-02 -7.506062e-03
<VARIANCE> 39
 2.346233e+00 2.499082e+00 5.095782e+00 7.578546e+00 9.563623e+00 1.193521e+01 1.345960e+01 1.500302e+01 1.533383e+01 1.532676e+01 1.474222e+01 1.294836e+01 1.617082e+01 7.386850e-02 2.532921e-01 5.412309e-01 8.107012e-01 1.016821e+00 1.219758e+00 1.452598e+00 1.634809e+00 1.625748e+00 1.612466e+00 1.562254e+00 1.332539e+00 4.469803e-02 1.493444e-02 5.075861e-02 1.066266e-01 1.647546e-01 2.028836e-01 2.386094e-01 2.892175e-01 3.264764e-01 3.271384e-01 3.201765e-01 3.136234e-01 2.665348e-01 9.237216e-03
<GCONST> 6.946943e+01
~s "silst3"
<MEAN> 39
 -1.175024e+01 2.186870e+00 -7.313772e-01 1.488386e+00 -1.072600e+00 -2.029595e+00 -1.379935e+00 -9.006707e-01 -7.355943e-01 -9.011576e-01 -8.508891e-01 5.423785e-01 3.890984e+01 -1.759136e-02 -5.747008e-02 -4.306642e-02 2.163015e-02 -3.715044e-02 -8.971104e-02 -5.319057e-02 1.010711e-01 -1.042156e-02 -6.301744e-02 1.925000e-02 -1.085650e-02 -1.000043e-03 5.189601e-03 1.248284e-02 2.736413e-02 2.701082e-02 2.990249e-04 -3.223785e-02 3.653840e-03 -8.033126e-04 2.153825e-02 3.798136e-03 -1.349416e-02 -1.328467e-02 -3.270097e-02
<VARIANCE> 39
 4.258470e+01 1.540950e+01 1.473019e+01 1.928274e+01 1.927974e+01 3.265596e+01 2.675001e+01 3.154511e+01 2.406148e+01 2.539866e+01 2.128356e+01 1.802775e+01 3.341003e+02 4.335808e+00 1.443644e+00 1.485337e+00 1.928278e+00 1.877756e+00 3.460944e+00 2.652159e+00 2.856497e+00 2.443444e+00 2.548896e+00 1.949375e+00 1.741134e+00 3.255048e+01 6.591327e-01 2.468696e-01 2.819616e-01 3.900236e-01 3.749271e-01 6.495316e-01 5.329557e-01 5.922388e-01 4.836171e-01 5.064456e-01 3.930776e-01 3.595767e-01 4.656942e+00
<GCONST> 1.200753e+02
~s "silst4"
<NUMMIXES> 2
<MIXTURE> 1 5.009227e-01
<MEAN> 39
 -7.042247e+00 4.413202e+00 4.860297e-01 2.053779e+00 -1.500547e+00 -3.914873e+00 -1.308362e+00 -1.982959e+00 -2.003860e-01 -9.671070e-01 -9.731585e-01 9.953721e-01 5.096299e+01 1.051519e-01 1.825067e-01 2.263473e-01 2.441138e-01 2.522041e-01 2.943469e-01 2.757744e-01 2.066257e-01 2.277299e-01 1.904315e-01 1.783152e-01 1.137974e-01 4.104714e-02 3.011919e-02 4.675625e-02 6.051720e-02 5.608146e-02 5.105132e-02 5.098938e-02 4.253224e-02 3.621391e-02 3.477996e-02 3.191910e-02 1.882106e-02 1.266208e-03 2.812915e-02
<VARIANCE> 39
 3.916136e+00 1.082353e+01 1.231693e+01 1.733583e+01 2.022002e+01 2.565809e+01 2.675188e+01 2.742126e+01 2.937487e+01 2.833691e+01 2.526552e+01 2.199897e+01 3.290865e+00 3.005404e-01 6.008065e-01 9.975010e-01 1.444430e+00 1.840076e+00 2.245492e+00 2.394845e+00 2.436345e+00 2.484236e+00 2.553213e+00 2.427912e+00 2.129266e+00 9.578966e-02 6.322776e-02 1.272537e-01 2.141003e-01 3.007798e-01 3.954510e-01 4.588061e-01 4.941345e-01 5.053257e-01 5.186623e-01 5.199531e-01 4.888129e-01 4.257709e-01 1.925444e-02
<GCONST> 9.336398e+01
<MIXTURE> 2 4.990454e-01
<MEAN> 39
 -7.388720e+00 3.991981e+00 1.400145e-01 1.885127e+00 -1.713105e+00 -4.318362e+00 -1.775235e+00 -2.164260e+00 -7.880921e-01 -1.381852e+00 -1.179860e+00 8.444804e-01 5.051819e+01 -1.141676e-01 -1.652985e-01 -2.387209e-01 -2.314240e-01 -2.852161e-01 -2.614856e-01 -2.564107e-01 -2.630585e-01 -2.007965e-01 -1.904401e-01 -1.883903e-01 -1.196439e-01 -6.978489e-02 -2.903906e-02 -3.496473e-02 -3.858522e-02 -4.709393e-02 -3.970650e-02 -3.143156e-02 -3.747680e-02 -3.636879e-02 -3.646131e-02 -2.950570e-02 -2.143718e-02 -1.199239e-02 -7.438809e-03
<VARIANCE> 39
 6.559984e+00 1.129125e+01 1.189034e+01 1.679643e+01 2.022917e+01 2.621066e+01 2.620191e+01 2.796992e+01 2.956792e+01 2.862632e+01 2.568663e+01 2.241418e+01 2.849887e+01 2.951798e-01 6.058918e-01 9.695971e-01 1.407699e+00 1.844952e+00 2.218786e+00 2.327869e+00 2.424472e+00 2.535979e+00 2.549290e+00 2.401647e+00 2.100003e+00 9.493655e-02 6.219512e-02 1.243654e-01 2.022364e-01 2.890169e-01 3.831576e-01 4.575915e-01 4.820604e-01 4.920315e-01 5.090657e-01 5.155438e-01 4.898206e-01 4.290877e-01 1.957105e-02
<GCONST> 9.574287e+01
~h "b"
<BEGINHMM>
<NUMSTATES> 5
<STATE> 2
<NUMMIXES> 2
<MIXTURE> 1 5.171104e-01
<MEAN> 39
 1.215343e+00 7.533198e+00 4.022165e+00 7.493455e+00 -9.620411e-01 -4.362198e+00 -1.407348e+00 -2.619585e+00 -1.160120e+00 8.825623e-01 1.491499e+00 -9.791051e-01 5.863547e+01 1.026820e-01 1.299847e+00 8.215119e-01 6.110218e-01 1.494919e+00 6.891927e-01 6.008855e-01 -6.550685e-02 -3.951831e-01 2.918522e-01 -2.777556e-01 -2.190735e-01 -1.247706e+00 -1.154928e-01 5.459481e-03 9.267716e-02 1.569927e-02 -1.209637e-01 6.252941e-02 7.936734e-02 -3.048804e-02 8.775057e-02 -9.198093e-03 -1.641912e-01 -9.208873e-02 1.033271e-01
<VARIANCE> 39
 2.132433e+01 2.178302e+01 3.388361e+01 2.852629e+01 5.031232e+01 3.692532e+01 3.995088e+01 3.497918e+01 3.993973e+01 4.148157e+01 4.344877e+01 2.878089e+01 2.559897e+01 1.094762e+00 1.559798e+00 2.627000e+00 2.102707e+00 3.554713e+00 3.295473e+00 3.327132e+00 4.064548e+00 2.803131e+00 3.331491e+00 3.478441e+00 2.458565e+00 1.688689e+00 1.170474e-01 3.372231e-01 3.777495e-01 3.598137e-01 6.445092e-01 5.633479e-01 6.045457e-01 6.367066e-01 4.652516e-01 5.996777e-01 6.535386e-01 4.025462e-01 1.864625e-01
<GCONST> 1.179746e+02
<MIXTURE> 2 4.828895e-01
<MEAN> 39
 -3.591440e-01 7.321758e+00 3.848662e+00 6.428077e+00 3.730209e-03 -3.774390e+00 -2.789435e+00 -2.539454e+00 -1.481199e+00 -4.414485e-01 -3.988287e-01 -1.352183e+00 5.774552e+01 1.752131e-02 8.987222e-01 3.466818e-01 5.160548e-01 8.697903e-01 1.588088e-01 2.081947e-01 -5.680581e-01 -8.077068e-01 1.002527e-01 -3.883812e-01 -3.206548e-01 -1.012066e+00 -1.394064e-01 -1.195662e-01 2.464463e-02 -6.822647e-02 -1.480870e-01 1.360175e-02 3.942362e-02 -1.382031e-02 1.542305e-02 -3.346643e-02 -1.215670e-01 -5.941082e-02 1.111595e-01
<VARIANCE> 39
 3.483511e+01 2.854511e+01 3.154894e+01 4.163032e+01 4.301385e+01 3.274623e+01 4.318492e+01 4.186908e+01 4.405460e+01 3.817633e+01 4.104462e+01 3.311202e+01 2.368284e+01 9.541393e-01 2.428707e+00 2.524453e+00 2.597237e+00 3.439071e+00 3.631291e+00 3.783096e+00 4.183609e+00 3.039011e+00 2.987759e+00 4.058290e+00 2.610537e+00 1.480872e+00 1.154659e-01 4.806528e-01 3.897792e-01 4.849007e-01 5.963958e-01 5.650824e-01 6.873096e-01 7.394258e-01 4.988846e-01 5.694062e-01 7.393229e-01 5.039936e-01 2.081881e-01
<GCONST> 1.211464e+02
<STATE> 3
<MEAN> 39
 1.817269e-01 1.161483e+01 7.374183e+00 8.506864e+00 2.306302e+00 -1.468476e+00 5.918270e-01 -2.609386e+00 -1.458898e+00 -2.047292e-01 -2.034845e+00 -1.844215e+00 5.434647e+01 -2.427985e-01 -1.239214e-03 3.447263e-02 -1.013717e-01 1.088036e-01 1.314256e-01 1.126052e-01 2.116417e-01 1.632260e-01 -1.160113e-01 -1.066361e-01 1.051315e-01 -2.526948e-01 -3.394186e-02 -1.110368e-01 -7.854795e-02 -6.767195e-02 -3.925127e-02 -3.371244e-02 -3.483459e-02 9.066128e-03 3.069616e-02 2.201157e-02 6.462939e-02 1.960274e-02 7.284655e-02
<VARIANCE> 39
 6.435222e+00 6.525304e+00 1.167317e+01 1.901129e+01 1.859450e+01 2.446659e+01 2.499665e+01 2.878837e+01 3.325427e+01 2.734151e+01 2.118641e+01 2.196308e+01 4.265324e+00 2.230153e-01 4.466321e-01 7.384123e-01 1.231082e+00 1.514604e+00 1.586193e+00 1.805204e+00 1.788249e+00 1.986495e+00 1.916847e+00 1.964109e+00 1.770912e+00 1.020937e-01 4.190250e-02 8.975053e-02 1.645650e-01 2.607162e-01 2.863439e-01 3.286473e-01 3.607186e-01 3.416536e-01 3.985713e-01 3.825562e-01 3.922215e-01 3.698065e-01 3.917829e-02
<GCONST> 8.763001e+01
<STATE> 4
<NUMMIXES> 2
<MIXTURE> 1 5.069166e-01
<MEAN> 39
 -4.377136e+00 8.008757e+00 4.890637e+00 4.463828e+00 2.090193e+00 -1.604075e+00 1.375187e-01 -1.666875e+00 2.871844e-01 8.312315e-01 -8.338116e-01 -8.040769e-01 5.290759e+01 -4.197808e-01 -6.600903e-01 -1.750681e-01 -2.526349e-01 -4.066668e-02 5.717799e-02 -1.629615e-01 3.093636e-01 3.799408e-01 2.693926e-01 2.661993e-01 8.527765e-02 8.427737e-01 6.557823e-02 -1.097742e-01 -5.038346e-02 -1.135289e-02 -2.336020e-01 -8.941857e-02 -1.093811e-01 1.334287e-01 4.788256e-02 -1.248990e-02 9.508348e-02 -1.127263e-02 3.932176e-01
<VARIANCE> 39
 1.218312e+01 1.735678e+01 1.839409e+01 2.256154e+01 2.601720e+01 2.404158e+01 2.524577e+01 2.832183e+01 2.982615e+01 2.758231e+01 2.412427e+01 2.025679e+01 4.753941e+00 1.104159e+00 2.101816e+00 1.599461e+00 2.071056e+00 2.570913e+00 2.594718e+00 2.758224e+00 2.551721e+00 2.779415e+00 2.666101e+00 2.175267e+00 2.183655e+00 2.288700e+00 2.072410e-01 3.802512e-01 3.357401e-01 3.908454e-01 6.014316e-01 4.919023e-01 5.543638e-01 5.150222e-01 5.545163e-01 5.083086e-01 4.822648e-01 4.004495e-01 2.859476e-01
<GCONST> 1.096055e+02
<MIXTURE> 2 4.930830e-01
<MEAN> 39
 -5.688823e+00 7.352900e+00 3.646529e+00 3.299888e+00 1.512716e+00 -3.019452e+00 -6.594528e-01 -1.437656e+00 -8.676327e-02 5.695324e-01 -4.150364e-01 -8.290862e-01 5.217231e+01 -5.936475e-01 -9.962420e-01 -5.038304e-01 -7.165977e-01 -6.244401e-01 -3.488050e-01 -4.757074e-01 -1.966569e-01 -2.250091e-01 -9.853191e-02 -1.769585e-02 -4.899592e-03 8.142860e-01 3.398322e-02 -1.592773e-01 -1.035659e-01 -8.762567e-02 -1.783253e-01 -1.621849e-02 -1.259470e-01 -2.122136e-02 -7.295478e-03 2.309522e-02 -4.219174e-02 -4.654941e-02 4.092938e-01
<VARIANCE> 39
 1.014532e+01 1.338837e+01 1.583180e+01 2.172546e+01 2.531200e+01 2.999804e+01 3.208649e+01 3.005819e+01 2.978292e+01 2.423317e+01 2.702473e+01 2.275142e+01 3.839538e+00 9.830173e-01 2.198864e+00 1.652190e+00 1.861454e+00 2.410382e+00 2.338378e+00 2.774964e+00 2.874125e+00 2.600537e+00 2.260244e+00 2.594935e+00 2.133918e+00 2.766834e+00 1.644048e-01 3.455116e-01 3.209125e-01 3.326148e-01 5.643482e-01 4.943629e-01 5.869598e-01 5.513687e-01 5.516046e-01 4.287526e-01 4.895616e-01 4.436638e-01 2.824382e-01
<GCONST> 1.087385e+02
<TRANSP> 5
 0.000000e+00 1.000000e+00 0.000000e+00 0.000000e+00 0.000000e+00
 0.000000e+00 7.609193e-01 2.390808e-01 0.000000e+00 0.000000e+00
 0.000000e+00 0.000000e+00 9.045623e-01 9.543773e-02 0.000000e+00
 0.000000e+00 0.000000e+00 0.000000e+00 8.500894e-01 1.499106e-01
 0.000000e+00 0.000000e+00 0.000000e+00 0.000000e+00 0.000000e+00
<ENDHMM>
~h "d"
<BEGINHMM>
<NUMSTATES> 5
<STATE> 2
<NUMMIXES> 2
<MIXTURE> 1 5.224602e-01
<MEAN> 39
 -1.187116e+00 9.697374e+00 7.713247e+00 6.995059e+00 -2.131122e+00 -4.459917e+00 -6.179476e-01 -8.810517e-01 -9.200498e-01 -8.479758e-01 -4.032345e-01 -6.216884e-02 5.690974e+01 -1.900936e-01 3.298388e-01 -1.309198e-03 8.204067e-02 9.067111e-01 4.599214e-01 2.655638e-01 6.995724e-02 1.888996e-01 1.151937e-01 -1.285892e-01 8.555590e-02 -7.641334e-01 -5.231643e-02 -1.343716e-01 -5.306374e-02 -7.534702e-02 -5.608627e-02 6.702951e-02 -6.011800e-04 -4.240785e-03 2.327833e-02 5.552690e-02 3.978466e-02 5.419997e-03 1.647314e-01
<VARIANCE> 39
 1.262620e+01 2.011300e+01 2.343909e+01 2.523695e+01 4.439496e+01 3.462621e+01 3.828936e+01 3.692642e+01 4.004876e+01 3.440232e+01 3.337653e+01 2.718815e+01 2.675197e+01 7.407882e-01 1.698507e+00 1.653345e+00 1.879186e+00 2.946510e+00 2.749450e+00 2.934197e+00 3.399398e+00 2.733406e+00 2.976451e+00 2.882980e+00 2.194999e+00 1.402639e+00 1.520974e-01 3.399338e-01 2.886672e-01 3.971678e-01 5.681476e-01 5.408984e-01 5.752144e-01 6.016079e-01 5.361999e-01 5.280433e-01 5.311437e-01 4.014273e-01 2.936710e-01
<GCONST> 1.141476e+02
<MIXTURE> 2 4.775364e-01
<MEAN> 39
 -2.903535e+00 9.101566e+00 6.025723e+00 5.860065e+00 -1.136717e+00 -4.662253e+00 -1.943144e+00 -1.865675e+00 -1.411542e+00 -1.146673e+00 -1.179147e+00 1.646198e-01 5.517646e+01 -3.953071e-01 -1.825777e-01 -3.691438e-01 -4.018905e-01 1.737979e-01 5.036763e-02 -1.769928e-01 -2.043867e-01 -1.353428e-01 -1.935024e-01 -2.312005e-01 -5.444970e-02 -4.670335e-01 -1.172248e-01 -2.377929e-01 -5.842723e-02 -1.678951e-01 -1.110174e-01 6.654129e-04 -1.487370e-02 1.481559e-02 -7.875545e-02 1.524205e-02 4.893311e-02 -3.838410e-02 2.788106e-01
<VARIANCE> 39
 1.583603e+01 1.594420e+01 2.377681e+01 2.576870e+01 3.584887e+01 3.242595e+01 3.505803e+01 3.412254e+01 3.650247e+01 3.257286e+01 2.946404e+01 2.394426e+01 1.969966e+01 7.801037e-01 1.481044e+00 1.595896e+00 1.776719e+00 2.754412e+00 2.649458e+00 2.763081e+00 3.306830e+00 2.714653e+00 2.887377e+00 2.445086e+00 2.055068e+00 1.020035e+00 1.937198e-01 3.348001e-01 2.929297e-01 4.141338e-01 5.490251e-01 5.753715e-01 5.442357e-01 5.805096e-01 5.691267e-01 5.355218e-01 4.929137e-01 3.762776e-01 3.357058e-01
<GCONST> 1.123578e+02
<STATE> 3
<MEAN> 39
 -7.256987e+00 2.831539e+00 4.948852e+00 1.343680e+00 2.434685e-01 -1.691186e+00 -1.879359e+00 -1.103490e+00 -1.719267e+00 -6.607864e-01 -7.305632e-01 1.701822e-01 6.063877e+01 -1.911143e+00 -1.996177e+00 2.283306e-01 -1.809824e+00 -8.843539e-01 -2.617883e-01 -4.242964e-02 7.904966e-01 -2.384098e-01 2.438417e-01 5.060377e-01 1.801692e-01 3.089102e+00 2.194815e-01 6.315221e-01 3.252281e-01 5.215465e-01 -3.719602e-01 -4.061676e-01 1.907667e-02 -7.302372e-02 -6.187453e-02 2.272065e-02 -7.555190e-03 -4.476405e-02 -1.756266e-01
<VARIANCE> 39
 3.305309e+01 6.504465e+01 3.511099e+01 6.483792e+01 3.328970e+01 3.413906e+01 3.807306e+01 3.519787e+01 2.888387e+01 2.868955e+01 2.390040e+01 1.924981e+01 6.651881e+01 2.113187e+00 4.312281e+00 3.573350e+00 4.618249e+00 4.434873e+00 4.573954e+00 4.147140e+00 4.681872e+00 3.756727e+00 3.413514e+00 2.985089e+00 2.548626e+00 3.534838e+00 7.459918e-01 1.143460e+00 6.007231e-01 1.383558e+00 8.115173e-01 7.284357e-01 7.790535e-01 8.444539e-01 6.141101e-01 6.194380e-01 5.095146e-01 4.241179e-01 1.516953e+00
<GCONST> 1.318277e+02
<STATE> 4
<NUMMIXES> 2
<MIXTURE> 1 5.058186e-01
<MEAN> 39
 -9.191198e+00 4.922256e+00 8.175214e+00 2.515238e+00 -4.281447e+00 -6.019853e+00 -1.222750e+00 1.343514e-01 -2.164866e+00 -5.883264e-02 -3.995527e-03 6.772352e-01 6.253166e+01 1.149150e+00 1.617678e+00 7.452697e-01 1.699672e+00 -4.755002e-01 -1.691812e-01 2.140272e-01 2.932548e-02 3.176801e-01 -1.515058e-01 2.690005e-01 -2.781320e-02 -8.590597e-01 6.693608e-01 1.943426e-01 -2.211667e-01 3.117555e-01 7.597017e-02 1.642861e-01 -1.120769e-01 -2.165811e-01 1.111926e-01 -6.363256e-02 5.279654e-02 -4.181648e-02 -3.906175e-01
<VARIANCE> 39
 4.256647e+01 3.072549e+01 3.462540e+01 4.172969e+01 5.784322e+01 5.079441e+01 5.800002e+01 4.903078e+01 4.853348e+01 4.092471e+01 3.655768e+01 3.209658e+01 3.370836e+01 3.230230e+00 2.859318e+00 3.584347e+00 4.888381e+00 7.285959e+00 5.779819e+00 3.857406e+00 3.927527e+00 3.411732e+00 3.171216e+00 3.117380e+00 2.450215e+00 2.610325e+00 7.752178e-01 5.941032e-01 5.082815e-01 1.010657e+00 1.185797e+00 1.050222e+00 8.607429e-01 7.768864e-01 7.040029e-01 6.820195e-01 6.354142e-01 5.980924e-01 7.413166e-01
<GCONST> 1.335409e+02
<MIXTURE> 2 4.941834e-01
<MEAN> 39
 -8.715630e+00 4.068603e+00 7.000250e+00 2.215655e+00 -5.906479e+00 -7.793763e+00 -3.567508e+00 -3.951909e-02 -2.626545e+00 -9.131798e-01 2.027392e-01 3.823832e-01 6.112461e+01 7.197592e-01 7.333729e-01 -1.065944e-01 7.242114e-01 -6.627720e-01 -7.224280e-01 -4.026112e-01 -5.185514e-01 -1.440454e-01 -2.901155e-01 -9.109578e-02 -1.013510e-01 -1.084908e+00 2.892458e-01 5.989468e-02 -2.627698e-01 6.847926e-02 1.718479e-01 2.424289e-01 -3.908236e-02 -2.115026e-01 7.720431e-02 -4.685033e-02 -8.235706e-02 -8.747328e-03 -3.082269e-01
<VARIANCE> 39
 4.574317e+01 3.028226e+01 3.204791e+01 3.674601e+01 6.563664e+01 6.105677e+01 5.277848e+01 5.071954e+01 4.674377e+01 4.524689e+01 4.238636e+01 3.167085e+01 4.102378e+01 3.217105e+00 2.540675e+00 2.888276e+00 4.129539e+00 6.258869e+00 6.298557e+00 3.794259e+00 3.754298e+00 3.547168e+00 3.522635e+00 3.290404e+00 2.819834e+00 2.625990e+00 7.785482e-01 4.973317e-01 5.396003e-01 8.584178e-01 1.141726e+00 1.228608e+00 8.393706e-01 7.537059e-01 7.044349e-01 7.744992e-01 6.862138e-01 5.400816e-01 8.335436e-01
<GCONST> 1.337542e+02
<TRANSP> 5
 0.000000e+00 1.000000e+00 0.000000e+00 0.000000e+00 0.000000e+00
 0.000000e+00 8.768951e-01 1.231049e-01 0.000000e+00 0.000000e+00
 0.000000e+00 0.000000e+00 6.510769e-01 3.489232e-01 0.000000e+00
 0.000000e+00 0.000000e+00 0.000000e+00 6.746392e-01 3.253608e-01
 0.000000e+00 0.000000e+00 0.000000e+00 0.000000e+00 0.000000e+00
<ENDHMM>
~h "f"
<BEGINHMM>
<NUMSTATES> 5
<STATE> 2
<NUMMIXES> 2
<MIXTURE> 1 5.178519e-01
<MEAN> 39
 -3.750690e+00 6.203198e+00 3.051818e+00 4.383086e+00 -1.280604e-01 -1.854410e+00 -1.189016e+00 -1.263342e+00 -8.282079e-01 8.084319e-01 7.863734e-01 8.138645e-02 5.978093e+01 -1.415877e+00 -4.142595e-01 2.797402e-01 2.311957e-01 6.911764e-01 4.325703e-01 1.239348e-01 1.077607e-01 4.120494e-01 -1.761209e-02 -3.208366e-01 6.730293e-02 -1.561370e-01 -1.383417e-01 -1.032441e-01 -5.973523e-02 3.048437e-02 -4.611078e-02 3.904745e-02 -2.002463e-02 -2.440478e-02 -1.403344e-02 -4.244618e-02 1.541004e-02 -4.836625e-03 1.518953e-01
<VARIANCE> 39
 4.405445e+01 1.495208e+01 2.848474e+01 2.515254e+01 3.423058e+01 4.660838e+01 4.468025e+01 3.442902e+01 4.314515e+01 3.731224e+01 3.246803e+01 2.445420e+01 1.181816e+01 1.110201e+00 1.316896e+00 2.238989e+00 1.966221e+00 3.489627e+00 3.591781e+00 2.860544e+00 2.790608e+00 3.077168e+00 2.969149e+00 3.239590e+00 2.154955e+00 7.281528e-01 2.015705e-01 1.633242e-01 3.562274e-01 4.051850e-01 6.205867e-01 6.779111e-01 5.121018e-01 5.292197e-01 5.682305e-01 6.022608e-01 6.166215e-01 4.157706e-01 6.340737e-02
<GCONST> 1.135794e+02
<MIXTURE> 2 4.821477e-01
<MEAN> 39
 -6.592142e+00 5.126491e+00 3.302705e+00 4.739179e+00 1.119611e+00 -2.090503e+00 -2.122856e+00 -1.743843e+00 -2.271381e+00 -7.923229e-01 -8.054402e-01 -1.290693e-01 5.925619e+01 -1.684212e+00 -6.362749e-01 -3.816039e-01 -3.719235e-01 -2.827426e-01 -2.867948e-01 -5.694283e-01 -5.896040e-01 -9.380208e-02 -3.721517e-01 -5.327311e-01 -2.089364e-01 -9.009708e-02 -3.932117e-02 -1.475512e-01 -2.361067e-01 -9.768233e-02 -3.227974e-01 -1.163224e-01 -1.305430e-01 -5.371271e-02 -4.609345e-02 -1.251236e-02 3.001682e-02 -5.602733e-02 1.817970e-01
<VARIANCE> 39
 2.918106e+01 1.678291e+01 1.793329e+01 2.797556e+01 3.779200e+01 4.640142e+01 4.094652e+01 3.774752e+01 4.478052e+01 3.763605e+01 2.930922e+01 2.390305e+01 1.289469e+01 1.347790e+00 1.396349e+00 1.973687e+00 2.506130e+00 3.974562e+00 3.661016e+00 3.054020e+00 2.980689e+00 3.015789e+00 2.803397e+00 2.797313e+00 2.152483e+00 7.217228e-01 1.782615e-01 1.942031e-01 3.432752e-01 4.873129e-01 7.115172e-01 7.325794e-01 5.898057e-01 6.255308e-01 5.732989e-01 5.399050e-01 5.568519e-01 4.173448e-01 7.270647e-02
<GCONST> 1.141078e+02
<STATE> 3
<MEAN> 39
 -1.515240e+01 -8.658613e-01 5.527662e-02 2.930348e+00 -6.590070e-01 -1.404813e+00 -2.297587e+00 -1.562767e+00 -3.539415e-01 -8.416007e-01 -1.620485e+00 -1.094552e-01 6.200739e+01 -1.815584e-01 -3.822672e-01 -2.689212e-01 -1.997785e-01 -1.319379e-02 5.460794e-02 9.051163e-02 1.238311e-01 1.548271e-01 5.201301e-02 1.450349e-02 -1.817782e-02 2.137433e-01 1.244795e-01 1.289994e-02 9.393994e-03 -5.641659e-02 -8.155592e-03 -1.648436e-02 2.660785e-02 3.752311e-02 2.250143e-02 3.801759e-02 2.902791e-02 1.887129e-02 -4.020392e-02
<VARIANCE> 39
 8.136412e+00 1.810324e+01 2.069054e+01 1.991806e+01 2.588504e+01 3.004069e+01 3.476528e+01 2.860580e+01 3.463362e+01 3.376437e+01 2.666690e+01 2.447061e+01 9.027510e+00 5.206748e-01 9.428299e-01 1.298584e+00 1.761179e+00 1.926982e+00 2.527140e+00 2.705465e+00 2.599252e+00 2.561954e+00 2.684503e+00 2.469339e+00 2.366446e+00 2.620217e-01 7.554823e-02 1.801433e-01 2.435764e-01 3.331314e-01 3.928565e-01 5.098810e-01 5.370787e-01 5.084355e-01 4.955676e-01 5.225739e-01 5.219781e-01 4.725778e-01 4.191863e-02
<GCONST> 1.023612e+02
<STATE> 4
<NUMMIXES> 2
<MIXTURE> 1 5.039698e-01
<MEAN> 39
 -9.782445e+00 -3.428286e+00 -3.707154e+00 -8.219866e-01 -1.975056e+00 -1.882030e+00 -1.254709e+00 2.989984e-01 1.196090e+00 1.506609e+00 -1.370365e-01 1.545647e-01 6.007880e+01 1.930634e+00 1.474126e+00 7.068835e-01 1.144876e+00 1.715942e-01 6.642883e-01 4.369146e-01 4.322861e-01 -2.929128e-01 3.722372e-02 2.530190e-01 4.718865e-02 -7.914422e-01 4.389522e-01 6.356159e-01 3.569589e-01 3.725190e-01 3.903075e-02 1.907520e-01 -1.797655e-03 5.133784e-02 -1.922048e-01 -1.860108e-01 1.258018e-02 -1.334378e-01 3.013295e-01
<VARIANCE> 39
 1.924033e+01 1.372447e+01 3.251206e+01 3.242754e+01 3.127076e+01 3.880632e+01 4.084441e+01 3.373118e+01 3.476192e+01 3.986191e+01 2.752055e+01 2.403767e+01 1.334061e+01 1.009544e+00 2.401915e+00 2.192593e+00 3.728256e+00 2.566961e+00 2.720809e+00 2.974748e+00 2.581659e+00 2.716355e+00 3.387091e+00 2.692780e+00 2.197190e+00 5.863163e-01 1.578304e-01 2.224121e-01 3.303929e-01 5.615772e-01 5.653878e-01 5.412258e-01 5.829250e-01 5.783395e-01 4.973393e-01 5.194945e-01 4.772853e-01 3.819426e-01 3.308614e-01
<GCONST> 1.138280e+02
<MIXTURE> 2 4.960294e-01
<MEAN> 39
 -1.182930e+01 -4.635048e+00 -3.843843e+00 -2.033854e+00 -1.391274e+00 -1.753219e+00 -1.802615e+00 1.926360e-01 1.191056e+00 1.258108e+00 -9.174854e-01 -4.413306e-01 6.181070e+01 1.407829e+00 3.736813e-01 -2.257529e-01 -2.925258e-01 -6.008449e-01 -2.899923e-01 -2.946887e-01 -5.209274e-02 -2.861300e-01 5.472478e-02 -5.350896e-02 -5.740261e-02 -9.597826e-01 2.559582e-01 4.562931e-01 1.859070e-01 4.181117e-01 1.649542e-02 1.107194e-01 3.148945e-02 -9.515433e-02 -2.365437e-01 -1.922752e-01 -2.036272e-03 -3.272754e-02 -9.673270e-02
<VARIANCE> 39
 1.785241e+01 1.376699e+01 2.956530e+01 3.046436e+01 2.579935e+01 3.461318e+01 4.288752e+01 3.118146e+01 2.991460e+01 3.731128e+01 2.831412e+01 2.327709e+01 1.262230e+01 8.198414e-01 1.767987e+00 1.759577e+00 2.945226e+00 2.378234e+00 2.591353e+00 2.584691e+00 2.674798e+00 2.655719e+00 2.754889e+00 2.230513e+00 1.978086e+00 5.527499e-01 1.577002e-01 2.152234e-01 3.268941e-01 5.215159e-01 4.925348e-01 5.341365e-01 6.647627e-01 5.052067e-01 4.496983e-01 6.014592e-01 4.482793e-01 4.028222e-01 2.126345e-01
<GCONST> 1.105257e+02
<TRANSP> 5
 0.000000e+00 1.000000e+00 0.000000e+00 0.000000e+00 0.000000e+00
 0.000000e+00 8.148493e-01 1.851507e-01 0.000000e+00 0.000000e+00
 0.000000e+00 0.000000e+00 9.298420e-01 7.015802e-02 0.000000e+00
 0.000000e+00 0.000000e+00 0.000000e+00 8.099002e-01 1.900998e-01
 0.000000e+00 0.000000e+00 0.000000e+00 0.000000e+00 0.000000e+00
<ENDHMM>
~h "g"
<BEGINHMM>
<NUMSTATES> 5
<STATE> 2
<NUMMIXES> 2
<MIXTURE> 1 5.359146e-01
<MEAN> 39
 -9.946494e-01 1.032723e+01 8.162884e+00 7.530552e+00 -2.032371e+00 -4.865028e+00 1.160034e+00 -9.455596e-01 -3.314002e+00 1.107640e+00 2.118767e+00 -1.247132e+00 5.568647e+01 -1.697323e-01 2.343155e-01 -1.219084e-01 1.941984e-01 1.011473e+00 2.211960e-01 -5.467607e-02 5.702544e-02 6.328647e-01 4.559178e-02 -5.513369e-01 1.937916e-01 -7.719517e-01 -4.271236e-02 -1.469836e-01 -5.872304e-02 -6.286389e-02 -9.399261e-02 4.344119e-02 -7.101299e-02 -1.611242e-02 5.823895e-02 -9.368609e-02 1.275948e-02 8.152834e-03 2.130385e-01
<VARIANCE> 39
 8.846630e+00 9.506010e+00 3.585255e+01 1.608267e+01 4.063592e+01 4.592715e+01 4.177441e+01 3.669551e+01 4.608385e+01 3.305940e+01 4.096010e+01 2.714929e+01 1.827890e+01 4.643185e-01 9.165637e-01 1.507422e+00 1.682852e+00 2.641971e+00 2.995696e+00 2.459624e+00 4.234578e+00 3.468174e+00 2.949351e+00 2.703404e+00 2.365264e+00 1.034144e+00 7.203116e-02 1.417107e-01 2.140452e-01 3.467734e-01 4.292249e-01 4.752301e-01 4.118724e-01 6.893905e-01 7.286685e-01 5.774632e-01 4.472029e-01 4.023021e-01 9.948438e-02
<GCONST> 1.083615e+02
<MIXTURE> 2 4.640842e-01
<MEAN> 39
 -2.101783e+00 9.183735e+00 6.752226e+00 6.624461e+00 -1.713766e+00 -5.293544e+00 -1.724599e+00 -2.251410e+00 -3.822522e+00 -3.341023e-01 9.026710e-01 -1.105233e+00 5.481340e+01 -4.342787e-01 -3.041376e-01 -4.538292e-01 -3.205323e-01 3.711916e-01 -2.748456e-01 -4.377891e-01 -4.262298e-04 2.315643e-01 -2.888338e-01 -9.067180e-01 1.816897e-01 -3.746161e-01 -1.041190e-01 -2.354495e-01 -8.044349e-02 -1.011909e-01 -6.191816e-02 9.303977e-03 -1.650232e-01 1.088405e-01 -1.276004e-01 4.432056e-02 -2.858632e-02 9.429030e-03 2.325092e-01
<VARIANCE> 39
 9.142305e+00 7.717521e+00 2.375385e+01 1.685443e+01 2.811283e+01 4.015472e+01 3.400202e+01 3.822405e+01 4.223512e+01 3.151666e+01 3.377975e+01 2.384477e+01 1.194587e+01 4.805787e-01 1.088338e+00 1.522003e+00 1.683874e+00 3.424553e+00 2.801506e+00 2.320901e+00 3.358233e+00 3.428375e+00 2.994843e+00 2.473349e+00 2.264951e+00 8.411924e-01 7.691660e-02 1.676511e-01 2.699750e-01 3.777622e-01 5.667645e-01 5.066841e-01 4.705825e-01 6.774779e-01 7.140921e-01 5.689279e-01 4.256626e-01 4.707893e-01 8.299457e-02
<GCONST> 1.069552e+02
<STATE> 3
<MEAN> 39
 -9.383229e+00 2.395165e+00 4.100942e+00 1.191367e+00 -8.212302e-01 -3.185052e+00 -3.913799e+00 -2.897511e-01 -4.857354e+00 2.527176e+00 -1.564043e+00 3.539743e-01 5.893167e+01 -1.017357e+00 -6.715372e-01 -1.447575e-01 -7.977878e-01 3.055462e-02 2.680766e-01 -3.477325e-01 3.544534e-01 -2.511847e-01 3.293472e-01 -1.248757e-01 2.736490e-01 1.017158e+00 2.129833e-01 3.995442e-01 1.257597e-01 2.223333e-01 -1.226834e-01 -8.590464e-02 1.606719e-01 -6.643452e-02 7.908280e-02 -2.269033e-01 1.698519e-01 -8.391928e-02 -1.038411e-01
<VARIANCE> 39
 2.815501e+01 5.208369e+01 3.753948e+01 4.181254e+01 5.647678e+01 5.665478e+01 5.329108e+01 4.927486e+01 5.538847e+01 4.518070e+01 4.048347e+01 2.498933e+01 3.880477e+01 2.238959e+00 5.771183e+00 2.109041e+00 3.992242e+00 3.842364e+00 3.599245e+00 3.552520e+00 3.824651e+00 4.348793e+00 4.165468e+00 2.932168e+00 2.967053e+00 4.207038e+00 5.798851e-01 1.179808e+00 3.614794e-01 7.911534e-01 7.541000e-01 7.167861e-01 6.572434e-01 7.628535e-01 9.639628e-01 8.398815e-01 6.580201e-01 6.523315e-01 9.007253e-01
<GCONST> 1.329970e+02
<STATE> 4
<NUMMIXES> 2
<MIXTURE> 1 5.039198e-01
<MEAN> 39
 -9.880701e+00 7.042448e+00 8.755330e+00 1.640741e+00 -2.367017e+00 -9.039301e-01 -2.053256e+00 -1.011172e-01 -3.190181e+00 1.083942e+00 -2.178306e+00 1.330126e+00 6.108978e+01 2.274794e+00 1.867026e+00 1.312020e+00 2.332237e+00 -1.208520e+00 -5.753454e-01 5.787667e-01 4.667027e-02 3.276750e-03 -6.955693e-01 1.598417e+00 -6.476029e-01 5.518486e-01 5.138470e-01 -4.922137e-01 -3.700416e-01 9.645270e-02 -8.684057e-01 -3.172823e-01 -1.087416e-01 -4.058068e-03 -1.730018e-01 1.644227e-01 7.286365e-01 -1.434797e-01 5.062143e-01
<VARIANCE> 39
 3.281728e+01 3.603545e+01 5.518659e+01 6.120700e+01 5.745786e+01 3.505389e+01 4.018918e+01 4.300182e+01 2.542851e+01 3.962994e+01 3.093587e+01 2.382925e+01 1.782094e+01 2.960629e+00 3.288887e+00 3.164891e+00 3.430373e+00 7.534532e+00 4.593786e+00 2.585372e+00 2.123511e+00 3.598287e+00 3.492492e+00 4.281033e+00 1.763609e+00 2.174224e+00 5.076032e-01 6.924048e-01 7.499608e-01 1.034874e+00 1.368068e+00 7.023994e-01 3.831314e-01 4.347986e-01 5.474400e-01 4.261496e-01 4.438443e-01 3.986098e-01 3.465897e-01
<GCONST> 1.261979e+02
<MIXTURE> 2 4.960805e-01
<MEAN> 39
 -8.166630e+00 7.587131e+00 6.222962e+00 3.362893e+00 -1.451981e+00 -2.229889e+00 -4.385486e+00 7.410997e-01 -4.400498e+00 3.484264e-01 -7.780641e-01 1.047913e-01 6.225525e+01 1.856067e+00 9.965906e-01 3.760763e-01 1.493351e+00 -2.015769e+00 -1.180658e+00 -1.584187e-01 -1.393839e-01 -4.851054e-01 -1.020327e+00 1.468216e+00 -1.099468e+00 7.784405e-01 1.539625e-01 -4.936994e-01 -3.244509e-01 -1.389682e-01 -6.852006e-01 -3.374673e-01 -1.640238e-01 6.769053e-03 -1.143150e-01 1.447592e-01 5.264766e-01 1.359599e-02 2.191199e-01
<VARIANCE> 39
 4.682347e+01 3.511736e+01 5.759042e+01 5.688581e+01 8.292208e+01 5.949803e+01 6.003207e+01 4.655730e+01 1.912767e+01 4.086734e+01 4.510767e+01 2.262027e+01 2.124606e+01 3.985933e+00 3.688616e+00 3.452118e+00 2.884795e+00 6.248312e+00 4.751097e+00 3.008689e+00 3.093898e+00 3.201066e+00 2.673031e+00 5.028554e+00 1.893548e+00 2.312963e+00 5.640972e-01 6.795607e-01 6.758094e-01 9.388707e-01 1.311497e+00 6.317713e-01 3.436328e-01 4.331073e-01 3.921186e-01 4.593739e-01 5.007505e-01 4.380572e-01 3.082857e-01
<GCONST> 1.281939e+02
<TRANSP> 5
 0.000000e+00 1.000000e+00 0.000000e+00 0.000000e+00 0.000000e+00
 0.000000e+00 8.928170e-01 1.071830e-01 0.000000e+00 0.000000e+00
 0.000000e+00 0.000000e+00 8.244615e-01 1.755385e-01 0.000000e+00
 0.000000e+00 0.000000e+00 0.000000e+00 6.118730e-01 3.881270e-01
 0.000000e+00 0.000000e+00 0.000000e+00 0.000000e+00 0.000000e+00
<ENDHMM>
~h "k"
<BEGINHMM>
<NUMSTATES> 5
<STATE> 2
<NUMMIXES> 2
<MIXTURE> 1 5.079306e-01
<MEAN> 39
 -3.513822e+00 8.254340e+00 4.993835e+00 4.680838e+00 -2.666117e+00 -3.888533e+00 -2.580830e-01 -9.570530e-01 -1.631999e+00 5.500403e-01 6.915209e-01 -5.386982e-02 5.423843e+01 -2.183830e-01 1.280533e-01 -4.148562e-02 -5.586760e-02 6.797407e-01 3.530043e-01 1.977151e-01 1.087988e-01 5.015815e-01 1.062285e-01 -2.563322e-01 1.293795e-01 -6.175200e-01 -1.533326e-02 -1.044235e-01 1.689547e-02 2.809195e-02 1.740816e-02 9.199058e-02 -1.242361e-02 4.164309e-02 2.664907e-02 1.244857e-02 -3.484457e-03 1.374528e-02 1.503271e-01
<VARIANCE> 39
 1.164717e+01 1.145357e+01 2.798524e+01 2.378584e+01 3.799041e+01 4.776682e+01 4.949298e+01 4.092945e+01 4.524625e+01 3.510983e+01 3.819608e+01 2.754385e+01 1.585840e+01 6.537337e-01 9.440975e-01 1.690209e+00 1.835112e+00 3.003534e+00 3.021794e+00 2.774884e+00 3.119438e+00 3.218834e+00 2.719805e+00 2.805067e+00 2.236238e+00 7.942837e-01 1.309779e-01 2.189281e-01 3.720872e-01 3.582371e-01 5.322527e-01 5.586511e-01 5.418278e-01 5.865966e-01 6.512540e-01 5.146804e-01 5.429474e-01 4.372433e-01 1.068043e-01
<GCONST> 1.113764e+02
<MIXTURE> 2 4.920693e-01
<MEAN> 39
 -4.702307e+00 7.784110e+00 4.704453e+00 3.811121e+00 -2.591077e+00 -5.077022e+00 -2.250023e+00 -2.159133e+00 -2.991735e+00 -6.191386e-02 -2.817125e-01 -5.019568e-03 5.387434e+01 -3.444429e-01 -3.019497e-01 -6.172088e-01 -4.725035e-01 1.560397e-01 -1.288350e-01 -3.249162e-01 -4.102297e-01 1.225426e-01 -2.830358e-01 -5.150206e-01 -5.163479e-03 -6.180123e-01 -3.274652e-02 -1.926472e-01 -5.445287e-02 -4.572120e-03 -1.446425e-01 -8.439235e-03 -8.162832e-02 -9.636917e-03 -9.684399e-02 -3.938204e-02 2.262821e-02 -3.943612e-03 1.866848e-01
<VARIANCE> 39
 1.248798e+01 1.128952e+01 2.833151e+01 2.251678e+01 3.136157e+01 4.506967e+01 4.821220e+01 4.280178e+01 4.553311e+01 3.845611e+01 3.569100e+01 2.637624e+01 1.225321e+01 7.383509e-01 9.425061e-01 1.956729e+00 1.826696e+00 3.404395e+00 3.017247e+00 2.742013e+00 3.127299e+00 3.361906e+00 2.937270e+00 2.937325e+00 2.353049e+00 8.168851e-01 1.591799e-01 2.374438e-01 3.855206e-01 3.541099e-01 6.118377e-01 5.987705e-01 5.442133e-01 6.102102e-01 6.153165e-01 5.645854e-01 5.391392e-01 4.616110e-01 1.071511e-01
<GCONST> 1.121466e+02
<STATE> 3
<MEAN> 39
 -7.993824e+00 2.056152e+00 3.503518e+00 3.300692e+00 -9.224771e-01 -3.363683e+00 -2.539317e+00 -9.265673e-02 -2.678082e+00 9.392055e-01 -1.180141e+00 6.529828e-01 5.555784e+01 -1.509790e+00 -2.274710e+00 2.674326e-01 -8.355634e-01 -9.936725e-02 3.572899e-01 -2.836541e-01 8.622571e-01 -5.036046e-01 8.727210e-01 -3.930653e-01 1.196793e-01 2.244595e+00 -2.013109e-01 1.344592e-01 1.981636e-02 -3.179017e-01 -1.860090e-01 -7.361627e-02 3.726760e-02 2.217150e-02 6.359145e-02 1.684087e-01 -5.446925e-02 3.238532e-03 2.962869e-01
<VARIANCE> 39
 1.760625e+01 4.920095e+01 3.716465e+01 3.275119e+01 2.949143e+01 3.792806e+01 4.151609e+01 4.704367e+01 4.335879e+01 3.256150e+01 2.488129e+01 2.148685e+01 2.872227e+01 2.069848e+00 3.724690e+00 4.049363e+00 3.729303e+00 3.880954e+00 4.643000e+00 3.738687e+00 5.186152e+00 3.944849e+00 3.592108e+00 2.794040e+00 2.724814e+00 3.000291e+00 3.490758e-01 1.180671e+00 5.849114e-01 5.368563e-01 6.093447e-01 6.854286e-01 6.094880e-01 9.198268e-01 6.789580e-01 6.605983e-01 4.779693e-01 5.010754e-01 6.870446e-01
<GCONST> 1.273248e+02
<STATE> 4
<NUMMIXES> 2
<MIXTURE> 1 5.047514e-01
<MEAN> 39
 -1.363207e+01 2.072581e+00 5.668531e+00 -2.581128e+00 -2.914831e+00 -2.656689e+00 -2.254963e+00 1.173069e-01 -2.230089e+00 4.109317e+00 -2.306904e+00 2.149763e+00 6.227117e+01 9.858871e-01 1.521508e+00 7.048842e-01 9.271036e-01 2.095536e-02 9.377021e-02 4.171185e-01 3.845028e-02 2.859946e-01 -2.380839e-01 5.544590e-01 -1.080961e-02 -1.069861e-01 6.407766e-01 2.219072e-01 -2.167888e-02 5.110490e-01 -7.495240e-02 -5.594606e-02 1.037558e-01 -7.483607e-02 4.011262e-02 -2.757801e-01 2.527100e-01 -1.459911e-01 -9.379314e-02
<VARIANCE> 39
 3.247087e+01 4.081715e+01 4.787152e+01 5.695040e+01 5.527988e+01 6.444228e+01 5.197834e+01 5.623840e+01 4.756602e+01 4.446601e+01 3.486805e+01 2.877575e+01 1.885108e+01 4.534643e+00 3.316811e+00 2.617221e+00 6.028987e+00 4.560366e+00 4.134473e+00 3.126291e+00 3.590562e+00 3.373701e+00 3.968364e+00 3.523315e+00 2.858999e+00 2.366914e+00 4.855031e-01 9.429647e-01 6.248813e-01 9.910638e-01 9.690735e-01 8.927297e-01 6.936057e-01 7.190911e-01 7.049220e-01 7.606857e-01 6.464863e-01 5.362263e-01 8.077568e-01
<GCONST> 1.330336e+02
<MIXTURE> 2 4.952498e-01
<MEAN> 39
 -1.371936e+01 1.120187e+00 5.331256e+00 -2.381028e+00 -3.616839e+00 -2.954055e+00 -2.453358e+00 -2.124187e-02 -2.874227e+00 3.642221e+00 -2.591588e+00 1.130400e+00 6.218834e+01 1.714566e-01 7.465305e-01 -6.095120e-02 -2.431482e-01 -5.345249e-01 -5.328939e-01 -2.588607e-01 -4.450695e-01 -4.831138e-02 -3.220989e-01 5.518729e-02 -2.019127e-01 2.669433e-02 4.390849e-01 2.730122e-01 -1.026425e-01 3.122795e-01 -3.851109e-02 -1.341734e-01 -7.377770e-03 -1.535562e-01 -1.428612e-02 -2.617005e-01 1.795294e-01 -2.664249e-02 -3.590542e-01
<VARIANCE> 39
 3.591169e+01 4.372871e+01 4.789705e+01 5.670095e+01 5.579170e+01 6.740658e+01 5.014538e+01 5.852673e+01 4.648765e+01 4.355095e+01 3.584303e+01 2.755562e+01 2.310042e+01 3.983521e+00 3.564024e+00 2.727969e+00 5.011367e+00 4.331454e+00 4.164638e+00 3.057213e+00 3.479436e+00 3.722358e+00 4.033355e+00 3.243527e+00 2.737526e+00 2.601408e+00 4.764572e-01 1.061661e+00 6.269511e-01 8.555442e-01 9.130492e-01 9.096229e-01 5.881740e-01 7.713450e-01 7.151750e-01 7.382356e-01 6.386096e-01 5.471856e-01 6.462972e-01
<GCONST> 1.327750e+02
<TRANSP> 5
 0.000000e+00 1.000000e+00 0.000000e+00 0.000000e+00 0.000000e+00
 0.000000e+00 9.204853e-01 7.951473e-02 0.000000e+00 0.000000e+00
 0.000000e+00 0.000000e+00 7.386521e-01 2.613479e-01 0.000000e+00
 0.000000e+00 0.000000e+00 0.000000e+00 8.328912e-01 1.671088e-01
 0.000000e+00 0.000000e+00 0.000000e+00 0.000000e+00 0.000000e+00
<ENDHMM>
~h "l"
<BEGINHMM>
<NUMSTATES> 5
<STATE> 2
<NUMMIXES> 2
<MIXTURE> 1 5.074196e-01
<MEAN> 39
 5.891559e-01 8.639315e+00 -3.617440e-01 7.589520e-01 -6.417933e-01 -3.283274e+00 -3.449616e+00 -3.456467e+00 1.591614e+00 1.915653e+00 -6.206532e-01 -1.899998e-01 6.395005e+01 4.807184e-01 4.060987e-01 -3.978059e-01 -1.608246e-01 4.439355e-01 7.260299e-02 1.059997e-01 -5.551358e-01 2.981519e-01 4.435351e-01 -1.429176e-01 -3.999678e-02 1.214802e-01 -3.751958e-02 -2.028198e-02 -2.326793e-03 1.978811e-02 -1.839275e-02 1.909696e-02 6.127048e-02 -3.134001e-02 -3.112205e-02 7.078776e-03 5.934453e-02 5.486144e-02 -4.351518e-02
<VARIANCE> 39
 2.091833e+01 2.906643e+01 5.547314e+01 5.481947e+01 4.878930e+01 6.542089e+01 6.766619e+01 7.339753e+01 6.022118e+01 5.415764e+01 3.887294e+01 4.945922e+01 2.456356e+01 1.671722e+00 1.437969e+00 2.327077e+00 2.942909e+00 2.501485e+00 2.988436e+00 2.947872e+00 3.867294e+00 3.674696e+00 3.006239e+00 3.020987e+00 3.059820e+00 1.052889e+00 2.757487e-01 2.526517e-01 3.882622e-01 5.291141e-01 4.271113e-01 4.986179e-01 5.181020e-01 7.343044e-01 6.072618e-01 5.312104e-01 5.162528e-01 5.127628e-01 1.339985e-01
<GCONST> 1.222327e+02
<MIXTURE> 2 4.925816e-01
<MEAN> 39
 7.576286e-01 8.364390e+00 4.679188e-01 8.881137e-01 -8.957698e-01 -3.013015e+00 -4.804122e+00 -3.100146e+00 1.110216e+00 1.455398e+00 -1.444606e+00 -8.952647e-01 6.417992e+01 6.009946e-01 3.715487e-03 -9.259276e-01 -3.943678e-01 4.543853e-02 -2.009169e-01 -3.413945e-01 -5.414103e-01 3.093054e-01 3.740342e-01 -1.010311e-01 -3.287394e-01 3.853866e-01 -2.063535e-01 -1.469933e-01 -5.374637e-02 -1.760751e-02 -6.707164e-02 1.551186e-02 1.006064e-01 3.455456e-02 1.466049e-02 -2.489919e-02 1.148328e-02 2.764755e-03 -7.969240e-02
<VARIANCE> 39
 1.833161e+01 3.065170e+01 5.972608e+01 5.252284e+01 4.807056e+01 5.948442e+01 6.765356e+01 7.100905e+01 5.282687e+01 4.887952e+01 3.729244e+01 4.321732e+01 2.657637e+01 1.712513e+00 1.338502e+00 2.107167e+00 2.803690e+00 2.787773e+00 3.483469e+00 3.191230e+00 4.304423e+00 3.497683e+00 2.978303e+00 3.029681e+00 3.280256e+00 1.120741e+00 3.053995e-01 2.777573e-01 4.201542e-01 5.479812e-01 4.630453e-01 5.327090e-01 5.809985e-01 6.901302e-01 5.628763e-01 4.765225e-01 5.492350e-01 5.373869e-01 1.430906e-01
<GCONST> 1.225397e+02
<STATE> 3
<MEAN> 39
 2.941621e+00 7.091574e+00 -3.681356e+00 -1.443886e+00 7.184414e-01 -1.738663e-01 -6.878222e+00 -4.869132e+00 2.998217e+00 5.118599e+00 -1.115246e+00 -4.865723e+00 6.669494e+01 7.383981e-03 2.578553e-01 3.213754e-02 -1.829237e-01 2.313111e-01 5.250373e-02 8.442555e-02 -4.322762e-01 -3.828360e-02 1.449095e-01 1.234230e-01 2.442336e-01 -1.688692e-01 -1.192539e-02 2.096232e-03 7.972921e-02 3.849963e-02 -2.457564e-02 -3.653801e-02 1.939793e-02 5.522662e-02 -4.090012e-02 -9.199538e-02 2.770936e-02 6.687786e-02 -3.133906e-02
<VARIANCE> 39
 5.104909e+00 1.657463e+01 2.302740e+01 3.560529e+01 2.413106e+01 5.298833e+01 4.823484e+01 7.108018e+01 6.968808e+01 5.900085e+01 3.440858e+01 3.499504e+01 1.325765e+01 1.518311e-01 3.651405e-01 7.261881e-01 9.364552e-01 9.876721e-01 1.188431e+00 1.319790e+00 1.774586e+00 1.483550e+00 1.980173e+00 1.393558e+00 1.171298e+00 2.219676e-01 2.173157e-02 4.165865e-02 8.893674e-02 1.068383e-01 1.472615e-01 1.485340e-01 1.805864e-01 2.209715e-01 2.246998e-01 2.307297e-01 2.069874e-01 1.748795e-01 1.969532e-02
<GCONST> 8.500030e+01
<STATE> 4
<NUMMIXES> 2
<MIXTURE> 1 5.076218e-01
<MEAN> 39
 3.416210e+00 1.320834e+01 -4.425403e+00 -4.963530e+00 2.426781e+00 -2.440488e+00 1.044235e+00 -1.174375e+01 4.183065e-01 3.414307e+00 1.938981e+00 4.091390e+00 6.325208e+01 -6.208953e-02 2.436322e-02 2.859323e-01 2.194764e-01 4.097768e-02 -3.171491e-02 -1.627765e-02 2.336811e-01 -5.424264e-02 -9.117754e-02 1.539468e-01 1.084888e-01 -1.801820e-01 -4.353649e-02 -5.108926e-02 2.862900e-02 7.931058e-02 -4.499479e-02 2.214499e-02 -1.357562e-02 1.107018e-01 4.167686e-02 1.330829e-02 -5.199195e-02 -7.859797e-02 2.842699e-02
<VARIANCE> 39
 3.914240e+00 1.219240e+01 3.270945e+01 4.296084e+01 2.962626e+01 5.269471e+01 6.914863e+01 6.305298e+01 5.613609e+01 6.594164e+01 3.463445e+01 3.715110e+01 1.009836e+01 1.985966e-01 4.122484e-01 7.944686e-01 1.197529e+00 1.199441e+00 1.276139e+00 1.609923e+00 1.994650e+00 1.774858e+00 1.996620e+00 1.581652e+00 1.571973e+00 2.881704e-01 3.503073e-02 5.692334e-02 1.229285e-01 1.542346e-01 1.843855e-01 2.232857e-01 2.601987e-01 3.149023e-01 2.959322e-01 2.648033e-01 2.574959e-01 2.472510e-01 2.909587e-02
<GCONST> 9.147198e+01
<MIXTURE> 2 4.923804e-01
<MEAN> 39
 3.132676e+00 1.268672e+01 -3.743924e+00 -4.349717e+00 1.978930e+00 -1.643238e+00 -5.146837e-01 -1.083299e+01 -1.165896e-01 2.856141e+00 8.860435e-01 2.187392e+00 6.300500e+01 -1.043481e-01 -9.170353e-02 1.968053e-01 2.025672e-01 -7.288483e-02 -2.350923e-01 -1.770910e-01 2.407889e-01 -7.864415e-03 -1.878982e-01 -1.262626e-01 -2.133556e-01 -7.423376e-02 -4.955750e-02 -7.424149e-02 1.625066e-02 5.556216e-02 -8.611223e-02 -2.917083e-02 -2.957927e-02 1.254995e-01 2.356981e-02 1.698000e-04 -4.251717e-02 -6.438886e-02 2.675919e-02
<VARIANCE> 39
 4.953366e+00 1.269321e+01 3.077520e+01 4.535737e+01 2.945735e+01 5.374780e+01 6.940350e+01 6.448180e+01 5.318043e+01 6.988937e+01 3.548221e+01 3.542059e+01 1.181890e+01 2.390674e-01 4.749566e-01 8.000933e-01 1.315816e+00 1.270934e+00 1.349846e+00 1.845741e+00 2.115031e+00 1.971528e+00 2.329169e+00 1.675717e+00 1.881837e+00 3.402916e-01 4.070792e-02 6.133165e-02 1.244778e-01 1.645958e-01 1.976181e-01 2.281379e-01 2.909649e-01 3.372163e-01 3.130049e-01 3.253718e-01 2.788569e-01 2.850433e-01 3.392209e-02
<GCONST> 9.453062e+01
<TRANSP> 5
 0.000000e+00 1.000000e+00 0.000000e+00 0.000000e+00 0.000000e+00
 0.000000e+00 6.599284e-01 3.400716e-01 0.000000e+00 0.000000e+00
 0.000000e+00 0.000000e+00 8.812204e-01 1.187796e-01 0.000000e+00
 0.000000e+00 0.000000e+00 0.000000e+00 8.799564e-01 1.200436e-01
 0.000000e+00 0.000000e+00 0.000000e+00 0.000000e+00 0.000000e+00
<ENDHMM>
~h "m"
<BEGINHMM>
<NUMSTATES> 5
<STATE> 2
<NUMMIXES> 2
<MIXTURE> 1 4.981306e-01
<MEAN> 39
 1.549435e+00 5.889832e+00 3.662605e+00 1.009202e+01 6.924536e-01 -2.778045e+00 -1.557314e+00 -1.253178e+00 -1.746403e+00 5.496290e-01 -1.304328e+00 -4.212842e+00 6.049612e+01 2.111980e-01 5.798550e-01 9.654664e-01 1.625651e+00 1.086241e+00 -4.735656e-01 1.254637e-01 -1.089704e+00 -5.178107e-01 9.606667e-01 -1.513501e-01 -5.403615e-01 -5.050428e-01 -5.983761e-02 -7.880048e-02 8.193647e-02 -5.291206e-02 -1.576021e-01 -1.168165e-01 -4.595168e-02 -5.860814e-02 -1.561319e-02 1.144435e-01 3.395260e-02 6.018119e-03 1.728867e-01
<VARIANCE> 39
 1.523848e+01 1.776661e+01 3.017799e+01 3.000626e+01 4.183709e+01 3.843779e+01 4.057817e+01 4.484071e+01 4.547528e+01 4.713115e+01 3.734013e+01 2.934047e+01 2.769663e+01 1.176094e+00 1.146428e+00 2.357470e+00 1.969832e+00 2.537707e+00 3.011910e+00 2.696060e+00 4.344638e+00 2.460866e+00 4.017917e+00 1.968296e+00 2.379017e+00 1.280693e+00 1.191410e-01 1.895352e-01 3.570176e-01 3.755800e-01 4.549260e-01 4.513228e-01 5.050675e-01 8.058211e-01 3.970013e-01 6.454645e-01 3.714195e-01 4.088277e-01 1.503171e-01
<GCONST> 1.139545e+02
<MIXTURE> 2 5.018715e-01
<MEAN> 39
 1.486531e+00 6.132001e+00 4.584433e+00 1.013645e+01 3.511272e-01 -3.257631e+00 -3.074198e+00 -1.523301e+00 -2.207691e+00 3.623582e-01 -1.781208e+00 -4.975696e+00 6.062173e+01 2.627048e-01 1.510561e-01 5.303208e-01 1.074485e+00 6.715192e-01 -6.747828e-01 -1.820015e-01 -9.852128e-01 -6.794189e-01 7.938974e-01 -2.545095e-01 -7.478743e-01 -2.111060e-01 -1.756576e-01 -1.211652e-01 5.474315e-03 -1.486050e-01 -1.510235e-01 -8.353925e-02 2.460567e-02 -5.590305e-02 -7.038268e-03 1.197454e-01 2.107953e-03 7.468197e-02 2.670117e-02
<VARIANCE> 39
 1.207683e+01 2.163266e+01 3.250734e+01 3.218939e+01 4.501639e+01 4.192035e+01 3.543021e+01 4.250020e+01 5.144291e+01 4.596938e+01 3.173785e+01 2.759929e+01 2.786234e+01 1.084119e+00 1.242575e+00 2.084265e+00 2.210222e+00 3.165674e+00 2.581961e+00 2.926839e+00 4.227445e+00 2.276311e+00 3.736581e+00 2.056379e+00 2.508533e+00 1.657906e+00 1.465259e-01 2.481704e-01 3.611661e-01 3.940398e-01 5.151168e-01 4.214264e-01 4.828461e-01 6.786010e-01 3.942260e-01 6.307823e-01 3.440260e-01 3.821713e-01 1.781642e-01
<GCONST> 1.146028e+02
<STATE> 3
<MEAN> 39
 2.554937e+00 6.234742e+00 7.006059e+00 1.491855e+01 1.542379e+00 -5.534971e+00 -1.861726e+00 -6.482951e+00 -3.306807e+00 5.304941e+00 -2.995807e+00 -6.572207e+00 6.071745e+01 -7.693904e-03 2.399240e-02 8.077325e-02 1.496703e-02 4.585590e-02 6.123265e-02 -3.185920e-02 -9.988175e-02 -2.365923e-02 -3.343238e-03 2.941050e-03 1.423554e-02 -1.421957e-02 4.851903e-04 9.165935e-03 -8.676496e-02 -1.438761e-01 -2.812884e-02 9.511477e-02 5.290896e-03 1.137410e-01 5.028507e-02 -1.208428e-01 1.923234e-02 6.421328e-02 2.424236e-02
<VARIANCE> 39
 2.667375e+00 1.069613e+01 9.384283e+00 1.710912e+01 2.345992e+01 4.143557e+01 3.426642e+01 3.147233e+01 3.462739e+01 3.937614e+01 2.810131e+01 3.431712e+01 7.856517e+00 1.297737e-01 3.215529e-01 4.670697e-01 7.588955e-01 8.046615e-01 1.219297e+00 1.080662e+00 1.280136e+00 1.294267e+00 1.576459e+00 1.288040e+00 1.370118e+00 1.448754e-01 2.383360e-02 4.656394e-02 1.010549e-01 1.605201e-01 1.591842e-01 2.216540e-01 2.091827e-01 2.564319e-01 2.383955e-01 2.901914e-01 2.275683e-01 2.398987e-01 2.287406e-02
<GCONST> 7.900976e+01
<STATE> 4
<NUMMIXES> 2
<MIXTURE> 1 5.093564e-01
<MEAN> 39
 2.225464e+00 6.710107e+00 6.462539e+00 1.333962e+01 3.178584e+00 -4.332386e+00 -2.299636e+00 -4.738765e+00 -3.227245e+00 2.894616e+00 -2.075816e+00 -5.423757e+00 6.092989e+01 -1.046500e-01 1.829241e-02 -6.490068e-01 -1.481553e+00 -6.607180e-01 7.435150e-01 -5.468080e-03 1.454758e+00 6.856157e-01 -1.068521e+00 3.083755e-01 9.271181e-01 4.805457e-01 -1.207130e-03 -4.337833e-02 -1.722015e-01 -3.896840e-01 -4.234277e-01 1.800723e-01 1.110733e-01 3.494811e-01 1.431012e-01 -2.641311e-01 1.211086e-02 2.034205e-01 1.304417e-01
<VARIANCE> 39
 5.123946e+00 1.737551e+01 1.586826e+01 2.407095e+01 2.420113e+01 3.998706e+01 3.049277e+01 2.912752e+01 3.624814e+01 3.500216e+01 2.922988e+01 3.477718e+01 1.455145e+01 4.629098e-01 1.004588e+00 2.071380e+00 2.069997e+00 2.973474e+00 2.334377e+00 2.414253e+00 2.715368e+00 2.518649e+00 3.717514e+00 2.018223e+00 2.817652e+00 9.649063e-01 9.950911e-02 1.389093e-01 3.671596e-01 3.294603e-01 4.557166e-01 4.386804e-01 4.411650e-01 5.021858e-01 4.375024e-01 4.755264e-01 3.900633e-01 4.618939e-01 8.821630e-02
<GCONST> 1.057479e+02
<MIXTURE> 2 4.906429e-01
<MEAN> 39
 1.595463e+00 6.784419e+00 6.213355e+00 1.210950e+01 3.144658e+00 -4.205469e+00 -3.003853e+00 -4.693704e+00 -2.940164e+00 2.141370e+00 -2.588020e+00 -5.497526e+00 6.035070e+01 -1.635881e-01 -2.757359e-01 -7.779783e-01 -1.666614e+00 -8.139510e-01 5.114026e-01 -1.396891e-01 1.347832e+00 6.761501e-01 -1.086220e+00 5.646725e-02 6.768931e-01 5.111630e-01 -1.993778e-02 -1.132255e-01 -1.908841e-01 -3.193244e-01 -3.647524e-01 1.438075e-01 5.565657e-02 3.386949e-01 3.468195e-03 -3.053443e-01 -4.984836e-02 1.090615e-01 1.026283e-01
<VARIANCE> 39
 6.118192e+00 1.941918e+01 1.929353e+01 2.460645e+01 2.316148e+01 3.894623e+01 2.964691e+01 2.656194e+01 3.959514e+01 3.132095e+01 2.487777e+01 2.857821e+01 1.861407e+01 6.321424e-01 1.027966e+00 2.215928e+00 2.175259e+00 2.928251e+00 2.564320e+00 2.148303e+00 3.136551e+00 2.628546e+00 3.589185e+00 2.114198e+00 2.609573e+00 9.900678e-01 9.574313e-02 1.949967e-01 3.771448e-01 3.486297e-01 4.515331e-01 5.220584e-01 4.370105e-01 5.330164e-01 4.508659e-01 4.553457e-01 3.677188e-01 4.154649e-01 1.009047e-01
<GCONST> 1.070450e+02
<TRANSP> 5
 0.000000e+00 1.000000e+00 0.000000e+00 0.000000e+00 0.000000e+00
 0.000000e+00 7.867346e-01 2.132653e-01 0.000000e+00 0.000000e+00
 0.000000e+00 0.000000e+00 9.098387e-01 9.016130e-02 0.000000e+00
 0.000000e+00 0.000000e+00 0.000000e+00 6.754661e-01 3.245338e-01
 0.000000e+00 0.000000e+00 0.000000e+00 0.000000e+00 0.000000e+00
<ENDHMM>
~h "n"
<BEGINHMM>
<NUMSTATES> 5
<STATE> 2
<NUMMIXES> 2
<MIXTURE> 1 5.018093e-01
<MEAN> 39
 1.034017e+00 6.175639e+00 6.271579e+00 9.924566e+00 -1.756832e+00 -2.824109e+00 -1.298115e+00 -1.147509e+00 -1.030563e+00 2.752147e-01 -3.781774e+00 -4.932340e+00 6.354293e+01 3.306075e-01 4.532711e-01 7.768713e-01 1.669289e+00 6.697581e-01 -4.257064e-01 2.541753e-01 -1.676858e+00 -1.276100e-02 1.924624e+00 -1.134796e+00 -3.712918e-01 -1.157741e+00 -1.217040e-03 -1.756190e-02 -1.133543e-02 3.345296e-03 -3.231440e-01 1.044720e-01 1.439328e-01 -1.992765e-01 5.446522e-02 1.131471e-01 -6.473359e-02 6.665569e-02 8.121091e-02
<VARIANCE> 39
 7.715810e+00 1.941185e+01 2.596826e+01 3.290560e+01 3.014471e+01 3.168609e+01 4.054705e+01 5.126735e+01 4.818495e+01 4.846360e+01 3.214222e+01 2.756539e+01 1.415674e+01 6.677652e-01 1.048094e+00 1.858981e+00 2.291681e+00 3.113528e+00 2.864796e+00 2.619251e+00 4.709409e+00 2.403622e+00 3.176172e+00 2.468848e+00 2.228470e+00 6.216750e-01 1.094943e-01 1.662019e-01 2.698891e-01 5.674300e-01 4.221914e-01 4.408126e-01 4.246100e-01 7.649340e-01 3.940500e-01 6.155444e-01 4.754469e-01 3.374292e-01 1.349655e-01
<GCONST> 1.102487e+02
<MIXTURE> 2 4.981903e-01
<MEAN> 39
 8.007502e-01 6.236455e+00 6.198857e+00 9.165165e+00 -2.036221e+00 -2.856220e+00 -1.860820e+00 -1.218160e+00 -1.602231e+00 -3.858609e-01 -4.177491e+00 -5.329481e+00 6.349434e+01 3.201496e-01 3.883931e-01 6.477115e-01 1.520118e+00 6.709043e-01 -4.757530e-01 7.698318e-02 -1.575000e+00 -1.265069e-01 1.734492e+00 -1.082203e+00 -6.559790e-01 -1.073223e+00 1.439798e-02 -5.557230e-02 2.814977e-04 3.885974e-02 -2.853635e-01 5.724852e-02 1.321830e-01 -1.664538e-01 -4.003531e-03 1.113551e-01 -7.853644e-02 4.654531e-02 5.065164e-02
<VARIANCE> 39
 8.017643e+00 1.986476e+01 2.648539e+01 3.344445e+01 3.155319e+01 3.318740e+01 4.037292e+01 5.163199e+01 4.799829e+01 5.333723e+01 3.217467e+01 2.770665e+01 1.578990e+01 6.656501e-01 9.531038e-01 1.790399e+00 2.352513e+00 2.977382e+00 2.775788e+00 2.537047e+00 4.668518e+00 2.378586e+00 3.365885e+00 2.448709e+00 2.167634e+00 6.655857e-01 1.232949e-01 1.672521e-01 2.631426e-01 5.726522e-01 4.186769e-01 4.309178e-01 4.271263e-01 7.800638e-01 4.138517e-01 6.787940e-01 4.631965e-01 3.349400e-01 1.492932e-01
<GCONST> 1.108190e+02
<STATE> 3
<MEAN> 39
 2.226003e+00 7.829496e+00 8.626632e+00 1.354939e+01 -2.237788e+00 -3.985302e+00 -2.512254e-01 -7.532040e+00 -1.231854e+00 6.286170e+00 -7.004269e+00 -6.056789e+00 6.000760e+01 1.086081e-02 2.486084e-01 1.816118e-02 -9.325331e-02 5.198511e-02 5.178996e-02 -2.891682e-02 -1.732629e-01 -7.849079e-02 1.700755e-02 1.589255e-01 6.170976e-02 -2.160690e-01 -6.016387e-02 9.282410e-03 -3.369774e-02 -1.514434e-01 7.464007e-02 4.930379e-02 -4.839434e-02 1.959528e-01 -2.105869e-02 -2.071635e-01 1.224360e-01 4.219774e-02 3.519737e-02
<VARIANCE> 39
 3.200167e+00 1.262311e+01 9.552784e+00 1.792354e+01 1.955199e+01 2.321862e+01 2.509480e+01 2.756742e+01 3.400648e+01 3.559115e+01 2.225607e+01 2.251163e+01 8.023136e+00 1.541862e-01 3.486095e-01 5.140019e-01 7.647540e-01 8.977567e-01 1.058154e+00 1.164042e+00 1.475822e+00 1.374969e+00 1.584916e+00 1.208959e+00 1.227865e+00 1.333775e-01 3.367568e-02 6.340375e-02 1.113791e-01 1.803248e-01 1.730631e-01 2.065119e-01 2.287958e-01 3.113337e-01 2.468728e-01 3.224294e-01 2.456590e-01 2.316032e-01 2.469808e-02
<GCONST> 7.923727e+01
<STATE> 4
<NUMMIXES> 2
<MIXTURE> 1 5.153583e-01
<MEAN> 39
 1.566225e-01 1.103392e+01 8.302586e+00 1.063182e+01 1.172586e+00 -1.814820e+00 -1.321540e-01 -5.270651e+00 -1.902434e+00 2.667988e+00 -4.650823e+00 -4.467638e+00 5.705019e+01 -5.221761e-01 1.345379e-01 1.506576e-01 -6.564782e-01 5.980915e-01 4.019342e-01 1.144395e-01 9.471746e-01 -6.048018e-02 -6.427129e-01 5.121427e-01 5.210940e-01 -1.547078e-01 -1.049205e-01 -1.510991e-01 -3.999071e-02 -1.126656e-01 -5.711506e-02 -3.257939e-02 3.283083e-03 1.573160e-01 7.424035e-02 -5.370025e-02 3.817089e-02 1.124860e-01 1.212857e-01
<VARIANCE> 39
 9.873567e+00 1.329747e+01 1.225419e+01 2.327057e+01 2.440354e+01 2.736471e+01 3.006380e+01 3.847734e+01 3.462360e+01 4.745125e+01 2.483377e+01 2.449836e+01 1.292725e+01 9.718062e-01 1.144235e+00 1.285723e+00 2.195400e+00 2.023621e+00 2.548626e+00 2.677064e+00 3.079789e+00 2.494293e+00 2.857863e+00 2.423149e+00 2.146132e+00 7.385139e-01 1.909399e-01 1.977754e-01 2.370007e-01 3.673907e-01 3.912528e-01 4.688207e-01 4.794823e-01 5.998320e-01 4.469359e-01 5.404344e-01 4.354029e-01 4.124577e-01 1.147888e-01
<GCONST> 1.063810e+02
<MIXTURE> 2 4.846410e-01
<MEAN> 39
 -8.828493e-01 1.016999e+01 8.012550e+00 9.711135e+00 1.353553e+00 -2.236679e+00 -6.043631e-01 -4.488791e+00 -2.256647e+00 9.963742e-01 -4.673570e+00 -3.832915e+00 5.636481e+01 -7.263901e-01 -3.012936e-01 -3.261699e-01 -9.063273e-01 1.875823e-01 -1.084895e-01 -2.073822e-01 6.256286e-01 -2.493550e-01 -8.167267e-01 6.378667e-02 2.607192e-01 -2.606077e-01 -1.005683e-01 -1.499546e-01 -1.587511e-01 -1.544865e-01 -1.924592e-01 -7.959147e-02 -8.164100e-02 5.265881e-03 3.713415e-02 -4.085395e-02 3.354298e-02 5.299378e-02 5.207737e-02
<VARIANCE> 39
 9.828504e+00 1.625546e+01 1.448544e+01 2.530952e+01 3.261011e+01 3.027939e+01 2.963734e+01 3.437721e+01 3.398074e+01 4.348241e+01 2.599253e+01 2.689346e+01 1.352308e+01 9.105501e-01 1.255334e+00 1.540339e+00 2.208226e+00 2.392591e+00 2.766955e+00 2.557094e+00 3.272123e+00 2.512995e+00 3.317515e+00 2.433509e+00 2.279996e+00 7.866649e-01 1.619713e-01 2.155198e-01 2.852332e-01 3.879146e-01 4.763542e-01 4.996356e-01 5.057073e-01 6.464999e-01 4.835265e-01 6.180257e-01 4.748396e-01 4.237963e-01 1.345339e-01
<GCONST> 1.089686e+02
<TRANSP> 5
 0.000000e+00 1.000000e+00 0.000000e+00 0.000000e+00 0.000000e+00
 0.000000e+00 7.732927e-01 2.267072e-01 0.000000e+00 0.000000e+00
 0.000000e+00 0.000000e+00 8.996980e-01 1.003021e-01 0.000000e+00
 0.000000e+00 0.000000e+00 0.000000e+00 8.204002e-01 1.795998e-01
 0.000000e+00 0.000000e+00 0.000000e+00 0.000000e+00 0.000000e+00
<ENDHMM>
~h "p"
<BEGINHMM>
<NUMSTATES> 5
<STATE> 2
<NUMMIXES> 2
<MIXTURE> 1 5.261384e-01
<MEAN> 39
 -1.869431e+00 8.484999e+00 5.469943e+00 4.628074e+00 2.969018e+00 -2.373113e+00 -2.494583e-01 6.249753e-01 -6.560197e-01 1.756231e+00 -2.435970e+00 -1.751923e+00 5.622383e+01 -8.103424e-01 4.482455e-01 8.445071e-02 -2.602455e-01 3.733112e-01 3.423897e-01 8.164253e-01 3.761013e-01 2.561254e-01 -1.418751e-01 -3.261573e-01 1.644888e-01 -1.103951e+00 2.430749e-02 -1.564476e-01 -1.356131e-01 -2.762246e-02 -2.150335e-01 -4.117720e-02 -7.044337e-03 -9.627986e-02 -5.981086e-02 -5.314879e-02 1.670601e-01 3.645704e-02 1.108702e-01
<VARIANCE> 39
 1.959243e+01 2.175775e+01 1.920851e+01 2.506518e+01 3.944773e+01 3.803213e+01 4.020567e+01 3.910297e+01 3.184593e+01 2.709288e+01 3.137512e+01 2.098354e+01 1.597027e+01 1.116936e+00 2.028886e+00 2.013215e+00 2.758519e+00 2.678583e+00 2.837642e+00 2.893363e+00 4.177418e+00 3.452723e+00 3.371417e+00 3.095686e+00 2.739457e+00 1.447118e+00 1.951098e-01 3.113423e-01 3.449381e-01 4.308855e-01 3.757216e-01 4.441273e-01 5.858011e-01 7.152824e-01 6.676450e-01 5.929058e-01 4.905594e-01 5.001858e-01 2.020429e-01
<GCONST> 1.153194e+02
<MIXTURE> 2 4.738617e-01
<MEAN> 39
 -1.930738e+00 8.779318e+00 5.093115e+00 5.242745e+00 1.538164e+00 -3.710337e+00 -2.246542e+00 -7.494735e-02 -1.569026e+00 7.630062e-01 -2.034412e+00 -1.178096e+00 5.590730e+01 -1.049008e+00 2.306429e-01 -3.691264e-01 -6.029923e-01 -2.355478e-01 -1.341926e-01 4.417157e-01 -2.081286e-01 -6.326275e-02 -5.775860e-01 -6.959147e-01 3.099009e-01 -1.298525e+00 3.089841e-02 -3.497908e-01 -2.457423e-01 -9.299558e-02 -2.696597e-01 -4.397122e-02 -1.073490e-01 -1.099188e-01 -1.260805e-01 -1.429691e-01 1.590150e-01 -2.389139e-02 2.347806e-01
<VARIANCE> 39
 1.651599e+01 1.687716e+01 1.873369e+01 2.130806e+01 4.197457e+01 4.504882e+01 3.682299e+01 3.535233e+01 3.665171e+01 3.440909e+01 2.576170e+01 1.972314e+01 9.817504e+00 6.818013e-01 2.121950e+00 2.501220e+00 2.115956e+00 3.135524e+00 3.350497e+00 2.839419e+00 4.410548e+00 2.861097e+00 3.511017e+00 2.535856e+00 2.558785e+00 9.232520e-01 1.432386e-01 2.913961e-01 4.216290e-01 3.380486e-01 5.043433e-01 5.525821e-01 5.487956e-01 7.208008e-01 5.921245e-01 6.155140e-01 4.807617e-01 4.378553e-01 1.671502e-01
<GCONST> 1.129942e+02
<STATE> 3
<MEAN> 39
 -5.217248e+00 7.201922e+00 2.127903e+00 3.111161e+00 -2.286357e-01 -3.330066e+00 -1.445965e+00 -2.657227e+00 -8.138863e-01 -6.597273e-01 -1.310495e+00 -1.295401e-01 5.165697e+01 -1.132792e-01 -1.513576e-01 -1.006154e-01 -6.496237e-02 -1.807839e-03 9.137306e-02 8.234632e-03 -1.370282e-01 1.823428e-02 -3.590454e-02 6.394564e-02 5.448958e-02 -1.330947e-01 1.283469e-02 -8.320569e-03 4.439868e-02 2.648541e-02 3.598383e-02 2.704790e-03 -2.147293e-02 2.307758e-02 1.175364e-02 6.370898e-02 -1.172919e-02 -1.581013e-02 7.893921e-02
<VARIANCE> 39
 7.671643e+00 8.651695e+00 1.283824e+01 1.850489e+01 2.477119e+01 3.272619e+01 3.483208e+01 3.328726e+01 3.279612e+01 3.039377e+01 2.487836e+01 2.204408e+01 3.634724e+00 2.680163e-01 6.120779e-01 1.004655e+00 1.432963e+00 1.668914e+00 2.094675e+00 2.260810e+00 2.563513e+00 2.523229e+00 2.368070e+00 2.277810e+00 1.988630e+00 9.045176e-02 5.800841e-02 1.424732e-01 1.999957e-01 2.911356e-01 3.240774e-01 4.312335e-01 4.648183e-01 5.401249e-01 5.025016e-01 4.653704e-01 4.708420e-01 4.158385e-01 3.695061e-02
<GCONST> 9.468836e+01
<STATE> 4
<NUMMIXES> 2
<MIXTURE> 1 5.072508e-01
<MEAN> 39
 -7.907812e+00 3.215168e+00 1.864480e+00 2.327344e+00 2.057551e-01 -2.070009e+00 -9.845324e-01 -6.362425e-01 1.082303e+00 2.613891e-01 -8.705470e-01 -7.731317e-02 5.623109e+01 -1.935359e-02 -7.065400e-01 3.858387e-01 5.440557e-01 9.562854e-02 -2.366296e-01 -3.002921e-01 7.434192e-01 3.820312e-01 2.724706e-01 2.767793e-01 1.802743e-01 1.351329e+00 2.863168e-01 1.636793e-01 1.449858e-01 1.375751e-01 -8.565842e-02 -1.146313e-01 -8.225023e-02 4.475389e-02 -8.889142e-02 -9.726279e-02 1.123980e-01 -1.490945e-02 1.778041e-01
<VARIANCE> 39
 1.328367e+01 3.205027e+01 1.811188e+01 2.537726e+01 2.917971e+01 3.795222e+01 3.872388e+01 3.225442e+01 3.684253e+01 3.814436e+01 2.307435e+01 2.346540e+01 5.301687e+01 2.001583e+00 3.182616e+00 2.098741e+00 2.895678e+00 3.061771e+00 4.609674e+00 3.788449e+00 4.002015e+00 3.344301e+00 3.912241e+00 2.246747e+00 2.520567e+00 5.109228e+00 3.741575e-01 6.450313e-01 3.763507e-01 5.989774e-01 5.224996e-01 8.156992e-01 7.658620e-01 6.920903e-01 6.205069e-01 6.455970e-01 4.772746e-01 5.424553e-01 9.462731e-01
<GCONST> 1.237525e+02
<MIXTURE> 2 4.927490e-01
<MEAN> 39
 -9.621058e+00 2.574275e+00 1.088367e+00 1.036080e+00 -3.564628e-01 -2.045035e+00 -1.888314e+00 -1.967386e+00 9.289496e-02 -1.464208e-01 -8.860810e-01 7.517368e-02 5.510688e+01 -7.967771e-01 -9.853546e-01 -1.350839e-01 -2.788835e-01 -2.501674e-01 -4.986964e-01 -6.400068e-01 4.300477e-01 1.521975e-01 9.095849e-02 2.276463e-03 -1.627081e-01 8.820792e-01 1.284911e-01 6.603363e-02 6.192450e-02 1.247405e-02 -9.147087e-02 -1.873945e-01 -6.253020e-02 1.109296e-01 -8.463910e-03 -7.053950e-02 2.074353e-02 -6.196177e-02 4.542062e-04
<VARIANCE> 39
 2.257426e+01 2.587621e+01 1.854101e+01 2.502021e+01 2.180049e+01 3.701292e+01 3.758438e+01 3.049412e+01 3.016595e+01 3.269645e+01 1.921934e+01 2.147451e+01 1.425461e+02 2.514422e+00 2.153650e+00 1.954798e+00 3.149449e+00 3.005657e+00 3.815181e+00 4.304458e+00 3.775435e+00 2.594480e+00 3.739419e+00 2.496608e+00 2.532125e+00 1.027391e+01 4.228414e-01 5.280752e-01 3.491812e-01 6.276328e-01 4.842798e-01 7.600136e-01 7.869437e-01 6.920007e-01 5.574544e-01 6.413618e-01 4.432081e-01 5.179363e-01 1.643442e+00
<GCONST> 1.243531e+02
<TRANSP> 5
 0.000000e+00 1.000000e+00 0.000000e+00 0.000000e+00 0.000000e+00
 0.000000e+00 7.925542e-01 2.074458e-01 0.000000e+00 0.000000e+00
 0.000000e+00 0.000000e+00 9.294772e-01 7.052281e-02 0.000000e+00
 0.000000e+00 0.000000e+00 0.000000e+00 8.392910e-01 1.607090e-01
 0.000000e+00 0.000000e+00 0.000000e+00 0.000000e+00 0.000000e+00
<ENDHMM>
~h "r"
<BEGINHMM>
<NUMSTATES> 5
<STATE> 2
<NUMMIXES> 2
<MIXTURE> 1 4.997295e-01
<MEAN> 39
 -1.861889e+00 -8.077048e-02 -5.414650e-02 6.541506e+00 1.425248e-02 -2.121860e+00 -5.146322e+00 -1.277668e+00 1.461505e+00 1.670639e+00 3.503610e-01 -9.601519e-01 6.135200e+01 1.490925e+00 7.615693e-01 9.403405e-02 5.807025e-01 1.311664e-01 1.776662e-02 1.964087e-03 9.586813e-02 -2.388798e-01 8.579059e-03 4.867429e-01 1.962457e-01 1.120148e-01 6.001189e-02 1.500520e-02 -1.601234e-02 -8.266687e-02 -1.655521e-01 -8.336168e-02 4.368618e-02 1.002721e-01 -6.435454e-02 -6.320995e-02 1.084621e-01 9.278135e-02 1.214355e-01
<VARIANCE> 39
 4.957689e+01 3.848889e+01 4.069894e+01 3.000267e+01 4.099019e+01 6.735019e+01 4.182838e+01 4.610901e+01 4.777475e+01 3.783117e+01 4.056775e+01 3.252566e+01 2.614025e+01 3.021537e+00 2.916069e+00 2.347669e+00 2.756949e+00 3.323350e+00 3.544243e+00 2.855294e+00 2.491529e+00 3.356997e+00 2.854489e+00 3.064714e+00 2.742003e+00 1.337715e+00 4.143280e-01 5.517133e-01 4.332562e-01 5.050303e-01 6.041458e-01 5.808860e-01 4.891759e-01 4.132308e-01 5.891270e-01 4.966145e-01 5.592563e-01 4.979445e-01 2.420865e-01
<GCONST> 1.233587e+02
<MIXTURE> 2 5.002711e-01
<MEAN> 39
 -2.199203e+00 -3.219546e-01 -2.254691e-01 5.885404e+00 -7.432246e-01 -2.535182e+00 -5.537915e+00 -8.601031e-01 9.460865e-01 7.634045e-01 5.630580e-02 -1.246739e+00 6.175761e+01 1.188144e+00 4.482739e-02 -5.000113e-01 -7.954923e-02 -6.067079e-01 -6.050037e-01 -6.049586e-01 -1.859841e-01 -3.165553e-01 2.477568e-02 4.768981e-01 1.118617e-01 2.764693e-01 -1.879097e-01 -1.262469e-01 5.043207e-04 -9.361127e-02 -1.054542e-01 -9.029286e-02 -1.866559e-03 -1.325414e-02 -4.750667e-02 -2.415607e-02 2.019020e-02 5.107509e-02 -4.266316e-02
<VARIANCE> 39
 6.747767e+01 3.588797e+01 3.923881e+01 3.239864e+01 3.833170e+01 6.382393e+01 4.172837e+01 4.602621e+01 4.894473e+01 3.570359e+01 3.930600e+01 3.317574e+01 3.072553e+01 2.529083e+00 2.053910e+00 2.358437e+00 2.405685e+00 2.924391e+00 3.401692e+00 3.082397e+00 2.623011e+00 3.510385e+00 2.911943e+00 3.047691e+00 2.684522e+00 1.444111e+00 4.125165e-01 4.512629e-01 3.780229e-01 4.999755e-01 5.109031e-01 5.698851e-01 5.034195e-01 4.300663e-01 6.085628e-01 4.673471e-01 4.970250e-01 4.830506e-01 1.843014e-01
<GCONST> 1.221225e+02
<STATE> 3
<MEAN> 39
 6.978261e+00 2.406017e+00 -4.061382e+00 6.575060e+00 -2.967520e+00 -2.772027e+00 -8.585265e+00 -2.485477e+00 -3.006272e+00 2.613361e+00 4.741099e+00 7.594596e-01 6.500994e+01 -3.368272e-02 -2.949910e-01 3.482454e-01 2.881748e-01 -2.179922e-01 -6.142676e-01 -1.254100e-01 5.075523e-01 3.760019e-01 -2.565450e-01 -2.124831e-01 -7.074554e-02 6.430344e-02 -1.302556e-01 5.241652e-02 1.418356e-01 -3.912563e-02 2.120782e-02 4.002418e-02 1.547585e-01 8.708876e-02 -2.444607e-02 -1.329760e-01 -6.317148e-02 -4.295756e-03 -4.257283e-02
<VARIANCE> 39
 6.264853e+00 1.491549e+01 3.177260e+01 1.851367e+01 2.721683e+01 5.963205e+01 4.653102e+01 5.337510e+01 5.334159e+01 4.246633e+01 5.455015e+01 3.684658e+01 1.068486e+01 2.824783e-01 5.849455e-01 1.101908e+00 9.687538e-01 1.223339e+00 2.031557e+00 1.925203e+00 2.135853e+00 2.060864e+00 2.348985e+00 2.318847e+00 1.669716e+00 2.628247e-01 5.559034e-02 7.284778e-02 1.039016e-01 1.270090e-01 1.830356e-01 2.464420e-01 2.736171e-01 3.096996e-01 3.135950e-01 3.091017e-01 3.483491e-01 2.888892e-01 2.552438e-02
<GCONST> 9.398311e+01
<STATE> 4
<NUMMIXES> 2
<MIXTURE> 1 5.001285e-01
<MEAN> 39
 5.081439e+00 -1.334489e+00 4.378683e+00 8.529994e+00 -9.676190e+00 -1.123073e+01 -5.272520e+00 5.611042e+00 6.663619e-01 -3.340327e+00 3.704554e+00 1.736775e+00 6.649259e+01 -1.633132e-01 1.878571e-01 2.848696e-01 2.131358e-02 -1.593035e-01 3.656134e-02 3.655389e-01 1.726825e-01 -3.793684e-02 -1.915316e-02 9.210199e-02 1.300411e-01 -1.165783e-01 -3.707681e-02 9.775155e-02 2.966162e-03 -4.112605e-02 9.341721e-02 1.162808e-01 2.431964e-02 -1.232331e-01 -2.871378e-02 1.023106e-01 -1.833243e-02 -2.963524e-02 -4.302089e-02
<VARIANCE> 39
 6.505023e+00 1.736559e+01 4.832134e+01 1.875848e+01 4.301788e+01 5.361153e+01 4.573095e+01 4.059499e+01 5.650964e+01 3.149168e+01 4.879170e+01 3.218689e+01 8.892480e+00 2.475351e-01 4.080774e-01 8.294771e-01 6.319193e-01 1.093658e+00 1.289842e+00 1.355461e+00 1.434959e+00 1.427492e+00 1.511954e+00 1.475157e+00 1.203929e+00 2.029064e-01 2.594316e-02 5.672061e-02 6.587002e-02 9.013162e-02 1.209478e-01 1.753678e-01 1.716448e-01 2.130136e-01 1.997766e-01 2.029956e-01 2.063342e-01 1.527177e-01 2.059880e-02
<GCONST> 8.397650e+01
<MIXTURE> 2 4.998745e-01
<MEAN> 39
 4.697474e+00 -1.271437e+00 5.193211e+00 7.774328e+00 -9.489424e+00 -1.030014e+01 -5.583322e+00 5.136593e+00 -5.163585e-01 -3.893294e+00 2.750557e+00 5.869457e-01 6.641971e+01 -1.729823e-01 6.581351e-02 2.631587e-01 -1.027969e-01 -2.652741e-01 -5.575493e-02 1.982968e-01 3.134647e-03 -2.074166e-01 -1.207924e-01 -2.719360e-02 -5.645963e-02 -1.361743e-02 -5.038691e-02 9.094667e-02 -2.903006e-02 -3.615853e-02 6.593820e-02 6.809197e-02 4.433775e-03 -1.342380e-01 -2.241464e-02 1.104862e-01 6.034410e-03 -3.753313e-02 -4.963034e-02
<VARIANCE> 39
 7.885608e+00 1.837222e+01 5.160300e+01 1.928236e+01 4.006638e+01 5.616740e+01 4.580046e+01 3.686152e+01 5.893386e+01 2.903686e+01 4.570422e+01 3.342671e+01 1.088819e+01 2.534792e-01 4.452766e-01 8.183281e-01 6.157719e-01 1.115696e+00 1.334084e+00 1.305688e+00 1.429493e+00 1.524539e+00 1.461795e+00 1.468336e+00 1.152757e+00 2.231306e-01 2.786365e-02 6.109063e-02 6.949294e-02 9.193423e-02 1.259345e-01 1.739359e-01 1.812859e-01 2.068730e-01 2.057434e-01 1.898927e-01 2.000524e-01 1.562535e-01 2.302159e-02
<GCONST> 8.484031e+01
<TRANSP> 5
 0.000000e+00 1.000000e+00 0.000000e+00 0.000000e+00 0.000000e+00
 0.000000e+00 7.939500e-01 2.060500e-01 0.000000e+00 0.000000e+00
 0.000000e+00 0.000000e+00 8.096268e-01 1.903733e-01 0.000000e+00
 0.000000e+00 0.000000e+00 0.000000e+00 8.415323e-01 1.584676e-01
 0.000000e+00 0.000000e+00 0.000000e+00 0.000000e+00 0.000000e+00
<ENDHMM>
~h "s"
<BEGINHMM>
<NUMSTATES> 5
<STATE> 2
<NUMMIXES> 2
<MIXTURE> 1 5.228411e-01
<MEAN> 39
 -9.633018e+00 1.031307e+01 6.367569e+00 2.168375e+00 1.612899e+00 -6.145807e+00 -2.285142e-01 8.281230e-01 -2.612107e+00 1.708481e+00 -6.612098e-01 8.521019e-01 6.403554e+01 -2.230423e+00 5.757879e-01 -7.150152e-02 -5.726772e-01 1.445281e+00 2.992639e-01 6.521578e-01 3.415432e-01 2.985280e-02 -1.425182e-02 -2.738385e-01 1.567814e-01 2.383552e-01 -8.562683e-02 -9.276471e-02 -5.899051e-02 3.178299e-03 -2.776815e-02 1.165262e-01 2.070412e-02 -3.569757e-02 -1.877390e-02 -5.690954e-02 3.426664e-02 -3.767303e-02 5.927269e-02
<VARIANCE> 39
 7.230681e+01 3.027882e+01 3.555965e+01 4.682526e+01 6.698572e+01 6.363013e+01 5.708266e+01 4.525144e+01 4.329868e+01 3.761501e+01 3.795826e+01 3.374106e+01 1.275325e+01 1.558336e+00 2.045024e+00 2.262665e+00 2.070874e+00 3.314531e+00 3.317853e+00 2.796782e+00 2.939073e+00 2.858299e+00 3.191909e+00 2.997848e+00 2.590500e+00 7.521649e-01 5.176024e-01 4.141560e-01 3.292338e-01 4.353415e-01 5.888084e-01 5.961105e-01 5.132663e-01 4.662500e-01 4.883432e-01 6.032697e-01 5.921260e-01 4.466967e-01 1.084072e-01
<GCONST> 1.205470e+02
<MIXTURE> 2 4.771594e-01
<MEAN> 39
 -1.268326e+01 9.716762e+00 5.609635e+00 1.335485e+00 3.924512e+00 -5.338616e+00 6.913502e-02 1.105520e+00 -3.175801e+00 2.385174e-01 -1.700765e+00 -6.296404e-02 6.399511e+01 -2.916555e+00 -1.134634e-02 -6.813163e-01 -1.225672e+00 3.684158e-01 -2.271884e-01 5.447290e-02 -2.924713e-01 -6.296716e-01 -5.853999e-01 -3.557585e-01 -3.352587e-02 4.605013e-01 1.051577e-01 -1.434774e-01 -2.432776e-01 -1.256973e-01 -2.939322e-01 -4.564559e-02 -2.114946e-01 -1.105981e-01 -1.352013e-01 6.817891e-02 2.713385e-03 -7.100102e-02 5.021850e-02
<VARIANCE> 39
 5.565412e+01 3.017671e+01 3.427472e+01 4.432751e+01 4.792065e+01 5.232445e+01 5.258761e+01 4.220644e+01 4.082144e+01 3.592249e+01 3.424032e+01 3.315942e+01 1.610804e+01 1.791731e+00 2.251222e+00 2.609267e+00 2.605363e+00 3.732378e+00 3.478913e+00 3.335194e+00 3.295923e+00 2.874613e+00 3.126469e+00 3.108925e+00 2.439734e+00 7.755662e-01 4.906370e-01 4.334599e-01 3.583947e-01 4.725187e-01 6.357840e-01 6.503471e-01 6.208861e-01 5.574780e-01 5.909832e-01 5.742731e-01 6.049675e-01 4.753568e-01 1.380126e-01
<GCONST> 1.217310e+02
<STATE> 3
<MEAN> 39
 -2.413403e+01 9.265355e+00 1.301385e+00 -3.537242e+00 4.990322e+00 -5.812431e+00 6.459205e-01 6.999249e-01 -4.440081e+00 5.588313e-01 -2.185752e+00 3.399271e-01 6.624511e+01 -1.644973e-01 -2.702560e-01 -5.880464e-02 -1.775967e-01 -1.244561e-01 4.385393e-02 -9.055555e-02 1.094128e-01 8.959483e-02 3.802757e-02 5.409549e-02 3.138964e-03 9.035384e-03 1.820956e-01 -4.386946e-02 7.835592e-02 7.109798e-02 -6.622012e-02 -3.067713e-02 -1.523898e-02 3.123129e-02 5.356348e-02 -1.293453e-02 2.005648e-02 1.357759e-02 -7.569744e-02
<VARIANCE> 39
 6.757076e+00 2.031944e+01 3.171560e+01 3.970541e+01 3.396024e+01 4.546048e+01 5.639399e+01 4.599617e+01 4.423981e+01 3.907344e+01 2.978603e+01 2.953686e+01 6.922861e+00 4.694721e-01 1.194447e+00 1.192582e+00 1.604754e+00 2.079902e+00 2.567564e+00 2.500770e+00 2.922122e+00 2.615516e+00 2.798952e+00 2.469203e+00 2.013732e+00 2.056636e-01 9.810209e-02 1.718477e-01 2.232503e-01 3.150723e-01 3.766911e-01 5.010284e-01 4.746030e-01 5.773600e-01 5.035384e-01 5.741031e-01 4.688010e-01 3.907629e-01 3.172735e-02
<GCONST> 1.047700e+02
<STATE> 4
<NUMMIXES> 2
<MIXTURE> 1 5.017313e-01
<MEAN> 39
 -1.704761e+01 5.212791e+00 2.441619e+00 -2.362449e+00 1.331290e+00 -6.017942e+00 -1.122433e+00 1.564150e+00 -1.685437e+00 8.470918e-01 -1.612261e+00 4.417722e-01 6.193030e+01 2.183778e+00 3.852742e-01 5.129449e-01 1.162085e+00 -6.781587e-02 3.545035e-01 -3.642816e-02 2.166472e-01 5.059834e-01 1.781324e-01 -3.179473e-02 -1.689060e-01 -8.540457e-01 2.634260e-01 2.359027e-01 5.690751e-02 2.103467e-01 6.180790e-02 1.080635e-01 -3.961935e-02 1.543500e-02 1.455711e-02 6.546530e-02 -4.687653e-03 -7.565939e-02 1.651639e-01
<VARIANCE> 39
 3.816921e+01 4.500825e+01 3.587404e+01 3.624617e+01 4.056653e+01 4.609825e+01 4.907610e+01 4.733636e+01 4.737336e+01 3.882172e+01 3.131946e+01 3.031097e+01 2.017568e+01 2.118819e+00 2.919309e+00 2.433260e+00 3.245124e+00 3.270819e+00 3.208426e+00 2.955638e+00 2.901885e+00 2.818101e+00 3.264699e+00 2.576772e+00 2.639271e+00 1.221629e+00 3.967191e-01 5.244545e-01 4.575687e-01 5.886298e-01 6.684148e-01 6.552179e-01 5.927947e-01 5.509642e-01 5.079122e-01 6.109384e-01 5.097043e-01 5.093200e-01 3.040872e-01
<GCONST> 1.231474e+02
<MIXTURE> 2 4.982691e-01
<MEAN> 39
 -1.857569e+01 5.774416e+00 2.224153e+00 -3.040914e+00 1.894566e+00 -6.297892e+00 -2.380308e+00 1.662336e+00 -2.499217e+00 4.187771e-01 -1.672837e+00 3.397640e-01 6.202503e+01 1.784857e+00 -3.757174e-01 -1.937267e-01 3.717797e-01 -6.648738e-01 -2.720456e-01 -4.584975e-01 -2.306281e-01 1.072427e-01 -7.678103e-02 -3.492908e-01 -2.045466e-01 -1.154970e+00 1.536361e-01 1.089115e-01 -8.747403e-02 1.106082e-01 3.569877e-02 4.400408e-02 4.118228e-02 -1.048424e-01 -7.017658e-02 1.508266e-02 -5.068235e-02 -1.095266e-01 -4.723847e-02
<VARIANCE> 39
 3.338955e+01 4.760525e+01 3.517380e+01 3.752267e+01 4.027482e+01 4.916832e+01 4.949821e+01 5.410703e+01 4.425138e+01 4.103731e+01 3.324303e+01 2.759630e+01 2.490484e+01 1.937236e+00 2.455004e+00 2.204995e+00 2.645420e+00 2.827792e+00 3.756331e+00 3.055308e+00 3.340163e+00 2.789958e+00 3.236250e+00 2.491928e+00 2.601445e+00 1.116453e+00 4.483395e-01 4.767556e-01 4.429117e-01 5.179610e-01 5.914646e-01 7.332541e-01 6.136281e-01 7.058994e-01 5.557070e-01 7.203013e-01 5.432561e-01 5.112787e-01 2.095194e-01
<GCONST> 1.230002e+02
<TRANSP> 5
 0.000000e+00 1.000000e+00 0.000000e+00 0.000000e+00 0.000000e+00
 0.000000e+00 8.521500e-01 1.478501e-01 0.000000e+00 0.000000e+00
 0.000000e+00 0.000000e+00 9.237615e-01 7.623844e-02 0.000000e+00
 0.000000e+00 0.000000e+00 0.000000e+00 8.357328e-01 1.642672e-01
 0.000000e+00 0.000000e+00 0.000000e+00 0.000000e+00 0.000000e+00
<ENDHMM>
~h "t"
<BEGINHMM>
<NUMSTATES> 5
<STATE> 2
<NUMMIXES> 2
<MIXTURE> 1 5.121162e-01
<MEAN> 39
 -4.045483e+00 7.530075e+00 4.270335e+00 3.578818e+00 -2.253852e+00 -4.142202e+00 -1.314036e+00 -5.536110e-01 -4.521270e-01 -4.651963e-01 -8.565810e-01 1.022569e-01 5.617518e+01 -1.734878e-01 2.376779e-01 6.312885e-02 1.459327e-01 5.460001e-01 2.746197e-01 2.612836e-01 7.839194e-02 2.737935e-01 3.018969e-01 1.233637e-01 1.798221e-01 -7.379618e-01 -9.150364e-03 -3.262871e-02 1.183907e-02 -2.425534e-03 5.209873e-02 1.460343e-01 4.687650e-02 8.782967e-03 4.367552e-02 2.054427e-02 4.980101e-02 -2.204877e-02 1.096520e-01
<VARIANCE> 39
 2.130705e+01 1.737484e+01 3.172315e+01 2.764836e+01 4.559766e+01 4.028807e+01 4.411722e+01 4.478836e+01 4.203485e+01 3.229906e+01 3.686192e+01 2.702113e+01 3.147266e+01 9.573228e-01 1.369415e+00 1.845160e+00 1.979976e+00 3.318911e+00 2.972361e+00 3.078516e+00 3.299785e+00 2.778969e+00 2.639113e+00 2.866692e+00 2.349296e+00 1.102058e+00 1.913633e-01 2.917526e-01 3.596893e-01 4.168412e-01 6.235334e-01 6.089758e-01 6.054525e-01 6.636701e-01 5.644018e-01 5.418047e-01 5.486821e-01 4.498391e-01 1.988579e-01
<GCONST> 1.163476e+02
<MIXTURE> 2 4.878798e-01
<MEAN> 39
 -5.276652e+00 7.262837e+00 3.747375e+00 3.038109e+00 -1.999155e+00 -4.860154e+00 -2.691670e+00 -1.802431e+00 -1.952587e+00 -1.386599e+00 -1.040893e+00 8.203080e-02 5.512175e+01 -2.556449e-01 -1.694435e-01 -5.138609e-01 -3.446821e-01 5.153327e-03 -1.439856e-01 -2.006733e-01 -4.276867e-01 -1.633985e-01 -2.009124e-01 -2.506263e-01 -7.410582e-02 -7.301445e-01 -3.890403e-02 -1.294458e-01 -5.262635e-02 -5.989387e-02 -7.702626e-02 -4.748173e-03 -4.256471e-02 5.301712e-04 -1.421107e-02 -9.812955e-03 -1.158530e-02 -3.430759e-02 1.475340e-01
<VARIANCE> 39
 1.865792e+01 1.721015e+01 2.874977e+01 2.611958e+01 3.674417e+01 3.759858e+01 4.081831e+01 4.575998e+01 4.090773e+01 3.381580e+01 3.277801e+01 2.523964e+01 2.109954e+01 9.631577e-01 1.303726e+00 1.903012e+00 2.133779e+00 3.018748e+00 3.036807e+00 2.763528e+00 3.162894e+00 2.943083e+00 2.791699e+00 2.836629e+00 2.264966e+00 1.085835e+00 1.915388e-01 2.940921e-01 3.533297e-01 4.232742e-01 5.700047e-01 6.200202e-01 5.676222e-01 6.486926e-01 5.898998e-01 5.927958e-01 5.754879e-01 4.621210e-01 1.917329e-01
<GCONST> 1.150521e+02
<STATE> 3
<MEAN> 39
 -6.040153e+00 7.173597e+00 2.728195e+00 2.901897e+00 -9.264077e-02 -3.432840e+00 -1.345660e+00 -2.240042e+00 -8.864167e-01 -1.130111e-01 -8.803435e-01 -1.331398e-02 5.237413e+01 -1.140055e+00 -2.150615e+00 6.681739e-02 -1.345363e+00 -1.900271e-01 7.144442e-01 3.019073e-02 2.960687e-01 -1.667716e-02 2.242979e-01 3.645194e-01 4.041891e-01 2.326040e+00 -6.673057e-01 -5.025338e-01 1.769827e-01 -5.078683e-01 -3.248996e-01 -8.976959e-02 7.528770e-03 2.422637e-01 -8.326913e-02 5.694667e-02 3.478079e-02 1.555756e-01 1.154348e+00
<VARIANCE> 39
 1.030323e+01 1.295287e+01 1.627542e+01 2.012281e+01 2.351081e+01 3.008728e+01 3.182423e+01 3.261580e+01 3.545906e+01 3.352840e+01 2.660698e+01 2.436626e+01 4.946073e+00 2.016408e+00 4.530827e+00 2.528302e+00 4.196360e+00 3.513112e+00 4.041063e+00 3.145270e+00 3.791249e+00 3.505128e+00 3.181478e+00 2.456469e+00 2.326871e+00 5.513052e+00 2.084237e-01 5.250434e-01 3.277054e-01 5.264092e-01 6.078439e-01 6.791396e-01 5.769932e-01 6.984590e-01 5.982439e-01 6.482074e-01 5.004272e-01 4.809033e-01 2.899673e-01
<GCONST> 1.172173e+02
<STATE> 4
<NUMMIXES> 2
<MIXTURE> 1 5.038419e-01
<MEAN> 39
 -1.514865e+01 -1.086456e+00 5.858327e+00 -2.207756e+00 -3.593111e+00 -3.369653e+00 -3.600474e-01 1.722285e+00 -1.368503e+00 4.048063e-01 1.471470e-02 1.632659e+00 6.560159e+01 1.122962e-01 4.736770e-01 1.080135e+00 1.110683e+00 -9.206475e-02 -2.129564e-01 3.831974e-01 7.366465e-01 3.841646e-02 -1.373941e-01 8.268354e-03 -4.690433e-02 2.233573e-01 9.081225e-01 6.428686e-01 6.046366e-02 6.844720e-01 1.056084e-01 -4.526872e-02 -9.934618e-02 -1.420978e-01 4.884187e-02 -7.809539e-02 -1.460353e-02 -1.902908e-01 -7.065558e-01
<VARIANCE> 39
 3.205555e+01 4.490758e+01 3.839384e+01 5.289511e+01 4.199990e+01 4.624121e+01 3.864618e+01 4.301502e+01 3.911288e+01 4.186320e+01 2.882376e+01 2.727240e+01 2.903422e+01 7.703296e+00 4.587794e+00 3.310006e+00 6.789251e+00 4.568347e+00 4.116219e+00 3.206891e+00 3.709367e+00 3.238848e+00 3.399738e+00 2.790203e+00 3.118431e+00 7.497250e+00 8.358816e-01 8.009468e-01 6.786482e-01 1.124879e+00 8.846795e-01 9.486387e-01 7.125900e-01 7.092102e-01 6.268967e-01 7.035843e-01 5.284323e-01 5.834151e-01 1.118702e+00
<GCONST> 1.342419e+02
<MIXTURE> 2 4.961586e-01
<MEAN> 39
 -1.530005e+01 -2.184408e+00 4.828613e+00 -2.270531e+00 -3.617587e+00 -3.630898e+00 -1.448450e+00 9.053600e-01 -1.718169e+00 -8.154560e-02 -6.430590e-01 1.214025e+00 6.555647e+01 -5.967596e-01 -2.032277e-01 4.025465e-01 1.326442e-01 -6.209297e-01 -7.139514e-01 -2.300856e-01 2.685890e-01 -2.710778e-01 -3.286633e-01 -2.261260e-01 -1.947519e-01 7.085117e-01 6.449007e-01 6.035003e-01 -2.009739e-02 5.324468e-01 8.685189e-02 -1.339075e-01 -9.256655e-02 -1.518393e-01 -4.903794e-02 -9.870487e-02 -9.404358e-02 -1.673839e-01 -7.851509e-01
<VARIANCE> 39
 3.755328e+01 4.662303e+01 3.838906e+01 5.357522e+01 4.130945e+01 4.489854e+01 3.618444e+01 3.933579e+01 3.972324e+01 3.984418e+01 2.853318e+01 2.459445e+01 3.481986e+01 6.919029e+00 4.416763e+00 3.235541e+00 5.886742e+00 4.160540e+00 3.851189e+00 3.242945e+00 3.579244e+00 3.720656e+00 3.493076e+00 2.691735e+00 3.041814e+00 7.445489e+00 9.072855e-01 8.920282e-01 7.053491e-01 1.136740e+00 8.394280e-01 8.892156e-01 6.255633e-01 6.573803e-01 6.824673e-01 6.696543e-01 5.467455e-01 5.466784e-01 1.056507e+00
<GCONST> 1.337488e+02
<TRANSP> 5
 0.000000e+00 1.000000e+00 0.000000e+00 0.000000e+00 0.000000e+00
 0.000000e+00 8.838305e-01 1.161695e-01 0.000000e+00 0.000000e+00
 0.000000e+00 0.000000e+00 6.422894e-01 3.577106e-01 0.000000e+00
 0.000000e+00 0.000000e+00 0.000000e+00 8.164077e-01 1.835923e-01
 0.000000e+00 0.000000e+00 0.000000e+00 0.000000e+00 0.000000e+00
<ENDHMM>
~h "v"
<BEGINHMM>
<NUMSTATES> 5
<STATE> 2
<NUMMIXES> 2
<MIXTURE> 1 5.017419e-01
<MEAN> 39
 4.369537e+00 4.803259e+00 1.076777e+00 7.459039e+00 -3.059684e+00 -7.946043e+00 -7.663539e+00 4.550729e-01 -9.510149e-01 2.189879e+00 4.742562e+00 -2.016623e+00 6.324469e+01 -5.870926e-02 7.875829e-01 -1.712236e-01 -9.892021e-02 1.169879e+00 7.770904e-01 1.141933e-01 -9.372511e-01 4.298108e-01 8.382237e-01 2.144840e-01 1.019730e-01 -9.572356e-01 -1.742779e-01 9.732136e-04 2.258341e-01 -5.485357e-02 -5.389632e-02 1.751284e-01 3.071102e-01 -9.171252e-02 -5.047576e-02 -8.552867e-02 -6.940193e-02 1.150760e-01 1.603520e-02
<VARIANCE> 39
 7.874433e+00 1.803698e+01 3.252596e+01 1.386670e+01 3.036445e+01 5.702600e+01 4.533454e+01 4.503576e+01 3.648966e+01 3.397414e+01 2.861843e+01 2.671791e+01 1.527516e+01 4.661776e-01 4.698202e-01 1.013358e+00 1.107210e+00 1.327609e+00 2.085238e+00 1.878671e+00 3.344491e+00 2.324802e+00 2.269920e+00 2.016643e+00 1.892949e+00 2.626117e-01 3.338075e-02 7.068812e-02 1.097031e-01 1.657892e-01 1.815556e-01 2.956380e-01 2.265201e-01 4.200181e-01 3.723973e-01 3.878185e-01 2.809670e-01 3.026022e-01 3.847072e-02
<GCONST> 9.443869e+01
<MIXTURE> 2 4.982582e-01
<MEAN> 39
 4.021759e+00 4.652582e+00 1.805577e+00 7.290716e+00 -3.816038e+00 -8.330504e+00 -8.246606e+00 4.475267e-02 -1.202800e+00 1.511033e+00 3.730564e+00 -2.479509e+00 6.334021e+01 2.355908e-02 6.549236e-01 -3.263250e-01 -2.004617e-01 1.273728e+00 5.089534e-01 -1.513713e-01 -8.363536e-01 2.905775e-01 6.207398e-01 3.261524e-02 -1.749307e-01 -9.807874e-01 -1.853721e-01 8.424908e-03 1.923326e-01 -7.978331e-02 -4.086646e-02 1.424771e-01 2.866998e-01 -9.500622e-02 -3.708233e-02 -1.608664e-02 -9.217559e-02 5.633115e-02 8.545501e-03
<VARIANCE> 39
 7.743761e+00 1.711010e+01 3.317562e+01 1.526698e+01 3.292332e+01 5.745040e+01 4.460975e+01 4.703098e+01 3.967840e+01 3.125061e+01 2.997570e+01 3.097212e+01 1.795215e+01 4.418262e-01 4.851605e-01 1.104453e+00 1.001552e+00 1.350344e+00 2.030525e+00 1.987207e+00 3.110911e+00 2.626434e+00 2.119430e+00 2.119283e+00 1.790563e+00 3.138805e-01 3.279528e-02 8.046269e-02 1.013967e-01 1.767796e-01 2.050909e-01 2.993778e-01 2.664072e-01 4.643232e-01 3.636914e-01 4.454464e-01 2.967803e-01 2.813918e-01 4.738848e-02
<GCONST> 9.592037e+01
<STATE> 3
<MEAN> 39
 -2.976959e+00 7.616209e+00 4.810150e+00 6.212814e+00 1.896452e+00 -2.245135e+00 -3.327913e+00 -2.594180e+00 -1.924302e-01 1.875209e+00 7.700019e-01 -4.362702e-01 5.886115e+01 -5.973548e-01 -2.124083e-01 1.293536e-01 -1.298413e-01 1.302636e-01 1.809160e-01 2.541263e-01 1.344095e-02 -1.751735e-02 -2.439121e-01 -1.839704e-01 1.166407e-01 8.122846e-02 8.930725e-02 -7.982066e-02 -1.126358e-01 -2.923325e-02 -1.577970e-01 -1.254399e-01 -9.969935e-02 4.670953e-02 -2.150809e-02 2.317224e-02 5.039363e-02 -5.839520e-02 1.149066e-01
<VARIANCE> 39
 2.791284e+01 1.097864e+01 1.783323e+01 1.446091e+01 2.540621e+01 2.542286e+01 2.971977e+01 2.925111e+01 3.133850e+01 2.917755e+01 2.851944e+01 2.438173e+01 1.443034e+01 9.396487e-01 7.410343e-01 1.284687e+00 1.240842e+00 1.814636e+00 2.182400e+00 2.403100e+00 2.610770e+00 3.210974e+00 2.737701e+00 2.607590e+00 1.969460e+00 3.940371e-01 9.205884e-02 1.240941e-01 1.869139e-01 2.219068e-01 3.117959e-01 3.752828e-01 4.087172e-01 4.866659e-01 5.604156e-01 5.450276e-01 4.718945e-01 4.035141e-01 4.088049e-02
<GCONST> 1.009641e+02
<STATE> 4
<NUMMIXES> 2
<MIXTURE> 1 5.090328e-01
<MEAN> 39
 5.162328e+00 8.617816e+00 -3.233978e+00 2.637082e+00 -1.693107e+00 -1.493232e+00 -2.663648e+00 -4.470422e+00 -4.185749e+00 3.732638e+00 7.074263e+00 -2.928127e-01 6.135860e+01 5.481908e-02 -1.786460e-01 -1.851055e-01 -4.747482e-02 -6.613104e-02 -2.364056e-02 -2.415349e-01 2.223496e-01 1.533138e-01 1.126176e-01 9.243846e-02 3.864040e-02 2.623916e-01 -1.558978e-02 -8.323345e-02 6.913080e-02 1.116140e-01 -2.260673e-02 -7.994387e-02 -8.543599e-02 1.278981e-01 8.669429e-02 -3.293221e-02 -7.888629e-02 -4.142415e-02 5.572460e-02
<VARIANCE> 39
 1.427731e+01 1.157902e+01 2.934593e+01 4.086368e+01 2.911123e+01 3.759767e+01 6.647462e+01 3.449159e+01 3.315117e+01 3.555824e+01 4.505671e+01 3.113986e+01 9.235989e+00 3.198444e-01 5.803373e-01 8.692891e-01 1.143274e+00 1.168547e+00 1.966374e+00 2.047559e+00 1.471098e+00 1.948987e+00 2.044367e+00 2.114607e+00 1.550935e+00 2.564996e-01 6.092131e-02 6.853621e-02 1.021663e-01 1.832781e-01 1.820319e-01 2.841659e-01 2.376855e-01 1.962824e-01 3.000749e-01 3.102782e-01 3.174243e-01 2.161876e-01 2.033284e-02
<GCONST> 9.217381e+01
<MIXTURE> 2 4.909660e-01
<MEAN> 39
 4.215057e+00 8.635559e+00 -2.663484e+00 2.280061e+00 -1.511998e+00 -2.286362e+00 -2.925408e+00 -4.363399e+00 -4.063780e+00 3.153340e+00 5.584172e+00 -1.369299e+00 6.131868e+01 4.722886e-02 -2.326638e-01 -3.312291e-01 -1.156486e-01 -2.130613e-01 -4.200380e-02 -3.373905e-01 9.662984e-02 2.117906e-01 -1.564545e-01 1.355004e-02 -2.437196e-01 2.950661e-01 -4.570768e-02 -6.812362e-02 4.344669e-02 4.371121e-02 -3.748777e-02 -3.975918e-02 -9.193549e-02 7.913598e-02 8.017512e-02 -3.311518e-02 -6.527282e-02 -2.817624e-02 3.483499e-02
<VARIANCE> 39
 2.563459e+01 1.471576e+01 3.140398e+01 4.331673e+01 2.853022e+01 3.417883e+01 6.172288e+01 3.881283e+01 3.524726e+01 3.844348e+01 4.105257e+01 3.256999e+01 9.600875e+00 3.684262e-01 6.866433e-01 8.130000e-01 1.337302e+00 1.180089e+00 1.871423e+00 1.846577e+00 1.713002e+00 1.922143e+00 2.352971e+00 2.136399e+00 1.709020e+00 2.844965e-01 5.065518e-02 7.230304e-02 9.864817e-02 1.715203e-01 1.896068e-01 2.861765e-01 2.195440e-01 2.276526e-01 2.976796e-01 3.226296e-01 3.242200e-01 2.330560e-01 2.242109e-02
<GCONST> 9.403891e+01
<TRANSP> 5
 0.000000e+00 1.000000e+00 0.000000e+00 0.000000e+00 0.000000e+00
 0.000000e+00 7.754292e-01 2.245709e-01 0.000000e+00 0.000000e+00
 0.000000e+00 0.000000e+00 8.378952e-01 1.621048e-01 0.000000e+00
 0.000000e+00 0.000000e+00 0.000000e+00 8.200988e-01 1.799013e-01
 0.000000e+00 0.000000e+00 0.000000e+00 0.000000e+00 0.000000e+00
<ENDHMM>
~h "w"
<BEGINHMM>
<NUMSTATES> 5
<STATE> 2
<NUMMIXES> 2
<MIXTURE> 1 5.137019e-01
<MEAN> 39
 -3.358287e+00 3.054345e+00 3.368150e+00 5.778354e+00 -4.969473e+00 -7.269317e+00 -3.850198e+00 -5.043231e-01 -2.739959e+00 1.745489e+00 1.860555e+00 7.551697e-01 6.318621e+01 5.491366e-01 4.749510e-01 -6.386423e-01 2.184190e-01 1.416690e+00 6.007689e-01 -2.886516e-01 -1.351397e-01 2.303969e-01 4.320334e-01 1.925271e-01 -1.689554e-01 -5.942948e-01 -1.541757e-02 2.647516e-01 1.736344e-01 -1.100269e-01 6.254384e-02 3.937925e-01 2.344492e-01 -1.671511e-01 -1.048414e-01 -2.981910e-02 2.837084e-02 1.822492e-02 -2.702930e-02
<VARIANCE> 39
 7.035584e+01 2.943589e+01 4.998487e+01 4.685318e+01 6.253882e+01 7.814212e+01 4.659505e+01 5.023189e+01 5.354406e+01 5.151003e+01 4.333949e+01 3.591789e+01 2.324657e+01 9.492868e-01 1.551268e+00 2.762784e+00 2.518323e+00 2.909242e+00 3.511007e+00 3.968807e+00 4.133091e+00 3.171605e+00 3.982738e+00 3.005713e+00 2.903860e+00 4.719689e-01 1.338952e-01 2.077388e-01 2.884350e-01 3.507126e-01 5.711564e-01 4.573264e-01 7.065456e-01 8.073917e-01 6.915359e-01 8.880283e-01 6.386209e-01 5.601007e-01 7.536111e-02
<GCONST> 1.212649e+02
<MIXTURE> 2 4.862980e-01
<MEAN> 39
 -6.213708e+00 1.573816e+00 2.836633e+00 4.310803e+00 -5.375510e+00 -6.451087e+00 -3.516189e+00 2.664596e-01 -2.986897e+00 4.926361e-01 7.987907e-01 9.266960e-02 6.337084e+01 3.423668e-01 2.442609e-01 -9.847457e-01 -2.441498e-01 8.081711e-01 -1.310141e-02 -7.145678e-01 -6.933064e-01 1.073033e-01 2.254372e-01 -2.125277e-01 -1.684252e-01 -7.158661e-01 -6.458245e-02 1.526089e-01 4.690086e-02 -1.425187e-01 3.727902e-02 2.342282e-01 5.248491e-02 -1.695827e-01 -1.004982e-01 8.521776e-02 -2.708287e-02 -2.068701e-02 -5.902526e-02
<VARIANCE> 39
 9.355592e+01 3.681871e+01 4.858718e+01 5.025359e+01 5.575530e+01 6.974689e+01 5.417549e+01 4.619243e+01 5.238760e+01 4.557530e+01 4.464514e+01 4.031227e+01 2.246570e+01 1.325892e+00 1.325549e+00 2.307455e+00 1.966096e+00 3.404882e+00 3.449417e+00 3.852328e+00 3.448584e+00 3.715158e+00 4.230677e+00 2.990945e+00 3.168842e+00 6.139243e-01 1.385539e-01 2.242627e-01 3.274675e-01 3.503204e-01 5.030041e-01 5.929199e-01 7.416748e-01 7.890776e-01 6.531075e-01 8.228402e-01 5.789468e-01 5.232201e-01 7.849348e-02
<GCONST> 1.219982e+02
<STATE> 3
<MEAN> 39
 -2.735906e+00 7.229678e+00 2.906720e+00 5.446409e+00 9.251016e-01 -1.032234e+00 -1.498538e+00 -2.110565e+00 -1.229704e+00 3.677042e-01 -1.241228e+00 -1.302734e+00 5.626033e+01 4.981136e-01 4.315774e-01 -4.695634e-02 -8.149908e-02 -1.081728e-01 1.500275e-01 1.759461e-01 -1.212470e-01 -2.178422e-01 -4.249990e-02 8.845855e-02 2.159187e-02 1.045645e-01 1.513768e-02 -1.031954e-01 -8.081608e-02 -7.181249e-02 -1.639598e-01 -8.704452e-02 -5.943757e-02 1.963320e-02 -1.921583e-02 4.840260e-03 7.798468e-02 5.392532e-02 9.760413e-02
<VARIANCE> 39
 2.762548e+01 2.253777e+01 2.562304e+01 2.905683e+01 2.856531e+01 3.240234e+01 3.508237e+01 2.815886e+01 3.102860e+01 3.736867e+01 2.953906e+01 2.218515e+01 1.745514e+01 1.715047e+00 1.608028e+00 2.206888e+00 2.341963e+00 2.909502e+00 2.507079e+00 2.916400e+00 2.550807e+00 2.751608e+00 3.112253e+00 2.950689e+00 2.032473e+00 8.720958e-01 2.246940e-01 2.668046e-01 3.480285e-01 4.310304e-01 5.015054e-01 4.233358e-01 5.601051e-01 4.783062e-01 5.138341e-01 5.781865e-01 4.922870e-01 3.837593e-01 1.068349e-01
<GCONST> 1.126085e+02
<STATE> 4
<NUMMIXES> 2
<MIXTURE> 1 5.036563e-01
<MEAN> 39
 5.647929e+00 1.074905e+01 -2.371032e+00 1.725321e+00 -4.773081e+00 -4.960829e-01 -1.512618e+00 -5.023008e+00 -5.178607e+00 2.734284e+00 3.931366e+00 3.556249e-01 6.085456e+01 8.630560e-02 -5.712931e-02 -2.634370e-01 -8.229571e-02 -1.046898e-01 1.840318e-01 -9.424371e-02 7.775023e-03 5.112670e-02 2.341271e-02 3.268275e-01 8.248668e-02 1.867266e-01 -3.764222e-02 -6.403834e-02 5.095362e-02 9.944569e-02 4.484937e-02 -5.154134e-02 -9.460750e-02 2.909975e-02 8.859249e-02 2.010902e-02 -4.286242e-02 -6.423024e-02 4.619544e-02
<VARIANCE> 39
 4.942515e+00 1.235517e+01 3.046479e+01 2.961605e+01 3.574257e+01 3.802807e+01 4.936638e+01 3.490288e+01 4.031682e+01 4.138425e+01 4.522898e+01 3.076598e+01 1.070588e+01 2.177685e-01 5.193661e-01 8.767225e-01 1.033525e+00 1.432830e+00 1.571749e+00 2.069048e+00 1.636482e+00 1.991224e+00 2.433048e+00 2.332933e+00 1.785116e+00 2.858816e-01 3.042818e-02 6.446674e-02 1.092351e-01 1.546373e-01 2.026005e-01 2.319923e-01 3.171577e-01 2.598781e-01 3.072118e-01 3.577357e-01 3.391979e-01 2.753871e-01 1.725918e-02
<GCONST> 9.128818e+01
<MIXTURE> 2 4.963414e-01
<MEAN> 39
 5.519020e+00 1.079531e+01 -2.281678e+00 1.592678e+00 -4.909453e+00 -7.206818e-01 -2.519725e+00 -5.155218e+00 -5.542054e+00 1.677288e+00 2.821942e+00 -1.364605e-01 6.107714e+01 6.634447e-02 -9.546649e-02 -3.216564e-01 -1.788301e-01 -2.818193e-01 -3.166498e-02 -2.105232e-01 -7.140204e-02 -1.103578e-01 5.927747e-02 2.376697e-01 -1.332272e-01 2.176875e-01 -5.401831e-02 -7.259896e-02 3.875707e-02 6.104740e-02 3.046620e-02 -3.108151e-02 -4.859706e-02 1.973353e-02 8.497375e-02 4.306345e-02 -5.363412e-02 -7.320660e-02 1.741953e-02
<VARIANCE> 39
 6.222040e+00 1.518754e+01 3.034202e+01 3.024524e+01 3.820100e+01 3.825760e+01 4.298540e+01 3.285961e+01 3.987514e+01 4.094015e+01 4.174800e+01 2.871272e+01 1.052781e+01 2.262618e-01 5.468433e-01 8.893467e-01 1.118404e+00 1.421634e+00 1.518313e+00 1.997433e+00 1.642062e+00 1.912705e+00 2.285141e+00 2.259664e+00 1.678903e+00 3.177426e-01 3.584748e-02 6.077901e-02 1.167400e-01 1.406885e-01 1.983042e-01 2.239789e-01 2.971222e-01 2.696441e-01 3.104132e-01 3.363973e-01 3.222054e-01 2.764765e-01 1.908248e-02
<GCONST> 9.143992e+01
<TRANSP> 5
 0.000000e+00 1.000000e+00 0.000000e+00 0.000000e+00 0.000000e+00
 0.000000e+00 7.534924e-01 2.465076e-01 0.000000e+00 0.000000e+00
 0.000000e+00 0.000000e+00 8.787398e-01 1.212602e-01 0.000000e+00
 0.000000e+00 0.000000e+00 0.000000e+00 9.210643e-01 7.893570e-02
 0.000000e+00 0.000000e+00 0.000000e+00 0.000000e+00 0.000000e+00
<ENDHMM>
~h "y"
<BEGINHMM>
<NUMSTATES> 5
<STATE> 2
<NUMMIXES> 2
<MIXTURE> 1 5.112064e-01
<MEAN> 39
 -1.019501e+01 5.057718e+00 1.469345e+01 5.977947e+00 -6.059455e+00 9.517540e-01 -1.484713e+00 -1.328075e+00 -3.011559e+00 1.791875e-01 -1.108271e+00 -2.116846e+00 6.182537e+01 1.105417e+00 1.084050e+00 8.887277e-01 9.431811e-01 1.158452e-01 -1.285262e-01 3.173150e-01 3.718510e-01 -3.309793e-01 -9.158833e-02 3.979296e-01 -1.690576e-01 3.198562e-01 1.806891e-01 3.931637e-02 -6.204683e-02 -9.374674e-02 -2.519617e-01 -2.446093e-01 -1.915593e-01 -9.210133e-02 -1.355928e-01 -2.821346e-02 2.704956e-01 1.924700e-01 7.715891e-02
<VARIANCE> 39
 4.721344e+01 3.284947e+01 4.206285e+01 4.769431e+01 4.656361e+01 6.163677e+01 5.678341e+01 4.446741e+01 3.338027e+01 3.875108e+01 4.195435e+01 2.394613e+01 3.249399e+01 2.948272e+00 1.720642e+00 1.621039e+00 2.643764e+00 3.580172e+00 5.266611e+00 4.097264e+00 3.346547e+00 2.536856e+00 3.147454e+00 3.775817e+00 2.287251e+00 5.690064e-01 2.137589e-01 3.341217e-01 1.463091e-01 4.633535e-01 5.643784e-01 6.612287e-01 6.691622e-01 6.929767e-01 5.219212e-01 5.595766e-01 5.280755e-01 4.043077e-01 9.576333e-02
<GCONST> 1.200809e+02
<MIXTURE> 2 4.887938e-01
<MEAN> 39
 -1.095691e+01 5.025546e+00 1.456010e+01 3.364892e+00 -6.415523e+00 1.126758e+00 -3.678109e+00 -2.481664e-01 -4.560016e+00 -7.288265e-01 -2.610614e+00 -2.060593e+00 6.168524e+01 7.796214e-01 3.990227e-01 4.536229e-01 1.646206e-01 -5.993897e-01 -3.401971e-01 -5.223283e-01 -2.396726e-01 -5.349113e-01 -8.734344e-02 6.424121e-01 -5.426821e-02 1.287664e-01 2.168806e-02 -2.080528e-01 -1.548353e-01 -1.155174e-01 -2.375890e-01 -2.096206e-01 -6.044749e-02 -2.236427e-01 -6.609934e-02 9.654651e-02 2.544549e-01 9.386216e-02 1.027417e-03
<VARIANCE> 39
 6.267430e+01 2.720729e+01 3.858356e+01 7.472812e+01 4.619024e+01 5.948941e+01 5.774864e+01 4.582729e+01 4.719496e+01 3.705269e+01 4.170032e+01 2.961509e+01 2.837840e+01 2.465095e+00 1.789022e+00 1.391912e+00 2.168850e+00 2.496989e+00 6.074622e+00 4.213066e+00 4.188698e+00 2.725160e+00 3.162492e+00 3.739634e+00 1.968057e+00 7.505534e-01 2.817439e-01 3.390007e-01 1.593127e-01 4.078702e-01 5.251120e-01 7.860498e-01 7.371597e-01 9.300911e-01 4.898521e-01 5.189761e-01 5.733961e-01 4.168157e-01 9.001406e-02
<GCONST> 1.213044e+02
<STATE> 3
<MEAN> 39
 -1.742435e+00 8.275565e+00 1.548650e+01 8.567143e+00 -1.204463e+01 -4.382012e+00 -3.496431e+00 -5.763475e-01 -7.927521e+00 -1.920074e+00 6.479094e+00 -1.500511e+00 6.418070e+01 1.853207e-01 -2.740977e-01 6.627692e-02 1.323559e-01 -1.317138e+00 -5.015566e-01 2.927336e-01 -7.479440e-02 -9.223070e-01 -8.679292e-02 1.104828e+00 -2.003322e-01 4.503325e-01 -1.423814e-01 -4.606347e-02 -1.649821e-01 -2.222410e-02 3.432492e-01 1.265219e-01 -1.789582e-02 -2.305889e-02 2.288165e-01 1.438177e-01 -3.296745e-01 -9.307393e-02 -4.466456e-02
<VARIANCE> 39
 8.902289e+00 1.424485e+01 3.682853e+01 2.802254e+01 2.963398e+01 7.998373e+01 5.237784e+01 2.157362e+01 5.181758e+01 2.413353e+01 3.569432e+01 1.986692e+01 1.217682e+01 5.230026e-01 4.603835e-01 1.386842e+00 1.587326e+00 2.038562e+00 3.235541e+00 2.578459e+00 2.490150e+00 1.701844e+00 2.203265e+00 2.947709e+00 2.227189e+00 3.877673e-01 1.244381e-01 1.169430e-01 1.288585e-01 2.559044e-01 2.061187e-01 4.107890e-01 5.014942e-01 3.213970e-01 2.764454e-01 3.888823e-01 3.732222e-01 3.979082e-01 2.968347e-02
<GCONST> 1.002313e+02
<STATE> 4
<NUMMIXES> 2
<MIXTURE> 1 5.075021e-01
<MEAN> 39
 -1.720257e+00 6.578778e+00 1.489345e+01 8.465808e+00 -1.238700e+01 -3.002733e+00 -4.734144e+00 1.523971e+00 -9.780468e+00 3.941439e-01 6.391338e+00 -3.713150e+00 6.579128e+01 6.560472e-02 -9.286070e-03 -2.665100e-01 1.655627e-01 2.221249e-01 -2.504813e-01 -6.515276e-02 2.604505e-01 1.632989e-01 -9.304151e-02 -1.339599e-03 1.819527e-01 2.553743e-02 1.166948e-03 1.216994e-02 -1.123208e-02 -1.759835e-02 7.945833e-02 -1.256850e-02 -1.311384e-02 1.170289e-02 7.921689e-02 -2.601638e-02 -6.955209e-02 4.581382e-02 -1.138704e-02
<VARIANCE> 39
 5.408070e+00 1.224958e+01 3.928483e+01 2.811040e+01 2.700983e+01 8.926808e+01 6.138919e+01 4.049734e+01 4.157957e+01 4.758451e+01 4.560679e+01 3.915582e+01 1.500835e+01 1.943850e-01 3.583327e-01 6.950822e-01 6.648268e-01 1.262902e+00 1.729183e+00 1.241320e+00 1.219021e+00 1.714551e+00 1.434536e+00 1.709100e+00 1.071209e+00 1.806313e-01 2.200496e-02 4.342446e-02 7.146021e-02 9.083457e-02 1.671589e-01 1.901690e-01 1.807925e-01 1.978832e-01 2.289216e-01 2.385398e-01 2.677210e-01 1.905962e-01 1.439381e-02
<GCONST> 8.492914e+01
<MIXTURE> 2 4.924991e-01
<MEAN> 39
 -2.387147e+00 6.756251e+00 1.692621e+01 7.460723e+00 -1.269834e+01 -7.402497e-01 -7.232921e+00 1.156523e-01 -1.157673e+01 -7.758002e-01 6.708883e+00 -4.932834e+00 6.567196e+01 9.398168e-02 -4.541202e-02 -2.793365e-01 1.260042e-01 1.505637e-01 -2.796795e-01 -2.003894e-01 1.590081e-01 7.155522e-02 -1.239961e-01 -7.194517e-02 3.231515e-03 1.060084e-02 6.969450e-03 1.468780e-02 -3.221479e-02 -2.515391e-02 9.592739e-02 -3.099679e-02 -1.222466e-02 2.088992e-02 5.097682e-02 5.932779e-03 -5.986333e-02 1.300850e-02 -2.392451e-02
<VARIANCE> 39
 5.822311e+00 1.154694e+01 3.875660e+01 2.407038e+01 2.080342e+01 9.123982e+01 5.348939e+01 3.748732e+01 4.626744e+01 4.726150e+01 3.941040e+01 3.586240e+01 1.178534e+01 1.544444e-01 3.664875e-01 6.282657e-01 5.981655e-01 1.075945e+00 1.679824e+00 1.215924e+00 1.269631e+00 1.711642e+00 1.296849e+00 1.642783e+00 1.058776e+00 1.882191e-01 2.157043e-02 4.454311e-02 7.072169e-02 9.819160e-02 1.490402e-01 2.014088e-01 1.702095e-01 2.082151e-01 2.322818e-01 2.363183e-01 2.791696e-01 1.811682e-01 1.518360e-02
<GCONST> 8.330528e+01
<TRANSP> 5
 0.000000e+00 1.000000e+00 0.000000e+00 0.000000e+00 0.000000e+00
 0.000000e+00 7.883294e-01 2.116707e-01 0.000000e+00 0.000000e+00
 0.000000e+00 0.000000e+00 7.652670e-01 2.347330e-01 0.000000e+00
 0.000000e+00 0.000000e+00 0.000000e+00 9.214510e-01 7.854907e-02
 0.000000e+00 0.000000e+00 0.000000e+00 0.000000e+00 0.000000e+00
<ENDHMM>
~h "z"
<BEGINHMM>
<NUMSTATES> 5
<STATE> 2
<NUMMIXES> 2
<MIXTURE> 1 5.177697e-01
<MEAN> 39
 -5.582054e+00 1.202782e+01 6.861539e+00 4.368118e+00 -4.988195e-01 -1.107265e+01 -2.385867e+00 1.055063e+00 -1.813702e+00 1.834355e+00 3.724425e-01 2.528295e+00 6.496266e+01 -1.694161e+00 1.127193e+00 3.028010e-02 -6.580476e-01 1.566738e+00 1.212939e-01 6.821584e-01 2.949490e-01 1.623285e-01 2.333836e-01 -4.037259e-01 4.973314e-01 -6.909101e-02 -1.662607e-01 -3.566932e-02 -1.635498e-04 1.008207e-02 2.658150e-02 2.472176e-01 4.284774e-02 4.116476e-02 6.985083e-03 -6.585034e-02 1.244273e-02 -1.112704e-01 4.683410e-02
<VARIANCE> 39
 2.845076e+01 2.437359e+01 2.772894e+01 3.006908e+01 4.859436e+01 4.101439e+01 5.764201e+01 3.748026e+01 5.123861e+01 3.226421e+01 3.369260e+01 3.086636e+01 1.584625e+01 1.221584e+00 9.819229e-01 1.398530e+00 1.656641e+00 2.585378e+00 2.895628e+00 2.513389e+00 2.854492e+00 2.546041e+00 2.645993e+00 2.289058e+00 2.315582e+00 3.647801e-01 1.610482e-01 1.839305e-01 1.895887e-01 3.228415e-01 4.405936e-01 4.097216e-01 4.287929e-01 5.133252e-01 4.628488e-01 4.430805e-01 3.766260e-01 3.743821e-01 5.324902e-02
<GCONST> 1.088989e+02
<MIXTURE> 2 4.822308e-01
<MEAN> 39
 -6.132707e+00 1.113461e+01 7.483379e+00 3.605199e+00 4.036649e-01 -9.802217e+00 -3.141211e+00 8.040226e-01 -2.378001e+00 1.265255e+00 -4.769739e-01 1.961558e+00 6.410122e+01 -1.803215e+00 8.325452e-01 -7.375315e-02 -9.165580e-01 1.259913e+00 -8.504352e-02 3.758082e-01 2.283103e-01 -1.649685e-01 9.163757e-02 -4.905492e-01 2.915534e-01 5.399818e-03 -1.468529e-01 -3.852917e-02 -1.179126e-01 -1.778381e-02 -2.482730e-02 1.668052e-01 -3.561834e-02 1.625370e-02 -3.052024e-02 -4.907093e-02 2.963346e-03 -1.338037e-01 4.533616e-02
<VARIANCE> 39
 3.378138e+01 2.328827e+01 2.716008e+01 3.308503e+01 4.603009e+01 4.658006e+01 5.799918e+01 3.939302e+01 5.277649e+01 3.272256e+01 3.103605e+01 2.943134e+01 1.904543e+01 1.554873e+00 1.246210e+00 1.451718e+00 2.193886e+00 2.645738e+00 3.045924e+00 2.634191e+00 3.029379e+00 2.737380e+00 2.751722e+00 2.194465e+00 2.202210e+00 4.495163e-01 1.687820e-01 2.069431e-01 2.115625e-01 3.811918e-01 4.883079e-01 4.494704e-01 4.682633e-01 5.268279e-01 4.799269e-01 4.570645e-01 4.115347e-01 3.883303e-01 6.008369e-02
<GCONST> 1.115961e+02
<STATE> 3
<MEAN> 39
 -2.036782e+01 1.282169e+01 4.887893e+00 -1.332542e+00 6.941395e+00 -6.871282e+00 2.047208e-01 2.188761e+00 -4.072558e+00 4.818789e-01 -2.254831e+00 1.291004e+00 6.490907e+01 -4.365460e-01 -3.983978e-01 -1.176081e-01 -1.936350e-01 -1.095532e-02 1.392581e-01 6.858605e-02 4.326669e-02 -1.396456e-01 -5.738866e-02 -2.031727e-02 -1.895873e-01 3.908418e-02 2.817855e-01 -1.248051e-01 4.845643e-02 7.207102e-02 -1.662832e-01 -8.660353e-02 -5.778823e-02 -1.070579e-02 3.353859e-02 1.198950e-02 3.156047e-02 1.146543e-02 -3.931928e-02
<VARIANCE> 39
 1.755386e+01 2.939241e+01 3.342588e+01 3.998759e+01 3.748706e+01 4.240994e+01 6.449345e+01 4.987222e+01 4.252919e+01 4.225491e+01 3.279824e+01 2.796350e+01 8.184063e+00 1.175567e+00 1.038400e+00 1.322492e+00 1.771750e+00 2.410712e+00 2.782226e+00 2.580305e+00 2.894216e+00 2.390772e+00 2.618746e+00 2.370098e+00 2.156276e+00 2.142516e-01 1.023773e-01 1.669604e-01 2.219038e-01 3.323120e-01 4.431629e-01 5.377167e-01 4.922490e-01 5.568565e-01 4.738340e-01 5.188509e-01 4.636654e-01 4.378762e-01 3.317525e-02
<GCONST> 1.080675e+02
<STATE> 4
<NUMMIXES> 2
<MIXTURE> 1 5.069773e-01
<MEAN> 39
 -1.333676e+01 7.019662e+00 5.582555e+00 5.611153e-01 3.465016e+00 -6.601134e+00 -2.038631e+00 2.367412e+00 -3.036320e+00 9.568001e-01 -2.112819e+00 3.241169e-01 6.116668e+01 1.797625e+00 -2.568243e-01 1.783479e-01 8.148738e-01 -5.222381e-01 1.141757e-01 -1.926670e-01 -8.536708e-02 5.911878e-01 2.195157e-01 1.762462e-01 6.716136e-02 -6.493555e-01 1.308162e-01 1.433236e-01 -7.893870e-02 6.247763e-02 -3.897109e-02 1.475390e-02 1.049798e-02 -2.237421e-02 3.142712e-02 4.585021e-02 4.954420e-02 -3.017027e-02 3.715017e-02
<VARIANCE> 39
 4.116522e+01 3.520128e+01 3.504602e+01 3.741343e+01 3.954408e+01 6.318796e+01 5.626466e+01 5.044419e+01 5.062717e+01 4.452507e+01 3.184732e+01 2.979481e+01 3.298141e+01 2.841761e+00 3.004169e+00 2.554060e+00 2.550542e+00 4.779980e+00 5.402016e+00 3.916650e+00 3.941465e+00 3.653567e+00 3.605794e+00 2.716675e+00 2.562386e+00 1.445096e+00 5.230399e-01 5.950755e-01 4.738398e-01 5.039842e-01 8.780320e-01 1.094698e+00 8.266768e-01 8.088933e-01 7.700617e-01 6.947420e-01 5.227612e-01 4.973535e-01 2.489352e-01
<GCONST> 1.284696e+02
<MIXTURE> 2 4.930229e-01
<MEAN> 39
 -1.391344e+01 6.312973e+00 4.161229e+00 -6.946410e-01 2.804530e+00 -7.664913e+00 -2.831408e+00 1.728362e+00 -3.460570e+00 1.182246e-01 -2.258332e+00 -4.972680e-02 6.045898e+01 1.577515e+00 -5.838959e-01 -4.771793e-01 2.704957e-01 -9.939577e-01 -3.385784e-01 -7.329173e-01 -7.044330e-01 1.097057e-01 -2.616689e-03 -2.249857e-01 -1.471620e-01 -8.765978e-01 -4.668448e-02 5.369107e-02 -9.978542e-02 -8.694897e-03 -7.934841e-02 -3.329548e-03 -3.219481e-02 -8.696955e-02 -1.213390e-02 -1.338685e-02 -2.473401e-02 2.194444e-02 -4.872279e-02
<VARIANCE> 39
