~o
<STREAMINFO> 1 39
<VECSIZE> 39<NULLD><MFCC_D_A_0><DIAGC>
~h "htk"
<BEGINHMM>
<NUMSTATES> 5
<STATE> 2
<MEAN> 39
 -5.039791e+00 5.182231e+00 2.728743e+00 3.460041e+00 -2.763413e+00 -3.102599e+00 -1.621448e+00 -1.001449e+00 -1.465009e+00 -1.718117e-01 -4.143542e-01 -7.838874e-01 5.728345e+01 -3.069172e-04 -1.229584e-04 1.676911e-04 4.427330e-04 -7.723484e-05 -1.254952e-04 1.384274e-03 -5.965931e-04 -8.064950e-04 1.302634e-04 2.016021e-05 -6.641102e-04 -4.424106e-04 -3.279690e-05 1.287882e-04 -4.372475e-05 -2.521869e-04 -1.324795e-04 9.984825e-06 -6.734209e-05 3.129643e-05 5.655891e-04 1.135570e-04 -1.524381e-04 6.970180e-05 -2.208786e-04
<VARIANCE> 39
 7.511302e+01 3.176980e+01 4.933099e+01 4.342792e+01 5.612370e+01 5.721409e+01 4.854732e+01 5.180255e+01 4.520740e+01 4.441997e+01 3.916885e+01 3.258707e+01 1.870390e+02 1.427630e+00 1.314636e+00 1.443937e+00 1.965726e+00 2.426751e+00 2.540307e+00 2.353026e+00 2.664735e+00 2.397733e+00 2.564335e+00 2.306235e+00 1.956253e+00 1.593098e+00 1.919458e-01 2.298697e-01 2.440808e-01 3.528875e-01 4.183310e-01 4.509604e-01 4.301300e-01 4.753851e-01 4.365360e-01 4.593079e-01 4.178236e-01 3.601703e-01 2.372379e-01
<GCONST> 1.183655e+02
<STATE> 3
<MEAN> 39
 -5.039791e+00 5.182231e+00 2.728743e+00 3.460041e+00 -2.763413e+00 -3.102599e+00 -1.621448e+00 -1.001449e+00 -1.465009e+00 -1.718117e-01 -4.143542e-01 -7.838874e-01 5.728345e+01 -3.069172e-04 -1.229584e-04 1.676911e-04 4.427330e-04 -7.723484e-05 -1.254952e-04 1.384274e-03 -5.965931e-04 -8.064950e-04 1.302634e-04 2.016021e-05 -6.641102e-04 -4.424106e-04 -3.279690e-05 1.287882e-04 -4.372475e-05 -2.521869e-04 -1.324795e-04 9.984825e-06 -6.734209e-05 3.129643e-05 5.655891e-04 1.135570e-04 -1.524381e-04 6.970180e-05 -2.208786e-04
<VARIANCE> 39
 7.511302e+01 3.176980e+01 4.933099e+01 4.342792e+01 5.612370e+01 5.721409e+01 4.854732e+01 5.180255e+01 4.520740e+01 4.441997e+01 3.916885e+01 3.258707e+01 1.870390e+02 1.427630e+00 1.314636e+00 1.443937e+00 1.965726e+00 2.426751e+00 2.540307e+00 2.353026e+00 2.664735e+00 2.397733e+00 2.564335e+00 2.306235e+00 1.956253e+00 1.593098e+00 1.919458e-01 2.298697e-01 2.440808e-01 3.528875e-01 4.183310e-01 4.509604e-01 4.301300e-01 4.753851e-01 4.365360e-01 4.593079e-01 4.178236e-01 3.601703e-01 2.372379e-01
<GCONST> 1.183655e+02
<STATE> 4
<MEAN> 39
 -5.039791e+00 5.182231e+00 2.728743e+00 3.460041e+00 -2.763413e+00 -3.102599e+00 -1.621448e+00 -1.001449e+00 -1.465009e+00 -1.718117e-01 -4.143542e-01 -7.838874e-01 5.728345e+01 -3.069172e-04 -1.229584e-04 1.676911e-04 4.427330e-04 -7.723484e-05 -1.254952e-04 1.384274e-03 -5.965931e-04 -8.064950e-04 1.302634e-04 2.016021e-05 -6.641102e-04 -4.424106e-04 -3.279690e-05 1.287882e-04 -4.372475e-05 -2.521869e-04 -1.324795e-04 9.984825e-06 -6.734209e-05 3.129643e-05 5.655891e-04 1.135570e-04 -1.524381e-04 6.970180e-05 -2.208786e-04
<VARIANCE> 39
 7.511302e+01 3.176980e+01 4.933099e+01 4.342792e+01 5.612370e+01 5.721409e+01 4.854732e+01 5.180255e+01 4.520740e+01 4.441997e+01 3.916885e+01 3.258707e+01 1.870390e+02 1.427630e+00 1.314636e+00 1.443937e+00 1.965726e+00 2.426751e+00 2.540307e+00 2.353026e+00 2.664735e+00 2.397733e+00 2.564335e+00 2.306235e+00 1.956253e+00 1.593098e+00 1.919458e-01 2.298697e-01 2.440808e-01 3.528875e-01 4.183310e-01 4.509604e-01 4.301300e-01 4.753851e-01 4.365360e-01 4.593079e-01 4.178236e-01 3.601703e-01 2.372379e-01
<GCONST> 1.183655e+02
<TRANSP> 5
 0.000000e+00 1.000000e+00 0.000000e+00 0.000000e+00 0.000000e+00
 0.000000e+00 6.000000e-01 4.000000e-01 0.000000e+00 0.000000e+00
 0.000000e+00 0.000000e+00 6.000000e-01 4.000000e-01 0.000000e+00
 0.000000e+00 0.000000e+00 0.000000e+00 7.000000e-01 3.000000e-01
 0.000000e+00 0.000000e+00 0.000000e+00 0.000000e+00 0.000000e+00
<ENDHMM>
