~o
<STREAMINFO> 1 39
<VECSIZE> 39<NULLD><MFCC_D_A_0><DIAGC>
~h "b"
<BEGINHMM>
<NUMSTATES> 5
<STATE> 2
<MEAN> 39
 -3.793351e+00 5.780347e+00 2.425925e+00 4.088300e+00 -2.775306e+00 -3.291012e+00 -8.879776e-01 -1.486837e+00 -2.036276e-01 -4.839491e-01 -5.066121e-01 -8.018776e-01 5.854279e+01 1.391993e-02 4.318646e-03 5.906133e-04 6.552039e-03 1.918049e-04 -1.194576e-03 -3.830084e-03 -9.019111e-03 -4.326587e-03 7.738789e-03 3.001527e-03 1.035636e-03 9.074382e-03 -7.200988e-04 -2.078935e-06 1.690663e-04 -2.121546e-04 -9.743827e-05 3.432120e-04 -1.464101e-05 -2.609027e-04 -3.186719e-04 1.929533e-04 1.210524e-04 6.736172e-05 -1.538585e-03
<VARIANCE> 39
 5.997000e+01 3.335058e+01 4.504786e+01 3.855173e+01 5.652048e+01 5.547523e+01 5.034745e+01 5.779969e+01 4.415037e+01 4.629326e+01 3.850360e+01 3.212404e+01 1.083952e+02 1.375986e+00 1.347504e+00 1.483863e+00 1.871064e+00 2.515466e+00 2.437986e+00 2.405987e+00 2.651371e+00 2.470911e+00 2.422727e+00 2.271456e+00 1.973746e+00 1.597647e+00 1.951878e-01 2.365573e-01 2.524090e-01 3.476893e-01 4.377871e-01 4.335611e-01 4.386409e-01 4.693681e-01 4.571416e-01 4.384699e-01 4.140487e-01 3.702143e-01 2.349156e-01
<GCONST> 1.175748e+02
<STATE> 3
<MEAN> 39
 -3.723520e+00 5.805020e+00 2.432409e+00 4.120836e+00 -2.776592e+00 -3.294690e+00 -9.098008e-01 -1.538898e+00 -2.276345e-01 -4.462343e-01 -4.906935e-01 -7.950000e-01 5.858625e+01 1.221601e-02 4.537450e-03 1.450170e-03 5.825005e-03 -1.040630e-04 -4.486234e-04 -4.567950e-03 -1.007021e-02 -5.667457e-03 7.783553e-03 3.504759e-03 1.456817e-03 6.064869e-03 -2.642150e-04 4.438283e-05 1.686460e-04 -1.486721e-04 -7.517039e-05 8.782309e-05 -1.580328e-04 -1.616631e-04 -2.685109e-04 -1.301856e-05 8.234555e-05 1.044771e-04 -3.537211e-04
<VARIANCE> 39
 5.936650e+01 3.321713e+01 4.501600e+01 3.868349e+01 5.665868e+01 5.559797e+01 5.029231e+01 5.774056e+01 4.410763e+01 4.612400e+01 3.850941e+01 3.197889e+01 1.050667e+02 1.362623e+00 1.343494e+00 1.486592e+00 1.868147e+00 2.519706e+00 2.443313e+00 2.406189e+00 2.652098e+00 2.466257e+00 2.429925e+00 2.271240e+00 1.964072e+00 1.606111e+00 1.930928e-01 2.355862e-01 2.527850e-01 3.463510e-01 4.376459e-01 4.348195e-01 4.383230e-01 4.690052e-01 4.564834e-01 4.404174e-01 4.138687e-01 3.676515e-01 2.363632e-01
<GCONST> 1.175044e+02
<STATE> 4
<MEAN> 39
 -3.411876e+00 5.870733e+00 2.466067e+00 4.214034e+00 -2.779538e+00 -3.240026e+00 -1.028159e+00 -1.638764e+00 -3.303927e-01 -4.268785e-01 -4.621778e-01 -8.082359e-01 5.894923e+01 1.128859e-02 5.041625e-03 2.425072e-03 5.467727e-03 -7.468472e-04 -4.506172e-04 -6.155270e-03 -1.046976e-02 -6.892247e-03 7.091793e-03 4.915748e-03 2.754260e-03 1.266861e-03 -2.979933e-04 -5.987118e-05 6.042782e-05 -1.446726e-04 -2.226839e-05 1.561353e-06 -8.243242e-05 1.168193e-04 -2.099941e-04 -2.672146e-05 7.241654e-05 9.757204e-05 -4.943764e-04
<VARIANCE> 39
 5.688796e+01 3.322900e+01 4.535649e+01 3.944925e+01 5.672157e+01 5.643766e+01 5.054945e+01 5.699027e+01 4.434003e+01 4.639494e+01 3.886448e+01 3.191212e+01 9.047753e+01 1.344864e+00 1.359057e+00 1.499686e+00 1.861905e+00 2.515753e+00 2.463211e+00 2.414271e+00 2.654510e+00 2.454833e+00 2.448808e+00 2.285468e+00 1.943880e+00 1.565190e+00 1.909301e-01 2.377407e-01 2.551069e-01 3.420725e-01 4.333532e-01 4.376303e-01 4.386297e-01 4.695626e-01 4.528232e-01 4.453904e-01 4.160804e-01 3.619862e-01 2.274357e-01
<GCONST> 1.173014e+02
<TRANSP> 5
 0.000000e+00 1.000000e+00 0.000000e+00 0.000000e+00 0.000000e+00
 0.000000e+00 7.989104e-01 2.010896e-01 0.000000e+00 0.000000e+00
 0.000000e+00 0.000000e+00 7.989105e-01 2.010894e-01 0.000000e+00
 0.000000e+00 0.000000e+00 0.000000e+00 9.323304e-01 6.766967e-02
 0.000000e+00 0.000000e+00 0.000000e+00 0.000000e+00 0.000000e+00
<ENDHMM>
~h "d"
<BEGINHMM>
<NUMSTATES> 5
<STATE> 2
<MEAN> 39
 -3.902886e+00 5.634281e+00 3.334842e+00 3.751376e+00 -3.057300e+00 -2.944574e+00 -1.774935e+00 -9.989608e-01 -2.073880e+00 -3.937599e-01 -3.826227e-01 -9.879531e-01 6.014571e+01 -4.626296e-03 -5.777366e-05 1.195538e-03 4.234425e-03 4.164201e-03 -5.571118e-04 1.282953e-03 2.195417e-03 1.044752e-03 -1.408549e-03 3.906956e-05 -2.314461e-03 -1.181519e-02 -5.242570e-05 -3.201522e-06 2.481180e-05 6.142564e-05 -6.459431e-05 -2.475124e-04 -1.019659e-04 -2.013069e-05 8.953613e-06 1.847688e-04 -1.406724e-05 1.546633e-04 -4.356588e-04
<VARIANCE> 39
 7.126001e+01 3.379734e+01 5.545238e+01 4.614450e+01 6.341559e+01 6.180052e+01 5.493812e+01 5.785148e+01 5.001454e+01 4.831630e+01 4.151912e+01 3.530908e+01 1.138392e+02 1.497037e+00 1.460865e+00 1.518415e+00 2.111840e+00 2.562310e+00 2.596435e+00 2.393255e+00 2.740301e+00 2.442136e+00 2.578560e+00 2.318930e+00 1.986857e+00 1.520759e+00 2.062825e-01 2.578299e-01 2.531275e-01 3.771326e-01 4.350065e-01 4.532282e-01 4.352614e-01 4.752035e-01 4.367335e-01 4.543067e-01 4.135214e-01 3.586630e-01 2.313216e-01
<GCONST> 1.195023e+02
<STATE> 3
<MEAN> 39
 -3.927346e+00 5.633167e+00 3.340208e+00 3.773697e+00 -3.037036e+00 -2.950694e+00 -1.770101e+00 -9.875327e-01 -2.069528e+00 -3.979176e-01 -3.815499e-01 -9.971145e-01 6.007614e+01 -4.861499e-03 -6.058078e-05 1.282422e-03 4.428496e-03 3.626746e-03 -1.679008e-03 8.480251e-04 2.010048e-03 1.139697e-03 -4.596463e-04 8.662026e-05 -1.686985e-03 -1.386804e-02 -4.083457e-05 2.251384e-06 1.536052e-05 5.088602e-05 -1.189165e-04 -2.134528e-04 -6.675265e-05 -5.539750e-05 1.161321e-05 2.010338e-04 1.373792e-06 1.247823e-04 -3.805241e-04
<VARIANCE> 39
 7.167947e+01 3.384320e+01 5.539939e+01 4.601199e+01 6.333600e+01 6.183746e+01 5.501041e+01 5.776167e+01 4.993856e+01 4.823209e+01 4.149123e+01 3.527983e+01 1.177580e+02 1.496990e+00 1.455751e+00 1.518179e+00 2.108442e+00 2.564783e+00 2.594477e+00 2.383580e+00 2.732976e+00 2.443638e+00 2.571255e+00 2.315462e+00 1.985817e+00 1.522880e+00 2.063018e-01 2.571863e-01 2.530546e-01 3.761639e-01 4.354030e-01 4.527315e-01 4.329902e-01 4.737718e-01 4.371529e-01 4.527975e-01 4.129445e-01 3.586552e-01 2.316691e-01
<GCONST> 1.195032e+02
<STATE> 4
<MEAN> 39
 -3.951085e+00 5.614577e+00 3.308968e+00 3.828036e+00 -3.006003e+00 -2.979559e+00 -1.767648e+00 -9.677349e-01 -2.010153e+00 -4.488319e-01 -3.800368e-01 -1.010966e+00 5.987482e+01 -6.297606e-03 -3.390914e-04 1.575683e-03 4.399541e-03 2.699831e-03 -3.804336e-03 6.127170e-04 2.072103e-03 8.769426e-04 9.796134e-04 -4.440133e-04 -1.539591e-04 -1.973799e-02 -8.007327e-05 1.066700e-05 5.171815e-05 -3.644236e-07 -1.274793e-04 -1.503394e-04 1.805553e-06 -7.601064e-05 3.074391e-06 1.581856e-04 -7.460817e-05 1.180811e-04 -2.855026e-04
<VARIANCE> 39
 7.228279e+01 3.358628e+01 5.531220e+01 4.546156e+01 6.247914e+01 6.159682e+01 5.495758e+01 5.716328e+01 4.974428e+01 4.803188e+01 4.137737e+01 3.512432e+01 1.275075e+02 1.487883e+00 1.439095e+00 1.514689e+00 2.091581e+00 2.550954e+00 2.587375e+00 2.359075e+00 2.711544e+00 2.437771e+00 2.558361e+00 2.304329e+00 1.974966e+00 1.537617e+00 2.054611e-01 2.550943e-01 2.525531e-01 3.724078e-01 4.330455e-01 4.510720e-01 4.279394e-01 4.704441e-01 4.364538e-01 4.501345e-01 4.103909e-01 3.569108e-01 2.341484e-01
<GCONST> 1.194033e+02
<TRANSP> 5
 0.000000e+00 1.000000e+00 0.000000e+00 0.000000e+00 0.000000e+00
 0.000000e+00 7.992646e-01 2.007354e-01 0.000000e+00 0.000000e+00
 0.000000e+00 0.000000e+00 7.992665e-01 2.007335e-01 0.000000e+00
 0.000000e+00 0.000000e+00 0.000000e+00 9.326459e-01 6.735417e-02
 0.000000e+00 0.000000e+00 0.000000e+00 0.000000e+00 0.000000e+00
<ENDHMM>
~h "f"
<BEGINHMM>
<NUMSTATES> 5
<STATE> 2
<MEAN> 39
 -4.141705e+00 4.456294e+00 2.019354e+00 3.089743e+00 -3.077416e+00 -2.959866e+00 -1.809767e+00 -8.984619e-01 -1.799280e+00 -6.168438e-01 -5.832580e-02 -4.933291e-01 6.064112e+01 5.293502e-03 -2.227528e-03 7.324410e-04 -4.747904e-04 2.493006e-03 -4.098800e-03 -5.096972e-03 1.503051e-03 2.278713e-03 -2.517871e-03 3.182479e-03 5.580924e-04 1.181696e-02 -2.514664e-05 8.000070e-05 2.621887e-05 8.996339e-05 6.467380e-05 -1.149531e-04 -1.290166e-04 -3.037452e-05 7.400868e-05 -3.104309e-05 -1.770348e-04 -2.835530e-04 -1.346914e-04
<VARIANCE> 39
 7.679526e+01 3.614365e+01 5.672121e+01 4.686179e+01 5.744883e+01 5.950188e+01 5.357959e+01 5.310684e+01 4.854942e+01 4.404042e+01 4.093600e+01 3.231111e+01 8.456115e+01 1.630228e+00 1.423646e+00 1.561487e+00 2.101431e+00 2.451102e+00 2.547117e+00 2.440423e+00 2.666650e+00 2.474158e+00 2.533075e+00 2.358363e+00 1.907548e+00 1.396558e+00 2.015533e-01 2.381057e-01 2.602178e-01 3.735296e-01 4.185161e-01 4.513353e-01 4.398365e-01 4.727612e-01 4.410538e-01 4.490048e-01 4.234839e-01 3.477232e-01 2.114518e-01
<GCONST> 1.185885e+02
<STATE> 3
<MEAN> 39
 -4.114650e+00 4.447512e+00 2.019898e+00 3.086258e+00 -3.065258e+00 -2.976594e+00 -1.836461e+00 -8.970785e-01 -1.788399e+00 -6.286052e-01 -4.343257e-02 -4.944088e-01 6.070026e+01 4.950910e-03 -1.828297e-03 4.201346e-04 -5.612898e-04 2.632668e-03 -3.555345e-03 -5.274043e-03 4.237505e-04 2.253183e-03 -2.221035e-03 2.868539e-03 -4.043053e-04 1.044828e-02 -8.869636e-05 9.704956e-05 -6.143505e-05 -3.506130e-05 3.453702e-05 1.279255e-04 -3.100007e-05 -2.286723e-04 2.316785e-06 7.142968e-05 -5.753105e-05 -1.746581e-04 -2.673292e-04
<VARIANCE> 39
 7.676502e+01 3.621535e+01 5.659116e+01 4.698489e+01 5.708101e+01 5.945730e+01 5.340633e+01 5.313155e+01 4.861493e+01 4.410579e+01 4.100890e+01 3.222735e+01 8.096218e+01 1.634706e+00 1.421991e+00 1.563413e+00 2.105570e+00 2.443485e+00 2.548782e+00 2.427207e+00 2.660415e+00 2.470690e+00 2.532247e+00 2.357450e+00 1.910460e+00 1.410360e+00 2.015702e-01 2.371811e-01 2.610519e-01 3.745413e-01 4.175740e-01 4.527611e-01 4.375498e-01 4.715962e-01 4.401825e-01 4.486774e-01 4.232221e-01 3.484656e-01 2.129306e-01
<GCONST> 1.185439e+02
<STATE> 4
<MEAN> 39
 -4.120206e+00 4.413500e+00 2.022796e+00 3.054703e+00 -3.020606e+00 -2.922588e+00 -1.978254e+00 -9.483081e-01 -1.794111e+00 -6.867992e-01 -6.045818e-02 -5.287503e-01 6.094687e+01 2.053656e-03 -3.746808e-04 1.083498e-03 -1.003178e-04 2.638565e-03 6.899532e-04 -4.669367e-03 -1.537303e-03 2.010342e-03 -2.654062e-03 2.276843e-03 -2.714796e-03 2.467480e-03 -2.929196e-04 1.083981e-04 9.349011e-05 2.852837e-05 5.658118e-05 2.147040e-04 5.271096e-05 -8.086169e-05 6.121766e-06 -5.769952e-06 -6.979410e-05 -1.429353e-04 -7.114289e-04
<VARIANCE> 39
 7.680112e+01 3.645228e+01 5.669857e+01 4.726709e+01 5.646512e+01 5.962169e+01 5.240691e+01 5.342009e+01 4.838936e+01 4.394781e+01 4.102694e+01 3.207585e+01 7.003510e+01 1.640178e+00 1.413062e+00 1.567687e+00 2.110478e+00 2.420498e+00 2.564266e+00 2.397849e+00 2.656325e+00 2.465183e+00 2.520425e+00 2.352289e+00 1.927622e+00 1.358910e+00 2.011884e-01 2.344635e-01 2.624035e-01 3.753771e-01 4.139119e-01 4.588113e-01 4.321378e-01 4.715186e-01 4.389361e-01 4.464526e-01 4.226540e-01 3.516604e-01 2.048357e-01
<GCONST> 1.182744e+02
<TRANSP> 5
 0.000000e+00 1.000000e+00 0.000000e+00 0.000000e+00 0.000000e+00
 0.000000e+00 7.993912e-01 2.006088e-01 0.000000e+00 0.000000e+00
 0.000000e+00 0.000000e+00 7.993914e-01 2.006086e-01 0.000000e+00
 0.000000e+00 0.000000e+00 0.000000e+00 9.330648e-01 6.693524e-02
 0.000000e+00 0.000000e+00 0.000000e+00 0.000000e+00 0.000000e+00
<ENDHMM>
~h "g"
<BEGINHMM>
<NUMSTATES> 5
<STATE> 2
<MEAN> 39
 -3.918880e+00 6.035366e+00 3.053279e+00 4.258175e+00 -3.297579e+00 -3.001974e+00 -1.410241e+00 -1.743016e+00 -1.595901e+00 -3.638133e-01 -1.158352e-02 -1.120014e+00 5.941971e+01 -1.188621e-03 9.007172e-04 -7.281988e-03 3.496024e-03 5.483867e-03 1.350210e-02 -3.254927e-03 3.599464e-04 6.648925e-03 -2.690092e-03 1.348856e-03 -5.400312e-03 -2.982413e-02 -1.329843e-04 -2.082576e-04 2.147333e-04 5.404007e-05 -6.258310e-05 -1.170473e-04 -1.112663e-04 2.725446e-04 -1.541628e-04 -3.007924e-05 6.986327e-05 1.062502e-04 -1.209220e-04
<VARIANCE> 39
 5.979706e+01 3.079420e+01 5.387619e+01 4.136687e+01 6.218574e+01 6.172241e+01 5.195056e+01 5.877509e+01 4.809206e+01 4.704686e+01 4.179616e+01 3.549459e+01 1.019994e+02 1.438816e+00 1.360148e+00 1.504805e+00 1.974100e+00 2.786265e+00 2.655955e+00 2.410779e+00 2.824126e+00 2.405767e+00 2.674828e+00 2.432401e+00 1.991994e+00 1.619488e+00 2.107318e-01 2.477355e-01 2.606552e-01 3.673164e-01 4.795453e-01 4.696034e-01 4.392129e-01 5.001550e-01 4.391767e-01 4.705207e-01 4.331578e-01 3.638637e-01 2.379747e-01
<GCONST> 1.192695e+02
<STATE> 3
<MEAN> 39
 -3.927736e+00 6.036080e+00 3.019993e+00 4.276407e+00 -3.275045e+00 -2.934483e+00 -1.427438e+00 -1.739751e+00 -1.563174e+00 -3.785122e-01 -3.043636e-03 -1.146222e+00 5.927198e+01 -1.846413e-03 -1.385487e-04 -6.146448e-03 3.728309e-03 5.065579e-03 1.284200e-02 -3.740924e-03 1.659212e-03 5.753424e-03 -2.919997e-03 1.587770e-03 -4.868061e-03 -2.974315e-02 -9.108840e-05 -1.909520e-04 2.580762e-04 3.922162e-05 -6.488274e-05 -1.996291e-04 -1.113352e-04 2.292234e-04 -2.271667e-04 -3.726438e-05 7.942750e-05 1.166215e-04 1.410753e-04
<VARIANCE> 39
 6.044286e+01 3.080173e+01 5.421187e+01 4.106277e+01 6.225917e+01 6.172450e+01 5.149623e+01 5.823130e+01 4.782077e+01 4.663211e+01 4.196815e+01 3.544725e+01 1.103795e+02 1.430077e+00 1.357199e+00 1.500538e+00 1.963126e+00 2.784301e+00 2.634802e+00 2.415277e+00 2.820333e+00 2.394418e+00 2.663219e+00 2.424181e+00 1.990305e+00 1.603588e+00 2.102975e-01 2.466315e-01 2.596728e-01 3.655210e-01 4.779793e-01 4.642132e-01 4.410996e-01 4.994034e-01 4.372241e-01 4.686860e-01 4.310056e-01 3.635761e-01 2.352944e-01
<GCONST> 1.192290e+02
<STATE> 4
<MEAN> 39
 -3.845677e+00 6.017319e+00 2.990922e+00 4.291420e+00 -3.305975e+00 -2.901961e+00 -1.512856e+00 -1.750103e+00 -1.577170e+00 -3.599728e-01 7.245032e-02 -1.168334e+00 5.928638e+01 -4.107501e-03 -3.040673e-03 -4.516928e-03 3.076450e-03 3.153450e-03 1.247120e-02 -3.484161e-03 3.867143e-03 4.437780e-03 -4.190607e-03 1.842422e-03 -3.972994e-03 -2.717579e-02 -1.056093e-04 -1.904766e-04 2.413155e-04 -7.400315e-05 -5.584307e-05 -2.370104e-04 -5.445083e-05 2.279904e-04 -2.824404e-04 -5.575638e-05 6.238454e-05 1.428890e-04 3.152094e-04
<VARIANCE> 39
 6.053807e+01 3.097929e+01 5.511180e+01 4.079177e+01 6.300390e+01 6.197262e+01 5.010262e+01 5.772816e+01 4.732753e+01 4.605363e+01 4.251188e+01 3.557486e+01 1.179636e+02 1.425921e+00 1.358646e+00 1.504216e+00 1.948567e+00 2.782649e+00 2.594993e+00 2.407023e+00 2.800545e+00 2.376727e+00 2.646751e+00 2.414594e+00 1.992766e+00 1.611042e+00 2.129361e-01 2.454668e-01 2.603827e-01 3.633223e-01 4.767976e-01 4.532815e-01 4.409542e-01 4.942187e-01 4.331815e-01 4.678340e-01 4.279025e-01 3.646724e-01 2.370160e-01
<GCONST> 1.192005e+02
<TRANSP> 5
 0.000000e+00 1.000000e+00 0.000000e+00 0.000000e+00 0.000000e+00
 0.000000e+00 7.985661e-01 2.014339e-01 0.000000e+00 0.000000e+00
 0.000000e+00 0.000000e+00 7.985671e-01 2.014329e-01 0.000000e+00
 0.000000e+00 0.000000e+00 0.000000e+00 9.319800e-01 6.801996e-02
 0.000000e+00 0.000000e+00 0.000000e+00 0.000000e+00 0.000000e+00
<ENDHMM>
~h "k"
<BEGINHMM>
<NUMSTATES> 5
<STATE> 2
<MEAN> 39
 -4.603316e+00 5.573917e+00 3.042891e+00 3.598687e+00 -3.386163e+00 -3.641434e+00 -1.450242e+00 -1.423684e+00 -1.563414e+00 8.414381e-03 2.330114e-02 -4.102463e-01 5.865775e+01 -9.799173e-03 -4.841830e-03 -2.799779e-04 -1.062550e-03 -1.289155e-03 -2.029856e-03 -2.389507e-03 4.995453e-03 1.045233e-03 1.100226e-03 2.084100e-04 1.706985e-03 -2.265715e-02 -2.622402e-04 -7.272179e-05 -7.073029e-05 7.563863e-05 -5.535458e-05 1.334027e-04 7.977720e-05 1.416803e-04 1.310353e-04 2.326936e-04 -2.524925e-04 -1.154028e-04 -9.474181e-04
<VARIANCE> 39
 6.839193e+01 3.186345e+01 4.991075e+01 4.519035e+01 5.975997e+01 5.855384e+01 5.283821e+01 5.361094e+01 4.568736e+01 4.406582e+01 4.052942e+01 3.247017e+01 1.233157e+02 1.562038e+00 1.547742e+00 1.572669e+00 2.136941e+00 2.731209e+00 2.717045e+00 2.463476e+00 2.772591e+00 2.462995e+00 2.659826e+00 2.420184e+00 1.976992e+00 1.599755e+00 2.168038e-01 2.767031e-01 2.659774e-01 3.798891e-01 4.722741e-01 4.843220e-01 4.487375e-01 4.891455e-01 4.435290e-01 4.780520e-01 4.331082e-01 3.636773e-01 2.385349e-01
<GCONST> 1.198045e+02
<STATE> 3
<MEAN> 39
 -4.654469e+00 5.548312e+00 3.040565e+00 3.595344e+00 -3.392851e+00 -3.653280e+00 -1.461107e+00 -1.397659e+00 -1.555885e+00 1.518622e-02 2.022002e-02 -4.038271e-01 5.853458e+01 -1.054059e-02 -5.188549e-03 -5.731466e-04 -6.283862e-04 -1.019324e-03 -1.830602e-03 -2.116603e-03 5.252175e-03 1.596858e-03 1.580470e-03 -8.196679e-04 8.679972e-04 -2.608587e-02 -1.396506e-04 -2.957561e-05 -1.487785e-05 1.019755e-04 8.632241e-05 3.377894e-05 6.279704e-05 2.269721e-07 8.001534e-05 7.815193e-05 -1.962817e-04 -1.849230e-04 -6.968314e-04
<VARIANCE> 39
 6.889802e+01 3.189412e+01 4.971257e+01 4.496157e+01 5.959632e+01 5.856308e+01 5.286294e+01 5.342671e+01 4.567401e+01 4.384679e+01 4.046000e+01 3.241598e+01 1.285856e+02 1.561906e+00 1.545106e+00 1.569734e+00 2.137908e+00 2.728528e+00 2.716391e+00 2.471639e+00 2.765749e+00 2.468936e+00 2.658830e+00 2.421786e+00 1.976130e+00 1.592419e+00 2.167619e-01 2.760970e-01 2.656471e-01 3.804429e-01 4.715328e-01 4.845202e-01 4.508214e-01 4.875051e-01 4.448613e-01 4.782014e-01 4.338207e-01 3.635135e-01 2.372396e-01
<GCONST> 1.198225e+02
<STATE> 4
<MEAN> 39
 -4.722338e+00 5.471705e+00 3.076969e+00 3.585291e+00 -3.415829e+00 -3.694881e+00 -1.523942e+00 -1.314997e+00 -1.549753e+00 -1.032057e-02 -5.640216e-03 -4.357700e-01 5.840546e+01 -1.003327e-02 -5.266330e-03 -1.232021e-03 -3.916816e-04 7.319374e-04 -1.311868e-03 -1.301605e-03 4.014928e-03 2.042806e-03 1.680188e-03 -2.207594e-03 -2.750058e-04 -3.023627e-02 -6.669098e-05 3.304402e-05 1.066425e-05 1.768804e-05 1.675455e-04 1.315433e-04 1.104062e-04 -1.284895e-04 -3.291137e-05 3.016765e-05 -1.043713e-04 -1.475952e-04 -6.128331e-04
<VARIANCE> 39
 6.980524e+01 3.178312e+01 4.922840e+01 4.439365e+01 5.915583e+01 5.847073e+01 5.261820e+01 5.296622e+01 4.567733e+01 4.356037e+01 4.041878e+01 3.213533e+01 1.367392e+02 1.561101e+00 1.536097e+00 1.564004e+00 2.135796e+00 2.712908e+00 2.709035e+00 2.473004e+00 2.745552e+00 2.481704e+00 2.652706e+00 2.421974e+00 1.975031e+00 1.601220e+00 2.167308e-01 2.744885e-01 2.649183e-01 3.812732e-01 4.686945e-01 4.842041e-01 4.508438e-01 4.830147e-01 4.478258e-01 4.775214e-01 4.351079e-01 3.639525e-01 2.384123e-01
<GCONST> 1.198061e+02
<TRANSP> 5
 0.000000e+00 1.000000e+00 0.000000e+00 0.000000e+00 0.000000e+00
 0.000000e+00 7.997363e-01 2.002637e-01 0.000000e+00 0.000000e+00
 0.000000e+00 0.000000e+00 7.997347e-01 2.002653e-01 0.000000e+00
 0.000000e+00 0.000000e+00 0.000000e+00 9.332696e-01 6.673050e-02
 0.000000e+00 0.000000e+00 0.000000e+00 0.000000e+00 0.000000e+00
<ENDHMM>
~h "l"
<BEGINHMM>
<NUMSTATES> 5
<STATE> 2
<MEAN> 39
 -4.102566e+00 5.554712e+00 2.339368e+00 2.434488e+00 -2.231354e+00 -2.977884e+00 -2.452357e+00 -1.010431e+00 -1.310614e+00 2.078888e-01 -4.993442e-01 -7.965466e-01 5.935847e+01 -1.030682e-04 -4.065519e-04 -1.443213e-03 -3.062624e-03 6.787936e-04 8.502951e-03 -3.090575e-04 -3.649690e-03 1.759397e-03 -6.552562e-04 3.783791e-03 2.972257e-03 -7.575943e-03 -1.330282e-04 4.180844e-05 6.987346e-05 1.615684e-05 6.645876e-06 2.194739e-05 -2.469241e-06 -2.276793e-06 1.880235e-05 -1.117294e-05 5.164240e-05 -2.408789e-05 -1.377340e-04
<VARIANCE> 39
 7.056960e+01 3.098485e+01 5.116853e+01 4.971203e+01 5.764109e+01 6.042131e+01 5.330509e+01 6.055122e+01 4.852315e+01 4.745453e+01 4.047520e+01 3.402937e+01 1.330203e+02 1.400068e+00 1.314737e+00 1.425467e+00 1.950277e+00 2.376367e+00 2.501721e+00 2.411059e+00 2.766869e+00 2.410661e+00 2.555529e+00 2.322368e+00 1.958233e+00 1.383093e+00 1.837963e-01 2.265822e-01 2.332446e-01 3.453473e-01 4.028901e-01 4.358122e-01 4.343816e-01 4.833921e-01 4.326973e-01 4.434942e-01 4.184398e-01 3.551577e-01 2.074553e-01
<GCONST> 1.181462e+02
<STATE> 3
<MEAN> 39
 -4.104178e+00 5.553029e+00 2.332636e+00 2.417295e+00 -2.227537e+00 -2.933568e+00 -2.452924e+00 -1.028906e+00 -1.303221e+00 2.039769e-01 -4.802323e-01 -7.828544e-01 5.932166e+01 -7.364062e-04 -3.037096e-04 -1.166941e-03 -3.110365e-03 7.842033e-04 8.817016e-03 -2.922508e-04 -3.417186e-03 1.660758e-03 -1.060808e-03 3.937103e-03 2.730744e-03 -8.221074e-03 -1.444679e-04 9.645580e-06 5.642582e-05 -1.297283e-05 1.413539e-05 4.160502e-05 1.205222e-05 3.457330e-05 -3.224476e-05 -5.118107e-05 4.187497e-05 -5.642278e-05 -1.629140e-04
<VARIANCE> 39
 7.065612e+01 3.102136e+01 5.137900e+01 4.988123e+01 5.747060e+01 6.047614e+01 5.359978e+01 6.053702e+01 4.866617e+01 4.747063e+01 4.049213e+01 3.411257e+01 1.352407e+02 1.398532e+00 1.318320e+00 1.424409e+00 1.952522e+00 2.372245e+00 2.503606e+00 2.411454e+00 2.764287e+00 2.406045e+00 2.554509e+00 2.311359e+00 1.957412e+00 1.377068e+00 1.837197e-01 2.272969e-01 2.330756e-01 3.457587e-01 4.022189e-01 4.361510e-01 4.347345e-01 4.831679e-01 4.318892e-01 4.432492e-01 4.161600e-01 3.548743e-01 2.063439e-01
<GCONST> 1.181591e+02
<STATE> 4
<MEAN> 39
 -4.030294e+00 5.552535e+00 2.316955e+00 2.338511e+00 -2.223680e+00 -2.774696e+00 -2.516945e+00 -1.083361e+00 -1.359582e+00 2.182630e-01 -4.601522e-01 -8.058355e-01 5.948845e+01 -2.129058e-03 -1.168241e-03 -1.083316e-03 -3.546131e-03 7.056463e-04 1.015875e-02 1.147905e-03 -1.907553e-03 -3.987295e-04 -1.817799e-03 3.727561e-03 1.446455e-03 -1.070655e-02 -1.658427e-04 -6.955829e-05 2.440114e-05 3.261658e-05 -1.356121e-06 -2.460328e-06 7.757529e-05 1.030962e-04 -1.136108e-04 -2.556123e-05 3.254696e-05 -8.783849e-05 -3.340162e-04
<VARIANCE> 39
 7.050774e+01 3.093011e+01 5.220787e+01 5.033050e+01 5.729653e+01 6.101448e+01 5.431250e+01 6.063278e+01 4.915794e+01 4.776550e+01 4.061599e+01 3.443902e+01 1.344242e+02 1.397284e+00 1.326861e+00 1.429429e+00 1.952433e+00 2.358202e+00 2.508605e+00 2.410180e+00 2.745850e+00 2.399331e+00 2.557128e+00 2.285762e+00 1.956740e+00 1.345408e+00 1.837533e-01 2.293006e-01 2.336319e-01 3.450514e-01 4.004563e-01 4.365789e-01 4.342433e-01 4.793735e-01 4.305607e-01 4.439263e-01 4.102859e-01 3.548933e-01 2.013093e-01
<GCONST> 1.181402e+02
<TRANSP> 5
 0.000000e+00 1.000000e+00 0.000000e+00 0.000000e+00 0.000000e+00
 0.000000e+00 7.995073e-01 2.004927e-01 0.000000e+00 0.000000e+00
 0.000000e+00 0.000000e+00 7.995062e-01 2.004939e-01 0.000000e+00
 0.000000e+00 0.000000e+00 0.000000e+00 9.329752e-01 6.702477e-02
 0.000000e+00 0.000000e+00 0.000000e+00 0.000000e+00 0.000000e+00
<ENDHMM>
~h "m"
<BEGINHMM>
<NUMSTATES> 5
<STATE> 2
<MEAN> 39
 -4.518570e+00 5.365977e+00 2.965653e+00 4.086811e+00 -3.016657e+00 -3.075664e+00 -1.203114e+00 -1.273179e+00 -1.312074e+00 -3.522986e-01 -6.760059e-01 -9.419168e-01 5.770564e+01 2.657886e-03 -1.969008e-04 5.326399e-03 4.160488e-03 -2.143550e-04 -5.385533e-03 -7.539577e-04 -3.542359e-03 3.398346e-03 5.910689e-03 -1.320302e-03 2.305045e-03 1.122961e-02 -2.865483e-04 -2.947560e-04 -2.302903e-04 8.271824e-06 2.537291e-04 4.003335e-04 2.434715e-04 1.378182e-04 -8.922713e-05 4.495407e-05 3.305156e-04 -1.670521e-04 -1.347454e-03
<VARIANCE> 39
 6.650244e+01 2.984124e+01 5.025676e+01 4.384549e+01 5.945237e+01 5.639768e+01 4.735147e+01 4.875354e+01 4.436099e+01 4.641034e+01 3.935624e+01 3.390870e+01 1.464618e+02 1.373190e+00 1.214630e+00 1.431627e+00 1.931808e+00 2.458434e+00 2.472635e+00 2.311865e+00 2.665081e+00 2.371542e+00 2.627381e+00 2.257885e+00 1.986265e+00 1.652351e+00 1.850373e-01 2.089512e-01 2.417030e-01 3.461174e-01 4.181469e-01 4.421042e-01 4.242667e-01 4.839881e-01 4.345981e-01 4.728607e-01 4.083795e-01 3.681191e-01 2.457293e-01
<GCONST> 1.177416e+02
<STATE> 3
<MEAN> 39
 -4.508666e+00 5.361431e+00 2.990741e+00 4.107946e+00 -3.015984e+00 -3.097496e+00 -1.204036e+00 -1.287804e+00 -1.296934e+00 -3.217318e-01 -6.757796e-01 -9.303789e-01 5.774549e+01 1.339072e-03 -1.599623e-03 4.319256e-03 4.406409e-03 1.047044e-03 -3.444080e-03 -2.474768e-06 -2.808028e-03 2.974190e-03 5.932716e-03 2.425470e-04 1.781971e-03 4.180239e-03 -2.564171e-04 -2.861129e-04 -1.801080e-04 7.274914e-05 2.493224e-04 3.892363e-04 1.732527e-04 1.501398e-04 -8.516072e-05 -1.068213e-05 2.733336e-04 -1.053163e-04 -1.381068e-03
<VARIANCE> 39
 6.592484e+01 2.971321e+01 5.008317e+01 4.381042e+01 5.933725e+01 5.617733e+01 4.713861e+01 4.883342e+01 4.449162e+01 4.650640e+01 3.930807e+01 3.396204e+01 1.431617e+02 1.373592e+00 1.214264e+00 1.429576e+00 1.928933e+00 2.462050e+00 2.478613e+00 2.316429e+00 2.671190e+00 2.380560e+00 2.629560e+00 2.262597e+00 1.994113e+00 1.663562e+00 1.852205e-01 2.089537e-01 2.415351e-01 3.452820e-01 4.194700e-01 4.433611e-01 4.255793e-01 4.855447e-01 4.366131e-01 4.731555e-01 4.092538e-01 3.702585e-01 2.471246e-01
<GCONST> 1.177499e+02
<STATE> 4
<MEAN> 39
 -4.373047e+00 5.343624e+00 3.050054e+00 4.181640e+00 -3.024152e+00 -3.060801e+00 -1.245682e+00 -1.312299e+00 -1.317566e+00 -3.119945e-01 -6.575963e-01 -1.018589e+00 5.809104e+01 -3.618350e-03 -3.928049e-03 3.005535e-03 5.913218e-03 3.366432e-03 -2.390826e-05 9.095523e-04 -1.432199e-03 1.776883e-03 6.053009e-03 2.436980e-03 5.617667e-04 -1.497481e-02 -3.947320e-04 -2.492182e-04 -1.470269e-04 1.574984e-04 2.695230e-04 3.750702e-04 1.212526e-04 1.334722e-04 -1.227850e-04 -4.384104e-05 7.859650e-05 -1.583020e-04 -1.656073e-03
<VARIANCE> 39
 6.498971e+01 2.954441e+01 5.000290e+01 4.438465e+01 5.958747e+01 5.621375e+01 4.718878e+01 4.927647e+01 4.495005e+01 4.740497e+01 3.936142e+01 3.429800e+01 1.332241e+02 1.364408e+00 1.219352e+00 1.431346e+00 1.929207e+00 2.472107e+00 2.492392e+00 2.314496e+00 2.684764e+00 2.393710e+00 2.634977e+00 2.270278e+00 2.008344e+00 1.604786e+00 1.840003e-01 2.103653e-01 2.411232e-01 3.433577e-01 4.216259e-01 4.454692e-01 4.247562e-01 4.888174e-01 4.409571e-01 4.725104e-01 4.109879e-01 3.741177e-01 2.381739e-01
<GCONST> 1.177134e+02
<TRANSP> 5
 0.000000e+00 1.000000e+00 0.000000e+00 0.000000e+00 0.000000e+00
 0.000000e+00 7.992062e-01 2.007938e-01 0.000000e+00 0.000000e+00
 0.000000e+00 0.000000e+00 7.992060e-01 2.007940e-01 0.000000e+00
 0.000000e+00 0.000000e+00 0.000000e+00 9.329701e-01 6.702986e-02
 0.000000e+00 0.000000e+00 0.000000e+00 0.000000e+00 0.000000e+00
<ENDHMM>
~h "n"
<BEGINHMM>
<NUMSTATES> 5
<STATE> 2
<MEAN> 39
 -4.559464e+00 5.425843e+00 3.536251e+00 4.325673e+00 -3.042484e+00 -2.909762e+00 -1.353063e+00 -1.095083e+00 -1.544025e+00 8.223084e-02 -9.082891e-01 -1.234794e+00 5.819339e+01 -4.393417e-03 3.112002e-04 -3.696932e-03 -1.553835e-03 3.128444e-03 1.255958e-03 3.744944e-03 -1.597913e-03 2.142890e-03 1.675133e-03 1.018874e-03 -7.009319e-05 -1.483151e-02 3.622478e-05 7.577679e-05 1.938474e-05 -1.032679e-05 3.077815e-05 -9.851431e-05 -7.938838e-06 -1.276642e-04 -1.087981e-06 -1.658665e-05 4.693545e-05 5.275988e-05 -2.848419e-05
<VARIANCE> 39
 6.906793e+01 3.058323e+01 4.803689e+01 4.404771e+01 5.526042e+01 5.383667e+01 4.566872e+01 5.192440e+01 4.415307e+01 4.816052e+01 3.936002e+01 3.462622e+01 1.536992e+02 1.406533e+00 1.290413e+00 1.400316e+00 2.024038e+00 2.450741e+00 2.512303e+00 2.294140e+00 2.670548e+00 2.378037e+00 2.667551e+00 2.277630e+00 1.975299e+00 1.487606e+00 1.902291e-01 2.271516e-01 2.362854e-01 3.616808e-01 4.238530e-01 4.464401e-01 4.226592e-01 4.724747e-01 4.356335e-01 4.750840e-01 4.122512e-01 3.629333e-01 2.243534e-01
<GCONST> 1.178438e+02
<STATE> 3
<MEAN> 39
 -4.583151e+00 5.427597e+00 3.520019e+00 4.318372e+00 -3.027416e+00 -2.904822e+00 -1.334554e+00 -1.102911e+00 -1.533433e+00 9.087823e-02 -9.022115e-01 -1.234326e+00 5.811723e+01 -4.292822e-03 6.607237e-04 -3.507571e-03 -1.519362e-03 3.274091e-03 7.559793e-04 3.652852e-03 -2.134638e-03 2.161323e-03 1.470200e-03 1.241957e-03 1.369075e-04 -1.517121e-02 2.185270e-05 6.412726e-05 4.358856e-05 2.048500e-05 2.003357e-05 -7.782847e-05 -8.046555e-06 -1.124912e-04 7.594680e-06 -7.039691e-05 1.874153e-05 2.479542e-05 -7.914644e-05
<VARIANCE> 39
 6.932316e+01 3.048393e+01 4.810489e+01 4.400517e+01 5.521043e+01 5.375300e+01 4.568892e+01 5.194896e+01 4.420944e+01 4.805331e+01 3.926521e+01 3.461238e+01 1.566772e+02 1.400841e+00 1.285284e+00 1.397714e+00 2.023849e+00 2.451670e+00 2.503364e+00 2.292266e+00 2.672703e+00 2.376264e+00 2.665631e+00 2.275070e+00 1.974909e+00 1.475056e+00 1.895425e-01 2.263739e-01 2.357169e-01 3.619248e-01 4.243532e-01 4.448176e-01 4.223910e-01 4.726414e-01 4.353492e-01 4.750120e-01 4.120362e-01 3.626785e-01 2.226269e-01
<GCONST> 1.178128e+02
<STATE> 4
<MEAN> 39
 -4.557956e+00 5.439812e+00 3.484354e+00 4.325830e+00 -2.980198e+00 -2.887091e+00 -1.298869e+00 -1.120119e+00 -1.506295e+00 7.304375e-02 -9.154252e-01 -1.271107e+00 5.815945e+01 -5.791084e-03 6.535135e-04 -2.515893e-03 -1.105255e-03 3.449855e-03 4.644893e-04 3.678352e-03 -2.334394e-03 2.092110e-03 1.031335e-03 1.123418e-03 2.755623e-04 -1.867306e-02 -1.905755e-05 1.142023e-05 2.249812e-05 2.599060e-05 2.968758e-05 1.653468e-05 -2.920320e-06 -1.205154e-04 3.556329e-05 -7.122607e-05 -5.056340e-05 -6.482672e-06 -2.165695e-04
<VARIANCE> 39
 7.041154e+01 3.033746e+01 4.848995e+01 4.431215e+01 5.493699e+01 5.386174e+01 4.607804e+01 5.229314e+01 4.463161e+01 4.823462e+01 3.930422e+01 3.467408e+01 1.593983e+02 1.395324e+00 1.278237e+00 1.396899e+00 2.020638e+00 2.439643e+00 2.493521e+00 2.288906e+00 2.682957e+00 2.363919e+00 2.658688e+00 2.269310e+00 1.972274e+00 1.437613e+00 1.889362e-01 2.255498e-01 2.350055e-01 3.610629e-01 4.227976e-01 4.426226e-01 4.217418e-01 4.737505e-01 4.323697e-01 4.730815e-01 4.110895e-01 3.614251e-01 2.170697e-01
<GCONST> 1.177663e+02
<TRANSP> 5
 0.000000e+00 1.000000e+00 0.000000e+00 0.000000e+00 0.000000e+00
 0.000000e+00 7.986025e-01 2.013976e-01 0.000000e+00 0.000000e+00
 0.000000e+00 0.000000e+00 7.986042e-01 2.013957e-01 0.000000e+00
 0.000000e+00 0.000000e+00 0.000000e+00 9.319702e-01 6.802977e-02
 0.000000e+00 0.000000e+00 0.000000e+00 0.000000e+00 0.000000e+00
<ENDHMM>
~h "p"
<BEGINHMM>
<NUMSTATES> 5
<STATE> 2
<MEAN> 39
 -4.420629e+00 5.252212e+00 2.501844e+00 3.308062e+00 -2.497927e+00 -4.053836e+00 -1.680593e+00 -4.265027e-01 -1.158120e+00 -7.452083e-01 -1.027632e+00 -4.217569e-01 5.857486e+01 -1.885951e-02 -1.027627e-02 -8.208740e-03 1.037331e-03 5.851266e-03 1.146654e-02 2.428634e-03 -1.140422e-03 6.436079e-04 3.949197e-03 -9.693574e-04 -2.917770e-03 -4.228156e-02 -6.401988e-04 -2.179034e-04 -1.355602e-04 4.714624e-05 1.929828e-04 3.151380e-04 6.320445e-05 -1.857331e-04 -2.239222e-04 -2.012497e-04 3.473296e-04 1.093905e-04 -1.407408e-03
<VARIANCE> 39
 6.733331e+01 3.131482e+01 4.367610e+01 5.015234e+01 5.254401e+01 5.423819e+01 4.825450e+01 4.893472e+01 4.490260e+01 4.733233e+01 3.609400e+01 3.181549e+01 1.049995e+02 1.415345e+00 1.539857e+00 1.467407e+00 2.211461e+00 2.426046e+00 2.717401e+00 2.530976e+00 2.781350e+00 2.548729e+00 2.794977e+00 2.299645e+00 2.070044e+00 1.470032e+00 1.927810e-01 2.737422e-01 2.482116e-01 3.968137e-01 4.185444e-01 4.970369e-01 4.711227e-01 4.975542e-01 4.742621e-01 5.069464e-01 4.166053e-01 3.896080e-01 2.198365e-01
<GCONST> 1.187706e+02
<STATE> 3
<MEAN> 39
 -4.514894e+00 5.199726e+00 2.459349e+00 3.313974e+00 -2.468426e+00 -3.994215e+00 -1.669119e+00 -4.337728e-01 -1.156685e+00 -7.250549e-01 -1.029085e+00 -4.370377e-01 5.835755e+01 -2.191305e-02 -1.134310e-02 -8.821572e-03 1.300551e-03 6.776375e-03 1.282434e-02 2.819026e-03 -2.128478e-03 -4.419409e-04 2.869527e-03 8.061022e-04 -2.325397e-03 -4.903965e-02 -5.105389e-04 -2.060091e-04 -6.242477e-05 5.960949e-05 1.824875e-04 2.097501e-04 6.737991e-05 -1.916935e-04 -1.701706e-04 -2.195128e-04 4.259753e-04 7.354211e-05 -1.215786e-03
<VARIANCE> 39
 6.785581e+01 3.137130e+01 4.338185e+01 4.996290e+01 5.229839e+01 5.356985e+01 4.798544e+01 4.850009e+01 4.436142e+01 4.730507e+01 3.601885e+01 3.183079e+01 1.109847e+02 1.416955e+00 1.548072e+00 1.464849e+00 2.205887e+00 2.427157e+00 2.705170e+00 2.532887e+00 2.775876e+00 2.542842e+00 2.789056e+00 2.306022e+00 2.069632e+00 1.517058e+00 1.934166e-01 2.754246e-01 2.483155e-01 3.958669e-01 4.201718e-01 4.953366e-01 4.720793e-01 4.978188e-01 4.742801e-01 5.051872e-01 4.186327e-01 3.894691e-01 2.265990e-01
<GCONST> 1.188474e+02
<STATE> 4
<MEAN> 39
 -4.600002e+00 5.095457e+00 2.433351e+00 3.350744e+00 -2.483240e+00 -3.880917e+00 -1.635514e+00 -4.522568e-01 -1.137000e+00 -7.318774e-01 -9.565361e-01 -4.787941e-01 5.827632e+01 -2.216553e-02 -1.197089e-02 -9.305775e-03 2.008448e-03 7.753231e-03 1.251001e-02 2.934375e-03 -4.454114e-03 -1.315609e-03 2.860122e-03 3.680205e-03 -1.520213e-03 -5.328827e-02 -3.210591e-04 -1.403920e-04 6.666231e-05 7.535038e-05 1.439748e-04 -4.217457e-05 5.437569e-05 -1.761888e-04 -8.386604e-05 -1.067273e-04 4.457234e-04 4.767605e-05 -9.058331e-04
<VARIANCE> 39
 6.887809e+01 3.139928e+01 4.325392e+01 5.003331e+01 5.234824e+01 5.252709e+01 4.771669e+01 4.809880e+01 4.361865e+01 4.861799e+01 3.626205e+01 3.193803e+01 1.153809e+02 1.421686e+00 1.551240e+00 1.463086e+00 2.184140e+00 2.426442e+00 2.692981e+00 2.558484e+00 2.748839e+00 2.518757e+00 2.785014e+00 2.310567e+00 2.075399e+00 1.555566e+00 1.951367e-01 2.774414e-01 2.484414e-01 3.909642e-01 4.212973e-01 4.939305e-01 4.777256e-01 4.930299e-01 4.720207e-01 5.018571e-01 4.193806e-01 3.902373e-01 2.316567e-01
<GCONST> 1.189178e+02
<TRANSP> 5
 0.000000e+00 1.000000e+00 0.000000e+00 0.000000e+00 0.000000e+00
 0.000000e+00 8.008767e-01 1.991233e-01 0.000000e+00 0.000000e+00
 0.000000e+00 0.000000e+00 8.008766e-01 1.991234e-01 0.000000e+00
 0.000000e+00 0.000000e+00 0.000000e+00 9.354495e-01 6.455053e-02
 0.000000e+00 0.000000e+00 0.000000e+00 0.000000e+00 0.000000e+00
<ENDHMM>
~h "r"
<BEGINHMM>
<NUMSTATES> 5
<STATE> 2
<MEAN> 39
 -3.687804e+00 4.805340e+00 2.680278e+00 3.611844e+00 -2.754502e+00 -3.342716e+00 -2.029885e+00 -9.031215e-01 -1.629503e+00 -3.033470e-01 -1.676139e-01 -7.081006e-01 5.958429e+01 -5.631276e-03 2.540495e-03 5.291772e-03 4.332425e-04 -1.833087e-03 -2.037121e-03 2.153767e-03 1.505867e-03 -4.307441e-05 1.568813e-03 8.688060e-04 -8.926763e-04 -7.780828e-03 -1.797324e-04 -9.845097e-05 4.545832e-05 3.938059e-05 -1.533952e-05 2.117028e-04 5.702084e-05 1.541209e-04 -7.079491e-05 -9.895718e-06 -7.615939e-05 -1.654147e-04 -4.560278e-04
<VARIANCE> 39
 7.219875e+01 3.384476e+01 5.542299e+01 4.539119e+01 5.697614e+01 6.196690e+01 5.038782e+01 5.257490e+01 4.828541e+01 4.332245e+01 4.129164e+01 3.313330e+01 9.788290e+01 1.504025e+00 1.438669e+00 1.570015e+00 2.035535e+00 2.433918e+00 2.626909e+00 2.354531e+00 2.657034e+00 2.404536e+00 2.538228e+00 2.333521e+00 1.943365e+00 1.411770e+00 2.023244e-01 2.500393e-01 2.630854e-01 3.610960e-01 4.197945e-01 4.613972e-01 4.222654e-01 4.686050e-01 4.310068e-01 4.516651e-01 4.165640e-01 3.523001e-01 2.116449e-01
<GCONST> 1.183909e+02
<STATE> 3
<MEAN> 39
 -3.718883e+00 4.815407e+00 2.705528e+00 3.614195e+00 -2.763368e+00 -3.349490e+00 -2.018540e+00 -8.933272e-01 -1.629280e+00 -2.962313e-01 -1.643445e-01 -7.143836e-01 5.953867e+01 -6.403648e-03 1.917424e-03 5.454770e-03 5.793240e-04 -1.983247e-03 -1.018589e-03 2.437377e-03 2.290821e-03 -3.611027e-04 1.494486e-03 5.173009e-04 -1.661780e-03 -9.707495e-03 -1.655043e-04 -1.279018e-04 2.089779e-05 2.103663e-05 -3.133881e-05 2.019236e-04 5.376395e-05 1.551474e-04 -7.537167e-05 4.568155e-06 -5.394491e-05 -1.497957e-04 -3.607706e-04
<VARIANCE> 39
 7.306892e+01 3.397255e+01 5.551240e+01 4.551596e+01 5.733035e+01 6.234251e+01 5.030560e+01 5.262999e+01 4.815023e+01 4.334817e+01 4.137620e+01 3.313729e+01 1.021556e+02 1.508174e+00 1.439449e+00 1.567345e+00 2.031636e+00 2.428305e+00 2.624055e+00 2.350829e+00 2.650530e+00 2.397198e+00 2.539811e+00 2.325662e+00 1.941226e+00 1.401036e+00 2.026866e-01 2.499864e-01 2.623510e-01 3.599246e-01 4.184831e-01 4.602969e-01 4.214834e-01 4.669259e-01 4.293863e-01 4.520912e-01 4.149027e-01 3.518744e-01 2.100750e-01
<GCONST> 1.184122e+02
<STATE> 4
<MEAN> 39
 -3.715820e+00 4.801779e+00 2.753663e+00 3.634962e+00 -2.778371e+00 -3.320642e+00 -2.021253e+00 -8.235851e-01 -1.645224e+00 -3.121313e-01 -1.871727e-01 -7.460310e-01 5.962382e+01 -7.164896e-03 -9.325963e-05 4.684971e-03 2.303345e-04 -2.659957e-03 9.564416e-04 3.000619e-03 3.914645e-03 -4.528837e-04 8.442988e-04 2.506338e-04 -2.375236e-03 -1.202961e-02 -9.486248e-05 -1.387004e-04 -2.107340e-05 -2.306993e-05 -6.723463e-05 1.948246e-04 6.109384e-05 1.087314e-04 -9.299746e-05 -1.018406e-06 -1.305461e-05 -8.221163e-05 -1.721426e-04
<VARIANCE> 39
 7.513322e+01 3.456600e+01 5.613033e+01 4.585807e+01 5.829134e+01 6.352595e+01 5.009428e+01 5.277851e+01 4.799899e+01 4.378083e+01 4.171181e+01 3.317105e+01 1.083420e+02 1.519759e+00 1.446812e+00 1.566131e+00 2.021319e+00 2.407201e+00 2.612021e+00 2.340885e+00 2.636475e+00 2.382562e+00 2.548252e+00 2.310785e+00 1.932048e+00 1.385543e+00 2.037740e-01 2.502235e-01 2.610913e-01 3.565755e-01 4.133090e-01 4.561004e-01 4.186656e-01 4.629730e-01 4.255457e-01 4.536690e-01 4.111509e-01 3.502805e-01 2.076295e-01
<GCONST> 1.184681e+02
<TRANSP> 5
 0.000000e+00 1.000000e+00 0.000000e+00 0.000000e+00 0.000000e+00
 0.000000e+00 7.990203e-01 2.009796e-01 0.000000e+00 0.000000e+00
 0.000000e+00 0.000000e+00 7.990213e-01 2.009787e-01 0.000000e+00
 0.000000e+00 0.000000e+00 0.000000e+00 9.323143e-01 6.768572e-02
 0.000000e+00 0.000000e+00 0.000000e+00 0.000000e+00 0.000000e+00
<ENDHMM>
~h "s"
<BEGINHMM>
<NUMSTATES> 5
<STATE> 2
<MEAN> 39
 -6.290477e+00 5.767297e+00 2.820590e+00 2.806198e+00 -2.098613e+00 -3.761461e+00 -1.562958e+00 -8.454338e-01 -1.975928e+00 -9.525935e-03 -6.428979e-01 -5.610951e-01 5.874675e+01 -1.134654e-02 6.224399e-04 -4.908116e-03 -4.069929e-03 6.966005e-03 1.033608e-03 2.538119e-03 1.743439e-03 2.228771e-05 -7.555792e-04 -3.113570e-03 -9.019067e-04 -1.561768e-02 -3.013811e-05 -2.222061e-04 -2.854942e-05 -3.854014e-05 1.372890e-04 1.377277e-04 2.620981e-05 2.287390e-04 -2.500463e-05 2.193024e-05 -9.003688e-06 -9.104323e-05 -3.569636e-04
<VARIANCE> 39
 8.658733e+01 3.104986e+01 4.745765e+01 4.758530e+01 5.759811e+01 5.781791e+01 5.002148e+01 5.214666e+01 4.553712e+01 4.289822e+01 3.969096e+01 3.279513e+01 1.371394e+02 1.753388e+00 1.437407e+00 1.495696e+00 2.092797e+00 2.582953e+00 2.633769e+00 2.482558e+00 2.790970e+00 2.486115e+00 2.635499e+00 2.366118e+00 2.013494e+00 1.608771e+00 2.222890e-01 2.540428e-01 2.498951e-01 3.797149e-01 4.484478e-01 4.738505e-01 4.557019e-01 4.997393e-01 4.516837e-01 4.791291e-01 4.328380e-01 3.717784e-01 2.421352e-01
<GCONST> 1.197451e+02
<STATE> 3
<MEAN> 39
 -6.348944e+00 5.767219e+00 2.795515e+00 2.785849e+00 -2.062002e+00 -3.753473e+00 -1.551680e+00 -8.334430e-01 -1.976322e+00 -1.415288e-02 -6.580203e-01 -5.665881e-01 5.865987e+01 -1.154020e-02 -6.394887e-04 -5.188925e-03 -4.299401e-03 7.606246e-03 1.720654e-03 2.582676e-03 2.951310e-03 2.789051e-05 -6.984073e-04 -3.219306e-03 -1.580858e-03 -1.759683e-02 8.057959e-06 -2.447181e-04 -7.740303e-05 -2.761314e-05 1.059032e-04 1.830151e-04 2.032597e-05 2.109874e-04 -5.299659e-06 -2.566280e-05 -1.438739e-05 -1.028130e-04 -3.534308e-04
<VARIANCE> 39
 8.730286e+01 3.102313e+01 4.748326e+01 4.763830e+01 5.749577e+01 5.785016e+01 5.007257e+01 5.199549e+01 4.557742e+01 4.287606e+01 3.969047e+01 3.272466e+01 1.421621e+02 1.757175e+00 1.438844e+00 1.494978e+00 2.095002e+00 2.577939e+00 2.630775e+00 2.477800e+00 2.789331e+00 2.476945e+00 2.643088e+00 2.366158e+00 2.016078e+00 1.600493e+00 2.221895e-01 2.541340e-01 2.499893e-01 3.805709e-01 4.472370e-01 4.735651e-01 4.543459e-01 4.989119e-01 4.490973e-01 4.807384e-01 4.330616e-01 3.724138e-01 2.409456e-01
<GCONST> 1.197682e+02
<STATE> 4
<MEAN> 39
 -6.380204e+00 5.787035e+00 2.756472e+00 2.714740e+00 -1.957967e+00 -3.710315e+00 -1.535308e+00 -7.937436e-01 -1.976549e+00 -3.212251e-02 -7.054736e-01 -6.275925e-01 5.872252e+01 -1.268033e-02 -4.193140e-03 -5.839469e-03 -3.935201e-03 8.035857e-03 4.137393e-03 2.084177e-03 5.190408e-03 2.390904e-04 -1.325810e-03 -2.490967e-03 -2.752210e-03 -2.502541e-02 4.917589e-05 -2.651412e-04 -7.397941e-05 1.605925e-05 2.223120e-05 2.694415e-04 5.391264e-05 2.042430e-04 6.226045e-06 -1.068755e-04 2.472780e-05 -3.562313e-05 -3.868456e-04
<VARIANCE> 39
 8.880007e+01 3.084888e+01 4.796548e+01 4.805214e+01 5.741253e+01 5.838595e+01 5.033211e+01 5.194795e+01 4.563844e+01 4.314353e+01 3.988186e+01 3.269108e+01 1.448839e+02 1.763301e+00 1.442443e+00 1.493143e+00 2.089387e+00 2.560384e+00 2.634229e+00 2.467611e+00 2.781215e+00 2.461155e+00 2.662705e+00 2.369425e+00 2.012478e+00 1.545677e+00 2.214240e-01 2.546298e-01 2.501190e-01 3.795366e-01 4.435063e-01 4.736517e-01 4.513934e-01 4.956812e-01 4.444497e-01 4.838355e-01 4.334885e-01 3.715442e-01 2.331542e-01
<GCONST> 1.197327e+02
<TRANSP> 5
 0.000000e+00 1.000000e+00 0.000000e+00 0.000000e+00 0.000000e+00
 0.000000e+00 7.997260e-01 2.002740e-01 0.000000e+00 0.000000e+00
 0.000000e+00 0.000000e+00 7.997264e-01 2.002736e-01 0.000000e+00
 0.000000e+00 0.000000e+00 0.000000e+00 9.330697e-01 6.693025e-02
 0.000000e+00 0.000000e+00 0.000000e+00 0.000000e+00 0.000000e+00
<ENDHMM>
~h "t"
<BEGINHMM>
<NUMSTATES> 5
<STATE> 2
<MEAN> 39
 -4.673656e+00 5.455486e+00 2.941989e+00 3.522233e+00 -2.782376e+00 -3.327413e+00 -1.733599e+00 -1.012699e+00 -1.607140e+00 -7.818458e-02 -6.627023e-01 -8.000476e-01 5.880130e+01 -8.889333e-03 -4.995602e-03 1.707730e-03 -1.642132e-03 2.218833e-04 5.007658e-03 7.269924e-04 2.309592e-03 -6.275044e-05 -6.015569e-04 1.265057e-04 -1.421643e-03 -1.565655e-02 -2.239480e-04 -1.868070e-04 4.820793e-05 -4.298507e-05 -1.123177e-04 1.682036e-04 -2.561163e-05 7.312011e-05 3.800638e-06 -7.390090e-05 9.869345e-05 -7.355095e-05 -2.134789e-04
<VARIANCE> 39
 6.746624e+01 3.305117e+01 4.833606e+01 4.352214e+01 5.639974e+01 5.818477e+01 4.714283e+01 5.274403e+01 4.842607e+01 4.277583e+01 3.926036e+01 3.229497e+01 1.159938e+02 1.613655e+00 1.455679e+00 1.552808e+00 2.135689e+00 2.582361e+00 2.664181e+00 2.429323e+00 2.739563e+00 2.475396e+00 2.598491e+00 2.340531e+00 2.022976e+00 1.638780e+00 2.281865e-01 2.573526e-01 2.647644e-01 3.914464e-01 4.516396e-01 4.747069e-01 4.485085e-01 4.901098e-01 4.529155e-01 4.742751e-01 4.301119e-01 3.765095e-01 2.534461e-01
<GCONST> 1.193871e+02
<STATE> 3
<MEAN> 39
 -4.721286e+00 5.429089e+00 2.951481e+00 3.513517e+00 -2.782125e+00 -3.301290e+00 -1.729555e+00 -1.000342e+00 -1.608145e+00 -8.324083e-02 -6.608840e-01 -8.078151e-01 5.872158e+01 -9.942854e-03 -5.871513e-03 1.896211e-03 -1.812828e-03 -4.106393e-04 5.808207e-03 6.473504e-04 2.631723e-03 -1.003808e-04 -9.399118e-04 6.786483e-04 -1.775683e-03 -1.681191e-02 -1.846275e-04 -1.641515e-04 5.417683e-05 -5.180189e-05 -1.670790e-04 1.052632e-04 -1.786866e-05 5.645716e-05 -3.574903e-05 -3.561154e-05 1.276801e-04 -4.677957e-05 -1.763360e-04
<VARIANCE> 39
 6.807180e+01 3.312412e+01 4.842146e+01 4.343051e+01 5.664684e+01 5.825150e+01 4.712179e+01 5.279188e+01 4.846104e+01 4.276852e+01 3.928082e+01 3.221183e+01 1.205693e+02 1.619457e+00 1.455227e+00 1.555588e+00 2.136706e+00 2.578860e+00 2.664851e+00 2.429015e+00 2.738780e+00 2.475966e+00 2.597814e+00 2.341583e+00 2.016290e+00 1.647968e+00 2.289995e-01 2.572511e-01 2.652848e-01 3.918096e-01 4.508162e-01 4.746473e-01 4.483254e-01 4.900019e-01 4.530925e-01 4.740653e-01 4.301051e-01 3.748609e-01 2.548708e-01
<GCONST> 1.194524e+02
<STATE> 4
<MEAN> 39
 -4.762721e+00 5.379671e+00 2.977238e+00 3.473590e+00 -2.790236e+00 -3.209372e+00 -1.790784e+00 -9.701676e-01 -1.660617e+00 -1.240466e-01 -6.694726e-01 -8.477817e-01 5.885242e+01 -1.188764e-02 -6.721774e-03 2.413800e-03 -1.952262e-03 -2.072077e-03 6.559575e-03 9.837163e-04 2.920157e-03 -4.379510e-04 -1.612713e-03 2.004583e-03 -2.153774e-03 -1.971604e-02 -1.421686e-04 -1.268699e-04 2.444929e-05 -2.707202e-05 -2.313201e-04 3.665309e-05 1.648387e-05 8.783431e-06 -5.642373e-05 2.121539e-06 1.148457e-04 -2.426236e-05 -2.668735e-04
<VARIANCE> 39
 6.937997e+01 3.318653e+01 4.899137e+01 4.345739e+01 5.718648e+01 5.897384e+01 4.731802e+01 5.307758e+01 4.866566e+01 4.293638e+01 3.963766e+01 3.214474e+01 1.223538e+02 1.645761e+00 1.457574e+00 1.570768e+00 2.150993e+00 2.566792e+00 2.674449e+00 2.439996e+00 2.743623e+00 2.477964e+00 2.602334e+00 2.348767e+00 2.009061e+00 1.667602e+00 2.328717e-01 2.572199e-01 2.675650e-01 3.942512e-01 4.479008e-01 4.755797e-01 4.495757e-01 4.902285e-01 4.533604e-01 4.743562e-01 4.308103e-01 3.730310e-01 2.580667e-01
<GCONST> 1.196404e+02
<TRANSP> 5
 0.000000e+00 1.000000e+00 0.000000e+00 0.000000e+00 0.000000e+00
 0.000000e+00 7.989876e-01 2.010125e-01 0.000000e+00 0.000000e+00
 0.000000e+00 0.000000e+00 7.989882e-01 2.010118e-01 0.000000e+00
 0.000000e+00 0.000000e+00 0.000000e+00 9.324683e-01 6.753173e-02
 0.000000e+00 0.000000e+00 0.000000e+00 0.000000e+00 0.000000e+00
<ENDHMM>
~h "v"
<BEGINHMM>
<NUMSTATES> 5
<STATE> 2
<MEAN> 39
 -3.339731e+00 5.649273e+00 2.645851e+00 3.386147e+00 -2.407264e+00 -3.734587e+00 -2.724420e+00 -1.087018e+00 -1.574888e+00 5.622339e-01 -1.814065e-01 -9.643411e-01 6.009429e+01 3.699262e-03 2.270354e-03 5.016776e-03 5.747046e-03 -8.702362e-03 9.243571e-03 -3.122365e-04 -9.523878e-03 4.232736e-03 3.331377e-03 -6.049762e-04 -3.182964e-03 -2.432572e-02 -6.401154e-04 7.757034e-05 -4.361362e-05 -2.942857e-04 -4.343252e-04 1.488412e-04 3.692553e-04 -1.159797e-04 -1.582093e-04 5.484559e-04 5.414992e-04 5.138397e-05 -7.573362e-04
<VARIANCE> 39
 5.922813e+01 3.135817e+01 4.638439e+01 4.828574e+01 5.361798e+01 5.852777e+01 5.161137e+01 5.633168e+01 4.226347e+01 4.619481e+01 4.298783e+01 3.477664e+01 6.046920e+01 1.328822e+00 1.466476e+00 1.464611e+00 2.011083e+00 2.385433e+00 2.581818e+00 2.321671e+00 2.892760e+00 2.378522e+00 2.614311e+00 2.397802e+00 2.064418e+00 1.280325e+00 1.803085e-01 2.572960e-01 2.548483e-01 3.566546e-01 4.066491e-01 4.632296e-01 4.188088e-01 5.099446e-01 4.326950e-01 4.614139e-01 4.382910e-01 3.767990e-01 1.987392e-01
<GCONST> 1.173675e+02
<STATE> 3
<MEAN> 39
 -3.324257e+00 5.661452e+00 2.671148e+00 3.414084e+00 -2.456707e+00 -3.693472e+00 -2.722071e+00 -1.135494e+00 -1.556944e+00 5.896208e-01 -1.767342e-01 -9.813694e-01 5.997630e+01 8.997548e-04 2.458652e-03 5.019982e-03 5.355149e-03 -1.016581e-02 8.095655e-03 1.352048e-03 -9.360786e-03 3.520051e-03 6.167173e-03 1.504036e-03 -3.114082e-03 -2.693137e-02 -5.829841e-04 4.110232e-05 1.453651e-05 -7.955992e-05 -2.679440e-04 -2.626604e-04 3.115266e-04 5.375405e-05 -1.845127e-04 5.546830e-04 4.288154e-04 2.838279e-05 -4.768861e-04
<VARIANCE> 39
 5.904095e+01 3.155275e+01 4.620531e+01 4.843382e+01 5.362270e+01 5.844537e+01 5.154130e+01 5.634346e+01 4.201822e+01 4.630746e+01 4.288161e+01 3.488770e+01 6.522107e+01 1.331080e+00 1.466014e+00 1.466863e+00 2.014374e+00 2.386730e+00 2.571695e+00 2.311469e+00 2.893930e+00 2.379864e+00 2.607545e+00 2.400232e+00 2.074484e+00 1.326847e+00 1.805620e-01 2.573358e-01 2.562898e-01 3.566244e-01 4.064383e-01 4.608294e-01 4.171827e-01 5.095706e-01 4.338409e-01 4.598050e-01 4.388981e-01 3.793323e-01 2.050406e-01
<GCONST> 1.175121e+02
<STATE> 4
<MEAN> 39
 -3.169405e+00 5.650278e+00 2.707607e+00 3.458209e+00 -2.649644e+00 -3.626348e+00 -2.776574e+00 -1.250226e+00 -1.564495e+00 7.087908e-01 -9.138997e-02 -1.074025e+00 5.997936e+01 -1.887998e-03 2.610186e-03 7.545927e-03 5.644152e-03 -1.268845e-02 1.435010e-03 2.962898e-03 -7.782645e-03 1.439675e-03 9.728282e-03 4.067279e-03 -1.931112e-03 -2.829248e-02 -5.092962e-04 -1.352124e-05 1.502078e-04 -5.543451e-05 -1.508639e-04 -4.355906e-04 1.872434e-04 1.714858e-04 -2.011889e-04 2.473409e-04 2.526291e-04 1.479761e-04 -4.428927e-04
<VARIANCE> 39
 5.863138e+01 3.222060e+01 4.655305e+01 4.851986e+01 5.397032e+01 5.994294e+01 5.135985e+01 5.640148e+01 4.156390e+01 4.661311e+01 4.275965e+01 3.543795e+01 7.131252e+01 1.326447e+00 1.464318e+00 1.472360e+00 2.011672e+00 2.382879e+00 2.563766e+00 2.288115e+00 2.884127e+00 2.379183e+00 2.595639e+00 2.383142e+00 2.069313e+00 1.387584e+00 1.806011e-01 2.569813e-01 2.591601e-01 3.538175e-01 4.052260e-01 4.573976e-01 4.132291e-01 5.061125e-01 4.342105e-01 4.556613e-01 4.332293e-01 3.790278e-01 2.142130e-01
<GCONST> 1.176692e+02
<TRANSP> 5
 0.000000e+00 1.000000e+00 0.000000e+00 0.000000e+00 0.000000e+00
 0.000000e+00 7.982305e-01 2.017694e-01 0.000000e+00 0.000000e+00
 0.000000e+00 0.000000e+00 7.982310e-01 2.017690e-01 0.000000e+00
 0.000000e+00 0.000000e+00 0.000000e+00 9.315294e-01 6.847065e-02
 0.000000e+00 0.000000e+00 0.000000e+00 0.000000e+00 0.000000e+00
<ENDHMM>
~h "w"
<BEGINHMM>
<NUMSTATES> 5
<STATE> 2
<MEAN> 39
 -3.589716e+00 5.265234e+00 2.698444e+00 3.512474e+00 -3.199254e+00 -2.878573e+00 -2.345026e+00 -9.659125e-01 -1.497846e+00 3.907647e-01 -2.032809e-01 -9.624962e-01 5.962346e+01 1.417622e-02 7.316371e-03 5.493393e-03 1.101326e-03 1.119796e-03 -3.932074e-03 -3.866076e-03 -2.099072e-03 -2.842757e-03 2.339004e-03 -8.206044e-03 -2.910082e-03 3.167150e-02 -5.342284e-04 9.866450e-05 -7.294790e-05 2.445622e-05 1.881608e-04 1.424029e-04 6.165442e-05 1.108588e-04 1.693973e-04 1.873208e-04 1.406813e-04 1.345149e-04 -1.657664e-03
<VARIANCE> 39
 6.529382e+01 3.225520e+01 5.107930e+01 4.276274e+01 5.588059e+01 5.796716e+01 4.880634e+01 5.496058e+01 4.818060e+01 4.686074e+01 4.145872e+01 3.383187e+01 1.002894e+02 1.341018e+00 1.335946e+00 1.507854e+00 1.865319e+00 2.537251e+00 2.661198e+00 2.461494e+00 2.748419e+00 2.492485e+00 2.694712e+00 2.446751e+00 2.040899e+00 1.663671e+00 1.801653e-01 2.254034e-01 2.482356e-01 3.205398e-01 4.362615e-01 4.610824e-01 4.475989e-01 4.950080e-01 4.513830e-01 4.808063e-01 4.388754e-01 3.752444e-01 2.435037e-01
<GCONST> 1.184436e+02
<STATE> 3
<MEAN> 39
 -3.531109e+00 5.301376e+00 2.724640e+00 3.518067e+00 -3.188699e+00 -2.891238e+00 -2.360926e+00 -9.746376e-01 -1.508999e+00 4.068926e-01 -2.419069e-01 -9.744993e-01 5.974294e+01 1.146226e-02 7.498982e-03 4.674276e-03 1.101517e-03 2.141723e-03 -2.070120e-03 -2.590364e-03 -1.799300e-03 -2.257721e-03 3.074844e-03 -7.607180e-03 -2.453799e-03 2.302529e-02 -5.176670e-04 2.384527e-05 -1.675250e-04 -1.006311e-05 1.903363e-04 3.846926e-04 2.754184e-04 8.362101e-05 1.038091e-04 1.339035e-04 1.253215e-04 7.937101e-05 -1.649886e-03
<VARIANCE> 39
 6.443085e+01 3.207409e+01 5.108931e+01 4.285785e+01 5.605271e+01 5.802535e+01 4.881897e+01 5.505999e+01 4.832954e+01 4.709382e+01 4.148439e+01 3.396685e+01 9.495821e+01 1.338671e+00 1.333629e+00 1.513047e+00 1.873483e+00 2.545875e+00 2.664608e+00 2.466315e+00 2.754009e+00 2.492779e+00 2.691255e+00 2.455760e+00 2.045635e+00 1.580234e+00 1.797871e-01 2.254172e-01 2.487080e-01 3.221332e-01 4.378172e-01 4.609458e-01 4.492328e-01 4.961166e-01 4.513525e-01 4.800232e-01 4.407762e-01 3.762732e-01 2.318735e-01
<GCONST> 1.183280e+02
<STATE> 4
<MEAN> 39
 -3.322120e+00 5.376250e+00 2.740800e+00 3.568411e+00 -3.181666e+00 -2.873043e+00 -2.393091e+00 -9.660118e-01 -1.544210e+00 4.315545e-01 -3.239394e-01 -9.947095e-01 6.001693e+01 5.314165e-03 7.384266e-03 1.640657e-03 1.783357e-03 3.919867e-03 1.618244e-03 1.384288e-04 -2.598533e-03 -1.566916e-03 4.271686e-03 -7.002510e-03 -1.988591e-03 6.181176e-03 -3.355366e-04 3.212753e-05 -2.516797e-04 3.585515e-05 8.510277e-05 2.396848e-04 2.316569e-04 -6.432953e-06 1.806629e-05 2.908250e-05 6.065112e-05 8.267901e-06 -8.864526e-04
<VARIANCE> 39
 6.347578e+01 3.154523e+01 5.148061e+01 4.341331e+01 5.661097e+01 5.805963e+01 4.894065e+01 5.509795e+01 4.837264e+01 4.770733e+01 4.160509e+01 3.427399e+01 8.642600e+01 1.327242e+00 1.327126e+00 1.526835e+00 1.893307e+00 2.555459e+00 2.673231e+00 2.476964e+00 2.751613e+00 2.496271e+00 2.698361e+00 2.462673e+00 2.055877e+00 1.419038e+00 1.771964e-01 2.252014e-01 2.491728e-01 3.258630e-01 4.390851e-01 4.613120e-01 4.517738e-01 4.953311e-01 4.504376e-01 4.799615e-01 4.413432e-01 3.792545e-01 2.082159e-01
<GCONST> 1.180881e+02
<TRANSP> 5
 0.000000e+00 1.000000e+00 0.000000e+00 0.000000e+00 0.000000e+00
 0.000000e+00 8.018020e-01 1.981979e-01 0.000000e+00 0.000000e+00
 0.000000e+00 0.000000e+00 8.018021e-01 1.981979e-01 0.000000e+00
 0.000000e+00 0.000000e+00 0.000000e+00 9.354226e-01 6.457737e-02
 0.000000e+00 0.000000e+00 0.000000e+00 0.000000e+00 0.000000e+00
<ENDHMM>
~h "y"
<BEGINHMM>
<NUMSTATES> 5
<STATE> 2
<MEAN> 39
 -5.505751e+00 5.858727e+00 4.603570e+00 3.864737e+00 -3.177060e+00 -3.780393e+00 -3.357045e+00 -7.566858e-01 -3.051742e+00 -4.902017e-02 1.391766e-01 -1.183866e+00 6.018256e+01 -1.570909e-02 -6.601604e-03 5.404359e-03 -3.028440e-03 -9.237673e-03 -1.351547e-03 -1.932117e-03 1.282597e-02 2.338771e-03 3.514803e-03 -3.203198e-03 -5.373513e-03 -1.219541e-02 1.831779e-04 -2.195277e-04 -1.775655e-04 3.345479e-04 -5.603205e-05 -2.662257e-04 1.593435e-05 2.063126e-04 1.474400e-04 -7.790566e-06 -9.558626e-06 -3.420543e-05 -5.161053e-05
<VARIANCE> 39
 7.161929e+01 2.673172e+01 5.750785e+01 4.884373e+01 6.639270e+01 6.289174e+01 5.289686e+01 5.383372e+01 4.786909e+01 4.230093e+01 4.548191e+01 3.516365e+01 8.792645e+01 1.606847e+00 1.305144e+00 1.418835e+00 2.023766e+00 2.552691e+00 2.701623e+00 2.575771e+00 2.878754e+00 2.445291e+00 2.574456e+00 2.393268e+00 1.928293e+00 1.470175e+00 2.106860e-01 2.311003e-01 2.265182e-01 3.597350e-01 4.301209e-01 4.622596e-01 4.742133e-01 5.169495e-01 4.306404e-01 4.641756e-01 4.249371e-01 3.603733e-01 2.208504e-01
<GCONST> 1.188702e+02
<STATE> 3
<MEAN> 39
 -5.587546e+00 5.820606e+00 4.630407e+00 3.852417e+00 -3.224330e+00 -3.788300e+00 -3.365852e+00 -6.891625e-01 -3.039321e+00 -3.343592e-02 1.254812e-01 -1.211318e+00 6.011985e+01 -1.436413e-02 -7.557271e-03 4.570759e-03 -1.166075e-03 -9.382406e-03 -2.760908e-03 -2.023855e-03 1.374704e-02 2.887710e-03 3.338467e-03 -3.023715e-03 -5.564192e-03 -1.178386e-02 3.092674e-04 -1.429591e-04 -1.177172e-04 3.841265e-04 -2.404042e-05 -2.882086e-04 -5.732402e-06 1.697053e-04 9.388276e-05 -5.653884e-05 6.484791e-05 -3.873853e-05 1.837000e-04
<VARIANCE> 39
 7.260294e+01 2.691000e+01 5.730242e+01 4.886272e+01 6.621581e+01 6.243372e+01 5.315271e+01 5.417111e+01 4.753854e+01 4.235820e+01 4.523165e+01 3.513968e+01 9.261716e+01 1.598880e+00 1.296607e+00 1.408486e+00 2.013092e+00 2.538589e+00 2.681735e+00 2.565230e+00 2.860724e+00 2.427617e+00 2.572192e+00 2.380991e+00 1.922342e+00 1.435943e+00 2.083309e-01 2.296111e-01 2.255614e-01 3.580001e-01 4.273398e-01 4.598174e-01 4.728001e-01 5.150902e-01 4.280306e-01 4.639497e-01 4.232959e-01 3.590152e-01 2.160550e-01
<GCONST> 1.187599e+02
<STATE> 4
<MEAN> 39
 -5.837279e+00 5.704782e+00 4.814829e+00 3.760123e+00 -3.424043e+00 -3.835427e+00 -3.340580e+00 -5.505214e-01 -3.039483e+00 -6.687473e-02 2.151532e-01 -1.288332e+00 6.013779e+01 -1.083389e-02 -9.237600e-03 3.877597e-03 3.037048e-03 -7.929758e-03 -4.350537e-03 -2.679606e-03 1.550482e-02 1.988692e-03 1.315268e-03 -8.123394e-04 -5.583867e-03 -9.670073e-03 5.684795e-04 -2.899781e-05 -1.014315e-04 4.611624e-04 1.408626e-04 -2.539529e-04 -5.414988e-05 9.885257e-05 -1.498140e-05 -1.229660e-04 1.147812e-04 -5.573944e-06 3.224227e-04
<VARIANCE> 39
 7.612785e+01 2.735601e+01 5.672354e+01 4.932386e+01 6.602904e+01 6.124577e+01 5.468020e+01 5.518247e+01 4.673703e+01 4.235625e+01 4.483027e+01 3.438079e+01 1.003906e+02 1.608490e+00 1.271871e+00 1.392071e+00 1.981616e+00 2.539360e+00 2.679466e+00 2.570327e+00 2.827157e+00 2.405828e+00 2.582795e+00 2.361565e+00 1.911404e+00 1.388613e+00 2.051985e-01 2.250768e-01 2.245119e-01 3.520966e-01 4.272610e-01 4.607733e-01 4.744577e-01 5.115845e-01 4.264556e-01 4.675036e-01 4.202611e-01 3.571004e-01 2.087606e-01
<GCONST> 1.186764e+02
<TRANSP> 5
 0.000000e+00 1.000000e+00 0.000000e+00 0.000000e+00 0.000000e+00
 0.000000e+00 8.003899e-01 1.996101e-01 0.000000e+00 0.000000e+00
 0.000000e+00 0.000000e+00 8.003898e-01 1.996101e-01 0.000000e+00
 0.000000e+00 0.000000e+00 0.000000e+00 9.342785e-01 6.572153e-02
 0.000000e+00 0.000000e+00 0.000000e+00 0.000000e+00 0.000000e+00
<ENDHMM>
~h "z"
<BEGINHMM>
<NUMSTATES> 5
<STATE> 2
<MEAN> 39
 -5.473910e+00 5.417352e+00 3.081623e+00 3.304224e+00 -2.289355e+00 -3.405409e+00 -2.134007e+00 -3.068595e-01 -1.974886e+00 -1.539732e-01 -4.231361e-01 -9.914480e-01 5.837133e+01 -8.742092e-03 5.796534e-03 3.478479e-03 3.970456e-03 2.598717e-03 6.807215e-03 1.383438e-03 1.979320e-03 -3.152480e-03 2.581201e-03 -1.785938e-03 -7.779116e-04 -2.399357e-02 -1.564606e-04 -2.146698e-05 -8.250875e-05 -1.379976e-04 2.228566e-04 1.523357e-04 1.147604e-04 -3.837820e-05 3.521985e-05 -6.772337e-05 -1.080560e-04 1.386419e-04 -6.137351e-05
<VARIANCE> 39
 7.803224e+01 3.325864e+01 5.268872e+01 4.128677e+01 6.006226e+01 6.137302e+01 5.000986e+01 5.254313e+01 4.663320e+01 4.348872e+01 3.893157e+01 3.384869e+01 1.759600e+02 1.498206e+00 1.256388e+00 1.422269e+00 1.862478e+00 2.397959e+00 2.538383e+00 2.378037e+00 2.582381e+00 2.335244e+00 2.452098e+00 2.255369e+00 1.958303e+00 1.385137e+00 1.852572e-01 2.096586e-01 2.358555e-01 3.311370e-01 4.017071e-01 4.440657e-01 4.341552e-01 4.616421e-01 4.229180e-01 4.346272e-01 4.047948e-01 3.587608e-01 2.017668e-01
<GCONST> 1.177095e+02
<STATE> 3
<MEAN> 39
 -5.521136e+00 5.444906e+00 3.096290e+00 3.323992e+00 -2.270891e+00 -3.369237e+00 -2.126649e+00 -2.965620e-01 -1.989564e+00 -1.407712e-01 -4.330182e-01 -9.955646e-01 5.824306e+01 -9.416464e-03 5.637039e-03 2.892275e-03 3.103248e-03 3.596908e-03 7.504345e-03 1.925239e-03 1.884254e-03 -2.900033e-03 2.279583e-03 -2.229057e-03 -8.475249e-05 -2.408868e-02 -9.519890e-05 -3.962925e-05 -1.854077e-04 -2.359735e-04 1.482892e-04 1.778708e-04 1.564220e-04 3.058225e-05 9.247493e-05 -7.696541e-05 -6.644248e-05 1.416324e-04 -3.512016e-05
<VARIANCE> 39
 7.900762e+01 3.340688e+01 5.260666e+01 4.120042e+01 6.010299e+01 6.157229e+01 5.009969e+01 5.243385e+01 4.640031e+01 4.358828e+01 3.890970e+01 3.392229e+01 1.839459e+02 1.496721e+00 1.259769e+00 1.421385e+00 1.860258e+00 2.399978e+00 2.546353e+00 2.378590e+00 2.571120e+00 2.325902e+00 2.456915e+00 2.255394e+00 1.952580e+00 1.343680e+00 1.845722e-01 2.098890e-01 2.350557e-01 3.304549e-01 4.010651e-01 4.455769e-01 4.338417e-01 4.596248e-01 4.208616e-01 4.353847e-01 4.043034e-01 3.569778e-01 1.957354e-01
<GCONST> 1.176829e+02
<STATE> 4
<MEAN> 39
 -5.542506e+00 5.548025e+00 3.121981e+00 3.347977e+00 -2.181206e+00 -3.296567e+00 -2.121097e+00 -2.898379e-01 -2.039472e+00 -1.261985e-01 -4.711947e-01 -1.043958e+00 5.831612e+01 -1.070059e-02 4.490557e-03 2.047436e-04 1.185805e-03 5.689875e-03 8.299449e-03 2.051296e-03 2.904160e-03 -1.847459e-03 1.939493e-03 -2.245296e-03 5.311109e-04 -2.559292e-02 -2.880378e-06 -7.888225e-05 -2.794517e-04 -2.783901e-04 2.281931e-05 7.827421e-05 7.228372e-05 1.859544e-04 1.373263e-04 -7.651552e-05 6.834209e-05 1.221377e-04 1.204364e-04
<VARIANCE> 39
 8.082423e+01 3.349334e+01 5.293583e+01 4.159850e+01 6.028754e+01 6.246764e+01 5.078877e+01 5.237143e+01 4.619061e+01 4.421247e+01 3.901418e+01 3.414808e+01 1.897156e+02 1.505046e+00 1.272328e+00 1.429311e+00 1.865106e+00 2.408072e+00 2.578233e+00 2.389565e+00 2.556513e+00 2.320785e+00 2.481250e+00 2.256268e+00 1.951146e+00 1.294172e+00 1.839074e-01 2.114589e-01 2.347717e-01 3.302611e-01 4.008365e-01 4.506328e-01 4.343600e-01 4.571380e-01 4.190971e-01 4.392268e-01 4.023677e-01 3.556635e-01 1.883435e-01
<GCONST> 1.177782e+02
<TRANSP> 5
 0.000000e+00 1.000000e+00 0.000000e+00 0.000000e+00 0.000000e+00
 0.000000e+00 7.986326e-01 2.013674e-01 0.000000e+00 0.000000e+00
 0.000000e+00 0.000000e+00 7.986323e-01 2.013678e-01 0.000000e+00
 0.000000e+00 0.000000e+00 0.000000e+00 9.318718e-01 6.812817e-02
 0.000000e+00 0.000000e+00 0.000000e+00 0.000000e+00 0.000000e+00
<ENDHMM>
~h "aa"
<BEGINHMM>
<NUMSTATES> 5
<STATE> 2
<MEAN> 39
 -3.170614e+00 4.890573e+00 1.247286e+00 2.571986e+00 -1.667936e+00 -1.363397e+00 -1.953309e+00 -7.118345e-01 -1.534459e+00 -6.639177e-01 -6.043956e-01 -1.048509e+00 5.978236e+01 -1.259625e-03 9.964414e-03 7.374964e-03 -1.576999e-03 -2.230170e-03 -7.404460e-04 3.964811e-03 1.213936e-03 -3.681442e-03 6.756893e-03 6.174090e-03 3.084062e-03 6.314924e-03 -4.980164e-04 -5.171264e-05 6.573882e-05 1.441198e-04 1.444173e-04 1.663584e-04 1.233491e-04 2.182165e-07 -2.159041e-04 -5.288011e-05 5.504188e-05 3.492981e-05 -1.197238e-03
<VARIANCE> 39
 6.907093e+01 2.954634e+01 5.537069e+01 4.949403e+01 5.203932e+01 6.124570e+01 5.211649e+01 5.285358e+01 4.978957e+01 4.363935e+01 3.867430e+01 3.355944e+01 9.310883e+01 1.356197e+00 1.318065e+00 1.584533e+00 1.997377e+00 2.267462e+00 2.561803e+00 2.451841e+00 2.758386e+00 2.430876e+00 2.539057e+00 2.311508e+00 2.013801e+00 1.367337e+00 1.740156e-01 2.260036e-01 2.629729e-01 3.507504e-01 3.923797e-01 4.364413e-01 4.467561e-01 5.021054e-01 4.447260e-01 4.532339e-01 4.194899e-01 3.714006e-01 1.988090e-01
<GCONST> 1.177081e+02
<STATE> 3
<MEAN> 39
 -3.188132e+00 4.938519e+00 1.285321e+00 2.565988e+00 -1.676910e+00 -1.363174e+00 -1.932417e+00 -7.059641e-01 -1.557457e+00 -6.311234e-01 -5.719041e-01 -1.032039e+00 5.979148e+01 -3.540965e-03 9.773818e-03 7.444402e-03 -1.016894e-03 -1.541149e-03 1.465470e-04 4.307228e-03 1.218925e-03 -4.654502e-03 6.609909e-03 6.329480e-03 3.280146e-03 8.759968e-04 -4.202584e-04 -3.353477e-05 -2.115138e-06 8.979551e-05 1.423011e-04 1.853343e-04 4.858709e-05 -1.529406e-05 -2.013019e-04 -2.501658e-05 2.713435e-05 2.541980e-05 -9.726812e-04
<VARIANCE> 39
 6.954237e+01 2.958303e+01 5.551627e+01 4.958946e+01 5.242250e+01 6.142001e+01 5.229206e+01 5.292372e+01 4.967940e+01 4.393297e+01 3.878395e+01 3.359012e+01 9.413425e+01 1.355742e+00 1.323950e+00 1.587737e+00 2.000032e+00 2.269965e+00 2.561263e+00 2.448358e+00 2.756742e+00 2.427153e+00 2.543141e+00 2.319521e+00 2.017057e+00 1.342873e+00 1.739281e-01 2.267164e-01 2.627564e-01 3.511165e-01 3.929641e-01 4.357551e-01 4.453799e-01 5.007640e-01 4.428709e-01 4.536687e-01 4.206553e-01 3.721446e-01 1.955631e-01
<GCONST> 1.177302e+02
<STATE> 4
<MEAN> 39
 -3.144878e+00 5.082747e+00 1.350326e+00 2.578457e+00 -1.678571e+00 -1.322693e+00 -1.844292e+00 -6.913391e-01 -1.614280e+00 -5.892540e-01 -4.978145e-01 -1.040230e+00 5.993552e+01 -7.670272e-03 8.804936e-03 5.997411e-03 -1.155221e-03 7.174282e-04 2.295282e-03 3.341968e-03 2.799182e-03 -5.908806e-03 5.908552e-03 6.743218e-03 2.705229e-03 -6.331990e-03 -1.808123e-04 -4.151640e-05 -1.357184e-04 -1.797337e-05 1.874519e-04 1.415067e-04 -8.811514e-05 9.586316e-05 -8.648799e-05 -3.434570e-05 3.423482e-06 -7.021499e-05 -3.678146e-04
<VARIANCE> 39
 7.169306e+01 2.977201e+01 5.659016e+01 5.038844e+01 5.332603e+01 6.199512e+01 5.321570e+01 5.315508e+01 4.919921e+01 4.479668e+01 3.928740e+01 3.364019e+01 9.642397e+01 1.374770e+00 1.345816e+00 1.610124e+00 2.005667e+00 2.276671e+00 2.561771e+00 2.439351e+00 2.742798e+00 2.421808e+00 2.552934e+00 2.335053e+00 2.014311e+00 1.315547e+00 1.757703e-01 2.294007e-01 2.638640e-01 3.505410e-01 3.942348e-01 4.330528e-01 4.401011e-01 4.960786e-01 4.388584e-01 4.544059e-01 4.223129e-01 3.709712e-01 1.917746e-01
<GCONST> 1.179008e+02
<TRANSP> 5
 0.000000e+00 1.000000e+00 0.000000e+00 0.000000e+00 0.000000e+00
 0.000000e+00 7.996230e-01 2.003770e-01 0.000000e+00 0.000000e+00
 0.000000e+00 0.000000e+00 7.996215e-01 2.003784e-01 0.000000e+00
 0.000000e+00 0.000000e+00 0.000000e+00 9.327307e-01 6.726930e-02
 0.000000e+00 0.000000e+00 0.000000e+00 0.000000e+00 0.000000e+00
<ENDHMM>
~h "ae"
<BEGINHMM>
<NUMSTATES> 5
<STATE> 2
<MEAN> 39
 -3.975837e+00 5.266751e+00 3.049818e+00 3.815153e+00 -3.092197e+00 -3.386731e+00 -1.478321e+00 -4.024011e-01 -1.301150e+00 -4.849702e-01 -9.461853e-01 -9.979998e-01 5.995323e+01 -6.584209e-03 -3.929649e-04 3.542864e-03 8.440785e-04 -6.583822e-04 5.217987e-03 2.441932e-03 -3.045518e-03 -1.438097e-03 9.269160e-04 -2.647472e-03 -1.810038e-03 -1.463391e-02 -1.712303e-04 -1.137634e-05 -5.553685e-05 -4.052472e-05 3.864479e-05 -1.096465e-04 1.281517e-04 -1.815638e-04 6.278270e-06 8.017923e-05 -1.496942e-04 8.769200e-05 -1.162350e-04
<VARIANCE> 39
 6.281918e+01 3.262836e+01 4.885959e+01 4.290268e+01 5.928759e+01 5.937754e+01 4.853499e+01 5.243116e+01 4.985041e+01 5.070263e+01 3.970142e+01 3.408657e+01 9.435662e+01 1.506950e+00 1.390866e+00 1.470691e+00 2.038795e+00 2.483523e+00 2.579264e+00 2.344557e+00 2.727548e+00 2.463822e+00 2.682812e+00 2.293863e+00 2.000612e+00 1.469168e+00 2.068493e-01 2.415840e-01 2.496603e-01 3.661596e-01 4.267928e-01 4.604481e-01 4.297944e-01 4.778922e-01 4.406374e-01 4.707270e-01 4.106649e-01 3.650512e-01 2.250444e-01
<GCONST> 1.183381e+02
<STATE> 3
<MEAN> 39
 -4.011219e+00 5.264596e+00 3.067438e+00 3.820201e+00 -3.094732e+00 -3.362605e+00 -1.464979e+00 -4.222239e-01 -1.307662e+00 -4.789729e-01 -9.609410e-01 -1.005834e+00 5.987831e+01 -7.438119e-03 -4.948287e-04 3.114065e-03 6.215348e-04 -3.309464e-04 5.111201e-03 2.488730e-03 -4.232757e-03 -1.377551e-03 1.236974e-03 -3.055773e-03 -1.412257e-03 -1.512564e-02 -1.400275e-04 -1.115572e-05 -1.000355e-04 -4.664676e-05 6.349199e-05 -2.971656e-05 -3.601084e-06 -2.379427e-04 2.247020e-05 6.893450e-05 -7.660881e-05 7.770151e-05 -7.752043e-05
<VARIANCE> 39
 6.275991e+01 3.250605e+01 4.876082e+01 4.278825e+01 5.928383e+01 5.910571e+01 4.840883e+01 5.241164e+01 4.971141e+01 5.063427e+01 3.972474e+01 3.402227e+01 9.637442e+01 1.504445e+00 1.390978e+00 1.469605e+00 2.038231e+00 2.487782e+00 2.580859e+00 2.347932e+00 2.729346e+00 2.461112e+00 2.680346e+00 2.294082e+00 1.996826e+00 1.485066e+00 2.067771e-01 2.417359e-01 2.496418e-01 3.664828e-01 4.282650e-01 4.612916e-01 4.307996e-01 4.780418e-01 4.406325e-01 4.705391e-01 4.112150e-01 3.643641e-01 2.270740e-01
<GCONST> 1.183627e+02
<STATE> 4
<MEAN> 39
 -4.053257e+00 5.245025e+00 3.035893e+00 3.836647e+00 -3.103918e+00 -3.288178e+00 -1.438555e+00 -4.721438e-01 -1.355007e+00 -5.090380e-01 -1.030317e+00 -1.041859e+00 5.990638e+01 -9.935364e-03 -1.154701e-03 2.602258e-03 7.544250e-04 4.736168e-04 4.741055e-03 2.640313e-03 -6.175166e-03 -1.541437e-03 1.346107e-03 -2.956407e-03 -9.811824e-04 -1.847491e-02 -1.487975e-04 -3.923995e-05 -1.131283e-04 -4.563634e-05 6.471722e-05 -7.041017e-06 -1.303051e-05 -1.364465e-04 -5.589463e-06 1.942869e-05 8.307721e-06 5.501893e-05 -2.091305e-04
<VARIANCE> 39
 6.259535e+01 3.238022e+01 4.867763e+01 4.262674e+01 5.928667e+01 5.888382e+01 4.866702e+01 5.274362e+01 4.955968e+01 5.099015e+01 3.989416e+01 3.403577e+01 9.622063e+01 1.507123e+00 1.395289e+00 1.475956e+00 2.034624e+00 2.492624e+00 2.597703e+00 2.360422e+00 2.738877e+00 2.460272e+00 2.679185e+00 2.301096e+00 2.001045e+00 1.508185e+00 2.080517e-01 2.431385e-01 2.512310e-01 3.669326e-01 4.313465e-01 4.657703e-01 4.341314e-01 4.795445e-01 4.414815e-01 4.710951e-01 4.133995e-01 3.659843e-01 2.300530e-01
<GCONST> 1.184831e+02
<TRANSP> 5
 0.000000e+00 1.000000e+00 0.000000e+00 0.000000e+00 0.000000e+00
 0.000000e+00 7.989619e-01 2.010382e-01 0.000000e+00 0.000000e+00
 0.000000e+00 0.000000e+00 7.989601e-01 2.010399e-01 0.000000e+00
 0.000000e+00 0.000000e+00 0.000000e+00 9.323019e-01 6.769807e-02
 0.000000e+00 0.000000e+00 0.000000e+00 0.000000e+00 0.000000e+00
<ENDHMM>
~h "ah"
<BEGINHMM>
<NUMSTATES> 5
<STATE> 2
<MEAN> 39
 -3.869470e+00 5.586894e+00 3.310188e+00 4.752741e+00 -2.468626e+00 -3.754967e+00 -2.358871e+00 -1.084425e+00 -1.480626e+00 1.908947e-01 -3.618945e-01 -8.513103e-01 5.927232e+01 -2.470580e-02 -7.029631e-03 7.486738e-03 -2.614384e-03 -2.374331e-03 -7.650516e-03 9.523224e-03 1.420883e-02 -3.921249e-03 -5.483982e-03 -6.160788e-03 5.156803e-03 -1.982845e-02 -4.318890e-04 -1.201125e-04 -4.109721e-04 -4.108213e-04 1.425133e-04 2.715257e-04 1.550138e-04 5.405883e-05 -5.536487e-05 -4.328884e-05 3.114346e-05 -1.833926e-04 -7.282699e-04
<VARIANCE> 39
 7.387460e+01 3.550217e+01 4.463073e+01 4.457637e+01 5.730361e+01 4.958016e+01 5.112756e+01 5.518961e+01 4.550150e+01 4.230035e+01 4.069019e+01 3.236528e+01 1.161655e+02 1.558763e+00 1.555616e+00 1.545498e+00 2.059009e+00 2.522303e+00 2.478469e+00 2.378927e+00 2.742581e+00 2.378711e+00 2.480368e+00 2.345654e+00 1.851357e+00 1.545549e+00 2.076147e-01 2.679063e-01 2.639157e-01 3.701506e-01 4.305426e-01 4.424858e-01 4.289543e-01 4.768064e-01 4.252191e-01 4.364065e-01 4.152352e-01 3.383409e-01 2.291003e-01
<GCONST> 1.183922e+02
<STATE> 3
<MEAN> 39
 -3.998765e+00 5.547804e+00 3.342147e+00 4.736174e+00 -2.480644e+00 -3.786016e+00 -2.313102e+00 -1.014274e+00 -1.497464e+00 1.603566e-01 -3.919181e-01 -8.269086e-01 5.915429e+01 -2.631052e-02 -7.492052e-03 5.413705e-03 -4.468621e-03 -1.628468e-03 -6.366610e-03 1.019774e-02 1.453793e-02 -4.124303e-03 -5.727215e-03 -6.122543e-03 4.175673e-03 -2.277502e-02 -2.298735e-04 -6.968853e-05 -4.146607e-04 -3.437236e-04 1.619968e-04 2.517037e-04 1.073305e-04 3.731691e-05 -4.852637e-05 -5.433778e-05 2.150745e-05 -1.969243e-04 -4.984072e-04
<VARIANCE> 39
 7.525962e+01 3.588177e+01 4.486611e+01 4.475071e+01 5.753521e+01 4.961410e+01 5.102325e+01 5.481781e+01 4.546278e+01 4.215300e+01 4.062849e+01 3.217486e+01 1.223969e+02 1.571640e+00 1.564380e+00 1.544435e+00 2.063098e+00 2.525644e+00 2.476317e+00 2.395497e+00 2.739738e+00 2.378034e+00 2.480737e+00 2.340044e+00 1.851986e+00 1.523419e+00 2.086743e-01 2.692747e-01 2.638965e-01 3.708155e-01 4.310593e-01 4.419304e-01 4.332349e-01 4.772427e-01 4.257732e-01 4.364007e-01 4.142527e-01 3.388525e-01 2.257377e-01
<GCONST> 1.184802e+02
<STATE> 4
<MEAN> 39
 -4.242715e+00 5.472733e+00 3.437569e+00 4.684946e+00 -2.507004e+00 -3.744483e+00 -2.359608e+00 -8.819530e-01 -1.541318e+00 5.207220e-02 -4.283237e-01 -8.383049e-01 5.882116e+01 -2.625313e-02 -9.047747e-03 1.857098e-03 -5.830155e-03 -9.843201e-04 -2.703524e-03 1.067332e-02 1.524172e-02 -3.484855e-03 -6.199027e-03 -6.407447e-03 3.131645e-03 -2.832269e-02 1.264376e-04 5.354360e-07 -3.470402e-04 -1.883324e-04 1.458257e-04 1.785859e-04 1.384537e-04 2.749696e-05 -6.330550e-05 9.499915e-06 8.290669e-06 -1.553017e-04 -5.366938e-05
<VARIANCE> 39
 7.607733e+01 3.598835e+01 4.552014e+01 4.464185e+01 5.716134e+01 4.941375e+01 5.011335e+01 5.424829e+01 4.539894e+01 4.185478e+01 4.066862e+01 3.143611e+01 1.381057e+02 1.587582e+00 1.562496e+00 1.539792e+00 2.065701e+00 2.523833e+00 2.479455e+00 2.446591e+00 2.721909e+00 2.376141e+00 2.485912e+00 2.336954e+00 1.838596e+00 1.539308e+00 2.111834e-01 2.695780e-01 2.630146e-01 3.708943e-01 4.302019e-01 4.419593e-01 4.469968e-01 4.758238e-01 4.288381e-01 4.386842e-01 4.134131e-01 3.380975e-01 2.262132e-01
<GCONST> 1.186290e+02
<TRANSP> 5
 0.000000e+00 1.000000e+00 0.000000e+00 0.000000e+00 0.000000e+00
 0.000000e+00 7.994724e-01 2.005276e-01 0.000000e+00 0.000000e+00
 0.000000e+00 0.000000e+00 7.994726e-01 2.005274e-01 0.000000e+00
 0.000000e+00 0.000000e+00 0.000000e+00 9.335571e-01 6.644298e-02
 0.000000e+00 0.000000e+00 0.000000e+00 0.000000e+00 0.000000e+00
<ENDHMM>
~h "ao"
<BEGINHMM>
<NUMSTATES> 5
<STATE> 2
<MEAN> 39
 -3.632149e+00 4.399503e+00 1.353374e+00 2.600948e+00 -1.780281e+00 -2.299753e+00 -2.715519e+00 -1.516102e-01 -2.400966e+00 -5.660833e-01 -3.564911e-01 -6.638923e-01 5.942076e+01 6.848150e-03 8.508739e-03 -4.506898e-03 -8.537188e-03 7.388239e-03 8.580962e-03 -9.258791e-04 -8.907164e-03 1.859784e-04 1.838970e-03 -1.104215e-03 -2.535346e-03 9.571983e-03 -5.825485e-04 1.951924e-04 1.420740e-04 -3.163332e-04 -2.340358e-05 3.634915e-04 1.920256e-04 8.755187e-06 -1.317682e-05 -4.129227e-04 -1.261593e-04 -2.952714e-04 -1.001457e-03
<VARIANCE> 39
 6.762289e+01 3.060363e+01 5.130941e+01 4.707706e+01 4.955351e+01 5.631959e+01 5.557901e+01 5.131152e+01 4.867701e+01 4.345549e+01 3.922444e+01 3.297207e+01 1.003796e+02 1.400224e+00 1.371628e+00 1.592351e+00 2.019550e+00 2.387623e+00 2.626705e+00 2.487356e+00 2.617319e+00 2.590677e+00 2.572292e+00 2.443764e+00 1.942846e+00 1.284986e+00 1.804180e-01 2.337503e-01 2.654781e-01 3.625677e-01 4.163130e-01 4.676819e-01 4.354625e-01 4.663097e-01 4.683049e-01 4.542410e-01 4.455586e-01 3.588541e-01 1.876864e-01
<GCONST> 1.178666e+02
<STATE> 3
<MEAN> 39
 -3.605418e+00 4.446037e+00 1.329978e+00 2.551166e+00 -1.743656e+00 -2.249690e+00 -2.717997e+00 -1.950316e-01 -2.399557e+00 -5.644253e-01 -3.609645e-01 -6.816362e-01 5.945475e+01 4.404325e-03 9.599642e-03 -3.695834e-03 -9.907737e-03 6.539619e-03 9.429558e-03 -1.756291e-04 -8.665266e-03 3.650976e-04 2.404679e-04 -9.358452e-04 -3.584097e-03 5.694324e-03 -4.585308e-04 2.145073e-04 1.761097e-04 -2.511293e-04 -1.809324e-04 1.170038e-04 1.190502e-04 8.482216e-05 4.521630e-05 -2.899820e-04 7.027039e-05 -1.709263e-04 -6.627375e-04
<VARIANCE> 39
 6.812561e+01 3.063148e+01 5.157264e+01 4.788222e+01 4.984837e+01 5.653156e+01 5.579642e+01 5.117174e+01 4.864297e+01 4.335763e+01 3.939392e+01 3.295559e+01 1.000573e+02 1.411429e+00 1.376479e+00 1.596610e+00 2.024253e+00 2.390001e+00 2.637594e+00 2.485961e+00 2.617412e+00 2.591425e+00 2.570855e+00 2.436408e+00 1.943373e+00 1.249212e+00 1.817072e-01 2.347823e-01 2.655484e-01 3.617823e-01 4.157452e-01 4.705664e-01 4.344830e-01 4.663605e-01 4.678208e-01 4.538333e-01 4.428997e-01 3.583591e-01 1.826221e-01
<GCONST> 1.178710e+02
<STATE> 4
<MEAN> 39
 -3.461452e+00 4.608622e+00 1.256778e+00 2.373382e+00 -1.673115e+00 -2.073594e+00 -2.770097e+00 -2.315430e-01 -2.428432e+00 -5.639653e-01 -3.670233e-01 -7.411379e-01 5.984667e+01 3.179172e-03 1.102083e-02 -2.972115e-03 -1.244190e-02 3.951683e-03 1.098441e-02 2.972292e-04 -6.701767e-03 8.143219e-04 -1.264980e-03 8.934538e-04 -4.740672e-03 6.927439e-03 -1.459215e-04 1.098939e-04 2.205984e-04 -8.481110e-05 -2.905890e-04 -6.962176e-05 3.706391e-05 1.739457e-04 4.601557e-05 -6.125624e-05 1.334839e-04 -1.694585e-05 1.235482e-04
<VARIANCE> 39
 6.968999e+01 3.127010e+01 5.308660e+01 5.017290e+01 5.138419e+01 5.788977e+01 5.672582e+01 5.128363e+01 4.861595e+01 4.348235e+01 3.990014e+01 3.297894e+01 9.389854e+01 1.460549e+00 1.414842e+00 1.618917e+00 2.040779e+00 2.398718e+00 2.663051e+00 2.499414e+00 2.616732e+00 2.586914e+00 2.579016e+00 2.418801e+00 1.949508e+00 1.217876e+00 1.874682e-01 2.413345e-01 2.684520e-01 3.608744e-01 4.141743e-01 4.761626e-01 4.360072e-01 4.646208e-01 4.641688e-01 4.535887e-01 4.354380e-01 3.586384e-01 1.782873e-01
<GCONST> 1.181153e+02
<TRANSP> 5
 0.000000e+00 1.000000e+00 0.000000e+00 0.000000e+00 0.000000e+00
 0.000000e+00 7.994198e-01 2.005801e-01 0.000000e+00 0.000000e+00
 0.000000e+00 0.000000e+00 7.994192e-01 2.005808e-01 0.000000e+00
 0.000000e+00 0.000000e+00 0.000000e+00 9.326017e-01 6.739830e-02
 0.000000e+00 0.000000e+00 0.000000e+00 0.000000e+00 0.000000e+00
<ENDHMM>
~h "aw"
<BEGINHMM>
<NUMSTATES> 5
<STATE> 2
<MEAN> 39
 -5.088103e+00 5.527542e+00 1.308044e+00 1.790908e+00 -2.098415e+00 -3.466734e+00 -2.369816e-01 -5.676683e-01 -1.221847e+00 -5.207625e-01 -5.255986e-01 -3.335860e-01 5.770298e+01 2.453909e-02 -3.013922e-03 -1.858176e-02 -1.351016e-03 -1.956173e-03 1.588393e-02 -4.029045e-03 4.392373e-03 -8.865684e-03 -7.830826e-03 1.364609e-03 1.269336e-03 2.764931e-02 -1.279464e-03 9.334409e-05 -3.739844e-05 -3.713742e-04 4.064843e-04 1.534951e-03 2.105649e-05 -2.148144e-04 4.231986e-06 5.968412e-04 3.185418e-04 -1.131278e-04 -4.185388e-03
<VARIANCE> 39
 7.286683e+01 3.065255e+01 5.554895e+01 4.257006e+01 4.864844e+01 6.377194e+01 4.533772e+01 4.344509e+01 3.497587e+01 4.308344e+01 3.441785e+01 2.953779e+01 1.080864e+02 1.317129e+00 1.208458e+00 1.421202e+00 2.024510e+00 2.307708e+00 2.629769e+00 2.293543e+00 2.506667e+00 2.324240e+00 2.459404e+00 2.242965e+00 1.978168e+00 1.742542e+00 1.664523e-01 2.098803e-01 2.397500e-01 3.610298e-01 4.132060e-01 4.578793e-01 3.992347e-01 4.709750e-01 4.225662e-01 4.297669e-01 4.059815e-01 3.699563e-01 2.572057e-01
<GCONST> 1.164730e+02
<STATE> 3
<MEAN> 39
 -4.985994e+00 5.512210e+00 1.209643e+00 1.776615e+00 -2.105120e+00 -3.349291e+00 -2.544734e-01 -5.519019e-01 -1.263955e+00 -5.444736e-01 -5.106571e-01 -3.299169e-01 5.775599e+01 1.893334e-02 -2.660029e-03 -1.892201e-02 -3.084452e-03 1.133983e-04 2.363610e-02 -4.577365e-03 3.000315e-03 -8.322404e-03 -4.457323e-03 2.872819e-03 5.464620e-04 9.499848e-03 -1.027902e-03 7.202928e-05 -2.816439e-05 -3.441458e-04 3.854794e-04 1.461870e-03 -1.437711e-04 -3.154553e-04 1.011942e-04 6.486938e-04 2.948298e-04 -1.409085e-04 -3.312408e-03
<VARIANCE> 39
 7.275257e+01 3.062214e+01 5.573926e+01 4.282315e+01 4.808028e+01 6.432615e+01 4.554427e+01 4.337811e+01 3.505811e+01 4.331342e+01 3.431990e+01 2.969119e+01 1.062835e+02 1.289583e+00 1.204911e+00 1.426150e+00 2.026390e+00 2.297148e+00 2.596081e+00 2.283451e+00 2.500770e+00 2.343777e+00 2.465418e+00 2.234683e+00 1.989843e+00 1.522210e+00 1.628105e-01 2.089115e-01 2.409015e-01 3.606788e-01 4.109199e-01 4.512053e-01 3.974870e-01 4.704110e-01 4.285239e-01 4.306473e-01 4.042086e-01 3.721655e-01 2.257228e-01
<GCONST> 1.161451e+02
<STATE> 4
<MEAN> 39
 -4.676391e+00 5.408746e+00 9.685343e-01 1.557766e+00 -2.100708e+00 -2.854115e+00 -3.544020e-01 -5.699719e-01 -1.314039e+00 -5.734078e-01 -3.916594e-01 -3.769768e-01 5.793420e+01 1.502242e-02 -4.695209e-03 -2.107301e-02 -7.799422e-03 1.858559e-03 3.943740e-02 -6.972620e-03 3.646353e-04 -7.329413e-03 2.060909e-03 4.915554e-03 -5.067877e-03 -5.289380e-03 -2.767350e-04 -6.186089e-05 2.054364e-06 -3.159703e-04 2.578403e-04 8.160940e-04 -2.688068e-04 -2.317091e-04 2.962096e-05 3.471910e-04 8.418338e-05 -3.180744e-04 -5.665994e-04
<VARIANCE> 39
 7.189526e+01 3.062893e+01 5.808668e+01 4.383786e+01 4.891718e+01 6.868761e+01 4.694313e+01 4.335672e+01 3.576733e+01 4.330530e+01 3.460425e+01 3.057049e+01 1.033900e+02 1.237283e+00 1.190893e+00 1.431806e+00 2.033963e+00 2.292074e+00 2.576967e+00 2.250524e+00 2.472297e+00 2.392598e+00 2.493824e+00 2.214489e+00 1.979632e+00 1.187282e+00 1.564050e-01 2.049264e-01 2.421068e-01 3.610546e-01 4.071437e-01 4.479769e-01 3.888890e-01 4.623187e-01 4.419082e-01 4.355397e-01 3.979561e-01 3.684565e-01 1.760572e-01
<GCONST> 1.156878e+02
<TRANSP> 5
 0.000000e+00 1.000000e+00 0.000000e+00 0.000000e+00 0.000000e+00
 0.000000e+00 8.046204e-01 1.953796e-01 0.000000e+00 0.000000e+00
 0.000000e+00 0.000000e+00 8.046205e-01 1.953795e-01 0.000000e+00
 0.000000e+00 0.000000e+00 0.000000e+00 9.389265e-01 6.107347e-02
 0.000000e+00 0.000000e+00 0.000000e+00 0.000000e+00 0.000000e+00
<ENDHMM>
~h "ax"
<BEGINHMM>
<NUMSTATES> 5
<STATE> 2
<MEAN> 39
 -5.340282e+00 5.254563e+00 2.832389e+00 3.527228e+00 -2.744939e+00 -3.345763e+00 -1.380392e+00 -1.073148e+00 -1.082406e+00 -2.010147e-01 -6.103137e-01 -7.260712e-01 5.696009e+01 1.963415e-03 -6.147851e-04 -2.323797e-03 -1.073432e-03 -4.810240e-04 2.097401e-04 -1.131947e-04 -2.087459e-03 -6.578002e-04 1.670182e-03 7.211774e-04 -9.537978e-04 -3.680253e-03 -1.413141e-04 1.204047e-04 7.067095e-06 -4.993144e-05 6.952139e-05 2.064386e-04 4.287177e-05 -1.170733e-05 6.725723e-05 1.969614e-04 1.209142e-04 -5.484248e-05 -6.936237e-04
<VARIANCE> 39
 7.283733e+01 3.014449e+01 4.734114e+01 4.297289e+01 5.501326e+01 5.274588e+01 4.479652e+01 5.079800e+01 4.448783e+01 4.413235e+01 3.821215e+01 3.206015e+01 1.721243e+02 1.485155e+00 1.282716e+00 1.421454e+00 1.957962e+00 2.437571e+00 2.491127e+00 2.350831e+00 2.692852e+00 2.434220e+00 2.621949e+00 2.310440e+00 1.979632e+00 1.638472e+00 1.980372e-01 2.264006e-01 2.415364e-01 3.558075e-01 4.229864e-01 4.479324e-01 4.361778e-01 4.824886e-01 4.483168e-01 4.705238e-01 4.245311e-01 3.682320e-01 2.445028e-01
<GCONST> 1.181173e+02
<STATE> 3
<MEAN> 39
 -5.333806e+00 5.253692e+00 2.820287e+00 3.520998e+00 -2.746764e+00 -3.341349e+00 -1.381115e+00 -1.083565e+00 -1.084769e+00 -1.886462e-01 -6.048656e-01 -7.325974e-01 5.693023e+01 8.105491e-04 -1.316413e-04 -2.130432e-03 -1.173270e-03 -1.910322e-04 1.218630e-03 1.337254e-05 -2.048151e-03 -3.137532e-04 2.627986e-03 1.370720e-03 -1.154459e-03 -8.156855e-03 -2.477946e-04 1.102048e-04 3.706232e-05 -3.520902e-05 7.106461e-05 2.135672e-04 1.932883e-05 -9.109361e-07 5.344642e-05 1.627570e-04 1.511020e-04 1.400645e-06 -8.930434e-04
<VARIANCE> 39
 7.274282e+01 3.008448e+01 4.739627e+01 4.288051e+01 5.484805e+01 5.259022e+01 4.481095e+01 5.088656e+01 4.455880e+01 4.415559e+01 3.828524e+01 3.208931e+01 1.733808e+02 1.473361e+00 1.279665e+00 1.415376e+00 1.951192e+00 2.425165e+00 2.480764e+00 2.348866e+00 2.690665e+00 2.434353e+00 2.623819e+00 2.309502e+00 1.981042e+00 1.602012e+00 1.965498e-01 2.259352e-01 2.403992e-01 3.544968e-01 4.204641e-01 4.457714e-01 4.356720e-01 4.823109e-01 4.486745e-01 4.711741e-01 4.240695e-01 3.687266e-01 2.393308e-01
<GCONST> 1.180216e+02
<STATE> 4
<MEAN> 39
 -5.226961e+00 5.311078e+00 2.842139e+00 3.483932e+00 -2.736364e+00 -3.319971e+00 -1.430915e+00 -1.121365e+00 -1.126139e+00 -1.558022e-01 -5.724584e-01 -7.864366e-01 5.714124e+01 -2.487782e-03 7.543361e-04 -1.730901e-03 -8.611753e-04 4.876719e-04 3.454064e-03 5.668654e-04 -2.273716e-03 -7.355175e-05 4.511294e-03 2.265506e-03 -1.467654e-03 -1.904606e-02 -2.905325e-04 6.498303e-05 4.412093e-05 2.912377e-05 9.899423e-05 2.021087e-04 4.530489e-05 -2.753952e-05 -1.647057e-05 6.514662e-05 9.402397e-05 7.241152e-05 -9.156736e-04
<VARIANCE> 39
 7.275309e+01 2.991671e+01 4.774651e+01 4.315112e+01 5.451249e+01 5.254775e+01 4.501907e+01 5.159154e+01 4.479575e+01 4.442719e+01 3.850595e+01 3.230679e+01 1.710270e+02 1.451801e+00 1.272997e+00 1.404361e+00 1.942486e+00 2.399334e+00 2.458557e+00 2.338860e+00 2.688919e+00 2.425823e+00 2.627649e+00 2.298228e+00 1.976834e+00 1.514246e+00 1.935222e-01 2.249222e-01 2.378278e-01 3.517610e-01 4.149949e-01 4.411834e-01 4.325263e-01 4.818111e-01 4.472938e-01 4.721318e-01 4.210991e-01 3.676825e-01 2.268789e-01
<GCONST> 1.177946e+02
<TRANSP> 5
 0.000000e+00 1.000000e+00 0.000000e+00 0.000000e+00 0.000000e+00
 0.000000e+00 7.977813e-01 2.022187e-01 0.000000e+00 0.000000e+00
 0.000000e+00 0.000000e+00 7.977831e-01 2.022169e-01 0.000000e+00
 0.000000e+00 0.000000e+00 0.000000e+00 9.311532e-01 6.884677e-02
 0.000000e+00 0.000000e+00 0.000000e+00 0.000000e+00 0.000000e+00
<ENDHMM>
~h "ay"
<BEGINHMM>
<NUMSTATES> 5
<STATE> 2
<MEAN> 39
 -4.289327e+00 4.865500e+00 2.351911e+00 3.499804e+00 -2.725641e+00 -2.698332e+00 -7.931830e-01 -9.053043e-01 -6.325012e-01 -8.201416e-01 -9.521322e-01 -1.104375e+00 5.834624e+01 -2.101162e-02 -6.761591e-03 -3.988561e-03 1.019986e-03 6.335418e-03 -9.026808e-03 2.445943e-03 4.341002e-03 2.876631e-03 5.045068e-03 -1.841258e-03 5.213090e-03 -6.021399e-02 4.023237e-06 1.955378e-05 -1.703746e-04 -1.506668e-04 -4.958793e-05 -7.425765e-05 -2.466590e-04 -1.886315e-05 -1.712617e-04 3.501804e-05 2.813071e-04 1.605336e-04 -5.158331e-04
<VARIANCE> 39
 7.229989e+01 3.416358e+01 5.239244e+01 4.051995e+01 5.912204e+01 5.807917e+01 4.625650e+01 5.066574e+01 4.830517e+01 5.040586e+01 4.206551e+01 3.481650e+01 1.667017e+02 1.287168e+00 1.327059e+00 1.485405e+00 1.876400e+00 2.311359e+00 2.510882e+00 2.210975e+00 2.584843e+00 2.366479e+00 2.549600e+00 2.365466e+00 1.988130e+00 1.710071e+00 1.728724e-01 2.305235e-01 2.440918e-01 3.344542e-01 4.008265e-01 4.470426e-01 4.002585e-01 4.600814e-01 4.211149e-01 4.622834e-01 4.251630e-01 3.619022e-01 2.518968e-01
<GCONST> 1.181716e+02
<STATE> 3
<MEAN> 39
 -4.398003e+00 4.831614e+00 2.330563e+00 3.502734e+00 -2.693432e+00 -2.745449e+00 -7.830353e-01 -8.828734e-01 -6.209474e-01 -7.920951e-01 -9.582490e-01 -1.075517e+00 5.802557e+01 -2.124188e-02 -6.775869e-03 -4.981705e-03 1.170310e-04 6.107825e-03 -9.064328e-03 1.151380e-03 4.259798e-03 1.926242e-03 5.249429e-03 -3.482991e-04 5.934397e-03 -6.341042e-02 -2.356970e-05 -8.675932e-06 -2.004425e-04 -1.756232e-04 -5.098700e-05 3.110626e-05 -2.420886e-04 -6.911242e-05 -2.066167e-04 5.663204e-05 2.988479e-04 1.265209e-04 -5.812388e-04
<VARIANCE> 39
 7.305223e+01 3.432292e+01 5.161571e+01 4.028186e+01 5.896893e+01 5.753498e+01 4.582788e+01 5.068947e+01 4.817707e+01 5.000459e+01 4.155032e+01 3.454470e+01 1.773062e+02 1.280380e+00 1.326411e+00 1.482567e+00 1.867318e+00 2.316126e+00 2.501992e+00 2.214892e+00 2.584723e+00 2.370835e+00 2.544650e+00 2.355746e+00 1.981792e+00 1.688343e+00 1.719061e-01 2.305166e-01 2.435018e-01 3.325948e-01 4.024030e-01 4.459826e-01 4.016153e-01 4.600261e-01 4.220596e-01 4.620284e-01 4.236295e-01 3.616855e-01 2.492151e-01
<GCONST> 1.181213e+02
<STATE> 4
<MEAN> 39
 -4.440168e+00 4.814388e+00 2.297534e+00 3.579788e+00 -2.725765e+00 -2.841369e+00 -7.738727e-01 -8.992879e-01 -5.420806e-01 -8.041871e-01 -9.794123e-01 -1.064603e+00 5.765426e+01 -2.227479e-02 -7.507671e-03 -7.216414e-03 -2.765256e-03 6.052938e-03 -7.086461e-03 -1.199348e-03 4.479708e-03 -9.128923e-04 6.044421e-03 2.267647e-03 7.332968e-03 -7.183403e-02 4.195124e-06 -8.392949e-05 -2.239551e-04 -2.292518e-04 -8.197079e-05 2.030301e-04 -2.057946e-04 -4.076219e-05 -2.389876e-04 1.338489e-05 2.739222e-04 6.983420e-05 -4.517952e-04
<VARIANCE> 39
 7.275425e+01 3.469193e+01 5.035752e+01 3.994242e+01 5.880235e+01 5.644389e+01 4.525461e+01 5.139679e+01 4.769105e+01 4.932490e+01 4.067843e+01 3.421942e+01 1.876826e+02 1.252734e+00 1.303823e+00 1.469614e+00 1.854524e+00 2.311615e+00 2.466132e+00 2.220273e+00 2.586682e+00 2.381361e+00 2.529979e+00 2.333376e+00 1.965092e+00 1.610229e+00 1.684943e-01 2.260853e-01 2.411649e-01 3.292460e-01 4.021296e-01 4.390338e-01 4.027219e-01 4.596677e-01 4.243703e-01 4.605146e-01 4.195327e-01 3.605890e-01 2.377694e-01
<GCONST> 1.178106e+02
<TRANSP> 5
 0.000000e+00 1.000000e+00 0.000000e+00 0.000000e+00 0.000000e+00
 0.000000e+00 8.028652e-01 1.971348e-01 0.000000e+00 0.000000e+00
 0.000000e+00 0.000000e+00 8.028647e-01 1.971353e-01 0.000000e+00
 0.000000e+00 0.000000e+00 0.000000e+00 9.369369e-01 6.306316e-02
 0.000000e+00 0.000000e+00 0.000000e+00 0.000000e+00 0.000000e+00
<ENDHMM>
~h "ch"
<BEGINHMM>
<NUMSTATES> 5
<STATE> 2
<MEAN> 39
 -5.393910e+00 5.550628e+00 3.955850e+00 2.918218e+00 -3.653567e+00 -3.845584e+00 -1.218467e+00 -9.575049e-01 -8.985069e-01 -7.257918e-01 2.320810e-01 -7.777206e-01 5.990076e+01 -8.776190e-03 1.017624e-03 2.275621e-02 -7.112442e-03 -3.391166e-03 -1.569871e-02 -1.359044e-02 -1.004009e-02 -1.691351e-03 8.348743e-03 2.375419e-03 -4.838088e-03 4.036644e-02 7.362108e-04 4.606588e-04 -2.307868e-04 1.299536e-04 -3.397209e-04 -1.702272e-04 1.977174e-04 -4.776609e-04 2.906609e-04 2.043763e-04 1.144213e-04 -3.991254e-04 9.542428e-04
<VARIANCE> 39
 7.968822e+01 3.103287e+01 4.338224e+01 4.964910e+01 5.621608e+01 5.240968e+01 6.154078e+01 5.790781e+01 4.580763e+01 4.465165e+01 4.097692e+01 3.082507e+01 9.168527e+01 1.832721e+00 1.390064e+00 1.538404e+00 2.121744e+00 2.561996e+00 2.554983e+00 2.467668e+00 2.704199e+00 2.327657e+00 2.607395e+00 2.256902e+00 1.891505e+00 1.615775e+00 2.215328e-01 2.430854e-01 2.650134e-01 3.759298e-01 4.532999e-01 4.572689e-01 4.497793e-01 4.773449e-01 4.175412e-01 4.673089e-01 4.038390e-01 3.503465e-01 2.296422e-01
<GCONST> 1.188438e+02
<STATE> 3
<MEAN> 39
 -5.434818e+00 5.564353e+00 4.071947e+00 2.879075e+00 -3.677475e+00 -3.922805e+00 -1.277378e+00 -1.009219e+00 -9.052100e-01 -6.880348e-01 2.414177e-01 -8.038480e-01 6.010925e+01 -6.702728e-03 2.904251e-03 2.212610e-02 -6.433872e-03 -4.576413e-03 -1.482043e-02 -1.122047e-02 -1.044292e-02 -9.868138e-04 7.656426e-03 1.410428e-03 -5.720207e-03 4.013314e-02 4.341024e-04 3.428492e-04 -1.370302e-04 1.684971e-04 -2.142595e-04 2.189857e-04 4.861614e-04 -3.564586e-05 1.247300e-04 -1.779867e-04 -2.107857e-04 -1.545917e-04 -2.113667e-04
<VARIANCE> 39
 7.917241e+01 3.080250e+01 4.281646e+01 4.952509e+01 5.663137e+01 5.257114e+01 6.141400e+01 5.753284e+01 4.560728e+01 4.491442e+01 4.098163e+01 3.099622e+01 7.990113e+01 1.850980e+00 1.407412e+00 1.542851e+00 2.140554e+00 2.574297e+00 2.565514e+00 2.479245e+00 2.708200e+00 2.342805e+00 2.615748e+00 2.265829e+00 1.898163e+00 1.613383e+00 2.235197e-01 2.469088e-01 2.670003e-01 3.803303e-01 4.550729e-01 4.589981e-01 4.533944e-01 4.788633e-01 4.212276e-01 4.688326e-01 4.063124e-01 3.518088e-01 2.287121e-01
<GCONST> 1.188311e+02
<STATE> 4
<MEAN> 39
 -5.599039e+00 5.633655e+00 4.295027e+00 2.812293e+00 -3.827278e+00 -3.909640e+00 -1.213240e+00 -1.275284e+00 -8.573572e-01 -7.115798e-01 3.257326e-01 -9.148571e-01 6.039109e+01 -1.023644e-02 3.461261e-03 2.146579e-02 -4.309654e-03 -5.022702e-03 -5.805420e-03 -5.023423e-03 -1.050574e-02 -1.414038e-03 5.454274e-03 1.849926e-03 -4.659820e-03 2.140558e-02 1.288766e-04 1.983849e-05 -2.300272e-04 3.655645e-04 2.305899e-05 5.806654e-04 4.047173e-04 -4.403969e-05 3.082045e-05 -9.541248e-05 7.675079e-06 -3.654751e-06 -1.282017e-03
<VARIANCE> 39
 7.953427e+01 3.041229e+01 4.145303e+01 4.961125e+01 5.720079e+01 5.252274e+01 6.098914e+01 5.737349e+01 4.487562e+01 4.459049e+01 4.098593e+01 3.123560e+01 6.262113e+01 1.860362e+00 1.416138e+00 1.542944e+00 2.150388e+00 2.577050e+00 2.571164e+00 2.479385e+00 2.712506e+00 2.362601e+00 2.599493e+00 2.270468e+00 1.920193e+00 1.433005e+00 2.239031e-01 2.507531e-01 2.688309e-01 3.835084e-01 4.543333e-01 4.590731e-01 4.546469e-01 4.812766e-01 4.283094e-01 4.681148e-01 4.054261e-01 3.561341e-01 2.022379e-01
<GCONST> 1.183912e+02
<TRANSP> 5
 0.000000e+00 1.000000e+00 0.000000e+00 0.000000e+00 0.000000e+00
 0.000000e+00 8.028613e-01 1.971387e-01 0.000000e+00 0.000000e+00
 0.000000e+00 0.000000e+00 8.028619e-01 1.971382e-01 0.000000e+00
 0.000000e+00 0.000000e+00 0.000000e+00 9.369207e-01 6.307932e-02
 0.000000e+00 0.000000e+00 0.000000e+00 0.000000e+00 0.000000e+00
<ENDHMM>
~h "dh"
<BEGINHMM>
<NUMSTATES> 5
<STATE> 2
<MEAN> 39
 -6.744505e+00 4.799707e+00 1.679438e+00 3.298975e+00 -2.536658e+00 -3.141946e+00 -1.100600e+00 -1.459165e+00 -5.262536e-01 -2.207846e-01 -1.774790e-01 -6.021015e-01 5.250959e+01 3.662458e-02 1.273396e-02 7.645212e-03 -1.574397e-03 -1.595666e-02 -2.584276e-02 -1.681732e-03 -7.093982e-03 -2.216786e-03 -1.086844e-02 -4.093227e-03 5.681061e-03 1.171970e-01 4.759734e-04 4.413140e-05 -2.850331e-04 -4.832055e-05 -6.817489e-05 -2.678110e-04 -1.434588e-04 4.489110e-04 3.242549e-04 2.941781e-05 1.154225e-04 7.707582e-05 5.849142e-04
<VARIANCE> 39
 7.576412e+01 2.955475e+01 3.845377e+01 3.764649e+01 5.022532e+01 5.405530e+01 4.042665e+01 4.516317e+01 3.919491e+01 3.898222e+01 3.533009e+01 2.975800e+01 3.172217e+02 1.294909e+00 1.126542e+00 1.442751e+00 1.806280e+00 2.366980e+00 2.443756e+00 2.243964e+00 2.638842e+00 2.391428e+00 2.473919e+00 2.311130e+00 1.876419e+00 2.315574e+00 1.838744e-01 1.984933e-01 2.564065e-01 3.330742e-01 4.164712e-01 4.423964e-01 4.227357e-01 4.867861e-01 4.401547e-01 4.487258e-01 4.311315e-01 3.494411e-01 3.485175e-01
<GCONST> 1.174757e+02
<STATE> 3
<MEAN> 39
 -6.543922e+00 4.864277e+00 1.706679e+00 3.293020e+00 -2.604481e+00 -3.275992e+00 -1.108178e+00 -1.482352e+00 -5.368006e-01 -2.788596e-01 -2.026008e-01 -5.775768e-01 5.312955e+01 4.007705e-02 1.240646e-02 5.087648e-03 -6.978137e-04 -1.293762e-02 -2.693515e-02 -1.380190e-03 -4.553563e-03 -2.038695e-03 -1.120594e-02 -5.258523e-03 4.992218e-03 1.225255e-01 6.803773e-04 -7.087010e-05 -5.138338e-04 2.043884e-04 6.891543e-04 -1.876019e-04 8.056362e-05 4.935355e-04 2.167011e-05 -6.974470e-05 -2.902401e-04 -1.361229e-04 9.629866e-04
<VARIANCE> 39
 7.361495e+01 2.955637e+01 3.852154e+01 3.778664e+01 5.025039e+01 5.400787e+01 4.065314e+01 4.550696e+01 3.950314e+01 3.953468e+01 3.568691e+01 2.985902e+01 2.952797e+02 1.312614e+00 1.138820e+00 1.452413e+00 1.817564e+00 2.385250e+00 2.478456e+00 2.253910e+00 2.635634e+00 2.409071e+00 2.486390e+00 2.318493e+00 1.875817e+00 2.376755e+00 1.871026e-01 2.007216e-01 2.577221e-01 3.358383e-01 4.204845e-01 4.487694e-01 4.236516e-01 4.847875e-01 4.436691e-01 4.508360e-01 4.325902e-01 3.494734e-01 3.565436e-01
<GCONST> 1.176352e+02
<STATE> 4
<MEAN> 39
 -5.968351e+00 5.014306e+00 1.682184e+00 3.254905e+00 -2.643116e+00 -3.592970e+00 -1.183796e+00 -1.496607e+00 -5.457075e-01 -4.264723e-01 -3.449191e-01 -5.113559e-01 5.470304e+01 3.901267e-02 1.262481e-02 1.510854e-03 5.206731e-04 -6.724176e-03 -2.323783e-02 -8.399882e-04 -3.900552e-03 -6.786293e-04 -7.587319e-03 -8.374511e-03 5.191840e-03 1.132872e-01 -2.609013e-04 -5.702935e-05 -2.433284e-04 1.196849e-04 4.514873e-04 3.327309e-04 4.110858e-05 -5.268787e-05 1.593295e-04 3.550993e-04 -2.038667e-04 5.994855e-05 -1.360987e-03
<VARIANCE> 39
 6.685091e+01 2.926667e+01 3.866620e+01 3.765539e+01 4.936759e+01 5.320703e+01 4.090998e+01 4.649876e+01 3.988593e+01 4.076320e+01 3.651016e+01 3.033536e+01 2.317121e+02 1.320878e+00 1.155531e+00 1.450378e+00 1.833542e+00 2.385759e+00 2.526150e+00 2.278260e+00 2.647181e+00 2.470596e+00 2.528730e+00 2.347019e+00 1.912235e+00 2.320834e+00 1.906710e-01 2.043776e-01 2.563875e-01 3.397173e-01 4.215685e-01 4.573849e-01 4.266737e-01 4.855323e-01 4.579373e-01 4.601760e-01 4.381048e-01 3.575318e-01 3.473653e-01
<GCONST> 1.176083e+02
<TRANSP> 5
 0.000000e+00 1.000000e+00 0.000000e+00 0.000000e+00 0.000000e+00
 0.000000e+00 7.985290e-01 2.014710e-01 0.000000e+00 0.000000e+00
 0.000000e+00 0.000000e+00 7.985289e-01 2.014711e-01 0.000000e+00
 0.000000e+00 0.000000e+00 0.000000e+00 9.318697e-01 6.813027e-02
 0.000000e+00 0.000000e+00 0.000000e+00 0.000000e+00 0.000000e+00
<ENDHMM>
~h "dx"
<BEGINHMM>
<NUMSTATES> 5
<STATE> 2
<MEAN> 39
 -5.039791e+00 5.182231e+00 2.728743e+00 3.460041e+00 -2.763413e+00 -3.102599e+00 -1.621448e+00 -1.001449e+00 -1.465009e+00 -1.718117e-01 -4.143542e-01 -7.838874e-01 5.728345e+01 -3.069172e-04 -1.229584e-04 1.676911e-04 4.427330e-04 -7.723484e-05 -1.254952e-04 1.384274e-03 -5.965931e-04 -8.064950e-04 1.302634e-04 2.016021e-05 -6.641102e-04 -4.424106e-04 -3.279690e-05 1.287882e-04 -4.372475e-05 -2.521869e-04 -1.324795e-04 9.984825e-06 -6.734209e-05 3.129643e-05 5.655891e-04 1.135570e-04 -1.524381e-04 6.970180e-05 -2.208786e-04
<VARIANCE> 39
 7.511302e+01 3.176980e+01 4.933099e+01 4.342792e+01 5.612370e+01 5.721409e+01 4.854732e+01 5.180255e+01 4.520740e+01 4.441997e+01 3.916885e+01 3.258707e+01 1.870390e+02 1.427630e+00 1.314636e+00 1.443937e+00 1.965726e+00 2.426751e+00 2.540307e+00 2.353026e+00 2.664735e+00 2.397733e+00 2.564335e+00 2.306235e+00 1.956253e+00 1.593098e+00 1.919458e-01 2.298697e-01 2.440808e-01 3.528875e-01 4.183310e-01 4.509604e-01 4.301300e-01 4.753851e-01 4.365360e-01 4.593079e-01 4.178236e-01 3.601703e-01 2.372379e-01
<GCONST> 1.183655e+02
<STATE> 3
<MEAN> 39
 -5.039791e+00 5.182231e+00 2.728743e+00 3.460041e+00 -2.763413e+00 -3.102599e+00 -1.621448e+00 -1.001449e+00 -1.465009e+00 -1.718117e-01 -4.143542e-01 -7.838874e-01 5.728345e+01 -3.069172e-04 -1.229584e-04 1.676911e-04 4.427330e-04 -7.723484e-05 -1.254952e-04 1.384274e-03 -5.965931e-04 -8.064950e-04 1.302634e-04 2.016021e-05 -6.641102e-04 -4.424106e-04 -3.279690e-05 1.287882e-04 -4.372475e-05 -2.521869e-04 -1.324795e-04 9.984825e-06 -6.734209e-05 3.129643e-05 5.655891e-04 1.135570e-04 -1.524381e-04 6.970180e-05 -2.208786e-04
<VARIANCE> 39
 7.511302e+01 3.176980e+01 4.933099e+01 4.342792e+01 5.612370e+01 5.721409e+01 4.854732e+01 5.180255e+01 4.520740e+01 4.441997e+01 3.916885e+01 3.258707e+01 1.870390e+02 1.427630e+00 1.314636e+00 1.443937e+00 1.965726e+00 2.426751e+00 2.540307e+00 2.353026e+00 2.664735e+00 2.397733e+00 2.564335e+00 2.306235e+00 1.956253e+00 1.593098e+00 1.919458e-01 2.298697e-01 2.440808e-01 3.528875e-01 4.183310e-01 4.509604e-01 4.301300e-01 4.753851e-01 4.365360e-01 4.593079e-01 4.178236e-01 3.601703e-01 2.372379e-01
<GCONST> 1.183655e+02
<STATE> 4
<MEAN> 39
 -5.039791e+00 5.182231e+00 2.728743e+00 3.460041e+00 -2.763413e+00 -3.102599e+00 -1.621448e+00 -1.001449e+00 -1.465009e+00 -1.718117e-01 -4.143542e-01 -7.838874e-01 5.728345e+01 -3.069172e-04 -1.229584e-04 1.676911e-04 4.427330e-04 -7.723484e-05 -1.254952e-04 1.384274e-03 -5.965931e-04 -8.064950e-04 1.302634e-04 2.016021e-05 -6.641102e-04 -4.424106e-04 -3.279690e-05 1.287882e-04 -4.372475e-05 -2.521869e-04 -1.324795e-04 9.984825e-06 -6.734209e-05 3.129643e-05 5.655891e-04 1.135570e-04 -1.524381e-04 6.970180e-05 -2.208786e-04
<VARIANCE> 39
 7.511302e+01 3.176980e+01 4.933099e+01 4.342792e+01 5.612370e+01 5.721409e+01 4.854732e+01 5.180255e+01 4.520740e+01 4.441997e+01 3.916885e+01 3.258707e+01 1.870390e+02 1.427630e+00 1.314636e+00 1.443937e+00 1.965726e+00 2.426751e+00 2.540307e+00 2.353026e+00 2.664735e+00 2.397733e+00 2.564335e+00 2.306235e+00 1.956253e+00 1.593098e+00 1.919458e-01 2.298697e-01 2.440808e-01 3.528875e-01 4.183310e-01 4.509604e-01 4.301300e-01 4.753851e-01 4.365360e-01 4.593079e-01 4.178236e-01 3.601703e-01 2.372379e-01
<GCONST> 1.183655e+02
<TRANSP> 5
 0.000000e+00 1.000000e+00 0.000000e+00 0.000000e+00 0.000000e+00
 0.000000e+00 6.000000e-01 4.000000e-01 0.000000e+00 0.000000e+00
 0.000000e+00 0.000000e+00 6.000000e-01 4.000000e-01 0.000000e+00
 0.000000e+00 0.000000e+00 0.000000e+00 7.000000e-01 3.000000e-01
 0.000000e+00 0.000000e+00 0.000000e+00 0.000000e+00 0.000000e+00
<ENDHMM>
~h "eh"
<BEGINHMM>
<NUMSTATES> 5
<STATE> 2
<MEAN> 39
 -4.367149e+00 5.441185e+00 3.146453e+00 3.769654e+00 -3.409321e+00 -3.873888e+00 -1.724586e+00 -1.200676e+00 -1.253439e+00 -5.029973e-02 -4.368474e-02 -7.365252e-01 5.941152e+01 3.800312e-03 2.080582e-03 -1.514844e-03 2.380347e-04 -3.687485e-03 -8.152896e-03 -4.132806e-03 1.904169e-03 -1.135061e-03 1.385609e-04 -4.940787e-04 4.096430e-03 1.727720e-02 -2.635257e-04 -2.997478e-04 -2.361134e-04 1.095461e-04 8.548828e-05 1.823851e-04 3.472063e-06 5.714674e-07 1.107553e-04 4.565639e-05 -1.400998e-04 -8.701970e-05 -1.060125e-03
<VARIANCE> 39
 7.070858e+01 3.085523e+01 4.751951e+01 4.148818e+01 5.921100e+01 5.918974e+01 4.909548e+01 5.180420e+01 4.588749e+01 4.419844e+01 4.117421e+01 3.406118e+01 1.142525e+02 1.443947e+00 1.320104e+00 1.461385e+00 1.976971e+00 2.488196e+00 2.585525e+00 2.431759e+00 2.743076e+00 2.343025e+00 2.657739e+00 2.340366e+00 1.957565e+00 1.618474e+00 1.974973e-01 2.284093e-01 2.441952e-01 3.504367e-01 4.259804e-01 4.565412e-01 4.442571e-01 4.889286e-01 4.227687e-01 4.821915e-01 4.184620e-01 3.560212e-01 2.406789e-01
<GCONST> 1.182117e+02
<STATE> 3
<MEAN> 39
 -4.352325e+00 5.447289e+00 3.135706e+00 3.770640e+00 -3.423796e+00 -3.911019e+00 -1.745217e+00 -1.192225e+00 -1.259730e+00 -4.708179e-02 -4.808697e-02 -7.170496e-01 5.948351e+01 2.310653e-03 5.006379e-04 -2.513931e-03 8.092861e-04 -3.221937e-03 -6.801347e-03 -3.918089e-03 1.917850e-03 -1.007249e-03 2.258935e-04 -1.235227e-03 3.722555e-03 1.147224e-02 -2.940226e-04 -3.165005e-04 -2.051519e-04 1.033080e-04 1.093103e-04 2.808217e-04 7.483069e-05 -6.345266e-06 2.754193e-05 1.851263e-05 -1.553880e-04 -7.719616e-05 -1.163990e-03
<VARIANCE> 39
 7.020286e+01 3.087900e+01 4.757117e+01 4.154982e+01 5.936010e+01 5.929700e+01 4.914450e+01 5.199252e+01 4.597969e+01 4.413394e+01 4.112835e+01 3.413139e+01 1.112078e+02 1.439556e+00 1.318808e+00 1.459871e+00 1.971448e+00 2.491907e+00 2.585356e+00 2.425932e+00 2.736434e+00 2.345907e+00 2.658734e+00 2.334550e+00 1.957438e+00 1.603190e+00 1.968538e-01 2.282449e-01 2.442043e-01 3.496590e-01 4.267118e-01 4.562955e-01 4.431619e-01 4.870485e-01 4.234743e-01 4.818637e-01 4.179487e-01 3.561916e-01 2.386643e-01
<GCONST> 1.181501e+02
<STATE> 4
<MEAN> 39
 -4.259953e+00 5.404986e+00 3.023998e+00 3.760001e+00 -3.397612e+00 -3.904255e+00 -1.765432e+00 -1.156882e+00 -1.245661e+00 -1.220091e-01 -1.059786e-01 -7.294757e-01 5.972966e+01 -8.300238e-04 -2.171320e-03 -2.720921e-03 1.431608e-03 -2.181392e-03 -2.802361e-03 -2.911873e-03 1.562715e-03 -7.141187e-04 1.329872e-03 -1.407919e-03 1.678296e-03 1.859904e-04 -2.574165e-04 -2.488035e-04 -5.497343e-05 1.043194e-04 3.755108e-05 3.063219e-04 1.237538e-04 -1.227567e-05 8.440830e-05 7.504054e-06 -7.439608e-05 -1.372243e-04 -1.052629e-03
<VARIANCE> 39
 6.904024e+01 3.081407e+01 4.785255e+01 4.182022e+01 5.936171e+01 5.979953e+01 4.945798e+01 5.243468e+01 4.606512e+01 4.452919e+01 4.116311e+01 3.451864e+01 1.029792e+02 1.419642e+00 1.307527e+00 1.456148e+00 1.958412e+00 2.491537e+00 2.568343e+00 2.412489e+00 2.722696e+00 2.339964e+00 2.646701e+00 2.324748e+00 1.952752e+00 1.517845e+00 1.939822e-01 2.263230e-01 2.448631e-01 3.470851e-01 4.267478e-01 4.518121e-01 4.407475e-01 4.824329e-01 4.231433e-01 4.766221e-01 4.168721e-01 3.560258e-01 2.265231e-01
<GCONST> 1.178760e+02
<TRANSP> 5
 0.000000e+00 1.000000e+00 0.000000e+00 0.000000e+00 0.000000e+00
 0.000000e+00 8.006693e-01 1.993307e-01 0.000000e+00 0.000000e+00
 0.000000e+00 0.000000e+00 8.006685e-01 1.993314e-01 0.000000e+00
 0.000000e+00 0.000000e+00 0.000000e+00 9.346462e-01 6.535383e-02
 0.000000e+00 0.000000e+00 0.000000e+00 0.000000e+00 0.000000e+00
<ENDHMM>
~h "er"
<BEGINHMM>
<NUMSTATES> 5
<STATE> 2
<MEAN> 39
 -3.825282e+00 4.652495e+00 2.172524e+00 3.559584e+00 -3.220228e+00 -3.063846e+00 -2.618578e+00 -2.727346e-01 -1.600423e+00 -4.017554e-01 2.263697e-01 -5.529378e-01 5.819659e+01 1.180008e-02 -5.075703e-03 -1.010925e-02 3.613728e-04 -3.648133e-03 6.018590e-03 -4.070272e-04 5.145433e-03 -1.386879e-03 -2.034209e-03 2.228242e-03 -5.668813e-04 4.747386e-03 1.505508e-04 -5.956924e-05 -2.693164e-05 9.845916e-05 -3.148219e-05 -2.640060e-04 6.140335e-06 -1.449509e-04 8.799112e-05 7.853849e-05 5.416748e-05 1.577373e-04 1.723976e-05
<VARIANCE> 39
